150 64
45 -0.07984 -0.659445 0.0191675 0.43585 0.0539179 0.123843 -0.00122658 0.46231 -0.0914258 -0.245074 -0.0641004 -1.61928 -0.0165834 1.03936 -0.010233 0.0508614 0.248914 0.32428 -0.0391268 0.233422 -0.177697 0.0724185 0.0257075 0.131321 0.41905 0.0217961 -0.259304 0.442456 0.0697638 0.100059 0.0689812 0.191748 0.159452 -0.104597 -0.490818 -0.473741 -0.163596 0.00078374 0.0198134 -0.252657 0.150501 -0.208171 -0.505696 0.29919 0.200217 0.698618 -0.07261 -0.171108 -0.0879316 -1.36691 0.977884 0.822734 -3.40849 -5.63783 1.15221 1.3159 1.86567 -4.4058 -1.98025 -1.20546 -5.41796 2.70729 -1.39339 1.13616
125 0.00827866 -0.651788 0.12948 0.395774 0.0535889 0.341055 -0.103921 0.430455 0.0888646 -0.422209 -0.152403 -1.50601 0.0574528 0.785577 -0.00631418 0.172628 0.336285 0.2264 -0.0270704 0.248747 0.132375 0.19489 -0.0973082 0.196185 0.372658 -0.00455904 -0.246769 0.308466 -0.102099 0.248725 -0.00156588 0.0872208 0.279671 -0.201421 -0.54063 -0.232846 0.123147 -0.0578392 -0.0610159 -0.429401 0.362311 -0.348937 -0.427982 0.131741 0.395695 0.632348 0.105399 -0.226665 -0.166846 -1.12575 0.992159 0.738227 -3.4629 -5.54441 1.14267 1.52615 1.80632 -4.13496 -2.28265 -1.24326 -5.40289 2.909 -1.24441 0.987032
29 -0.199575 -0.609756 0.252637 0.583714 -0.0155023 0.33408 -0.149292 0.538209 -0.0964078 -0.156156 -0.00587888 -1.36296 -0.191993 0.552934 -0.203479 0.0129493 0.26099 0.275794 0.0784728 0.328879 0.0896425 0.1317 -0.0518486 0.249449 0.211226 0.167871 -0.113669 0.456098 -0.155734 0.162203 -0.171198 0.105167 0.0974517 -0.214991 -0.655094 -0.234713 0.0403148 -0.0235554 -0.197313 -0.563943 0.333673 -0.264363 -0.508756 0.258089 0.501892 0.481346 -0.224109 -0.120379 -0.101552 -1.29549 1.08948 0.881474 -3.38622 -5.80418 0.897564 1.36438 1.97838 -4.37959 -2.17555 -1.43102 -5.45695 2.67869 -1.37841 1.14286
73 -0.132954 -0.698359 0.1484 0.658063 -0.0178665 0.199743 -0.19182 0.350377 0.0304258 -0.242899 -0.130875 -1.54525 -0.301541 0.511269 -0.245237 0.0181221 0.557527 0.0404472 -0.0848556 0.274251 0.0306138 0.0594826 -0.0752523 0.139753 0.451135 -0.0795598 -0.195186 0.674622 0.0139254 0.21363 0.0460352 0.149281 0.213994 -0.211245 -0.491928 -0.0767887 -0.225874 -0.110229 -0.174023 -0.545988 0.175872 -0.146644 -0.354444 0.0214427 0.345862 0.511818 0.0445925 -0.315194 -0.0841382 -1.29536 1.07 1.00825 -3.28111 -5.50788 0.990578 1.29029 1.89812 -4.13713 -2.03673 -1.37423 -5.31818 2.658 -1.62763 1.23983
0 0.0688019 -0.504099 0.224098 0.488067 -0.076583 0.302263 -0.16031 0.354887 -0.132309 -0.302441 -0.0771912 -1.49989 0.0225584 0.65098 -0.0913821 0.15932 0.282375 0.225423 0.0966398 0.199943 -0.218247 0.0901291 -0.0320373 0.178605 0.397252 0.107893 -0.346924 0.556696 -0.0397763 0.187567 -0.0284994 0.0908186 0.338561 -0.225598 -0.466699 -0.299176 -0.13502 0.101387 -0.262327 -0.425279 0.283544 -0.295113 -0.466429 0.277864 0.249966 0.528767 -0.0208819 -0.241439 -0.018295 -0.909657 0.902047 0.857318 -3.26409 -5.68408 0.953453 1.35271 2.00604 -4.30118 -2.03546 -1.46056 -5.41505 2.78567 -1.50172 1.33763
59 -0.0727422 -0.780763 0.174668 0.62854 0.0157483 0.363647 -0.205666 0.455497 0.0687841 -0.299337 -0.0913575 -1.32114 -0.284124 0.659432 -0.18058 0.0334624 0.355198 0.0753839 -0.114064 0.177166 -0.048432 0.207585 -0.263698 0.134487 0.557805 -0.0422125 -0.271832 0.236763 -0.112119 0.288072 0.0463358 0.260965 0.096018 -0.207457 -0.393673 -0.388658 -0.0138064 0.125341 -0.246134 -0.187505 0.124379 -0.12411 -0.834261 0.368966 0.265675 0.669401 -0.130291 -0.289908 -0.0309679 -1.15465 0.928058 0.940148 -3.39227 -5.64737 0.826375 1.31601 1.91416 -4.11363 -2.02547 -1.41015 -5.34454 2.87515 -1.4121 1.36844
41 -0.187702 -0.49713 0.0587209 0.666275 0.013909 0.420169 -0.082643 0.429176 0.173726 -0.193272 -0.014745 -1.32345 -0.106449 0.828694 -0.165156 0.0469051 0.174853 0.469711 -0.0686332 0.242844 -0.194606 0.0864232 -0.0180899 0.239491 0.401456 0.0600269 -0.199329 0.439557 -0.0340676 0.225902 -0.261336 0.126828 0.195418 -0.285805 -0.687309 -0.183429 3.97584e-05 0.00548607 0.115541 -0.314796 0.0982501 -0.194114 -0.726579 0.113041 0.243935 0.45006 -0.267803 -0.354977 -0.146327 -1.26802 1.11643 0.872457 -3.3557 -5.37724 1.16378 1.35169 1.77005 -4.21513 -1.87978 -1.38463 -5.184 2.55069 -1.36724 1.36676
85 0.162131 -0.36368 -0.0480465 0.624745 0.0174943 0.236411 0.0980665 0.359871 0.104056 -0.155138 -0.0922363 -1.38512 -0.197281 0.726654 -0.141932 -0.0476196 0.28783 0.517951 0.00740753 0.359376 0.0926805 -0.0940775 -0.22085 0.136097 0.188343 0.144331 -0.235199 0.0972571 -0.279778 0.0829117 0.0912887 0.284497 0.302918 -0.361928 -0.382806 -0.252111 -0.153067 0.00769822 -0.434512 -0.425716 0.310439 -0.224602 -0.55365 0.127723 0.282062 0.695023 -0.158722 -0.108671 -0.15504 -1.16565 0.947071 0.818703 -3.35914 -5.48531 1.01546 1.26555 1.89763 -4.19084 -1.96037 -1.2033 -5.23099 2.6204 -1.36903 1.04249
127 -0.114071 -0.795224 -0.0759918 0.533866 0.0515994 0.222985 -0.110526 0.451766 0.0330304 -0.168338 -0.118182 -1.57462 -0.126039 0.513374 -0.253835 0.127603 0.1094 0.28506 -0.0679496 0.291028 0.109873 0.0379152 -0.065315 0.535802 0.522738 0.167477 -0.299374 0.57067 -0.064783 0.253572 -0.00188025 0.344148 0.426948 -0.287665 -0.729452 -0.382003 -0.258825 -0.172185 -0.202901 -0.6425 0.376065 -0.177713 -0.51727 0.0625575 0.43499 0.718776 0.00944391 -0.354312 0.119889 -1.28212 0.939579 0.915822 -3.21498 -5.28881 0.912955 1.24119 1.81146 -3.91263 -1.98602 -1.45362 -5.08964 2.57082 -1.25243 1.27062
129 -0.038319 -0.616321 -0.0199613 0.489994 0.11476 0.0420992 -0.310997 0.332304 0.188595 -0.31235 0.00457544 -1.38829 -0.0295239 0.603339 -0.446921 0.184967 0.14238 0.214022 0.0151079 0.164174 -0.0130007 -0.0785008 -0.188975 0.394568 0.488239 0.00117892 -0.318779 0.558366 -0.0449543 0.22251 0.0589881 0.223237 0.379861 -0.209418 -0.613274 -0.473729 -0.453468 -0.192557 -0.0865 -0.488779 0.108018 -0.393833 -0.324737 0.10672 0.266283 0.64424 0.0494756 -0.248397 -0.00951339 -1.19047 0.811999 0.988364 -3.07799 -4.95322 0.855658 1.08335 1.77246 -3.71142 -1.86358 -1.4672 -4.75607 2.24675 -1.23408 1.13536
49 0.111925 -0.495121 -0.0753533 0.711533 0.087919 0.0551419 -0.0763695 0.373233 -0.183753 -0.125819 -0.0237184 -1.5176 -0.119392 0.694149 -0.192424 0.13773 0.0383693 0.337254 0.251477 0.165501 -0.00720442 -0.111074 -0.182862 0.370952 0.53628 0.385828 -0.511912 0.570313 -0.158732 0.319561 0.157373 0.0751556 0.194566 -0.396579 -0.652379 -0.310389 -0.0274163 -0.0373801 -0.255455 -0.57117 0.0117967 -0.40178 -0.355747 0.0550699 0.405334 0.68426 -0.0323092 -0.424953 0.0852378 -1.21417 0.791 0.904259 -3.05436 -4.69765 0.815754 1.06432 1.79384 -3.5956 -1.90185 -1.44388 -4.59055 2.11378 -1.10356 1.20338
143 0.111893 -0.476664 -0.101575 0.500993 0.240389 0.132413 -0.243074 0.491093 0.000423358 -0.254035 -0.0154123 -1.36461 -0.104028 0.826062 -0.382658 -0.00107304 0.292622 0.389379 0.316425 -0.0603271 -0.0243494 -0.133059 -0.0112124 0.238884 0.566228 0.347331 -0.434372 0.286859 -0.0443126 0.303802 0.106162 0.247387 0.163058 -0.260569 -0.621569 -0.237871 0.147525 -0.177952 -0.263696 -0.572265 0.0407311 -0.39743 -0.318382 -0.0273965 0.304544 0.70538 -0.231605 -0.38987 0.0916454 -1.15249 1.05249 0.874738 -3.02365 -4.76104 0.768978 1.20741 1.62469 -3.75722 -1.85435 -1.34311 -4.77349 2.29686 -1.22727 1.11686
123 0.209454 -0.514263 0.136114 0.435865 0.000357843 0.254874 -0.299279 0.412382 -0.0277832 -0.15041 -0.15296 -1.30766 -0.13186 0.640161 -0.37107 -0.0117357 -0.000164471 0.183288 -0.0321007 0.0728549 -0.0172105 0.0275294 -0.233983 0.174053 0.212281 0.138681 -0.205664 0.386454 -0.120079 0.272072 0.135595 0.245022 0.0593397 -0.280877 -0.457369 -0.257433 -0.193556 0.091453 -0.241789 -0.62839 0.249126 -0.244023 -0.349603 0.182823 0.438182 0.397497 -0.131893 -0.403408 -0.0929671 -1.1737 0.761985 0.948915 -3.03219 -4.984 0.872856 1.24344 1.5579 -3.81574 -1.85661 -1.21444 -4.8277 2.45082 -1.08076 1.05463
13 0.0588694 -0.145388 0.099986 0.527234 0.158431 -0.0150303 0.0155806 0.553991 0.0163573 -0.233564 -0.155032 -0.95708 0.101928 0.38648 -0.229566 0.0926359 0.114478 0.125468 -0.250441 0.0359289 -0.0553071 -0.0271108 -0.260312 0.154487 0.379009 0.0693724 -0.135122 0.485369 -0.0905973 0.218478 -0.0262368 0.250859 0.138879 -0.14488 -0.407319 -0.24423 0.00304188 0.109472 -0.0430632 -0.448901 0.214242 -0.171456 -0.109173 0.133708 0.373793 0.483618 -0.161414 -0.0912513 -0.00453171 -0.92693 0.758884 0.861571 -3.25105 -5.49014 0.701946 1.31516 1.81029 -4.00233 -1.97783 -1.32203 -4.99378 2.5767 -1.14185 1.12452
83 -0.0105336 -0.492374 0.0799794 0.586604 0.279034 0.183952 0.037645 0.358453 0.000865705 -0.119528 -0.147238 -1.35526 -0.209502 0.385362 -0.249153 0.134609 0.0721845 0.219251 0.0346734 0.14022 -0.16984 0.0213519 -0.172141 0.193562 0.269855 -0.0100549 -0.205291 0.281384 -0.208517 0.29394 -0.0808621 0.18062 0.131392 -0.241264 -0.447883 -0.221951 -0.0680488 -0.0879984 -0.237755 -0.30346 8.66383e-05 -0.259026 -0.334666 -0.00134334 0.418312 0.356412 0.0649958 -0.0447819 -0.143448 -1.00228 0.855524 0.881012 -3.24476 -5.29742 0.973598 1.36007 1.7673 -3.88348 -2.03005 -1.24958 -5.01372 2.56099 -1.10842 1.0136
31 -0.0408657 -0.486684 -0.0116795 0.386655 -0.0813262 0.12635 0.0808108 0.536363 -0.111723 0.0152334 -0.205847 -1.35676 -0.0918317 0.813773 -0.20072 0.217204 0.032178 0.202625 0.105471 0.191253 0.111013 0.243271 -0.248238 0.199821 0.493646 -0.169481 -0.0131664 0.45747 -0.290242 0.377652 0.0605877 0.316149 0.147448 -0.128975 -0.600659 -0.211352 -0.0213244 0.11071 -0.259926 -0.472273 0.000717695 -0.236613 -0.459846 0.243329 0.264565 0.469563 -0.146107 -0.127806 0.126864 -0.888341 0.726369 0.954259 -3.05147 -5.16527 0.932258 1.36492 1.68575 -3.77471 -1.88261 -1.38542 -4.97019 2.58071 -1.1037 1.26489
19 0.0134109 -0.664741 0.25672 0.49577 0.192486 0.183498 -0.17017 0.333117 -0.00511353 -0.0411941 -0.289489 -1.29628 -0.0590683 0.645176 -0.132326 0.183718 0.129057 0.247834 0.183319 0.250931 0.0163917 -0.0144304 -0.251837 0.27202 0.376518 0.227095 -0.266897 0.345554 -0.274196 0.285594 0.131542 0.202031 0.00984865 -0.175801 -0.515665 -0.298847 -0.219592 -0.170802 -0.128209 -0.0824179 0.148837 -0.303734 -0.433741 0.119839 0.313505 0.390331 0.0724723 -0.00532266 -0.0829163 -1.02208 0.910179 1.10225 -3.08589 -5.12945 0.95769 1.25474 1.80643 -4.07602 -1.95695 -1.17062 -4.94507 2.52973 -1.13019 1.28279
113 0.0815006 -0.388391 0.137495 0.649759 0.0476981 0.209815 0.0738291 0.592247 -0.0767455 -0.256689 -0.160414 -1.06598 -0.227569 0.683974 -0.0864107 0.13435 0.13791 -0.0175218 -0.0076791 -0.0331099 -0.0375951 0.147735 0.0292633 0.265898 0.247992 -0.0128831 -0.197617 0.376271 0.0206573 0.138903 -0.038714 0.169788 0.0988251 -0.359831 -0.544939 -0.210264 -0.0485468 0.0489915 -0.249481 -0.272635 -0.0298548 -0.360202 -0.206227 0.117606 0.403577 0.414445 -0.134859 -0.241526 -0.0996939 -0.863179 0.888574 0.952027 -3.25102 -5.53773 1.01952 1.25215 1.77762 -4.12237 -2.06963 -1.34519 -5.16604 2.79718 -1.1459 1.06178
124 -0.136579 -0.779107 0.151437 0.468263 0.0642878 0.152914 -0.22393 0.52482 -0.127136 -0.069492 -0.0413133 -1.34167 -0.271402 0.683594 -0.154036 -0.0364342 0.128615 0.256116 0.147767 0.0632733 0.00731249 0.226436 -0.21302 0.306978 0.491435 0.34869 -0.361081 0.429454 -0.136001 0.261815 -0.016377 0.381146 0.295724 -0.0715412 -0.658596 -0.308754 -0.0885499 -0.116657 -0.193367 -0.220532 0.139502 -0.304328 -0.525839 0.18737 0.357652 0.561963 -0.030091 -0.18798 -0.141678 -1.10615 0.863625 0.909358 -3.06145 -4.99673 0.9891 1.31947 1.70787 -3.99413 -1.92841 -1.24854 -4.92189 2.51693 -1.06739 1.19664
43 0.114798 -0.463647 0.144992 0.516429 0.147042 0.135885 -0.0214337 0.456471 0.0436199 -0.133348 -0.255382 -1.10817 -0.158064 0.415976 -0.264008 0.0388853 0.00726971 0.173635 -0.164648 -0.0106178 -0.0419147 0.0169074 -0.197677 0.150987 0.3338 0.0403911 0.0421144 0.327487 -0.21202 0.183859 0.0899927 0.104486 0.368053 -0.256963 -0.344616 -0.238447 -0.0959826 -0.130828 -0.0544346 -0.347545 0.118576 -0.114934 -0.356005 0.137189 0.53166 0.264409 0.0366997 -0.143745 0.0302626 -0.850807 0.962968 0.839051 -3.34046 -5.68239 0.895329 1.24926 1.86224 -4.05746 -1.98653 -1.42504 -5.14529 2.66741 -1.18443 0.98249
89 -0.130337 -0.541066 0.0628973 0.60825 0.0961779 0.169912 -0.0301352 0.390509 -0.1371 -0.220066 0.0243684 -1.29776 -0.310441 0.559804 -0.296727 -0.0207023 0.207455 0.192424 -0.030215 0.335048 -0.0373854 0.00354169 -0.113898 0.101606 0.388384 0.112659 -0.388596 0.374905 -0.0934069 0.209252 0.0363442 0.224436 0.297887 -0.130911 -0.699963 -0.293097 -0.228961 -0.141603 -0.254618 -0.47082 0.0505238 -0.362013 -0.415699 0.11524 0.393498 0.457502 0.039548 -0.110447 -0.123128 -1.09014 0.852979 0.917418 -3.01656 -5.02762 1.02035 1.27894 1.52907 -3.91732 -1.94842 -1.42567 -4.81159 2.47499 -1.10245 1.03751
60 0.0582317 -0.287067 0.197501 0.688903 0.373375 0.103344 0.0400165 0.710481 0.102419 -0.138154 -0.147778 -1.13869 -0.157722 0.63645 -0.219856 -0.0165531 0.215795 0.136809 -0.0354688 0.0540117 -0.0159169 0.0146365 -0.154254 0.107019 0.449599 0.158188 -0.440326 0.123655 -0.148705 0.0205481 0.234922 0.267302 0.362077 -0.147502 -0.505279 -0.0980571 -0.0180135 -0.0330083 -0.104585 -0.623408 0.211677 0.11258 -0.373881 0.115792 0.236284 0.493828 -0.0450286 -0.284358 -0.0648505 -0.96971 0.809742 0.741293 -2.75118 -4.72156 0.840094 0.923493 1.60723 -3.43304 -1.90516 -1.17472 -4.52391 2.36883 -0.895712 0.924388
146 0.220925 -0.678628 0.318279 0.427063 -0.164586 0.0202854 -0.213747 0.423302 0.102007 -0.22229 -0.0208528 -1.29003 0.0267546 0.737536 -0.452604 0.00587817 0.110152 0.266087 -0.1795 -0.0656561 -0.0524963 0.00133467 -0.418384 0.212579 0.487401 0.276136 -0.562625 0.415434 -0.383958 0.274818 -0.0178103 0.474116 0.130296 -0.33024 -0.799226 -0.325275 -0.283374 0.0180105 0.00514242 -0.763557 0.260508 -0.328858 -0.577527 0.263488 0.443061 0.677466 -0.109877 -0.317627 0.193974 -1.15494 0.751754 1.16222 -2.86753 -4.42416 0.936546 1.111 1.29831 -3.55892 -1.89922 -1.19374 -4.42575 1.97861 -1.08332 1.13885
22 0.0480315 -0.436562 0.17381 0.362792 -0.0658829 0.160882 -0.0300553 0.609617 0.0816435 -0.313284 -0.138754 -1.27269 -0.465997 0.656323 -0.108574 -0.0442323 0.196226 0.368267 0.032029 0.182811 -0.174635 -0.0133902 -0.067001 0.187342 0.519476 0.137487 -0.0533354 0.353858 -0.131651 0.429176 -0.0336265 0.354397 0.121934 -0.250269 -0.745941 -0.279792 0.0407019 -0.0427495 -0.106823 -0.322737 0.0854613 -0.163256 -0.521757 0.103734 0.320556 0.388929 -0.139639 -0.53492 -0.0755169 -1.06766 1.11897 0.954519 -2.87716 -4.82633 1.08077 1.22926 1.42539 -3.66747 -1.91902 -1.18593 -4.70589 2.29027 -1.14808 1.37692
133 0.113689 -0.799603 0.253283 0.435984 -0.127662 0.272941 -0.19678 0.427901 0.0169366 -0.123171 -0.133128 -1.35862 -0.0419012 0.806367 -0.291602 0.0196972 0.00909851 0.118928 -0.0188788 -0.0333003 0.00721567 0.0478938 -0.216318 0.124911 0.263111 0.207933 -0.327335 0.324062 -0.133644 0.194436 0.130894 0.159067 0.287931 -0.252551 -0.685515 -0.448938 -0.18804 0.0233237 -0.229547 -0.52246 0.1796 -0.285289 -0.491596 0.289673 0.394032 0.343982 -0.152037 -0.24092 -0.0247176 -1.1782 0.928933 0.896826 -2.95631 -4.89007 0.820934 1.28936 1.50284 -4.01472 -1.85162 -1.3 -4.8448 2.4489 -1.15946 1.15727
78 -0.0201559 -0.555319 0.384817 0.472236 0.0314856 0.0986734 -0.125551 0.341317 -0.0789807 -0.208989 -0.044072 -1.3413 -0.0474154 0.735877 -0.150064 0.0268625 0.134426 0.233762 0.0170265 0.274968 0.00322501 -0.024378 -0.380511 0.0765052 0.412053 -0.0223947 -0.363523 0.427002 -0.216583 0.247396 -0.0928388 0.354611 0.230068 -0.352463 -0.568858 -0.408049 -0.125221 0.066237 -0.147342 -0.489197 0.346118 -0.261919 -0.331215 0.198714 0.259641 0.526182 -0.0949081 -0.353452 0.132168 -1.19786 1.07231 0.969889 -2.79867 -4.99018 0.984309 1.45853 1.44835 -3.82122 -2.0481 -1.30606 -4.83674 2.43043 -1.03094 1.17937
20 0.143336 -0.546933 -0.00662112 0.428071 0.0692158 0.296729 -0.101758 0.67159 -0.0114946 -0.29978 -0.13468 -1.2732 -0.235706 0.522162 -0.25855 0.22358 -0.0597393 0.102818 0.143342 0.167282 -0.0194316 -0.055893 -0.050982 0.214405 0.391066 0.0451481 0.0363144 0.17857 -0.191577 0.19059 0.0886627 0.178128 0.150951 -0.287423 -0.521969 -0.211178 -0.085508 0.0163893 -0.106812 -0.462273 0.050846 -0.306148 -0.377027 0.26334 0.317313 0.594598 0.0139489 -0.195796 0.0146491 -0.889621 0.830994 0.741847 -3.16853 -5.4603 0.927311 1.3619 1.66015 -3.9103 -2.03902 -1.31324 -5.01883 2.53757 -1.25214 1.31684
67 0.0819882 -0.492199 0.235063 0.357657 -0.0583018 0.169244 0.046803 0.3112 -0.170737 -0.143119 -0.00474302 -1.29113 -0.129986 0.800663 -0.24493 -0.0130239 0.0683027 0.335686 0.0722327 0.364588 0.174238 0.116246 -0.162144 0.0140945 0.28741 -0.206821 -0.317338 0.499648 0.00571988 0.199735 0.0619584 0.0661636 0.348382 -0.260036 -0.399198 -0.286171 0.0109178 -0.0999294 -0.357515 -0.580766 -0.0861462 -0.220318 -0.432095 0.0172612 0.321029 0.405566 -0.0633302 -0.329386 8.33924e-06 -1.12657 0.901709 0.70709 -3.09111 -5.41825 0.95218 1.19484 1.61868 -4.05092 -2.0151 -1.27605 -5.04629 2.5697 -1.16591 1.14319
115 -0.084312 -0.600851 -0.104166 0.445666 0.120909 0.185899 -0.0390437 0.474492 0.0519022 -0.0804304 -0.0644129 -1.17644 -0.133483 0.416745 -0.312735 -0.0890396 0.161487 0.0545442 -0.0493139 -0.141406 0.0333905 0.139558 -0.228705 0.0593781 0.290702 0.193522 -0.24489 0.119705 -0.166556 0.177351 -0.252336 0.106632 0.176375 -0.237227 -0.443145 -0.270962 -0.0906732 0.0943734 -0.360355 -0.415506 0.130227 -0.274144 -0.414676 0.240691 0.299241 0.436689 0.0910393 -0.269718 -0.0997664 -1.13855 0.860405 0.775771 -2.95764 -5.30699 0.796461 1.4872 1.59722 -4.08111 -1.86326 -1.31003 -4.97549 2.47399 -1.15709 1.12494
64 0.109108 -0.559751 0.279113 0.451015 0.156899 0.324395 -0.0604917 0.423706 0.17544 -0.296586 -0.138652 -1.29381 -0.198889 0.528941 -0.0286213 -0.022472 0.142128 0.246511 0.0165201 -0.00334241 0.0592977 0.0765781 -0.2742 0.183734 0.36674 0.0643832 -0.356179 0.394506 -0.194812 0.431355 0.0534454 0.329117 0.111164 -0.0256651 -0.582761 -0.352034 -0.0355773 0.0779086 -0.268517 -0.415685 0.150102 -0.137624 -0.343945 0.195322 0.234927 0.475344 -0.0908455 -0.0768625 -0.14002 -1.03173 1.09932 0.784389 -2.86788 -4.92735 0.7742 1.15914 1.58059 -3.75323 -1.84923 -1.10978 -4.7421 2.24583 -1.17342 1.19147
88 0.105711 -0.326501 0.177087 0.492323 0.0620726 0.0892765 0.176882 0.529097 -0.0718149 -0.19069 -0.035341 -0.994131 -0.0513145 0.383874 -0.118776 0.177825 -0.165317 0.0802901 -0.0245624 -0.0162115 -0.0383964 -0.00289485 -0.256335 0.145577 0.225681 0.0612773 -0.163353 0.289616 -0.263626 0.253185 -0.131242 0.0853088 0.257778 -0.168781 -0.315129 -0.143245 0.0738794 0.0624773 -0.242976 -0.406173 0.192396 -0.238013 -0.32583 0.000980868 0.244931 0.518236 0.130833 -0.0771154 0.0420212 -0.988359 0.954834 0.790939 -3.3812 -5.77189 0.953055 1.23627 2.00266 -4.01004 -2.15226 -1.29018 -5.17405 2.57195 -1.34169 1.09605
50 0.0275505 -0.609629 0.169357 0.684076 -0.0775969 0.236061 -0.282865 0.649507 -0.0484895 0.0836745 -0.277423 -1.11409 -0.0347054 0.616311 -0.239755 0.255372 0.0808382 -0.0486314 0.369975 0.186864 0.00119784 -0.0985179 -0.0868796 0.157569 0.449611 0.134347 -0.3616 0.429857 0.0671828 0.0579999 0.197201 0.170564 0.429839 -0.296456 -0.469267 -0.216378 -0.0330031 0.0440317 0.0324184 -0.562376 0.152627 -0.136814 -0.540062 0.0392635 0.444184 0.373768 0.024923 -0.251693 -0.140685 -1.13761 0.869949 0.826626 -2.90938 -4.77698 0.773124 1.17846 1.6806 -3.71634 -1.94004 -1.16548 -4.68973 2.21289 -1.23935 1.15931
138 0.0395765 -0.49915 0.111051 0.463696 -0.126386 0.133528 -0.379627 0.455624 -0.00296373 -0.19428 0.0570013 -1.29856 -0.0526726 0.716297 -0.374548 0.210187 -0.018765 0.0479692 0.0688789 0.11565 0.0528546 -0.162086 -0.317167 0.252973 0.694515 0.0807118 -0.446623 0.51801 0.0298021 0.173918 0.0609419 0.155499 0.139082 -0.153962 -0.72649 -0.503197 -0.327815 0.103105 -0.155619 -0.627607 0.194783 -0.289311 -0.445043 0.0626429 0.213789 0.607879 -0.147554 -0.435518 -0.0549498 -1.14874 0.757413 0.785702 -3.08552 -4.55988 0.798506 0.862653 1.78804 -3.60488 -1.82863 -1.39313 -4.53064 2.15649 -1.03679 1.22595
84 0.0589103 -0.399952 0.100905 0.35842 0.118246 0.0576447 -0.142681 0.420128 -0.289903 -0.0466302 -0.156856 -1.12326 0.028995 0.777106 -0.291322 -0.16548 0.159126 0.320384 0.170572 -0.0488908 0.0298904 0.088199 -0.410657 0.112514 0.407335 0.275066 -0.19355 0.451794 -0.0626458 0.318038 -0.00293647 0.123517 0.217492 -0.187012 -0.294927 -0.149669 -0.0895509 -0.0821381 -0.161488 -0.434754 0.222279 -0.191177 -0.337321 0.271232 0.516142 0.3107 -0.144867 -0.356334 -0.10202 -1.01986 0.72112 0.936509 -3.16858 -5.22963 0.946149 1.14807 1.73708 -3.83222 -1.97255 -1.1851 -4.88411 2.45388 -1.19295 1.17193
137 0.238571 -0.36751 -0.206676 0.973607 0.300474 -0.127037 -0.122095 0.682219 -0.116087 -0.154066 -0.0598279 -1.58281 0.284963 0.280485 0.0386494 0.179961 -0.0878105 0.0570027 -0.530978 0.0706606 -0.0949891 0.190121 -0.262104 0.346899 0.413727 0.314085 -0.715892 0.516403 -0.300481 0.391589 -0.0822301 0.310551 0.321847 -0.454359 -1.11082 -0.183556 -0.0438567 -0.0314855 -0.218144 -0.758983 -0.280717 -0.325057 -0.456982 0.301544 0.462137 0.329612 0.045644 -0.100444 0.131337 -0.880835 0.775523 0.759534 -2.36745 -3.90017 0.660249 0.790355 1.45139 -2.60099 -1.6299 -1.32174 -3.7492 1.41492 -0.6553 1.03624
98 0.294971 -0.345914 0.00840973 0.704623 0.263495 -0.183051 -0.213019 0.795035 -0.0679302 -0.0749344 -0.177821 -1.53985 0.161591 0.494035 -0.444139 0.299255 -0.0704941 0.249734 -0.494292 -0.167787 -0.311921 0.41349 -0.409647 0.255794 0.663821 0.333113 -0.619021 0.147343 -0.489458 0.440436 -0.0458761 0.290307 0.319587 -0.496557 -0.859681 0.00119609 -0.107107 0.0536757 -0.000906408 -0.591899 -0.0177408 -0.163294 -0.35948 -0.173469 0.467569 0.431402 -0.0709108 -0.127447 0.123641 -0.766868 0.86564 0.600857 -2.31646 -3.8079 0.425308 0.5783 1.52093 -2.68321 -1.39066 -1.2164 -3.6259 1.30058 -0.916839 0.856869
7 0.12123 -0.339817 0.089673 0.472131 0.0455782 0.0607272 0.0150586 0.432569 0.0180527 -0.0798668 -0.0901022 -0.958255 -0.042032 0.397375 0.0115857 0.178522 -0.0597673 0.175531 -0.128417 0.147139 0.0666517 -0.00558745 -0.0714953 0.162183 0.201425 0.0833158 -0.283155 0.0932198 0.00506292 0.307762 -0.0657836 0.0461139 -0.0624616 -0.202568 -0.435798 -0.137003 -0.104608 0.132207 -0.0996547 -0.210002 0.0305922 -0.18167 -0.16106 0.143989 0.471058 0.36262 -0.157225 -0.181883 0.0861697 -0.776737 0.786869 0.641573 -2.86707 -4.84139 0.649627 1.12844 1.51702 -3.42806 -1.71002 -1.23758 -4.44704 2.06329 -1.08371 0.891625
10 0.0160472 -0.515989 -0.0389629 0.573024 0.236755 0.0790391 -0.0454481 0.28073 -0.00615534 -0.242573 -0.072469 -1.01416 0.0440435 0.505298 -0.205519 0.203506 0.162314 0.263634 0.0263151 0.172378 -0.0939071 0.0289189 -0.13457 0.165863 0.280448 0.105676 -0.0834058 0.303499 -0.256742 0.0844731 -0.0462707 0.0581643 -0.00732719 -0.0939338 -0.269872 -0.188989 -0.134723 0.0618076 -0.259276 -0.256666 0.132199 -0.103474 -0.274861 -0.0875578 0.181038 0.31564 -0.0545349 -0.175321 -0.0451006 -0.787032 0.550229 0.681297 -2.77067 -4.89106 0.802866 1.03175 1.2872 -3.45569 -1.92016 -1.04851 -4.45746 2.14274 -1.01917 0.91133
39 0.13543 -0.557072 0.0364694 0.385117 0.126349 0.032727 -0.0587982 0.166618 0.00612471 -0.0427456 -0.350227 -1.17804 0.0752777 0.393403 -0.12277 -0.111501 0.120932 0.118973 -0.0906276 0.0770215 0.108466 -0.0661438 -0.0799217 0.216971 0.212326 0.174466 -0.11665 0.162147 0.0984724 0.322711 -0.0547586 0.259393 0.271819 -0.0181606 -0.30819 -0.108082 -0.166174 -0.0905376 -0.04971 -0.246731 0.0288421 -0.232398 -0.321398 0.114751 0.211584 0.458609 -0.226737 -0.250427 -0.0634226 -0.830769 0.873364 0.559452 -2.75153 -4.68719 0.906403 1.04262 1.52718 -3.3895 -1.6483 -1.26518 -4.58464 2.13683 -1.05302 1.01018
15 -0.0969714 -0.30823 0.0735908 0.371568 0.0678146 0.21443 -0.0152322 0.385302 0.0934614 -0.217339 -0.0604102 -1.16258 -0.0785436 0.631921 -0.17055 -0.0256087 0.171651 0.083399 -0.0770632 0.0346066 0.104764 0.14898 0.0859792 -0.0722662 0.24842 0.116067 -0.258268 0.293102 0.0327095 0.224468 0.122951 0.113015 0.0968203 -0.0667786 -0.477354 -0.229437 -0.130102 -0.0250171 -0.182047 -0.248784 0.208496 -0.167151 -0.341053 0.0812111 0.121836 0.340781 -0.0556531 -0.180149 -0.0841042 -0.77632 0.704026 0.81675 -2.88232 -4.65561 0.827563 1.13349 1.39609 -3.48795 -1.69117 -1.16646 -4.50431 2.02761 -1.10127 1.06436
82 0.104188 -0.405592 -0.0151509 0.486281 -0.0246221 0.060121 -0.0568566 0.341911 -0.0764248 -0.120719 -0.157231 -1.01334 -0.180085 0.490851 -0.147828 0.15481 0.265245 -0.108236 0.00759746 -0.0703044 0.11198 0.0412382 -0.212899 0.207694 0.188889 -0.0465558 -0.101664 0.394186 -0.144038 0.154624 0.0145932 0.132422 0.220609 -0.220198 -0.298718 0.0303155 -0.184447 -0.076246 -0.161791 -0.183979 0.240559 -0.0770503 -0.293549 0.013917 0.381413 0.212732 0.0371416 -0.285036 0.0471219 -0.790249 0.633163 0.673522 -2.98567 -4.77945 0.729248 0.865386 1.4826 -3.3468 -1.71074 -1.26242 -4.46449 2.10332 -1.06507 0.778393
2 -0.0520411 -0.40365 0.318662 0.423594 0.0826582 0.0248596 -0.214609 0.237735 -0.246816 -0.2632 -0.35387 -1.09486 -0.423745 0.722568 0.123939 0.224126 0.00158771 0.298049 0.0819245 0.1819 0.0918648 0.0385716 0.00826998 0.155261 0.401004 -0.0216236 -0.199941 0.442249 -0.105788 0.0933564 0.155854 0.26114 0.146595 -0.157955 -0.462961 -0.298248 0.0453877 -0.130942 0.0266106 -0.240975 0.313413 -0.210798 -0.280166 0.0334984 0.25115 0.502383 -0.127564 -0.0598675 -0.0855101 -0.905702 0.752826 0.791101 -2.72226 -4.60875 0.796894 1.10219 1.56798 -3.31224 -1.70604 -1.23631 -4.52645 2.05564 -1.02362 1.06351
6 -0.169524 -0.520801 -0.107601 0.396644 0.164738 0.0975135 -0.276565 0.358212 0.054504 -0.130101 0.0488798 -1.15101 -0.149779 0.642911 0.0414008 0.0476089 0.103759 0.157127 -0.0887843 0.0318882 0.0826286 -0.0231637 -0.212112 0.0885018 0.257998 -0.0836695 -0.0134029 0.273618 -0.130278 0.363532 0.0296654 0.230396 0.2526 0.0883976 -0.552522 -0.174784 -0.20534 -0.0424438 -0.11993 -0.414538 0.258421 -0.287435 -0.386624 -0.0720388 0.427743 0.304637 -0.129252 -0.264893 -0.105109 -0.895996 0.791184 0.560045 -2.69118 -4.62752 0.75479 0.884975 1.48445 -3.41961 -1.88677 -1.044 -4.47749 2.22279 -0.967477 1.06097
14 0.123519 -0.24936 0.20435 0.385062 -0.12665 0.10463 -0.14891 0.234081 -0.0855997 -0.197025 -0.0926803 -1.32725 -0.0743727 0.38768 0.0802481 0.0907013 0.167083 0.304615 0.142452 0.216497 -0.101189 0.100294 -0.266374 0.12201 0.212688 0.0276372 -0.198684 0.225732 -0.0226207 -0.0897033 0.0815249 0.0889124 0.11055 -0.247183 -0.422092 -0.0678642 -0.197471 0.161491 -0.0572734 -0.250853 0.0222412 -0.116553 -0.440117 0.120494 0.250102 0.448507 0.0266706 -0.0799593 -0.0268973 -0.83766 0.709967 0.735257 -2.72803 -4.67914 0.760786 0.973086 1.34811 -3.53229 -1.71197 -1.27623 -4.45674 2.15029 -0.971568 0.950119
25 0.159452 -0.495486 0.132278 0.412978 0.109454 0.0262048 -0.175102 0.340481 -0.294173 -0.176581 -0.123622 -1.1521 -0.0885986 0.609039 0.0277151 0.297102 0.174475 0.0784697 0.148584 -0.123789 0.0168564 -0.0108596 -0.0200106 -0.0326265 0.401304 0.10986 -0.182759 -0.0108341 -0.145881 0.199158 0.0769126 0.261731 0.0454205 -0.230285 -0.423341 -0.3262 -0.178776 -0.056727 -0.29086 -0.391047 0.305231 -0.19313 -0.329655 0.126034 0.389192 0.469199 0.00166127 -0.160053 0.0158305 -0.933201 0.746174 0.671799 -2.53463 -4.7456 0.662888 1.06713 1.44762 -3.34038 -1.85581 -1.28295 -4.39336 1.9912 -0.986132 0.782996
74 0.0177245 -0.268249 0.0383294 0.462255 0.0857906 0.21343 -0.0553893 0.234056 -0.0380816 -0.0426812 -0.154179 -1.12795 -0.0117776 0.517908 0.0238491 0.118086 0.167648 0.257613 0.0849435 0.171216 -0.103883 0.165594 -0.206716 -0.0288639 0.325929 0.320519 -0.0978264 0.193164 0.016962 -0.0851756 0.088381 0.16759 0.102869 -0.140328 -0.335172 -0.0557773 -0.021613 -0.0232865 -0.134309 -0.255445 0.0182509 -0.138996 -0.181466 -0.0810468 0.36053 0.466164 -0.0935402 -0.308701 0.0977574 -1.00005 0.707519 0.709233 -2.83084 -4.6791 0.717617 1.05157 1.5009 -3.39487 -1.79433 -1.23149 -4.49753 2.15948 -1.09982 1.01669
33 -0.0812664 -0.311904 0.3307 0.332686 0.0153908 0.168056 -0.00136654 0.524241 -0.146054 -0.109138 -0.127159 -1.09294 -0.0778115 0.567194 -0.000381796 0.0874897 0.00774752 0.152913 -0.0429329 0.183895 -0.25686 0.148532 -0.328201 -0.0131763 0.260484 -0.0257652 -0.0862067 0.16793 0.0863463 0.313679 0.00663924 0.0889275 0.220449 -0.197632 -0.270414 -0.238523 -0.131038 0.0915966 -0.0524293 -0.445233 0.284057 -0.232748 -0.318195 -0.00202832 0.403794 0.351846 -0.0351082 -0.0797523 -0.0858553 -0.831994 0.756463 0.588165 -2.98119 -4.6595 0.726041 1.23486 1.43147 -3.33423 -1.71798 -1.1793 -4.49727 2.22929 -0.980743 0.868584
71 -0.0148905 -0.282545 0.0210047 0.389286 0.0500426 -0.00838333 -0.124697 0.261393 0.043182 -0.119823 -0.148762 -1.22357 -0.443398 0.67182 -0.17109 0.0608504 0.0964238 0.107912 -0.05694 0.23643 0.212139 0.0502428 -0.165948 0.103377 0.179286 0.0864582 -0.259676 0.171609 -0.0963916 0.00480523 0.0890247 0.0163704 0.266973 -0.139253 -0.489288 -0.0897903 -0.136124 -0.0541911 -0.0661111 -0.317298 0.175705 -0.231296 -0.293322 0.0661768 0.286832 0.390094 -0.115884 -0.119634 0.107742 -0.7531 0.650991 0.502967 -2.80865 -4.64936 0.555235 1.25521 1.44396 -3.47219 -1.82763 -1.01439 -4.4782 2.16121 -1.13198 1.01081
54 -0.0951621 -0.445276 0.164811 0.489671 0.00716704 0.162359 -0.0553052 0.442414 -0.0069884 -0.163402 -0.0985067 -1.13181 -0.0676363 0.366864 -0.120929 -0.00637761 -0.0126251 0.0567045 -0.132282 0.158706 0.0913991 0.08827 -0.0879755 0.215559 0.212854 0.0444276 -0.210169 0.112057 0.025552 0.0906896 -0.0321704 0.226061 0.213977 -0.178804 -0.204128 -0.0718532 -0.159376 -0.085633 -0.0885161 -0.16718 0.197886 -0.245232 -0.264352 0.190032 0.163799 0.451157 -0.0691332 -0.299762 -0.0536273 -0.885019 0.730586 0.748663 -2.86025 -4.79911 0.905864 0.951132 1.48962 -3.3202 -1.93001 -1.1661 -4.43329 2.11778 -0.950794 1.03682
96 0.114824 -0.427124 -0.00424455 0.403121 0.0416612 0.116518 -0.132582 0.385101 -0.00242233 -0.246954 0.00954868 -1.04233 -0.13309 0.486525 -0.0382138 -0.0920992 0.0658454 0.30727 0.157637 0.154937 0.108061 0.120613 0.0115772 0.0561871 0.360917 0.0780267 -0.225202 0.19732 0.0957678 0.0169698 0.0546114 0.106799 0.252965 -0.257009 -0.173461 -0.318531 -0.316414 0.132487 -0.230538 -0.380761 0.232472 -0.0465807 -0.381129 0.250662 0.258093 0.167097 -0.0467966 -0.123482 -0.0246363 -0.966839 0.65472 0.925984 -2.79785 -4.53908 0.840516 1.27346 1.57867 -3.43724 -1.65237 -1.27405 -4.54233 2.13118 -0.976841 1.02276
53 0.171657 -0.223996 0.127832 0.71253 -0.288581 -0.12494 -0.158335 -0.00133464 -0.176356 0.130887 0.00356518 -1.33496 -0.320587 0.592209 -0.392151 0.2993 0.172604 0.0938507 -0.335885 -0.270961 0.0320573 -0.530025 -0.286593 0.485851 1.01809 0.437664 -0.660407 0.544208 -0.180082 0.135018 0.0251209 0.405856 0.598552 -0.467771 -0.743359 -0.344751 -0.248137 0.00111645 -0.165066 -0.851535 0.0555317 0.0874383 -0.534497 0.126731 0.59405 0.632441 0.261687 -0.429751 -0.065329 -0.892135 0.793728 0.756733 -2.27428 -3.84068 0.607821 0.704754 1.60449 -2.78969 -1.61322 -0.999136 -3.70732 1.41765 -0.660421 1.1319
34 -0.0458303 -0.445018 0.0628941 0.389409 0.0964133 0.0266923 -0.159419 0.261055 -0.292392 -0.35855 -0.144194 -0.989815 -0.165833 0.698628 -0.0985872 0.128768 0.0793618 0.0930896 -0.288413 0.0805657 0.0188502 0.136857 -0.019936 0.198861 0.15292 0.0440983 -0.228896 0.400696 -0.228245 0.212478 0.0620499 0.222751 0.0469821 -0.292786 -0.373925 -0.329535 0.0220995 0.208964 -0.0986582 -0.464992 0.114213 -0.150438 -0.18142 0.0330388 0.296129 0.322424 -0.0393043 -0.213387 -0.0506403 -0.818433 0.637866 0.7523 -2.91584 -4.51826 0.762433 1.23836 1.39362 -3.55588 -1.60112 -1.1774 -4.40029 2.06711 -1.0765 1.04108
11 -0.00664744 -0.281971 0.00133127 0.308796 0.0252754 -2.62963e-05 -0.130756 0.319767 -0.0062252 0.044074 0.037086 -1.03873 -0.161759 0.340445 -0.13238 0.292459 0.107694 0.299878 -0.0746095 0.193541 0.104548 0.0619686 -0.0930757 0.0174718 0.213954 0.260187 -0.230471 0.282232 -0.0522067 0.290491 -0.00993122 0.171726 0.0626021 -0.0959258 -0.276206 -0.131731 0.0164479 -0.035459 -0.0861291 -0.395666 0.17595 -0.0564627 -0.39954 -0.00779077 0.140186 0.33602 0.00841285 -0.415853 -0.0779853 -0.933997 0.724393 0.636838 -2.85352 -4.79558 0.652718 1.06199 1.35764 -3.3469 -1.87803 -1.22731 -4.52048 2.32705 -0.961623 1.00433
48 0.0817935 -0.612154 0.207709 0.58145 0.0237211 0.221606 -0.0515029 0.247244 0.0662804 -0.0401451 -0.0283862 -1.11525 -0.219087 0.423038 -0.146264 0.0572681 -0.0979437 0.156364 0.0856288 0.00217464 -0.090635 0.0782557 -0.0325104 0.13368 0.138517 -0.0975289 -0.110183 0.254318 -0.310045 0.0497313 0.0428707 0.089072 0.207801 -0.297077 -0.280153 -0.267962 -0.230706 0.209005 -0.161882 -0.298405 0.104477 -0.135534 -0.317747 -0.0431256 0.177653 0.575105 -0.00522062 -0.397372 -0.0421018 -0.891518 0.863819 0.647881 -2.76575 -4.60198 0.735507 0.99329 1.51902 -3.20629 -1.5922 -1.20053 -4.41144 2.17479 -0.899779 1.09963
81 -0.0766353 -0.389539 -0.0438837 0.437859 -0.207744 0.147981 -0.0490554 0.53656 -0.0610235 -0.091045 -0.431943 -1.11663 0.0172157 0.626355 -0.296028 0.056761 0.195386 0.227537 -0.0878809 0.00385818 0.000151435 0.0575746 -0.0524323 0.12441 0.327367 0.265397 -0.0828014 0.244958 -0.197128 0.20427 -0.0764028 0.307271 0.293217 -0.191608 -0.337009 -0.471533 0.0293832 -0.0734288 -0.140813 -0.41391 0.0223655 -0.053288 -0.17945 -0.0816293 0.344326 0.39035 -0.231793 -0.244646 -0.0433932 -1.02064 0.645897 0.622699 -2.79599 -4.50214 0.804074 1.10236 1.42226 -3.40419 -1.88939 -1.06818 -4.46707 2.10194 -1.18291 0.979308
17 0.00819856 -0.459142 -0.0445936 0.460319 -0.190904 0.151337 -0.171285 0.322653 -0.236654 -0.202809 -0.165782 -1.17512 -0.0466332 0.3936 -0.0642947 0.103379 0.206103 0.0845655 0.0784948 0.117418 0.0545695 0.0336797 -0.0964512 0.000853206 0.274397 0.144641 -0.14968 0.442327 -0.0835921 0.113556 -0.0193426 0.0887786 0.14439 -0.342871 -0.345776 -0.320072 0.0903649 0.150559 -0.133325 0.0465676 0.069875 -0.301563 -0.323239 0.153255 0.259086 0.32098 -0.227536 -0.145174 -0.119088 -0.902447 0.93036 0.626533 -2.68319 -4.68955 0.685688 1.18485 1.39709 -3.3954 -1.84791 -1.17562 -4.47432 2.13753 -0.988134 0.898286
100 0.0674232 -0.415392 0.183842 0.569983 0.108199 0.156613 0.140325 0.362962 -0.180285 -0.105166 -0.201016 -1.07229 -0.228881 0.540284 0.0237781 0.0732228 0.104353 0.163737 0.133744 0.0888397 -0.0237112 -0.0346038 -0.130803 0.122813 0.0968424 -0.0498387 -0.175792 0.175652 -0.144899 0.125377 -0.00177048 0.127421 0.0842523 -0.0925329 -0.515313 -0.243643 -0.208315 0.00947496 -0.177243 -0.388339 0.200942 -0.13568 -0.162745 0.0609019 0.553441 0.513677 -0.224429 -0.274561 -0.119177 -0.906974 0.695252 0.649646 -2.86422 -4.55544 0.854123 0.790184 1.32614 -3.41052 -1.73248 -1.28069 -4.43948 2.25639 -1.01465 1.03019
55 0.0683824 -0.488934 -0.112277 0.362106 0.079501 0.0455628 -0.19878 0.508061 0.0290263 -0.27 0.0755633 -1.12702 -0.0753248 0.523557 -0.0723073 0.00587027 0.0736647 0.271985 0.0172941 0.154355 0.084174 0.0379304 -0.113971 0.219479 0.225808 -0.0163964 -0.204696 0.115759 -0.0504034 0.107433 -0.0202447 0.0722781 0.204474 0.000515677 -0.538674 -0.202416 0.124922 -0.107472 0.0317309 -0.315563 0.144438 -0.104094 -0.390504 -0.0330904 0.303029 0.302317 0.168907 -0.0455118 -0.0404026 -0.790135 0.913007 0.749507 -2.66349 -4.56682 0.574232 1.05438 1.52469 -3.55831 -1.55979 -1.25093 -4.4556 2.24609 -0.880418 0.942442
27 0.124669 -0.338001 0.180572 0.516316 0.116387 0.0706498 -0.0954743 0.371324 -0.107314 -0.303021 -0.125686 -1.01353 -0.2207 0.38192 -0.089907 -0.00688863 0.0379124 0.188054 -0.150623 -0.0126319 -0.102514 0.0181628 -0.0133487 0.267747 0.306419 0.377032 -0.206056 0.0476656 -0.0710651 0.0682495 -0.132573 0.14362 0.0481131 -0.306282 -0.362164 -0.203867 -0.015749 -0.054267 -0.0856967 -0.240853 0.222915 -0.265902 -0.233098 0.053182 0.439388 0.273318 0.0738714 -0.195043 -0.120365 -0.895366 0.745315 0.587267 -2.87595 -4.83867 0.831357 0.941704 1.37552 -3.5788 -1.76603 -1.18472 -4.47378 2.16035 -0.961184 0.901296
24 0.300938 -0.327332 0.0541854 0.482089 -0.0237407 0.194214 -0.0778105 0.221158 -0.041067 -0.118353 -0.0340061 -1.15019 -0.185882 0.601614 -0.118238 -0.0262619 0.09212 0.203932 -0.178301 0.121259 0.0751544 -0.0134796 -0.233885 0.11586 0.161981 0.0265848 -0.0348951 0.228091 -0.159324 0.0667587 -0.126422 0.0882214 0.225484 -0.084062 -0.332661 -0.198752 -0.0406987 -0.0697337 -0.201208 -0.175257 0.0230008 -0.264611 -0.203836 0.138272 0.361451 0.431433 0.0376902 -0.12954 -0.160577 -0.753258 0.818428 0.75438 -2.81566 -4.65474 0.674636 1.15787 1.66468 -3.35725 -1.66817 -1.14978 -4.54751 2.21058 -1.03723 1.03535
36 0.298288 -0.513568 0.046232 0.478315 0.29903 0.125071 0.184948 0.498563 0.0221987 -0.338854 -0.225039 -1.20727 -0.0273677 0.463711 0.137299 0.133329 0.0156871 0.235629 -0.280448 0.153043 0.217675 -0.0663953 -0.159597 -0.0026669 0.349566 -0.0686819 -0.352344 0.405599 -0.0421322 0.262011 -0.0301056 0.0611902 0.107964 -0.356286 -0.312941 -0.243482 -0.0702686 -0.116532 -0.227385 -0.236313 -0.0323098 0.00171806 -0.354982 0.0673942 0.208275 0.442978 0.0294488 -0.20887 -0.0965413 -0.976609 0.861313 0.754885 -2.96729 -5.01941 0.734236 1.11356 1.56648 -3.65466 -1.91799 -1.23712 -4.72342 2.52161 -1.08154 1.11253
16 -0.0331605 -0.39013 0.0859459 0.543594 0.0737616 0.0084147 -0.0210423 0.223713 -0.219587 0.0306329 0.0342049 -1.07941 -0.209878 0.573296 -0.19447 0.0605659 0.105864 0.062214 -0.143795 0.155837 -0.0437669 -0.0534519 -0.111991 0.135269 0.226841 0.172601 -0.18215 0.168486 -0.0768374 0.028292 0.103212 0.124394 0.00950585 -0.286596 -0.444174 -0.233425 -0.0553425 0.0229746 -0.011378 -0.312264 0.11164 -0.217016 -0.33495 0.0711846 0.188235 0.380695 0.0594806 -0.309056 0.279639 -0.883188 0.644692 0.631049 -2.73606 -4.67202 0.838287 1.16901 1.51879 -3.37822 -1.62998 -1.38295 -4.3831 2.04939 -0.890996 1.0205
61 0.153598 -0.281258 0.04638 0.50995 -0.034844 0.167493 0.1102 0.275783 -0.180126 -0.0827471 -0.18509 -1.0892 -0.175319 0.29321 -0.297899 0.0102945 0.295571 0.0464557 0.0339493 0.117283 -0.112469 -0.0646817 -0.056787 0.10559 0.209246 0.0184007 -0.17449 0.224664 -0.138727 0.317231 0.141461 0.173387 0.0862069 -0.0291902 -0.265596 -0.042036 -0.0415354 0.0326355 -0.0523513 -0.277784 0.186707 -0.207412 -0.395771 0.135504 0.43953 0.324527 -0.0933222 -0.106458 0.0451742 -0.934685 0.733872 0.807821 -2.7098 -4.70254 0.823174 1.20449 1.5128 -3.3515 -1.65199 -1.14528 -4.47014 2.06271 -0.861317 1.01112
101 0.150855 -0.543786 0.117679 0.614284 0.141251 0.0475942 0.0736794 0.0452263 0.032838 -0.343996 -0.040111 -1.03478 -0.0122752 0.45615 -0.330217 0.248038 0.0205611 0.127793 0.0330949 0.15127 -0.0687357 0.117978 -0.184594 -0.00888287 0.285273 0.0772509 -0.222886 0.194733 0.168172 0.148857 0.0308163 0.325044 0.199219 -0.220926 -0.588336 -0.0796834 -0.02457 0.0594982 -0.100118 -0.255657 0.0636945 -0.0466601 -0.487012 0.0908972 0.245272 0.24819 -0.0119739 -0.34264 -0.0830571 -0.770495 0.754847 0.479411 -2.91157 -4.46001 0.871422 1.21544 1.54816 -3.33304 -1.76241 -1.28384 -4.36954 2.0529 -0.986214 1.1015
117 -0.120759 -0.43982 0.147513 0.650319 0.0354822 0.304348 -0.109454 0.424086 -0.150029 -0.239544 0.0387615 -1.13412 -0.15576 0.582374 -0.183105 0.127361 0.155569 0.16427 -0.13504 0.235988 -0.0533485 0.11696 -0.193551 0.0964325 0.358791 0.0736223 -0.0833052 0.184477 -0.121752 0.198617 -0.106372 -0.0621984 0.0344065 -0.0764617 -0.351253 -0.197307 -0.163724 -0.0219188 -0.215936 -0.433847 -0.0282433 -0.00563324 -0.30951 0.0841325 0.379457 0.57779 -0.175449 -0.241116 -0.0461154 -0.864047 0.935296 0.611326 -2.82778 -4.6113 0.947813 1.2423 1.3716 -3.57597 -1.84462 -1.14559 -4.49689 2.02359 -1.09182 0.869458
42 -0.0199962 -0.339216 0.0471972 0.554138 -0.0135767 -0.00413062 -0.0136869 0.43622 -0.0510648 -0.129767 -0.0212929 -0.975249 -0.131079 0.316563 -0.119845 0.0810254 -0.089317 0.0954699 -0.100548 0.0436758 -0.292145 0.12618 -0.106069 0.132901 0.10372 0.135942 -0.163291 0.197126 -0.114723 0.179582 -0.00493035 0.194592 0.0727987 -0.294949 -0.30481 -0.030103 0.046453 -0.130422 -0.279742 -0.236485 0.128345 -0.217401 -0.233447 0.180254 0.28676 0.336772 -0.0825482 -0.156155 0.077948 -0.889269 0.654761 0.744501 -2.83982 -4.87724 0.623696 1.09367 1.39737 -3.40558 -1.85729 -0.934789 -4.46412 2.11208 -1.15671 0.896374
9 -0.0799943 -0.274633 0.125714 0.478767 0.0491715 0.0535544 0.0341697 0.421137 -0.0744538 0.00782177 -0.0479302 -1.01364 -0.164384 0.395194 -0.241765 0.0857066 0.0526898 0.227396 -0.0594161 -0.057111 -0.17245 -0.000351797 0.00119204 0.222919 0.22994 0.214983 -0.0578745 0.151258 -0.145367 0.0902691 -0.0580328 0.180147 0.250981 -0.136152 -0.4084 -0.108398 -0.0283575 0.049367 -0.0758018 -0.234712 0.138312 -0.20444 -0.333675 -0.0771276 0.393104 0.365352 -0.0841698 -0.164248 0.02694 -0.587942 0.573036 0.722527 -2.86408 -4.84673 0.737431 1.04505 1.69643 -3.34768 -1.75847 -1.14176 -4.51968 2.12241 -1.01913 0.814495
26 0.151822 -0.659688 0.0883453 0.341439 -0.0807064 0.133435 -0.115479 0.57307 -0.151079 -0.121334 -0.017813 -1.2708 -0.228891 0.604732 -0.314753 0.0663604 0.19079 0.251959 -0.02558 0.23014 -0.0497339 0.0652491 -0.153273 0.214585 0.22428 0.233459 -0.355525 0.174391 0.0124788 0.336786 0.222612 0.534548 0.229373 -0.143441 -0.503501 -0.273183 -0.0567891 0.0812124 -0.122349 -0.0352492 0.359465 -0.00342006 -0.261647 0.00932908 0.155252 0.440775 -0.153504 -0.0847184 -0.119922 -0.885774 0.823881 0.782919 -2.78397 -4.49646 0.658395 0.996686 1.49601 -3.35557 -1.61992 -1.27808 -4.44678 2.12187 -1.04266 0.734885
92 0.132089 -0.64843 0.148777 0.721865 0.0844267 0.271785 -0.0872745 0.602429 0.0397058 -0.400192 0.18101 -1.32839 -0.317676 0.553556 -0.050525 0.0586137 0.4378 0.170128 0.22552 0.0631191 -0.0235327 -0.188276 -0.231232 -0.0327774 0.481413 0.11304 -0.207637 0.361651 0.0186772 0.495284 0.0240446 0.265335 0.118173 -0.106683 -0.427389 -0.304144 -0.0655381 -0.119985 -0.01329 -0.43405 0.160291 -0.279289 -0.329431 -0.0845085 0.358724 0.481351 -0.32782 -0.221819 0.135293 -0.976152 0.772679 0.930894 -2.93281 -4.78987 0.733811 1.21618 1.57086 -3.51977 -1.85083 -1.09417 -4.50645 2.17938 -1.14253 1.1963
63 -0.041931 -0.393249 0.105502 0.51617 0.111113 0.0243627 0.107341 0.476549 -0.229178 -0.277752 0.0168919 -1.27459 -0.0589544 0.471679 -0.340904 0.140876 0.113972 0.421608 0.157042 0.285765 -0.0995751 -0.0937103 -0.006348 0.0111988 0.478135 0.119492 -0.275086 0.194262 -0.144249 0.10964 0.0657603 0.251858 0.2887 -0.279085 -0.487124 -0.6613 -0.144962 -0.0534378 -0.0324567 -0.48643 -0.042903 -0.358924 -0.5032 0.310569 0.38448 0.578248 -0.082851 -0.17105 -0.1333 -0.842427 0.822608 0.671981 -2.90144 -5.20093 0.774781 1.22277 1.61547 -3.77182 -2.01091 -1.34034 -4.76502 2.58811 -1.03198 1.42331
118 -0.0932284 -0.695165 0.144559 0.352755 0.163377 0.281002 0.00328152 0.42369 -0.133553 -0.133059 -0.0624054 -1.73347 -0.353642 0.56275 -0.257203 0.137858 0.0576762 0.39462 0.15682 0.155548 -0.0102522 -0.170578 -0.0731979 0.212784 0.410143 0.186817 -0.280801 0.400642 -0.147429 0.321767 0.106294 0.241377 0.245134 -0.236367 -0.767311 -0.314849 -0.196391 -0.151241 -0.308379 -0.460809 0.119552 -0.314154 -0.531006 0.10429 0.407325 0.383052 -0.0285557 -0.187406 0.0656391 -1.00913 0.867606 0.786542 -2.92869 -5.0158 0.903744 1.22355 1.58496 -3.9527 -1.80798 -1.26457 -4.87797 2.40715 -1.07385 1.24948
142 0.465377 -1.05519 0.269357 0.432688 -0.17982 -0.399976 0.051207 0.411945 0.216119 0.0617284 0.131219 -1.09429 -0.0589576 0.874804 -0.399485 0.195706 0.378607 0.433412 -0.26884 -0.0153825 -0.254971 0.0220097 -0.562701 0.232506 0.970661 0.658869 -0.634631 0.522292 -0.376922 0.0621442 -0.0808747 0.489183 0.234632 -0.327567 -0.717954 -0.0384268 -0.290246 -0.0758717 -0.28256 -0.482366 0.0279352 -0.31814 0.150546 -0.176617 0.408839 0.345968 0.0395219 -0.155015 0.0269988 -0.875859 0.877366 0.556897 -2.47437 -3.86307 0.571573 0.717688 1.44474 -2.6273 -1.45889 -1.28219 -3.68484 1.50512 -0.845554 1.2507
8 -0.0964033 -0.433463 0.0996365 0.381219 -0.00447441 -0.0280507 -0.157856 0.517399 0.0407747 -0.117239 -0.111002 -1.02747 -0.0671807 0.462913 -0.111592 0.108338 0.0997662 0.290752 -0.0363878 0.0427493 -0.0001308 0.0725872 -0.207045 0.222113 0.328273 0.0214756 -0.21413 0.19711 -0.200581 0.0828985 -0.0547058 0.0307943 0.0391532 -0.102813 -0.360873 -0.20997 0.146084 -0.115501 0.0674223 -0.350059 0.05042 -0.0505375 -0.211591 0.0805504 0.492432 0.498796 -0.00107566 -0.208642 -0.023657 -0.775389 0.761499 0.739362 -2.79998 -4.81172 0.903568 1.02494 1.33204 -3.42171 -1.60144 -1.25705 -4.40251 2.01391 -1.08452 0.975498
23 -0.197534 -0.607388 0.0229889 0.426149 -0.0289916 0.0874737 -0.022959 0.336218 -0.182859 0.0497224 -0.0557055 -0.924385 -0.0528312 0.695814 -0.04444 -0.0337674 0.15134 0.0923459 0.256066 0.0430617 0.0199981 -0.00190649 -0.0640085 0.0584596 0.242665 0.0177873 -0.226167 0.16482 -0.0621584 0.24789 -0.00520859 0.158162 0.106016 -0.260511 -0.29334 -0.147862 -0.112989 0.0984523 -0.114827 -0.505262 0.232183 -0.184247 -0.420651 0.0186402 0.304294 0.716453 0.151635 -0.0381271 -0.24946 -0.957498 0.957562 0.830415 -2.63061 -4.45907 0.782303 1.0344 1.40221 -3.46739 -1.54596 -1.17076 -4.41937 2.17427 -0.863582 1.05696
70 0.0283534 -0.782046 0.0320444 0.619396 -0.0634765 0.33869 -0.107157 0.5607 -0.21728 -0.313687 -0.0522422 -1.29069 -0.479947 0.771823 -0.16615 0.112309 0.0918756 0.177316 0.155497 0.276738 0.179675 0.186087 -0.137995 0.280723 0.5408 0.0136589 -0.235727 0.386479 -0.017042 0.347086 -0.0662585 0.403246 0.307491 -0.306922 -0.698002 -0.31121 -0.191416 -0.112572 -0.177381 -0.399459 0.0819777 -0.385244 -0.557372 0.284152 0.404266 0.610451 0.0401675 -0.283877 -0.152867 -1.10802 0.735525 0.883702 -3.07092 -4.98075 0.959867 1.24024 1.65338 -3.96519 -1.99491 -1.2783 -4.94642 2.5116 -1.29327 1.27139
112 -0.0705499 -0.95702 0.201852 0.38754 -0.0169959 -0.0176059 -0.332057 0.350292 -0.0504498 -0.0644294 -0.0789752 -1.72322 -0.215153 0.661024 -0.181075 0.0659292 -0.0460467 0.336002 0.129715 0.0955549 0.00624541 -0.163555 -0.36025 0.0841826 0.85779 0.218786 -0.456977 0.441466 -0.362202 0.186591 -0.058289 0.519415 0.70418 -0.34959 -0.754502 -0.333197 -0.119336 -0.12978 -0.0191157 -0.636744 0.232806 -0.309484 -0.487402 0.0873302 0.331084 0.649559 -0.245312 -0.350055 0.171322 -1.13694 1.02889 1.02811 -2.75723 -4.7093 0.729134 1.15147 1.65612 -3.48818 -1.78827 -1.25855 -4.5036 1.8888 -0.888247 1.08515
65 -0.15716 -0.601057 0.157045 0.550426 0.184566 0.158529 0.0792019 0.415672 -0.0140432 -0.138823 -0.122436 -1.54196 -0.360794 0.617104 -0.195271 0.134524 0.150883 0.247188 0.211366 0.18348 0.0490493 -0.0905685 -0.263836 0.332284 0.489806 0.179687 -0.272632 0.377034 -0.0703601 0.436765 0.0345565 0.327356 0.194443 -0.341585 -0.624419 -0.366447 -0.187596 -0.125514 -0.37797 -0.656705 0.221988 -0.254596 -0.457359 0.109424 0.396304 0.410244 0.196411 -0.311417 -0.0197444 -1.10158 0.999834 0.838044 -3.06927 -4.91062 0.759745 1.04396 1.55532 -3.80374 -1.79687 -1.2236 -4.73 2.18362 -1.19307 1.19404
21 -0.0534209 -0.557206 0.175838 0.503284 0.113772 0.207115 -0.10079 0.491617 -0.121683 -0.192333 -0.0819163 -1.51506 -0.282897 0.588408 -0.136717 0.113974 0.121226 0.361803 0.150297 0.321182 -0.0321964 -0.0969423 -0.100488 0.168252 0.466838 0.10472 -0.044377 0.468944 -0.111012 0.292593 0.150952 0.249507 0.220957 -0.286845 -0.439196 -0.312296 -0.112797 -0.147081 -0.0976902 -0.358811 0.122346 -0.248697 -0.402194 0.0245593 0.371416 0.485351 0.00757011 -0.423795 0.0139906 -0.987055 1.0297 1.01062 -3.05931 -5.10354 0.960716 1.28192 1.72959 -3.81362 -1.99683 -1.29044 -4.92206 2.3466 -1.20214 1.21614
77 -0.106899 -0.47107 0.0533169 0.589543 0.165789 0.185372 -0.0472994 0.652215 -0.0118448 -0.212266 -0.0933297 -1.32084 -0.24995 0.422687 0.0711395 0.0123349 0.205442 0.0683219 -0.114128 -0.0187585 -0.0651446 0.0507538 -0.166368 0.0403372 0.361525 0.137928 -0.159335 0.439802 0.0309828 0.352822 0.0922366 0.189108 0.243713 -0.137009 -0.54903 -0.347291 -0.142141 0.0734385 -0.189338 -0.435947 -0.0601852 -0.108847 -0.295781 0.230938 0.392107 0.478648 0.0806551 -0.209975 -0.299257 -0.945351 0.93301 0.828555 -3.03658 -5.14355 0.686927 1.23417 1.72836 -3.66145 -1.92134 -1.3703 -4.86356 2.41273 -1.18038 1.15252
76 -0.167263 -0.551823 0.343239 0.583993 0.10433 0.206335 -0.0302195 0.523685 -0.0811749 -0.0807772 0.0151118 -1.42764 -0.169555 0.553119 -0.187811 0.0131478 0.223522 0.175709 0.0329983 -0.133151 -0.0683879 0.0216732 -0.157948 0.220843 0.460538 0.104553 -0.298066 0.38229 -0.0817777 0.231825 0.0288324 0.361894 0.149827 -0.184767 -0.596923 -0.417291 -0.104781 0.0538134 -0.255557 -0.457309 0.153649 -0.244337 -0.426607 0.0720954 0.241808 0.412263 -0.17633 -0.332819 0.00220685 -1.09508 1.02243 0.718762 -3.13347 -5.02075 0.785305 1.19957 1.67797 -3.9045 -1.73714 -1.29634 -4.83301 2.48722 -1.01974 1.07666
37 0.112565 -0.195818 0.154297 0.495274 0.062602 -0.0550816 0.00396758 0.247549 0.100382 -0.0955409 -0.215271 -0.982534 -0.123955 0.467636 -0.126873 0.0651299 0.0768986 0.112396 -0.0365333 0.0950245 -0.107405 0.0417528 -0.0454208 0.139372 0.307003 0.0821932 -0.162985 0.222889 -0.165073 0.0930074 0.0212554 0.0866723 0.00321424 -0.131559 -0.285243 -0.0835493 -0.04134 0.146712 -0.0434384 -0.218529 0.126711 -0.213304 -0.264496 0.128422 0.386579 0.438969 -0.0371302 -0.289512 -0.0255118 -0.649467 0.63709 0.739678 -2.91828 -4.98272 0.746456 1.01143 1.33669 -3.39697 -1.79725 -1.3396 -4.53049 2.26874 -1.01522 0.826865
86 -0.104745 -0.598942 -0.0759325 0.608499 -0.230393 0.10699 0.0849076 0.471953 0.00646811 -0.314798 -0.0364488 -1.28719 -0.207681 0.590527 -0.195725 0.165657 -0.187668 -0.0578395 -0.238765 0.0737878 0.00669052 -0.0271991 -0.331537 -0.198228 0.626322 0.22614 -0.449517 0.303856 -0.0707 0.00244342 0.0379809 0.223542 -0.078607 -0.120728 -0.517596 0.0040744 -0.107894 -0.198006 -0.152785 -0.411856 0.0667979 -0.154669 -0.483819 -0.00478926 0.423029 0.349468 -0.0775725 -0.146347 -0.250056 -0.923419 1.00055 0.823196 -2.55764 -4.27725 0.823625 0.823909 1.42185 -3.24137 -1.65116 -1.26623 -4.11865 1.96182 -0.845297 1.11745
141 0.455606 -1.08224 0.312435 0.49782 -0.039848 -0.296328 0.178617 0.419917 0.23883 0.0288873 0.159518 -1.00953 -0.0857433 0.84243 -0.265398 0.269155 0.427274 0.402626 -0.271231 -0.0764861 -0.184015 -0.0563622 -0.4837 0.260543 1.0786 0.622582 -0.655167 0.419611 -0.363554 0.165343 -0.138586 0.39389 0.243188 -0.437665 -0.756657 -0.0478101 -0.419872 -0.025225 -0.27653 -0.537587 -0.0363721 -0.279714 0.0794259 -0.0256098 0.433689 0.427649 -0.0406619 -0.168904 0.0909498 -0.793398 0.886611 0.568077 -2.49722 -3.93815 0.566983 0.730883 1.43983 -2.58622 -1.53918 -1.27747 -3.66391 1.41923 -0.919785 1.25896
122 0.0896443 -0.547154 0.282153 0.496951 0.201493 0.204511 -0.0490708 0.463105 0.0144856 -0.198096 -0.0799079 -1.56327 -0.204749 0.571433 0.0182506 0.0461314 0.162761 0.332292 -0.0455579 0.175257 -0.0753709 0.0905606 -0.0916995 0.387279 0.528086 0.234941 -0.336117 0.356399 -0.0327633 0.188258 -0.120526 0.219993 0.210143 -0.272665 -0.636257 -0.380136 -0.176866 -0.0323615 -0.289167 -0.401948 0.503447 -0.270994 -0.540276 0.19072 0.374749 0.438059 -0.0259956 -0.144695 -0.206317 -1.27634 1.07044 0.772822 -3.4409 -5.39418 1.13075 1.37255 1.66961 -4.25825 -2.00885 -1.299 -5.23055 2.67993 -1.30337 1.30367
47 0.00710291 -0.612239 0.0227533 0.526466 0.19951 0.191267 -0.0996882 0.348742 -0.0597769 -0.0376425 -0.192885 -1.49432 -0.266177 0.646426 -0.0188734 -0.0203614 0.159966 0.319676 0.172037 0.145467 0.0574756 0.233347 -0.166869 0.0551492 0.183764 0.13609 -0.374561 0.348475 -0.149864 0.0948406 -0.159239 0.318502 -0.0778648 -0.0895404 -0.58104 -0.483975 -0.0347216 -0.112747 -0.0940531 -0.62452 0.350513 -0.218359 -0.431375 0.297951 0.4161 0.518716 -0.0295634 -0.32306 -0.136087 -1.02208 0.990016 0.919026 -3.41387 -5.7311 1.11716 1.63868 1.827 -4.26424 -1.97899 -1.4285 -5.46881 2.75753 -1.52523 1.18006
52 0.0835364 -0.646884 0.10801 0.50657 0.131107 0.195741 -0.106424 0.377609 0.0251061 -0.0161459 0.112969 -1.394 -0.121556 0.898332 -0.106668 0.0616219 0.298918 0.263027 0.0274762 0.210757 -0.11551 0.131124 -0.0276495 0.0853369 0.458438 0.14441 -0.127447 0.470834 -0.196084 0.20617 0.0144891 0.509741 0.146934 -0.272093 -0.414826 -0.205703 -0.245391 0.0696145 -0.234471 -0.338838 0.346119 -0.36295 -0.395814 0.207106 0.272823 0.446737 -0.125808 -0.244061 -0.266342 -1.18657 1.05058 0.856877 -3.21508 -5.39453 0.872556 1.4183 1.90963 -3.95061 -2.06562 -1.37263 -5.19367 2.65536 -1.37038 1.29886
126 -0.122194 -0.609091 0.175916 0.526015 -0.166459 0.220404 -0.0813957 0.49268 -0.0509498 -0.314994 0.0208517 -1.49332 -0.164861 0.686581 -0.140467 0.205166 0.285782 0.177447 -0.060701 0.322847 0.198911 0.29782 -0.173039 0.212826 0.281164 0.151447 -0.25246 0.232297 -0.0983948 0.0198484 0.110007 0.226871 0.0825198 -0.366591 -0.438834 -0.423921 0.10913 -0.078959 -0.179075 -0.431127 0.273883 -0.293243 -0.34045 0.205705 0.478881 0.464524 -0.0011719 -0.308887 -0.202705 -1.22927 1.06262 0.937837 -3.32144 -5.59213 0.98005 1.47535 1.91038 -4.24339 -2.10926 -1.1991 -5.27248 2.55925 -1.39277 1.3787
97 -0.162551 -0.704368 0.0464082 0.765904 -0.0432122 0.14831 -0.128676 0.437231 -0.0526655 0.0351143 -0.0667001 -1.6725 -0.0823266 0.48567 -0.103017 0.127183 0.257132 0.425619 -0.0443577 -0.00174786 -0.0231458 -0.0579615 -0.228243 0.178604 0.686332 0.165087 -0.368768 0.360592 -0.226058 0.290527 0.03437 0.35739 0.224901 -0.311006 -0.874113 -0.588986 -0.0966529 -0.0333144 -0.316521 -0.656788 0.386758 -0.303261 -0.538693 0.161923 0.536969 0.598545 -0.103047 -0.472937 0.0642484 -1.03854 1.01011 0.915935 -3.02453 -5.14851 1.0098 1.41921 1.94784 -3.88081 -1.90183 -1.4477 -5.14169 2.52782 -1.23598 1.15901
91 0.161472 -0.509922 0.128982 0.486806 -0.0878896 0.42597 -0.170761 0.387554 -0.0197015 -0.220861 -0.192614 -1.64638 -0.251636 0.782339 0.0135488 0.0111803 0.2391 0.184119 0.0471322 0.309227 -0.032885 0.146814 -0.0457458 0.0695817 0.294425 0.104634 -0.28552 0.385644 -0.177492 0.251591 -0.124281 0.149744 0.217202 -0.0634312 -0.528106 -0.306659 -0.106843 -0.128846 -0.293756 -0.526279 0.142788 -0.33892 -0.537664 0.185521 0.132291 0.689621 -0.171053 -0.125221 -0.0910952 -1.09855 1.03451 0.826687 -3.41355 -5.6994 1.02823 1.45636 1.93665 -4.29583 -2.18819 -1.32622 -5.42313 2.77436 -1.31218 1.33579
79 0.153591 -0.673033 0.0116691 0.436574 0.110258 0.245105 0.030647 0.551076 -0.00630592 -0.308548 -0.197746 -1.32713 -0.229273 0.683488 0.00949307 -0.0581497 0.200332 0.0865249 0.0656424 0.390122 -0.0871832 0.108281 -0.00986264 0.289714 0.52443 -0.00730992 -0.213372 0.367665 -0.109074 0.144136 0.000322922 0.141301 0.261838 -0.250908 -0.447003 -0.288884 -0.0235857 -0.0280043 -0.248283 -0.504467 0.511342 -0.276728 -0.588281 0.143244 0.319058 0.556657 -0.0210569 -0.325113 -0.0175709 -1.35951 0.88721 0.844969 -3.53292 -5.63232 1.0242 1.51555 1.75588 -4.30129 -2.07146 -1.42708 -5.3909 2.68888 -1.46625 1.35448
72 0.0603114 -0.469676 0.149019 0.657343 -0.10369 0.412388 -0.139053 0.492728 -0.114306 -0.3427 -0.143108 -1.52678 -0.228321 0.808229 -0.106485 0.0277638 0.254959 0.254901 0.153988 0.325656 -0.0342813 0.0589326 -0.229218 0.0624616 0.489522 0.135792 -0.237943 0.266262 -0.0505557 0.240477 -0.0351349 0.14244 0.251184 -0.176127 -0.514728 -0.474688 -0.0075769 -0.0856297 -0.132857 -0.333071 0.329356 -0.353866 -0.530244 0.251255 0.495584 0.36468 -0.0999933 -0.327301 -0.235362 -1.25574 1.119 0.886701 -3.44295 -5.66196 0.892756 1.44514 1.83375 -4.16287 -1.98283 -1.59995 -5.46406 2.80594 -1.58149 1.09597
44 -0.193887 -0.646775 0.254615 0.45157 0.254304 0.224996 -0.111785 0.39473 -0.0189065 -0.196941 -0.199742 -1.58953 -0.245799 0.757527 -0.126463 0.137208 0.24855 0.28083 0.0398295 0.262202 0.00978611 0.143751 -0.0884489 0.222417 0.361211 0.132432 -0.0718968 0.250191 -0.00352217 0.101428 -0.0272957 0.153866 0.194907 -0.399358 -0.343744 -0.186613 0.0138169 0.0584256 -0.372465 -0.593762 0.192107 -0.298508 -0.528488 0.218997 0.242872 0.486337 -0.139784 -0.0551494 -0.181913 -1.20255 1.02298 0.845934 -3.34513 -5.60445 1.01589 1.44215 1.83027 -4.16408 -2.2084 -1.48342 -5.41884 2.9405 -1.42367 1.35417
18 0.0867204 -0.542874 0.111896 0.601213 0.0737048 0.0796233 0.15845 0.331825 -0.131554 -0.0535129 -0.106612 -1.06802 -0.109823 0.644191 -0.0674123 0.0553444 -0.120707 0.162439 0.17189 0.138239 -0.0853958 0.0851757 0.151596 0.252414 0.384911 0.225804 -0.264466 0.599412 -0.172751 0.270987 -0.00451029 0.29109 0.124557 0.0905445 -0.358354 -0.305997 -0.177418 -0.131783 -0.251201 -0.569331 0.0704032 0.0389044 -0.590642 0.230371 0.29754 0.447381 -0.150602 -0.0896865 -0.0728657 -1.04165 0.865878 0.695049 -2.75799 -4.54449 0.662871 1.03586 1.42642 -3.34964 -1.44101 -1.37802 -4.39832 2.10414 -0.918014 1.03792
3 0.0723844 -0.330602 0.122842 0.406743 0.0288431 0.140696 -0.124006 0.305813 -0.171635 0.121562 0.0499695 -1.1386 -0.151941 0.580515 -0.167215 0.0916635 0.0820444 0.195509 0.0546165 0.130298 -0.0658835 -0.00832588 -0.174964 0.0976913 0.328812 -0.0216249 -0.271073 0.25815 0.0131035 0.150122 -0.196424 0.114358 0.0470804 -0.1085 -0.408396 -0.104566 -0.00439055 -0.259232 -0.13355 -0.365759 0.127063 -0.064375 -0.384005 0.149771 0.388091 0.438834 0.0366809 -0.237038 -0.211613 -0.737752 0.940287 0.694837 -2.74827 -4.72326 0.742205 1.14937 1.36596 -3.51085 -1.66868 -1.25335 -4.49524 2.12818 -1.02525 1.02657
32 -0.0956236 -0.413638 0.132609 0.561842 0.0839701 0.158809 -0.231556 0.541743 -0.0522398 -0.259875 0.0662715 -1.2716 0.0234442 0.717187 -0.00157021 0.0704466 0.168834 0.302472 0.136381 -0.0923296 -0.0637362 0.0298447 -0.0577735 0.0455835 0.209028 0.0390109 -0.254699 0.53396 0.00295082 0.280092 -0.128264 0.602153 0.246314 -0.329656 -0.358531 0.00607743 -0.122553 -0.160229 -0.175728 -0.287633 0.140294 -0.259369 -0.44301 0.028195 0.511406 0.464797 0.0543289 -0.150382 -0.0689601 -0.901857 0.818749 0.579076 -2.65486 -4.35588 0.79382 1.19704 1.24814 -3.30376 -1.53439 -1.40551 -4.28234 2.09437 -0.985997 1.11234
57 -0.0450899 -0.337221 0.0979321 0.692668 -0.0195889 0.275449 -0.0250114 0.186113 0.187477 -0.306633 -0.0821607 -1.14158 -0.23887 0.626294 -0.232369 -0.0348104 0.0803518 0.0421868 -0.00676574 0.0179222 0.0681331 -0.288823 -0.146113 0.342074 0.243459 0.128901 -0.447605 0.299386 -0.189867 0.178618 -0.0192319 0.301406 0.116906 -0.328089 -0.223975 -0.156713 -0.0980112 -0.046023 -0.0881364 -0.419694 0.0557277 -0.349219 -0.317576 0.261819 0.310655 0.53551 -0.0966099 0.0624536 0.0138401 -0.943728 0.954399 0.63824 -2.75992 -4.49959 0.619397 1.17189 1.43049 -3.38023 -1.81119 -1.08915 -4.44963 2.22471 -0.967584 0.833996
75 -0.0142387 -0.391577 0.0737217 0.409374 -0.0901396 0.0862087 0.00580162 0.43328 0.00499139 -0.118803 0.095733 -1.1259 -0.049306 0.527524 -0.166971 0.0058703 0.0202656 0.0267351 -0.0775706 0.164981 -0.039577 -0.00260934 -0.0481964 -0.054717 0.195116 0.0355219 -0.0457216 0.107582 -0.0525247 0.182702 -0.0907879 0.0737465 0.083745 -0.21079 -0.372415 -0.173238 -0.214132 -0.0493015 -0.147068 -0.176154 0.117118 -0.22835 -0.290225 -0.0480823 0.387485 0.511863 -0.0194939 -0.133616 -0.0810832 -0.9485 0.73467 0.813891 -2.86565 -4.77898 0.760479 1.00594 1.50847 -3.41374 -1.7784 -1.03622 -4.52032 2.21688 -1.00999 0.958124
94 0.104054 -0.38575 0.156577 0.455776 0.0837959 0.0355223 -0.168043 0.275305 -0.000413735 -0.138539 -0.0555953 -0.924857 -0.0991435 0.431175 -0.247951 -0.00676265 0.15857 0.187533 -0.137148 0.0707683 -0.100768 0.214814 -0.158503 0.0612865 0.255427 0.0771302 -0.0212405 0.355392 -0.0304906 0.0173525 -0.0139304 0.118379 0.148376 -0.17581 -0.333979 -0.25422 0.0800909 -0.225348 -0.35173 -0.34261 0.133155 -0.015 -0.301156 0.0171572 0.321701 0.56747 0.1077 -0.17347 -0.0898463 -0.710847 0.800895 0.687663 -2.8942 -4.72762 0.703231 1.20312 1.50496 -3.38349 -1.78983 -1.00762 -4.56161 2.27237 -0.994479 1.11152
35 -0.066151 -0.682248 0.0522725 0.386941 0.230109 0.0191554 0.1081 0.250214 -0.219315 -0.128475 -0.0461249 -1.03568 -0.0662956 0.554459 0.0675751 -0.0656998 0.230021 0.15377 0.159489 0.29238 0.0132429 0.0368293 -0.0369415 0.214505 0.248059 0.0948437 -0.262812 0.126329 -0.153111 0.231488 -0.0730868 0.154656 0.368079 -0.291417 -0.46084 -0.105284 -0.146997 0.123927 -0.134656 -0.299227 0.129341 -0.197645 -0.125986 0.229482 0.307012 0.474621 -0.119439 -0.378692 0.0943473 -0.805559 0.93246 0.852032 -2.89224 -4.58794 0.773624 1.14223 1.41285 -3.33282 -1.71616 -1.0774 -4.39287 2.13242 -0.973461 1.04152
93 0.0734761 -0.384951 -0.0221677 0.462235 0.131577 0.158189 -0.00680202 0.346244 -0.00139951 -0.174014 0.104005 -0.95362 -0.0961404 0.412719 -0.0139387 0.125497 -0.070756 0.0404258 0.0692639 0.195345 -0.0452839 0.18791 0.0359288 0.267149 0.361463 0.132126 -0.13472 0.198379 -0.0656405 0.0545386 -0.0417468 0.152028 0.300798 -0.0918069 -0.343352 -0.275042 -0.0383174 0.0056964 -0.117035 -0.420767 0.21762 -0.0566203 -0.284669 0.124687 0.337763 0.150473 -0.205755 -0.0718179 0.0230221 -0.79624 0.888443 0.725634 -2.69494 -4.66619 0.702408 1.03857 1.55527 -3.51779 -1.84334 -1.23411 -4.542 2.23583 -1.06379 0.8267
40 -0.159933 -0.388817 0.213619 0.554229 -0.0339687 0.194889 -0.215087 0.39281 -0.0728014 -0.178706 0.184515 -1.08913 -0.0870757 0.585251 -0.100245 0.0590738 -0.0877295 0.296568 -0.11564 0.205256 0.118297 0.167887 0.12541 -0.00924035 0.343586 0.128623 -0.203006 0.315414 -0.133086 0.277031 0.329634 0.0985267 0.0862783 -0.0578189 -0.395693 -0.204334 -0.247412 -0.169163 -0.187362 -0.293941 0.13087 -0.217179 -0.308063 0.150892 0.42009 0.363658 0.031772 -0.122709 0.201982 -0.933504 0.842085 0.71646 -2.87499 -4.66428 0.795692 1.16523 1.60244 -3.33517 -1.84768 -1.19693 -4.51786 2.11346 -1.07533 0.88661
110 -0.00133177 -0.647541 -0.038612 0.341276 0.0728125 0.247362 -0.112673 0.494339 -0.142336 -0.0899816 -0.163781 -1.51646 0.0144404 0.745364 0.0546903 0.27893 0.133279 0.334889 0.0610336 0.246824 -0.131201 0.0134854 -0.0940645 0.165985 0.212954 -0.0076273 -0.295232 0.265232 -0.0477683 0.0131922 -0.0489311 0.373082 0.165711 -0.120242 -0.621551 -0.376529 -0.163908 -0.214556 -0.263673 -0.447334 0.23235 -0.133935 -0.469386 0.155027 0.378572 0.538138 -0.138408 -0.341068 -0.0531977 -1.46062 1.05407 0.969458 -3.23741 -5.59994 0.849379 1.50933 1.99817 -4.17516 -2.18507 -1.46891 -5.41691 2.96258 -1.25225 1.32652
109 -0.00717035 -0.492804 0.141257 0.480596 0.114224 0.200222 -0.0948277 0.416687 0.0188235 -0.231767 -0.0586486 -1.27388 0.0728718 0.703138 -0.232681 0.244059 0.314503 0.279314 0.0552315 0.0469265 -0.0313032 0.0254261 -0.157896 0.313663 0.245828 -0.0493511 -0.235268 0.377072 -0.191663 0.151635 0.0756004 0.160216 0.195933 -0.0791462 -0.399749 -0.329747 -0.172478 -0.0185638 -0.372759 -0.397384 0.353079 -0.226923 -0.660939 0.104886 0.317047 0.342553 0.153416 -0.244175 -0.00428683 -1.15211 1.24515 0.936714 -3.41254 -5.78062 1.15976 1.52405 1.78956 -4.17442 -2.09956 -1.51454 -5.39176 2.62493 -1.62717 1.49191
80 -0.0162092 -0.683104 0.13775 0.591614 0.133297 0.381141 -0.278981 0.476679 -0.190657 -0.254993 -0.060018 -1.50047 -0.145991 0.851207 -0.198728 0.176863 0.284994 0.378846 0.0785728 0.294391 -0.0197992 0.172295 -0.118033 0.124269 0.185809 0.0635006 -0.238582 0.41933 -0.0198386 0.222236 -0.0750878 0.382397 0.122847 -0.16924 -0.486651 -0.315156 -0.114728 0.0573001 -0.319175 -0.498712 0.325896 -0.232732 -0.551702 0.195266 0.364125 0.41817 0.0755014 -0.24274 -0.099154 -1.20059 1.01998 0.948303 -3.37522 -5.72833 1.02908 1.40986 1.82511 -4.2504 -2.05513 -1.40578 -5.43846 2.8121 -1.38043 1.19439
130 0.0152231 -0.343458 0.202574 0.503752 0.203949 0.219759 -0.258727 0.320182 -0.0863567 -0.22965 0.00147908 -1.41174 -0.288909 0.72986 0.0134882 0.111944 0.404205 0.38864 0.0696511 0.263658 0.0775633 0.113449 0.00772239 0.173337 0.292639 0.0970471 -0.211491 0.483841 -0.166441 0.227257 0.00547543 0.284248 0.182852 -0.151702 -0.586371 -0.360386 -0.213267 0.013995 -0.376634 -0.499133 0.215181 -0.306627 -0.567386 0.199038 0.520191 0.525064 -0.163238 -0.338234 -0.151809 -1.42476 1.01207 0.889202 -3.40615 -5.6162 1.18986 1.4824 2.00443 -4.25212 -2.01747 -1.52228 -5.49983 2.83638 -1.29572 1.327
66 -0.186839 -0.694305 0.0584282 0.568663 -0.0157658 0.283678 -0.161286 0.38462 -0.18192 -0.137787 -0.0476276 -1.36537 -0.103883 0.637471 -0.347547 -0.00250264 0.28422 0.144008 0.103559 0.161934 0.0908067 0.233565 -0.159788 0.0733615 0.54948 -0.0475935 -0.297332 0.383411 -0.124673 0.323216 -0.00765297 0.210353 0.352493 -0.107611 -0.669071 -0.35151 -0.164498 -0.0272072 -0.1685 -0.362508 -0.03457 -0.367328 -0.450916 0.0930164 0.440338 0.586104 -0.0122464 -0.273621 -0.0563507 -1.18832 0.793 0.85339 -3.05355 -5.09739 0.84576 1.23107 1.71453 -3.95453 -1.9963 -1.41185 -4.86464 2.36182 -1.13591 1.19895
114 -0.00813145 -0.6589 0.287596 0.514302 0.0180966 0.264864 0.0281718 0.464615 -0.0497328 -0.0947352 0.0499273 -1.38113 -0.16271 0.6102 -0.10451 0.137546 0.110699 0.272679 0.15247 0.0980801 0.0661726 -0.135426 -0.11655 0.0429633 0.361404 0.0420569 -0.249258 0.403118 -0.156565 0.078367 0.0301568 0.2448 0.339356 -0.169824 -0.525825 -0.407637 -0.15094 -0.131863 -0.116477 -0.49242 0.160405 -0.17428 -0.4025 0.0168113 0.35299 0.395949 -0.0701242 -0.104949 0.0148046 -1.13662 0.938644 0.815556 -3.00302 -5.18625 0.886407 1.30604 1.70043 -4.00966 -1.91869 -1.32295 -4.96833 2.49042 -1.12114 1.12383
58 -0.119392 -0.630146 0.189146 0.553667 -0.0339105 0.234991 0.0359208 0.444403 -0.0308759 -0.355854 -0.138596 -1.26583 -0.2797 0.598628 -0.126828 0.155637 0.101276 0.133863 -0.112951 0.0488905 -0.0996058 0.0300825 -0.178751 -0.0324243 0.267674 0.134322 -0.0700859 0.350344 -0.0952473 0.0918702 0.0189148 0.290572 0.213977 -0.274603 -0.481991 -0.249588 -0.149295 -0.0237272 -0.0831721 -0.317927 0.169702 -0.162438 -0.365339 0.43175 0.241813 0.411174 -0.0442436 -0.248754 -0.13287 -1.20847 0.866201 0.969286 -3.07339 -5.40804 0.642907 1.31086 1.58114 -4.11015 -1.88499 -1.41651 -5.0033 2.58339 -1.27273 1.10625
38 -0.0193993 -0.324717 0.139896 0.361824 -0.0383903 0.149517 0.0141498 0.42524 0.106337 -0.225411 -0.153136 -1.12378 -0.0878422 0.488475 -0.211616 0.0828624 0.10489 0.179755 0.113377 0.165706 -0.0509718 0.155882 -0.0509301 0.231028 0.280581 -0.164532 -0.275595 0.118032 -0.175411 0.235207 -0.0521362 -0.0242592 0.0906376 -0.139391 -0.276739 -0.052836 -0.0855008 0.0886087 -0.0549579 -0.148236 0.125616 -0.23896 -0.146732 0.153055 0.632653 0.216146 -0.0740931 -0.293022 0.122211 -0.968002 0.671686 0.542242 -2.81677 -4.81237 0.754169 1.06534 1.58935 -3.44935 -1.74317 -1.29605 -4.5395 2.1506 -0.973259 1.00233
95 0.00192264 -0.587632 0.0107108 0.33118 0.0455198 0.159421 0.0493603 0.493041 -0.471315 -0.0900064 0.0602043 -1.50496 -0.0487463 0.454158 -0.391858 -0.0650715 0.134457 0.213335 -0.169903 0.148769 -0.07317 -0.284888 0.0242074 0.000174717 0.480056 0.234852 -0.399387 0.360238 -0.293269 0.100804 0.31192 0.189121 0.00997697 -0.00730927 -0.34794 -0.157041 0.000288753 -0.104545 0.0535695 -0.404536 0.291896 -0.35487 -0.280616 -0.0202477 0.489438 0.360666 0.0734805 -0.399034 -0.11224 -0.87242 0.926419 0.721627 -2.75756 -4.00569 0.78671 1.12988 1.44902 -3.29531 -1.62869 -1.14856 -4.21072 2.25083 -0.691959 1.22364
87 -0.0658583 -0.706013 0.0451352 0.518162 -0.0248721 0.115348 -0.122108 0.40607 0.0475145 -0.253905 0.059781 -1.15348 -0.20835 0.51796 -0.285166 -0.0204494 0.354184 0.294064 0.053249 0.389871 0.0435407 0.0726822 -0.266328 0.0454409 0.187069 0.44376 -0.391055 0.418815 -0.175394 0.376272 0.294267 0.227543 0.303632 -0.193395 -0.515419 -0.215998 -0.195993 0.0601112 -0.0632852 -0.228181 0.252639 -0.28799 -0.420697 -0.00255505 0.349236 0.603811 -0.0384525 -0.176187 -0.00169933 -0.814954 0.90375 0.649458 -2.56074 -4.43833 0.674568 1.00648 1.33061 -3.42295 -1.71572 -1.32466 -4.37405 2.00807 -1.06727 0.909688
56 0.0225655 -0.488869 0.0389534 0.491909 0.114873 0.217638 -0.0515103 0.515098 -0.0847112 -0.170188 -0.241139 -1.07546 -0.193094 0.616744 -0.0926373 -0.0491017 0.199605 0.151017 -0.0680717 0.205468 -0.0347649 0.0310835 -0.210784 0.128805 0.459267 0.128233 -0.150805 0.497209 -0.127544 -0.0418463 -0.0948048 0.0694612 0.0927241 0.00785132 -0.24408 -0.278345 0.00318343 -0.12458 -0.320386 -0.442018 0.210399 -0.245482 -0.145647 -0.0593717 0.370868 0.285711 -0.103215 -0.111702 -0.140194 -0.792589 0.859945 0.569379 -2.78191 -4.44146 0.773309 1.27774 1.35836 -3.36164 -1.60099 -1.33393 -4.48972 2.2619 -0.983295 1.11376
5 -0.179562 -0.331233 -0.0601568 0.303929 0.0363298 0.0594386 -0.104488 0.504059 -0.0975357 -0.380915 -0.0906072 -1.1338 -0.138217 0.459264 -0.110776 -0.0640797 0.0850993 0.16373 0.09703 0.30931 -0.0508117 0.0238564 -0.311964 0.118624 0.336314 -0.0251857 -0.159227 0.414974 -0.123079 -0.142292 -0.010696 0.254922 0.159379 -0.247981 -0.477749 -0.152969 -0.133284 -0.0169482 -0.222963 -0.31803 0.137681 -0.138408 -0.315398 0.253437 0.268121 0.326088 -0.157498 -0.10841 -0.0788235 -0.655914 0.989333 0.831099 -2.82296 -4.46437 0.87132 0.993514 1.52323 -3.37982 -1.56663 -1.20181 -4.43992 2.12108 -0.944301 0.972326
69 0.29429 -0.400862 0.201181 0.670812 0.0328525 0.343291 0.0864468 0.367579 0.215673 -0.173984 -0.0884727 -1.31654 -0.223875 0.628817 -0.212632 0.115066 0.109608 0.105124 -0.20133 0.0449006 -0.0311976 0.10268 -0.167888 0.156235 0.138758 0.151969 -0.0644671 0.47767 -0.0443619 0.26006 0.0373312 0.15367 0.170331 -0.0543178 -0.451412 -0.454041 -0.08447 -0.244287 -0.0023382 -0.24269 0.189265 -0.290534 -0.316321 -0.0559933 0.354056 0.522986 -0.104498 -0.048809 -0.0511898 -1.06155 0.7491 0.65972 -3.02188 -5.40999 0.896964 1.2127 1.66455 -3.93583 -1.94984 -1.39354 -5.01353 2.53974 -1.19054 0.970363
51 0.0707858 -0.733384 0.126037 0.303193 -0.17631 0.147124 0.0396583 0.639755 -0.0607305 -0.154571 -0.00479446 -1.14537 -0.29198 0.548366 -0.0812389 0.129661 0.27884 0.223506 0.0590325 0.207632 0.112415 -0.116606 -0.120402 0.251944 0.134427 0.397313 -0.37693 0.566307 -0.0871273 -0.110463 0.0944187 0.268932 0.396049 -0.188685 -0.7323 -0.206108 -0.131594 0.104593 -0.32117 -0.315179 0.123702 -0.0604728 -0.463932 0.160841 0.566272 0.644755 -0.0101041 -0.179197 0.0817464 -0.902769 0.789245 0.684517 -2.62407 -4.34382 0.906161 1.23273 1.14583 -3.34235 -1.66626 -1.3249 -4.35335 2.02688 -0.919489 1.09316
136 0.164474 -0.512692 0.0337489 0.389128 0.398604 -0.337371 0.456822 0.407928 0.0257079 -0.230636 -0.245129 -1.66911 -0.0310832 0.435868 -0.565161 0.310063 -0.114129 0.193804 -0.344282 -0.369119 -0.0314905 0.293906 -0.333432 -0.0736104 0.842897 0.337275 -0.591607 0.408622 -0.50269 0.146569 -0.195327 0.12747 0.36316 -0.586519 -0.685989 -0.0559398 -0.241148 -0.0770274 0.0286058 -0.423346 0.312112 -0.186509 -0.558544 -0.346439 0.375395 0.65246 -0.137318 -0.210116 0.0689089 -0.682016 0.864179 0.891246 -2.21345 -3.90934 0.697773 0.870773 1.70157 -2.63323 -1.47141 -1.15015 -3.80077 1.39375 -0.924252 1.01432
116 0.265912 -0.895097 0.00517333 0.797233 0.10818 0.069983 -0.00755351 0.422745 -0.158751 0.0613421 -0.428149 -1.52419 -0.187748 0.688031 -0.30678 0.116169 0.0056236 0.201066 -0.240893 -0.0977878 -0.0176683 0.0844569 -0.261641 0.334519 0.538763 0.424921 -0.477141 0.466125 -0.361613 0.259788 0.267521 0.0615205 0.255505 -0.495649 -0.636728 -0.270591 -0.174543 -0.0040438 -0.0452332 -0.627848 -0.075153 -0.308835 -0.418587 0.164619 0.661589 0.381988 -0.129105 -0.343474 0.0585003 -0.992491 0.906585 1.0526 -2.78794 -4.54616 0.675487 1.05614 1.50774 -3.12761 -1.5917 -1.25396 -4.34461 1.87469 -0.89416 1.05391
131 0.235486 -0.680825 0.140396 0.458315 0.0649203 0.172201 -0.317586 0.436185 -0.00841014 -0.247666 -0.119111 -1.4865 -0.0720859 0.70931 -0.295612 -0.0732161 0.000411966 0.118934 0.0920383 0.0523793 0.0361793 -0.0440701 -0.280859 0.143317 0.30499 0.149676 -0.333742 0.420345 -0.179795 0.28767 0.168084 0.223464 0.183954 -0.201728 -0.581457 -0.25448 -0.107689 0.0866062 -0.179782 -0.513612 0.272981 -0.329718 -0.465497 0.185273 0.27475 0.546187 -0.0949866 -0.361095 -0.039678 -1.27509 1.02838 0.999366 -2.96944 -4.78441 0.922767 1.28211 1.57345 -3.69334 -1.88082 -1.25373 -4.76077 2.30505 -1.13881 1.27044
12 0.0543328 -0.38449 0.0354247 0.515858 0.0074316 0.187529 0.0370463 0.414176 -0.143514 -0.140329 -0.117779 -1.31662 -0.066578 0.61295 -0.225368 0.00319819 -0.0322068 0.26213 -0.0408321 0.155782 0.00582787 0.120833 -0.0200728 0.0965 0.168077 0.05656 -0.27353 0.519476 -0.105791 0.143147 0.0393431 0.1425 0.368059 -0.213445 -0.659342 -0.11145 -0.11444 -0.0614636 -0.120997 -0.6113 0.177733 -0.319817 -0.176902 -0.058721 0.352035 0.350559 -0.0132981 -0.171392 -0.108882 -1.1249 0.933507 0.876203 -3.01845 -5.28134 0.979218 1.49599 1.61303 -3.86534 -1.99506 -1.32462 -4.93424 2.42572 -1.22276 0.937286
46 -0.0912208 -0.374977 0.238923 0.422641 0.0983042 0.148385 -0.0423122 0.463975 -0.0926207 -0.18145 -0.219131 -1.33393 -0.258102 0.967859 -0.16679 -0.117577 0.234144 0.102206 0.0334079 0.277619 0.102013 0.079839 -0.245037 0.298519 0.122185 0.107843 -0.29333 0.421653 -0.150438 0.339625 0.0258413 0.174862 0.197899 -0.316883 -0.692465 -0.41291 -0.0204421 0.114761 -0.191283 -0.430548 0.473052 -0.159826 -0.719501 0.346492 0.573753 0.599776 -0.139495 -0.266683 0.00806265 -1.23904 1.03467 1.01017 -3.20328 -5.46026 0.872115 1.40827 1.89666 -4.15868 -2.30908 -1.49875 -5.21403 2.72663 -1.50598 1.35421
28 0.0733207 -0.637304 -0.0777783 0.59697 -0.0733715 0.202909 -0.181985 0.427395 -0.342934 -0.0366658 -0.17005 -1.70686 -0.118283 0.53039 -0.0393504 -0.00869531 0.25068 0.163275 -0.129639 0.286305 -0.0421912 -0.0119008 -0.223838 0.158374 0.27183 0.0750248 -0.180108 0.352951 -0.187996 0.382258 0.202441 0.0499353 0.208937 -0.274185 -0.695928 -0.442752 -0.0125858 0.128471 -0.271992 -0.557623 0.21877 -0.261606 -0.580401 0.13657 0.440242 0.564286 -0.116566 -0.144923 -0.0333101 -1.35288 1.01643 0.875684 -3.20162 -5.47724 0.984674 1.41655 1.81503 -4.06123 -1.97841 -1.45146 -5.22226 2.53612 -1.40762 1.35144
104 0.276682 -0.705599 0.0956061 0.48988 0.114884 0.126212 -0.338278 0.451163 -0.0579054 -0.232678 0.0379041 -1.29817 -0.0624533 0.440878 -0.0180669 0.0813173 0.0316947 0.254169 -0.184795 0.105918 0.0158348 0.178195 -0.243847 -0.00367239 0.621119 0.00195549 -0.16748 0.393417 -0.17587 0.181785 0.0930425 0.311787 0.400852 -0.187034 -0.331676 -0.250264 0.00899011 -0.0724806 -0.223525 -0.545413 0.132906 -0.25683 -0.342526 0.180066 0.230793 0.469065 -0.20676 -0.185674 -0.207817 -1.22283 0.95291 0.692777 -3.28575 -5.29901 1.01034 1.29259 1.63845 -3.97189 -1.72702 -1.24351 -4.95329 2.45622 -1.05913 1.14403
119 0.0402399 -0.349254 0.00758368 0.630277 0.225259 0.182222 -0.0217323 0.477287 -0.126431 -0.290151 -0.0842631 -1.29933 -0.207394 0.556534 -0.145627 0.0766 0.108237 0.157475 0.11309 0.250668 0.115691 0.271669 -0.293378 0.248684 0.443107 0.104818 -0.174499 0.407875 -0.06078 0.251727 0.0341607 0.282568 0.290527 -0.332665 -0.314863 -0.334583 -0.0980863 -0.0576213 -0.0581446 -0.325227 0.279343 -0.194895 -0.247331 0.149877 0.379699 0.616886 0.103984 -0.356282 -0.162107 -1.17192 0.983544 0.924264 -3.19841 -5.39221 1.00518 1.28685 1.68806 -3.87486 -2.01646 -1.51384 -5.04067 2.55278 -1.12601 1.08671
144 0.281064 -0.874767 0.0659264 0.574445 -0.0689402 -0.251293 0.217522 0.495033 0.0865517 -0.144863 -0.309543 -1.37686 0.0836857 0.507594 -0.520334 0.273045 -0.0264 0.411551 -0.346465 -0.331237 -0.0861105 0.0772845 -0.329428 0.385581 0.852037 0.539838 -0.784848 0.451582 -0.577157 0.106015 -0.108003 0.279372 0.261343 -0.506799 -1.00541 -0.186607 -0.278458 -0.0815208 0.0832825 -0.952744 0.00894597 -0.513097 -0.542922 -0.0222603 0.472926 0.706461 -0.135533 -0.287143 0.152586 -0.898973 0.826666 0.972342 -2.58329 -3.97259 0.751945 0.75377 1.44003 -2.83793 -1.71735 -1.25353 -3.90472 1.44045 -0.875276 0.8881
121 0.139317 -0.339736 0.025337 0.483605 0.123407 0.142315 -0.196289 0.376499 0.134779 -0.278882 -0.119125 -1.26402 -0.0392264 0.566448 -0.407018 0.107022 -0.104799 0.0887803 0.107299 0.0662627 -0.123724 0.14579 -0.145574 0.237453 0.300694 0.177503 -0.120692 0.347013 -0.0427762 0.132582 0.147303 0.250566 0.061866 -0.250255 -0.470303 -0.232161 -0.24716 -0.106354 -0.162569 -0.424389 0.0784933 -0.29671 -0.247997 0.206703 0.383788 0.604059 -0.0205153 -0.339887 -0.10051 -1.13595 0.870702 0.93763 -3.23727 -5.26522 0.910118 1.1549 1.64092 -3.82102 -1.94551 -1.34561 -4.94465 2.64802 -1.17923 1.12961
139 0.0998544 -0.935756 0.0533751 0.627444 0.0894747 -0.0286379 -0.0454351 0.442997 -0.21265 -0.0548924 -0.0946648 -1.63599 -0.202451 0.577816 -0.252083 0.188975 -0.0235654 0.330961 -0.0884913 -0.0352799 -0.0815703 0.0474456 -0.19303 0.165732 0.450057 0.345244 -0.355867 0.478821 -0.328337 0.329265 0.249099 0.121474 0.266657 -0.477813 -0.733596 -0.307415 -0.237068 -0.0232417 -0.0723714 -0.585713 0.0638663 -0.429202 -0.480775 0.0827195 0.52437 0.500077 0.032326 -0.416346 0.0168242 -1.08879 0.972708 0.856228 -2.90582 -4.61787 0.914988 1.12576 1.58286 -3.33518 -1.7289 -1.34261 -4.56151 2.05602 -1.05844 1.2621
30 0.0455933 -0.583167 0.13171 0.635038 -0.0586343 0.30037 -0.095038 0.407763 -0.128284 -0.276301 -0.133806 -1.31002 -0.215734 0.611713 -0.141814 0.0855301 0.209211 0.353557 -0.110968 0.179343 0.0945047 0.182828 -0.324034 0.18765 0.741957 0.248426 -0.246269 0.369287 -0.18546 0.434292 0.0390726 0.41049 0.100737 -0.205064 -0.698991 -0.305574 -0.097358 -0.0278612 -0.254525 -0.344998 0.297024 -0.272134 -0.372473 0.226152 0.328575 0.718651 -0.0510583 -0.330702 0.0238777 -1.29212 0.817409 0.93356 -2.87589 -4.88175 1.0598 1.39899 1.46736 -3.86891 -2.0029 -1.47729 -4.84617 2.46524 -1.12305 1.16049
103 0.0478936 -0.531419 0.0594282 0.696069 -0.0802917 0.142793 0.23771 0.390589 -0.210708 0.09571 -0.255662 -1.26885 0.0529358 0.351236 -0.198392 0.139145 0.26368 0.241449 0.104993 -0.153108 0.158347 0.191488 -0.233654 0.40158 0.75459 0.100823 -0.113802 0.366548 -0.227845 0.189339 -0.0797664 0.359911 0.00658225 -0.253288 -0.794633 -0.466185 -0.203 -0.16095 -0.457819 -0.51482 0.438186 -0.415808 -0.364054 -0.0700463 0.279641 0.53098 -0.0314343 -0.398842 0.422844 -0.880222 0.963256 0.617342 -2.55843 -4.25393 1.00291 1.11294 1.52858 -3.44611 -1.59735 -1.34199 -4.37055 2.08035 -0.867008 0.953714
108 -0.227096 -0.549827 0.130331 0.411281 -0.0229616 0.293212 0.183355 0.181217 0.0211959 -0.256748 -0.0215466 -1.35132 -0.165358 0.504431 0.0758053 0.0241261 -0.0461363 0.299087 0.0251089 -0.149006 0.217415 0.194009 -0.21862 -0.0453059 0.34742 0.201858 -0.199567 0.490876 -0.0456566 0.0258119 0.354236 0.25659 0.111084 -0.157278 -0.0877624 -0.131859 -0.00791075 -0.1031 -0.11348 -0.405253 0.115456 -0.470192 -0.508546 0.0811876 0.55127 0.492478 -0.0210232 -0.263759 -0.0740269 -0.73154 0.684477 0.584338 -2.73112 -4.35212 0.570863 0.935046 1.31596 -3.31948 -1.51479 -1.17342 -4.29513 2.10855 -1.00935 1.02977
4 0.0473175 -0.738787 0.211015 0.2291 0.133712 0.113276 -0.21263 0.16705 -0.245588 -0.137516 0.192935 -1.41191 -0.0681737 0.2922 -0.0910203 0.0831511 0.178336 0.145491 0.0610683 0.0925844 -0.0286369 0.0264157 -0.206499 0.217013 0.284308 0.128003 -0.364974 0.510215 0.107011 0.231168 -0.109838 -0.0154096 0.0872551 -0.0741461 -0.378989 -0.458128 -0.0548813 -0.102715 0.0151961 -0.397623 0.0461494 -0.119708 -0.271511 0.224217 0.468625 0.376223 -0.112014 -0.221933 -0.029509 -1.01263 0.730153 0.645249 -2.63463 -4.47495 0.718426 1.16443 1.35019 -3.28442 -1.76122 -1.22641 -4.44501 2.07745 -1.11441 1.09255
107 -0.126107 -0.439932 0.110685 0.491661 0.119905 0.197661 -0.228627 0.342455 -0.0309175 -0.0440339 -0.0640465 -1.38308 -0.0101557 0.562911 0.0271646 -0.0633055 0.104253 0.195584 0.0801341 -0.0206124 -0.106533 -0.0426271 -0.150771 -0.142978 0.266198 -0.0696885 -0.238268 0.294967 -0.0324126 0.111788 0.0691604 0.38703 0.153415 -0.233527 -0.628112 -0.164984 -0.201939 -0.0979628 -0.130138 -0.533191 0.296538 -0.277006 -0.263538 0.0730389 0.289586 0.322901 -0.157417 -0.154959 -0.220881 -0.840883 0.735442 0.61833 -2.62189 -4.55266 0.762702 0.88099 1.33697 -3.41617 -1.97275 -1.23829 -4.31151 1.90368 -1.14778 1.32272
68 -0.0306882 -0.526091 0.142187 0.603447 -0.250938 0.124185 -0.026044 0.110461 -0.122489 -0.351535 -0.146772 -1.21304 -0.117741 0.698949 -0.210955 -0.0456022 0.245676 0.426095 0.0305265 0.0674904 -0.0926826 0.262241 -0.0259121 0.257484 0.452976 0.325446 -0.197045 0.384531 -0.187146 0.314494 -0.0307481 0.307278 0.372226 -0.462301 -0.633916 -0.339014 -0.113848 -0.160212 0.0584626 -0.479506 0.0726604 -0.226804 -0.217846 0.0373787 0.191084 0.218592 -0.0216939 -0.182073 0.0411133 -0.992323 0.918791 0.775193 -2.65506 -4.16648 0.770751 1.04746 1.45796 -3.17835 -1.63674 -1.19763 -4.25675 2.07897 -0.755556 1.2329
132 -0.0204235 -0.712628 -0.0122265 0.584364 -0.464005 -0.0301158 0.203951 0.056636 0.150175 -0.253345 0.0332229 -1.28806 -0.213932 0.527007 -0.270824 0.227672 0.158061 0.368555 -0.0472242 -0.22629 0.0698724 -0.00838419 -0.117486 0.415997 0.696594 0.413188 -0.554005 0.335558 -0.315778 0.418365 -0.0462813 0.358685 0.205255 -0.414077 -0.850744 -0.366599 -0.182812 -0.0584539 0.0471198 -0.839039 -0.0703172 0.0482936 -0.211565 -0.029586 0.364339 0.329763 0.0368333 -0.136818 0.163876 -1.05081 0.77135 0.933586 -2.54246 -4.0871 0.805723 0.882843 1.47263 -2.97969 -1.69921 -1.1194 -4.08381 1.78982 -0.9349 1.00222
140 0.066083 -0.481271 -0.11066 0.635468 0.0137726 -0.0821332 -0.179613 0.411995 0.00425121 -0.217481 -0.219308 -1.55891 -0.201605 0.618362 -0.486244 0.186632 0.132715 0.394445 -0.039375 0.0694956 -0.00929199 -0.0217362 -0.228685 0.427745 0.854899 0.404019 -0.489787 0.57827 -0.184555 0.362175 0.0345282 0.257839 0.156615 -0.367789 -0.873293 -0.356478 -0.20196 -0.135022 -0.225558 -0.711782 -0.154925 -0.391723 -0.405253 0.0303925 0.662731 0.698069 -0.191439 -0.311991 0.0605379 -1.14461 0.707123 0.995273 -3.00639 -4.79559 0.791476 1.07798 1.58925 -3.55421 -1.93486 -1.4678 -4.60764 2.13393 -1.09427 1.05288
135 -0.196212 -0.691676 0.240851 0.807903 -0.25097 -0.238704 0.172498 0.376048 -0.188125 -0.301675 -0.405355 -1.17003 0.0975527 0.340096 -0.695523 0.307233 0.205828 0.756605 -0.372002 -0.33725 0.0500395 -0.0722876 -0.153904 -0.104495 0.633419 0.298975 -0.711407 0.119582 -0.224299 0.407644 -0.058542 0.157595 0.194441 -0.459425 -1.0302 -0.46487 -0.414847 -0.287895 -0.259328 -0.781011 -0.138285 -0.216313 -0.379423 -0.134785 0.269397 0.445818 -0.00982555 -0.239283 -0.0286163 -0.983899 0.780427 0.511304 -2.41484 -3.83872 0.529344 0.87541 1.45879 -2.58388 -1.51662 -1.12533 -3.64803 1.43528 -0.668214 1.35304
1 -0.0239183 -0.654056 0.19019 0.477947 -0.0257315 0.165195 -0.152082 0.394133 -0.0865838 -0.30401 -0.085223 -1.50118 -0.124761 0.658409 -0.102892 0.108691 0.285266 0.319937 -0.00695662 0.133086 0.0281765 0.0979313 -0.131694 0.198647 0.548444 0.129123 -0.280119 0.335957 -0.160692 0.345103 0.00540706 0.227265 0.210533 -0.248191 -0.640477 -0.316414 -0.0638844 0.0466317 -0.203859 -0.532711 0.253377 -0.254749 -0.460517 0.144268 0.410849 0.347906 -0.0653251 -0.214518 -0.119983 -1.2944 1.11182 0.903052 -3.22944 -5.40902 0.930091 1.4664 1.75341 -3.95923 -2.0041 -1.39839 -5.1859 2.62787 -1.38922 1.28153
90 -0.122578 -0.489513 -0.0015717 0.295163 0.169829 0.113941 -0.0449122 0.36596 -0.115522 -0.30864 -0.277994 -1.10606 -0.161767 0.553164 -0.126292 0.109243 0.102981 0.0857119 -0.0500613 0.427723 -0.0463366 -0.0747285 -0.274344 0.20922 0.0877216 0.018163 -0.129062 0.216995 0.104282 0.174089 0.0562932 0.41571 0.0824366 -0.1769 -0.202155 -0.253287 0.111336 -0.137502 -0.15185 -0.413885 0.16353 -0.123986 -0.407406 0.0566109 0.339289 0.549758 -0.0779123 -0.114872 -0.0213168 -0.994763 0.758193 0.702327 -2.73735 -4.53329 0.827079 1.09017 1.51681 -3.47249 -1.5764 -1.25519 -4.5426 2.10646 -1.04995 0.914254
62 0.116884 -0.47954 0.0646937 0.513608 0.231531 0.0129346 0.00606315 0.570661 -0.0985228 -0.101894 -0.0264742 -1.82781 -0.160994 0.621536 -0.0878128 0.250263 0.136532 0.288754 0.149622 -0.15892 0.108104 0.0213087 -0.177817 0.0729293 0.900741 0.105536 -0.42042 0.491704 -0.311635 0.225002 -0.0259276 0.184811 0.324237 -0.294084 -0.659169 -0.23283 0.0872057 0.0543628 -0.11278 -0.311236 0.180592 0.387356 -0.449534 -0.065302 0.390796 0.609643 0.0271841 -0.10827 0.0756798 -1.16444 0.551928 1.075 -2.53613 -3.94467 0.754704 1.14705 1.20346 -2.62885 -1.80389 -1.22519 -4.08768 2.07235 -0.817395 1.1529
102 0.143104 -0.600835 0.113897 0.547799 -0.141343 0.224426 0.0414629 0.263546 0.0761129 -0.147275 -0.150561 -1.51522 -0.0501777 0.520806 -0.207056 0.0439467 0.256197 0.270669 0.0944369 0.131397 -0.0749332 0.409346 -0.0528272 0.272203 0.610231 0.0714731 -0.34927 0.288398 -0.359582 0.416146 0.16479 0.504732 0.13173 -0.350797 -0.481063 -0.314915 -0.0501233 0.0902729 -0.0562409 -0.725577 -0.000986246 -0.0725201 -0.206429 0.0230849 0.312996 0.263998 0.0501406 -0.00883541 -0.129324 -0.84675 0.777693 0.653654 -2.69318 -4.28055 0.466789 0.983755 1.29881 -3.27848 -1.69207 -1.09411 -4.18327 1.97474 -1.01212 1.03827
105 -0.0322211 -0.745375 0.00662768 0.554874 -0.2827 0.0322236 0.0206776 0.122895 0.0207241 -0.232014 0.00942149 -1.52506 -0.094362 0.740895 -0.124789 0.0909716 0.267911 0.237154 0.0411699 -0.0812517 0.14532 0.156858 -0.207555 0.388221 0.657392 0.0995546 -0.356228 0.338203 -0.225984 0.263504 0.0149866 0.407629 0.220042 -0.340915 -0.710083 -0.373621 -0.0136957 -0.138552 -0.017387 -0.711375 0.0194346 -0.0738691 -0.161075 0.0424651 0.375741 0.274833 0.120566 -0.0610435 0.179258 -1.03288 0.735617 0.914689 -2.69848 -4.0644 0.83653 1.02896 1.47717 -3.21323 -1.59274 -1.1019 -4.27462 2.03637 -0.831083 1.06782
128 0.466775 -0.365822 0.100126 0.232994 0.0236552 -0.130643 0.211376 0.428876 -0.249248 -0.116823 -0.282007 -1.35776 -0.058721 0.386417 -0.416436 0.475184 -0.115933 0.296481 -0.471259 -0.274597 0.0710178 0.24456 0.126233 0.37217 0.773621 0.0392334 -0.469463 0.421808 -0.260257 0.160675 -0.195665 0.412789 0.26117 -0.49619 -0.398117 0.0584117 -0.368372 -0.232315 0.076138 -0.483396 -0.168506 -0.0290817 -0.637618 -0.149362 0.576033 0.639096 -0.0569467 -0.360118 0.203901 -0.466692 0.569784 0.635068 -2.34561 -3.76211 0.507961 0.902009 1.42293 -2.96995 -1.33518 -0.913468 -3.61758 1.31448 -1.02169 0.888433
99 -0.104211 -0.693717 0.0957965 0.347646 -0.212601 -0.110644 0.241756 0.414149 -0.18096 -0.100731 0.0248567 -1.40786 -0.0903844 0.453419 -0.438784 0.0666883 -0.136052 0.459306 -0.201459 -0.207396 -0.0428105 0.0611519 -0.244386 0.0116559 0.686261 0.440328 -0.403292 0.459629 -0.395934 0.0903087 0.323238 0.188356 0.111272 -0.189675 -0.392578 -0.148944 -0.278471 -0.255414 -0.254857 -0.729964 0.127568 -0.343963 -0.535846 0.121891 0.439046 0.399177 -0.0850632 -0.370912 -0.0382324 -0.688145 0.707841 0.74837 -2.63856 -3.89501 0.800834 0.636395 1.50536 -2.92013 -1.64328 -1.22079 -3.95331 1.82742 -0.811244 1.02694
120 0.16063 -0.486887 0.122498 0.425396 0.306411 -0.181537 0.13976 0.455962 -0.196151 -0.147262 -0.254603 -1.62991 -0.120722 0.530594 -0.546972 0.274293 -0.156398 0.184316 -0.331148 -0.205092 -0.126227 0.205889 -0.226079 0.199643 0.809868 0.177319 -0.568258 0.31932 -0.337968 0.251427 -0.187147 0.384245 0.272409 -0.438686 -0.581862 -0.0543033 -0.247051 -0.124017 0.000546169 -0.569499 0.154874 0.100698 -0.489105 -0.166848 0.578777 0.527017 -0.199681 -0.192211 -0.00027556 -0.635881 0.754724 0.641934 -2.34239 -3.95612 0.585102 0.8415 1.50685 -3.16028 -1.53768 -1.10566 -3.89308 1.64166 -1.03477 1.06851
111 0.0487003 -0.569315 -0.0462466 0.546011 0.181913 -0.215725 0.392969 0.563925 0.114207 -0.205512 -0.235414 -1.34093 0.115061 0.457702 -0.472709 0.30734 -0.183503 0.141265 -0.517814 -0.258757 -0.150571 0.168863 -0.400919 0.0595513 0.847236 0.264349 -0.65873 0.289227 -0.47475 0.00400963 -0.198242 0.123361 0.180929 -0.44575 -0.687728 -0.0775656 -0.120541 -0.171404 -0.0582393 -0.659711 0.0739026 -0.246507 -0.477957 -0.11355 0.317585 0.338621 -0.0998775 -0.156334 -0.0255757 -0.678836 0.741522 0.653712 -2.24418 -3.74542 0.644962 0.52063 1.60109 -2.63215 -1.53483 -1.10443 -3.5242 1.27524 -0.776714 0.979372
134 -0.181166 -0.305787 0.0770739 0.440698 -0.468128 -0.392058 0.453519 0.746099 0.255572 -0.0103697 -0.25356 -1.13135 0.044984 0.43152 -0.180806 0.349296 -0.118264 0.163619 -0.496938 -0.0422751 -0.232863 -0.139602 -0.370247 0.198558 1.15444 0.449144 -0.773652 0.410331 -0.337206 0.191351 0.0410941 0.319504 -0.0909982 -0.36671 -0.459173 -0.0680273 -0.235748 -0.193886 0.0415218 -0.674595 0.125126 -0.67228 -0.668008 0.144012 0.532018 0.337741 0.0573461 -0.113889 0.0140405 -0.719171 0.748272 0.727666 -2.11361 -3.46236 0.747483 0.527441 1.12402 -2.24554 -1.41204 -1.08774 -3.2773 1.23357 -0.337387 0.630802
147 0.605277 -0.58645 -0.0150067 0.199315 0.17256 -0.283443 0.445761 0.410619 -0.223659 -0.145592 -0.310315 -1.47919 0.0562149 0.319674 -0.40724 0.458019 0.00849518 0.28782 -0.592725 -0.387069 0.103775 0.170955 0.0317612 0.316366 0.835762 0.213448 -0.61027 0.507666 -0.45533 0.0819852 -0.296532 0.348104 0.0308874 -0.555459 -0.494067 0.0862762 -0.323962 -0.136411 0.133286 -0.51176 -0.061298 0.0798309 -0.573839 -0.21104 0.466293 0.775842 -0.0994518 -0.50469 0.252153 -0.513172 0.64039 0.816421 -2.25135 -3.5623 0.497836 0.748558 1.37563 -2.84879 -1.37433 -1.04339 -3.46095 1.18981 -0.810578 0.835238
145 0.364486 -0.415698 0.140674 0.608233 0.0808732 -0.369658 0.813407 0.532944 0.0490753 0.0403163 -0.284065 -1.25648 0.319756 0.476698 -0.510773 0.478581 0.194309 0.252844 -0.525767 -0.519041 0.0229427 -0.068178 -0.392973 0.394667 0.71501 0.393264 -0.496587 0.423371 -0.457485 0.340963 -0.038231 0.517916 0.39627 -0.60069 -0.94349 -0.326595 -0.421324 -0.12866 -0.0814205 -0.890576 0.160231 -0.137442 -0.546733 -0.0181018 0.286056 0.302591 0.107133 -0.249314 0.470942 -0.264864 1.03009 0.860172 -1.95209 -3.64173 0.329441 0.347322 1.39639 -2.33214 -1.29955 -1.15409 -3.31411 1.11406 -0.85597 0.871052
148 -0.47692 -1.02962 0.25277 0.709232 -0.0106168 0.631612 -0.506496 0.430863 -0.285617 -0.247948 0.166528 -2.5322 -0.623651 1.19266 0.0192073 -0.152393 -0.0280165 0.217894 0.558836 0.7888 -0.0462102 -0.254503 -0.191991 0.27142 0.677807 0.148636 -0.195151 0.668839 0.202102 0.55056 0.129212 0.568244 0.580222 -0.227095 -0.923321 -0.775284 -0.0800738 0.0308125 -0.944475 -0.467068 0.518143 -0.260987 -0.562876 0.246774 0.931261 0.851295 -0.0260398 -0.548661 -0.153159 -2.06849 1.5868 1.38012 -4.52622 -7.60694 1.43971 2.22 2.14902 -6.20635 -2.80624 -2.10828 -7.63565 3.96993 -1.81998 1.96688
149 -0.409199 -1.03638 0.216022 0.817332 -0.114893 0.784 -0.639402 0.434964 -0.303594 -0.311759 0.232886 -2.59159 -0.618099 1.18608 -0.106984 -0.161189 0.0374947 0.327433 0.44498 0.818248 0.0821056 -0.179704 -0.158432 0.142503 0.549661 0.136881 -0.103484 0.719347 0.25818 0.592896 0.143935 0.512623 0.547579 -0.209367 -0.878832 -0.756251 -0.168112 -0.0274327 -0.821871 -0.342383 0.687196 -0.299609 -0.516348 0.236921 0.864193 0.778409 -0.0721307 -0.657096 -0.158205 -2.12642 1.57398 1.37854 -4.48935 -7.49932 1.41766 2.25018 2.18127 -6.24436 -2.95649 -1.95487 -7.57565 3.93778 -1.73238 2.02345
106 0.0569131 -0.394268 -0.0292104 0.560103 0.42734 -0.0963213 0.218514 0.460298 0.0688298 -0.301656 -0.205299 -1.58434 -0.028309 0.550705 -0.65377 0.176882 -0.146165 0.0864457 -0.202537 -0.188883 -0.14136 0.389922 -0.394938 -0.0381284 0.780662 0.2362 -0.502019 0.229165 -0.429445 0.167943 -0.255048 0.0600733 0.329638 -0.454248 -0.730197 -0.0604413 -0.0981915 -0.0641043 -0.162603 -0.402617 0.259751 -0.0536353 -0.471745 -0.21828 0.401679 0.526482 -0.180973 -0.21333 -0.00879469 -0.628687 0.872514 0.742923 -2.3176 -4.12136 0.810536 0.877704 1.66878 -3.04608 -1.60835 -1.19441 -4.03352 1.63005 -1.04742 1.02466
