491 64
170 -0.386919 0.337022 0.0259318 -1.53371 -1.06181 -0.538855 -0.662411 1.94565 -0.332385 -0.34818 0.031525 0.306938 0.329917 0.014784 -0.91001 -1.25262 -0.169643 -0.348759 -0.36876 0.686174 0.566994 0.368598 1.0414 -0.133608 -0.102828 -0.256587 -0.187354 -0.446026 0.64003 -0.19325 -0.0713322 0.582025 0.0883048 -0.131129 -0.245828 0.372212 -0.30591 0.0288732 0.391629 0.132486 -0.0425787 0.0543802 -0.0468856 -0.203284 0.0589481 0.111555 -0.219254 -0.0632233 -0.0609744 0.179648 -0.116748 0.0955365 -0.329476 -0.212411 -0.172365 -0.131274 0.344678 -0.6663 0.341638 0.639741 -0.388813 0.0924281 0.0502314 0.0159892
101 -0.43791 0.384263 0.0405469 -1.69609 -1.1706 -0.558358 -0.724624 2.17026 -0.34909 -0.33812 0.0327639 0.338096 0.367985 0.0134647 -1.00852 -1.3746 -0.173311 -0.362874 -0.410401 0.723851 0.624383 0.408253 1.12603 -0.146635 -0.102113 -0.284996 -0.168317 -0.462587 0.669903 -0.211751 -0.0743647 0.624686 0.104328 -0.143797 -0.277858 0.39339 -0.325958 0.0327063 0.41995 0.133746 -0.0381957 0.0538667 -0.0586552 -0.217887 0.0513811 0.121479 -0.25296 -0.0938567 -0.0703518 0.142427 -0.146486 0.0978697 -0.385841 -0.223023 -0.176775 -0.152631 0.38456 -0.621688 0.365436 0.691769 -0.409378 0.0887724 0.0365917 0.0143064
393 -0.409258 0.36808 0.0230923 -1.60197 -1.10039 -0.56145 -0.687614 2.05575 -0.345673 -0.362416 0.024559 0.326228 0.339349 0.0157642 -0.932769 -1.29799 -0.175386 -0.347657 -0.366882 0.682358 0.591781 0.369203 1.05407 -0.140753 -0.0692749 -0.268903 -0.183129 -0.470892 0.635403 -0.195245 -0.0866129 0.57262 0.0808331 -0.137023 -0.242304 0.371445 -0.301829 0.0314082 0.383841 0.127014 -0.0419222 0.0583028 -0.0371827 -0.215699 0.0630442 0.116889 -0.225588 -0.0724537 -0.0602865 0.183992 -0.113955 0.104871 -0.352027 -0.220286 -0.149357 -0.14981 0.37179 -0.649832 0.335245 0.668993 -0.39508 0.101213 0.0569298 0.0136465
338 -0.421942 0.362812 0.0280776 -1.60694 -1.12952 -0.555813 -0.69741 2.06259 -0.341818 -0.348516 0.0323395 0.323238 0.376023 0.012256 -0.988672 -1.33412 -0.17008 -0.350279 -0.389966 0.697926 0.58774 0.384521 1.10292 -0.138864 -0.121051 -0.256224 -0.181142 -0.456442 0.645114 -0.188968 -0.0639925 0.587533 0.0880052 -0.155556 -0.28078 0.401271 -0.349479 0.0457064 0.424263 0.14325 -0.0436519 0.0500144 -0.0525626 -0.20982 0.0540027 0.114961 -0.23855 -0.0907275 -0.0679865 0.196869 -0.108937 0.106025 -0.367118 -0.249413 -0.215942 -0.110075 0.350067 -0.694824 0.373759 0.649905 -0.407809 0.0917832 0.0405808 0.0182531
389 -0.405574 0.379779 0.015232 -1.63811 -1.14584 -0.574484 -0.709879 2.09474 -0.338588 -0.354142 0.0635929 0.335363 0.355342 0.0185108 -0.967272 -1.29169 -0.169695 -0.34812 -0.398887 0.707574 0.611618 0.374054 1.09861 -0.139893 -0.0836791 -0.288804 -0.190621 -0.49441 0.674199 -0.201098 -0.0752628 0.60298 0.117682 -0.129057 -0.278075 0.403763 -0.325793 0.0419742 0.417175 0.140936 -0.041183 0.0353071 -0.0426525 -0.196657 0.0639884 0.122018 -0.237745 -0.0679876 -0.0608733 0.136904 -0.128824 0.102465 -0.361329 -0.242814 -0.144607 -0.158372 0.38543 -0.679646 0.386635 0.694786 -0.426308 0.0712186 0.0483865 0.0070226
141 -0.418182 0.378648 0.0242849 -1.62321 -1.10471 -0.549093 -0.7061 2.08261 -0.350186 -0.330575 0.0536465 0.314092 0.373508 0.0274214 -0.942215 -1.30536 -0.155345 -0.359094 -0.405786 0.700132 0.598973 0.37215 1.0828 -0.14525 -0.105703 -0.277221 -0.203247 -0.479873 0.689787 -0.195507 -0.0794848 0.632094 0.100301 -0.161643 -0.266235 0.386528 -0.340105 0.0392795 0.41972 0.147091 -0.0384032 0.0726366 -0.0386227 -0.228295 0.0452935 0.0941863 -0.260675 -0.0777047 -0.0530097 0.176696 -0.116847 0.0943393 -0.378837 -0.229785 -0.167444 -0.139939 0.359355 -0.66164 0.375347 0.684427 -0.411183 0.0936025 0.0517635 0.0177617
444 -0.422581 0.372769 0.0182866 -1.61074 -1.16002 -0.563288 -0.704156 2.06987 -0.342521 -0.367464 0.0585124 0.32509 0.346604 0.00188426 -0.993627 -1.3302 -0.166885 -0.350349 -0.373212 0.694229 0.610872 0.381489 1.06908 -0.141554 -0.0764811 -0.272173 -0.163101 -0.484093 0.667469 -0.17461 -0.0874941 0.580212 0.132482 -0.121563 -0.266158 0.400723 -0.327267 0.0195342 0.423008 0.177383 -0.0311491 0.0432933 -0.0689163 -0.20375 0.0638459 0.116803 -0.238247 -0.0630105 -0.0504331 0.117005 -0.122398 0.0745925 -0.342402 -0.184607 -0.1371 -0.161237 0.385907 -0.607831 0.345862 0.678513 -0.420469 0.0778966 0.0539708 0.00918734
172 -0.403239 0.3757 0.0474169 -1.57748 -1.07688 -0.535061 -0.710783 1.98511 -0.340971 -0.371085 0.0470166 0.31973 0.350487 0.0121587 -0.917694 -1.26016 -0.176801 -0.342049 -0.372983 0.679662 0.599222 0.363996 1.0737 -0.137196 -0.0849528 -0.259397 -0.186517 -0.489786 0.650815 -0.19311 -0.0676123 0.563196 0.101141 -0.125789 -0.269115 0.370876 -0.318634 0.0308279 0.382936 0.162148 -0.0315807 0.0579644 -0.0494118 -0.201575 0.057632 0.128122 -0.219513 -0.0513594 -0.0599628 0.149308 -0.119409 0.113453 -0.338974 -0.201801 -0.145663 -0.159696 0.355966 -0.645166 0.346727 0.660725 -0.401511 0.082014 0.0501344 -0.00357405
395 -0.430429 0.365792 0.0211317 -1.5878 -1.13913 -0.561594 -0.703831 2.03935 -0.317042 -0.349118 0.051045 0.337375 0.357058 0.0107239 -0.964945 -1.28782 -0.184392 -0.33825 -0.379846 0.675136 0.602576 0.367843 1.07606 -0.133954 -0.0759688 -0.28974 -0.163063 -0.478384 0.657628 -0.193005 -0.0799389 0.582421 0.114456 -0.118014 -0.265861 0.385896 -0.291627 0.0339516 0.402553 0.157074 -0.0396961 0.0330404 -0.0401368 -0.200093 0.06956 0.133445 -0.238718 -0.0802447 -0.0559258 0.122425 -0.121404 0.100259 -0.33147 -0.206077 -0.127047 -0.176723 0.391279 -0.635912 0.339714 0.670435 -0.403886 0.0763131 0.0490317 0.0158124
165 -0.432384 0.375342 0.0402094 -1.6335 -1.10595 -0.558897 -0.698488 2.07317 -0.326358 -0.346351 0.0322731 0.329741 0.358439 0.0225673 -0.926738 -1.28504 -0.163584 -0.341875 -0.383107 0.646493 0.548418 0.360807 1.0465 -0.130272 -0.0991417 -0.263058 -0.167587 -0.452951 0.624263 -0.186878 -0.0648824 0.592974 0.0764543 -0.135426 -0.269544 0.362948 -0.309938 0.0447959 0.386202 0.115834 -0.0162238 0.0440377 -0.0500905 -0.204822 0.0445497 0.112031 -0.228626 -0.0959891 -0.0647934 0.165478 -0.103786 0.0813577 -0.334659 -0.210226 -0.1562 -0.136659 0.336841 -0.634224 0.36278 0.637161 -0.389136 0.0719772 0.0353862 0.00736358
256 -0.420226 0.363539 0.033721 -1.59409 -1.12013 -0.551521 -0.677811 2.0393 -0.337778 -0.352528 0.0501906 0.326573 0.349181 0.0140963 -0.97303 -1.3352 -0.172259 -0.350727 -0.406382 0.706701 0.615648 0.392889 1.10573 -0.136625 -0.103896 -0.271458 -0.183697 -0.468481 0.668957 -0.175316 -0.0627315 0.612969 0.113843 -0.14284 -0.280303 0.401779 -0.320137 0.0420674 0.428341 0.150285 -0.0400959 0.0501379 -0.0436551 -0.216552 0.0603653 0.128594 -0.242514 -0.085157 -0.0555936 0.162304 -0.111852 0.0949188 -0.353696 -0.238795 -0.182703 -0.118232 0.359844 -0.7027 0.376757 0.677682 -0.428187 0.0823647 0.0525031 0.0078381
458 -0.426752 0.362935 0.0397899 -1.6706 -1.13434 -0.584318 -0.716567 2.12971 -0.368012 -0.345749 0.0325115 0.326936 0.358595 0.0104135 -0.967947 -1.33432 -0.152444 -0.350945 -0.396446 0.69692 0.584192 0.381302 1.10287 -0.127533 -0.105155 -0.288692 -0.181039 -0.451537 0.668838 -0.197742 -0.0642129 0.643509 0.1003 -0.119175 -0.275476 0.390667 -0.305897 0.0518298 0.394272 0.125988 -0.030648 0.0451861 -0.035017 -0.19257 0.0697749 0.121765 -0.247387 -0.0838183 -0.0520181 0.133503 -0.118881 0.0923798 -0.3201 -0.210724 -0.155555 -0.11351 0.344248 -0.612573 0.359667 0.63763 -0.383189 0.0619359 0.0253264 0.0122307
192 -0.399157 0.341899 0.0217326 -1.53381 -1.08311 -0.536549 -0.666363 1.95899 -0.32977 -0.355293 0.0235668 0.309354 0.344363 0.0143813 -0.954371 -1.31243 -0.154106 -0.33259 -0.387819 0.674378 0.558382 0.369881 1.05022 -0.135399 -0.101013 -0.264722 -0.173304 -0.438988 0.62958 -0.177775 -0.0673759 0.594196 0.0819077 -0.141214 -0.27378 0.381296 -0.323049 0.0272704 0.42353 0.142965 -0.0331239 0.0535526 -0.0499236 -0.200796 0.0569513 0.116365 -0.226165 -0.0945528 -0.0482819 0.174026 -0.109616 0.0898124 -0.333007 -0.211669 -0.17141 -0.110302 0.342132 -0.655746 0.350614 0.647708 -0.398102 0.0858514 0.0421507 0.017404
222 -0.41918 0.375369 0.0240975 -1.57436 -1.1291 -0.541594 -0.690092 2.026 -0.321908 -0.354931 0.0488614 0.331525 0.369039 0.00734909 -0.962195 -1.30327 -0.174899 -0.328252 -0.374548 0.672045 0.599574 0.377405 1.0703 -0.138237 -0.0666747 -0.281113 -0.180098 -0.498866 0.653142 -0.17773 -0.0705509 0.548145 0.125701 -0.12855 -0.275936 0.39225 -0.330053 0.0201854 0.412274 0.168498 -0.0429081 0.0507737 -0.0550126 -0.212053 0.059545 0.130443 -0.237884 -0.0689291 -0.0623611 0.126447 -0.132078 0.104879 -0.347332 -0.208397 -0.132325 -0.19858 0.37018 -0.610624 0.344108 0.676547 -0.407508 0.0728033 0.0604698 0.0120185
242 -0.390459 0.363375 0.0514692 -1.55137 -1.09557 -0.533059 -0.685553 1.99236 -0.329185 -0.349401 0.0524989 0.314689 0.357579 0.00443326 -0.946902 -1.2781 -0.161596 -0.336145 -0.394814 0.666176 0.575391 0.374801 1.06338 -0.132708 -0.102818 -0.261275 -0.190562 -0.454358 0.648056 -0.183879 -0.0433717 0.585659 0.0844859 -0.136385 -0.274529 0.371255 -0.321139 0.0512623 0.391301 0.131041 -0.0400661 0.0372677 -0.0593753 -0.208602 0.0682567 0.130396 -0.226466 -0.0723576 -0.0652978 0.179263 -0.127494 0.110686 -0.339382 -0.219609 -0.188261 -0.140864 0.347648 -0.661189 0.356534 0.660257 -0.3926 0.0731943 0.0376396 0.00930625
37 -0.418503 0.363512 0.0111469 -1.59144 -1.14529 -0.560415 -0.685694 2.06279 -0.333889 -0.358924 0.046339 0.336738 0.35625 0.00523278 -0.999674 -1.35682 -0.162969 -0.358795 -0.388876 0.716705 0.623854 0.387746 1.09931 -0.146998 -0.0970557 -0.297689 -0.181235 -0.481572 0.675681 -0.195017 -0.0740775 0.599465 0.110366 -0.145305 -0.269698 0.405813 -0.328793 0.0109375 0.429766 0.140599 -0.0482658 0.0490005 -0.0507775 -0.210161 0.0526859 0.123341 -0.244284 -0.101449 -0.0580819 0.163347 -0.125361 0.0846274 -0.365565 -0.223242 -0.164208 -0.152863 0.38033 -0.64903 0.358598 0.705027 -0.429452 0.0877375 0.0591398 0.0219178
446 -0.382853 0.344547 0.0280507 -1.50266 -1.07343 -0.515543 -0.66673 1.91803 -0.317823 -0.342386 0.0371378 0.307004 0.353567 0.00628214 -0.924842 -1.23911 -0.159976 -0.329352 -0.364396 0.66173 0.562688 0.358009 1.02763 -0.13545 -0.0963643 -0.260788 -0.179292 -0.45826 0.643043 -0.186919 -0.0526179 0.551337 0.105596 -0.140624 -0.251188 0.364255 -0.312799 0.014926 0.389579 0.146045 -0.0374734 0.0541932 -0.0517996 -0.198185 0.0439967 0.110368 -0.221629 -0.0725984 -0.0628331 0.160684 -0.118111 0.0885126 -0.340623 -0.20046 -0.173645 -0.158905 0.349394 -0.646171 0.343632 0.637402 -0.393434 0.0873833 0.0538713 0.0043809
211 -0.406267 0.357847 0.0321236 -1.60609 -1.11261 -0.557935 -0.68024 2.0607 -0.334521 -0.339996 0.0434418 0.326547 0.357356 0.0190758 -0.93758 -1.30163 -0.150905 -0.364997 -0.398821 0.692554 0.595818 0.37631 1.06746 -0.132672 -0.0954465 -0.260664 -0.180207 -0.454043 0.651438 -0.183133 -0.064571 0.597688 0.105531 -0.130744 -0.274085 0.390357 -0.321628 0.0445708 0.410012 0.161459 -0.0449666 0.0547201 -0.0464951 -0.204132 0.0751877 0.0993074 -0.241696 -0.0747094 -0.0292243 0.136156 -0.120467 0.0965417 -0.348361 -0.218641 -0.142096 -0.159203 0.363889 -0.613827 0.347167 0.663556 -0.4091 0.0926276 0.050612 0.019884
261 -0.437352 0.388775 0.040028 -1.66824 -1.15966 -0.559463 -0.730556 2.11457 -0.336052 -0.387349 0.0368532 0.334852 0.385678 0.0218613 -0.991515 -1.36244 -0.17913 -0.349819 -0.418624 0.702311 0.616188 0.385202 1.10678 -0.154842 -0.0916849 -0.285497 -0.188129 -0.496736 0.676651 -0.201882 -0.0617453 0.634047 0.0957257 -0.149786 -0.292857 0.396908 -0.344078 0.0325202 0.447794 0.162887 -0.02658 0.0610018 -0.0625877 -0.220556 0.0612033 0.123862 -0.248826 -0.0937954 -0.0594535 0.177901 -0.120559 0.0932436 -0.367584 -0.2417 -0.189662 -0.143252 0.371105 -0.682135 0.374904 0.710465 -0.445105 0.0901718 0.0589685 -0.000311858
309 -0.392411 0.353834 0.0300411 -1.59161 -1.06588 -0.539881 -0.694721 1.99245 -0.327499 -0.342203 0.0421591 0.330248 0.360624 0.0247448 -0.92013 -1.26309 -0.159699 -0.353445 -0.367111 0.66769 0.573121 0.362652 1.05519 -0.117668 -0.0980625 -0.257983 -0.168815 -0.467594 0.646911 -0.187377 -0.0798265 0.574535 0.100904 -0.134296 -0.269749 0.382495 -0.296641 0.0306312 0.388369 0.138547 -0.0336445 0.0443342 -0.0421147 -0.20059 0.0582069 0.103602 -0.224786 -0.0844668 -0.048392 0.132174 -0.119471 0.101241 -0.337677 -0.214518 -0.151288 -0.139199 0.35414 -0.614076 0.338614 0.62759 -0.387476 0.0656584 0.0327847 0.0162412
432 -0.436252 0.400885 0.020747 -1.58603 -1.16366 -0.54846 -0.704962 2.08331 -0.32036 -0.359502 0.065066 0.336323 0.366298 0.011898 -0.976659 -1.33167 -0.168647 -0.339368 -0.394341 0.685538 0.614696 0.399074 1.08896 -0.142671 -0.0857722 -0.266743 -0.199922 -0.475122 0.65648 -0.184476 -0.0753836 0.568212 0.124421 -0.135129 -0.267108 0.391051 -0.325726 0.0281632 0.432249 0.159465 -0.0493869 0.0537151 -0.0656006 -0.216898 0.0541408 0.120388 -0.249797 -0.0833695 -0.0620073 0.129721 -0.114245 0.090597 -0.351619 -0.216343 -0.14824 -0.169051 0.37855 -0.646278 0.363408 0.694236 -0.419449 0.073032 0.0548684 0.00617068
176 -0.450984 0.329946 -0.105226 -1.15481 -1.17035 -0.628647 -0.237254 1.99649 -0.101654 -0.552476 -0.0488023 0.380454 0.698607 -0.0644337 -1.20709 -1.6196 -0.19406 -0.147195 -0.411689 0.703224 0.706867 0.347002 1.12289 -0.451581 0.0575761 -0.203163 -0.401123 -0.709639 0.602415 0.0714263 -0.10511 0.138454 0.351441 -0.00407598 -0.341235 0.45315 -0.484303 -0.241887 0.862488 0.189849 -0.0775104 0.0039985 -0.225813 -0.275764 0.239137 0.184066 0.0488838 -0.149042 0.0278746 -0.399855 0.108979 0.318655 -0.289459 -0.318486 0.263712 -0.139117 0.402798 -0.0948509 0.143671 0.700938 -0.376734 0.00302648 0.38633 0.12954
270 -0.433332 0.337331 -0.115124 -1.15279 -1.17917 -0.615015 -0.23962 1.96391 -0.0922701 -0.534172 -0.030476 0.370165 0.689113 -0.0669618 -1.17927 -1.58982 -0.178819 -0.147694 -0.390894 0.685979 0.695825 0.325618 1.08443 -0.440966 0.0564449 -0.206281 -0.392266 -0.70452 0.598329 0.0705164 -0.0855465 0.114938 0.330597 -0.00673057 -0.331123 0.43294 -0.450857 -0.23463 0.841334 0.17505 -0.082418 0.0208489 -0.218447 -0.26576 0.214164 0.179015 0.0573973 -0.157151 0.0375021 -0.430263 0.10836 0.329442 -0.312778 -0.322234 0.274912 -0.16988 0.403118 -0.116754 0.143045 0.7014 -0.393873 0.0117035 0.39426 0.131463
399 -0.447262 0.336865 -0.104665 -1.17056 -1.17784 -0.632497 -0.257758 2.00344 -0.100788 -0.559925 -0.0347093 0.383178 0.702241 -0.0594115 -1.22513 -1.65761 -0.187778 -0.140546 -0.424758 0.701071 0.716522 0.334727 1.12061 -0.459977 0.0617921 -0.208229 -0.410055 -0.737404 0.635292 0.0845328 -0.0906315 0.141055 0.360514 -0.00661228 -0.341683 0.464085 -0.494006 -0.246169 0.882399 0.197365 -0.0905124 0.0281982 -0.220324 -0.285885 0.237507 0.165429 0.0579504 -0.15361 0.041671 -0.434611 0.126534 0.338343 -0.295239 -0.325288 0.290716 -0.152978 0.395099 -0.109076 0.147219 0.711586 -0.380196 0.00935889 0.386065 0.140702
361 -0.462941 0.331108 -0.117235 -1.17392 -1.17885 -0.634611 -0.25424 1.97999 -0.0941359 -0.550346 -0.0291386 0.371457 0.688447 -0.0435661 -1.19808 -1.63676 -0.193985 -0.153263 -0.431055 0.717058 0.707527 0.340304 1.13599 -0.447596 0.0741457 -0.218699 -0.412629 -0.747823 0.614045 0.0806966 -0.108396 0.130303 0.352038 -0.00666554 -0.336232 0.470177 -0.487696 -0.253258 0.883018 0.217121 -0.0758666 0.0277494 -0.228154 -0.294287 0.241827 0.186748 0.0475708 -0.157807 0.0359741 -0.415877 0.107205 0.311581 -0.298362 -0.337888 0.306692 -0.155054 0.429361 -0.118775 0.136027 0.736951 -0.393497 0.0162686 0.37996 0.130987
390 -0.437314 0.342256 -0.106318 -1.16283 -1.17177 -0.61452 -0.254074 1.98345 -0.110335 -0.562404 -0.0422889 0.380469 0.700486 -0.0547993 -1.20989 -1.62251 -0.196519 -0.132272 -0.42029 0.69761 0.698139 0.315509 1.09125 -0.434702 0.0625341 -0.197752 -0.380057 -0.725219 0.612754 0.078407 -0.0909169 0.133384 0.343953 -0.0234373 -0.342389 0.449419 -0.471031 -0.251675 0.842914 0.196962 -0.0990347 0.0406722 -0.229426 -0.277149 0.247224 0.177048 0.0512682 -0.152364 0.0329421 -0.415052 0.116908 0.324812 -0.283506 -0.319567 0.283613 -0.166465 0.405024 -0.138524 0.151434 0.72369 -0.384184 0.00166566 0.399378 0.143551
269 -0.475488 0.369263 -0.125406 -1.23224 -1.25007 -0.669988 -0.279095 2.10725 -0.107036 -0.567542 -0.0251504 0.389863 0.728911 -0.05988 -1.23524 -1.69666 -0.218144 -0.16295 -0.426002 0.758357 0.759233 0.368163 1.18898 -0.461858 0.0711805 -0.223994 -0.41961 -0.762863 0.645252 0.0808251 -0.124429 0.138006 0.372551 -0.0250319 -0.336623 0.469636 -0.477818 -0.252831 0.900539 0.236394 -0.108677 0.039598 -0.219092 -0.289063 0.241663 0.195853 0.0189968 -0.134618 0.0209182 -0.399684 0.0946365 0.292397 -0.287489 -0.305215 0.266821 -0.167188 0.474668 -0.133086 0.159433 0.798609 -0.43098 0.0142014 0.416619 0.145838
460 -0.46235 0.338355 -0.12639 -1.15831 -1.19102 -0.630623 -0.239929 2.04758 -0.0643692 -0.54395 -0.0335515 0.373944 0.731134 -0.0605519 -1.20068 -1.62466 -0.195059 -0.149681 -0.428163 0.716657 0.714531 0.320245 1.14399 -0.479814 0.0633894 -0.217913 -0.412732 -0.753912 0.625114 0.0846448 -0.0968286 0.123891 0.367166 0.000395945 -0.345697 0.460147 -0.494501 -0.259928 0.901402 0.198719 -0.0889867 0.0300341 -0.224537 -0.290096 0.233892 0.166684 0.0602248 -0.167583 0.0377334 -0.450862 0.122976 0.318975 -0.306574 -0.337158 0.290376 -0.126533 0.404629 -0.0885672 0.145621 0.722688 -0.382091 0.00355423 0.405399 0.135876
281 -0.477023 0.37123 -0.123499 -1.20115 -1.21187 -0.653485 -0.24378 2.11907 -0.0950142 -0.57202 -0.0414648 0.395347 0.761693 -0.0583913 -1.25387 -1.70852 -0.214354 -0.150081 -0.443795 0.751246 0.747778 0.351993 1.19967 -0.513935 0.0679855 -0.221824 -0.449852 -0.797768 0.659966 0.0947263 -0.106654 0.129256 0.374106 -0.0175019 -0.35901 0.483147 -0.523927 -0.26363 0.939412 0.211104 -0.0989228 0.0229956 -0.243412 -0.298249 0.252406 0.194381 0.0632104 -0.172408 0.014709 -0.457491 0.133246 0.333918 -0.309522 -0.351551 0.303249 -0.164025 0.440356 -0.123333 0.152262 0.779467 -0.410311 -0.0175528 0.441143 0.135412
39 -0.447233 0.364847 -0.113869 -1.19889 -1.22646 -0.64424 -0.274676 2.01672 -0.113482 -0.589465 -0.0451331 0.394226 0.706328 -0.0569159 -1.22746 -1.66632 -0.215436 -0.167205 -0.402281 0.704772 0.733029 0.341666 1.12262 -0.456247 0.0652566 -0.213102 -0.378597 -0.763975 0.633447 0.0746051 -0.110991 0.140138 0.331314 -0.00902308 -0.330413 0.459039 -0.459536 -0.234737 0.851851 0.209401 -0.0881338 0.0261462 -0.211106 -0.273565 0.212167 0.165774 0.036254 -0.15302 0.0614983 -0.415521 0.126102 0.325011 -0.294461 -0.318948 0.276025 -0.145822 0.401238 -0.12177 0.143768 0.705887 -0.410609 0.0272226 0.380215 0.10837
486 -0.445748 0.339354 -0.110771 -1.12293 -1.1529 -0.584683 -0.257211 1.89214 -0.112001 -0.537002 -0.0294857 0.36304 0.646785 -0.0761989 -1.16986 -1.58362 -0.199156 -0.138531 -0.39564 0.66888 0.681437 0.327906 1.06893 -0.413988 0.0665486 -0.191438 -0.368181 -0.694935 0.58511 0.0861231 -0.0998059 0.133999 0.319091 -0.0145521 -0.311932 0.442214 -0.449245 -0.221933 0.816359 0.196557 -0.0877935 0.0262104 -0.208457 -0.266748 0.224237 0.17505 0.0204653 -0.148664 0.0487934 -0.38127 0.110844 0.293876 -0.257402 -0.275767 0.249555 -0.144542 0.405813 -0.121662 0.139536 0.694617 -0.40344 0.011246 0.381586 0.120428
169 -0.44095 0.349844 -0.121121 -1.15234 -1.19636 -0.627104 -0.249505 2.00702 -0.101719 -0.564182 -0.036016 0.388111 0.710452 -0.0677343 -1.22464 -1.65778 -0.240207 -0.166391 -0.449996 0.755253 0.762428 0.357719 1.18831 -0.474064 0.060623 -0.20171 -0.383673 -0.749306 0.628822 0.0889663 -0.111965 0.138149 0.365576 -0.0172184 -0.352307 0.474712 -0.482008 -0.268143 0.904767 0.218052 -0.111928 0.031025 -0.218908 -0.282743 0.243191 0.195517 0.0194453 -0.165679 0.0504559 -0.41645 0.11832 0.299899 -0.279552 -0.315595 0.250359 -0.140769 0.426534 -0.127174 0.167508 0.737118 -0.401269 0.00528827 0.409751 0.130916
93 -0.419126 0.339444 -0.120221 -1.17133 -1.20404 -0.637013 -0.25692 2.0186 -0.0916134 -0.574762 -0.0226551 0.401608 0.720341 -0.053742 -1.20202 -1.62167 -0.202838 -0.168033 -0.415248 0.706627 0.729122 0.3219 1.10745 -0.443764 0.0588047 -0.208845 -0.356715 -0.73882 0.616761 0.0661434 -0.0938965 0.139351 0.3202 -0.0280775 -0.32762 0.427972 -0.439235 -0.245106 0.830986 0.18021 -0.0989527 0.032689 -0.205353 -0.255139 0.226509 0.163681 0.0371962 -0.164986 0.0486996 -0.40135 0.107483 0.287868 -0.276195 -0.305854 0.253462 -0.136535 0.404886 -0.112586 0.142056 0.697455 -0.395439 0.00997143 0.395929 0.133248
31 -0.458349 0.337486 -0.109291 -1.12565 -1.16165 -0.614311 -0.244901 1.94276 -0.0849082 -0.525145 -0.0233918 0.362471 0.67999 -0.0521267 -1.17732 -1.6122 -0.193334 -0.14069 -0.414871 0.679026 0.689544 0.360797 1.10502 -0.425346 0.0562551 -0.194984 -0.386644 -0.687331 0.58967 0.0788507 -0.0938706 0.129378 0.35853 -0.0091371 -0.326701 0.455226 -0.470684 -0.230218 0.843315 0.195561 -0.0873484 0.0299563 -0.209536 -0.279186 0.217032 0.177913 0.0272666 -0.156311 0.0282796 -0.400347 0.117758 0.302516 -0.267486 -0.297404 0.268321 -0.144141 0.396511 -0.116925 0.113736 0.691077 -0.365879 -0.00402534 0.368065 0.127415
400 -0.42613 0.339189 -0.115657 -1.131 -1.15915 -0.619865 -0.262547 1.97241 -0.0968179 -0.553055 -0.0290304 0.377145 0.711926 -0.0523645 -1.18801 -1.61122 -0.201091 -0.145489 -0.420456 0.696343 0.695574 0.321241 1.10056 -0.466246 0.0614708 -0.203129 -0.397976 -0.716884 0.602885 0.0718268 -0.109586 0.105893 0.34126 -0.0147709 -0.333558 0.450818 -0.469561 -0.244427 0.871587 0.213389 -0.100675 0.0317055 -0.208482 -0.286344 0.243633 0.179957 0.0459042 -0.143585 0.028625 -0.436627 0.13319 0.325938 -0.294368 -0.347388 0.308545 -0.163622 0.402123 -0.106217 0.144246 0.703032 -0.386934 0.00566354 0.38939 0.132734
327 -0.440358 0.353824 -0.121204 -1.1449 -1.18249 -0.618488 -0.279607 1.95735 -0.108962 -0.557687 -0.0241599 0.378536 0.672605 -0.0650752 -1.19454 -1.60931 -0.223382 -0.142581 -0.405357 0.706156 0.738967 0.365734 1.13417 -0.461187 0.0734581 -0.219228 -0.412999 -0.760197 0.63392 0.0790661 -0.110285 0.120245 0.346678 -0.0193582 -0.321636 0.440636 -0.466678 -0.23492 0.857576 0.220054 -0.0873489 0.0325204 -0.211646 -0.274456 0.22654 0.181453 0.039219 -0.120794 0.0217619 -0.401215 0.117424 0.306095 -0.270802 -0.306692 0.264509 -0.15497 0.445747 -0.125186 0.152709 0.742736 -0.406025 0.00896033 0.399774 0.126837
178 -0.453683 0.333596 -0.108714 -1.14067 -1.17628 -0.611675 -0.265786 1.96778 -0.0902156 -0.540171 -0.037539 0.371426 0.71013 -0.0582283 -1.18552 -1.60379 -0.205305 -0.136054 -0.407915 0.680716 0.69514 0.328292 1.09772 -0.446658 0.0569955 -0.204535 -0.390964 -0.724718 0.615263 0.0658721 -0.111499 0.121942 0.323142 -0.018815 -0.317293 0.421196 -0.464852 -0.249127 0.854704 0.207324 -0.0846569 0.0261846 -0.211518 -0.275366 0.205881 0.169297 0.0410867 -0.145872 0.0348557 -0.429183 0.1226 0.323023 -0.290724 -0.302552 0.285949 -0.158749 0.403553 -0.115023 0.139209 0.732924 -0.410815 0.0242885 0.394437 0.142508
308 -0.437791 0.35417 -0.119704 -1.14308 -1.16675 -0.603832 -0.272018 1.95501 -0.112783 -0.574747 -0.039827 0.38192 0.691669 -0.0799553 -1.18613 -1.60841 -0.221914 -0.135909 -0.403156 0.695853 0.712993 0.328521 1.09079 -0.446943 0.0671473 -0.191388 -0.38692 -0.751044 0.646577 0.0788619 -0.112013 0.138513 0.340222 -0.00471258 -0.3296 0.450021 -0.484776 -0.233506 0.869905 0.211305 -0.086255 0.0255098 -0.216231 -0.281173 0.228109 0.174902 0.0328304 -0.139479 0.0375581 -0.410063 0.107114 0.328487 -0.312783 -0.315098 0.290392 -0.177464 0.451516 -0.137668 0.165278 0.750055 -0.421646 0.0146998 0.412355 0.120349
226 -0.453446 0.347884 -0.103771 -1.16512 -1.18877 -0.628432 -0.262535 1.98495 -0.104995 -0.540338 -0.0420379 0.375894 0.690916 -0.0654807 -1.19572 -1.63173 -0.196697 -0.134764 -0.417505 0.681377 0.688189 0.327135 1.10878 -0.444015 0.0795101 -0.21435 -0.39294 -0.710483 0.604386 0.0742877 -0.0942863 0.126656 0.343609 -0.00996994 -0.323489 0.444159 -0.456216 -0.231809 0.845096 0.197271 -0.0739167 0.0233213 -0.206043 -0.263585 0.238328 0.177683 0.0525159 -0.148914 0.0220324 -0.395121 0.12286 0.295435 -0.256056 -0.306697 0.265896 -0.144483 0.40181 -0.117902 0.134602 0.715791 -0.381122 -0.000946578 0.388293 0.131221
221 -0.465161 0.35118 -0.119222 -1.17786 -1.20543 -0.621327 -0.263364 2.01889 -0.0956185 -0.546029 -0.0445508 0.384041 0.68102 -0.0581618 -1.21434 -1.63634 -0.222137 -0.159849 -0.406157 0.717511 0.743299 0.352053 1.13271 -0.457636 0.0628886 -0.214808 -0.406943 -0.778315 0.654325 0.0812079 -0.102841 0.145727 0.354715 -0.0160632 -0.335045 0.445844 -0.458287 -0.244741 0.839147 0.191459 -0.0905884 0.0360161 -0.209056 -0.264903 0.212773 0.161396 0.0443614 -0.144971 0.0304606 -0.421553 0.12444 0.30288 -0.288193 -0.320852 0.268448 -0.147192 0.42563 -0.138984 0.138821 0.749242 -0.406342 0.0183188 0.391272 0.145384
58 -0.685944 0.231551 -0.0354465 -1.09324 -1.0407 -0.344385 -0.434323 1.48009 -0.197514 -0.481497 -0.0878457 0.212143 0.349212 0.116548 -1.09993 -1.46068 -0.34585 -0.341076 -0.00976582 0.464288 0.946345 0.154943 0.648834 0.000792775 0.175725 -0.147242 -0.174723 -0.891468 0.480147 0.0979411 -0.222397 0.249994 0.20395 -0.154677 -0.302354 0.429821 -0.416817 -0.296781 0.177475 0.404254 -0.0617742 -0.0671809 -0.320313 -0.0336977 0.01759 0.306534 -0.269257 -0.0133587 0.00563527 0.104648 -0.257684 -0.010002 -0.185639 -0.109477 0.0472896 -0.0971355 0.327562 -0.253212 -0.00182744 0.637067 -0.327763 0.0796468 0.135279 0.162776
496 -0.795907 0.259813 -0.0503283 -1.21497 -1.16878 -0.374169 -0.510752 1.67374 -0.237389 -0.519607 -0.129337 0.223869 0.392944 0.133488 -1.24708 -1.6298 -0.411716 -0.369232 0.0100336 0.512214 1.05157 0.16802 0.714783 -0.0226921 0.202151 -0.174762 -0.182418 -0.987466 0.528173 0.0782209 -0.269257 0.293571 0.218376 -0.202581 -0.331159 0.488762 -0.456757 -0.339462 0.235459 0.474262 -0.0640603 -0.0703785 -0.349573 -0.0303775 0.0199445 0.350906 -0.299959 4.00742e-05 -0.00804765 0.132994 -0.282857 -0.0193341 -0.194338 -0.127351 0.0431613 -0.114921 0.396964 -0.288301 0.0298558 0.746518 -0.393139 0.0876941 0.172978 0.186096
294 -0.798929 0.255579 -0.0620342 -1.24947 -1.19995 -0.403656 -0.534035 1.73067 -0.224324 -0.548151 -0.103904 0.240584 0.416028 0.131565 -1.28887 -1.67386 -0.408942 -0.395103 0.00239682 0.539353 1.0959 0.168072 0.74022 -0.00286038 0.193291 -0.184308 -0.169709 -0.992317 0.558785 0.0968214 -0.286637 0.303884 0.248732 -0.177927 -0.345365 0.50306 -0.463923 -0.353042 0.247866 0.483549 -0.0671498 -0.0856429 -0.338072 -0.0400253 0.00653084 0.363106 -0.320777 -0.0260566 -0.0030961 0.103114 -0.258961 -0.026021 -0.203606 -0.118985 0.0635727 -0.136119 0.430298 -0.304246 0.0393265 0.749817 -0.403728 0.0689501 0.158981 0.207367
405 -0.794088 0.243887 -0.0516378 -1.21692 -1.16619 -0.365484 -0.502775 1.69754 -0.220154 -0.539266 -0.0981638 0.230541 0.401336 0.144268 -1.25732 -1.63262 -0.393782 -0.386364 0.0111417 0.524811 1.08002 0.149432 0.715617 -0.00240919 0.186304 -0.157484 -0.17916 -0.995098 0.536687 0.101832 -0.271171 0.283585 0.254679 -0.187246 -0.339278 0.483482 -0.466282 -0.352726 0.233369 0.470814 -0.0839836 -0.0715076 -0.351522 -0.0255093 0.0220102 0.348953 -0.312588 -0.018246 -0.00808074 0.103975 -0.271154 -0.0189752 -0.208824 -0.146431 0.059647 -0.106767 0.409707 -0.300152 0.02641 0.743236 -0.398595 0.081888 0.168451 0.209418
149 -0.752341 0.270261 -0.0412225 -1.1781 -1.15309 -0.37031 -0.512675 1.61596 -0.222406 -0.508458 -0.0924891 0.229801 0.356764 0.0993441 -1.22131 -1.5633 -0.391279 -0.33845 -0.0114516 0.489572 0.972466 0.173388 0.695907 -0.000255034 0.179793 -0.168782 -0.155353 -0.879238 0.478893 0.0718623 -0.236414 0.263535 0.235018 -0.156806 -0.304982 0.450466 -0.425748 -0.310851 0.221009 0.443324 -0.0705696 -0.0746756 -0.317782 -0.0133362 0.0232093 0.340578 -0.279712 -0.0233101 -0.0315772 0.10586 -0.253468 -0.0152477 -0.162671 -0.1285 0.0361076 -0.110207 0.409939 -0.299523 0.0466212 0.696035 -0.368513 0.072316 0.1513 0.17096
109 -0.817688 0.268395 -0.0638199 -1.25165 -1.2005 -0.37978 -0.514591 1.74131 -0.237714 -0.53782 -0.109545 0.230956 0.390107 0.123718 -1.26061 -1.6514 -0.428051 -0.40291 0.00687632 0.546491 1.10131 0.157104 0.736371 -0.00784856 0.21905 -0.172786 -0.19073 -1.01322 0.54214 0.106784 -0.278058 0.2847 0.253577 -0.19262 -0.346848 0.510874 -0.463625 -0.347809 0.253025 0.469498 -0.0875838 -0.0746957 -0.349287 -0.027122 0.0396326 0.371008 -0.329692 -0.0207007 -0.0110954 0.125149 -0.279004 -0.0354378 -0.195015 -0.142164 0.0652848 -0.127467 0.403452 -0.306105 0.0458491 0.72332 -0.391979 0.0686587 0.164318 0.199722
356 -0.825524 0.264703 -0.0628512 -1.26992 -1.20975 -0.391752 -0.527569 1.73909 -0.223778 -0.546361 -0.14487 0.220428 0.402713 0.140665 -1.29445 -1.69473 -0.42444 -0.394509 -0.00758284 0.547917 1.11209 0.171648 0.750821 -0.0238927 0.198438 -0.1765 -0.193849 -1.0203 0.553245 0.101533 -0.273506 0.283639 0.242309 -0.199763 -0.322037 0.507125 -0.490114 -0.359239 0.24478 0.506956 -0.0808758 -0.0543423 -0.355635 -0.0382131 0.0107956 0.361631 -0.300764 -0.00526254 -0.00136293 0.114075 -0.285205 -0.0366407 -0.213697 -0.125047 0.0545668 -0.121533 0.399964 -0.307496 0.0210001 0.775561 -0.394242 0.125683 0.161925 0.228275
122 -0.860131 0.278424 -0.0429638 -1.30523 -1.23632 -0.380738 -0.541613 1.7818 -0.24117 -0.548775 -0.104267 0.235285 0.390979 0.130316 -1.31963 -1.72281 -0.433063 -0.425659 0.00411381 0.586769 1.16936 0.19349 0.793607 -0.00823635 0.186904 -0.180193 -0.202837 -0.976473 0.560081 0.10016 -0.273292 0.285507 0.263735 -0.187192 -0.334097 0.511959 -0.471614 -0.359671 0.2562 0.457838 -0.0760412 -0.0952126 -0.341234 -0.0286121 0.0279294 0.350617 -0.285474 -0.023167 -0.0243147 0.107362 -0.281272 -0.0425092 -0.2107 -0.127958 0.0600512 -0.12783 0.425277 -0.32443 0.0231679 0.775619 -0.400982 0.0683097 0.170023 0.198605
179 -0.797546 0.216625 -0.0526203 -1.20792 -1.10512 -0.344334 -0.474041 1.64275 -0.225457 -0.525661 -0.147651 0.21039 0.396918 0.151249 -1.24607 -1.63286 -0.397056 -0.386859 0.0214772 0.507342 1.05689 0.134408 0.701931 -0.00383536 0.199346 -0.162781 -0.192129 -1.01488 0.529024 0.107617 -0.275501 0.305266 0.219861 -0.193585 -0.339371 0.474021 -0.468241 -0.364969 0.232952 0.452969 -0.0569773 -0.0812761 -0.354031 -0.0162109 0.0188374 0.352654 -0.291802 -0.0213432 -0.00432223 0.120908 -0.264141 -0.0132984 -0.200301 -0.131707 0.0534601 -0.0945591 0.366149 -0.278239 0.0109808 0.704624 -0.367485 0.0796835 0.158881 0.206929
494 -0.793674 0.269662 -0.0465977 -1.23356 -1.19031 -0.37475 -0.516911 1.69667 -0.231493 -0.546248 -0.100257 0.241786 0.401473 0.128905 -1.29692 -1.70122 -0.413581 -0.395105 -0.0123847 0.541939 1.09513 0.17984 0.74687 0.00569918 0.187451 -0.17384 -0.189626 -1.00647 0.548669 0.103307 -0.266836 0.297313 0.244154 -0.196565 -0.354951 0.490007 -0.474654 -0.353496 0.239843 0.473211 -0.0922294 -0.0830864 -0.359964 -0.0415009 0.0227771 0.360122 -0.315408 -0.0245212 -0.0189441 0.11212 -0.270159 -0.0244091 -0.205628 -0.138566 0.0549568 -0.130572 0.432901 -0.302658 0.0399313 0.766053 -0.39428 0.0651752 0.172734 0.200659
77 -0.784679 0.277601 -0.0528744 -1.25274 -1.20241 -0.391896 -0.515431 1.72586 -0.239188 -0.556881 -0.119857 0.243736 0.400763 0.116934 -1.31962 -1.70154 -0.428781 -0.393024 -0.0155164 0.547229 1.11328 0.164425 0.748504 -0.0191217 0.197303 -0.176768 -0.181704 -1.01085 0.562914 0.0989771 -0.259205 0.31703 0.237229 -0.209659 -0.361408 0.508609 -0.492562 -0.369058 0.258956 0.490578 -0.0791435 -0.0823394 -0.363496 -0.0286074 0.0107735 0.366895 -0.319028 -0.0280177 -0.00737807 0.125362 -0.278049 -0.0397457 -0.200594 -0.126213 0.0674176 -0.114184 0.41867 -0.314724 0.0349987 0.773432 -0.408881 0.0809116 0.161599 0.215222
180 -0.797111 0.28511 -0.0492536 -1.27175 -1.21386 -0.388647 -0.517161 1.75157 -0.248986 -0.553571 -0.0921315 0.240299 0.404022 0.138435 -1.28934 -1.67619 -0.398073 -0.3941 -0.00997991 0.562548 1.09484 0.180751 0.766598 -0.00185158 0.195455 -0.168925 -0.197181 -0.982989 0.559637 0.104857 -0.269808 0.286633 0.240639 -0.189436 -0.331949 0.492567 -0.455506 -0.342121 0.251081 0.452199 -0.0713709 -0.0804153 -0.348394 -0.0386621 0.032416 0.353016 -0.311374 -0.0359954 -0.0190203 0.110876 -0.279216 -0.024907 -0.218418 -0.134898 0.0563323 -0.122149 0.418384 -0.3151 0.0376449 0.740838 -0.4047 0.0737189 0.174051 0.19051
474 -0.822544 0.268463 -0.0584711 -1.23454 -1.19302 -0.377113 -0.51202 1.72194 -0.218792 -0.527325 -0.0981341 0.22932 0.381465 0.136452 -1.23623 -1.64701 -0.425617 -0.408355 0.00588411 0.559885 1.11362 0.163056 0.755311 -0.00368844 0.203419 -0.177977 -0.18926 -0.975533 0.539184 0.0900982 -0.260943 0.27644 0.243302 -0.178367 -0.322795 0.484311 -0.433804 -0.344416 0.234775 0.4499 -0.0827338 -0.0715862 -0.337622 -0.017345 0.0322688 0.348306 -0.310717 -0.03736 -0.0191091 0.096821 -0.257486 -0.0403882 -0.181214 -0.13097 0.0470992 -0.131588 0.43337 -0.323036 0.0262346 0.769036 -0.416312 0.077392 0.187182 0.193984
40 -0.785935 0.265186 -0.046509 -1.2383 -1.16513 -0.366339 -0.502855 1.70007 -0.243003 -0.541787 -0.12823 0.218961 0.376955 0.130884 -1.26234 -1.64735 -0.415346 -0.388197 0.0134048 0.532061 1.09465 0.174675 0.727028 0.00710509 0.20349 -0.174413 -0.184445 -1.0104 0.556212 0.0986192 -0.268396 0.306903 0.227554 -0.188424 -0.339034 0.482278 -0.440587 -0.335321 0.228574 0.463204 -0.0915596 -0.0657196 -0.35638 -0.0188142 0.0288404 0.366378 -0.325346 -0.0195972 -0.0030965 0.121228 -0.282342 -0.0154224 -0.204423 -0.136762 0.0517666 -0.143141 0.395749 -0.303695 0.0298642 0.722828 -0.382078 0.0881334 0.158942 0.197241
204 -0.856583 0.246112 -0.0751999 -1.30306 -1.21705 -0.390644 -0.514861 1.78486 -0.231343 -0.548835 -0.14244 0.212731 0.394561 0.149644 -1.31234 -1.72495 -0.41174 -0.436169 -0.013048 0.562182 1.15702 0.153241 0.780639 -0.0123159 0.207958 -0.190421 -0.193698 -1.02566 0.558042 0.129845 -0.270163 0.320276 0.248675 -0.20676 -0.341828 0.513786 -0.485229 -0.356405 0.258707 0.477066 -0.0875555 -0.0800485 -0.360457 -0.0243708 0.0253447 0.361044 -0.319124 -0.0250327 0.0124793 0.116876 -0.280095 -0.0468016 -0.211975 -0.129736 0.0700559 -0.107471 0.39406 -0.296366 0.0237954 0.75866 -0.384762 0.100292 0.171595 0.212714
487 -0.809501 0.274442 -0.0601774 -1.24019 -1.16149 -0.371003 -0.515583 1.70773 -0.228166 -0.528114 -0.125688 0.234951 0.40132 0.151555 -1.2682 -1.67225 -0.413312 -0.392282 -0.0166569 0.535699 1.0948 0.160132 0.735275 -0.0234793 0.205843 -0.181292 -0.179152 -1.00067 0.55691 0.0874101 -0.259999 0.296745 0.229891 -0.206531 -0.334567 0.473799 -0.454129 -0.337459 0.230029 0.46347 -0.0582646 -0.0619971 -0.339226 -0.0316714 0.020142 0.32771 -0.29488 -0.0174758 -0.0315225 0.108898 -0.243835 -0.037194 -0.196721 -0.116989 0.0615229 -0.116624 0.405571 -0.309419 0.0320043 0.752587 -0.398925 0.0791315 0.156644 0.191293
258 -0.832524 0.29354 -0.062633 -1.27781 -1.26771 -0.39317 -0.525291 1.81523 -0.235779 -0.553528 -0.10422 0.251766 0.428897 0.107697 -1.33304 -1.73778 -0.425478 -0.392095 -0.0173756 0.586318 1.12834 0.180644 0.800173 -0.029612 0.20616 -0.174829 -0.182831 -0.985203 0.571959 0.116801 -0.273285 0.288647 0.257308 -0.198075 -0.335515 0.50841 -0.464013 -0.347238 0.322359 0.477935 -0.100918 -0.0678972 -0.312236 -0.0312949 0.0386764 0.312888 -0.318515 -0.0499847 0.000626461 0.0667678 -0.238944 -0.0252455 -0.195414 -0.127926 0.0566542 -0.126878 0.447384 -0.311784 0.0518342 0.783201 -0.442012 0.0862575 0.212856 0.206473
383 -0.863644 0.274369 -0.0610321 -1.32757 -1.27512 -0.394516 -0.559999 1.81698 -0.238632 -0.562089 -0.108973 0.237923 0.403003 0.121491 -1.30358 -1.69556 -0.424693 -0.380039 -0.0160732 0.557412 1.11535 0.171867 0.76506 -0.0106182 0.207875 -0.171516 -0.168113 -1.01542 0.579157 0.100144 -0.286765 0.30338 0.247179 -0.169776 -0.350595 0.490552 -0.461407 -0.351804 0.293852 0.4627 -0.0894375 -0.0600127 -0.303654 -0.0325145 0.0192749 0.349211 -0.309366 -0.0280113 -0.0120065 0.0812657 -0.246774 -0.0193767 -0.182354 -0.105287 0.0501409 -0.144648 0.450024 -0.324988 0.0619897 0.748407 -0.434763 0.09317 0.185121 0.208269
100 -0.852074 0.26517 -0.0572139 -1.27141 -1.24026 -0.386566 -0.543809 1.77599 -0.232602 -0.544823 -0.12946 0.22565 0.406583 0.124718 -1.31242 -1.70287 -0.438723 -0.378932 -0.00672613 0.553063 1.13702 0.193926 0.781664 -0.0141303 0.197694 -0.174827 -0.178431 -1.00722 0.576324 0.0955718 -0.276869 0.297991 0.254702 -0.187751 -0.342986 0.482206 -0.456998 -0.344143 0.25032 0.461358 -0.0913181 -0.0835339 -0.36225 -0.0279639 0.0290937 0.376721 -0.334667 -0.00951785 -0.00831451 0.110128 -0.269382 -0.0228456 -0.198172 -0.135782 0.0483855 -0.121807 0.421125 -0.284989 0.0464128 0.743398 -0.390597 0.0847288 0.17407 0.207186
71 -0.820568 0.284842 -0.0470965 -1.28089 -1.21994 -0.385833 -0.524338 1.77403 -0.241285 -0.552479 -0.112751 0.235981 0.384055 0.141162 -1.3232 -1.71395 -0.418921 -0.398962 -0.00356213 0.54681 1.11489 0.159378 0.732215 0.00293046 0.21624 -0.166963 -0.183222 -1.01525 0.564492 0.0968749 -0.2679 0.299011 0.261056 -0.189994 -0.359532 0.523994 -0.495503 -0.354477 0.237222 0.48805 -0.0795564 -0.0820423 -0.376334 -0.0114053 0.0295689 0.374802 -0.331309 -0.0302939 -0.0144203 0.13319 -0.285754 -0.0337838 -0.207891 -0.156576 0.0624129 -0.117079 0.427905 -0.340204 0.038208 0.780553 -0.410389 0.0779977 0.153174 0.207967
19 -0.842668 0.271628 -0.062869 -1.28811 -1.23521 -0.384847 -0.526432 1.77199 -0.233427 -0.545649 -0.123473 0.234058 0.403214 0.147142 -1.33559 -1.76964 -0.432495 -0.412269 0.00675882 0.563999 1.16798 0.16376 0.760914 0.0159926 0.212279 -0.179538 -0.194107 -1.06121 0.568397 0.12579 -0.287252 0.318688 0.237104 -0.217999 -0.362842 0.514759 -0.499369 -0.368367 0.231952 0.516302 -0.0820105 -0.0716044 -0.369566 -0.0321666 0.00549043 0.353287 -0.353601 -0.0283011 0.00107357 0.117747 -0.304385 -0.0356578 -0.23223 -0.122096 0.0612089 -0.134546 0.41684 -0.30806 0.0176299 0.780802 -0.405132 0.0988377 0.1639 0.226882
216 -0.805678 0.26193 -0.0618704 -1.25733 -1.20811 -0.399187 -0.519126 1.73519 -0.239212 -0.547012 -0.117245 0.246201 0.404678 0.12748 -1.29181 -1.69547 -0.413278 -0.369676 -0.01603 0.542772 1.07547 0.182564 0.757548 -0.0112282 0.191726 -0.190304 -0.183298 -0.977263 0.538014 0.103472 -0.263436 0.297138 0.24474 -0.191163 -0.325388 0.488484 -0.448823 -0.326824 0.263101 0.453836 -0.0888595 -0.0745063 -0.332758 -0.0298664 0.0499989 0.347254 -0.309388 -0.0188563 -0.0169053 0.092687 -0.243832 -0.0299091 -0.177144 -0.126574 0.0550498 -0.134003 0.415607 -0.287358 0.0330428 0.732001 -0.383536 0.0784348 0.170952 0.203375
463 -0.373962 0.294877 -0.136338 -0.833565 -0.874043 -0.512496 -0.474083 1.25654 -0.234113 -0.487419 0.34708 0.437992 0.422338 -0.0300836 -0.870009 -0.858462 -0.264821 -0.231408 -0.109065 0.434165 0.647919 0.135579 0.642097 -0.198904 0.270055 -0.253291 -0.003332 -0.435098 0.491135 0.0133518 -0.151488 0.120048 0.10325 0.0883456 -0.0391241 0.280074 -0.170546 0.058472 0.263081 0.29233 0.0831698 -0.0430585 0.020898 -0.110923 0.017411 0.0320741 -0.113774 0.0152616 -0.0622877 -0.0615976 0.147327 -0.0255227 0.00758476 0.115307 0.0519621 -0.091723 0.120633 -0.0779139 0.0357743 0.429719 -0.333124 -0.247275 -0.0230739 -0.085928
110 -0.540034 0.414029 -0.202026 -1.20329 -1.28996 -0.7078 -0.677122 1.80039 -0.32336 -0.708377 0.466947 0.639913 0.591065 -0.0495798 -1.29362 -1.28925 -0.398752 -0.306244 -0.13624 0.635797 0.919507 0.20832 0.904932 -0.268153 0.388254 -0.369579 -0.00842289 -0.653879 0.716163 0.017274 -0.262396 0.136956 0.163929 0.0921905 -0.0749401 0.419782 -0.272475 0.0129358 0.454618 0.448649 0.110642 -0.044274 0.0242473 -0.172964 0.0213753 0.0915137 -0.177635 0.00885383 -0.105768 -0.112465 0.153133 -0.0131463 -0.0565824 0.122253 0.146063 -0.246837 0.275532 -0.150732 0.0663317 0.670779 -0.521796 -0.287145 0.0200692 -0.108461
362 -0.516062 0.407165 -0.22884 -1.14841 -1.24599 -0.695252 -0.653256 1.73067 -0.298635 -0.693629 0.482633 0.612979 0.577364 -0.0493649 -1.24599 -1.20287 -0.372098 -0.297729 -0.117393 0.586346 0.892167 0.1623 0.842972 -0.273621 0.40222 -0.378365 0.0125142 -0.632429 0.710899 0.0142497 -0.246625 0.114927 0.162106 0.101366 -0.0668434 0.409033 -0.260643 0.0335377 0.416034 0.436446 0.130784 -0.0407555 0.0215701 -0.16664 0.0200523 0.0396264 -0.155266 0.0193076 -0.0888272 -0.122088 0.169152 -0.048049 -0.0546219 0.152715 0.136913 -0.209021 0.241415 -0.115422 0.0647044 0.65098 -0.524975 -0.302982 0.00744808 -0.118872
95 -0.548681 0.45636 -0.229039 -1.22407 -1.31404 -0.714509 -0.68685 1.84895 -0.31376 -0.702216 0.481741 0.624569 0.57273 -0.0518899 -1.26797 -1.25987 -0.394305 -0.313164 -0.140731 0.629198 0.937714 0.193635 0.90424 -0.269428 0.399229 -0.368469 -0.00924941 -0.660598 0.709101 0.0238924 -0.25374 0.127873 0.177908 0.0791342 -0.0866848 0.438648 -0.272709 0.0193003 0.49015 0.467353 0.104739 -0.0326149 0.010458 -0.181749 0.0417161 0.0714384 -0.189773 -0.00671842 -0.0918353 -0.124088 0.150683 -0.0408797 -0.0905005 0.106968 0.162079 -0.268403 0.272336 -0.149025 0.0656279 0.710105 -0.566549 -0.325756 0.0243356 -0.12067
262 -0.514137 0.384452 -0.21672 -1.18159 -1.23548 -0.697084 -0.667892 1.76652 -0.30376 -0.679548 0.457767 0.596081 0.58779 -0.0333746 -1.21842 -1.19708 -0.386243 -0.303572 -0.100424 0.611811 0.910767 0.184669 0.863719 -0.277197 0.373241 -0.350557 0.00771255 -0.63879 0.692528 0.00397297 -0.24981 0.140272 0.137756 0.0966493 -0.063996 0.38496 -0.255341 0.0195662 0.433027 0.431977 0.130419 -0.0542338 0.0234549 -0.159988 0.000520854 0.0616543 -0.139108 0.00450631 -0.102607 -0.119804 0.17204 -0.0245738 -0.0572115 0.128793 0.146425 -0.222832 0.252814 -0.145582 0.0713406 0.670546 -0.541243 -0.313312 0.00905469 -0.106193
375 -0.565499 0.449243 -0.236055 -1.22665 -1.28808 -0.733778 -0.706308 1.855 -0.315935 -0.7052 0.488298 0.642655 0.601827 -0.0368548 -1.28076 -1.26297 -0.404702 -0.305354 -0.13539 0.624921 0.92925 0.164706 0.890236 -0.295839 0.41375 -0.374457 0.00119355 -0.671915 0.732989 0.0204787 -0.246018 0.126498 0.173057 0.103419 -0.0782658 0.426729 -0.286672 0.0317131 0.453662 0.463125 0.127879 -0.0441456 0.00712339 -0.180561 0.0317115 0.0543921 -0.166143 0.0125085 -0.101112 -0.106097 0.171326 -0.0422038 -0.0679462 0.134652 0.161097 -0.235003 0.263086 -0.156376 0.0775747 0.713068 -0.551601 -0.324322 0.0131877 -0.111473
301 -0.569256 0.444637 -0.240077 -1.25497 -1.34845 -0.750584 -0.703845 1.88857 -0.318834 -0.708252 0.488189 0.640044 0.59406 -0.0440626 -1.3002 -1.27996 -0.400939 -0.307899 -0.144095 0.63652 0.954548 0.188437 0.911584 -0.282772 0.380998 -0.373478 0.00511059 -0.647196 0.717213 0.023941 -0.249414 0.146572 0.187453 0.0851653 -0.0884964 0.435123 -0.260895 0.0116491 0.438719 0.424704 0.10821 -0.048117 -0.0034155 -0.178279 0.0326201 0.102065 -0.164636 0.00599308 -0.0875244 -0.126853 0.120919 -0.0213392 -0.0970895 0.110272 0.142421 -0.260268 0.280237 -0.161801 0.0688221 0.714647 -0.560899 -0.314563 0.0064427 -0.122488
278 -0.506753 0.388722 -0.207054 -1.13039 -1.20574 -0.669728 -0.634882 1.69388 -0.292668 -0.666423 0.432043 0.591032 0.545622 -0.0362251 -1.185 -1.19257 -0.365515 -0.280592 -0.121814 0.581813 0.852283 0.184404 0.823922 -0.245616 0.364414 -0.340812 -0.000737487 -0.602298 0.644635 0.0236694 -0.225364 0.128658 0.147511 0.077936 -0.0568538 0.386915 -0.237342 0.025177 0.412171 0.417454 0.106984 -0.0326238 0.0161119 -0.15612 0.00658545 0.0729398 -0.154978 0.0105415 -0.0762585 -0.105305 0.157801 -0.0310621 -0.0407172 0.144955 0.123717 -0.228336 0.2386 -0.14419 0.0516316 0.625251 -0.486944 -0.272841 0.0106311 -0.0983829
196 -0.551389 0.433404 -0.224624 -1.21826 -1.31855 -0.7183 -0.688776 1.84788 -0.318979 -0.724027 0.482672 0.63739 0.592922 -0.0451831 -1.27396 -1.26598 -0.420661 -0.313966 -0.126616 0.639079 0.924962 0.185387 0.88026 -0.279767 0.412939 -0.365198 8.02929e-05 -0.664266 0.72671 0.0313807 -0.279123 0.1238 0.143785 0.0932743 -0.0692024 0.394962 -0.271707 0.0198826 0.474663 0.454362 0.12651 -0.0524482 0.0251524 -0.162247 0.00296295 0.0532644 -0.150583 0.00527713 -0.109493 -0.110221 0.189659 -0.0454618 -0.0554402 0.129147 0.159455 -0.222793 0.277843 -0.14718 0.081649 0.678449 -0.57204 -0.321651 0.0254307 -0.132579
220 -0.548602 0.443046 -0.223555 -1.23554 -1.29283 -0.714164 -0.70822 1.86205 -0.335911 -0.723084 0.487123 0.636873 0.628421 -0.0513935 -1.27464 -1.25136 -0.401475 -0.303682 -0.120467 0.621824 0.930282 0.191223 0.898795 -0.276229 0.385443 -0.355555 -0.00203572 -0.642544 0.68804 0.011074 -0.250764 0.130482 0.136362 0.0720037 -0.070523 0.394219 -0.250823 0.00824346 0.416708 0.419876 0.0962447 -0.0400445 0.0232801 -0.17473 0.0221768 0.0783739 -0.137092 0.0144208 -0.0914716 -0.109608 0.149577 0.00426363 -0.0515666 0.112238 0.141996 -0.247741 0.253667 -0.144298 0.0489145 0.650248 -0.530826 -0.310741 0.0154891 -0.0986712
252 -0.527626 0.397175 -0.212454 -1.17181 -1.23323 -0.691775 -0.666527 1.75813 -0.30532 -0.665825 0.454167 0.601928 0.573629 -0.038629 -1.20281 -1.18988 -0.379032 -0.295083 -0.107913 0.601508 0.876179 0.168647 0.841677 -0.260445 0.352819 -0.33166 -0.0285259 -0.606866 0.670165 0.0137256 -0.241627 0.125292 0.157079 0.0725345 -0.076275 0.38251 -0.251697 0.00815797 0.390194 0.408665 0.0938864 -0.0340831 0.0200714 -0.162884 0.011416 0.0466855 -0.153708 0.0244811 -0.0835088 -0.103146 0.162408 -0.00911547 -0.0582312 0.112909 0.125067 -0.228237 0.234559 -0.137732 0.0398767 0.634971 -0.505311 -0.294204 0.0178617 -0.100348
13 -0.53361 0.429223 -0.230855 -1.19802 -1.30298 -0.712685 -0.680893 1.82141 -0.309855 -0.677244 0.448333 0.590518 0.562195 -0.0418023 -1.22978 -1.22741 -0.377845 -0.297854 -0.126416 0.627008 0.890826 0.190433 0.847419 -0.259208 0.360879 -0.3398 -0.0241444 -0.651285 0.725019 0.0189749 -0.265717 0.136189 0.184671 0.0724695 -0.0824632 0.416734 -0.279847 -0.00876616 0.451329 0.425231 0.083705 -0.0186541 0.0167495 -0.175444 0.0121291 0.0575043 -0.17077 0.0117336 -0.083712 -0.0981744 0.136269 -0.0402096 -0.0891345 0.114772 0.154224 -0.245412 0.310392 -0.158256 0.0680389 0.717882 -0.563747 -0.276663 0.0352395 -0.104877
114 -0.510066 0.405342 -0.206222 -1.14471 -1.21715 -0.697044 -0.651055 1.74877 -0.294136 -0.694378 0.486699 0.626886 0.597009 -0.0472798 -1.22567 -1.18732 -0.377958 -0.297542 -0.114354 0.589696 0.9057 0.169487 0.833649 -0.260825 0.383301 -0.361954 0.00572849 -0.637601 0.694075 0.0261356 -0.249895 0.119645 0.144511 0.092676 -0.0558692 0.390616 -0.241257 0.0199968 0.394824 0.401755 0.111917 -0.0531669 0.0297738 -0.15649 0.00822693 0.0410474 -0.159507 0.00644327 -0.091438 -0.113013 0.183009 -0.0338531 -0.0366842 0.150166 0.127513 -0.191067 0.199654 -0.126521 0.0491959 0.617415 -0.501962 -0.309519 -0.0102202 -0.124514
22 -0.515406 0.42175 -0.194902 -1.15336 -1.26268 -0.687486 -0.652534 1.7471 -0.301722 -0.697441 0.455525 0.608926 0.56848 -0.0473952 -1.23983 -1.2428 -0.377698 -0.290118 -0.126875 0.61235 0.908125 0.210971 0.854804 -0.256553 0.387095 -0.358472 -0.0178392 -0.657896 0.72137 0.0354697 -0.25554 0.119329 0.180118 0.107939 -0.0664494 0.416952 -0.288785 0.0167632 0.456664 0.460447 0.107399 -0.0356601 0.00343033 -0.169178 0.0360343 0.0698618 -0.171026 0.0159653 -0.0972188 -0.132951 0.173098 -0.0308607 -0.0433482 0.141358 0.148751 -0.228892 0.280189 -0.126573 0.0859657 0.673396 -0.531461 -0.292585 0.0296006 -0.118061
459 -0.590423 0.455332 -0.246591 -1.21852 -1.29397 -0.734329 -0.719327 1.8766 -0.339244 -0.707163 0.508183 0.654364 0.622354 -0.0482614 -1.27106 -1.23083 -0.40511 -0.301757 -0.129506 0.619178 0.92471 0.170346 0.887557 -0.288272 0.381849 -0.355484 0.00380996 -0.641967 0.703891 0.00685643 -0.259278 0.130605 0.147655 0.0798013 -0.0764185 0.406057 -0.2612 0.0168383 0.434463 0.431017 0.130884 -0.0368193 0.0295829 -0.195297 0.0112769 0.0499587 -0.186881 0.00268616 -0.0944771 -0.113758 0.155616 -0.0150478 -0.0728969 0.134966 0.142716 -0.256486 0.234806 -0.139303 0.0582797 0.686966 -0.569991 -0.351141 0.00404975 -0.128538
240 -0.552841 0.427518 -0.233844 -1.20813 -1.30201 -0.725765 -0.689461 1.83676 -0.326022 -0.717404 0.476094 0.632392 0.598228 -0.0445832 -1.26307 -1.2667 -0.399661 -0.312128 -0.129206 0.632586 0.903497 0.172863 0.875115 -0.282824 0.394735 -0.364237 -0.00924181 -0.6581 0.733582 0.0191981 -0.287468 0.14555 0.171019 0.0838067 -0.0741699 0.412406 -0.272615 -0.00276889 0.463947 0.438374 0.103566 -0.0319011 0.0134868 -0.186175 0.0142512 0.0536051 -0.179183 -0.0117138 -0.0924611 -0.0961893 0.162645 -0.0462835 -0.0795088 0.121958 0.154914 -0.234 0.26387 -0.15676 0.0751409 0.693036 -0.558799 -0.305939 0.0266299 -0.118111
481 -0.551149 0.446132 -0.200904 -1.2487 -1.3088 -0.701741 -0.71215 1.85056 -0.319817 -0.720428 0.462878 0.626649 0.592794 -0.0475198 -1.28458 -1.29256 -0.391224 -0.28707 -0.143514 0.63231 0.904867 0.217312 0.925251 -0.26907 0.384887 -0.370448 -0.0157253 -0.664548 0.743953 0.00111824 -0.264149 0.141889 0.152541 0.094034 -0.0731549 0.428296 -0.272314 0.0154631 0.468671 0.459049 0.107628 -0.0338655 0.022584 -0.186003 0.0171725 0.0707747 -0.145882 0.013968 -0.0992208 -0.0905792 0.165646 -0.0288129 -0.0661622 0.118394 0.135272 -0.242122 0.276461 -0.185823 0.0824808 0.689075 -0.545827 -0.308457 0.0253063 -0.116174
427 -0.570997 0.447562 -0.23666 -1.20202 -1.29363 -0.715731 -0.707287 1.84289 -0.306099 -0.685513 0.497588 0.643924 0.617313 -0.0447394 -1.26431 -1.24645 -0.406547 -0.305093 -0.136246 0.630101 0.934601 0.172432 0.898662 -0.290355 0.411938 -0.379126 -0.00808943 -0.665481 0.73052 0.0182134 -0.252135 0.131972 0.155279 0.0820943 -0.0693143 0.414614 -0.256221 0.0267084 0.450004 0.438511 0.111088 -0.0331464 0.0262456 -0.173998 0.0221157 0.0599883 -0.176058 0.0149737 -0.0872952 -0.126527 0.174901 -0.0271408 -0.0674822 0.144815 0.143467 -0.25947 0.244082 -0.141493 0.0518433 0.670325 -0.538105 -0.328586 0.0169376 -0.115636
372 -0.545751 0.429523 -0.221324 -1.20438 -1.29022 -0.710558 -0.678674 1.82682 -0.30992 -0.680697 0.468728 0.623144 0.577521 -0.0393278 -1.23055 -1.22052 -0.392247 -0.312662 -0.119969 0.640125 0.930424 0.185921 0.883207 -0.273356 0.367532 -0.359043 -0.00831308 -0.628502 0.717002 0.0137045 -0.276464 0.146901 0.172234 0.0872619 -0.0838946 0.411383 -0.268394 0.00222481 0.450978 0.422213 0.101103 -0.0464544 0.0290922 -0.169719 -0.00270012 0.0578342 -0.165333 -0.0216795 -0.106166 -0.111606 0.152722 -0.0364029 -0.0738248 0.110046 0.141326 -0.230997 0.259037 -0.146014 0.0682401 0.656953 -0.524562 -0.293717 0.0108041 -0.124087
374 -0.567307 0.44481 -0.251492 -1.23647 -1.3287 -0.734183 -0.725994 1.87334 -0.328285 -0.730951 0.495599 0.649707 0.620328 -0.047376 -1.29974 -1.26099 -0.408247 -0.302733 -0.120907 0.623389 0.918421 0.180854 0.88036 -0.285388 0.393624 -0.34831 0.012759 -0.660691 0.71512 0.0225102 -0.279085 0.120471 0.134672 0.0809337 -0.0651093 0.393127 -0.261108 0.00514058 0.453151 0.438931 0.115885 -0.0291894 0.0178173 -0.183942 0.00204257 0.0578349 -0.151516 0.00582361 -0.0914087 -0.113385 0.171775 -0.0454382 -0.0609909 0.143589 0.145086 -0.248118 0.249774 -0.14793 0.0723859 0.668539 -0.555133 -0.31022 0.0315746 -0.125547
61 -0.495997 0.412478 -0.198911 -1.17014 -1.25115 -0.691971 -0.657121 1.75072 -0.288109 -0.689052 0.45713 0.604216 0.554929 -0.0336212 -1.21051 -1.19895 -0.370233 -0.27699 -0.116579 0.603898 0.873093 0.192888 0.818485 -0.241998 0.381778 -0.355037 -0.00318208 -0.630016 0.687763 0.0250553 -0.255038 0.101806 0.162992 0.0954596 -0.0585726 0.403892 -0.265432 0.0152674 0.455014 0.438247 0.127206 -0.0473769 0.00264046 -0.167115 0.019787 0.0737389 -0.155933 -0.00522933 -0.117868 -0.128141 0.17293 -0.0386461 -0.0441695 0.123313 0.149642 -0.228162 0.273598 -0.154159 0.0812447 0.682966 -0.546808 -0.319029 0.0047216 -0.131464
272 -0.568201 0.433732 -0.230236 -1.20694 -1.28769 -0.720273 -0.700408 1.84608 -0.315995 -0.722502 0.47849 0.626089 0.607808 -0.035436 -1.27235 -1.25546 -0.413082 -0.304963 -0.12151 0.629701 0.940963 0.199704 0.889708 -0.301211 0.401588 -0.369244 -0.00330997 -0.675412 0.735673 0.0178668 -0.277706 0.135551 0.160066 0.0814254 -0.0488719 0.395943 -0.266755 0.0067138 0.448247 0.444402 0.117411 -0.0368201 0.0161252 -0.179031 -0.000757106 0.0570848 -0.161527 0.0130766 -0.109528 -0.119862 0.182612 -0.0481538 -0.071933 0.151501 0.145243 -0.24685 0.254976 -0.14332 0.0628318 0.694042 -0.565574 -0.314502 0.00844687 -0.140372
35 -0.41472 0.338596 -0.102909 -1.11517 -1.13184 -0.610689 -0.24136 1.91199 -0.0947212 -0.532581 -0.0295424 0.368487 0.664957 -0.0613222 -1.15107 -1.5692 -0.181583 -0.138664 -0.403068 0.652609 0.646151 0.308803 1.05532 -0.425805 0.0516432 -0.188273 -0.397982 -0.68632 0.576262 0.0573355 -0.0852807 0.11981 0.328458 0.00842968 -0.315974 0.422858 -0.455256 -0.225311 0.811746 0.180167 -0.0762542 0.0117412 -0.220688 -0.270687 0.236513 0.169984 0.0507473 -0.162722 0.0337491 -0.401034 0.111602 0.313648 -0.267934 -0.335465 0.269511 -0.129891 0.387378 -0.109619 0.143507 0.66124 -0.356186 -0.0235247 0.373231 0.11441
435 -0.38386 0.189215 -0.155821 -1.20426 -1.51517 -0.561581 -0.599215 1.63865 -0.416532 -0.147402 0.112273 0.453648 0.475667 -0.117264 -1.40009 -1.45896 -0.0395819 -0.27734 0.0379133 0.74886 0.445384 0.305089 0.94592 -0.268241 0.146521 -0.468587 -0.292118 -0.498348 0.527303 -0.132913 -0.260353 -0.0364225 0.70545 -0.0510384 -0.195489 0.67012 -0.136747 -0.142325 0.573054 0.381968 -0.257087 -0.12073 -0.101005 0.0253846 0.246486 0.314621 -0.29399 0.191197 -0.225486 -0.15302 -0.221997 0.0526169 0.0804505 -0.146669 -0.429575 -0.219637 0.659329 -0.13946 0.27244 0.720354 -0.365513 0.0443202 0.376669 0.00584743
328 -0.385974 0.19601 -0.147613 -1.17898 -1.52107 -0.573497 -0.59361 1.64754 -0.412876 -0.141953 0.104102 0.463007 0.467979 -0.112212 -1.39528 -1.46405 -0.0396789 -0.289829 0.0404668 0.728589 0.450847 0.298598 0.92494 -0.26016 0.142747 -0.460392 -0.267677 -0.497482 0.534964 -0.138663 -0.255779 -0.0304959 0.678887 -0.0468258 -0.197277 0.629013 -0.117414 -0.135837 0.527312 0.378192 -0.263792 -0.093105 -0.0833408 0.0332311 0.230593 0.312439 -0.315683 0.179748 -0.194564 -0.137875 -0.219467 0.0364106 0.0795549 -0.156607 -0.403484 -0.212342 0.678631 -0.168143 0.268978 0.740181 -0.365054 0.0575283 0.38263 0.0176631
207 -0.409671 0.199988 -0.156143 -1.23658 -1.56464 -0.573833 -0.610308 1.71854 -0.418049 -0.170358 0.114497 0.476566 0.480239 -0.0998645 -1.4491 -1.53913 -0.06276 -0.283282 0.0122801 0.728751 0.488658 0.313013 0.942126 -0.233572 0.137135 -0.464731 -0.263198 -0.517237 0.525204 -0.127758 -0.258337 -0.00871385 0.645697 -0.0458 -0.195357 0.620621 -0.137366 -0.132666 0.533822 0.377879 -0.236418 -0.102015 -0.0895195 0.00697892 0.215471 0.296928 -0.306691 0.151458 -0.189363 -0.125348 -0.206666 0.0433396 0.0544563 -0.142766 -0.377701 -0.198596 0.654131 -0.175232 0.266845 0.738182 -0.363707 0.044512 0.364266 0.020894
289 -0.423599 0.209583 -0.16674 -1.27789 -1.62599 -0.603288 -0.615303 1.77594 -0.451654 -0.160883 0.115412 0.487876 0.501815 -0.113408 -1.4768 -1.54261 -0.0811447 -0.303663 0.0620964 0.801981 0.528449 0.32826 1.00892 -0.282054 0.173263 -0.484726 -0.278527 -0.551846 0.56653 -0.131361 -0.29011 -0.0267429 0.698639 -0.0512214 -0.217865 0.682675 -0.136666 -0.154837 0.583144 0.405025 -0.289533 -0.108752 -0.0872713 0.0425945 0.267885 0.340134 -0.338383 0.18397 -0.194441 -0.140377 -0.21362 0.0410862 0.0729512 -0.149838 -0.395859 -0.212732 0.7028 -0.182532 0.284183 0.797822 -0.420071 0.0521115 0.418497 0.0181677
78 -0.422225 0.229436 -0.138658 -1.23683 -1.54763 -0.569205 -0.605151 1.74399 -0.405339 -0.189979 0.11153 0.470301 0.481429 -0.109007 -1.4176 -1.50151 -0.0581601 -0.288053 0.0356776 0.763337 0.507288 0.334941 0.969338 -0.267522 0.135813 -0.446409 -0.283625 -0.53559 0.566859 -0.128335 -0.264733 -0.0133877 0.651779 -0.0437426 -0.19688 0.604801 -0.157867 -0.14809 0.537131 0.353095 -0.262137 -0.0981676 -0.101063 0.0164332 0.220398 0.308392 -0.305614 0.159215 -0.217394 -0.148637 -0.209974 0.0475732 0.0459553 -0.152861 -0.38485 -0.227896 0.671671 -0.184488 0.275915 0.773587 -0.402439 0.0325278 0.403802 0.0141377
360 -0.372078 0.183912 -0.154603 -1.17862 -1.4698 -0.570911 -0.577763 1.61556 -0.401854 -0.171823 0.106601 0.451283 0.459846 -0.108391 -1.38072 -1.44633 -0.0524696 -0.284561 0.0319266 0.711443 0.469015 0.296331 0.899087 -0.240251 0.13617 -0.448839 -0.254958 -0.488346 0.501353 -0.124145 -0.244209 -0.00056011 0.632033 -0.0350052 -0.190341 0.610204 -0.134001 -0.12796 0.508886 0.366499 -0.224435 -0.110054 -0.0913328 0.0225538 0.220237 0.31069 -0.302126 0.164198 -0.161184 -0.118061 -0.182266 0.0374207 0.0483887 -0.126139 -0.347919 -0.184508 0.632954 -0.171338 0.264136 0.730324 -0.370927 0.038448 0.35684 0.0174337
407 -0.403666 0.227347 -0.154461 -1.27076 -1.59174 -0.589049 -0.621718 1.72649 -0.418276 -0.181792 0.105768 0.467533 0.456035 -0.106928 -1.44849 -1.53254 -0.070658 -0.287749 0.0385821 0.788278 0.510484 0.328583 0.967792 -0.254837 0.148664 -0.476196 -0.276176 -0.523203 0.566057 -0.144361 -0.266611 -0.0154646 0.670586 -0.0608163 -0.186933 0.639149 -0.140094 -0.14284 0.539872 0.371532 -0.269149 -0.100274 -0.0910906 0.0122061 0.224109 0.319747 -0.305804 0.181273 -0.209156 -0.140835 -0.233225 0.0262084 0.0400649 -0.161638 -0.371961 -0.250405 0.663233 -0.185559 0.269076 0.760739 -0.38392 0.047171 0.366213 0.0168455
187 -0.396797 0.202202 -0.162526 -1.23783 -1.58249 -0.585511 -0.601975 1.71858 -0.436568 -0.157217 0.130994 0.473112 0.488554 -0.124443 -1.43438 -1.48338 -0.0460702 -0.291927 0.0418637 0.803208 0.497421 0.320367 1.00082 -0.285407 0.16955 -0.503684 -0.284479 -0.559217 0.596397 -0.133377 -0.274257 0.00580367 0.649666 -0.0654575 -0.200449 0.64256 -0.151086 -0.12792 0.561223 0.393112 -0.280807 -0.111494 -0.0975577 0.0246819 0.260666 0.328176 -0.314588 0.171216 -0.215662 -0.151512 -0.209286 0.0509831 0.0652414 -0.140439 -0.385122 -0.257226 0.679913 -0.162761 0.26225 0.765319 -0.385009 0.033335 0.369697 0.0122088
145 -0.38501 0.199126 -0.176988 -1.22887 -1.58525 -0.587213 -0.614421 1.71612 -0.432451 -0.145264 0.11607 0.473778 0.478104 -0.111008 -1.44028 -1.49003 -0.0687685 -0.280068 0.0390321 0.771697 0.481647 0.29654 0.951358 -0.274306 0.153397 -0.487653 -0.266757 -0.540913 0.557687 -0.126312 -0.265907 -0.0190266 0.658785 -0.0571088 -0.195619 0.62947 -0.134243 -0.142782 0.542063 0.386461 -0.262824 -0.0865679 -0.0777159 0.0279025 0.240141 0.308963 -0.326571 0.174045 -0.181526 -0.132385 -0.212334 0.0431398 0.0451114 -0.157266 -0.360826 -0.230842 0.683655 -0.179739 0.281803 0.749766 -0.379772 0.0702172 0.394532 0.0282966
254 -0.384291 0.199463 -0.160587 -1.18038 -1.49858 -0.548937 -0.576517 1.60228 -0.415501 -0.151889 0.125289 0.453302 0.446848 -0.117276 -1.37656 -1.4379 -0.0520629 -0.261037 0.0371901 0.73004 0.44699 0.29807 0.906809 -0.240436 0.138918 -0.437384 -0.266707 -0.468342 0.528219 -0.115724 -0.259181 -0.0431212 0.679118 -0.0477728 -0.187108 0.619583 -0.126614 -0.138727 0.539126 0.366704 -0.261777 -0.108635 -0.0811089 0.0401502 0.243886 0.303619 -0.288405 0.182431 -0.220077 -0.135816 -0.214204 0.0447483 0.0718406 -0.15122 -0.38366 -0.229444 0.627267 -0.139732 0.251694 0.700127 -0.355333 0.0378277 0.376327 0.00300919
68 -0.395134 0.179331 -0.171796 -1.23452 -1.5798 -0.601094 -0.609836 1.72639 -0.434961 -0.124548 0.119298 0.479338 0.474556 -0.109337 -1.4591 -1.50399 -0.0476012 -0.295006 0.0615886 0.772973 0.461635 0.285661 0.950361 -0.259325 0.171358 -0.50872 -0.268791 -0.518035 0.548885 -0.135883 -0.265145 -0.0234966 0.662211 -0.0601951 -0.195911 0.646951 -0.129898 -0.137475 0.547464 0.380527 -0.271643 -0.0980768 -0.097333 0.0289159 0.244068 0.332334 -0.329694 0.172621 -0.209185 -0.139048 -0.215247 0.0340813 0.0643648 -0.164929 -0.38231 -0.235098 0.662841 -0.164119 0.255829 0.711431 -0.351823 0.0355695 0.35184 0.0305816
380 -0.403085 0.195707 -0.156515 -1.22292 -1.6065 -0.605833 -0.607317 1.74135 -0.417003 -0.135441 0.116387 0.463024 0.456829 -0.109403 -1.44655 -1.51365 -0.0324574 -0.300633 0.0441442 0.782726 0.479014 0.327064 0.993147 -0.270021 0.156749 -0.494392 -0.301393 -0.523208 0.565508 -0.132471 -0.275451 -0.020228 0.695274 -0.0377356 -0.194311 0.647566 -0.156803 -0.128815 0.557871 0.383295 -0.275439 -0.110098 -0.097387 0.0276674 0.240126 0.320048 -0.326588 0.182579 -0.209858 -0.149989 -0.214586 0.0401594 0.0697448 -0.166182 -0.397777 -0.220297 0.699408 -0.163125 0.300148 0.766969 -0.366085 0.0376783 0.405613 0.00774873
97 -0.375758 0.199803 -0.150637 -1.17569 -1.49129 -0.573224 -0.576479 1.64342 -0.391348 -0.162757 0.136089 0.465978 0.453947 -0.106953 -1.3837 -1.45598 -0.0663794 -0.283192 0.0385084 0.715942 0.478904 0.277892 0.909677 -0.244915 0.151723 -0.467095 -0.250052 -0.473432 0.53375 -0.130641 -0.244782 -0.0185715 0.659405 -0.0340186 -0.190165 0.630108 -0.118985 -0.132366 0.530928 0.356376 -0.266658 -0.105127 -0.0740175 0.0452825 0.251842 0.317848 -0.319112 0.159583 -0.207755 -0.153871 -0.206754 0.0406609 0.0847783 -0.153597 -0.378491 -0.230696 0.639952 -0.161504 0.246567 0.726555 -0.357348 0.0130663 0.355717 0.0181686
213 -0.379396 0.194424 -0.133153 -1.15732 -1.44277 -0.543809 -0.575923 1.59065 -0.378403 -0.163849 0.104479 0.42417 0.424363 -0.104981 -1.32486 -1.38795 -0.0568184 -0.255434 0.0327864 0.696706 0.448297 0.290969 0.887469 -0.23651 0.14135 -0.437999 -0.256845 -0.47583 0.516114 -0.12439 -0.242318 -0.00463788 0.642017 -0.0460676 -0.190681 0.610417 -0.134032 -0.113523 0.521966 0.361056 -0.255418 -0.0950321 -0.081658 0.039217 0.231476 0.298123 -0.288915 0.176335 -0.210136 -0.138683 -0.20245 0.0381367 0.0797765 -0.148999 -0.381851 -0.19983 0.628356 -0.151583 0.255032 0.686026 -0.341913 0.0382824 0.342139 0.020352
115 -0.421227 0.218014 -0.168608 -1.29735 -1.62876 -0.616448 -0.646445 1.7854 -0.422955 -0.167685 0.112153 0.485137 0.470004 -0.100442 -1.47032 -1.58267 -0.076148 -0.30468 0.022567 0.796185 0.542892 0.321767 1.00062 -0.261641 0.143931 -0.481477 -0.287375 -0.541891 0.583261 -0.143965 -0.276654 -0.00398853 0.675369 -0.0437033 -0.200573 0.644057 -0.162404 -0.151849 0.531459 0.381293 -0.255857 -0.0931615 -0.0958048 0.00744368 0.228287 0.314696 -0.332431 0.174303 -0.192252 -0.122721 -0.229741 0.0320406 0.0217486 -0.160499 -0.352539 -0.244008 0.697255 -0.198789 0.284811 0.797898 -0.398465 0.0527949 0.387679 0.0214884
217 -0.394004 0.191803 -0.151375 -1.20206 -1.52101 -0.578446 -0.603497 1.672 -0.418541 -0.176441 0.119503 0.474735 0.457083 -0.109474 -1.41599 -1.47117 -0.0423603 -0.288392 0.0287092 0.758975 0.482164 0.289837 0.947386 -0.242023 0.142467 -0.475063 -0.254687 -0.515273 0.561335 -0.119006 -0.279122 0.00241315 0.655501 -0.0222543 -0.195666 0.624059 -0.144298 -0.123206 0.514538 0.379528 -0.262443 -0.102433 -0.079632 0.0393714 0.250681 0.316245 -0.343847 0.176943 -0.181479 -0.124838 -0.21307 0.0314926 0.0642737 -0.134011 -0.392008 -0.203755 0.635387 -0.158256 0.270599 0.70715 -0.360723 0.0420575 0.349288 0.0191209
323 -0.380015 0.193252 -0.165544 -1.22551 -1.51846 -0.598686 -0.582768 1.68494 -0.417003 -0.193436 0.115157 0.461704 0.466131 -0.0866113 -1.40033 -1.48785 -0.0632797 -0.291981 0.0522809 0.737888 0.502731 0.312957 0.922388 -0.258277 0.138043 -0.461595 -0.266633 -0.520525 0.550516 -0.129267 -0.269091 -0.00874609 0.647548 -0.0482774 -0.186044 0.647749 -0.129623 -0.133857 0.512009 0.375458 -0.252088 -0.0923434 -0.0932432 0.0199054 0.231589 0.311776 -0.300203 0.184161 -0.175535 -0.124418 -0.211767 0.0321851 0.0497593 -0.146739 -0.355751 -0.2274 0.652799 -0.175152 0.240202 0.748656 -0.382905 0.0631178 0.365174 0.024915
194 -0.250612 0.523414 -0.0635485 -1.35756 -1.54008 -0.38015 -0.387909 1.49926 -0.308998 -0.626868 0.160047 0.388506 0.26884 -0.172061 -1.18859 -1.38974 -0.264201 -0.167667 -0.278837 0.595939 0.933553 0.373094 0.993972 -0.16927 0.189645 -0.339048 0.0109424 -0.633949 0.500817 0.04689 -0.00207455 0.193452 0.0868759 -0.153002 -0.312352 0.351351 0.00528034 -0.0370522 0.335768 0.0977208 -0.0580209 -0.0679939 -0.110922 -0.0476843 0.189645 0.194772 0.0680891 0.091761 0.0762711 -0.0153611 -0.227441 0.111484 -0.23357 -0.0650926 0.101085 -0.264662 0.591993 -0.0855822 0.0301637 0.748714 -0.495193 0.171953 0.251008 -0.0248335
231 -0.264818 0.493894 -0.05631 -1.36871 -1.54376 -0.383339 -0.3882 1.51263 -0.286366 -0.587357 0.144581 0.381326 0.27227 -0.164198 -1.15575 -1.36819 -0.256337 -0.172827 -0.256506 0.575171 0.914214 0.351253 0.973403 -0.150999 0.172026 -0.326654 -0.00713226 -0.604674 0.502369 0.014386 -0.0125234 0.199663 0.111569 -0.112495 -0.292556 0.351769 -0.036725 -0.0479891 0.303598 0.0997632 -0.0549402 -0.0437165 -0.0970179 -0.0578284 0.163493 0.182275 0.0344852 0.0757136 0.0579019 -0.0232937 -0.210494 0.110372 -0.233287 -0.0785839 0.083787 -0.260705 0.57756 -0.109211 0.00933858 0.766765 -0.49271 0.171913 0.24503 -0.00100293
377 -0.303327 0.553438 -0.0848826 -1.40659 -1.61782 -0.380048 -0.402969 1.57422 -0.289909 -0.603139 0.157446 0.392907 0.263732 -0.176917 -1.25114 -1.47897 -0.302224 -0.178668 -0.32938 0.643803 0.996973 0.38676 1.08802 -0.178545 0.19414 -0.343656 0.00856118 -0.630298 0.525893 0.0480864 0.00205239 0.217069 0.113367 -0.175148 -0.322295 0.38424 -0.0377866 -0.0520871 0.410849 0.120222 -0.0617661 -0.0386178 -0.110003 -0.060551 0.166508 0.178838 0.040948 0.0724052 0.0506709 -0.00916384 -0.229362 0.0647042 -0.253335 -0.0682441 0.0987324 -0.272185 0.644745 -0.0920092 0.0271712 0.815325 -0.543376 0.218154 0.278749 -0.000630948
418 -0.275292 0.493344 -0.0775019 -1.27665 -1.50014 -0.396706 -0.3733 1.51049 -0.281458 -0.57674 0.170705 0.38097 0.270789 -0.156743 -1.16984 -1.40416 -0.270217 -0.185026 -0.275886 0.621 0.947272 0.397987 1.02101 -0.15806 0.153378 -0.306544 -0.0174419 -0.594278 0.480496 0.045623 -0.00793035 0.185999 0.121176 -0.150241 -0.300265 0.365241 -0.0355817 -0.0280514 0.348632 0.119647 -0.0835581 -0.0499176 -0.118594 -0.0366717 0.188821 0.193947 0.0280676 0.0833332 0.0620986 -0.0350276 -0.214136 0.0934799 -0.216056 -0.0791624 0.0829264 -0.230753 0.602801 -0.0852517 0.0288453 0.745196 -0.508427 0.195722 0.244649 0.0129325
208 -0.280454 0.535562 -0.0856307 -1.37273 -1.58928 -0.377011 -0.382627 1.51344 -0.29441 -0.589687 0.155373 0.383989 0.258092 -0.177142 -1.19955 -1.41544 -0.276075 -0.178214 -0.315115 0.647514 0.999332 0.396741 1.09593 -0.184845 0.191871 -0.346686 0.00155734 -0.617129 0.478525 0.0601411 0.0178751 0.200367 0.0977325 -0.184479 -0.314027 0.346188 -0.000917554 -0.0277354 0.348834 0.114985 -0.0633622 -0.0459037 -0.0984675 -0.0451742 0.193001 0.178907 0.0458771 0.0828633 0.0640057 -0.00716333 -0.234583 0.0925974 -0.233471 -0.0730232 0.0910331 -0.282803 0.603344 -0.0906358 0.0167276 0.77769 -0.528259 0.216602 0.265615 0.00975136
130 -0.280998 0.487297 -0.0764558 -1.32467 -1.48525 -0.388608 -0.390771 1.50309 -0.283348 -0.576025 0.167528 0.381358 0.253959 -0.162633 -1.16969 -1.38351 -0.251118 -0.172658 -0.302213 0.613675 0.916944 0.353018 1.01379 -0.141927 0.180058 -0.336358 -0.000562764 -0.57638 0.491356 0.0593352 -0.00191677 0.196404 0.126767 -0.131222 -0.314055 0.354592 -0.0293239 -0.0320491 0.350643 0.103779 -0.046578 -0.0437851 -0.0938056 -0.0345362 0.183113 0.183046 0.051004 0.0885963 0.0606106 -0.0195481 -0.240194 0.0779961 -0.24154 -0.0452744 0.106046 -0.275468 0.600468 -0.0855768 0.0258024 0.774689 -0.505421 0.195111 0.245446 0.0210293
201 -0.298857 0.531526 -0.0729481 -1.38141 -1.58102 -0.412364 -0.388855 1.573 -0.295183 -0.576794 0.178533 0.378725 0.258915 -0.173991 -1.17343 -1.38573 -0.273896 -0.171652 -0.319274 0.62308 0.964742 0.368427 1.06404 -0.175392 0.201387 -0.3199 -0.0169989 -0.592247 0.500373 0.0607817 0.00102559 0.19397 0.12516 -0.149299 -0.339549 0.384844 -0.0333833 -0.0343286 0.361741 0.104765 -0.0637879 -0.0538494 -0.0909267 -0.0329548 0.196027 0.18637 0.0358134 0.0773429 0.0658242 -0.0172907 -0.246483 0.0968739 -0.249078 -0.0847314 0.111159 -0.276577 0.66116 -0.0917936 0.0294801 0.823396 -0.546574 0.210098 0.279424 0.0135708
284 -0.320186 0.509858 -0.0639799 -1.35972 -1.55451 -0.399095 -0.407829 1.56812 -0.295044 -0.56785 0.167134 0.386611 0.265357 -0.162792 -1.17592 -1.3965 -0.261002 -0.173407 -0.299306 0.620274 0.924107 0.389764 1.05117 -0.149764 0.172322 -0.308999 -0.0310962 -0.611507 0.502092 0.0647249 -0.0183776 0.218048 0.098853 -0.137495 -0.303937 0.365001 -0.0337644 -0.0432261 0.358863 0.112268 -0.0558703 -0.053692 -0.106064 -0.0629461 0.195332 0.20396 0.0162374 0.0768722 0.0644779 -0.0177025 -0.233138 0.106892 -0.253195 -0.0708383 0.104101 -0.266675 0.565147 -0.0951331 0.0143919 0.745405 -0.501156 0.160902 0.251366 0.0146383
392 -0.319684 0.51008 -0.0760236 -1.37255 -1.56858 -0.393733 -0.392604 1.60044 -0.293614 -0.589787 0.187708 0.397647 0.294921 -0.15571 -1.19481 -1.41545 -0.27462 -0.197038 -0.278054 0.649585 0.954635 0.395837 1.0424 -0.173956 0.180456 -0.336427 -0.0421563 -0.638411 0.550608 0.0347645 -0.0238019 0.209445 0.139394 -0.158208 -0.307673 0.399613 -0.0585931 -0.0681247 0.38688 0.120983 -0.0813982 -0.0630954 -0.11903 -0.0675378 0.165022 0.194292 0.00899692 0.0644465 0.0423833 -0.0310297 -0.240942 0.0721248 -0.273574 -0.0782259 0.115769 -0.313947 0.622957 -0.118824 0.0239347 0.836547 -0.548828 0.163066 0.255798 0.000190284
118 -0.292168 0.523894 -0.0633403 -1.35293 -1.54617 -0.39452 -0.383664 1.54197 -0.268644 -0.568906 0.171417 0.381332 0.270734 -0.156616 -1.18981 -1.38904 -0.285061 -0.176624 -0.29766 0.636594 0.99532 0.377039 1.04638 -0.170907 0.190902 -0.337385 -0.00398757 -0.612417 0.514563 0.0433822 0.00507715 0.179978 0.140807 -0.133328 -0.298923 0.371022 -0.0505316 -0.0368428 0.344724 0.115533 -0.0708367 -0.0602269 -0.12232 -0.0587902 0.169521 0.206987 0.0181176 0.0673038 0.0476439 -0.0311479 -0.24065 0.0690454 -0.247594 -0.0603442 0.104515 -0.301126 0.646607 -0.0991304 0.0211014 0.849866 -0.579162 0.222059 0.277489 -0.0072064
233 -0.306863 0.519236 -0.0850208 -1.39098 -1.58202 -0.40358 -0.41183 1.5885 -0.339747 -0.632193 0.168337 0.402481 0.275549 -0.171266 -1.2096 -1.42108 -0.269591 -0.205854 -0.290776 0.644675 0.966481 0.364639 1.04208 -0.158373 0.20262 -0.314524 -0.0175422 -0.635576 0.534098 0.0782249 -0.0249406 0.216224 0.123905 -0.135204 -0.326037 0.399219 -0.041204 -0.053938 0.389173 0.166599 -0.0837988 -0.0398224 -0.0919992 -0.0574428 0.193456 0.204314 -0.0277904 0.0902229 0.0647433 -0.00550817 -0.218352 0.088497 -0.221988 -0.0376221 0.0738885 -0.258841 0.65756 -0.124789 0.0521483 0.823556 -0.568832 0.199069 0.281345 0.00660261
370 -0.285483 0.525123 -0.0810921 -1.41575 -1.60563 -0.407846 -0.392638 1.55896 -0.288228 -0.59837 0.174063 0.381592 0.261348 -0.158923 -1.19951 -1.42785 -0.261215 -0.188599 -0.286852 0.618559 0.961908 0.377546 1.02264 -0.15812 0.195286 -0.352291 -0.0166314 -0.637977 0.542551 0.0474529 -0.0141537 0.216451 0.124456 -0.135723 -0.2945 0.37911 -0.0379908 -0.0448581 0.345824 0.113824 -0.0676824 -0.0445708 -0.100077 -0.0606344 0.184561 0.187711 0.0272225 0.0814281 0.0830612 -0.0221812 -0.235939 0.0872852 -0.264036 -0.0686234 0.120798 -0.294467 0.59383 -0.110759 0.0134541 0.786511 -0.499271 0.174188 0.233131 0.024377
236 -0.318295 0.540649 -0.0739283 -1.44575 -1.65428 -0.419682 -0.41147 1.63867 -0.313035 -0.62494 0.175418 0.407148 0.305206 -0.172959 -1.24456 -1.48495 -0.279112 -0.197144 -0.305386 0.629344 0.973242 0.368505 1.08078 -0.171423 0.1739 -0.339297 -0.0160178 -0.654585 0.541093 0.0479289 -0.0267741 0.214452 0.12458 -0.154165 -0.333912 0.401366 -0.0419597 -0.0574077 0.39451 0.150113 -0.0570811 -0.0474577 -0.0885821 -0.0661806 0.190892 0.212525 0.00275942 0.0717264 0.0712208 -0.0445988 -0.213763 0.107526 -0.25073 -0.0722079 0.10393 -0.297149 0.588674 -0.0811403 0.01767 0.787719 -0.531721 0.176829 0.271756 0.0098456
62 -0.259436 0.452106 -0.0737301 -1.21092 -1.35964 -0.344642 -0.362252 1.35739 -0.266505 -0.528334 0.162726 0.34543 0.238909 -0.140555 -1.04132 -1.2412 -0.233167 -0.158375 -0.283766 0.545737 0.848994 0.340648 0.936391 -0.138675 0.160357 -0.282847 0.00217027 -0.526634 0.425672 0.0631439 -0.00220652 0.190756 0.0906679 -0.14284 -0.29537 0.307637 -0.00880804 -0.010504 0.330256 0.0985543 -0.036456 -0.0546822 -0.0894357 -0.0322292 0.185451 0.159877 0.0513524 0.084978 0.0714411 0.00203745 -0.239671 0.0887755 -0.233201 -0.0613344 0.090252 -0.229729 0.53552 -0.0639798 0.0288405 0.674338 -0.451513 0.174947 0.216448 0.0151183
143 -0.297608 0.528369 -0.0787351 -1.35491 -1.53884 -0.399115 -0.401914 1.5581 -0.303633 -0.5961 0.155308 0.393887 0.287608 -0.165381 -1.20361 -1.42679 -0.296776 -0.191675 -0.314024 0.65476 1.00054 0.391907 1.0871 -0.177018 0.199039 -0.325769 -0.0280034 -0.647735 0.517926 0.0701191 0.00455879 0.191327 0.114069 -0.178165 -0.335341 0.372646 -0.0167661 -0.0219447 0.374206 0.133231 -0.0687354 -0.048358 -0.115437 -0.0170304 0.200583 0.191155 0.0473744 0.105872 0.0715233 -0.0119858 -0.235019 0.0895783 -0.226279 -0.0635468 0.0845043 -0.242665 0.647009 -0.0980165 0.0343817 0.821404 -0.562603 0.226325 0.291437 0.00448411
344 -0.307179 0.501433 -0.0556402 -1.34541 -1.50655 -0.397798 -0.411027 1.53956 -0.27886 -0.564395 0.147578 0.370213 0.2636 -0.131836 -1.13815 -1.34819 -0.262111 -0.153759 -0.292688 0.603347 0.955575 0.383491 1.01612 -0.166394 0.1732 -0.307571 -0.0259933 -0.587596 0.491355 0.0553399 -0.000722172 0.190923 0.119118 -0.117254 -0.28373 0.337358 -0.0554522 -0.0361354 0.3214 0.0982423 -0.0595608 -0.0565093 -0.112312 -0.0433745 0.179032 0.19454 0.0454792 0.0932179 0.0558653 -0.0143302 -0.233859 0.105112 -0.2264 -0.0632401 0.0965277 -0.24417 0.598106 -0.108004 0.033074 0.766212 -0.522786 0.194154 0.259192 0.00350021
479 -0.282205 0.533369 -0.0600449 -1.35649 -1.56432 -0.365336 -0.377279 1.51802 -0.291984 -0.596728 0.192529 0.391953 0.246561 -0.169555 -1.16233 -1.38814 -0.253191 -0.192695 -0.308985 0.587519 0.914683 0.369512 1.00283 -0.140588 0.17437 -0.313829 -0.0304025 -0.568824 0.479128 0.0517661 0.00457739 0.198796 0.114858 -0.141755 -0.278377 0.353484 -0.0337726 -0.0373304 0.337836 0.13116 -0.0583062 -0.062029 -0.106368 -0.0668351 0.185944 0.20397 -0.0110898 0.0688229 0.0751073 -0.000672343 -0.251504 0.0789042 -0.249033 -0.0632696 0.0896049 -0.30201 0.626665 -0.0926029 0.0151635 0.798735 -0.534403 0.192807 0.278403 -0.0102572
484 -0.292743 0.546272 -0.058438 -1.41759 -1.6291 -0.38064 -0.402134 1.59108 -0.305709 -0.631931 0.177926 0.416068 0.284634 -0.181143 -1.24381 -1.44493 -0.264644 -0.185918 -0.309531 0.606889 0.979387 0.375319 1.05219 -0.164714 0.196252 -0.336487 -0.0128342 -0.629985 0.507835 0.065506 0.0279624 0.204361 0.113566 -0.138583 -0.333225 0.368971 -0.0433098 -0.0288859 0.353721 0.124048 -0.0667925 -0.0523946 -0.114738 -0.0486433 0.193019 0.193969 0.0291511 0.0959842 0.0582003 -0.0127053 -0.232386 0.0945275 -0.226824 -0.0545126 0.0890745 -0.249252 0.607418 -0.0822798 0.0272128 0.780123 -0.521817 0.197606 0.253902 0.00638953
70 -0.299324 0.572425 -0.0700098 -1.42442 -1.64625 -0.370823 -0.407991 1.60101 -0.310045 -0.61671 0.180458 0.407609 0.27765 -0.194139 -1.25583 -1.48169 -0.298663 -0.179943 -0.334735 0.66156 1.01662 0.413641 1.11765 -0.172032 0.176958 -0.333697 -0.0136458 -0.600743 0.509188 0.0532171 0.0291906 0.206792 0.129332 -0.167891 -0.324934 0.388573 -0.0474608 -0.0293647 0.383519 0.133744 -0.0776118 -0.0473335 -0.11482 -0.0553925 0.194599 0.205837 0.0166565 0.0876453 0.0372286 -0.0148807 -0.245528 0.0981089 -0.239788 -0.0767402 0.0815122 -0.283931 0.673387 -0.0934443 0.0258369 0.852725 -0.575912 0.229648 0.291617 0.000907998
1 -0.292281 0.572709 -0.0805446 -1.44498 -1.63244 -0.378554 -0.403334 1.57221 -0.30891 -0.608043 0.178229 0.401769 0.268807 -0.165241 -1.20558 -1.43523 -0.257622 -0.189251 -0.30319 0.638486 1.00903 0.384534 1.09504 -0.181779 0.206217 -0.361468 -0.0320796 -0.645875 0.522932 0.0590122 0.00838043 0.186204 0.128709 -0.140795 -0.308141 0.368768 -0.0229769 -0.0177731 0.328366 0.12286 -0.0559434 -0.0474759 -0.116905 -0.0482801 0.195631 0.176296 0.0326 0.102329 0.0626416 -0.00757123 -0.255729 0.101572 -0.243238 -0.0622987 0.0803112 -0.27161 0.632114 -0.104569 0.0248212 0.799441 -0.537846 0.215978 0.274517 0.00545872
288 -0.322391 0.608393 -0.100199 -1.45521 -1.69733 -0.374339 -0.391775 1.59734 -0.319575 -0.608918 0.179021 0.404325 0.259714 -0.181462 -1.23667 -1.47264 -0.283491 -0.202738 -0.319942 0.639702 0.974698 0.38219 1.05236 -0.189776 0.201295 -0.34405 -0.031724 -0.624806 0.539469 0.050961 -0.00954608 0.207439 0.122177 -0.157788 -0.309937 0.381607 -0.0248958 -0.0507447 0.37041 0.100441 -0.0621309 -0.0457175 -0.120394 -0.0803453 0.181869 0.181539 0.0341944 0.08217 0.0522622 -0.00973525 -0.240108 0.0779647 -0.27667 -0.0724834 0.108302 -0.311069 0.629978 -0.0807798 0.0117585 0.834344 -0.548075 0.193368 0.293755 -0.00455063
132 -0.274545 0.552183 -0.0694806 -1.40236 -1.61569 -0.386327 -0.381154 1.53484 -0.277141 -0.572242 0.167179 0.354609 0.238787 -0.149905 -1.17509 -1.38945 -0.252454 -0.180897 -0.293688 0.612313 0.970042 0.364646 1.03734 -0.164348 0.189238 -0.335082 -0.0126391 -0.619437 0.499513 0.062324 0.00592191 0.191775 0.121313 -0.16096 -0.315344 0.35664 -0.0165903 -0.0298042 0.341509 0.11648 -0.0645331 -0.0585998 -0.120534 -0.0441863 0.198315 0.18921 0.0180832 0.089232 0.0779207 -0.0174851 -0.257461 0.0788267 -0.257329 -0.0653408 0.0949109 -0.263659 0.629451 -0.0980126 0.0411714 0.801523 -0.518879 0.213529 0.271754 0.0113491
107 -0.300161 0.536756 -0.0546988 -1.36894 -1.57964 -0.363364 -0.39092 1.52028 -0.298371 -0.610652 0.189015 0.413627 0.270524 -0.166918 -1.19218 -1.41607 -0.286174 -0.188955 -0.306517 0.620653 0.970932 0.38396 1.04015 -0.145919 0.202055 -0.33053 -0.0283338 -0.629262 0.502162 0.0741162 0.0130901 0.190849 0.113134 -0.136338 -0.301705 0.354866 -0.0185224 -0.0637269 0.339608 0.13066 -0.0813613 -0.0576617 -0.129452 -0.0462007 0.200008 0.217355 0.00392416 0.0770166 0.0625016 -0.0184854 -0.24428 0.0796468 -0.230313 -0.0496221 0.0964979 -0.297427 0.681804 -0.101767 0.0258438 0.839435 -0.565805 0.190048 0.293136 0.00472194
127 -0.570349 0.212954 -0.235777 -1.34991 -1.42424 -0.879721 -0.182638 1.75667 -0.230691 -0.61316 -0.0905567 0.389217 0.0322106 -0.120289 -1.1175 -1.70124 -0.268758 -0.224669 -0.0616207 0.693992 0.696431 0.391772 0.971436 -0.0833568 0.192253 -0.305115 -0.0749632 -0.261502 0.490492 0.00389102 -0.486781 0.273092 0.203912 0.209967 -0.107525 0.55407 -0.1378 -0.250685 0.607138 0.225112 -0.0385131 -0.0394567 0.0670999 -0.195128 0.0151991 0.49331 -0.198074 -0.254819 0.134513 -0.0552687 -0.0165727 0.0554785 -0.0580243 -0.0784471 0.266404 -0.294214 0.673646 -0.570656 -0.0139517 0.691176 -0.631011 0.0962587 0.270785 0.154309
56 -0.533362 0.217568 -0.244146 -1.27148 -1.35589 -0.832777 -0.17953 1.68588 -0.202167 -0.548938 -0.0564926 0.387362 0.0221922 -0.10564 -1.06337 -1.619 -0.235456 -0.233591 -0.048919 0.653729 0.669969 0.352842 0.89704 -0.064656 0.196734 -0.298805 -0.0704171 -0.224102 0.442633 0.0389879 -0.48033 0.253625 0.19359 0.187573 -0.0962381 0.528186 -0.110941 -0.231258 0.586074 0.198117 -0.0405734 -0.0322885 0.0696709 -0.1855 0.0148739 0.449606 -0.207252 -0.266889 0.155297 -0.0770081 -0.0189052 0.0181923 -0.0819597 -0.0813023 0.29462 -0.323148 0.63933 -0.508939 -0.0225258 0.647712 -0.586607 0.0637042 0.241539 0.147756
312 -0.538474 0.203231 -0.224983 -1.24303 -1.33437 -0.796817 -0.196219 1.66542 -0.184108 -0.544718 -0.0619252 0.382399 0.0623926 -0.105178 -1.05411 -1.59632 -0.228504 -0.23064 -0.069626 0.618923 0.633402 0.358671 0.892229 -0.0798842 0.171383 -0.289204 -0.0701408 -0.250137 0.432481 0.00985775 -0.436506 0.245608 0.185557 0.169234 -0.101719 0.497847 -0.12153 -0.206419 0.540555 0.203932 -0.0296658 -0.0335282 0.0575735 -0.189471 0.0159567 0.413175 -0.201556 -0.228457 0.124938 -0.076059 -0.0228028 0.0285843 -0.0782408 -0.0660319 0.235511 -0.278034 0.62904 -0.473305 0.000562845 0.652917 -0.568948 0.0724001 0.247826 0.139701
11 -0.602949 0.242272 -0.272736 -1.38562 -1.47416 -0.904912 -0.192454 1.86293 -0.226246 -0.599911 -0.0597663 0.40266 0.0423969 -0.0942608 -1.14728 -1.78175 -0.261737 -0.270844 -0.0596403 0.731203 0.761212 0.414758 0.995229 -0.0893949 0.213098 -0.300084 -0.101989 -0.28795 0.512901 0.0328288 -0.500806 0.269952 0.225116 0.171366 -0.100821 0.546424 -0.146329 -0.248226 0.598036 0.223859 -0.0633512 -0.0253749 0.0490876 -0.199106 0.0401969 0.432226 -0.234171 -0.249275 0.146035 -0.0596049 -0.0108644 0.0241426 -0.0865471 -0.110244 0.277968 -0.320116 0.712347 -0.561431 -0.0255091 0.745872 -0.645157 0.0818513 0.284109 0.159618
92 -0.620229 0.23695 -0.248356 -1.3607 -1.46549 -0.87181 -0.194361 1.818 -0.212681 -0.596105 -0.0714008 0.40344 0.0523003 -0.113062 -1.17626 -1.80806 -0.253007 -0.268245 -0.0662393 0.713869 0.74652 0.419872 1.00274 -0.0831535 0.194714 -0.316983 -0.0940301 -0.287739 0.494963 0.0314352 -0.49164 0.277619 0.20406 0.16663 -0.0944969 0.560032 -0.144572 -0.243123 0.61115 0.258465 -0.0614838 -0.0194648 0.0547972 -0.222565 0.0186013 0.443097 -0.241953 -0.234104 0.13593 -0.0776155 -0.0391847 0.0218511 -0.100476 -0.0595402 0.241971 -0.320509 0.690259 -0.535163 -0.0116558 0.730149 -0.658436 0.0919882 0.284704 0.156837
199 -0.593281 0.248539 -0.233738 -1.34821 -1.44863 -0.853959 -0.240083 1.8095 -0.223141 -0.608281 -0.0696291 0.406435 0.0463985 -0.105304 -1.17311 -1.77098 -0.266634 -0.240132 -0.0675494 0.682194 0.729209 0.378404 0.976325 -0.0834069 0.212477 -0.307576 -0.0725549 -0.263613 0.463435 0.0186251 -0.489815 0.271262 0.200949 0.185145 -0.112223 0.555294 -0.140774 -0.22719 0.596156 0.239831 -0.0415143 -0.028671 0.0823492 -0.196407 0.015016 0.487215 -0.239944 -0.270662 0.1437 -0.0524119 -0.0287591 0.0363771 -0.0599736 -0.0790934 0.270454 -0.303451 0.660782 -0.549312 -0.0140221 0.685761 -0.617294 0.0865104 0.251916 0.15829
210 -0.546858 0.200802 -0.207541 -1.27598 -1.33143 -0.798717 -0.180012 1.68055 -0.221717 -0.557388 -0.0982448 0.352958 0.0110439 -0.0960764 -1.06847 -1.63776 -0.211248 -0.222774 -0.0352419 0.645979 0.657958 0.375624 0.914725 -0.0679985 0.16485 -0.283869 -0.0601232 -0.215271 0.430487 0.0090341 -0.459736 0.301951 0.162741 0.192242 -0.0928015 0.545565 -0.116067 -0.226922 0.585974 0.205464 -0.0417856 -0.0507829 0.0893689 -0.200514 -0.00528506 0.484904 -0.205329 -0.253268 0.163214 -0.0454232 -0.00505276 0.0333287 -0.0538003 -0.0452212 0.237014 -0.277945 0.623105 -0.547925 -0.0298205 0.665906 -0.616389 0.0968424 0.257089 0.173009
103 -0.604167 0.236248 -0.268861 -1.3613 -1.46072 -0.838981 -0.22522 1.77419 -0.23331 -0.589101 -0.0822239 0.400131 0.0175041 -0.112539 -1.15762 -1.7702 -0.258099 -0.256424 -0.0472396 0.717922 0.717721 0.359599 0.980645 -0.0888661 0.210308 -0.335667 -0.0692615 -0.283817 0.529702 0.00612434 -0.511531 0.261537 0.215797 0.173817 -0.110055 0.560849 -0.127549 -0.274924 0.62433 0.225986 -0.0443919 -0.0291298 0.0797535 -0.203885 0.00535104 0.439425 -0.203697 -0.248043 0.123589 -0.0438864 -0.0340426 -0.00234759 -0.0969646 -0.0748292 0.264197 -0.322578 0.660901 -0.543681 -0.027874 0.69634 -0.62955 0.0995942 0.266261 0.163401
246 -0.568468 0.221933 -0.212212 -1.32874 -1.40873 -0.840577 -0.22141 1.73525 -0.204162 -0.575946 -0.0713902 0.401813 0.0699993 -0.113974 -1.1347 -1.71303 -0.235765 -0.236303 -0.0777659 0.671 0.684416 0.355096 0.970757 -0.0759891 0.18892 -0.304443 -0.0709121 -0.262902 0.469385 0.00908065 -0.467302 0.243376 0.207022 0.195929 -0.116402 0.546435 -0.134956 -0.231125 0.587655 0.229289 -0.0258737 -0.0427086 0.0745914 -0.183274 0.00481878 0.453575 -0.206336 -0.241235 0.135304 -0.0705447 -0.0301272 0.0429636 -0.0731259 -0.0694794 0.252865 -0.30126 0.675731 -0.535897 -0.00497296 0.690336 -0.600233 0.0816549 0.265674 0.156712
299 -0.579768 0.206536 -0.239983 -1.33552 -1.41587 -0.853319 -0.170878 1.76078 -0.235083 -0.606758 -0.0825274 0.399057 0.0296682 -0.118514 -1.11848 -1.69872 -0.247659 -0.235741 -0.0506251 0.664223 0.663387 0.369574 0.941937 -0.0618966 0.186006 -0.292708 -0.0531822 -0.265767 0.471769 0.0252635 -0.474655 0.27351 0.176466 0.188049 -0.118912 0.538393 -0.114651 -0.24663 0.596222 0.224875 -0.0351241 -0.0467477 0.078278 -0.195287 0.00762299 0.466608 -0.203345 -0.249409 0.127896 -0.0607992 -0.0273239 0.0409755 -0.0650996 -0.0632034 0.24266 -0.286822 0.672051 -0.54786 -0.0260895 0.673476 -0.643064 0.0899415 0.273585 0.159765
225 -0.555781 0.217526 -0.223459 -1.27217 -1.34567 -0.821939 -0.203458 1.68624 -0.174311 -0.550782 -0.0598251 0.36326 0.0308193 -0.103355 -1.07238 -1.63784 -0.226719 -0.215551 -0.0694809 0.63369 0.649921 0.364256 0.919038 -0.0774074 0.176538 -0.282415 -0.0556085 -0.211477 0.434201 0.0109078 -0.464767 0.267377 0.18108 0.199865 -0.0884622 0.52251 -0.128503 -0.218142 0.579498 0.198013 -0.0177606 -0.0513911 0.0808268 -0.201243 -0.000603485 0.452658 -0.203162 -0.252172 0.14248 -0.0603923 -0.0189584 0.0404408 -0.0856516 -0.0675443 0.255978 -0.284415 0.66929 -0.542067 -0.0123385 0.687446 -0.621408 0.0675137 0.249224 0.154529
306 -0.595823 0.227586 -0.224427 -1.33104 -1.411 -0.845827 -0.194497 1.79191 -0.200133 -0.58215 -0.0470861 0.401873 0.055444 -0.109611 -1.10885 -1.6832 -0.242452 -0.237919 -0.0576132 0.675208 0.707389 0.361558 0.951877 -0.0568542 0.197392 -0.292844 -0.0469226 -0.237249 0.448472 0.0214168 -0.466755 0.261292 0.200382 0.201207 -0.125413 0.554198 -0.144955 -0.236984 0.603466 0.221945 -0.0404417 -0.0531276 0.0742565 -0.19357 0.010176 0.462945 -0.231875 -0.269296 0.138316 -0.0626579 -0.013484 0.0204333 -0.068974 -0.0650508 0.257137 -0.306619 0.676459 -0.554056 -0.010404 0.702795 -0.631824 0.0641396 0.25022 0.165746
30 -0.584996 0.246544 -0.235092 -1.36971 -1.44893 -0.874006 -0.214071 1.80613 -0.213524 -0.581439 -0.0711255 0.401541 0.0393155 -0.10699 -1.12993 -1.73518 -0.250185 -0.265542 -0.0690811 0.68993 0.716857 0.376218 0.969933 -0.086546 0.189718 -0.31087 -0.0943709 -0.287218 0.505275 0.0152155 -0.472755 0.277133 0.223157 0.182112 -0.130453 0.567124 -0.145635 -0.238749 0.597698 0.223436 -0.0507569 -0.0332241 0.051207 -0.186338 0.0257953 0.443148 -0.223056 -0.246406 0.145438 -0.0604549 -0.035027 0.029333 -0.0942169 -0.0944729 0.258899 -0.315228 0.692368 -0.565608 -0.0101977 0.705862 -0.629609 0.0947946 0.276894 0.14253
482 -0.578566 0.243474 -0.233959 -1.30869 -1.4022 -0.833808 -0.209475 1.73108 -0.218242 -0.587457 -0.0830649 0.389376 0.0496007 -0.115671 -1.12409 -1.69485 -0.24348 -0.236434 -0.0550772 0.67699 0.690757 0.378478 0.947764 -0.0948735 0.182064 -0.30037 -0.072515 -0.265766 0.498854 0.00310789 -0.46104 0.260401 0.208156 0.186221 -0.10411 0.545524 -0.12115 -0.243388 0.58906 0.2197 -0.0473916 -0.0291733 0.0668407 -0.194233 -0.00688034 0.439947 -0.211072 -0.252424 0.147801 -0.0714319 -0.025998 0.030372 -0.0840175 -0.0456251 0.247267 -0.334977 0.664446 -0.533623 -0.0121039 0.725197 -0.645058 0.0939301 0.271388 0.153334
237 -0.570307 0.22821 -0.217646 -1.2247 -1.30498 -0.789127 -0.195978 1.65534 -0.182277 -0.523399 -0.0716786 0.349328 0.040166 -0.102458 -1.04557 -1.62531 -0.239795 -0.215477 -0.0728739 0.641271 0.676346 0.375136 0.919645 -0.0841499 0.177789 -0.283417 -0.0694755 -0.223036 0.425173 0.0229903 -0.441886 0.263154 0.187037 0.15788 -0.0735481 0.522379 -0.117376 -0.202183 0.56702 0.227714 -0.0389784 -0.00516397 0.0729964 -0.202548 0.00852875 0.445901 -0.244703 -0.233281 0.162268 -0.0533925 -0.00272776 0.0222669 -0.0701203 -0.0497181 0.230664 -0.299612 0.626283 -0.528569 0.000970204 0.669415 -0.60564 0.106114 0.24039 0.156971
332 -0.589522 0.249455 -0.243062 -1.38404 -1.46766 -0.882694 -0.216369 1.82154 -0.22225 -0.617222 -0.0622123 0.414152 0.058995 -0.114812 -1.17324 -1.76296 -0.290942 -0.245997 -0.071303 0.715028 0.739308 0.393047 0.98748 -0.0950809 0.207889 -0.301144 -0.104127 -0.288919 0.512774 0.00686719 -0.497542 0.263203 0.231825 0.169689 -0.108727 0.541456 -0.138786 -0.254508 0.598983 0.224269 -0.0559244 -0.0252728 0.0597958 -0.194397 0.0156281 0.454919 -0.207139 -0.247981 0.124332 -0.0672044 -0.0310101 0.027703 -0.0838829 -0.0986386 0.29158 -0.354118 0.718785 -0.593262 -0.0228167 0.750402 -0.663084 0.0840851 0.285562 0.152023
373 -0.602977 0.227259 -0.245397 -1.35342 -1.43699 -0.875917 -0.170661 1.78961 -0.209382 -0.583299 -0.0778399 0.401516 0.04332 -0.103764 -1.10995 -1.71173 -0.236101 -0.254332 -0.0392249 0.669847 0.708455 0.391827 0.9496 -0.065923 0.201382 -0.29443 -0.0739858 -0.275602 0.479185 0.0205222 -0.465191 0.276452 0.206701 0.168978 -0.100087 0.541897 -0.119614 -0.236566 0.568605 0.232077 -0.0626548 -0.0284535 0.0545819 -0.185503 0.0198085 0.432034 -0.219817 -0.226256 0.122702 -0.071723 -0.0163354 0.0228111 -0.068536 -0.0592854 0.242441 -0.321006 0.682818 -0.547714 -0.0286142 0.718485 -0.632486 0.0786277 0.269722 0.15371
268 -0.595487 0.230156 -0.240271 -1.36252 -1.45935 -0.858496 -0.220882 1.8157 -0.23546 -0.622198 -0.0608631 0.416929 0.057835 -0.108563 -1.19709 -1.79782 -0.261591 -0.260852 -0.071465 0.713462 0.744823 0.405861 1.0092 -0.0751776 0.187813 -0.306637 -0.0794071 -0.307294 0.494955 0.0107341 -0.479468 0.277313 0.221137 0.181176 -0.132053 0.574485 -0.161122 -0.247009 0.620279 0.249778 -0.0411818 -0.0520328 0.0485573 -0.199975 0.0258211 0.478558 -0.226399 -0.247647 0.109266 -0.0692606 -0.0472058 0.0320604 -0.0916615 -0.100706 0.248411 -0.308019 0.710544 -0.550627 -0.00705424 0.745313 -0.688009 0.0866093 0.284867 0.169552
329 -0.576492 0.21197 -0.221952 -1.30413 -1.38236 -0.824403 -0.18071 1.70944 -0.222593 -0.570214 -0.0954589 0.387126 0.0250279 -0.104013 -1.09656 -1.67112 -0.24057 -0.228769 -0.0272129 0.665093 0.689324 0.375758 0.934611 -0.0732609 0.1912 -0.280698 -0.0602458 -0.232194 0.459619 0.0247688 -0.510576 0.286661 0.198211 0.206279 -0.10938 0.563453 -0.12507 -0.265586 0.617367 0.205889 -0.0346666 -0.0519366 0.101226 -0.193258 -0.0181635 0.486528 -0.206764 -0.279062 0.156786 -0.0647159 -0.00897922 0.0366247 -0.0564094 -0.0529946 0.276326 -0.307682 0.687535 -0.578634 -0.0329719 0.72903 -0.663113 0.0741329 0.288559 0.185992
452 -0.578511 0.213799 -0.224205 -1.29684 -1.38573 -0.836894 -0.191298 1.71042 -0.196118 -0.542324 -0.0894569 0.379935 0.0458296 -0.113044 -1.10267 -1.67021 -0.238579 -0.234253 -0.0505851 0.67338 0.69023 0.391064 0.964307 -0.0895623 0.193968 -0.305273 -0.0712138 -0.236376 0.46527 0.00560763 -0.472408 0.270206 0.196559 0.194352 -0.101453 0.55916 -0.120238 -0.234964 0.600425 0.213353 -0.0393282 -0.0595404 0.0725044 -0.188722 0.00939647 0.475488 -0.215434 -0.271612 0.159534 -0.060745 -0.0173093 0.0205317 -0.0670897 -0.0632433 0.26153 -0.316601 0.685986 -0.573454 -0.0158145 0.723722 -0.646036 0.0727777 0.279473 0.162654
274 -0.337911 0.545746 -0.16732 -1.25493 -1.53644 -0.536471 -0.565078 1.9745 -0.406535 -0.661968 0.201603 0.323719 0.194698 -0.0452081 -1.35594 -1.58347 -0.232433 0.0672649 -0.253404 0.57542 0.806841 0.436226 0.485148 0.0215262 0.00838878 0.0710083 -0.120333 -0.321191 0.715806 0.20241 -0.0498301 0.275115 0.524746 -0.122041 -0.155188 0.488259 -0.467884 -0.111081 0.53319 0.338815 -0.356125 0.275721 -0.0192378 -0.0821277 0.144366 0.0495079 -0.16021 0.0830526 -0.0290871 -0.116766 0.0238448 -0.0371633 -0.132836 5.24008e-06 0.264407 -0.315009 0.551502 -0.27225 0.134952 0.732676 -0.327207 0.117777 0.0799334 0.403704
488 -0.322683 0.517973 -0.158368 -1.18566 -1.46706 -0.518313 -0.540925 1.87314 -0.362218 -0.622425 0.209947 0.314391 0.18523 -0.0534947 -1.28533 -1.50434 -0.220512 0.0587454 -0.258669 0.566673 0.77409 0.407244 0.509115 0.00473184 0.0121102 0.0418985 -0.113313 -0.329199 0.670471 0.187464 -0.0629942 0.242099 0.494943 -0.0873114 -0.157774 0.459277 -0.429495 -0.0937789 0.513439 0.312832 -0.342154 0.26015 -0.0181749 -0.0698408 0.158528 0.038984 -0.159225 0.0759998 -0.0185837 -0.111058 0.0239976 -0.0222119 -0.135269 -0.0211803 0.24849 -0.297386 0.578676 -0.263776 0.14245 0.739762 -0.329931 0.0986971 0.0975741 0.393613
319 -0.307041 0.491891 -0.148913 -1.19602 -1.44282 -0.522488 -0.53321 1.85828 -0.38533 -0.630901 0.17662 0.290632 0.170218 -0.0487662 -1.28773 -1.50038 -0.199705 0.0802887 -0.239779 0.532191 0.736941 0.368599 0.425678 0.0215616 -0.00659316 0.0740478 -0.10733 -0.288711 0.675403 0.196504 -0.0489072 0.259374 0.502983 -0.0967982 -0.157651 0.456974 -0.457412 -0.110832 0.510541 0.310474 -0.380813 0.281024 -0.00681132 -0.0400029 0.156395 0.00362542 -0.133528 0.0874208 -0.0238125 -0.100555 0.0545626 -0.0382844 -0.111169 0.000734 0.272451 -0.263258 0.535236 -0.258295 0.129724 0.693869 -0.284246 0.130151 0.0759429 0.422823
67 -0.334905 0.57235 -0.185263 -1.25701 -1.57861 -0.541214 -0.548217 2.01806 -0.385803 -0.629319 0.203666 0.315241 0.175992 -0.04424 -1.35591 -1.59438 -0.229824 0.0760533 -0.261503 0.565891 0.81381 0.403667 0.460051 0.0256256 0.0129579 0.0505448 -0.11319 -0.327299 0.676575 0.179118 -0.04943 0.244635 0.527092 -0.122671 -0.155154 0.474034 -0.45127 -0.12064 0.516125 0.318861 -0.351733 0.275733 -0.0211892 -0.0857939 0.134582 0.0210291 -0.155739 0.0592687 -0.0131473 -0.123775 0.0202957 -0.0276472 -0.159457 -0.0161398 0.275627 -0.364899 0.549914 -0.255493 0.116402 0.758006 -0.322891 0.127569 0.0938369 0.467631
164 -0.354272 0.53061 -0.150911 -1.22786 -1.52995 -0.548455 -0.540949 1.98479 -0.362069 -0.629156 0.176272 0.304919 0.20855 -0.0508827 -1.34303 -1.6053 -0.22252 0.0411698 -0.251477 0.569223 0.809327 0.411717 0.516561 0.00040524 -0.00239913 0.0193639 -0.119317 -0.355334 0.701907 0.153922 -0.0455771 0.275682 0.504101 -0.0940291 -0.167493 0.499737 -0.455057 -0.10237 0.505896 0.341294 -0.355117 0.257621 -0.0425993 -0.0903247 0.132963 0.0500286 -0.183212 0.0742614 0.00580375 -0.133689 -0.00290112 -0.0145536 -0.149412 -0.00991093 0.230836 -0.321632 0.548277 -0.261563 0.125449 0.709162 -0.298416 0.128259 0.0913106 0.400143
290 -0.335638 0.481644 -0.150685 -1.17064 -1.42194 -0.514283 -0.523965 1.82403 -0.325948 -0.587335 0.17919 0.300612 0.191716 -0.0423448 -1.25609 -1.48436 -0.221074 0.0252912 -0.240992 0.568356 0.799671 0.386055 0.503741 0.00905758 0.0205296 0.0333967 -0.110506 -0.334042 0.661166 0.168947 -0.0588961 0.250388 0.483022 -0.110778 -0.154386 0.467744 -0.434051 -0.113251 0.498558 0.3098 -0.356171 0.263593 -0.0175617 -0.0666151 0.139411 0.0307278 -0.161116 0.0805226 -0.0252892 -0.11404 0.0348795 -0.0439955 -0.147869 -0.00228765 0.28449 -0.309322 0.549056 -0.257205 0.12746 0.722874 -0.309299 0.110787 0.0823927 0.380614
424 -0.357587 0.52794 -0.14376 -1.19168 -1.50554 -0.541016 -0.534897 1.90858 -0.330634 -0.620201 0.196748 0.324029 0.200037 -0.0464815 -1.30189 -1.54839 -0.234161 0.0529529 -0.25854 0.560329 0.822431 0.419862 0.506597 0.00401711 0.00362309 0.0352109 -0.111855 -0.332994 0.687657 0.176845 -0.0602553 0.246281 0.504903 -0.0897715 -0.155845 0.471624 -0.442038 -0.127684 0.49705 0.343375 -0.3607 0.266445 -0.0442124 -0.0795915 0.138322 0.0480049 -0.171858 0.0560879 -0.0186485 -0.146057 0.0366491 -0.0415075 -0.139304 0.0119367 0.257352 -0.322035 0.563291 -0.27108 0.135991 0.758871 -0.326057 0.11962 0.0815701 0.413889
385 -0.342605 0.544268 -0.160965 -1.24004 -1.53815 -0.532096 -0.561595 1.95535 -0.385515 -0.632368 0.204024 0.307458 0.194203 -0.0470736 -1.3339 -1.57437 -0.246482 0.062992 -0.26355 0.589096 0.824977 0.415435 0.509112 0.0233074 0.0143198 0.060701 -0.120238 -0.329769 0.693075 0.17113 -0.0521128 0.248974 0.527369 -0.127625 -0.177254 0.494005 -0.457427 -0.115015 0.534875 0.336334 -0.372656 0.263674 -0.0165064 -0.0683021 0.156664 0.0399948 -0.160568 0.0784197 -0.0439221 -0.113721 0.0355244 -0.0323403 -0.12205 -0.0215352 0.285754 -0.327859 0.580538 -0.276751 0.124835 0.747455 -0.310088 0.119416 0.0977752 0.392133
450 -0.352906 0.516687 -0.13524 -1.23292 -1.51495 -0.530952 -0.55209 1.94511 -0.350504 -0.646461 0.17758 0.30962 0.210206 -0.046654 -1.31473 -1.57453 -0.233003 0.0599935 -0.253956 0.571945 0.80661 0.405271 0.505411 0.0163874 -0.00598051 0.0582386 -0.113892 -0.333501 0.686756 0.179874 -0.0322973 0.249575 0.512454 -0.10177 -0.163823 0.479605 -0.453786 -0.120048 0.505588 0.342871 -0.377697 0.28691 -0.0361397 -0.0729412 0.131279 0.0369234 -0.156604 0.0801864 -0.0250309 -0.12616 0.0268973 -0.0334444 -0.126287 0.0107582 0.260879 -0.321434 0.55644 -0.265772 0.114942 0.724251 -0.304986 0.122529 0.0803233 0.390736
32 -0.338898 0.544916 -0.171874 -1.23903 -1.57687 -0.532989 -0.551601 1.98761 -0.363596 -0.625254 0.209772 0.307487 0.171826 -0.0527305 -1.35663 -1.57522 -0.214195 0.0964895 -0.266675 0.561382 0.807628 0.417613 0.461265 0.0305014 -0.00943929 0.0570527 -0.0933516 -0.295416 0.676856 0.194633 -0.0270132 0.247955 0.553228 -0.123338 -0.17428 0.51143 -0.47677 -0.121343 0.554492 0.337512 -0.398235 0.284924 -0.0303377 -0.0735453 0.149889 0.0200029 -0.165372 0.0798653 -0.0342933 -0.149984 0.0277335 -0.0473742 -0.153234 -0.000760678 0.284918 -0.350126 0.572699 -0.255156 0.141482 0.758698 -0.313318 0.127707 0.0839204 0.456816
166 -0.307174 0.485373 -0.143341 -1.12857 -1.4009 -0.481718 -0.497073 1.79027 -0.326841 -0.574361 0.164364 0.268895 0.159154 -0.0382493 -1.2258 -1.4501 -0.18043 0.066447 -0.241249 0.490022 0.691543 0.365356 0.409125 0.0479591 -0.0233675 0.0649869 -0.1067 -0.274487 0.603841 0.179391 -0.0229968 0.223827 0.509592 -0.10914 -0.154054 0.443045 -0.448124 -0.106503 0.479829 0.311422 -0.356674 0.273357 -0.031522 -0.0539697 0.144132 0.0294982 -0.145257 0.0847865 -0.0202787 -0.112566 0.0247525 -0.0504492 -0.108651 0.00933994 0.251991 -0.278868 0.515077 -0.243225 0.128353 0.671107 -0.27006 0.122404 0.0660918 0.417
245 -0.351452 0.532086 -0.158516 -1.22538 -1.51788 -0.542462 -0.552303 1.93379 -0.345146 -0.624027 0.213571 0.327224 0.189923 -0.0385542 -1.28306 -1.52587 -0.225335 0.0642858 -0.23672 0.554871 0.815073 0.412236 0.483974 0.0317112 0.00926406 0.0444174 -0.106048 -0.314537 0.650356 0.183654 -0.0589115 0.218347 0.512069 -0.0808219 -0.150013 0.47158 -0.448623 -0.129839 0.493178 0.328738 -0.366567 0.258994 -0.0283191 -0.0556269 0.139348 0.0341784 -0.158687 0.0627016 -0.013408 -0.132312 0.021472 -0.0312453 -0.11999 -0.00720941 0.258101 -0.316083 0.573071 -0.258365 0.119763 0.735132 -0.313928 0.104623 0.0803419 0.418246
248 -0.338026 0.538014 -0.150492 -1.2083 -1.51391 -0.519753 -0.517816 1.90921 -0.334784 -0.630843 0.182443 0.310932 0.174503 -0.0393077 -1.30217 -1.54218 -0.211438 0.0709388 -0.252868 0.532028 0.78772 0.381771 0.445009 0.0412402 -0.0127327 0.0487268 -0.104363 -0.291906 0.643177 0.170944 -0.0244533 0.231576 0.495742 -0.0934348 -0.160382 0.445978 -0.43471 -0.130736 0.462675 0.30317 -0.364974 0.271878 -0.0345465 -0.0728196 0.123702 0.0358457 -0.155653 0.0618495 -0.0212601 -0.149014 0.0111909 -0.0435902 -0.143156 0.0120337 0.261128 -0.320812 0.516552 -0.239058 0.12094 0.713718 -0.291167 0.11799 0.0692577 0.447772
347 -0.337806 0.530912 -0.16833 -1.19328 -1.50216 -0.523433 -0.537139 1.92086 -0.371167 -0.618699 0.195171 0.300505 0.176646 -0.0446775 -1.33006 -1.54303 -0.224046 0.0940265 -0.2592 0.561584 0.802293 0.409723 0.450134 0.00730364 0.00356222 0.0775475 -0.0954807 -0.287234 0.705583 0.21578 -0.0285118 0.255466 0.535397 -0.128993 -0.149732 0.486357 -0.472746 -0.10764 0.532157 0.336334 -0.402306 0.309512 -0.0336456 -0.0584433 0.142884 0.00296993 -0.155497 0.0913809 -0.0283966 -0.124105 0.0485098 -0.0686744 -0.126929 0.0209397 0.274307 -0.307456 0.574992 -0.267681 0.139054 0.765504 -0.332513 0.118781 0.0810294 0.456445
333 -0.314888 0.513037 -0.165302 -1.19365 -1.48328 -0.516357 -0.530715 1.90047 -0.368374 -0.614168 0.187745 0.295184 0.175532 -0.0420068 -1.32412 -1.54658 -0.206451 0.101866 -0.236139 0.533448 0.761934 0.406969 0.41232 0.0324957 -0.00852289 0.0911921 -0.0992044 -0.279796 0.660292 0.213187 -0.0231812 0.252578 0.530959 -0.114759 -0.151368 0.466086 -0.450221 -0.0909775 0.524887 0.324793 -0.388291 0.281147 -0.0069022 -0.0333638 0.151196 0.0239772 -0.161354 0.0952818 -0.0350516 -0.134844 0.0484265 -0.0563418 -0.0922589 0.00231442 0.26443 -0.275056 0.556761 -0.24262 0.138824 0.706597 -0.286384 0.114473 0.0699823 0.443809
23 -0.342343 0.556739 -0.172113 -1.25028 -1.55237 -0.561886 -0.573387 1.98848 -0.395646 -0.657905 0.198993 0.31668 0.188979 -0.0454433 -1.36249 -1.61833 -0.240894 0.073039 -0.260683 0.584359 0.810142 0.412552 0.504666 -0.00191707 0.0248936 0.0422595 -0.129843 -0.326984 0.704083 0.175112 -0.0455729 0.242907 0.518527 -0.120857 -0.161103 0.495482 -0.455751 -0.120502 0.544448 0.353806 -0.372272 0.280403 -0.0219496 -0.0870898 0.157926 0.0473328 -0.156596 0.0905472 -0.0270256 -0.120479 0.0388651 -0.021237 -0.140438 -0.00781488 0.283601 -0.348928 0.59604 -0.28155 0.130777 0.783501 -0.337415 0.133948 0.111275 0.413721
