300 64
208 0.257475 -0.122786 0.543566 0.002605 -0.0706131 0.0743697 -0.0711996 -0.207248 0.28024 -0.498512 0.868474 0.294603 0.023025 -0.220397 0.0384196 -0.166794 -0.212807 0.00738546 -0.44856 0.14918 -0.166197 0.247365 -0.0491638 0.151902 0.240443 -0.117061 0.0469153 0.0817945 -0.186448 -0.0808232 0.363259 0.329023 -0.145098 -0.254427 0.305729 -0.315821 -0.0814304 -0.13083 0.288328 -0.312955 -0.22688 -0.337596 0.178336 0.638186 -0.190879 -0.0141484 0.106074 -0.156895 0.533613 0.492819 -0.146574 0.600314 1.96912 -0.1287 -0.321516 -0.209663 0.921473 -0.756621 0.444753 -1.32679 0.0451035 1.1611 0.0277469 0.216084
0 0.323312 -0.210474 0.598329 -0.0259645 -0.0655336 0.0604147 -0.0848378 -0.186459 0.195855 -0.438941 0.854444 0.286326 0.0172677 -0.199141 0.0669252 -0.123901 -0.247431 0.0147603 -0.461858 0.180236 -0.143866 0.289233 -0.0931483 0.175034 0.258765 -0.184572 0.0200412 0.0763663 -0.191267 -0.1519 0.405924 0.377984 -0.163505 -0.301427 0.333733 -0.385307 -0.061478 -0.109275 0.290084 -0.386503 -0.272106 -0.3627 0.241724 0.775644 -0.138232 0.0148908 0.0952077 -0.153323 0.620646 0.555609 -0.157415 0.67718 2.03921 -0.140048 -0.326065 -0.255893 0.973656 -0.825446 0.428405 -1.40651 0.0928492 1.2231 0.0280635 0.265734
122 0.26639 -0.0940272 0.594757 0.117057 -0.0522696 0.0981631 -0.0876386 -0.206622 0.285253 -0.515268 0.907022 0.318496 0.0201978 -0.318768 0.00793246 -0.206154 -0.320455 0.0771703 -0.538168 0.125357 -0.16738 0.275458 -0.0311037 0.0617857 0.222009 -0.11779 -0.0068827 0.113312 -0.107699 -0.0725953 0.382544 0.409095 -0.262655 -0.320695 0.385254 -0.401758 -0.112838 -0.173263 0.223259 -0.423569 -0.30687 -0.412921 0.199672 0.75925 -0.200119 -0.0798266 0.0891449 -0.20075 0.559771 0.469632 -0.130832 0.560396 1.88828 -0.162806 -0.439642 -0.23083 0.887649 -0.78236 0.457868 -1.37213 0.0476864 1.10707 0.087619 0.279975
230 0.19136 -0.0923091 0.628939 0.0890572 -0.0282151 0.0820536 -0.109159 -0.16371 0.208875 -0.502363 0.865249 0.312918 0.0126518 -0.290496 0.0135011 -0.244975 -0.309873 0.0693937 -0.536211 0.174385 -0.18225 0.312405 -0.0484552 0.116257 0.222348 -0.136462 -0.0304252 0.11239 -0.128777 -0.1121 0.336176 0.356419 -0.221266 -0.249382 0.334164 -0.346383 -0.0399803 -0.195629 0.247188 -0.395606 -0.279409 -0.360431 0.19844 0.659072 -0.142344 -0.0594613 0.118285 -0.185515 0.522605 0.504397 -0.139638 0.568983 1.92993 -0.128897 -0.420689 -0.284716 0.946511 -0.79817 0.48879 -1.39813 0.0750348 1.16059 0.0329934 0.256259
3 0.272742 -0.188568 0.566562 0.0776112 -0.069942 0.094494 -0.0465121 -0.239023 0.345835 -0.515499 1.00475 0.393221 0.0507448 -0.285364 -0.00247131 -0.140877 -0.351029 0.0735573 -0.444765 0.0597546 -0.0735208 0.169948 -0.0103214 -0.0269563 0.175047 -0.0881472 -0.0116235 0.163599 -0.00163814 -0.0497778 0.233641 0.273191 -0.27709 -0.266627 0.267975 -0.33349 -0.128408 -0.0877011 0.223322 -0.390727 -0.320066 -0.35656 0.138107 0.627567 -0.204337 -0.11007 0.0593451 -0.176512 0.671442 0.466167 -0.245785 0.572357 1.99182 -0.258223 -0.520757 -0.216438 0.915602 -0.777159 0.288398 -1.40021 0.0746444 1.10687 0.134127 0.425702
93 0.0771955 0.0366401 0.692535 0.182289 -0.126313 0.213032 -0.00154817 -0.0933137 0.288371 -0.505189 0.963253 0.33222 -0.0354809 -0.329668 -0.0609287 -0.239017 -0.313425 0.151287 -0.674477 0.12697 -0.236042 0.231545 -0.0413881 0.145909 0.124973 -0.0506095 -0.00885771 0.0625146 -0.13363 -0.0399708 0.334738 0.319155 -0.184648 -0.25511 0.280576 -0.367234 -0.108634 -0.20603 0.0992017 -0.332014 -0.293419 -0.442377 0.0737316 0.570549 -0.244692 -0.25571 0.117355 -0.332044 0.55929 0.450114 -0.15002 0.612019 2.01991 -0.226555 -0.477163 -0.180302 0.826003 -0.754414 0.501444 -1.33689 0.025015 0.97561 0.0788757 0.154722
160 -0.156107 0.122754 0.487246 0.201004 -0.0984297 0.220913 -0.0203415 -0.0420849 0.198204 -0.444132 0.850053 0.283507 -0.0110487 -0.30615 -0.0911241 -0.221548 -0.227362 0.167316 -0.490433 0.117026 -0.239203 0.165844 -0.0517061 0.124497 0.150024 -0.0435257 -0.0275904 -0.0128121 -0.139682 -0.106147 0.359618 0.348346 -0.0698195 -0.237157 0.292191 -0.337346 -0.0729628 -0.221304 -0.00805405 -0.263141 -0.254538 -0.411912 0.0718858 0.447088 -0.306551 -0.303002 0.122186 -0.382966 0.52682 0.406847 -0.132604 0.558834 1.88532 -0.249856 -0.512382 -0.267468 0.835259 -0.760855 0.534235 -1.34999 0.0121693 0.93665 0.047568 0.195743
10 0.00891478 0.0726927 0.694939 0.189632 -0.196893 0.289335 -0.052625 -0.106239 0.233789 -0.404797 1.12196 0.377367 -0.00352631 -0.273664 -0.077803 -0.164123 -0.275244 0.128633 -0.581004 0.0619057 -0.171272 0.0677817 -0.0705798 0.128508 0.134818 -0.0766788 0.010119 -0.00829293 -0.0128266 -0.240035 0.383276 0.252604 -0.106746 -0.244836 0.321754 -0.421031 -0.152654 -0.0547499 -0.0362936 -0.322194 -0.312889 -0.465192 0.00816021 0.610363 -0.291264 -0.219473 0.0562074 -0.31102 0.647519 0.464556 -0.251748 0.648251 1.97545 -0.286101 -0.603717 -0.125016 0.895385 -0.743882 0.495704 -1.39906 0.0445393 0.946817 0.0813719 0.325678
184 0.0172976 0.207898 0.522903 0.165915 -0.217664 0.284755 -0.0414658 -0.0900131 0.308519 -0.428039 1.12275 0.380271 -0.0105336 -0.271248 -0.111109 -0.239382 -0.244988 0.138706 -0.59678 0.0876192 -0.215094 0.0716824 -0.116448 0.200353 0.172294 -0.0565779 0.0468804 0.018858 -0.0514797 -0.2299 0.528829 0.360117 -0.0541578 -0.285946 0.307838 -0.387155 -0.20086 -0.0434512 -0.049807 -0.224208 -0.308846 -0.538037 -0.00526935 0.527294 -0.444828 -0.229663 0.0426188 -0.373894 0.55786 0.401653 -0.254641 0.646821 2.03706 -0.315545 -0.62482 -0.112218 0.925316 -0.770927 0.528984 -1.45739 -0.0769824 0.946626 0.0702995 0.271379
24 0.0925573 0.235763 0.58834 0.220439 -0.201863 0.345785 0.028958 -0.0198979 0.287706 -0.38955 1.05077 0.347907 -0.020324 -0.228639 -0.127124 -0.138472 -0.218414 0.153037 -0.576388 0.0815444 -0.164375 0.00221792 -0.102809 0.182517 0.237433 -0.0576058 -0.00337886 -0.0210937 -0.0181965 -0.266294 0.525609 0.386599 -0.0518079 -0.300926 0.272414 -0.400556 -0.193951 -0.0211404 -0.157849 -0.203816 -0.286933 -0.529218 -0.029204 0.526025 -0.439773 -0.281291 0.001682 -0.387089 0.608294 0.370477 -0.303856 0.639137 2.08596 -0.382306 -0.688655 -0.104952 0.855753 -0.77432 0.467291 -1.41233 -0.0963512 0.77432 0.0680773 0.295893
16 0.303035 0.00330387 0.65025 0.167836 -0.0305797 0.191426 0.0358948 -0.119588 0.146892 -0.380096 0.746232 0.242667 0.0511947 -0.1018 0.00320284 -0.00618875 -0.180144 0.115282 -0.361274 0.150645 -0.176007 0.126079 -0.124119 0.165009 0.408817 -0.162526 -0.043452 -0.00558697 -0.104679 -0.239002 0.513603 0.470949 -0.0687817 -0.347468 0.298556 -0.307256 -0.130368 -0.117718 0.00821413 -0.289869 -0.296609 -0.456525 0.15515 0.642357 -0.284292 -0.126718 0.0343998 -0.336942 0.629466 0.437013 -0.300639 0.635038 2.2777 -0.26106 -0.570393 -0.34201 0.957724 -0.806097 0.42701 -1.41495 -0.0565003 1.06983 -0.0123591 0.403934
70 0.0580592 0.102898 0.744246 0.28385 -0.0748979 0.20628 -0.0361816 -0.0376047 0.213499 -0.494028 0.844362 0.29612 -0.0358945 -0.348953 -0.0638901 -0.221541 -0.234353 0.165107 -0.488408 0.152687 -0.252092 0.260339 -0.0731221 0.114959 0.234621 -0.104253 -0.0712089 -0.00193099 -0.212458 -0.135096 0.336452 0.381807 -0.102956 -0.263524 0.278521 -0.318928 -0.0165363 -0.227137 -0.0108524 -0.295083 -0.222336 -0.37141 0.104978 0.517576 -0.196204 -0.248444 0.0849966 -0.330387 0.502106 0.435378 -0.130462 0.52559 1.94629 -0.202218 -0.460554 -0.291384 0.806103 -0.773673 0.527068 -1.29192 0.0403741 0.902974 0.0747011 0.174183
223 -0.0129507 0.0482544 0.795104 0.240242 -0.0583923 0.187258 -0.0673335 -0.0564695 0.145689 -0.439301 0.841791 0.313806 -0.00372837 -0.302266 -0.0437717 -0.192471 -0.206241 0.117758 -0.461858 0.132736 -0.229045 0.231403 -0.0652322 0.113985 0.219593 -0.0951443 -0.0755033 -0.0319042 -0.158179 -0.173549 0.259937 0.29845 -0.0511468 -0.23056 0.27444 -0.315453 0.0110765 -0.197503 0.0352642 -0.222496 -0.221338 -0.320241 0.152911 0.57683 -0.177269 -0.175446 0.0863373 -0.311344 0.509851 0.437013 -0.140384 0.553764 1.98083 -0.167445 -0.465639 -0.33226 0.891423 -0.791884 0.549101 -1.37148 0.0570618 0.987735 0.0352436 0.211894
78 0.00537494 0.0674778 0.743963 0.266602 -0.0551072 0.199611 -0.0525116 -0.051984 0.162064 -0.49511 0.851592 0.332282 -0.000233041 -0.313479 -0.0449856 -0.1698 -0.210402 0.108174 -0.408633 0.127828 -0.168903 0.204071 -0.0583928 0.0849746 0.236958 -0.0969754 -0.0754485 -0.00845001 -0.148518 -0.164322 0.294415 0.341539 -0.0882745 -0.252152 0.265843 -0.305268 -0.020363 -0.218588 0.0237673 -0.292525 -0.248754 -0.383222 0.13883 0.596843 -0.20361 -0.242596 0.0919409 -0.350441 0.523389 0.413347 -0.149818 0.538099 2.09071 -0.192838 -0.539489 -0.357655 0.936162 -0.849977 0.546197 -1.4415 0.0499348 1.01586 0.0632035 0.262355
181 0.0399679 0.059648 0.707868 0.30509 -0.00735994 0.145791 -0.0546211 -0.0922201 0.189611 -0.49445 0.76781 0.266681 0.00071573 -0.318732 -0.0394637 -0.239422 -0.181021 0.146813 -0.374555 0.162816 -0.259279 0.270034 -0.0300752 0.0424759 0.223232 -0.0805521 -0.066355 0.0104646 -0.188541 -0.0375481 0.20769 0.276774 -0.121271 -0.17814 0.229602 -0.211706 0.0121189 -0.30466 0.0678389 -0.232503 -0.193379 -0.266692 0.116341 0.430288 -0.193626 -0.247506 0.124945 -0.303572 0.439688 0.420402 -0.101738 0.532024 2.00743 -0.172122 -0.492405 -0.351808 0.861642 -0.803519 0.544977 -1.33256 0.016068 0.958512 0.0600064 0.152281
77 0.0513635 0.0639019 0.763186 0.302196 -0.0469955 0.196499 -0.00265181 -0.0574602 0.203872 -0.452341 0.841784 0.317104 -0.000321223 -0.25877 -0.0521135 -0.179441 -0.254587 0.178987 -0.440973 0.0968039 -0.216464 0.219065 -0.0461103 0.0873832 0.242733 -0.119185 -0.102161 -0.0241312 -0.1402 -0.118921 0.300322 0.347742 -0.150124 -0.266924 0.273077 -0.308405 -0.0402903 -0.250568 0.0202923 -0.292 -0.263729 -0.312972 0.113852 0.504267 -0.197173 -0.276088 0.0976042 -0.372354 0.577464 0.433036 -0.199616 0.595851 2.0438 -0.214552 -0.507574 -0.303258 0.824633 -0.74597 0.461823 -1.24094 0.0362093 0.936807 0.0783678 0.235334
111 0.184413 0.0193858 0.686077 0.1406 -0.0327334 0.194813 -0.0143041 -0.123824 0.219676 -0.459123 0.816467 0.252886 0.0119425 -0.280329 -0.0230716 -0.184169 -0.190748 0.146515 -0.479185 0.195311 -0.282956 0.309671 -0.104469 0.242729 0.39707 -0.178787 -0.076835 -0.0411879 -0.280499 -0.134539 0.507981 0.488797 -0.119013 -0.379394 0.360101 -0.356516 -0.0573533 -0.23191 0.106933 -0.360189 -0.320032 -0.471884 0.211817 0.719008 -0.238411 -0.140702 0.126119 -0.364165 0.64371 0.541504 -0.187801 0.624589 2.17234 -0.147612 -0.390358 -0.355691 0.956372 -0.834708 0.537689 -1.37168 0.0363326 1.11081 -0.0121478 0.179589
166 0.07942 0.0193519 0.674916 0.141255 -0.0643125 0.185122 -0.056156 -0.094497 0.173984 -0.453247 0.843122 0.300041 0.00410459 -0.286428 -0.0493566 -0.194362 -0.227197 0.0860591 -0.536612 0.147885 -0.232965 0.261315 -0.085725 0.199027 0.265914 -0.139226 -0.0495685 0.0131678 -0.219987 -0.169865 0.423559 0.42526 -0.0922525 -0.317742 0.34656 -0.406008 -0.0388847 -0.186078 0.0973912 -0.346182 -0.288398 -0.458067 0.172092 0.661199 -0.20246 -0.165209 0.115285 -0.319693 0.591102 0.487041 -0.139098 0.615823 2.01112 -0.160493 -0.401644 -0.326906 0.927564 -0.812978 0.548138 -1.42435 0.0842372 1.11773 0.0387128 0.210646
98 0.143952 0.00842239 0.640037 0.131627 -0.0862225 0.162216 -0.0687807 -0.102209 0.202994 -0.447575 0.799218 0.271801 -0.0256848 -0.283836 -0.0450165 -0.229516 -0.222856 0.0894583 -0.502782 0.15909 -0.230469 0.282503 -0.0763927 0.175352 0.212142 -0.134263 -0.0235423 0.0155287 -0.219611 -0.150317 0.399964 0.374128 -0.122328 -0.288836 0.324784 -0.378396 -0.0418676 -0.183337 0.128071 -0.358102 -0.258584 -0.424414 0.15637 0.637575 -0.189796 -0.136593 0.115533 -0.28977 0.528898 0.490642 -0.125517 0.60498 1.96736 -0.13702 -0.382742 -0.285553 0.913775 -0.791831 0.52495 -1.3458 0.0805392 1.0722 0.0560963 0.192956
20 0.0249432 -0.0892679 0.59546 0.0810946 0.00607643 0.115743 -0.096302 -0.133048 0.147251 -0.462364 0.726954 0.282877 0.00310018 -0.273893 0.00853367 -0.200745 -0.276524 0.0662656 -0.465233 0.144273 -0.194238 0.309663 -0.0824487 0.163635 0.26713 -0.18003 -0.0660401 0.044395 -0.191858 -0.175288 0.379353 0.445803 -0.19547 -0.318561 0.425409 -0.415704 -0.0455281 -0.223 0.190276 -0.393404 -0.296576 -0.403789 0.257656 0.741033 -0.134071 -0.0930346 0.138319 -0.289263 0.614682 0.556078 -0.158458 0.636096 2.16514 -0.124957 -0.381225 -0.413401 1.02044 -0.892242 0.544035 -1.49597 0.0834738 1.24293 -0.00417571 0.261777
288 0.0909942 0.0536683 0.805932 0.247949 -0.102822 0.205641 -0.068894 -0.0650229 0.229688 -0.470135 0.909606 0.33199 -0.0315059 -0.299441 -0.0427858 -0.175363 -0.212033 0.135317 -0.507112 0.138203 -0.220786 0.223885 -0.0522867 0.100038 0.183856 -0.0911325 -0.0586983 -0.00595433 -0.155221 -0.169127 0.302039 0.302193 -0.0837543 -0.257015 0.27418 -0.323038 -0.0414679 -0.156774 0.0108774 -0.26677 -0.244227 -0.377821 0.109549 0.592242 -0.205859 -0.197472 0.0820876 -0.320578 0.544132 0.429269 -0.154029 0.539602 2.03614 -0.207535 -0.509134 -0.26508 0.883819 -0.796047 0.517066 -1.36887 0.0399982 0.956715 0.0646318 0.224117
28 0.197673 0.0178777 0.810003 0.332131 -0.0745078 0.193574 -0.0550967 -0.103849 0.235205 -0.461975 0.906348 0.342696 0.00574061 -0.320577 -0.0780204 -0.166064 -0.316198 0.13915 -0.499665 0.0891819 -0.204974 0.20619 -0.0317908 -0.00171279 0.102551 -0.0805253 -0.0713916 0.0912643 -0.061032 -0.0826068 0.272849 0.366641 -0.230311 -0.301509 0.33086 -0.399744 -0.0842045 -0.195396 -0.00721304 -0.383328 -0.300371 -0.41581 0.108283 0.5766 -0.224656 -0.312306 0.0425068 -0.37464 0.676145 0.44046 -0.189939 0.625359 2.00728 -0.233347 -0.603953 -0.299987 0.8314 -0.771616 0.439271 -1.37889 0.0526157 0.937897 0.141138 0.349197
57 0.212762 0.11752 0.728427 0.226695 -0.133399 0.251493 -0.0315734 -0.108567 0.293354 -0.497904 0.962702 0.322946 0.00569854 -0.320265 -0.0968386 -0.207743 -0.219705 0.113985 -0.549726 0.139642 -0.238498 0.210548 -0.0485465 0.116071 0.168494 -0.087584 0.00696427 0.0286209 -0.186914 -0.0777423 0.343383 0.311136 -0.0711919 -0.302874 0.266165 -0.297631 -0.0830006 -0.154006 0.0406003 -0.225863 -0.230536 -0.402156 0.084155 0.47433 -0.284935 -0.194241 0.0967656 -0.318998 0.508629 0.398179 -0.100924 0.555535 1.99344 -0.181901 -0.497729 -0.243525 0.916552 -0.777969 0.523902 -1.37246 0.0282984 1.02923 0.113861 0.203332
256 0.00806557 0.100648 0.700816 0.225574 -0.148146 0.248836 -0.0607357 -0.0358039 0.229613 -0.506534 0.974188 0.34416 -0.038925 -0.348453 -0.0789992 -0.236065 -0.300699 0.149522 -0.627225 0.133039 -0.232135 0.204731 -0.0782169 0.164966 0.159221 -0.0891611 -0.0060874 0.031344 -0.149853 -0.183058 0.407049 0.384445 -0.104719 -0.286889 0.323612 -0.423534 -0.0635654 -0.177737 0.00209876 -0.350628 -0.272948 -0.476997 0.0855341 0.58796 -0.275106 -0.243052 0.0934063 -0.341252 0.573233 0.446192 -0.147833 0.594179 1.92567 -0.240915 -0.490934 -0.190314 0.845551 -0.766267 0.553502 -1.37264 0.0434595 0.954994 0.0945629 0.209451
9 0.112799 -0.0850494 0.728766 0.0817337 -0.0975053 0.177274 -0.0792037 -0.16334 0.230306 -0.421985 0.847094 0.291871 -0.00196894 -0.247334 -0.0644477 -0.139691 -0.245413 0.101661 -0.471651 0.114021 -0.263785 0.21456 -0.0796936 0.130294 0.150551 -0.0745467 0.0365095 -0.00614123 -0.189622 -0.174167 0.321038 0.261246 -0.0610922 -0.3251 0.355336 -0.401745 -0.0877455 -0.109742 0.0908608 -0.293729 -0.269479 -0.475433 0.141717 0.8 -0.212517 -0.0894091 0.107609 -0.276574 0.636571 0.50418 -0.153851 0.65201 2.00767 -0.145663 -0.40742 -0.223156 0.996225 -0.837297 0.564833 -1.53591 0.0927773 1.08156 0.0530743 0.274766
60 0.229323 0.144351 0.670952 0.197413 -0.0846158 0.216666 -0.00341825 -0.153199 0.265978 -0.47972 1.00023 0.311774 0.029974 -0.255338 -0.0883054 -0.210645 -0.159217 0.160963 -0.415629 0.184326 -0.298468 0.221315 -0.118165 0.151597 0.346533 -0.139674 -0.0403204 -0.0658749 -0.186475 -0.14069 0.471053 0.405076 -0.0426878 -0.293081 0.29502 -0.254092 -0.112063 -0.200398 0.0332982 -0.21676 -0.282597 -0.449224 0.121295 0.534266 -0.339242 -0.174788 0.105346 -0.352626 0.567937 0.490793 -0.190216 0.634645 2.10076 -0.206492 -0.518288 -0.294647 0.973745 -0.790221 0.527346 -1.35928 -0.0229474 1.059 0.050832 0.245469
228 -0.125602 0.215749 0.65126 0.278694 -0.211045 0.326566 -0.0300581 0.00558093 0.278796 -0.430671 1.12625 0.385243 -0.0318876 -0.305503 -0.097923 -0.197148 -0.221729 0.170463 -0.592102 0.069525 -0.225376 0.061228 -0.0541819 0.158703 0.120768 -0.0253012 0.0195792 -0.0336914 -0.038004 -0.203438 0.418476 0.294251 -0.0394438 -0.251609 0.261386 -0.366534 -0.138583 -0.0965047 -0.105431 -0.22924 -0.270791 -0.462728 -0.0221794 0.506212 -0.380458 -0.281747 0.0662922 -0.379489 0.534149 0.378234 -0.218077 0.580536 1.91703 -0.321331 -0.615767 -0.105514 0.807096 -0.692424 0.544795 -1.297 -0.0342113 0.834429 0.0956423 0.226617
36 -0.0855274 0.218704 0.641355 0.246744 -0.185397 0.362549 -0.0230387 -0.00499495 0.245844 -0.402433 1.03343 0.371365 0.000111902 -0.315512 -0.127166 -0.186001 -0.268187 0.154231 -0.615905 0.0821196 -0.226701 0.0800577 -0.0778784 0.213628 0.193072 -0.0499063 -0.0209964 0.00836061 -0.0721983 -0.208619 0.540621 0.406356 -0.0713879 -0.346807 0.318042 -0.425586 -0.160653 -0.0867776 -0.104155 -0.263367 -0.328438 -0.572641 0.0127397 0.589943 -0.422465 -0.291243 0.0596042 -0.453845 0.6087 0.38674 -0.235678 0.608469 2.09781 -0.311226 -0.655529 -0.20159 0.921279 -0.820994 0.579788 -1.47823 -0.0167864 0.979931 0.0867456 0.297768
130 0.208347 0.0509595 0.664976 0.19311 -0.0290736 0.182886 0.00936786 -0.113413 0.185692 -0.455067 0.797905 0.292781 0.0536174 -0.223961 -0.0299589 -0.103783 -0.215498 0.106657 -0.436805 0.153476 -0.169857 0.191856 -0.0705112 0.12442 0.408945 -0.129655 -0.0884977 0.0132532 -0.128526 -0.173508 0.431821 0.44231 -0.112394 -0.320826 0.290602 -0.315874 -0.0989156 -0.147576 0.0280177 -0.291865 -0.289459 -0.437805 0.13482 0.624083 -0.24786 -0.1636 0.0482975 -0.322472 0.57007 0.435635 -0.249043 0.551243 2.10024 -0.235576 -0.546912 -0.316663 0.905359 -0.797984 0.442092 -1.37673 -0.0272908 0.953135 0.0397994 0.332596
200 0.16153 0.13229 0.632471 0.197663 -0.10696 0.232753 0.0113788 -0.0805876 0.209936 -0.384164 0.871302 0.317097 0.019837 -0.237299 -0.0925707 -0.126856 -0.207851 0.131696 -0.462769 0.128337 -0.169057 0.120397 -0.0861224 0.161275 0.321931 -0.11741 -0.07451 0.0023326 -0.102703 -0.212927 0.481413 0.426977 -0.088116 -0.327693 0.279386 -0.362695 -0.126863 -0.102142 -0.0525156 -0.271306 -0.292768 -0.484524 0.0799544 0.561225 -0.320513 -0.222212 0.0331265 -0.370972 0.605029 0.407558 -0.25266 0.592216 2.0419 -0.25978 -0.587353 -0.243418 0.862724 -0.763491 0.44581 -1.34867 -0.0256724 0.882914 0.0491392 0.305605
25 0.35096 -0.0373754 0.969543 0.230631 -0.141673 0.269689 0.00437031 -0.171924 0.274542 -0.499329 1.05748 0.465856 0.0326135 -0.207074 0.00906844 0.0109338 -0.256058 0.113521 -0.402309 0.0829189 -0.0593462 0.130247 -0.0269752 0.0611317 0.334651 -0.124619 -0.0217228 -0.0568287 -0.083979 -0.220598 0.354388 0.323984 -0.100225 -0.389259 0.254443 -0.309959 -0.141878 -0.0285679 -0.00234099 -0.282862 -0.255103 -0.355028 0.0925556 0.684144 -0.223901 -0.129714 -0.0172165 -0.303583 0.666603 0.411941 -0.256389 0.552037 2.11051 -0.286123 -0.58539 -0.188635 0.904509 -0.77156 0.342414 -1.37603 0.00858166 0.977186 0.124605 0.399703
140 -0.0167513 0.0549303 0.672989 0.217288 -0.0699257 0.200028 -0.0433863 -0.0554594 0.196172 -0.439795 0.846937 0.302355 -0.00275298 -0.300799 -0.0522793 -0.183223 -0.221356 0.104605 -0.476441 0.0810335 -0.179011 0.210373 -0.0430073 0.0835307 0.148678 -0.0794884 -0.0382724 -0.0109736 -0.127477 -0.147923 0.248438 0.26161 -0.0907042 -0.222437 0.254783 -0.320615 -0.0384924 -0.145485 0.0234554 -0.226829 -0.204553 -0.323072 0.0984615 0.526785 -0.203764 -0.172537 0.0710903 -0.292915 0.501897 0.392058 -0.124933 0.531706 1.84279 -0.190487 -0.453814 -0.23784 0.823198 -0.756092 0.509669 -1.32142 0.0437017 0.961951 0.0793658 0.231681
7 -0.208508 0.0860976 0.759671 0.274144 -0.147312 0.308289 -0.0412588 0.0255653 0.181828 -0.460013 0.954861 0.335151 -0.0300993 -0.318165 -0.0811336 -0.147002 -0.218684 0.135949 -0.525508 0.100809 -0.204678 0.123356 -0.0554229 0.206029 0.0650128 -0.0635611 -0.0345076 -0.000972688 -0.118894 -0.155344 0.33527 0.28514 -0.05502 -0.225409 0.305347 -0.408424 -0.0290115 -0.149253 -0.0394942 -0.285092 -0.253576 -0.399772 0.0858612 0.490108 -0.257826 -0.339563 0.106344 -0.4197 0.652086 0.452729 -0.139233 0.600128 2.02211 -0.27336 -0.51921 -0.283673 0.850941 -0.821556 0.582479 -1.43573 0.0716151 1.1484 0.0511251 0.255852
124 -0.129302 0.181945 0.735651 0.433587 -0.106043 0.245685 -0.0239428 0.0534669 0.232015 -0.470486 0.896974 0.330428 -0.0597605 -0.398809 -0.117068 -0.265291 -0.238257 0.219847 -0.509357 0.0988165 -0.247939 0.196943 -0.0183266 0.0458466 0.0975975 -0.0622609 -0.101784 -0.0124395 -0.147658 -0.0714633 0.229274 0.261602 -0.134266 -0.192442 0.206572 -0.271743 -0.0158573 -0.282313 -0.126041 -0.235043 -0.199348 -0.320346 0.00613114 0.344502 -0.2591 -0.425179 0.0781896 -0.433535 0.484325 0.361246 -0.105391 0.542051 1.99221 -0.271426 -0.557421 -0.238785 0.706364 -0.725414 0.52515 -1.22905 0.0145087 0.73834 0.113979 0.149227
65 -0.0774792 0.107989 0.762628 0.379707 -0.0555952 0.248659 -0.0186549 -0.00316206 0.191352 -0.520589 0.843905 0.342242 -0.0230777 -0.359857 -0.0769719 -0.170612 -0.244145 0.178656 -0.460674 0.12978 -0.177548 0.186883 -0.0158956 0.0200793 0.160201 -0.0656375 -0.135671 0.0219602 -0.116064 -0.092268 0.212794 0.312039 -0.144905 -0.220812 0.233845 -0.30509 -0.0159831 -0.257087 -0.082704 -0.276797 -0.203095 -0.342055 0.0610722 0.432327 -0.204882 -0.37862 0.0610203 -0.422216 0.552522 0.394096 -0.177681 0.555167 2.18884 -0.285642 -0.614532 -0.339276 0.798507 -0.841132 0.525764 -1.43234 0.0270395 0.872888 0.0897525 0.230118
14 0.198292 0.00551976 0.498141 0.121217 -0.096122 0.154677 -0.0289939 -0.173173 0.271099 -0.359089 0.870165 0.296479 0.0480685 -0.248005 -0.0852629 -0.13899 -0.211936 0.0648885 -0.395107 0.0804459 -0.180428 0.162262 -0.0451102 0.0482147 0.237171 -0.142255 -0.0592483 0.0478966 -0.091785 -0.117465 0.433341 0.403011 -0.142391 -0.346715 0.350322 -0.426011 -0.0852471 -0.0771648 0.0668916 -0.338162 -0.263703 -0.421614 0.111633 0.548964 -0.280201 -0.189817 0.00015097 -0.316297 0.722888 0.489682 -0.192496 0.65244 2.01943 -0.238693 -0.548683 -0.279862 0.946819 -0.823744 0.421142 -1.44471 0.0761575 1.12529 0.16429 0.380019
29 0.0725884 -0.0508382 0.843151 0.38049 -0.0900188 0.243901 -0.078721 -0.107398 0.330182 -0.54879 1.17955 0.52406 0.0348598 -0.37226 -0.00659653 -0.0742834 -0.407553 0.149671 -0.489118 -0.00205093 -0.0417925 0.109724 0.0580516 -0.0992927 0.166064 -0.0472622 -0.0505862 0.0910226 0.0578361 -0.136442 0.256937 0.332746 -0.255103 -0.35135 0.337539 -0.409839 -0.152068 -0.0707749 -0.0200037 -0.365319 -0.312322 -0.374547 0.078253 0.690537 -0.277097 -0.276033 -0.0166298 -0.322455 0.704313 0.369823 -0.238811 0.49299 1.98707 -0.36449 -0.729294 -0.201028 0.858335 -0.800628 0.416572 -1.48509 0.0462212 1.05915 0.254637 0.511652
144 -0.0265405 -0.00513184 0.778268 0.282556 -0.110933 0.242102 -0.0367426 -0.041346 0.225466 -0.464756 0.996578 0.424401 -0.0170672 -0.296305 -0.0549902 -0.102127 -0.282895 0.146171 -0.459616 0.0314645 -0.0983812 0.0840521 -0.012354 0.0208993 0.145328 -0.0740169 -0.0821204 0.00168947 -0.0196528 -0.218389 0.238286 0.251822 -0.13225 -0.233783 0.236778 -0.348331 -0.0648187 -0.07945 -0.063718 -0.276007 -0.221981 -0.29785 0.038607 0.530468 -0.197235 -0.263932 0.0116896 -0.311186 0.589588 0.354477 -0.224761 0.509921 1.88165 -0.295428 -0.57938 -0.191669 0.763248 -0.745379 0.393864 -1.34549 0.0508003 0.838477 0.109738 0.362914
30 0.188591 0.00506407 0.837854 0.243564 -0.113651 0.215932 -0.0459105 -0.0750913 0.212033 -0.488737 0.962847 0.369988 -0.00783832 -0.271067 -0.0546769 -0.150764 -0.285871 0.117907 -0.511494 0.102219 -0.1757 0.177663 -0.0769857 0.128658 0.210773 -0.145782 -0.048901 0.0220757 -0.118773 -0.228897 0.372459 0.354911 -0.133621 -0.282422 0.297578 -0.41067 -0.0792591 -0.125116 0.018763 -0.372963 -0.292693 -0.434244 0.109089 0.657336 -0.189982 -0.206812 0.0413099 -0.302698 0.61971 0.448346 -0.202491 0.619279 2.00759 -0.23282 -0.509269 -0.228707 0.855101 -0.786861 0.437422 -1.38686 0.0638511 0.972379 0.0678258 0.314016
8 0.291179 0.0774402 0.533748 0.172873 -0.100828 0.184655 -0.00665889 -0.251092 0.28547 -0.521366 0.960771 0.324122 0.0717908 -0.215541 -0.0984709 -0.168403 -0.2785 0.0675281 -0.459173 0.101703 -0.219903 0.144764 -0.072865 0.06681 0.235776 -0.103163 0.041783 0.0965302 -0.0998353 -0.0723848 0.472687 0.446449 -0.146054 -0.369007 0.362675 -0.341883 -0.186313 -0.119105 0.0746396 -0.209351 -0.218606 -0.404193 0.0834157 0.492569 -0.396223 -0.205713 0.0387477 -0.310105 0.52039 0.348492 -0.176866 0.679595 2.1342 -0.247628 -0.559079 -0.242994 0.965341 -0.769473 0.510885 -1.491 -0.0532126 1.07096 0.11891 0.310643
40 0.279623 0.0258803 0.674109 0.156692 -0.145356 0.220198 -0.0347644 -0.16227 0.282926 -0.443535 0.960263 0.442554 0.0301602 -0.235598 -0.07117 -0.103361 -0.345243 0.0820896 -0.461137 0.0421261 -0.0629174 0.128719 -0.0319665 0.0323716 0.172139 -0.100619 -0.0175078 0.0865756 -0.00054649 -0.182508 0.366953 0.376715 -0.20125 -0.330041 0.27558 -0.359298 -0.173026 -0.0306945 0.0199825 -0.333473 -0.300516 -0.417205 0.0747456 0.610352 -0.277049 -0.210797 -0.0222342 -0.290044 0.612585 0.33441 -0.210414 0.559736 2.02007 -0.26455 -0.610351 -0.182585 0.896669 -0.771043 0.356959 -1.46358 0.0100158 0.985447 0.168035 0.459012
92 0.129857 -0.047347 0.836497 0.225407 -0.118424 0.247692 -0.0285005 -0.125018 0.233233 -0.486416 0.998823 0.474176 0.034959 -0.230876 -0.0254693 -0.0360556 -0.329159 0.0846055 -0.445835 0.034419 -0.0304934 0.082736 -0.013036 0.0472898 0.19558 -0.099819 -0.0388181 0.0269836 0.00364162 -0.227139 0.311684 0.308191 -0.156694 -0.306654 0.284429 -0.402186 -0.136448 -0.0374637 -0.00165834 -0.356111 -0.305136 -0.383233 0.0883273 0.688026 -0.194225 -0.216422 -0.0172979 -0.309183 0.664861 0.365632 -0.255097 0.525868 1.91306 -0.287042 -0.586964 -0.199194 0.821845 -0.753804 0.314829 -1.38219 0.0279238 0.951173 0.122552 0.463362
55 0.201864 -0.064958 0.736655 0.128331 -0.05415 0.130214 -0.111787 -0.196176 0.233914 -0.504806 0.868916 0.312782 0.00903888 -0.290784 -0.0107023 -0.197709 -0.224816 0.0301703 -0.487631 0.156694 -0.220745 0.278702 -0.0526571 0.134737 0.240552 -0.113599 -0.0166884 0.0842526 -0.163608 -0.0910771 0.334921 0.348856 -0.110507 -0.26007 0.341278 -0.346212 -0.0166955 -0.164034 0.197372 -0.312965 -0.231735 -0.362808 0.202887 0.669323 -0.192667 -0.0691513 0.11485 -0.202086 0.525569 0.488249 -0.147884 0.592558 2.02684 -0.14548 -0.422081 -0.331877 0.98274 -0.805618 0.543762 -1.45041 0.0747927 1.16888 0.0517194 0.250654
167 0.18556 -0.0172793 0.801398 0.235237 -0.0535375 0.181392 -0.0606557 -0.115966 0.212024 -0.49749 0.85209 0.325625 -0.0176834 -0.288465 -0.0143792 -0.170309 -0.270833 0.0794449 -0.498103 0.131305 -0.174899 0.241015 -0.0441286 0.112599 0.206041 -0.0934752 -0.0654933 0.0739029 -0.123906 -0.104893 0.292108 0.356199 -0.161622 -0.252378 0.29192 -0.348398 -0.0407528 -0.166228 0.103258 -0.342319 -0.259361 -0.379308 0.160028 0.599432 -0.170697 -0.172243 0.0628006 -0.248751 0.549576 0.41941 -0.143728 0.541739 1.97355 -0.178692 -0.490041 -0.27984 0.832372 -0.761563 0.469723 -1.36562 0.0456495 0.998274 0.0926481 0.241138
104 0.17158 -0.0387089 0.776016 0.206307 -0.0554312 0.148642 -0.107525 -0.110262 0.160303 -0.503041 0.87101 0.395637 0.016066 -0.308483 -0.036262 -0.164735 -0.317281 0.0271895 -0.45923 0.118127 -0.122641 0.216631 -0.0363028 0.0942801 0.224185 -0.158707 -0.104585 0.0939984 -0.105097 -0.208341 0.333568 0.433945 -0.151073 -0.280633 0.326869 -0.39207 -0.0292073 -0.144442 0.0976862 -0.391733 -0.27482 -0.414172 0.18265 0.641045 -0.16394 -0.168106 0.037111 -0.267796 0.601092 0.432396 -0.177977 0.539012 2.01461 -0.182218 -0.488039 -0.373984 0.909862 -0.808132 0.440638 -1.45102 0.0972834 1.07747 0.0915916 0.368579
186 0.107538 -0.0892521 0.649635 0.218391 -0.0594408 0.151517 -0.0897433 -0.113107 0.178369 -0.502526 0.894095 0.449178 0.0193479 -0.28106 -0.0206821 -0.107543 -0.384473 0.0213116 -0.396783 0.0216094 -0.0155617 0.137789 -0.0237611 0.0221929 0.178612 -0.137186 -0.091071 0.127302 -0.0131716 -0.23761 0.288536 0.379758 -0.197592 -0.280594 0.303958 -0.389942 -0.0384578 -0.0656923 0.0358398 -0.362295 -0.248199 -0.354835 0.145367 0.578436 -0.168227 -0.211015 -0.0321106 -0.254643 0.633469 0.365117 -0.226056 0.530288 2.05582 -0.280409 -0.577651 -0.329148 0.883389 -0.783517 0.366297 -1.51889 0.0721302 1.02913 0.141762 0.485227
276 0.0453351 0.0829943 0.721078 0.319933 -0.0935782 0.232843 -0.0239391 -0.0388012 0.186952 -0.474227 0.922789 0.394299 0.00112423 -0.327429 -0.0954032 -0.177818 -0.296739 0.129905 -0.471715 0.0704362 -0.14044 0.124478 -0.0418898 0.0349753 0.174611 -0.0940594 -0.109917 0.0640853 -0.0832414 -0.193636 0.30326 0.378204 -0.172752 -0.266998 0.259581 -0.375844 -0.051531 -0.157134 -0.0706102 -0.27529 -0.225713 -0.336513 0.0685294 0.448622 -0.219079 -0.312142 0.00379316 -0.336235 0.536249 0.323692 -0.187 0.534256 1.91372 -0.267242 -0.578859 -0.299649 0.75924 -0.725063 0.430485 -1.30123 0.0441696 0.815345 0.122652 0.301182
182 0.149145 -0.0189591 0.66828 0.119583 -0.0474283 0.178426 -0.0473132 -0.11737 0.174328 -0.444504 0.801265 0.306905 0.018961 -0.249848 -0.0324005 -0.123197 -0.22403 0.0374972 -0.465403 0.126767 -0.158734 0.212545 -0.0775798 0.147375 0.268669 -0.118827 -0.0584398 0.0327992 -0.148783 -0.155075 0.34683 0.364189 -0.0937621 -0.275243 0.292402 -0.353159 -0.0501141 -0.147068 0.10899 -0.300823 -0.274387 -0.40499 0.16952 0.668561 -0.198828 -0.127587 0.0866874 -0.29684 0.552676 0.421991 -0.153559 0.549172 1.98664 -0.169449 -0.454743 -0.3432 0.937185 -0.822355 0.498752 -1.43076 0.0697322 1.0861 0.049418 0.267885
291 0.193094 0.11495 0.72003 0.223723 -0.0899714 0.245704 0.0217672 -0.0974858 0.216 -0.431629 0.876412 0.272866 0.0254388 -0.231213 -0.0410207 -0.120835 -0.144264 0.148717 -0.422959 0.154917 -0.218974 0.173787 -0.11117 0.159506 0.379051 -0.114714 -0.0530616 -0.063048 -0.145468 -0.187839 0.425569 0.375111 -0.0287192 -0.290758 0.249974 -0.272084 -0.107904 -0.143534 -0.0219623 -0.207631 -0.275652 -0.421029 0.100366 0.577197 -0.295299 -0.190913 0.0475146 -0.375865 0.561721 0.441937 -0.250153 0.578384 2.16814 -0.236557 -0.564143 -0.274838 0.929821 -0.816431 0.513569 -1.38501 -0.0481028 0.897825 0.0150548 0.225225
196 0.214427 0.0506885 0.770245 0.236714 -0.0916249 0.20852 -0.0422508 -0.113164 0.223222 -0.496376 0.937464 0.36649 0.0320979 -0.277504 -0.0488906 -0.143427 -0.231862 0.0921235 -0.449957 0.125459 -0.134611 0.162657 -0.0681981 0.0938643 0.301121 -0.126832 -0.053444 0.0168269 -0.122328 -0.204223 0.333365 0.340642 -0.0716214 -0.26658 0.256029 -0.303855 -0.0689251 -0.122805 0.0118972 -0.244959 -0.2576 -0.397095 0.117888 0.57599 -0.249125 -0.179366 0.0381658 -0.291826 0.532748 0.390485 -0.198269 0.537896 2.07822 -0.219966 -0.540942 -0.282733 0.929237 -0.821428 0.474864 -1.44211 0.000749162 0.984047 0.0713898 0.324442
150 0.0138399 0.0877759 0.728229 0.295821 -0.065395 0.202439 -0.0582516 -0.0775916 0.218532 -0.549577 0.923374 0.346403 -0.00867268 -0.366552 -0.0667055 -0.238418 -0.25197 0.146443 -0.514192 0.145507 -0.220529 0.229162 -0.0213778 0.069699 0.201085 -0.0790566 -0.0870321 0.0120094 -0.136495 -0.126222 0.290711 0.319062 -0.113769 -0.217658 0.28261 -0.31343 -0.0308504 -0.239246 0.022792 -0.295807 -0.246657 -0.377171 0.0871634 0.547256 -0.254472 -0.280252 0.105669 -0.344267 0.523596 0.435978 -0.137881 0.543141 2.05855 -0.240872 -0.548169 -0.318117 0.884442 -0.830946 0.553821 -1.45126 0.0219963 0.989711 0.0850408 0.244558
79 -0.0850887 0.127435 0.812727 0.340796 -0.162478 0.306134 -0.0504989 0.0302521 0.211477 -0.495985 1.03657 0.397155 -0.0599726 -0.363501 -0.0887819 -0.183914 -0.299309 0.169171 -0.608519 0.0872557 -0.183974 0.122292 -0.0515316 0.133183 0.134172 -0.0611863 -0.076712 -0.0118493 -0.0887708 -0.228849 0.346454 0.316792 -0.0892529 -0.216348 0.267976 -0.416242 -0.0555002 -0.146984 -0.128834 -0.326217 -0.257038 -0.45043 0.00703911 0.54531 -0.238559 -0.31184 0.0424936 -0.376845 0.554802 0.385063 -0.188135 0.521044 1.8519 -0.291456 -0.584344 -0.165793 0.72657 -0.73866 0.503919 -1.33042 0.0391531 0.806386 0.102975 0.22158
56 0.223241 0.0524846 0.938005 0.24483 -0.183927 0.306073 -0.0172949 -0.111421 0.31802 -0.505737 1.07477 0.396814 -0.0119225 -0.234227 -0.0195115 -0.0785956 -0.216376 0.154899 -0.464681 0.123152 -0.149915 0.131513 -0.0626957 0.122828 0.220444 -0.0830275 0.0171392 -0.0526499 -0.103239 -0.17009 0.384552 0.30068 -0.0515476 -0.314305 0.250706 -0.323734 -0.144208 -0.0699655 0.0133292 -0.285768 -0.267628 -0.407454 0.0594808 0.622627 -0.286656 -0.206277 0.0526215 -0.340596 0.663944 0.446503 -0.229143 0.592222 2.1112 -0.27709 -0.567192 -0.125716 0.918199 -0.781331 0.451039 -1.37992 -0.0143757 1.03443 0.111946 0.293452
233 0.0997088 -0.0117768 0.839277 0.335543 -0.118538 0.232675 -0.0587473 -0.0967528 0.270408 -0.5353 1.05572 0.467705 -0.00662942 -0.367814 -0.0481205 -0.151418 -0.351259 0.132329 -0.490351 0.0533114 -0.0788195 0.158546 0.00301779 -0.00719914 0.167559 -0.0988521 -0.069293 0.0683148 -0.0325179 -0.171666 0.254579 0.327602 -0.195544 -0.304344 0.291586 -0.365831 -0.065302 -0.109156 -0.018858 -0.350235 -0.255641 -0.355964 0.0822095 0.598578 -0.214673 -0.300828 0.00521119 -0.303137 0.655571 0.381395 -0.192808 0.552122 1.98459 -0.280244 -0.589667 -0.219196 0.817008 -0.763951 0.4106 -1.40974 0.0597195 0.963351 0.180328 0.383714
250 0.0756109 -0.0115467 0.709104 0.215118 -0.097325 0.195788 -0.0226885 -0.0871476 0.228045 -0.47872 0.930412 0.378889 -0.00219077 -0.263927 -0.0250459 -0.114367 -0.254799 0.08521 -0.445305 0.0658474 -0.0826017 0.125918 -0.0278487 0.0328416 0.186972 -0.0820579 -0.0301096 0.0251565 -0.070339 -0.133062 0.256651 0.277332 -0.125114 -0.224243 0.2203 -0.311254 -0.0772019 -0.106656 0.019736 -0.263418 -0.221159 -0.316376 0.0854704 0.514912 -0.182658 -0.22881 0.0457 -0.24648 0.523322 0.339571 -0.149397 0.499341 1.79312 -0.221452 -0.480592 -0.174541 0.761064 -0.678749 0.376595 -1.26153 0.0504859 0.921825 0.117899 0.303112
94 -0.0638216 0.0379734 0.629577 0.319465 -0.0558659 0.205862 -0.000527395 -0.00810669 0.159228 -0.457307 0.778349 0.341625 -0.0252504 -0.292315 -0.0619121 -0.150684 -0.367881 0.171121 -0.484162 0.0510919 -0.0965382 0.131296 -0.0190976 0.00076059 0.112165 -0.0683907 -0.130145 0.0610201 -0.0183423 -0.141911 0.229052 0.345986 -0.236414 -0.22183 0.26031 -0.392871 -0.0670862 -0.207048 -0.0794005 -0.36479 -0.260684 -0.318368 0.0463935 0.396559 -0.189837 -0.390477 0.0335027 -0.361105 0.628711 0.360369 -0.206447 0.543225 1.97911 -0.314647 -0.633978 -0.266744 0.732174 -0.748901 0.402843 -1.32671 0.0301122 0.847312 0.139756 0.348659
96 -0.0519565 0.03498 0.695481 0.284179 -0.0644125 0.209314 -0.0337123 0.00906073 0.14424 -0.45146 0.835144 0.388574 -0.0377186 -0.334555 -0.0895262 -0.192462 -0.359115 0.121873 -0.552035 0.0664111 -0.145429 0.167343 -0.0586757 0.102651 0.170649 -0.122093 -0.139042 0.0586056 -0.117734 -0.215332 0.351762 0.459878 -0.211877 -0.306512 0.323019 -0.487196 -0.0500488 -0.196626 -0.0479377 -0.405382 -0.323871 -0.485205 0.114586 0.639099 -0.179017 -0.324024 0.0525941 -0.415579 0.666373 0.407406 -0.172653 0.569966 2.00532 -0.252345 -0.56099 -0.326223 0.804355 -0.814849 0.467562 -1.40265 0.0909427 0.937312 0.0855709 0.336331
139 0.0781996 0.0668006 0.52502 0.136092 -0.145696 0.195041 -0.0333336 -0.0574347 0.251144 -0.43275 0.81884 0.310047 -0.0378646 -0.258937 -0.0593808 -0.154934 -0.242448 0.0834475 -0.497082 0.101222 -0.147023 0.15811 -0.0424117 0.131078 0.13481 -0.0713275 0.00860027 0.030295 -0.129055 -0.13152 0.368727 0.322862 -0.0938803 -0.28958 0.263007 -0.341697 -0.10084 -0.105416 0.0336787 -0.301295 -0.258754 -0.438114 0.0777491 0.559685 -0.258544 -0.193569 0.0691897 -0.298244 0.513742 0.369896 -0.130719 0.518919 1.80344 -0.21957 -0.459214 -0.138247 0.788351 -0.671714 0.463841 -1.26438 0.0292103 0.939115 0.127791 0.234137
51 -0.00202471 0.132618 0.697903 0.191214 -0.226134 0.32562 -0.0284059 -0.0598952 0.290736 -0.529734 1.12151 0.403091 -0.0491313 -0.356922 -0.0649736 -0.118067 -0.273982 0.0687483 -0.639557 0.100454 -0.112114 0.0954596 -0.0492497 0.193886 0.0941943 -0.00197039 0.0891121 0.0268728 -0.0970274 -0.14601 0.379557 0.251149 -0.0596066 -0.271118 0.284066 -0.393707 -0.1179 -0.00962628 -0.0102496 -0.223235 -0.217145 -0.442817 0.0108079 0.51962 -0.351595 -0.248088 0.074239 -0.319433 0.574807 0.373516 -0.151928 0.53859 1.96166 -0.315846 -0.56988 -0.0733249 0.863282 -0.763928 0.568588 -1.45797 0.00138165 1.09438 0.141611 0.241405
226 0.0750598 0.0428493 0.797454 0.272753 -0.11012 0.249835 -0.0627312 -0.0639607 0.233354 -0.538111 1.01589 0.41448 -0.00963692 -0.351257 -0.0638272 -0.171979 -0.319057 0.104833 -0.560143 0.10266 -0.129647 0.154818 -0.0388349 0.0980489 0.205316 -0.103763 -0.0631309 0.0655657 -0.0736252 -0.211885 0.355449 0.366358 -0.162906 -0.275535 0.313013 -0.416376 -0.0641525 -0.131906 0.00364106 -0.369959 -0.282951 -0.440378 0.0936338 0.625182 -0.23528 -0.265892 0.0488833 -0.33279 0.616828 0.414243 -0.21233 0.570125 2.06156 -0.279956 -0.569191 -0.240516 0.849142 -0.794266 0.472186 -1.45825 0.0473884 1.00921 0.10819 0.344906
199 0.0977739 -0.00438265 0.755565 0.251089 -0.0724051 0.216498 -0.085542 -0.0726246 0.149579 -0.487654 0.919725 0.416625 0.0267158 -0.316042 -0.0750781 -0.123065 -0.339593 0.0381912 -0.476509 0.0673902 -0.0864169 0.109991 -0.0604207 0.0895689 0.21324 -0.15283 -0.122997 0.10884 -0.0215459 -0.275099 0.333541 0.397872 -0.144538 -0.285975 0.306479 -0.442735 -0.0289801 -0.071743 -0.0314391 -0.380795 -0.269396 -0.434809 0.122308 0.569923 -0.173604 -0.231612 -0.00391872 -0.270759 0.603628 0.367446 -0.21302 0.520294 1.96829 -0.26536 -0.560298 -0.340443 0.840791 -0.762204 0.408225 -1.45193 0.0864787 0.983865 0.11189 0.427368
246 0.107109 0.0567245 0.777129 0.324615 -0.0791875 0.23785 -0.0684979 -0.0223063 0.142039 -0.502023 0.921641 0.419772 0.0140799 -0.348 -0.124357 -0.177744 -0.39058 0.0904122 -0.547512 0.076711 -0.131225 0.158026 -0.0710652 0.0806354 0.227325 -0.171498 -0.149327 0.127127 -0.082274 -0.310842 0.432531 0.533722 -0.187369 -0.346929 0.366296 -0.534768 -0.0179845 -0.139333 -0.105765 -0.429119 -0.269226 -0.475565 0.129883 0.600695 -0.216185 -0.329746 -0.00862942 -0.373421 0.688931 0.392065 -0.207373 0.595772 2.11295 -0.284789 -0.632505 -0.406688 0.876148 -0.836684 0.453923 -1.53028 0.0779615 0.980457 0.139462 0.426415
39 0.173698 -0.00406316 0.704901 0.267149 -0.0502237 0.182941 -0.118965 -0.0821725 0.100699 -0.475488 0.873029 0.425884 0.0461201 -0.356916 -0.130177 -0.167358 -0.37793 0.0148238 -0.468489 0.0698418 -0.0903357 0.138697 -0.0713618 0.065371 0.270918 -0.188255 -0.186887 0.162339 -0.0536464 -0.360877 0.383014 0.510576 -0.184432 -0.296039 0.379658 -0.514662 -0.0205723 -0.10355 -0.0562308 -0.428971 -0.328501 -0.55317 0.172698 0.628961 -0.199788 -0.239188 -0.0522711 -0.318507 0.707926 0.405476 -0.215624 0.581466 2.08584 -0.266111 -0.59933 -0.515032 0.941199 -0.902888 0.451033 -1.69611 0.147651 1.10846 0.116949 0.528189
2 0.128579 -0.150757 0.718409 0.140434 -0.0484878 0.177022 -0.0339126 -0.116671 0.148344 -0.469915 0.9094 0.444104 0.0667451 -0.228741 -0.0227543 -0.0103998 -0.3049 0.0434447 -0.398081 0.0734244 -0.0507352 0.0986959 -0.0610001 0.0956713 0.299383 -0.170896 -0.136605 0.0668737 -0.0339298 -0.268142 0.371724 0.419344 -0.172614 -0.318639 0.299543 -0.494457 -0.0611662 -0.0425959 0.0445882 -0.437748 -0.342456 -0.42999 0.178113 0.683786 -0.131713 -0.151547 -0.00866517 -0.290184 0.833723 0.485502 -0.324751 0.590981 2.11638 -0.269459 -0.563377 -0.396007 0.958146 -0.900839 0.313808 -1.53558 0.123632 1.11786 0.0719711 0.546402
37 0.152195 -0.0648302 0.822271 0.235477 -0.124367 0.206635 -0.0537156 -0.121711 0.249192 -0.504032 1.05351 0.427992 -0.0255861 -0.295413 -0.0222251 -0.12727 -0.340856 0.105722 -0.501359 0.0427405 -0.0957583 0.131191 -0.0165936 0.036095 0.100304 -0.0894674 -0.0372593 0.0733235 0.000589622 -0.168376 0.223719 0.245331 -0.224943 -0.226417 0.263406 -0.390579 -0.0861986 -0.0966672 0.0327642 -0.391515 -0.283823 -0.352407 0.0652166 0.590614 -0.151644 -0.251254 0.0410039 -0.243829 0.621631 0.414406 -0.225829 0.5862 1.92363 -0.273983 -0.553238 -0.15153 0.77754 -0.717646 0.357879 -1.32653 0.069085 0.883847 0.113727 0.340885
11 -0.0603562 -0.0751839 0.863747 0.271799 -0.0606304 0.148203 -0.145328 -0.0845971 0.188667 -0.504116 0.903802 0.363486 -0.0297834 -0.388977 -0.0130291 -0.24653 -0.364162 0.13519 -0.553697 0.116917 -0.189743 0.311428 -0.0368591 0.0757817 0.136965 -0.139184 -0.0650218 0.0593428 -0.092249 -0.167173 0.216887 0.306175 -0.219264 -0.194439 0.34793 -0.44041 -0.00527961 -0.22142 0.120891 -0.453776 -0.26835 -0.312005 0.17224 0.657961 -0.103767 -0.219442 0.083457 -0.286379 0.651245 0.54032 -0.160019 0.605104 1.98248 -0.183207 -0.448516 -0.2812 0.876604 -0.820645 0.524897 -1.45065 0.134946 1.07295 0.0965761 0.28236
134 0.144701 -0.144607 0.57781 0.00091022 -0.0463972 0.0862639 -0.100148 -0.198385 0.206659 -0.483368 0.853352 0.290059 0.0273985 -0.282464 0.0236359 -0.179338 -0.234324 -0.011712 -0.509131 0.149944 -0.185882 0.288581 -0.0718469 0.195075 0.255218 -0.126319 0.0271134 0.0819861 -0.21572 -0.104658 0.365051 0.372711 -0.104768 -0.284557 0.36327 -0.372065 -0.00366034 -0.139598 0.289484 -0.32749 -0.233365 -0.37358 0.222847 0.700538 -0.172375 -0.00204711 0.120581 -0.159775 0.49019 0.50078 -0.0995543 0.586222 1.92039 -0.100432 -0.283257 -0.296149 0.96229 -0.777738 0.531502 -1.43308 0.109637 1.22216 0.0424083 0.194351
15 0.351207 -0.0725804 0.632818 -0.0218713 -0.0397167 0.0803051 -0.107749 -0.247846 0.237579 -0.503594 0.936667 0.344745 0.0354084 -0.289811 -0.0127102 -0.199891 -0.19847 -0.0600812 -0.441651 0.160866 -0.129115 0.25046 -0.0522382 0.163346 0.306034 -0.168053 -0.0203507 0.0999032 -0.14094 -0.126367 0.336777 0.294262 -0.133505 -0.19859 0.289978 -0.272122 -0.0595844 -0.0808201 0.282479 -0.284067 -0.265519 -0.38443 0.215291 0.634615 -0.190444 0.0459541 0.0981197 -0.101689 0.502847 0.482623 -0.139864 0.561816 1.9857 -0.0770225 -0.349242 -0.304974 1.00339 -0.792889 0.452797 -1.48689 0.0701195 1.25657 0.0349389 0.313641
76 0.218722 -0.0619656 0.69382 0.113658 -0.0686199 0.128893 -0.130167 -0.180286 0.199872 -0.512896 1.00557 0.363351 0.0332464 -0.303484 -0.0272586 -0.248878 -0.301311 0.0422101 -0.530598 0.149605 -0.202975 0.253278 -0.0920812 0.176317 0.266796 -0.179399 -0.0206012 0.087993 -0.123118 -0.20632 0.433567 0.416905 -0.154198 -0.284705 0.381748 -0.434685 -0.0391319 -0.141017 0.20383 -0.412692 -0.29873 -0.445239 0.218682 0.707385 -0.169737 -0.0673741 0.108598 -0.204413 0.561118 0.514585 -0.190334 0.638222 2.03496 -0.161538 -0.434426 -0.330019 1.01429 -0.823509 0.518276 -1.49186 0.096068 1.16861 0.0118067 0.311549
180 0.141791 -0.0274055 0.708114 0.160443 -0.0920979 0.190364 -0.0343745 -0.126229 0.253645 -0.476593 0.932995 0.327116 0.0114678 -0.270819 -0.0457324 -0.184972 -0.259742 0.109585 -0.538865 0.112653 -0.215976 0.213512 -0.0605821 0.14214 0.206749 -0.107878 -0.011757 0.0299823 -0.17707 -0.120943 0.417839 0.404181 -0.165741 -0.335277 0.351202 -0.432943 -0.0870099 -0.177202 0.120229 -0.372944 -0.307277 -0.453696 0.140495 0.705529 -0.232454 -0.183169 0.0947902 -0.319155 0.61284 0.463124 -0.152545 0.619211 1.92703 -0.188323 -0.439777 -0.2342 0.877283 -0.761997 0.491551 -1.33001 0.0690305 1.09841 0.0775553 0.240459
259 0.228678 0.0284806 0.738486 0.224952 -0.0789482 0.195463 -0.0400585 -0.136393 0.275194 -0.515816 0.982139 0.356949 0.0170176 -0.307393 -0.0441058 -0.167277 -0.274147 0.0914381 -0.535635 0.106594 -0.189512 0.205314 -0.0523243 0.11641 0.259916 -0.107665 -0.0479138 0.0566562 -0.125362 -0.11208 0.417788 0.422957 -0.180529 -0.348692 0.348208 -0.426088 -0.0876367 -0.175482 0.0813299 -0.398291 -0.318655 -0.465324 0.128348 0.691278 -0.258569 -0.206428 0.066006 -0.322465 0.621765 0.456151 -0.18642 0.591244 1.96278 -0.227499 -0.532492 -0.262701 0.865184 -0.778475 0.464826 -1.38151 0.0486481 1.05276 0.110848 0.282608
232 0.16764 0.0553504 0.642522 0.199428 -0.0702467 0.187572 -0.0416647 -0.0961173 0.218667 -0.419708 0.844711 0.308494 0.0140806 -0.273824 -0.0515581 -0.1419 -0.251838 0.105694 -0.479363 0.125268 -0.16708 0.18094 -0.0572032 0.140265 0.302416 -0.1198 -0.0654753 0.0454412 -0.110424 -0.164311 0.443229 0.436697 -0.125539 -0.324828 0.30629 -0.382983 -0.0840623 -0.138462 0.0342038 -0.347316 -0.297754 -0.489052 0.120316 0.647905 -0.252596 -0.18026 0.0361946 -0.311535 0.564983 0.41791 -0.206459 0.524817 1.88361 -0.228143 -0.519972 -0.251573 0.812862 -0.717768 0.428883 -1.2792 0.0162252 0.935571 0.0774249 0.284706
54 0.184662 -0.0367241 0.614595 0.0950092 -0.0236084 0.143016 -0.0670602 -0.129655 0.199626 -0.472776 0.785328 0.278912 0.0049046 -0.288892 -0.0367479 -0.19529 -0.21929 0.0788727 -0.471429 0.174417 -0.217783 0.304397 -0.0793226 0.179176 0.293185 -0.184207 -0.0803624 0.0340072 -0.238755 -0.168973 0.441653 0.46269 -0.127059 -0.342122 0.378442 -0.390833 -0.0319374 -0.19491 0.129051 -0.373218 -0.280304 -0.435431 0.218481 0.681289 -0.182083 -0.117575 0.102905 -0.304552 0.625221 0.499189 -0.149534 0.589826 2.00871 -0.115669 -0.363262 -0.381839 0.937509 -0.838801 0.512693 -1.40094 0.091126 1.12663 0.0228138 0.240493
27 0.0618373 -0.107457 0.710512 0.17006 -0.02954 0.15143 -0.0274619 -0.0999969 0.191064 -0.458101 0.844711 0.351164 0.036364 -0.240158 -0.0343503 -0.0966317 -0.244351 0.0924783 -0.412335 0.0503985 -0.106825 0.150595 -0.013896 0.0415745 0.230136 -0.133593 -0.0790356 0.0202743 -0.055667 -0.168625 0.303709 0.340831 -0.159265 -0.32415 0.307916 -0.413999 -0.0382179 -0.121918 0.0845505 -0.344748 -0.277356 -0.331437 0.172393 0.696713 -0.137842 -0.16839 0.0576835 -0.263504 0.602634 0.407196 -0.197667 0.572026 1.9141 -0.209041 -0.462675 -0.314202 0.846725 -0.799027 0.393946 -1.38905 0.0950628 1.05964 0.0726858 0.409628
22 0.306206 -0.0371166 0.727618 0.15324 -0.0497508 0.184247 -0.0236223 -0.149507 0.23159 -0.474819 0.892983 0.330545 0.0272739 -0.24062 -0.010611 -0.0809879 -0.267203 0.0750532 -0.499543 0.122739 -0.106928 0.144737 -0.0888456 0.173199 0.388343 -0.173619 -0.0903256 0.0581653 -0.0517026 -0.235108 0.464917 0.422109 -0.136974 -0.342699 0.329637 -0.400021 -0.0872523 -0.0822721 0.0706392 -0.392581 -0.348816 -0.50227 0.15526 0.685918 -0.233116 -0.150144 0.02641 -0.279591 0.660843 0.46734 -0.318501 0.595093 2.13826 -0.247777 -0.527334 -0.275788 0.892521 -0.785954 0.38904 -1.41989 -0.00846798 1.02421 0.03715 0.388599
279 0.241044 0.0887286 0.70321 0.206667 -0.0869018 0.229764 0.0244229 -0.111695 0.228308 -0.435855 0.85482 0.301252 0.0110856 -0.187548 -0.0179167 -0.0832484 -0.162809 0.133754 -0.385137 0.143828 -0.151017 0.136102 -0.0756465 0.149627 0.345457 -0.117294 -0.0390932 -0.0623071 -0.138554 -0.17558 0.38842 0.33816 -0.0307156 -0.283451 0.230034 -0.230823 -0.108988 -0.11474 -0.0091834 -0.210391 -0.254989 -0.399156 0.0836998 0.565083 -0.2645 -0.18345 0.0421358 -0.334224 0.514386 0.393164 -0.221132 0.532052 2.02863 -0.2299 -0.522543 -0.21531 0.858419 -0.721061 0.438157 -1.28948 -0.0552365 0.883571 0.0440571 0.236456
289 -0.00376486 0.166251 0.652475 0.215074 -0.18029 0.291396 -0.0287581 -0.0747618 0.279818 -0.457671 1.03673 0.362509 -0.0220481 -0.293798 -0.10978 -0.212303 -0.257671 0.134629 -0.576224 0.096855 -0.230238 0.12628 -0.0747978 0.159113 0.133522 -0.0449989 0.00208735 -0.00014545 -0.0947929 -0.145254 0.39598 0.301694 -0.0667804 -0.255571 0.264707 -0.359203 -0.110197 -0.130025 -0.0198415 -0.238109 -0.26738 -0.449493 0.0331091 0.524942 -0.341755 -0.247898 0.0955733 -0.362732 0.537903 0.397579 -0.175292 0.589322 1.92099 -0.261681 -0.562194 -0.182347 0.86131 -0.735803 0.532637 -1.3581 -0.00551918 0.945269 0.0653804 0.237201
61 0.139706 0.0542686 0.789059 0.241783 -0.1021 0.21087 -0.0660285 -0.133224 0.278723 -0.48162 0.965616 0.308455 -0.0191818 -0.2756 -0.0492238 -0.240051 -0.209517 0.151123 -0.511681 0.161756 -0.287352 0.242756 -0.0663605 0.141436 0.225259 -0.0940245 -0.0145004 -0.0109211 -0.171981 -0.105573 0.382932 0.373191 -0.0821255 -0.324478 0.324919 -0.349663 -0.064671 -0.190811 0.0912198 -0.297924 -0.272843 -0.437729 0.126216 0.665083 -0.276314 -0.18368 0.126291 -0.315946 0.535333 0.479798 -0.135437 0.621304 2.03919 -0.170332 -0.498296 -0.251276 0.927792 -0.775116 0.578129 -1.36659 0.00538498 1.05905 0.0760357 0.191385
195 0.0575291 0.11056 0.803212 0.306437 -0.128385 0.262528 -0.0422837 0.0144453 0.224861 -0.440482 0.859522 0.30167 -0.0477262 -0.306033 -0.0696405 -0.170229 -0.211028 0.160644 -0.520163 0.109041 -0.184715 0.174079 -0.0592343 0.135758 0.161007 -0.0793579 -0.0524689 -0.00864321 -0.130856 -0.188612 0.306583 0.291999 -0.0921204 -0.244531 0.237264 -0.3459 -0.0235886 -0.139881 -0.0473607 -0.279984 -0.228916 -0.390902 0.0530954 0.553274 -0.223122 -0.252218 0.0606485 -0.330614 0.532679 0.38019 -0.165867 0.541281 1.95085 -0.24458 -0.508745 -0.184635 0.802425 -0.772507 0.518327 -1.32803 0.0309427 0.868621 0.0923253 0.204783
19 0.125914 -0.000552493 0.791833 0.25371 -0.0524157 0.199454 -0.0644215 -0.0885992 0.229002 -0.468902 0.8992 0.311142 0.00856469 -0.304234 -0.0555569 -0.187309 -0.206866 0.147717 -0.484254 0.102541 -0.228886 0.262212 -0.0431931 0.0559512 0.2105 -0.10636 -0.0426508 -0.00183829 -0.176138 -0.121008 0.335588 0.371891 -0.130764 -0.316751 0.32632 -0.363642 -0.0559357 -0.151623 0.0536532 -0.275127 -0.257026 -0.382079 0.172624 0.708395 -0.20938 -0.173308 0.0877458 -0.303941 0.561447 0.439185 -0.103208 0.604258 1.99538 -0.161867 -0.447181 -0.278273 0.938265 -0.840036 0.595004 -1.45849 0.0822611 1.09263 0.0952044 0.245044
5 -0.108636 0.00997523 0.515157 0.111195 -0.0725229 0.146632 -0.121105 -0.0696058 0.150861 -0.399293 0.855768 0.33358 -0.0166795 -0.311385 -0.0667984 -0.241061 -0.269789 0.058553 -0.459797 0.0809779 -0.20946 0.2633 -0.0624448 0.13165 0.125276 -0.110701 -0.043925 -0.0100895 -0.183829 -0.21375 0.369612 0.378334 -0.0699834 -0.284481 0.347522 -0.453735 -0.0156034 -0.1497 0.0632157 -0.375901 -0.255296 -0.430526 0.190507 0.675701 -0.205058 -0.154596 0.104105 -0.324038 0.661666 0.516563 -0.105117 0.62116 1.9705 -0.180331 -0.457296 -0.40111 1.02831 -0.876645 0.600126 -1.52928 0.151505 1.22999 0.0914038 0.314133
185 0.171985 -0.0534276 0.825229 0.245381 -0.0686078 0.181974 -0.0742359 -0.104095 0.212027 -0.474295 0.881197 0.35182 0.004308 -0.289583 -0.0139933 -0.138344 -0.259637 0.0944007 -0.454009 0.0895117 -0.111366 0.208754 -0.0261442 0.057337 0.216178 -0.108579 -0.0524641 0.031085 -0.0885626 -0.182052 0.269414 0.320331 -0.157063 -0.268792 0.276126 -0.383447 -0.0291367 -0.123228 0.0667576 -0.325082 -0.237764 -0.338504 0.139856 0.67213 -0.136202 -0.160422 0.0381624 -0.255603 0.579927 0.431833 -0.175574 0.551782 1.94026 -0.2057 -0.509096 -0.260622 0.847137 -0.796899 0.439106 -1.39094 0.0625265 0.972659 0.102612 0.316235
125 0.0346634 0.0163679 0.708224 0.198663 -0.0860796 0.207717 -0.0553851 -0.0720628 0.185679 -0.466598 0.964495 0.356293 -0.00988449 -0.305832 -0.0830728 -0.171319 -0.252181 0.09528 -0.51798 0.0955524 -0.203084 0.170739 -0.0609117 0.116574 0.192997 -0.106444 -0.0740757 0.0220182 -0.147376 -0.200171 0.340573 0.331688 -0.105162 -0.254659 0.284003 -0.4095 -0.0367289 -0.151201 0.00955251 -0.316738 -0.255108 -0.420391 0.0948286 0.575695 -0.221071 -0.211982 0.0773251 -0.310056 0.626401 0.443192 -0.15008 0.618188 1.99207 -0.232955 -0.503149 -0.277722 0.882826 -0.826478 0.509084 -1.44861 0.0846973 1.05288 0.072182 0.303528
187 0.291579 -0.0539876 0.651202 0.100097 -0.0963619 0.125648 -0.0435256 -0.162718 0.25904 -0.467627 0.877509 0.308333 -0.0020076 -0.207769 0.0134572 -0.131656 -0.205192 0.045383 -0.446215 0.146432 -0.144565 0.193764 -0.0549097 0.142973 0.26007 -0.124449 0.0206462 0.035372 -0.136003 -0.118607 0.349428 0.304698 -0.125257 -0.256301 0.277752 -0.338923 -0.0971645 -0.124313 0.164464 -0.328574 -0.267159 -0.392651 0.155513 0.640414 -0.191926 -0.090251 0.103029 -0.193393 0.540423 0.447719 -0.17565 0.582751 1.91942 -0.180602 -0.419842 -0.194376 0.860552 -0.761248 0.410688 -1.31333 0.0160015 1.0571 0.0359281 0.257622
45 0.192857 0.0833017 0.740589 0.395487 -0.0613981 0.198159 -0.0680598 -0.0879468 0.250062 -0.510927 0.976657 0.375655 0.0270581 -0.39661 -0.113219 -0.235016 -0.331975 0.159932 -0.466607 0.0905088 -0.219187 0.20511 -0.0167824 -0.0274233 0.19015 -0.122622 -0.117704 0.0993055 -0.0929879 -0.112892 0.370855 0.471558 -0.225471 -0.349666 0.343386 -0.389468 -0.070467 -0.228039 -0.0510103 -0.381776 -0.291718 -0.45681 0.112038 0.566198 -0.265637 -0.348567 0.0133426 -0.383068 0.600452 0.379085 -0.130193 0.550731 2.01311 -0.248131 -0.639242 -0.356378 0.851325 -0.797521 0.484414 -1.44079 0.0526925 0.92589 0.17861 0.341248
211 0.0427836 0.024374 0.778087 0.297894 -0.0645486 0.213783 -0.07158 -0.0453814 0.152328 -0.481543 0.896139 0.399515 0.0110582 -0.322713 -0.0575685 -0.141851 -0.293934 0.0698826 -0.463305 0.0597491 -0.116374 0.148344 -0.0449408 0.0566664 0.171534 -0.106722 -0.113453 0.0744897 -0.0494046 -0.206778 0.269537 0.376119 -0.169966 -0.256752 0.291747 -0.414082 -0.0267775 -0.148527 -0.0183682 -0.339656 -0.271495 -0.401605 0.133501 0.593603 -0.168485 -0.268208 0.00769331 -0.310867 0.584597 0.370111 -0.170827 0.532363 1.90034 -0.227506 -0.570096 -0.348032 0.801135 -0.773136 0.433794 -1.41938 0.086109 0.948592 0.115881 0.353925
80 0.128622 -0.063571 0.81269 0.205775 -0.157312 0.217177 -0.0831434 -0.0857557 0.325274 -0.615453 1.22549 0.485017 -0.0255991 -0.359687 0.0234484 -0.116604 -0.344299 0.0647523 -0.578734 0.056989 -0.060651 0.103878 -0.0459442 0.11029 0.1809 -0.0571017 0.0419205 0.085482 -0.0319713 -0.167119 0.315758 0.253691 -0.158735 -0.216393 0.286067 -0.443065 -0.0785728 -0.0440155 0.0992402 -0.375739 -0.283718 -0.397998 0.0771985 0.645395 -0.205445 -0.15214 0.0723663 -0.21146 0.63573 0.436432 -0.231053 0.554344 1.89026 -0.312135 -0.517851 -0.0834144 0.822791 -0.738802 0.410977 -1.38366 0.051596 1.04175 0.130468 0.335381
12 0.210313 -0.0433891 0.772362 0.350833 -0.0534588 0.152313 -0.101681 -0.0911197 0.203885 -0.53564 0.91334 0.358513 0.0113712 -0.335217 -0.0763163 -0.177566 -0.351738 0.123337 -0.40203 0.0804573 -0.203119 0.200265 -0.0573742 -0.0288901 0.150529 -0.133605 -0.0960443 0.145069 -0.0945685 -0.158676 0.31786 0.460503 -0.245924 -0.346156 0.336114 -0.436363 -0.00440518 -0.196092 -0.0214895 -0.425136 -0.225481 -0.370466 0.130369 0.523882 -0.177034 -0.28967 0.00659788 -0.277024 0.6512 0.424686 -0.167887 0.621922 2.08255 -0.275023 -0.591605 -0.370371 0.881464 -0.810146 0.448659 -1.45782 0.109206 0.959662 0.178172 0.352804
296 0.0558521 0.00877657 0.82314 0.310278 -0.0884178 0.220339 -0.0951967 -0.068529 0.195221 -0.499308 0.986958 0.440021 0.00405742 -0.329041 -0.0639494 -0.142323 -0.336736 0.067463 -0.462637 0.0460255 -0.0794464 0.134443 -0.0271253 0.0283842 0.12508 -0.0888735 -0.0940172 0.0930818 -0.00624371 -0.204654 0.234769 0.336494 -0.163406 -0.249766 0.279365 -0.400864 -0.0486924 -0.11096 -0.0235001 -0.319958 -0.254263 -0.369329 0.0948756 0.55844 -0.202873 -0.278212 -0.008105 -0.307439 0.588872 0.363105 -0.206149 0.543855 1.96309 -0.259154 -0.596678 -0.299298 0.83555 -0.784431 0.429577 -1.46405 0.0786053 0.969864 0.141387 0.39963
272 0.00342058 0.0662575 0.680555 0.25453 -0.09148 0.214806 -0.0382102 -0.0614867 0.229812 -0.479471 0.93743 0.335965 -0.0180691 -0.293166 -0.0528267 -0.181744 -0.227851 0.132489 -0.495685 0.108748 -0.204597 0.178953 -0.0441528 0.0989532 0.159223 -0.0713885 -0.0485425 0.0373278 -0.115708 -0.109804 0.285163 0.303874 -0.124217 -0.234374 0.270963 -0.332047 -0.0530261 -0.180165 0.0134361 -0.246382 -0.23453 -0.349282 0.0735835 0.475336 -0.25017 -0.269501 0.0702917 -0.340435 0.53775 0.422081 -0.179405 0.60243 2.08284 -0.246346 -0.560019 -0.264653 0.854633 -0.76826 0.518712 -1.39401 0.03148 0.956262 0.0881107 0.228058
163 0.122415 -0.00690853 0.766061 0.200172 -0.0740402 0.193335 -0.0685789 -0.101054 0.197939 -0.507657 0.928396 0.367242 -0.00466093 -0.296138 -0.0310232 -0.154335 -0.277214 0.0804477 -0.518311 0.124776 -0.147858 0.200032 -0.0577889 0.142826 0.224718 -0.125334 -0.0611928 0.0593304 -0.127398 -0.180753 0.387001 0.398265 -0.171458 -0.291873 0.338529 -0.420941 -0.057883 -0.149297 0.095604 -0.370359 -0.270969 -0.418144 0.149139 0.618692 -0.192153 -0.191906 0.0649075 -0.287433 0.616344 0.460292 -0.185377 0.605027 2.03445 -0.202109 -0.499572 -0.278731 0.898051 -0.795252 0.469413 -1.43109 0.0565926 1.06363 0.0603884 0.294908
110 0.0819081 0.0903148 0.678567 0.216383 -0.0413987 0.20683 -0.00292728 -0.111446 0.2082 -0.486273 0.842742 0.301721 0.0190334 -0.321179 -0.0735068 -0.18044 -0.216911 0.107273 -0.484856 0.114592 -0.225997 0.206886 -0.0636651 0.127723 0.271774 -0.111497 -0.0783788 -0.0206438 -0.186444 -0.141339 0.392941 0.388827 -0.102271 -0.311054 0.32214 -0.355483 -0.0478267 -0.21912 0.0532927 -0.27344 -0.277698 -0.404355 0.128245 0.573434 -0.246322 -0.215909 0.105422 -0.39062 0.555695 0.432242 -0.140132 0.563779 1.95403 -0.182185 -0.442465 -0.358515 0.873727 -0.807117 0.49977 -1.31717 0.0474143 1.01079 0.0352162 0.228511
127 -0.0877804 0.0247245 0.763406 0.285595 -0.0252858 0.210963 -0.0908986 0.00991692 0.0397915 -0.455787 0.815732 0.405248 0.00510009 -0.364555 -0.0911384 -0.159085 -0.363704 0.0555935 -0.518401 0.0749429 -0.141755 0.190451 -0.0824303 0.136567 0.225509 -0.168957 -0.185767 0.0766852 -0.126065 -0.31758 0.347672 0.504739 -0.14195 -0.295484 0.36403 -0.519481 0.058534 -0.177476 -0.047175 -0.384079 -0.268207 -0.459186 0.188117 0.632631 -0.115271 -0.268386 0.00632969 -0.338031 0.60179 0.385159 -0.144756 0.543606 1.95185 -0.197028 -0.514755 -0.451495 0.842605 -0.806186 0.506529 -1.50482 0.143365 1.00963 0.0981079 0.35178
91 -0.0808774 -0.0351972 0.733442 0.242176 -0.0365394 0.18901 -0.0919032 -0.00248491 0.037125 -0.432209 0.762604 0.363057 0.0108587 -0.3203 -0.0550881 -0.117116 -0.299401 0.0414479 -0.460595 0.0700151 -0.104577 0.171717 -0.0592158 0.127385 0.165544 -0.127404 -0.132506 0.0952233 -0.115161 -0.253124 0.293068 0.426204 -0.150342 -0.255572 0.330225 -0.483168 0.0490672 -0.146911 -0.00778586 -0.335574 -0.245153 -0.37989 0.182189 0.584788 -0.096719 -0.204197 0.011888 -0.277458 0.57373 0.364724 -0.12984 0.519277 1.77325 -0.173 -0.480164 -0.400623 0.815059 -0.796453 0.483828 -1.47549 0.152576 0.969091 0.074619 0.322283
241 -0.121392 0.00181586 0.66054 0.278412 -0.0386402 0.181348 -0.0747456 0.0167574 0.0410284 -0.384832 0.680851 0.357915 -0.0157526 -0.28321 -0.0630552 -0.129268 -0.301781 0.0443259 -0.426498 0.0704445 -0.106989 0.15631 -0.0313848 0.072024 0.13962 -0.12168 -0.161824 0.0917142 -0.0755674 -0.235661 0.277058 0.437097 -0.164846 -0.252574 0.295599 -0.469853 0.0456143 -0.150297 -0.0605604 -0.360581 -0.232239 -0.387886 0.158882 0.552012 -0.11734 -0.285058 0.00976699 -0.326806 0.63206 0.386242 -0.156885 0.526939 1.92166 -0.218667 -0.583726 -0.426428 0.834408 -0.818719 0.448183 -1.49347 0.128604 0.953924 0.115862 0.384509
34 -0.151834 -0.0101155 0.640748 0.289718 -0.0315825 0.20741 -0.0638759 0.0348618 0.0414475 -0.451296 0.747677 0.411868 0.00806242 -0.323205 -0.0892838 -0.108537 -0.332437 0.048476 -0.43683 0.0765377 -0.0753167 0.0997039 -0.0550986 0.0748031 0.165811 -0.134899 -0.205274 0.123452 -0.0580793 -0.299288 0.26609 0.416875 -0.161706 -0.229005 0.310222 -0.490876 0.0239944 -0.161016 -0.101528 -0.402091 -0.284126 -0.456541 0.130779 0.530429 -0.140493 -0.3511 -0.0274646 -0.348497 0.715167 0.377987 -0.197322 0.539955 2.04512 -0.288257 -0.630381 -0.482418 0.836975 -0.861009 0.432241 -1.59575 0.140193 0.988057 0.113802 0.444119
169 0.133939 0.119707 0.568825 0.212929 -0.108478 0.240767 0.00895274 -0.0498687 0.196169 -0.45266 0.905238 0.339716 -0.00510002 -0.26661 -0.108562 -0.151342 -0.264911 0.108115 -0.498123 0.0878592 -0.156589 0.0761507 -0.0827394 0.12967 0.221051 -0.111155 -0.054237 0.0604343 -0.105411 -0.207979 0.42002 0.414913 -0.132571 -0.28471 0.289118 -0.407141 -0.0879383 -0.0993032 -0.069712 -0.270423 -0.242568 -0.446076 0.0550138 0.469601 -0.294984 -0.258305 0.0168344 -0.320194 0.582768 0.332461 -0.175698 0.591708 1.89497 -0.282654 -0.558105 -0.249055 0.810056 -0.757578 0.446976 -1.39781 0.0323563 0.91289 0.112832 0.300017
17 0.0557123 0.00964518 0.720518 0.240762 -0.0860935 0.193548 -0.0859747 -0.0735615 0.158452 -0.508653 0.967755 0.391681 0.00785789 -0.319261 -0.128293 -0.193643 -0.325735 0.0359996 -0.528982 0.0710013 -0.144723 0.0955528 -0.0753045 0.0904333 0.180499 -0.147419 -0.108934 0.134868 -0.0659902 -0.242284 0.409363 0.46844 -0.195291 -0.319257 0.390937 -0.561012 -0.04738 -0.135984 -0.00626023 -0.418792 -0.292852 -0.488228 0.141574 0.620154 -0.204029 -0.278491 0.0359179 -0.279236 0.653429 0.397859 -0.185659 0.64102 1.94363 -0.254597 -0.532684 -0.329523 0.841269 -0.784187 0.453965 -1.48895 0.100772 1.08696 0.107787 0.41906
52 0.132376 -0.0010131 0.799468 0.238947 -0.0734377 0.192512 -0.0778374 -0.0949695 0.204241 -0.499564 0.930956 0.346879 -0.0144083 -0.333651 -0.0666478 -0.210909 -0.28496 0.0940948 -0.570773 0.154412 -0.241124 0.279676 -0.0529753 0.152061 0.22302 -0.13905 -0.0513086 0.0481093 -0.197303 -0.147367 0.380726 0.43432 -0.121442 -0.333529 0.352227 -0.404131 -0.00851172 -0.196114 0.0936437 -0.373023 -0.26401 -0.45909 0.166344 0.649997 -0.211414 -0.203634 0.09256 -0.313205 0.582531 0.466675 -0.107721 0.593348 1.98877 -0.161261 -0.441958 -0.331509 0.884916 -0.801072 0.537161 -1.42075 0.0986107 1.09073 0.0997456 0.242172
170 -0.0177677 0.0246427 0.770529 0.252255 -0.0686452 0.203142 -0.0553753 -0.0114881 0.130997 -0.463669 0.848265 0.355224 -0.0344741 -0.296828 -0.0786646 -0.17205 -0.294699 0.104791 -0.54099 0.102861 -0.177628 0.189918 -0.0677416 0.14634 0.172645 -0.107851 -0.111092 0.0599845 -0.146899 -0.2236 0.313333 0.388977 -0.136722 -0.261317 0.303052 -0.43234 0.0151429 -0.171375 -0.00959589 -0.342045 -0.235729 -0.406183 0.113787 0.546359 -0.156334 -0.256156 0.0480711 -0.308107 0.574765 0.398451 -0.149931 0.556774 1.8639 -0.20395 -0.476218 -0.305964 0.781754 -0.729134 0.478136 -1.34343 0.0977993 0.899348 0.0642115 0.250256
13 0.266617 -0.0462943 0.97214 0.288096 -0.131589 0.230944 -0.0480991 -0.146283 0.299553 -0.542091 1.1112 0.433419 0.00492421 -0.283727 -0.0060245 -0.114328 -0.294475 0.147502 -0.456785 0.115737 -0.112249 0.186242 -0.0146473 0.0544194 0.225082 -0.132596 -0.0407443 0.011099 -0.0550628 -0.137006 0.306034 0.29561 -0.174648 -0.277836 0.280446 -0.323132 -0.108841 -0.109787 0.0483092 -0.378582 -0.293891 -0.383869 0.0883222 0.657453 -0.191348 -0.231665 0.0499052 -0.306821 0.669401 0.490431 -0.218715 0.554233 2.04833 -0.278091 -0.549536 -0.156328 0.840971 -0.757817 0.361252 -1.31113 0.0172123 1.07247 0.135876 0.351345
299 0.342568 -0.0226102 0.704816 0.167106 -0.0401447 0.14975 -0.0645563 -0.137785 0.197406 -0.464623 0.809782 0.333785 0.041967 -0.250238 -0.050635 -0.135516 -0.259248 0.0513245 -0.44945 0.119333 -0.143117 0.194202 -0.076123 0.116503 0.307831 -0.168023 -0.0802855 0.0734538 -0.121639 -0.212836 0.417886 0.44058 -0.16279 -0.334088 0.326559 -0.398445 -0.0709814 -0.115246 0.0602102 -0.387728 -0.282506 -0.458565 0.178165 0.657078 -0.169621 -0.118089 0.0278264 -0.237897 0.568823 0.397975 -0.185447 0.502855 1.75684 -0.175456 -0.441184 -0.300167 0.794175 -0.689446 0.355001 -1.21722 0.0416851 0.924397 0.055497 0.337381
119 0.187084 -0.0245424 0.73719 0.219832 -0.0214427 0.171814 -0.0577891 -0.0873189 0.111647 -0.467728 0.830901 0.368518 0.0359118 -0.284825 -0.0651861 -0.123415 -0.341724 0.0644681 -0.490615 0.0923355 -0.109735 0.145857 -0.0726462 0.107557 0.295473 -0.184316 -0.151983 0.119091 -0.0777723 -0.27672 0.388279 0.464471 -0.186021 -0.31828 0.343862 -0.453804 -0.0231369 -0.123464 0.016117 -0.408235 -0.307441 -0.471365 0.167679 0.625145 -0.144093 -0.199725 0.0098119 -0.273792 0.624477 0.396523 -0.221241 0.560708 1.9851 -0.23595 -0.54335 -0.386464 0.842164 -0.788887 0.401451 -1.42908 0.0844372 1.02857 0.0621247 0.437397
206 0.159377 -0.041345 0.717085 0.13618 -0.0387355 0.15335 -0.0755028 -0.1254 0.173104 -0.487001 0.843569 0.334794 0.00663605 -0.311525 -0.029028 -0.194937 -0.258031 0.0535721 -0.51598 0.139997 -0.185343 0.264133 -0.0725014 0.167301 0.280319 -0.16332 -0.069104 0.039096 -0.21356 -0.211517 0.401191 0.427864 -0.123432 -0.303626 0.361855 -0.426826 -0.0218892 -0.161997 0.132545 -0.358228 -0.270124 -0.429238 0.215473 0.69757 -0.153551 -0.108234 0.078191 -0.258897 0.591463 0.481601 -0.137272 0.59137 1.97154 -0.146651 -0.402198 -0.362259 0.947799 -0.843473 0.512278 -1.46486 0.108542 1.13057 0.0401363 0.255594
190 0.15407 -0.0354438 0.621238 0.092308 -0.0624221 0.150118 -0.0762724 -0.131745 0.187409 -0.452914 0.8035 0.293097 -0.000990504 -0.272171 -0.0220442 -0.177096 -0.229538 0.0428475 -0.506386 0.143847 -0.19273 0.257602 -0.0562439 0.168975 0.223201 -0.113076 -0.0214065 0.0366154 -0.184272 -0.14041 0.36237 0.364599 -0.104582 -0.290452 0.316213 -0.361763 -0.0515264 -0.144568 0.150215 -0.336871 -0.26552 -0.407898 0.182673 0.672273 -0.188812 -0.099931 0.108051 -0.263653 0.526369 0.447818 -0.118084 0.549587 1.83894 -0.128753 -0.375286 -0.304927 0.89821 -0.759231 0.483039 -1.33737 0.0790484 1.07351 0.0509978 0.221038
44 -0.0897043 0.00732297 0.817419 0.3359 -0.0268963 0.241428 -0.11474 0.0101523 0.0181405 -0.46615 0.855104 0.427716 0.028655 -0.420115 -0.12983 -0.151069 -0.359165 0.0349733 -0.522299 0.0556013 -0.106797 0.141806 -0.0680334 0.0957196 0.215778 -0.175058 -0.187425 0.129634 -0.0779811 -0.352633 0.338966 0.512345 -0.172148 -0.335913 0.389401 -0.598032 0.0675905 -0.155005 -0.0953125 -0.415176 -0.278453 -0.516199 0.198709 0.704223 -0.0996283 -0.279171 -0.0320672 -0.322879 0.606422 0.371924 -0.154792 0.533919 1.99546 -0.236998 -0.614171 -0.491247 0.881965 -0.864621 0.536087 -1.65063 0.170797 1.03492 0.122137 0.442111
116 -0.0349833 0.146057 0.706556 0.30087 -0.151952 0.268917 -0.0624674 -0.0041755 0.206728 -0.472789 0.975241 0.370302 -0.00923608 -0.34886 -0.106402 -0.195455 -0.296135 0.1411 -0.550101 0.0819164 -0.193753 0.109077 -0.0661461 0.105064 0.139119 -0.0478 -0.035692 0.0421249 -0.0767129 -0.185784 0.377096 0.361356 -0.135126 -0.280707 0.299873 -0.425768 -0.071658 -0.146746 -0.0643245 -0.321218 -0.271917 -0.459443 0.0362911 0.502564 -0.266904 -0.300482 0.0607846 -0.351745 0.548136 0.368401 -0.175432 0.535884 1.83702 -0.285795 -0.580606 -0.199238 0.797909 -0.73877 0.504505 -1.35172 0.0279213 0.841528 0.116016 0.248165
263 -0.137203 0.119738 0.494794 0.205515 -0.0955083 0.195199 -0.0374428 -0.0330733 0.214236 -0.481339 0.881607 0.325341 -0.0228928 -0.313853 -0.0742815 -0.211885 -0.229348 0.12931 -0.505245 0.132218 -0.211853 0.170652 -0.0420131 0.117111 0.129448 -0.0496708 -0.0528133 0.00306438 -0.132901 -0.120436 0.341227 0.336502 -0.113635 -0.229863 0.275436 -0.355981 -0.0498421 -0.219252 0.00108204 -0.304211 -0.24547 -0.407072 0.0614925 0.467007 -0.286447 -0.300874 0.114721 -0.385628 0.577786 0.431743 -0.148632 0.578517 2.02449 -0.264867 -0.566259 -0.264254 0.879616 -0.84094 0.537867 -1.44125 0.02444 0.987074 0.0617339 0.23348
43 0.311369 -0.0713145 0.959329 0.234594 -0.106531 0.23991 0.00317231 -0.134768 0.244139 -0.481673 0.9178 0.388415 0.0217557 -0.211985 0.0452918 -0.0223223 -0.241704 0.125934 -0.422255 0.119171 -0.0800231 0.180921 -0.0139933 0.070536 0.318953 -0.129658 -0.0435382 -0.0565583 -0.103034 -0.194863 0.295655 0.299552 -0.0767597 -0.31522 0.226059 -0.272552 -0.109539 -0.0638135 0.0465262 -0.296043 -0.250298 -0.336881 0.114664 0.670263 -0.15607 -0.139968 0.00215887 -0.283511 0.616674 0.437467 -0.269444 0.531215 2.06922 -0.236827 -0.512034 -0.191188 0.821633 -0.730914 0.336863 -1.26012 0.00774585 0.904468 0.0775729 0.316513
221 0.180207 0.0448594 0.764532 0.236356 -0.13394 0.234929 0.00247318 -0.0735768 0.243954 -0.41767 0.875719 0.31514 -0.0232029 -0.224558 -0.00829481 -0.0760319 -0.163655 0.134364 -0.410781 0.11699 -0.136946 0.146574 -0.0410771 0.0800188 0.203081 -0.083384 -0.000304947 -0.055683 -0.110264 -0.155485 0.280429 0.248994 -0.0454872 -0.263433 0.195835 -0.233403 -0.0809261 -0.0879822 -0.0194849 -0.194169 -0.182493 -0.299604 0.0450544 0.502519 -0.22525 -0.193878 0.0344624 -0.284529 0.500255 0.370301 -0.178473 0.514607 1.95288 -0.247947 -0.515294 -0.137176 0.788804 -0.725711 0.42704 -1.26402 -0.0185684 0.830466 0.0943067 0.204403
135 0.0622687 0.0508707 0.693384 0.244808 -0.160766 0.259903 -0.0370791 -0.0468651 0.29245 -0.524793 1.03453 0.404987 -0.0443287 -0.369227 -0.0392049 -0.167724 -0.288732 0.0996627 -0.547821 0.0944203 -0.103144 0.147097 -0.0187139 0.0968289 0.12857 -0.0478301 0.00222504 0.0516309 -0.0784154 -0.105157 0.309605 0.266622 -0.153066 -0.258743 0.257068 -0.335348 -0.100661 -0.10563 0.0175183 -0.299255 -0.252771 -0.416345 0.0532755 0.535574 -0.25266 -0.258247 0.0554267 -0.318969 0.558748 0.373656 -0.151268 0.52465 1.99379 -0.271213 -0.537047 -0.130513 0.800864 -0.731285 0.461834 -1.34383 0.0244002 0.946662 0.124561 0.26399
283 0.118995 0.0652781 0.758271 0.248028 -0.140371 0.262014 -0.0457477 -0.102489 0.264535 -0.474915 1.05887 0.429795 0.00617802 -0.281827 -0.0681382 -0.139983 -0.332422 0.136137 -0.526435 0.0575568 -0.134102 0.106044 -0.060644 0.0898572 0.148817 -0.0873042 -0.033911 0.0397405 0.00841707 -0.191184 0.337173 0.310785 -0.172277 -0.26532 0.285007 -0.399895 -0.14094 -0.0770333 -0.033923 -0.337519 -0.30783 -0.421322 0.0464328 0.568351 -0.267173 -0.261621 0.0133155 -0.324964 0.637435 0.391706 -0.25823 0.595277 1.94798 -0.297688 -0.612725 -0.16915 0.817298 -0.737179 0.389555 -1.35467 0.00406223 0.875423 0.10518 0.368675
278 0.0801951 -0.0343058 0.781808 0.307595 -0.0578131 0.197465 -0.0889249 -0.074684 0.191499 -0.5185 0.927455 0.422893 0.00922707 -0.375549 -0.0570624 -0.17097 -0.357519 0.0969724 -0.508352 0.0703964 -0.0944969 0.194534 -0.026364 0.0303692 0.182613 -0.135794 -0.103738 0.102348 -0.0571192 -0.197994 0.290601 0.396036 -0.232231 -0.283403 0.317925 -0.443267 -0.043108 -0.160208 0.00934563 -0.416769 -0.272792 -0.381783 0.125327 0.636557 -0.174445 -0.293983 0.00336437 -0.317069 0.651089 0.406471 -0.191734 0.561422 1.98815 -0.247306 -0.576755 -0.323085 0.820705 -0.799742 0.424299 -1.46327 0.0934446 1.00897 0.145563 0.400985
75 0.146738 -0.043165 0.795396 0.242496 -0.10946 0.223248 0.00212678 -0.116532 0.269557 -0.500504 1.05267 0.487858 0.0161305 -0.267198 -0.0285811 -0.0336322 -0.300115 0.0796373 -0.425314 0.0176162 -0.000936764 0.071885 0.00432075 0.0119937 0.24047 -0.103748 -0.0326028 0.0202134 -0.0454889 -0.19614 0.294639 0.296759 -0.150023 -0.336646 0.254771 -0.324413 -0.119406 -0.0506211 0.00331999 -0.300259 -0.268192 -0.35515 0.0748292 0.658952 -0.209832 -0.200859 0.0199447 -0.266412 0.589613 0.307841 -0.203571 0.484987 1.9873 -0.303974 -0.586084 -0.183533 0.839167 -0.744637 0.350872 -1.37981 0.0413633 1.02591 0.151307 0.453038
212 0.0450851 0.0280062 0.737614 0.200924 -0.111034 0.24601 -0.0378087 -0.0447224 0.1763 -0.448697 0.891935 0.419665 0.00548737 -0.252561 -0.039084 -0.0659956 -0.283629 0.0838392 -0.429877 0.0676592 -0.0751333 0.125051 -0.0494905 0.124358 0.2208 -0.108114 -0.0544803 -0.00169559 -0.0985953 -0.230412 0.365167 0.382625 -0.0946259 -0.303524 0.247288 -0.362455 -0.0849263 -0.0690634 -0.0188642 -0.316831 -0.265845 -0.433982 0.0933862 0.633833 -0.224881 -0.217697 0.0135021 -0.341084 0.598851 0.361355 -0.198768 0.528915 1.98451 -0.259535 -0.541003 -0.238086 0.838855 -0.752794 0.421157 -1.37898 0.0327939 0.994203 0.107147 0.366569
247 0.1786 0.0231055 0.888903 0.246127 -0.123222 0.260852 -0.0208644 -0.0927945 0.237629 -0.491105 0.961399 0.402206 0.00723734 -0.236063 -0.00888371 -0.0533488 -0.247291 0.122604 -0.435856 0.120929 -0.098189 0.149341 -0.0316101 0.119745 0.288547 -0.112635 -0.0433984 -0.036235 -0.110283 -0.205255 0.356515 0.317596 -0.0664585 -0.302559 0.227295 -0.28557 -0.105755 -0.072765 0.00689882 -0.285718 -0.25842 -0.412083 0.0914758 0.659938 -0.223796 -0.171377 0.0320663 -0.324076 0.585497 0.397657 -0.218908 0.541834 2.09573 -0.249393 -0.547457 -0.184787 0.865381 -0.785757 0.416545 -1.3843 -0.0045271 0.98596 0.0826251 0.339115
73 -0.0984484 0.0383645 0.698596 0.295359 -0.0452803 0.233927 -0.0363418 0.00601918 0.121771 -0.487962 0.899488 0.402482 -0.0158636 -0.362933 -0.11411 -0.209097 -0.367522 0.142148 -0.559415 0.0993699 -0.185896 0.190632 -0.0788134 0.116661 0.227553 -0.151348 -0.168752 0.0520812 -0.146382 -0.27007 0.339981 0.459115 -0.150743 -0.271361 0.293164 -0.451457 0.0115378 -0.211184 -0.082799 -0.381692 -0.266295 -0.451868 0.114388 0.545211 -0.163626 -0.343273 0.0449353 -0.382258 0.664704 0.434139 -0.179933 0.565162 2.02544 -0.27366 -0.557395 -0.373248 0.818654 -0.805272 0.475688 -1.42919 0.110614 0.92176 0.0948646 0.303562
48 0.193389 -0.145508 0.759322 0.213583 -0.0066298 0.117072 -0.0821442 -0.125065 0.12361 -0.503838 0.811456 0.422331 0.0394597 -0.293449 -0.0312947 -0.107051 -0.395806 0.0471949 -0.465884 0.0655922 -0.0218728 0.183806 -0.021199 0.0213322 0.244201 -0.200497 -0.151758 0.134162 -0.0296808 -0.227401 0.248777 0.404624 -0.292824 -0.296103 0.380996 -0.496184 -0.035413 -0.139472 0.090881 -0.443858 -0.278858 -0.331897 0.200269 0.648845 -0.052005 -0.182365 -0.0162316 -0.205705 0.686943 0.423913 -0.206309 0.561922 1.94056 -0.223967 -0.508362 -0.394248 0.82954 -0.836813 0.338931 -1.49388 0.13778 1.03895 0.104001 0.477972
90 0.16739 -0.139666 0.904629 0.248845 -0.0581865 0.212234 -0.0676746 -0.107599 0.165845 -0.510323 0.960966 0.467322 0.0465947 -0.301056 -0.0215949 -0.0621619 -0.349399 0.050828 -0.46782 0.0166547 -0.0108226 0.134159 -0.0254553 0.0343484 0.21505 -0.132319 -0.107405 0.0980014 0.00152314 -0.239175 0.265835 0.374267 -0.258551 -0.32599 0.338128 -0.50044 -0.0712808 -0.0875781 0.0495981 -0.396261 -0.296867 -0.352426 0.171297 0.745602 -0.0904166 -0.208772 -0.0151451 -0.278918 0.708566 0.407281 -0.236873 0.573654 2.004 -0.267346 -0.592961 -0.341742 0.864486 -0.856219 0.340035 -1.50505 0.115057 1.08463 0.117142 0.500681
194 0.16954 -0.0668604 0.824434 0.238905 -0.0532658 0.13603 -0.086258 -0.131053 0.201175 -0.491124 0.863393 0.319363 0.00642658 -0.26576 -0.00655013 -0.19527 -0.239952 0.114055 -0.40756 0.116576 -0.202974 0.271319 -0.0549391 0.0621704 0.208533 -0.124998 -0.0378771 0.0604541 -0.140052 -0.0934768 0.251307 0.311013 -0.18121 -0.230013 0.272694 -0.326697 -0.00920119 -0.222824 0.164742 -0.295866 -0.20703 -0.25428 0.15905 0.561882 -0.107153 -0.166976 0.0995812 -0.225143 0.503818 0.433467 -0.145716 0.589943 1.88511 -0.148902 -0.411937 -0.2805 0.839298 -0.722189 0.452321 -1.27793 0.085913 1.00073 0.0692087 0.230877
82 0.294859 -0.154981 0.791396 0.193025 -0.0611286 0.16609 -0.0660653 -0.182975 0.297429 -0.530874 1.02072 0.454267 0.0335882 -0.308166 0.0255604 -0.0762075 -0.342061 0.0613654 -0.4852 0.0291785 -0.0177438 0.127943 0.000694847 -0.00527286 0.225447 -0.0913619 -0.0185205 0.114317 0.0391197 -0.110624 0.290257 0.330562 -0.302454 -0.320915 0.329365 -0.465191 -0.147952 -0.0755382 0.14844 -0.463001 -0.354118 -0.397037 0.18253 0.847747 -0.145134 -0.151752 0.0298506 -0.216271 0.67751 0.41423 -0.253892 0.540396 1.94962 -0.259033 -0.594178 -0.199419 0.835872 -0.789508 0.323277 -1.44567 0.0498835 1.08834 0.127699 0.477091
284 0.202417 -0.103613 0.652679 0.161032 -0.0144421 0.121145 -0.0651185 -0.126847 0.151181 -0.444188 0.804286 0.363403 0.0560172 -0.252804 -0.0334612 -0.0819198 -0.282386 0.040297 -0.411451 0.0696315 -0.0665373 0.124063 -0.0353517 0.02996 0.252641 -0.137771 -0.0889402 0.0874568 -0.0334694 -0.185656 0.289792 0.347492 -0.174422 -0.276174 0.282902 -0.389988 -0.05182 -0.082466 0.092815 -0.356494 -0.269767 -0.367215 0.155347 0.643605 -0.10966 -0.109111 0.00662242 -0.2044 0.556307 0.361034 -0.204559 0.497681 1.73474 -0.188174 -0.469526 -0.292971 0.772494 -0.726685 0.318105 -1.29973 0.0877583 0.94262 0.0803234 0.409528
274 0.241699 -0.183367 0.799122 0.157652 -0.0242966 0.125654 -0.0645407 -0.163668 0.239511 -0.530082 0.982166 0.430862 0.0523113 -0.297591 0.0362775 -0.0688348 -0.3568 0.0650455 -0.48948 0.0561888 -0.0306013 0.18931 -0.00809284 0.0117806 0.25218 -0.13334 -0.0747439 0.0993469 0.000314273 -0.146782 0.271786 0.334474 -0.242702 -0.293111 0.312359 -0.414214 -0.0597262 -0.0906351 0.177998 -0.432043 -0.341839 -0.382107 0.185443 0.774194 -0.100314 -0.118613 0.029764 -0.207607 0.649273 0.431611 -0.246214 0.52846 1.96744 -0.23119 -0.52776 -0.265578 0.85448 -0.813363 0.333782 -1.43785 0.0843664 1.10262 0.113744 0.458265
83 -0.161473 0.146517 0.79005 0.311028 -0.212053 0.328677 -0.0593294 0.0237612 0.281337 -0.457952 1.08209 0.366029 -0.0632879 -0.325352 -0.0784582 -0.208007 -0.24724 0.183394 -0.609157 0.0675418 -0.223679 0.109912 -0.0399227 0.147221 0.0757695 -0.0256435 -0.00646513 -0.0394399 -0.0499421 -0.218222 0.355445 0.254093 -0.0498971 -0.245038 0.278899 -0.423327 -0.0948196 -0.11159 -0.117317 -0.303505 -0.270312 -0.446617 -0.00255589 0.591473 -0.3131 -0.289153 0.0616253 -0.381605 0.603035 0.45329 -0.217142 0.579939 1.96769 -0.333585 -0.624598 -0.102786 0.822366 -0.763898 0.577874 -1.39902 -0.000390182 0.867838 0.108498 0.243042
107 0.272361 0.0349693 0.695224 0.205769 -0.0508131 0.194962 -0.0542687 -0.107222 0.179431 -0.493976 0.892344 0.359841 0.0503577 -0.292007 -0.0790631 -0.127854 -0.299907 0.0317437 -0.504038 0.116696 -0.115982 0.12753 -0.0812595 0.107091 0.333678 -0.153521 -0.102769 0.108601 -0.0627167 -0.253082 0.452953 0.473591 -0.140136 -0.32335 0.321036 -0.437158 -0.065069 -0.0892003 0.00553084 -0.383834 -0.289176 -0.503505 0.12664 0.602899 -0.235758 -0.167167 0.015067 -0.2617 0.581296 0.364425 -0.239852 0.50155 1.94569 -0.244786 -0.552052 -0.341434 0.865304 -0.749894 0.389326 -1.40391 0.029709 0.954328 0.0669598 0.411363
41 0.0608013 0.0255252 0.82715 0.288436 -0.0855258 0.180553 -0.0630924 -0.0452844 0.197551 -0.451408 0.833664 0.326466 -0.0525265 -0.292071 -0.0612609 -0.204976 -0.280662 0.153606 -0.524153 0.126603 -0.191573 0.245213 -0.0336296 0.0736461 0.138024 -0.111915 -0.101031 0.0463678 -0.116357 -0.13572 0.24374 0.312852 -0.183756 -0.241258 0.314251 -0.378489 -0.00400434 -0.199796 0.00986245 -0.327146 -0.218428 -0.292697 0.112111 0.52442 -0.1383 -0.272974 0.0616355 -0.298521 0.586348 0.435432 -0.149277 0.578654 1.99639 -0.206278 -0.497991 -0.252013 0.81141 -0.761111 0.472967 -1.32177 0.0685853 0.912259 0.0946835 0.248075
282 0.0214783 -0.0787165 0.928268 0.318351 -0.0842419 0.263928 -0.0208628 -0.0412995 0.139726 -0.457902 0.897836 0.507019 0.00507124 -0.237182 -0.0132446 0.0143601 -0.351097 0.0839624 -0.358138 -0.00782384 0.0435826 0.0713069 0.0227788 -0.0220907 0.155446 -0.110513 -0.13272 0.033792 0.011056 -0.270276 0.171712 0.310824 -0.196608 -0.274777 0.227398 -0.403034 -0.0486832 -0.0630883 -0.0750155 -0.308575 -0.207859 -0.237485 0.0857986 0.55979 -0.0901027 -0.27815 -0.0748085 -0.297269 0.647293 0.266525 -0.241548 0.461967 1.89671 -0.290448 -0.608037 -0.281434 0.721876 -0.728153 0.274602 -1.35338 0.0891478 0.86235 0.150517 0.49296
209 0.120173 0.0975332 0.643802 0.228744 -0.104444 0.231283 -0.0130884 -0.0764581 0.192418 -0.432681 0.875412 0.383133 0.00271483 -0.255157 -0.122772 -0.141817 -0.319049 0.073894 -0.454929 0.0570932 -0.109687 0.08335 -0.0616362 0.0868696 0.211133 -0.10137 -0.0815256 0.0852226 -0.0582543 -0.242342 0.371615 0.412694 -0.138757 -0.290479 0.269651 -0.396278 -0.0875684 -0.0800988 -0.079472 -0.254443 -0.231694 -0.408189 0.0699765 0.486916 -0.281127 -0.29291 -0.000344553 -0.328827 0.57717 0.3084 -0.218859 0.56325 1.93806 -0.290779 -0.586074 -0.280142 0.824795 -0.736552 0.40709 -1.38921 0.0224648 0.8933 0.125811 0.363137
21 0.242774 0.21977 0.441112 0.121878 -0.202983 0.287129 0.0275509 -0.116331 0.292563 -0.385891 1.06911 0.351113 0.0187589 -0.207315 -0.166766 -0.191973 -0.2246 0.101417 -0.527507 0.0740502 -0.199613 0.0278207 -0.131294 0.196901 0.244305 -0.100364 0.0312702 0.0211573 -0.0768837 -0.230232 0.588589 0.440937 -0.0675254 -0.348907 0.314304 -0.398492 -0.221263 -0.0199322 -0.0712367 -0.198693 -0.305976 -0.556605 0.00441705 0.513382 -0.48053 -0.222676 0.0140756 -0.367062 0.588591 0.352356 -0.221922 0.719813 2.07092 -0.31038 -0.621596 -0.180053 0.948615 -0.792268 0.501546 -1.49964 -0.0550326 0.956966 0.0857916 0.325469
220 0.320979 0.125426 0.647731 0.197533 -0.127695 0.231026 -0.0193366 -0.124197 0.272241 -0.460285 0.954509 0.341663 0.00837883 -0.272881 -0.123635 -0.212685 -0.257835 0.111242 -0.559949 0.123922 -0.210116 0.169143 -0.10754 0.159981 0.260755 -0.148615 -0.0358312 0.0464387 -0.165535 -0.182248 0.529046 0.485811 -0.144859 -0.372698 0.350244 -0.438144 -0.14146 -0.139779 0.0209121 -0.340819 -0.301446 -0.512587 0.104477 0.603186 -0.308452 -0.214995 0.0405167 -0.347974 0.587121 0.391523 -0.166567 0.625579 1.95868 -0.215785 -0.515826 -0.239134 0.867145 -0.765125 0.449173 -1.36522 0.00205734 0.959571 0.0900524 0.2665
202 -0.0182642 0.15987 0.604192 0.234401 -0.149489 0.266543 -0.0134732 -0.0301389 0.224542 -0.370657 0.944225 0.367323 -0.00833012 -0.242813 -0.110529 -0.144171 -0.22933 0.109 -0.488565 0.0364911 -0.128644 0.036081 -0.0641505 0.116668 0.131258 -0.0606676 -0.021659 0.0247699 -0.0270676 -0.228347 0.377006 0.307753 -0.0836107 -0.246656 0.249203 -0.374369 -0.12906 -0.0515586 -0.121423 -0.183875 -0.224815 -0.393929 0.00644292 0.450186 -0.321607 -0.284789 0.00663499 -0.331895 0.53906 0.316915 -0.220764 0.570186 1.87394 -0.297564 -0.592934 -0.165249 0.775937 -0.707416 0.452057 -1.32022 -0.0111203 0.824004 0.092438 0.294634
249 0.0710336 0.167791 0.564177 0.23112 -0.139312 0.268074 -0.0239323 -0.041484 0.243328 -0.396213 0.966934 0.338419 -0.000582071 -0.253089 -0.103202 -0.184895 -0.235412 0.119378 -0.528566 0.0748777 -0.176486 0.0891814 -0.0750283 0.145244 0.173837 -0.0762647 -0.0223379 -0.00497862 -0.046227 -0.218704 0.448387 0.359392 -0.086945 -0.2523 0.275969 -0.355134 -0.127016 -0.0876472 -0.080938 -0.24569 -0.268252 -0.459076 0.0224623 0.526883 -0.327529 -0.224911 0.0290453 -0.338667 0.50419 0.342351 -0.214081 0.526337 1.70276 -0.266604 -0.556594 -0.160785 0.72552 -0.636818 0.433701 -1.17947 -0.0241362 0.783513 0.0688875 0.259255
204 -0.0395597 0.140708 0.77612 0.425775 -0.101851 0.2651 -0.0139959 0.00900651 0.230377 -0.509194 0.983647 0.377232 -0.036189 -0.391323 -0.102575 -0.231925 -0.327364 0.22845 -0.55805 0.0912048 -0.241534 0.173482 -0.0322761 0.0412786 0.158112 -0.0664734 -0.0979726 0.0260836 -0.110841 -0.107155 0.331094 0.380064 -0.201988 -0.291691 0.280542 -0.38325 -0.0634924 -0.272543 -0.093319 -0.346092 -0.272679 -0.413551 0.0330459 0.500938 -0.254612 -0.410385 0.0504733 -0.43485 0.572023 0.378568 -0.174394 0.576795 2.07638 -0.313949 -0.663451 -0.260562 0.771391 -0.764156 0.517445 -1.32797 0.0344651 0.806678 0.140347 0.220393
87 0.0631462 0.122976 0.702545 0.347875 -0.0954266 0.259279 -0.035687 -0.0212683 0.214552 -0.496526 0.999858 0.404668 0.00970391 -0.393694 -0.120911 -0.196291 -0.324894 0.146304 -0.560188 0.0939568 -0.204945 0.154414 -0.055127 0.084944 0.21668 -0.109851 -0.107529 0.0594027 -0.11835 -0.203091 0.413006 0.468671 -0.159972 -0.303711 0.312128 -0.415568 -0.0426084 -0.165879 -0.0832294 -0.331895 -0.264963 -0.479845 0.0796052 0.561701 -0.275635 -0.316868 -0.000695772 -0.371513 0.555657 0.334783 -0.147828 0.53548 1.92449 -0.282959 -0.59343 -0.287166 0.775952 -0.736914 0.485105 -1.39404 0.0505747 0.876164 0.149777 0.292824
18 0.0624843 0.204593 0.605544 0.418128 -0.0609409 0.162386 -0.0136119 -0.0353158 0.237582 -0.474274 0.851938 0.289923 -0.0202798 -0.356042 -0.174529 -0.32104 -0.231391 0.254283 -0.411675 0.135642 -0.332775 0.225446 -0.0543522 -0.0517144 0.181883 -0.114385 -0.129698 0.0124923 -0.223783 -0.0439922 0.273682 0.369384 -0.174005 -0.288876 0.244594 -0.284647 -0.026766 -0.350384 -0.101617 -0.23304 -0.198324 -0.355562 0.063189 0.350737 -0.286755 -0.426511 0.0869256 -0.419175 0.55863 0.412422 -0.0879466 0.636311 2.16062 -0.246999 -0.627462 -0.358925 0.882563 -0.86113 0.560327 -1.40523 0.0463591 0.864702 0.157459 0.203387
248 -0.119142 0.110596 0.628656 0.337707 -0.0576007 0.207699 -0.0297708 0.0291297 0.159837 -0.461055 0.839711 0.359105 -0.024322 -0.347294 -0.0990096 -0.21227 -0.2897 0.171453 -0.494275 0.0927478 -0.180938 0.16928 -0.0234698 0.0618795 0.159484 -0.0966302 -0.123743 0.0338553 -0.119673 -0.170749 0.285307 0.375701 -0.156213 -0.240631 0.263958 -0.374321 -0.0150691 -0.224979 -0.101419 -0.299455 -0.234092 -0.379832 0.0721799 0.43413 -0.225782 -0.37891 0.0487887 -0.387083 0.572641 0.359243 -0.141611 0.522358 1.93652 -0.274995 -0.578265 -0.315172 0.758256 -0.775644 0.488816 -1.33511 0.0459479 0.836468 0.117825 0.255801
245 0.0782145 0.0758443 0.731448 0.335495 -0.0521594 0.214103 -0.0402911 -0.0575974 0.217568 -0.533673 0.916279 0.376768 -0.00807293 -0.384568 -0.0882109 -0.206897 -0.316603 0.150865 -0.519922 0.127448 -0.181308 0.212942 -0.0419212 0.0427895 0.230284 -0.127069 -0.130436 0.061248 -0.109054 -0.166294 0.333648 0.425826 -0.19003 -0.293292 0.321761 -0.385791 -0.0468361 -0.231116 -0.0444626 -0.373326 -0.273041 -0.439765 0.102581 0.572129 -0.246849 -0.348251 0.0318023 -0.384476 0.636089 0.422242 -0.166034 0.577763 2.14408 -0.261768 -0.611326 -0.342991 0.849458 -0.838525 0.488325 -1.48405 0.0462556 0.943693 0.133391 0.323736
207 0.148659 0.0781471 0.805724 0.320907 -0.060106 0.204474 -0.038623 -0.0778362 0.240824 -0.524405 0.941868 0.354477 0.0100648 -0.347229 -0.0872198 -0.20577 -0.267012 0.141458 -0.488806 0.131191 -0.233663 0.22585 -0.0541488 0.0628381 0.232395 -0.112118 -0.0893159 0.0422721 -0.148852 -0.112267 0.322996 0.372362 -0.149045 -0.282923 0.261424 -0.328599 -0.0440951 -0.214391 -0.00244978 -0.283438 -0.2448 -0.391689 0.114405 0.525337 -0.229015 -0.276242 0.0699665 -0.360011 0.559399 0.407674 -0.15453 0.55943 2.11186 -0.227695 -0.558255 -0.318152 0.872483 -0.808311 0.509591 -1.40319 0.0369105 0.958532 0.109997 0.252611
273 0.162424 -0.0978818 0.725801 0.176322 -0.0360904 0.159548 -0.0828204 -0.153318 0.235593 -0.477867 0.83913 0.328751 0.0237843 -0.288076 -0.000268454 -0.145317 -0.250126 0.0592934 -0.438918 0.0694191 -0.13535 0.217848 -0.0156682 0.051616 0.203227 -0.0914721 -0.033581 0.0657831 -0.0828061 -0.0920182 0.2899 0.342237 -0.19675 -0.315626 0.314823 -0.395438 -0.0581659 -0.143068 0.151756 -0.370878 -0.269814 -0.367637 0.179321 0.742517 -0.155645 -0.127465 0.0604957 -0.220634 0.556741 0.435742 -0.164756 0.546743 1.93242 -0.192248 -0.500331 -0.288893 0.911152 -0.798137 0.473278 -1.43892 0.0706192 1.12629 0.105307 0.324129
235 0.358861 0.00646747 0.602076 0.180934 -0.0497199 0.141578 -0.0660489 -0.140814 0.184129 -0.431723 0.782839 0.311182 0.0451768 -0.276866 -0.0776038 -0.166653 -0.299237 0.0705802 -0.441807 0.125904 -0.155239 0.208418 -0.0897036 0.0911361 0.306992 -0.158538 -0.0968171 0.099638 -0.10547 -0.198626 0.454543 0.500911 -0.182446 -0.339964 0.339141 -0.400433 -0.0623166 -0.126751 0.0399492 -0.399427 -0.281178 -0.451967 0.163928 0.582467 -0.199536 -0.151631 0.0146212 -0.245295 0.555238 0.38541 -0.168727 0.511288 1.7258 -0.186898 -0.455741 -0.304795 0.778557 -0.696914 0.359816 -1.26513 0.0381981 0.862343 0.0844576 0.342347
1 0.36258 0.128516 0.448642 0.0408589 -0.124536 0.21263 0.0478903 -0.217641 0.307754 -0.456145 0.910599 0.244189 0.0351456 -0.16505 -0.0739373 -0.139438 -0.187392 0.0827545 -0.505596 0.147096 -0.222311 0.134182 -0.136763 0.210086 0.337899 -0.082863 0.0571565 0.0111436 -0.163889 -0.113656 0.572803 0.447922 -0.0554283 -0.339012 0.306742 -0.298454 -0.216793 -0.0946907 0.0871909 -0.169833 -0.282315 -0.520962 0.0748256 0.542509 -0.431569 -0.131378 0.0513414 -0.315666 0.487632 0.403192 -0.207849 0.686042 2.20255 -0.236535 -0.524967 -0.172117 0.961205 -0.745006 0.503605 -1.46571 -0.0953146 1.01015 0.0447337 0.22216
106 0.234046 0.0977776 0.550701 0.104091 -0.171921 0.259721 0.00346364 -0.160972 0.348677 -0.527523 1.05167 0.3326 -0.000467326 -0.299886 -0.101426 -0.211961 -0.274412 0.0710956 -0.631439 0.108418 -0.216418 0.150096 -0.0648331 0.174542 0.17044 -0.0518875 0.0582001 0.0652975 -0.148324 -0.0722402 0.473644 0.374679 -0.110643 -0.313264 0.312934 -0.367672 -0.169204 -0.10547 0.0978739 -0.275168 -0.281352 -0.501908 0.0642471 0.585068 -0.386879 -0.176917 0.0895726 -0.304043 0.541171 0.386499 -0.120963 0.61884 1.99733 -0.238521 -0.497163 -0.151949 0.924378 -0.767385 0.546386 -1.45003 -0.0104762 1.11515 0.108782 0.212702
177 0.0625039 0.12429 0.595453 0.180965 -0.170364 0.273647 0.00682164 -0.094431 0.311153 -0.491143 0.983143 0.308913 -0.0364715 -0.324034 -0.0759893 -0.210451 -0.252171 0.117028 -0.637932 0.113851 -0.205252 0.165281 -0.0476486 0.175498 0.13177 -0.028489 0.0408171 0.0146699 -0.149728 -0.0653406 0.394171 0.316781 -0.0868018 -0.262667 0.279553 -0.347522 -0.112834 -0.144709 0.0460444 -0.285504 -0.261365 -0.457308 0.0420662 0.533382 -0.340248 -0.253316 0.0954552 -0.336038 0.49524 0.392908 -0.117651 0.556871 1.8361 -0.242858 -0.481813 -0.111026 0.777862 -0.683483 0.51958 -1.26608 -0.0133495 0.928471 0.0908393 0.142147
23 0.231133 -0.045874 0.862034 0.287387 -0.102223 0.225661 -0.01981 -0.144733 0.367146 -0.555539 1.11858 0.438794 0.02985 -0.300091 0.0167046 -0.0711646 -0.304958 0.127012 -0.486183 0.0208535 -0.0533585 0.0959514 0.0066423 -0.0328906 0.204433 -0.0440181 -0.0224358 0.0645951 0.0803684 -0.0730096 0.263019 0.24008 -0.253545 -0.255811 0.24168 -0.350703 -0.19044 -0.0868802 0.0550011 -0.376065 -0.351585 -0.396126 0.0753957 0.699387 -0.237655 -0.218877 0.0291233 -0.279824 0.661686 0.419826 -0.281593 0.540288 2.03894 -0.350621 -0.672601 -0.122633 0.799631 -0.758614 0.317053 -1.3559 0.00110297 1.00748 0.154131 0.435626
269 0.201878 0.0329677 0.685364 0.240713 -0.0818907 0.192694 -0.0657126 -0.0939199 0.187323 -0.487927 0.924005 0.375857 0.0150788 -0.325736 -0.100229 -0.189414 -0.345651 0.0804849 -0.523113 0.0986148 -0.14473 0.186771 -0.0668613 0.0744484 0.219568 -0.14477 -0.0826622 0.0848635 -0.105558 -0.230009 0.404575 0.462194 -0.152889 -0.307752 0.336811 -0.434995 -0.0515275 -0.137385 -0.015058 -0.383553 -0.278721 -0.480623 0.119369 0.614415 -0.231281 -0.239697 0.0227835 -0.321299 0.621624 0.409718 -0.16213 0.568833 1.95243 -0.243296 -0.554793 -0.329789 0.859824 -0.788715 0.447181 -1.45406 0.0712043 0.959808 0.131627 0.360594
183 0.221757 0.0487906 0.602262 0.252375 -0.07623 0.172916 -0.0717418 -0.115062 0.20305 -0.473065 0.913689 0.384379 0.0221 -0.356117 -0.133783 -0.196165 -0.36988 0.0716777 -0.510988 0.0918373 -0.151947 0.177465 -0.0645223 0.0382369 0.201597 -0.133227 -0.0865879 0.12145 -0.0895126 -0.203607 0.415414 0.477466 -0.182501 -0.336249 0.361329 -0.438398 -0.0551806 -0.127799 -0.0247347 -0.390628 -0.272452 -0.47108 0.102903 0.538954 -0.255373 -0.265868 0.000206343 -0.328946 0.63382 0.389244 -0.141916 0.573348 1.90098 -0.251269 -0.560972 -0.322878 0.831604 -0.74129 0.41503 -1.40253 0.0744872 0.932026 0.165372 0.387005
242 0.348351 0.0597965 0.691358 0.204128 -0.114559 0.212912 -0.0727797 -0.1636 0.251366 -0.510841 1.01864 0.387503 0.0476851 -0.315794 -0.114867 -0.173684 -0.304684 0.0374281 -0.498272 0.0955054 -0.175567 0.167074 -0.0789084 0.0690117 0.210341 -0.126436 -0.0179061 0.0958615 -0.128342 -0.201175 0.395481 0.412406 -0.104598 -0.32503 0.313395 -0.40848 -0.0862402 -0.083275 -0.00037757 -0.293623 -0.235156 -0.451646 0.122055 0.550433 -0.272509 -0.171253 0.0136418 -0.266406 0.541671 0.34434 -0.126565 0.545762 1.84281 -0.214467 -0.51457 -0.283271 0.892236 -0.759446 0.45553 -1.43564 0.0560064 0.977271 0.143917 0.343806
42 0.183194 -0.011771 0.771407 0.233194 -0.136109 0.240053 -0.0321894 -0.13819 0.338161 -0.52529 1.1907 0.48619 0.0400248 -0.331064 -0.0302755 -0.0833696 -0.313768 0.0556979 -0.5179 0.00152871 -0.05901 0.119576 -0.0102265 0.0239826 0.240141 -0.0806964 0.000350756 0.0592052 -0.0514688 -0.170444 0.338806 0.315347 -0.170815 -0.333213 0.289226 -0.391689 -0.112705 -0.0244837 0.0277547 -0.279497 -0.266854 -0.375305 0.0903446 0.667551 -0.24736 -0.16517 -0.00894327 -0.256153 0.573767 0.33868 -0.183956 0.483761 1.94364 -0.292398 -0.566005 -0.151594 0.870283 -0.74182 0.392496 -1.40259 0.0503366 1.10231 0.188976 0.435567
147 0.173408 0.0116325 0.763681 0.270572 -0.0930193 0.254321 -0.0296509 -0.101388 0.281302 -0.492513 1.03452 0.440758 0.0270068 -0.323121 -0.0489974 -0.106236 -0.351861 0.114658 -0.527829 0.0333477 -0.0915245 0.127222 -0.0102283 0.0279714 0.253672 -0.0784723 -0.0376798 0.0601823 -0.0347335 -0.170675 0.385815 0.405524 -0.211986 -0.384461 0.32069 -0.42212 -0.151168 -0.0897014 -0.00177463 -0.355233 -0.31817 -0.450264 0.079144 0.707876 -0.280544 -0.225766 -0.0123841 -0.318537 0.609202 0.352632 -0.203492 0.516766 1.88878 -0.304364 -0.628916 -0.193843 0.818318 -0.731873 0.409265 -1.38286 0.0214963 0.955901 0.183069 0.400587
258 0.149023 -0.0238407 0.714892 0.181918 -0.0692993 0.183712 -0.0380575 -0.140172 0.261018 -0.514153 0.969017 0.398513 0.0241361 -0.310191 -0.0255478 -0.155757 -0.321995 0.109664 -0.510258 0.0809958 -0.126368 0.194607 -0.0272311 0.0618012 0.245122 -0.104273 -0.0425788 0.0554945 -0.0721062 -0.127014 0.327673 0.361468 -0.2055 -0.295313 0.30021 -0.358792 -0.111896 -0.12245 0.0858481 -0.329842 -0.293068 -0.381354 0.126633 0.652736 -0.206927 -0.167794 0.0396588 -0.275888 0.559956 0.394834 -0.183013 0.545799 2.02282 -0.223724 -0.539966 -0.229677 0.88722 -0.778038 0.427328 -1.42454 0.0298579 1.04895 0.113904 0.359538
145 -0.000687503 0.0901669 0.676409 0.26988 -0.0622149 0.182025 -0.0193812 -0.0631106 0.226222 -0.475261 0.833555 0.27883 -0.0219791 -0.318534 -0.0537495 -0.209384 -0.201426 0.177462 -0.461539 0.13835 -0.246264 0.248716 -0.05098 0.0773955 0.211873 -0.0867008 -0.0631522 -0.0145993 -0.191555 -0.0632243 0.275128 0.288489 -0.122922 -0.235036 0.234868 -0.266498 -0.0225697 -0.253438 0.0353615 -0.217222 -0.211072 -0.301583 0.107529 0.458674 -0.223201 -0.251541 0.112518 -0.348299 0.518172 0.43745 -0.138984 0.573294 2.07132 -0.20739 -0.506175 -0.266682 0.865198 -0.799997 0.544477 -1.33568 0.0181339 0.975789 0.0714891 0.176777
149 -0.106602 0.119158 0.762093 0.377917 -0.0598881 0.210029 -0.0367116 -0.0277889 0.270847 -0.54392 0.976131 0.33412 -0.0369688 -0.385418 -0.0782544 -0.244244 -0.211623 0.204229 -0.463479 0.135519 -0.26207 0.248336 -0.0119161 0.0223225 0.130141 -0.0692906 -0.0627718 0.0109361 -0.197861 -0.0207709 0.186827 0.246786 -0.152731 -0.198092 0.224488 -0.252577 0.00840026 -0.311242 -0.0212699 -0.217437 -0.179675 -0.263914 0.0573678 0.369471 -0.224534 -0.354064 0.124697 -0.376543 0.466932 0.37921 -0.0956145 0.546914 2.10482 -0.244048 -0.528832 -0.292031 0.822897 -0.794259 0.563215 -1.33045 0.0443411 0.947789 0.10816 0.145708
251 0.166449 -0.0444307 0.653379 0.123499 -0.0512309 0.129563 -0.0816262 -0.152866 0.21043 -0.498163 0.818046 0.30202 -0.00172203 -0.306621 -0.0131695 -0.199007 -0.251152 0.0234534 -0.500254 0.136746 -0.182932 0.266082 -0.0563468 0.164213 0.216349 -0.113124 -0.0282276 0.0729125 -0.185479 -0.11537 0.354987 0.385667 -0.134653 -0.258092 0.326309 -0.368432 -0.0211224 -0.152172 0.167557 -0.321628 -0.231753 -0.389021 0.194299 0.64496 -0.180793 -0.0945343 0.0941791 -0.223968 0.530974 0.448406 -0.10305 0.567232 1.86783 -0.129594 -0.351632 -0.3017 0.871301 -0.763496 0.513834 -1.37681 0.0967151 1.0865 0.0523718 0.21576
4 0.151999 -0.0169934 0.623082 0.0563632 -0.0864214 0.162272 -0.103502 -0.171619 0.212498 -0.54645 0.968789 0.3548 0.0382401 -0.34103 -0.0484681 -0.189078 -0.262005 -0.0107999 -0.577746 0.163957 -0.190455 0.206982 -0.0671553 0.182844 0.252747 -0.129949 0.00838633 0.128337 -0.182464 -0.153876 0.375985 0.372037 -0.0672458 -0.253454 0.346807 -0.402972 0.00923227 -0.103249 0.208932 -0.30723 -0.237142 -0.442912 0.171563 0.570438 -0.217429 -0.0453206 0.112785 -0.157565 0.470666 0.437274 -0.0974258 0.55712 1.82373 -0.133876 -0.37819 -0.305303 0.966242 -0.792732 0.54356 -1.48666 0.115936 1.26415 0.0632978 0.265317
69 -0.0521322 0.0643013 0.753626 0.340182 -0.0555838 0.208885 -0.113767 0.0054499 0.060536 -0.478508 0.853566 0.390223 0.00472462 -0.4222 -0.127688 -0.252322 -0.36412 0.0993178 -0.557362 0.0863131 -0.201089 0.215447 -0.0682152 0.118419 0.176162 -0.115839 -0.139929 0.084775 -0.151152 -0.249246 0.326263 0.459465 -0.145373 -0.251801 0.329498 -0.486373 0.0567753 -0.223616 -0.057669 -0.352753 -0.248452 -0.444542 0.162709 0.555696 -0.147315 -0.296888 0.0313904 -0.323413 0.52512 0.371077 -0.104873 0.513683 1.81195 -0.197381 -0.503982 -0.425991 0.816171 -0.783957 0.555339 -1.47674 0.139034 0.907294 0.106924 0.260554
123 -0.179888 0.00446377 0.703093 0.281477 -0.0465919 0.211495 -0.0774884 0.0387008 0.0332263 -0.392841 0.747384 0.389983 -0.00623514 -0.309787 -0.07236 -0.134547 -0.349986 0.0676563 -0.476546 0.0264381 -0.0717787 0.144978 -0.0276734 0.0879362 0.137102 -0.109377 -0.169692 0.0624647 -0.041132 -0.270717 0.25779 0.403526 -0.198739 -0.239675 0.304246 -0.477546 0.0208972 -0.16384 -0.0488433 -0.37985 -0.270035 -0.393771 0.134273 0.585331 -0.10807 -0.299431 0.00678905 -0.331968 0.623265 0.379067 -0.186824 0.547447 1.91251 -0.249086 -0.599716 -0.406336 0.817366 -0.808858 0.460439 -1.48239 0.136966 0.93318 0.107891 0.38767
193 0.199728 0.00849315 0.623496 0.0791899 -0.0948924 0.182422 -0.0311433 -0.154465 0.220509 -0.487148 0.919109 0.348077 0.0372948 -0.230254 -0.0298089 -0.111566 -0.220109 0.050513 -0.417043 0.136333 -0.153827 0.197409 -0.0876441 0.159717 0.253277 -0.121592 -0.00210653 0.0112243 -0.184203 -0.154314 0.401638 0.377039 -0.0633339 -0.300757 0.277194 -0.29811 -0.0794484 -0.107058 0.103127 -0.252372 -0.233078 -0.38918 0.12965 0.565803 -0.251925 -0.088278 0.0579677 -0.256317 0.514412 0.404707 -0.127598 0.58438 2.03961 -0.155389 -0.440745 -0.265963 0.937678 -0.773872 0.478253 -1.44743 0.0236856 1.05357 0.0503841 0.248424
286 0.196142 -0.0546991 0.687006 0.258731 -0.0807859 0.172963 -0.0587592 -0.143643 0.305051 -0.506233 1.02543 0.417026 0.037234 -0.352715 -0.0287045 -0.107651 -0.358438 0.0785065 -0.498852 0.040093 -0.0772427 0.14331 0.0206439 -0.0169853 0.233466 -0.0752882 -0.0416513 0.117533 -0.0191524 -0.123912 0.321397 0.385364 -0.242752 -0.320484 0.33709 -0.410829 -0.108823 -0.0951241 0.0572498 -0.361737 -0.276968 -0.392412 0.0948328 0.664881 -0.248533 -0.212879 -0.0101683 -0.288535 0.633995 0.398347 -0.195094 0.501452 1.8371 -0.303351 -0.591653 -0.214059 0.791446 -0.728104 0.360923 -1.33009 0.0568149 0.999535 0.197798 0.397612
159 0.192196 0.0137866 0.84956 0.354571 -0.112385 0.266652 -0.035386 -0.0965099 0.276277 -0.492935 1.09121 0.47285 0.0407365 -0.347165 -0.0637473 -0.0965803 -0.351058 0.113978 -0.511686 0.0146733 -0.105239 0.121873 -0.0122732 -0.00376238 0.211653 -0.0928905 -0.0699156 0.0672832 -0.0352061 -0.17544 0.362275 0.407549 -0.2403 -0.382518 0.322627 -0.465685 -0.123455 -0.123045 -0.0517056 -0.388855 -0.309498 -0.452227 0.0855402 0.71028 -0.256759 -0.269934 -0.0484494 -0.361922 0.691561 0.37262 -0.206919 0.552549 2.00401 -0.311967 -0.679757 -0.23177 0.830885 -0.76756 0.404287 -1.45517 0.0679305 0.96287 0.217088 0.423528
113 0.199425 0.00652872 0.789122 0.274044 -0.0839798 0.253766 -0.0119807 -0.0999628 0.274886 -0.492189 1.0386 0.444279 0.0341174 -0.334985 -0.0483659 -0.0721428 -0.329723 0.0782331 -0.534898 0.0209254 -0.0859501 0.122347 -0.0141587 0.060224 0.259066 -0.0889013 -0.0487801 0.0716553 -0.0523679 -0.14891 0.372362 0.40548 -0.211923 -0.373519 0.307205 -0.444628 -0.116535 -0.0945864 0.00442126 -0.356977 -0.31641 -0.4335 0.109367 0.695287 -0.257413 -0.223354 -0.0203738 -0.326413 0.612812 0.32053 -0.191899 0.502978 1.8149 -0.28321 -0.592336 -0.222899 0.7766 -0.716344 0.366244 -1.32775 0.0541832 0.943251 0.17111 0.393024
38 0.0855833 0.0294998 0.799372 0.310725 -0.0341671 0.197156 -0.0133761 -0.0887463 0.179024 -0.501144 0.896125 0.360399 0.0285185 -0.302235 -0.059847 -0.140629 -0.26701 0.148256 -0.45346 0.10356 -0.193762 0.166218 -0.0374304 0.0313824 0.237883 -0.12561 -0.122419 0.0296977 -0.0934934 -0.147502 0.283341 0.375232 -0.189401 -0.270057 0.285742 -0.35422 -0.0410395 -0.218766 -0.0056541 -0.319916 -0.274627 -0.37126 0.104886 0.539928 -0.18448 -0.283702 0.0481585 -0.341471 0.573474 0.41143 -0.205831 0.551969 2.07972 -0.244762 -0.58759 -0.350959 0.844177 -0.816459 0.445293 -1.38352 0.0484598 0.945986 0.0852884 0.317744
