150 64
98 -0.023539 -0.0411234 -0.206557 -0.0203715 0.82936 0.0255664 0.685432 -0.102657 0.425997 1.23637 -0.826818 -0.306688 0.661061 -0.865823 0.510158 -0.222334 0.365528 -0.0672396 -1.35269 0.280749 0.43713 -0.101199 -0.163627 0.402364 0.220074 -0.539998 -0.339421 -0.240297 0.640472 -0.832558 -1.05027 -0.501274 -0.505902 -0.57234 0.143494 0.204718 -0.225909 -0.240067 0.638456 -0.590933 0.521904 -0.274943 0.19461 -0.372267 0.0161873 -0.0329056 -0.554703 -0.203929 -0.0339082 0.536084 0.364852 0.331042 -0.518494 -0.0494614 -0.0281913 -0.205868 0.142853 0.119707 0.464023 0.319078 0.0970314 0.462339 0.0769805 -0.0904969
135 -0.0350568 -0.0250861 -0.235494 -0.0373131 0.868969 0.00925156 0.693229 -0.100493 0.458266 1.24721 -0.841535 -0.321864 0.710035 -0.886109 0.536002 -0.238005 0.342182 -0.0657449 -1.28251 0.250442 0.428575 -0.0979506 -0.171605 0.398231 0.236399 -0.53526 -0.344943 -0.251914 0.618257 -0.835078 -1.05317 -0.50545 -0.511013 -0.588677 0.142237 0.20806 -0.224189 -0.227882 0.600083 -0.580042 0.460596 -0.268732 0.188483 -0.389008 -0.00969574 -0.0239308 -0.534497 -0.210225 -0.041237 0.493241 0.352816 0.327034 -0.473677 -0.0512391 -0.0327726 -0.215113 0.132252 0.116528 0.455058 0.299772 0.10871 0.44625 0.0738866 -0.0937455
41 0.0120367 -0.0016668 -0.21904 -0.00858268 0.760857 -0.0333851 0.559584 -0.110685 0.472646 1.0945 -0.753696 -0.267166 0.65378 -0.793127 0.506384 -0.24976 0.300837 -0.0766559 -1.52805 0.228937 0.509521 -0.10694 -0.26428 0.428295 0.28703 -0.573133 -0.251786 -0.244374 0.531842 -0.875262 -1.15407 -0.505589 -0.463432 -0.543935 0.154631 0.260653 -0.198908 -0.249993 0.524733 -0.580032 0.521 -0.283629 0.217061 -0.378479 0.0040617 -0.0634895 -0.605799 -0.278374 -0.0875961 0.550128 0.410577 0.43504 -0.548802 -0.0728528 -0.0800008 -0.266538 0.105405 0.0796958 0.513347 0.318564 0.12875 0.545505 0.0889567 -0.12445
43 0.00265859 -0.063828 -0.172363 -0.0263626 0.828216 -0.0189223 0.671024 -0.108947 0.438102 1.06572 -0.762515 -0.283371 0.780092 -0.813839 0.535383 -0.2608 0.286317 -0.0189089 -1.39432 0.177061 0.399056 -0.125458 -0.182147 0.389497 0.264869 -0.523129 -0.309515 -0.273045 0.500349 -0.840024 -0.999647 -0.477911 -0.394712 -0.476387 0.0938978 0.19827 -0.217113 -0.264876 0.553053 -0.546488 0.561098 -0.34817 0.152771 -0.424449 -0.0409692 -0.0935087 -0.596403 -0.275638 -0.0795594 0.550172 0.406875 0.353244 -0.591036 -0.0773127 -0.135413 -0.323096 0.141775 0.123455 0.591015 0.367088 0.0927999 0.517441 0.0880589 -0.11686
121 0.0203673 -0.015957 -0.197098 -0.0167862 0.862207 -0.0415587 0.628086 -0.0987002 0.434429 1.07553 -0.754432 -0.278192 0.715972 -0.79515 0.492703 -0.263123 0.299151 -0.0304568 -1.3916 0.18296 0.414536 -0.106841 -0.216859 0.422821 0.236329 -0.500709 -0.25265 -0.255246 0.456524 -0.786896 -0.996318 -0.460816 -0.392826 -0.486658 0.119793 0.187421 -0.188934 -0.211235 0.494875 -0.519241 0.538487 -0.321089 0.176324 -0.420557 -0.0309501 -0.102426 -0.558132 -0.275296 -0.09689 0.569953 0.390766 0.372137 -0.540643 -0.0884308 -0.141846 -0.280526 0.0845665 0.134477 0.558441 0.344527 0.121184 0.533108 0.117898 -0.114553
52 -0.00495099 -0.00110756 -0.107179 -0.0388776 0.772793 0.0215284 0.657104 -0.0954462 0.354552 1.07459 -0.770512 -0.267575 0.696365 -0.788146 0.494731 -0.222931 0.359064 -0.0162354 -1.19861 0.223901 0.34533 -0.0877187 -0.124472 0.367692 0.213345 -0.536947 -0.369492 -0.288862 0.583026 -0.7785 -0.973615 -0.50463 -0.425472 -0.49518 0.0849716 0.121039 -0.220836 -0.19838 0.62247 -0.557789 0.599414 -0.289252 0.162968 -0.403653 -0.00153931 -0.0538766 -0.605123 -0.244904 -0.0638851 0.614536 0.417327 0.340882 -0.648239 -0.0670722 -0.109376 -0.259013 0.144886 0.172694 0.594682 0.417645 0.109139 0.531781 0.100852 -0.0568659
90 -0.0426566 -0.0917278 -0.176916 -0.0201339 0.868037 -0.0153153 0.693259 -0.0847905 0.40635 1.20516 -0.761604 -0.275671 0.768623 -0.870268 0.524786 -0.244508 0.412185 -0.0185736 -1.48771 0.203728 0.383314 -0.0803854 -0.155446 0.430947 0.22964 -0.554248 -0.373498 -0.248948 0.523281 -0.738988 -0.901898 -0.459981 -0.383036 -0.488202 0.0961213 0.161187 -0.234987 -0.203654 0.629722 -0.543353 0.570079 -0.306507 0.102296 -0.404444 -0.0628233 -0.0808646 -0.525698 -0.263439 -0.0406579 0.594451 0.363012 0.270325 -0.513545 -0.129221 -0.142431 -0.226621 0.100772 0.176018 0.607074 0.371725 0.0922516 0.501622 0.118258 -0.076685
24 -0.0121747 0.0887037 -0.147281 -0.0105488 0.707831 0.0164925 0.701782 -0.096183 0.399876 1.28134 -0.823867 -0.292308 0.662831 -0.988448 0.532485 -0.197942 0.347405 -0.0398783 -1.38122 0.315378 0.452933 -0.0749508 -0.154296 0.41609 0.231098 -0.49647 -0.29576 -0.21371 0.628527 -0.758079 -0.961517 -0.444501 -0.456078 -0.494687 0.162989 0.255051 -0.196936 -0.221071 0.580158 -0.534501 0.404282 -0.164082 0.180772 -0.262893 0.0279313 0.0419759 -0.488544 -0.16555 -0.0222 0.398145 0.311449 0.315735 -0.462197 -0.0332498 0.0350317 -0.204714 0.158995 0.142993 0.416843 0.283339 0.130194 0.455775 0.0916488 -0.0832847
107 -0.0318428 -0.0454429 -0.139561 -0.0127873 0.641637 0.0365679 0.574088 -0.0899734 0.331623 1.00671 -0.630996 -0.196786 0.591735 -0.785474 0.431075 -0.19032 0.381765 -0.0471959 -1.52459 0.282487 0.454126 -0.109762 -0.167674 0.42793 0.230401 -0.572046 -0.286963 -0.251459 0.637738 -0.811904 -0.979686 -0.465005 -0.390665 -0.466019 0.132283 0.194747 -0.217003 -0.248204 0.639687 -0.530863 0.546683 -0.21116 0.187409 -0.300019 0.0360673 -0.0199318 -0.594117 -0.215177 -0.0383823 0.560075 0.403345 0.352231 -0.581874 -0.0650235 -0.0390662 -0.1973 0.140437 0.164764 0.532008 0.339692 0.111288 0.527428 0.0928732 -0.110939
42 -0.0179416 0.0824346 -0.113492 -0.0157479 0.671174 0.0335844 0.61116 -0.0594748 0.288031 1.02202 -0.708542 -0.223577 0.56428 -0.834284 0.449514 -0.168503 0.420187 -0.0449361 -1.5554 0.338202 0.483083 -0.0857846 -0.168789 0.43607 0.250184 -0.54788 -0.292145 -0.250546 0.657854 -0.777894 -1.00971 -0.465013 -0.47111 -0.523044 0.150324 0.223131 -0.236847 -0.222963 0.66779 -0.569784 0.536802 -0.166082 0.208649 -0.281689 0.0347257 0.0122562 -0.585304 -0.186646 -0.0226704 0.515001 0.346416 0.355857 -0.554818 -0.0386441 -0.00885183 -0.17682 0.149595 0.162166 0.486881 0.359511 0.126571 0.512286 0.103413 -0.0959554
20 -0.0546569 -0.128723 -0.219799 -0.0561123 0.850565 0.00774572 0.614564 -0.0802974 0.382313 1.17619 -0.667188 -0.246119 0.671714 -0.825642 0.491084 -0.18775 0.359916 -0.000816097 -1.35645 0.218005 0.365857 -0.0806098 -0.128286 0.369928 0.240954 -0.55598 -0.372861 -0.249281 0.548888 -0.727756 -0.878413 -0.454126 -0.445278 -0.515211 0.110455 0.187058 -0.22773 -0.196645 0.611532 -0.537925 0.541827 -0.274847 0.11309 -0.378637 -0.0420078 -0.0414596 -0.49653 -0.223386 -0.0316996 0.579659 0.363917 0.289276 -0.517189 -0.112046 -0.0638018 -0.214417 0.139151 0.174136 0.537408 0.332141 0.0808042 0.448013 0.0860466 -0.0416235
91 -0.0498533 -0.108108 -0.212138 -0.0889155 0.862412 0.0343038 0.674249 -0.109958 0.357825 1.16606 -0.719778 -0.240748 0.743897 -0.851065 0.503449 -0.194752 0.388083 0.00934124 -1.21903 0.233529 0.343972 -0.0752883 -0.0981128 0.372365 0.187875 -0.48922 -0.420789 -0.246313 0.604133 -0.722462 -0.918488 -0.516379 -0.463709 -0.523323 0.0741512 0.123867 -0.241758 -0.18688 0.673939 -0.570307 0.531619 -0.274169 0.0918574 -0.411388 -0.0454386 -0.0364222 -0.576841 -0.243639 -0.0116292 0.607322 0.430948 0.298778 -0.610743 -0.095909 -0.0787431 -0.241618 0.173379 0.201971 0.599241 0.394644 0.0864347 0.489088 0.0781753 -0.0336091
112 -0.053829 -0.0477321 -0.14263 -0.0560423 0.697699 0.036828 0.578174 -0.0968664 0.332257 1.02193 -0.677948 -0.203989 0.660417 -0.765974 0.456409 -0.174858 0.433338 -0.0230506 -1.32119 0.248858 0.390636 -0.0685458 -0.127313 0.408931 0.19636 -0.533792 -0.396283 -0.230205 0.620979 -0.76046 -0.974667 -0.555224 -0.414965 -0.513036 0.0935257 0.141949 -0.251267 -0.167252 0.681303 -0.604944 0.588332 -0.259729 0.128559 -0.39469 -0.0314642 -0.0336729 -0.603337 -0.261366 -0.0158549 0.627666 0.417522 0.308368 -0.610156 -0.102143 -0.0857901 -0.220422 0.151959 0.176643 0.586083 0.397239 0.086927 0.537414 0.0705907 -0.0417917
28 -0.0182531 -0.0195902 -0.117541 -0.0485816 0.756978 0.0613532 0.713684 -0.0959953 0.311662 1.05583 -0.699846 -0.215885 0.741054 -0.814035 0.461032 -0.208212 0.386175 -0.00828084 -1.32985 0.256495 0.316015 -0.125226 -0.0993978 0.379763 0.179364 -0.460528 -0.310071 -0.253934 0.514251 -0.651247 -0.800861 -0.42204 -0.347913 -0.391215 0.0569835 0.125663 -0.212548 -0.202511 0.666522 -0.548307 0.585226 -0.256071 0.115113 -0.343382 -0.00326498 -0.074409 -0.606313 -0.247808 -0.0600138 0.617974 0.401566 0.301196 -0.675542 -0.0750302 -0.097984 -0.231689 0.163072 0.203774 0.597654 0.431289 0.104782 0.494063 0.0875964 -0.0801454
57 -0.0235181 -0.130653 -0.211973 -0.0534183 0.912048 0.00346986 0.681462 -0.112755 0.408007 1.07147 -0.716306 -0.240014 0.748155 -0.762517 0.479821 -0.225316 0.306363 -0.0226858 -1.23799 0.156592 0.307779 -0.129679 -0.149665 0.352631 0.212313 -0.433245 -0.300143 -0.265365 0.470274 -0.788062 -0.927145 -0.473967 -0.36063 -0.455143 0.092952 0.140878 -0.201271 -0.241513 0.524843 -0.499152 0.575006 -0.330982 0.12781 -0.382009 -0.0130998 -0.104397 -0.623313 -0.30285 -0.0939406 0.631092 0.470729 0.358535 -0.679078 -0.0930057 -0.143883 -0.305452 0.159725 0.141706 0.64325 0.409723 0.0865686 0.540133 0.088231 -0.102161
8 -0.0553515 -0.124336 -0.180244 -0.0288581 0.911927 -0.00794336 0.73566 -0.0923816 0.461941 1.17854 -0.824084 -0.301774 0.746834 -0.765148 0.553335 -0.246104 0.265685 -0.0306491 -1.21226 0.158673 0.367908 -0.115955 -0.165716 0.352511 0.244669 -0.505766 -0.32449 -0.260356 0.502328 -0.853761 -1.01405 -0.49228 -0.421905 -0.47929 0.108199 0.164014 -0.238268 -0.259902 0.609028 -0.572113 0.585098 -0.348944 0.11267 -0.370646 -0.00522077 -0.102397 -0.584855 -0.281787 -0.0677615 0.600573 0.403183 0.319944 -0.609398 -0.0965479 -0.154131 -0.318216 0.146069 0.128705 0.650621 0.412297 0.0877619 0.581242 0.0703648 -0.0847095
123 -0.0178345 -0.0512682 -0.114622 -0.03979 0.85548 0.0133447 0.662884 -0.113504 0.373915 0.992007 -0.642169 -0.233834 0.676837 -0.70612 0.433309 -0.216679 0.323387 0.0172267 -1.21147 0.191327 0.27152 -0.110694 -0.128159 0.3532 0.179353 -0.400675 -0.290668 -0.272571 0.449315 -0.659079 -0.751039 -0.394535 -0.34758 -0.395814 0.0482156 0.119787 -0.182696 -0.177418 0.53094 -0.46782 0.598027 -0.270615 0.132586 -0.380021 0.00126045 -0.0956058 -0.612289 -0.298962 -0.114119 0.663722 0.494056 0.332695 -0.73874 -0.0549793 -0.116024 -0.286093 0.154838 0.198025 0.616717 0.40937 0.099968 0.522894 0.0879189 -0.06047
122 -0.0249224 -0.03395 -0.129634 -0.00985537 0.741627 -0.0253954 0.676557 -0.0708048 0.428192 1.1624 -0.720414 -0.301065 0.686199 -0.843355 0.54936 -0.227179 0.353673 -0.0238367 -1.38931 0.192173 0.404298 -0.0778057 -0.178015 0.401447 0.23456 -0.499008 -0.326513 -0.229912 0.530359 -0.732938 -0.869502 -0.437691 -0.406286 -0.459415 0.120693 0.188979 -0.184269 -0.208369 0.532818 -0.459338 0.488005 -0.237078 0.13409 -0.336182 -0.0495256 -0.0193388 -0.540988 -0.260282 -0.0427446 0.577546 0.422361 0.324715 -0.589194 -0.0771612 -0.100677 -0.273793 0.148405 0.164634 0.594327 0.380716 0.0602892 0.524589 0.10219 -0.0761833
83 -0.0284526 0.0383916 -0.173045 -0.0233989 0.73362 0.0230881 0.756332 -0.111115 0.429944 1.32861 -0.777046 -0.301506 0.728879 -0.962285 0.549583 -0.186295 0.343732 -0.049633 -1.31755 0.287923 0.405873 -0.08172 -0.138018 0.408934 0.199831 -0.459177 -0.348863 -0.163225 0.581609 -0.681647 -0.878656 -0.46198 -0.449056 -0.479198 0.109016 0.225227 -0.207253 -0.197338 0.615603 -0.557941 0.367535 -0.201351 0.121114 -0.328751 -0.008849 0.0441388 -0.517023 -0.204471 0.0102461 0.463434 0.34014 0.263073 -0.468842 -0.0687904 -0.00696059 -0.213737 0.170731 0.141086 0.478067 0.295058 0.100987 0.445002 0.0848956 -0.0703569
18 -0.0518505 -0.0487084 -0.152102 -0.0450282 0.713609 0.0484554 0.613257 -0.0796221 0.363197 1.10642 -0.729522 -0.231469 0.674864 -0.85454 0.506438 -0.174038 0.418281 -0.0301236 -1.37993 0.255906 0.435107 -0.0847614 -0.145099 0.409452 0.212224 -0.516731 -0.380851 -0.19366 0.63673 -0.75965 -0.97858 -0.550981 -0.438819 -0.505123 0.0988815 0.187103 -0.233834 -0.183192 0.688052 -0.595743 0.483619 -0.239781 0.0923078 -0.341997 -0.0227741 -0.0162409 -0.520148 -0.221453 0.0400976 0.479175 0.314297 0.234343 -0.476644 -0.0928267 -0.0428167 -0.186728 0.167532 0.150602 0.475735 0.316383 0.0672667 0.45052 0.0610747 -0.0592526
31 -0.048082 -0.119609 -0.182565 -0.0202795 0.774001 0.00627888 0.548034 -0.0590889 0.379065 1.02354 -0.697794 -0.257504 0.606369 -0.710674 0.494692 -0.210762 0.393726 -0.0301807 -1.38659 0.188751 0.416825 -0.0783057 -0.17678 0.395337 0.281784 -0.621988 -0.368963 -0.276763 0.610538 -0.843953 -1.00319 -0.497129 -0.498544 -0.569795 0.128628 0.181704 -0.242648 -0.226508 0.639632 -0.560234 0.625118 -0.326901 0.16856 -0.404518 -0.0523536 -0.0583463 -0.583875 -0.266449 -0.0381164 0.665803 0.419225 0.34744 -0.592735 -0.101038 -0.106732 -0.226084 0.123362 0.155925 0.605152 0.387363 0.0432311 0.533021 0.0900487 -0.0719142
16 -0.0160182 -0.0276253 -0.0757963 -0.0455813 0.817961 0.0296514 0.774665 -0.136271 0.393076 1.05757 -0.796697 -0.251278 0.785541 -0.837618 0.503502 -0.219578 0.40899 -0.00821182 -1.24886 0.162163 0.319639 -0.107993 -0.148138 0.398797 0.176383 -0.42167 -0.370109 -0.248432 0.570256 -0.77068 -0.97681 -0.574722 -0.394172 -0.476761 0.070377 0.120285 -0.20816 -0.190029 0.638682 -0.56462 0.515679 -0.297724 0.0707125 -0.402922 -0.0258374 -0.0689063 -0.602043 -0.303403 -0.0311179 0.539163 0.411152 0.274002 -0.621646 -0.0690167 -0.107177 -0.268245 0.150069 0.166505 0.607107 0.392032 0.0694167 0.523398 0.0948622 -0.057249
93 -0.0111342 -0.0511381 -0.0881645 -0.0647666 0.783148 0.0712524 0.713285 -0.133275 0.352776 0.994051 -0.721213 -0.20343 0.828632 -0.80053 0.499695 -0.218341 0.373122 0.00914856 -1.23868 0.183092 0.314587 -0.13203 -0.104733 0.409368 0.147939 -0.461609 -0.378704 -0.231412 0.573604 -0.75326 -0.952066 -0.573758 -0.35752 -0.407302 0.0236961 0.101645 -0.241284 -0.202077 0.737977 -0.60631 0.576096 -0.337679 0.0639935 -0.407463 -0.0243429 -0.103684 -0.654248 -0.299981 -0.0126898 0.643536 0.444866 0.260538 -0.698682 -0.103741 -0.13863 -0.286106 0.196186 0.190289 0.673702 0.433296 0.0745121 0.551192 0.0707225 -0.0594012
15 -0.0466319 -0.125458 -0.19351 -0.0627259 0.793799 0.0447074 0.650665 -0.0960378 0.400088 1.08599 -0.723114 -0.222552 0.780474 -0.76353 0.531898 -0.225126 0.398947 -0.0159867 -1.37311 0.185364 0.366806 -0.096664 -0.144459 0.407517 0.222841 -0.562405 -0.438152 -0.254353 0.578168 -0.77716 -0.992296 -0.55014 -0.466401 -0.512338 0.0714098 0.129042 -0.256802 -0.207578 0.763413 -0.632836 0.62167 -0.37403 0.0803709 -0.424429 -0.0675699 -0.113328 -0.642568 -0.30795 0.000234983 0.718466 0.431871 0.249956 -0.637847 -0.144017 -0.175834 -0.237793 0.157744 0.173744 0.671976 0.433337 0.0563103 0.539339 0.0924132 -0.0768286
71 -0.00345939 0.0961434 -0.112126 -0.0367181 0.78787 0.0400254 0.802197 -0.115618 0.396134 1.22408 -0.798141 -0.286588 0.736326 -0.945751 0.54148 -0.195342 0.329584 -0.0286933 -1.3167 0.298707 0.40994 -0.120852 -0.152757 0.426925 0.197474 -0.451843 -0.318983 -0.230723 0.623072 -0.770344 -0.973315 -0.48706 -0.46267 -0.497842 0.131014 0.205296 -0.226042 -0.229506 0.659476 -0.602232 0.455366 -0.197874 0.158331 -0.315719 0.0417607 0.0313388 -0.592381 -0.215302 -0.044976 0.504471 0.383134 0.349126 -0.608319 -0.0349341 -0.00580512 -0.247874 0.191166 0.167981 0.514813 0.36731 0.135759 0.504526 0.0786868 -0.0785294
11 0.0867865 0.247622 -0.039896 -0.0244612 0.64637 0.0215676 0.743347 -0.108161 0.378445 1.12446 -0.806632 -0.297803 0.746618 -0.968585 0.611978 -0.247554 0.293622 -0.0471386 -1.33088 0.299087 0.456104 -0.108187 -0.182264 0.421094 0.208132 -0.478352 -0.315598 -0.197675 0.635514 -0.779642 -1.02666 -0.522697 -0.467365 -0.506013 0.139098 0.171142 -0.226309 -0.204192 0.657423 -0.626146 0.417029 -0.22805 0.193425 -0.331973 -0.0213917 0.0320799 -0.619084 -0.239038 -0.0177646 0.483535 0.351647 0.365933 -0.557544 -0.0619896 -0.0309516 -0.263891 0.179153 0.166653 0.535081 0.385348 0.119622 0.518339 0.0972764 -0.0868615
7 0.0175414 -0.0659378 -0.181404 -0.0120683 0.754429 -0.0286285 0.606903 -0.0646356 0.430061 1.14466 -0.690214 -0.303722 0.635238 -0.858739 0.57435 -0.250523 0.320754 -0.0257371 -1.52948 0.217513 0.458873 -0.0736953 -0.205341 0.423502 0.304992 -0.604791 -0.330268 -0.307916 0.591188 -0.856007 -1.03153 -0.453438 -0.519831 -0.579286 0.163106 0.24186 -0.227799 -0.243721 0.630681 -0.566946 0.606485 -0.321051 0.20619 -0.449239 -0.0414045 -0.0744602 -0.615958 -0.293466 -0.0910748 0.739839 0.495492 0.462514 -0.667229 -0.116329 -0.0826475 -0.308042 0.122839 0.190743 0.662887 0.411419 0.0866929 0.593318 0.130289 -0.070676
12 -0.0156077 -0.00524787 -0.148781 -0.00803728 0.696292 -0.00968635 0.578529 -0.045428 0.370775 1.06579 -0.795385 -0.298371 0.652251 -0.866704 0.515618 -0.244817 0.42988 -0.061223 -1.47806 0.2213 0.464827 -0.0617951 -0.184335 0.429268 0.317488 -0.61758 -0.335298 -0.303886 0.606245 -0.813265 -1.0304 -0.457245 -0.508812 -0.563624 0.174281 0.215405 -0.243913 -0.242094 0.631892 -0.563444 0.58727 -0.256825 0.174121 -0.362994 -0.00955369 -0.039335 -0.575656 -0.24025 -0.0628432 0.628476 0.418972 0.3696 -0.556416 -0.0683241 -0.0874311 -0.215078 0.107388 0.153469 0.593403 0.399464 0.0755935 0.571031 0.137524 -0.092745
47 -0.0321018 -0.10685 -0.13729 -0.00650822 0.644398 -0.0621153 0.44939 -0.0409265 0.421881 0.974992 -0.67679 -0.291654 0.617052 -0.749333 0.526175 -0.265237 0.38939 -0.0514518 -1.54538 0.153698 0.50923 -0.06413 -0.23678 0.427777 0.392471 -0.754577 -0.377475 -0.347692 0.642111 -0.967246 -1.15216 -0.535921 -0.547888 -0.655564 0.170025 0.240174 -0.281917 -0.272182 0.624996 -0.577287 0.700428 -0.36216 0.187333 -0.451967 -0.0722491 -0.0743666 -0.583709 -0.298225 -0.0843681 0.671928 0.429923 0.420864 -0.573635 -0.0986467 -0.118638 -0.248456 0.0717289 0.14149 0.625199 0.38752 0.0306775 0.56365 0.107339 -0.0785642
124 -0.0344834 -0.111204 -0.141146 0.00283779 0.63683 -0.0419517 0.54609 -0.0369265 0.391333 1.07007 -0.668454 -0.283872 0.621579 -0.769344 0.517616 -0.218951 0.334368 -0.0260692 -1.3409 0.139028 0.398959 -0.0422805 -0.184814 0.388509 0.306385 -0.593667 -0.357019 -0.256439 0.526192 -0.781252 -0.8796 -0.439576 -0.447617 -0.529537 0.151019 0.187741 -0.236779 -0.222252 0.546287 -0.454541 0.495546 -0.274003 0.13295 -0.363581 -0.102587 -0.0226258 -0.459021 -0.246938 -0.0373201 0.578129 0.342301 0.285273 -0.439836 -0.113804 -0.112347 -0.230225 0.0813017 0.145367 0.605971 0.343744 0.0422136 0.481358 0.122349 -0.0421921
19 -0.0340864 -0.0786535 -0.176003 -0.0255842 0.780193 -0.0143936 0.577842 -0.0725996 0.415153 1.11006 -0.772886 -0.304576 0.635243 -0.787482 0.478697 -0.253966 0.358782 -0.0428962 -1.41204 0.221252 0.414535 -0.104507 -0.178395 0.398533 0.319983 -0.626659 -0.300888 -0.34484 0.585725 -0.871096 -1.00251 -0.435769 -0.499638 -0.571332 0.141192 0.212029 -0.24525 -0.268099 0.582848 -0.555321 0.652462 -0.293654 0.205182 -0.401243 0.0105143 -0.084559 -0.614105 -0.254681 -0.113973 0.670715 0.482214 0.439706 -0.673836 -0.0519567 -0.0831927 -0.273053 0.116752 0.160295 0.597674 0.406138 0.105743 0.544774 0.0949983 -0.0866245
77 -0.0684473 -0.114113 -0.191756 -0.045155 0.829271 0.00420045 0.643721 -0.0804249 0.400158 1.18598 -0.714835 -0.269149 0.654495 -0.742855 0.483144 -0.186635 0.339926 -0.000777526 -1.19843 0.205819 0.347611 -0.0643025 -0.138564 0.375955 0.222516 -0.513605 -0.351014 -0.220693 0.55259 -0.749391 -0.887283 -0.473419 -0.463343 -0.526538 0.116951 0.154064 -0.226098 -0.202426 0.600534 -0.534665 0.522342 -0.280507 0.124771 -0.395282 -0.0443653 -0.0208006 -0.546951 -0.234219 -0.0181354 0.592095 0.409678 0.295505 -0.55624 -0.097828 -0.089039 -0.254946 0.146434 0.155475 0.555458 0.353429 0.0725854 0.480157 0.0732818 -0.0363464
115 -0.0224053 -4.7108e-05 -0.143858 -0.0240278 0.757537 0.00346491 0.677501 -0.084628 0.386808 1.1066 -0.773328 -0.291963 0.664021 -0.781878 0.469066 -0.213214 0.31832 -0.038139 -1.10957 0.217297 0.357479 -0.0922472 -0.127494 0.371129 0.207864 -0.445154 -0.286557 -0.228462 0.547625 -0.715885 -0.897402 -0.454064 -0.456687 -0.490565 0.104855 0.150188 -0.20996 -0.198933 0.568349 -0.524052 0.465384 -0.246324 0.146476 -0.370291 0.00907565 -0.0302906 -0.515657 -0.205854 -0.0458579 0.509753 0.367071 0.296972 -0.515153 -0.0345329 -0.0507032 -0.235517 0.138581 0.138809 0.467621 0.326741 0.086043 0.444134 0.0758688 -0.05404
105 -0.00094556 -0.0294564 -0.181853 -0.00933762 0.786895 -0.0652585 0.604296 -0.0867962 0.469663 1.13351 -0.811216 -0.319915 0.720626 -0.872621 0.55719 -0.294643 0.302472 -0.0439863 -1.41809 0.183537 0.466577 -0.101278 -0.224464 0.420961 0.344998 -0.635702 -0.297249 -0.335138 0.564781 -0.911448 -1.10068 -0.475452 -0.507412 -0.581324 0.166734 0.241343 -0.236517 -0.27832 0.549647 -0.561434 0.590507 -0.337701 0.216086 -0.44227 -0.0303778 -0.0901039 -0.573029 -0.233921 -0.10154 0.584593 0.416291 0.429772 -0.572522 -0.0707691 -0.102258 -0.313732 0.101533 0.130387 0.566489 0.37083 0.114113 0.548669 0.119731 -0.117297
140 0.0141569 0.0204575 -0.115834 0.00122902 0.71544 -0.0788793 0.560641 -0.0677971 0.440708 1.0792 -0.798227 -0.344598 0.677544 -0.826313 0.539288 -0.295184 0.31913 -0.0398987 -1.39494 0.164857 0.481746 -0.0875774 -0.215171 0.419736 0.381253 -0.687148 -0.308059 -0.366553 0.599989 -0.967493 -1.14205 -0.478775 -0.547141 -0.624802 0.182037 0.253636 -0.257378 -0.293443 0.559366 -0.575798 0.611992 -0.326106 0.223816 -0.438572 -0.0265468 -0.0859228 -0.558004 -0.233614 -0.116429 0.59045 0.401398 0.432989 -0.558033 -0.0609045 -0.092592 -0.291078 0.0923416 0.129346 0.58331 0.380151 0.101441 0.539793 0.116881 -0.0854457
79 -0.012317 -0.04795 -0.179917 -0.0228953 0.772082 -0.0602389 0.553717 -0.0913982 0.444541 1.06511 -0.764222 -0.294057 0.688728 -0.770163 0.498793 -0.269721 0.301861 -0.0434813 -1.34094 0.158458 0.430322 -0.0965811 -0.2006 0.389623 0.300529 -0.570078 -0.287872 -0.312665 0.515743 -0.858649 -1.05859 -0.463918 -0.456846 -0.543281 0.141423 0.211862 -0.231041 -0.254411 0.520164 -0.541265 0.596424 -0.333693 0.189602 -0.425751 -0.0263605 -0.0905489 -0.572964 -0.242278 -0.0992675 0.591486 0.422115 0.390593 -0.56264 -0.0813301 -0.124635 -0.285057 0.102161 0.11609 0.568726 0.358612 0.110464 0.539991 0.109964 -0.103497
69 -0.0272782 -0.13256 -0.120949 -0.0230572 0.835655 -0.0591018 0.572949 -0.0544639 0.382369 0.970167 -0.707626 -0.300501 0.732778 -0.744446 0.512763 -0.308527 0.35477 0.00887459 -1.2661 0.101562 0.326583 -0.0954006 -0.151955 0.379583 0.346803 -0.648385 -0.351695 -0.393302 0.512544 -0.846944 -0.926736 -0.421395 -0.477989 -0.532082 0.108137 0.144775 -0.256764 -0.24307 0.566047 -0.529478 0.691113 -0.36933 0.139216 -0.453625 -0.0389264 -0.155399 -0.557618 -0.285433 -0.12558 0.729343 0.449011 0.364905 -0.639391 -0.113821 -0.18459 -0.287591 0.077066 0.180942 0.715934 0.466816 0.0716973 0.567498 0.143033 -0.0510783
70 0.00119586 -0.0623836 -0.131871 -0.0133527 0.712936 -0.0485571 0.523454 -0.0666387 0.38308 0.962177 -0.738526 -0.294809 0.648536 -0.749429 0.489797 -0.27053 0.334964 -0.0409394 -1.33445 0.188194 0.444169 -0.10476 -0.202796 0.397214 0.340343 -0.666891 -0.311565 -0.361654 0.58983 -0.939029 -1.12524 -0.499484 -0.537208 -0.621786 0.13484 0.178511 -0.266949 -0.258437 0.593175 -0.587598 0.668546 -0.344846 0.209136 -0.454151 -0.014736 -0.106991 -0.589273 -0.26395 -0.108554 0.649922 0.429975 0.43484 -0.611169 -0.069022 -0.113528 -0.260508 0.073538 0.138786 0.613372 0.413634 0.0817707 0.556987 0.091915 -0.065643
39 -0.0458071 -0.0919139 -0.210368 -0.026168 0.765458 -0.0198674 0.507182 -0.0819305 0.431319 1.05263 -0.742792 -0.273416 0.623311 -0.722524 0.487716 -0.260817 0.380094 -0.0659652 -1.39465 0.198032 0.442982 -0.101648 -0.208919 0.409991 0.323724 -0.658383 -0.339675 -0.329485 0.637662 -0.956267 -1.16151 -0.546553 -0.569774 -0.660976 0.158256 0.217735 -0.260782 -0.269767 0.619442 -0.608058 0.672117 -0.343792 0.217177 -0.437397 -0.0281667 -0.0810887 -0.660076 -0.281235 -0.0811491 0.674492 0.470353 0.437466 -0.627778 -0.0743317 -0.0962382 -0.257378 0.111983 0.125756 0.600505 0.393319 0.0750321 0.58531 0.0886749 -0.109437
144 0.00423189 0.000190214 -0.183899 -0.00626056 0.786359 -0.0324666 0.527452 -0.0747457 0.422561 1.04557 -0.787187 -0.290281 0.63477 -0.760951 0.499317 -0.274543 0.338213 -0.0587978 -1.39495 0.207322 0.472799 -0.103635 -0.230146 0.406011 0.310806 -0.634919 -0.282146 -0.297003 0.586067 -0.909111 -1.14339 -0.510838 -0.531947 -0.61107 0.165261 0.235795 -0.234972 -0.250868 0.558964 -0.604558 0.610901 -0.325965 0.236603 -0.420609 -0.00933889 -0.086132 -0.596768 -0.261444 -0.101383 0.601089 0.423507 0.440509 -0.574396 -0.0577189 -0.0920132 -0.262184 0.0763482 0.108981 0.53954 0.361278 0.0966433 0.558169 0.0817892 -0.101119
58 -0.0314829 0.0135347 -0.23486 -0.0274341 0.876228 0.0148706 0.73163 -0.117047 0.42472 1.32416 -0.765337 -0.293333 0.650829 -0.926978 0.549988 -0.182752 0.301818 -0.0404368 -1.32852 0.305834 0.439466 -0.0845112 -0.153851 0.400497 0.227596 -0.499813 -0.323231 -0.223583 0.636596 -0.783438 -0.977887 -0.461901 -0.50858 -0.545054 0.157576 0.260901 -0.204262 -0.242853 0.592613 -0.548168 0.412099 -0.200298 0.194978 -0.320697 0.0262573 0.0295529 -0.529332 -0.168102 -0.0200945 0.450096 0.345309 0.350013 -0.495597 -0.0425499 0.0309304 -0.221665 0.183527 0.139021 0.433591 0.278209 0.118675 0.443143 0.0755313 -0.0956472
148 -0.024688 -0.0892389 -0.159311 -0.0438837 0.882515 0.0164095 0.772409 -0.0930607 0.385566 1.20393 -0.770651 -0.269729 0.832783 -0.89473 0.552905 -0.240681 0.411091 0.000863835 -1.38654 0.209716 0.331637 -0.0919992 -0.121644 0.426393 0.186874 -0.48477 -0.397242 -0.236511 0.521972 -0.702899 -0.842125 -0.484278 -0.389774 -0.45674 0.0719292 0.122215 -0.218581 -0.186091 0.666017 -0.536819 0.528221 -0.294333 0.0639329 -0.40078 -0.0674731 -0.0788015 -0.55318 -0.288875 -0.0186895 0.618151 0.377429 0.236838 -0.603958 -0.120258 -0.137684 -0.241042 0.147309 0.197116 0.634263 0.417451 0.0754253 0.480726 0.102135 -0.0666151
99 -0.0551053 -0.196631 -0.20242 -0.0449033 0.860446 -0.00905537 0.658901 -0.0718632 0.404924 1.18994 -0.742734 -0.299144 0.760055 -0.858368 0.54231 -0.24202 0.390937 -0.00284179 -1.43787 0.160485 0.354659 -0.0737615 -0.142114 0.380646 0.279767 -0.592737 -0.424465 -0.324463 0.552117 -0.77991 -0.865804 -0.413399 -0.464816 -0.52319 0.116859 0.153304 -0.238566 -0.243184 0.633704 -0.50153 0.602663 -0.342418 0.094561 -0.410591 -0.0595995 -0.0896763 -0.486666 -0.25148 -0.0521242 0.639278 0.396018 0.260225 -0.548315 -0.124847 -0.137531 -0.224924 0.114431 0.169998 0.622943 0.380457 0.054433 0.435543 0.112889 -0.0629143
89 -0.0149563 -0.0552365 -0.144683 -0.020279 0.710803 -0.0135338 0.658459 -0.065424 0.391357 1.15099 -0.827063 -0.309676 0.747796 -0.835377 0.531006 -0.24575 0.393725 -0.0406057 -1.27256 0.194243 0.395747 -0.0673373 -0.134666 0.406772 0.216768 -0.555795 -0.405355 -0.258152 0.595139 -0.773346 -0.976142 -0.514094 -0.463886 -0.561066 0.100138 0.122177 -0.245587 -0.207779 0.643474 -0.547057 0.536027 -0.310069 0.12806 -0.420618 -0.0752282 -0.0536885 -0.545977 -0.252194 -0.0135737 0.593327 0.358338 0.273079 -0.530841 -0.0964508 -0.14018 -0.232091 0.125097 0.171754 0.610906 0.40798 0.0713216 0.492666 0.10323 -0.0727604
44 -0.0479632 -0.137352 -0.198004 -0.0199811 0.774274 -0.031426 0.6428 -0.0688451 0.415749 1.17101 -0.744225 -0.299758 0.694066 -0.770434 0.51687 -0.236555 0.338595 -0.0176098 -1.26034 0.161456 0.361406 -0.0564962 -0.15509 0.398289 0.235728 -0.527669 -0.337844 -0.255117 0.477561 -0.718932 -0.847445 -0.423226 -0.424185 -0.510795 0.103756 0.134786 -0.201968 -0.197272 0.532345 -0.449901 0.509614 -0.288019 0.121016 -0.388811 -0.076859 -0.0687996 -0.494973 -0.2577 -0.0474712 0.593842 0.357965 0.26603 -0.501611 -0.116357 -0.13639 -0.229297 0.0865324 0.163447 0.605711 0.359542 0.0530577 0.485037 0.104894 -0.0672127
109 -0.0285188 -0.120785 -0.13046 -0.0635863 0.867904 0.0471086 0.742568 -0.131057 0.365825 0.979794 -0.714 -0.222395 0.800923 -0.723951 0.493201 -0.225237 0.378731 0.0135606 -1.20619 0.136859 0.274937 -0.119387 -0.11475 0.384781 0.124538 -0.393153 -0.385148 -0.237031 0.496282 -0.698672 -0.874448 -0.532242 -0.357859 -0.42141 0.0278582 0.0626916 -0.207344 -0.171043 0.690156 -0.557863 0.553406 -0.360742 0.0531186 -0.424291 -0.0409947 -0.137173 -0.612729 -0.329001 -0.0334341 0.626381 0.419232 0.215316 -0.646186 -0.104372 -0.172081 -0.246101 0.158124 0.155129 0.611327 0.40551 0.0463924 0.470002 0.0807912 -0.0550826
6 -0.0382109 -0.166894 -0.158302 -0.0648863 0.893436 0.00519995 0.712196 -0.114084 0.403168 1.06878 -0.702 -0.27082 0.761692 -0.805963 0.511206 -0.259366 0.337817 0.00934717 -1.29325 0.145244 0.307229 -0.0987552 -0.134614 0.36626 0.24745 -0.514843 -0.383282 -0.344257 0.543389 -0.815956 -0.954032 -0.484631 -0.416823 -0.475522 0.0919769 0.151179 -0.233057 -0.238247 0.651926 -0.558129 0.671643 -0.361421 0.102886 -0.450094 0.00707178 -0.133056 -0.634747 -0.325856 -0.124559 0.728945 0.513865 0.355363 -0.746569 -0.100954 -0.141715 -0.320457 0.155779 0.18947 0.703346 0.461805 0.103055 0.576371 0.128199 -0.0614272
13 -0.0372273 -0.11857 -0.145673 -0.0598964 0.842449 0.0632096 0.68267 -0.114814 0.373034 1.07598 -0.721155 -0.235087 0.731422 -0.76741 0.511559 -0.212998 0.378605 -0.0135763 -1.26876 0.184332 0.33929 -0.097541 -0.100617 0.347681 0.191871 -0.493566 -0.412239 -0.283698 0.617996 -0.821602 -1.01204 -0.566695 -0.397022 -0.46797 0.080479 0.140448 -0.23747 -0.248083 0.740796 -0.598065 0.642681 -0.344555 0.118598 -0.425279 -0.00162126 -0.1025 -0.694019 -0.295066 -0.0445455 0.693672 0.488124 0.330926 -0.745361 -0.0898408 -0.10743 -0.306374 0.205389 0.176638 0.678657 0.448197 0.0732675 0.574878 0.061935 -0.0647347
61 -0.00749609 0.0255828 -0.0605064 -0.0375329 0.687195 0.0309008 0.602808 -0.0625854 0.321242 0.927725 -0.708207 -0.253886 0.664769 -0.77576 0.480636 -0.226208 0.357556 -0.0197523 -1.26172 0.214276 0.383379 -0.12484 -0.130813 0.375372 0.277455 -0.571861 -0.344759 -0.311122 0.636428 -0.820634 -0.988882 -0.4987 -0.49113 -0.519806 0.107374 0.174251 -0.256947 -0.234837 0.696306 -0.610728 0.615632 -0.300091 0.15495 -0.394267 0.00962406 -0.0723824 -0.606909 -0.242836 -0.0671657 0.586965 0.39123 0.339152 -0.652129 -0.0491602 -0.0666707 -0.265449 0.178559 0.163729 0.550342 0.421445 0.0855283 0.480675 0.0818246 -0.0569729
22 -0.0150813 0.0683973 -0.0518239 -0.0164229 0.685436 0.0529519 0.644872 -0.0713908 0.299898 1.00177 -0.726783 -0.243183 0.570573 -0.821357 0.421541 -0.187751 0.401068 -0.0609427 -1.35935 0.343478 0.38045 -0.121768 -0.125896 0.395252 0.24715 -0.521903 -0.295149 -0.295622 0.684238 -0.756002 -0.914237 -0.401267 -0.480773 -0.490863 0.14854 0.175182 -0.248831 -0.234057 0.674962 -0.571434 0.593503 -0.164226 0.192333 -0.264825 0.103681 0.00989312 -0.59301 -0.185689 -0.0789532 0.554944 0.422472 0.374807 -0.66413 -0.00199112 0.00772134 -0.197943 0.172238 0.192034 0.507503 0.413064 0.126085 0.491333 0.0838092 -0.0768428
55 0.0094857 0.0600677 -0.00908296 -0.0169791 0.67127 0.0220814 0.612984 -0.0667569 0.314487 0.867309 -0.694147 -0.239021 0.618656 -0.767888 0.463219 -0.237955 0.420131 -0.0189214 -1.40446 0.22024 0.402873 -0.109773 -0.16027 0.420858 0.310947 -0.608948 -0.314283 -0.361979 0.660618 -0.860221 -1.0096 -0.491769 -0.478099 -0.510808 0.130878 0.174383 -0.266147 -0.224679 0.666535 -0.561708 0.634721 -0.240553 0.176416 -0.331591 0.0410114 -0.0431347 -0.618133 -0.250805 -0.0929416 0.638736 0.458095 0.39519 -0.689839 -0.0317401 -0.0599469 -0.239421 0.118505 0.198964 0.605171 0.442559 0.0841219 0.571853 0.0996348 -0.0660825
17 -0.0162695 -0.159433 -0.169836 -0.00264644 0.697336 -0.0523873 0.560604 -0.0566461 0.413147 1.02113 -0.727318 -0.307 0.686733 -0.790008 0.585506 -0.269629 0.301433 -0.0277436 -1.32213 0.116174 0.424736 -0.0780939 -0.179746 0.375902 0.327572 -0.661908 -0.391095 -0.353096 0.57585 -0.922687 -1.08982 -0.482758 -0.516345 -0.57998 0.150047 0.194253 -0.258667 -0.29966 0.609134 -0.536901 0.663285 -0.404388 0.171311 -0.430463 -0.0453435 -0.119996 -0.586623 -0.273715 -0.0872494 0.742377 0.475403 0.411127 -0.64539 -0.120523 -0.172194 -0.311157 0.110634 0.160647 0.718007 0.440567 0.0571978 0.604183 0.127525 -0.09674
85 -0.0270016 -0.0617726 -0.160682 -0.0176621 0.701839 0.00175573 0.554892 -0.0819624 0.399388 1.06331 -0.694753 -0.243118 0.629348 -0.804273 0.477417 -0.205109 0.384225 -0.0524544 -1.53713 0.251154 0.46857 -0.0879964 -0.211268 0.444304 0.282016 -0.629583 -0.336884 -0.282927 0.665242 -0.911569 -1.1017 -0.530549 -0.495254 -0.584756 0.150174 0.217472 -0.254341 -0.253542 0.635778 -0.579186 0.587981 -0.279035 0.184362 -0.361074 -0.00579941 -0.0235875 -0.591962 -0.256891 -0.0556521 0.568142 0.403337 0.38019 -0.557814 -0.0714808 -0.0679548 -0.215729 0.115449 0.145279 0.546623 0.350616 0.0809509 0.538211 0.0976636 -0.0971948
102 -0.0276996 -0.0632982 -0.174315 -0.0151911 0.653108 0.00521251 0.590511 -0.0734193 0.385637 1.10084 -0.713222 -0.268551 0.627668 -0.829205 0.50294 -0.213447 0.378492 -0.049766 -1.49889 0.242482 0.460211 -0.0822503 -0.196859 0.42782 0.288232 -0.625341 -0.34284 -0.289321 0.654041 -0.887263 -1.07739 -0.500436 -0.500543 -0.575708 0.162609 0.2244 -0.251466 -0.269859 0.645164 -0.561719 0.584828 -0.270068 0.180144 -0.369493 -0.0170247 -0.0214992 -0.59821 -0.244601 -0.0506998 0.604402 0.430818 0.385114 -0.594138 -0.0777471 -0.058145 -0.254904 0.135164 0.149941 0.591861 0.378626 0.0884341 0.559008 0.098207 -0.0977572
143 -0.0443708 -0.050715 -0.157108 -0.0136299 0.738017 -0.0371051 0.54474 -0.0716195 0.408376 1.04252 -0.695154 -0.278942 0.58744 -0.769373 0.492022 -0.214043 0.321508 -0.047698 -1.39298 0.211741 0.447441 -0.0823864 -0.195245 0.392625 0.331154 -0.641052 -0.326745 -0.30344 0.610787 -0.899357 -1.0552 -0.483431 -0.520692 -0.600296 0.167525 0.224746 -0.244252 -0.264763 0.575906 -0.53922 0.568516 -0.285153 0.203117 -0.370152 -0.0142875 -0.0320359 -0.530659 -0.227904 -0.0626461 0.505305 0.365729 0.376407 -0.511773 -0.0609795 -0.0474236 -0.234027 0.0869627 0.120711 0.493216 0.320433 0.0785618 0.477727 0.0807193 -0.0770134
130 -0.0178219 0.00605611 -0.123512 -0.0405662 0.738951 0.013215 0.631202 -0.106484 0.377892 1.07074 -0.761913 -0.270545 0.679649 -0.840185 0.483308 -0.217314 0.376746 -0.0566278 -1.40608 0.273166 0.438286 -0.109234 -0.155621 0.403159 0.24334 -0.541004 -0.338178 -0.259416 0.613146 -0.815519 -1.04179 -0.527251 -0.475525 -0.566425 0.112181 0.194505 -0.25799 -0.235078 0.650046 -0.609154 0.566786 -0.270501 0.177621 -0.385078 -0.00344863 -0.0300722 -0.579337 -0.251613 -0.0466948 0.528601 0.370589 0.355632 -0.567989 -0.0585306 -0.0467152 -0.210437 0.132007 0.13202 0.510191 0.36637 0.106897 0.472488 0.0597295 -0.0620682
3 0.0466837 0.180484 -0.0588005 -0.0265236 0.810241 0.0639456 0.777201 -0.0825723 0.300777 1.04674 -0.769312 -0.247398 0.68534 -0.8751 0.530124 -0.2229 0.372755 -0.0338271 -1.34023 0.290944 0.366822 -0.121433 -0.141282 0.403377 0.232633 -0.481139 -0.313033 -0.267255 0.635096 -0.744335 -0.926938 -0.463487 -0.463181 -0.472159 0.132218 0.164979 -0.227784 -0.187177 0.691028 -0.605063 0.468165 -0.188174 0.185899 -0.310574 0.0333398 -0.0158046 -0.591793 -0.220805 -0.0595736 0.526417 0.346073 0.319207 -0.58294 -0.0424887 -0.02154 -0.22877 0.155991 0.178273 0.521418 0.396306 0.11894 0.48439 0.0909554 -0.0675277
46 0.0188227 0.107899 -0.149754 0.0115218 0.665182 -0.0395443 0.597484 -0.0887568 0.443974 1.13614 -0.807149 -0.316113 0.678605 -0.906028 0.515918 -0.239926 0.292462 -0.056678 -1.44347 0.247954 0.498816 -0.098135 -0.227415 0.435704 0.281642 -0.542436 -0.220603 -0.241111 0.556969 -0.845474 -1.06851 -0.444494 -0.454795 -0.544122 0.176349 0.271439 -0.215057 -0.241944 0.506804 -0.549695 0.466411 -0.229878 0.218851 -0.348571 -0.0107625 0.00635325 -0.517413 -0.212914 -0.0713694 0.439809 0.351168 0.395793 -0.46752 -0.0442884 -0.0412273 -0.25197 0.100213 0.102722 0.457926 0.289619 0.13246 0.515356 0.0908203 -0.11525
76 0.00832153 0.0156643 -0.194766 -0.00312854 0.671894 -0.0178288 0.465642 -0.0764283 0.416492 0.986495 -0.689616 -0.25144 0.569963 -0.736618 0.456782 -0.229015 0.318538 -0.0676239 -1.41388 0.236366 0.487833 -0.0831178 -0.234677 0.401276 0.278792 -0.574221 -0.240388 -0.233732 0.538927 -0.836031 -1.08873 -0.473131 -0.466726 -0.555956 0.163653 0.229472 -0.213549 -0.209293 0.519731 -0.562383 0.511366 -0.262917 0.214475 -0.363845 -0.00579839 -0.0302649 -0.544813 -0.224762 -0.0597072 0.491227 0.365363 0.39623 -0.459572 -0.0702641 -0.0623585 -0.20955 0.0702066 0.0801672 0.445988 0.282338 0.0934678 0.494213 0.0734558 -0.0953888
104 -0.0554286 -0.083749 -0.144135 -0.0317386 0.752002 0.0098032 0.574966 -0.0909322 0.374205 1.09449 -0.745602 -0.245786 0.707334 -0.762534 0.450518 -0.207521 0.430187 -0.011085 -1.24781 0.189003 0.362991 -0.0907016 -0.118796 0.401444 0.205259 -0.535595 -0.37015 -0.237441 0.577921 -0.772388 -0.975281 -0.542244 -0.426771 -0.528466 0.0754984 0.148586 -0.232575 -0.187736 0.639091 -0.592037 0.627771 -0.304698 0.109319 -0.435874 -0.0333964 -0.0750221 -0.602243 -0.273211 -0.0299405 0.619422 0.446439 0.299325 -0.624142 -0.0932625 -0.12352 -0.257097 0.146979 0.169642 0.590461 0.400305 0.0654956 0.536594 0.0748597 -0.0622912
1 -0.047393 -0.116919 -0.204022 -0.0614828 0.804789 0.0108408 0.641517 -0.0832241 0.39291 1.16038 -0.726696 -0.248259 0.76261 -0.83297 0.518654 -0.209578 0.413213 -0.011925 -1.35031 0.195602 0.366649 -0.0658565 -0.139543 0.413424 0.205524 -0.524546 -0.409733 -0.237169 0.575897 -0.774673 -0.96664 -0.544726 -0.446263 -0.531093 0.0910297 0.141737 -0.224657 -0.18854 0.650695 -0.564339 0.565673 -0.319712 0.0907627 -0.426245 -0.0698873 -0.0747116 -0.597524 -0.268221 -0.00619996 0.673614 0.437211 0.277144 -0.601301 -0.130545 -0.144057 -0.251276 0.136916 0.179589 0.642938 0.39574 0.069782 0.53968 0.106567 -0.0590455
27 -0.0911811 -0.252973 -0.18656 -0.0606802 0.86657 0.0157108 0.5757 -0.0839388 0.355052 0.928089 -0.6151 -0.194075 0.658074 -0.621979 0.439209 -0.209833 0.380685 0.00850352 -1.19125 0.0991307 0.265093 -0.0695566 -0.123714 0.371403 0.226825 -0.55292 -0.446513 -0.318302 0.570501 -0.82465 -0.991254 -0.569532 -0.456491 -0.553961 0.085918 0.0915334 -0.260609 -0.22144 0.718973 -0.582515 0.734009 -0.414641 0.0952179 -0.503059 -0.0442613 -0.11881 -0.666351 -0.361668 -0.0737336 0.791687 0.520014 0.320428 -0.742181 -0.144743 -0.189498 -0.261118 0.132036 0.193843 0.727352 0.456884 0.0383626 0.574929 0.104173 -0.0471108
138 -0.0573434 -0.131593 -0.173134 -0.0412714 0.829244 0.0327712 0.704287 -0.110275 0.433325 1.1704 -0.842544 -0.284715 0.782006 -0.856477 0.530407 -0.228333 0.429992 -0.048175 -1.32332 0.203285 0.39445 -0.082062 -0.144756 0.411238 0.213355 -0.552208 -0.444196 -0.259828 0.651642 -0.872121 -1.09068 -0.601788 -0.470847 -0.56886 0.0913162 0.136005 -0.25752 -0.228004 0.712085 -0.621166 0.583321 -0.344896 0.0923555 -0.440151 -0.0242115 -0.0770176 -0.58754 -0.271816 -0.00978076 0.611742 0.398637 0.263679 -0.54764 -0.109135 -0.122269 -0.235296 0.130951 0.150799 0.610588 0.383148 0.0680063 0.523945 0.0778742 -0.0600794
75 -0.0275401 -0.108422 -0.152001 -0.0372094 0.859998 0.0305567 0.67475 -0.095392 0.39616 1.05455 -0.81442 -0.275933 0.720772 -0.767757 0.478345 -0.244635 0.372054 -0.0399375 -1.29649 0.219581 0.377653 -0.13024 -0.153729 0.396379 0.215021 -0.532395 -0.351577 -0.3035 0.599578 -0.870544 -1.09005 -0.554924 -0.493886 -0.559485 0.0955976 0.13471 -0.240074 -0.231308 0.694215 -0.631547 0.666024 -0.375388 0.151491 -0.461526 0.00734835 -0.125006 -0.659685 -0.289451 -0.0658069 0.646326 0.447237 0.353803 -0.683247 -0.0648427 -0.120029 -0.261996 0.139961 0.143504 0.595344 0.420524 0.0863963 0.540689 0.0738064 -0.0865094
118 -0.00477663 0.0109215 -0.105901 -0.0439805 0.766851 0.0411797 0.708862 -0.0969845 0.353514 1.0324 -0.780198 -0.255813 0.730322 -0.780589 0.479981 -0.23182 0.347358 -0.0240999 -1.16058 0.237769 0.334903 -0.130323 -0.117675 0.392377 0.173057 -0.453685 -0.35792 -0.240851 0.594448 -0.746808 -0.963595 -0.525463 -0.459161 -0.506544 0.0833477 0.106377 -0.240855 -0.208157 0.69929 -0.626741 0.577983 -0.299453 0.137671 -0.42121 -0.00157004 -0.0672002 -0.637683 -0.268069 -0.04203 0.594523 0.403088 0.296887 -0.660992 -0.054463 -0.107284 -0.26942 0.188139 0.164682 0.564221 0.419085 0.0899647 0.491214 0.0640271 -0.0601874
139 -0.0320086 -0.0720802 -0.170504 -0.0370859 0.789373 0.0252614 0.670273 -0.0906011 0.405667 1.15732 -0.763898 -0.270748 0.716833 -0.857416 0.529174 -0.220466 0.36959 -0.0358329 -1.40897 0.249235 0.431166 -0.109899 -0.160759 0.411202 0.246987 -0.570994 -0.35949 -0.251013 0.624894 -0.828051 -1.03917 -0.518337 -0.474943 -0.550044 0.120145 0.193983 -0.235667 -0.228575 0.683052 -0.60563 0.584017 -0.308136 0.160612 -0.396302 -0.0125219 -0.0483539 -0.607282 -0.253852 -0.0271654 0.608958 0.411209 0.348576 -0.60195 -0.085672 -0.0831052 -0.245067 0.164813 0.161336 0.576033 0.379012 0.0851785 0.528943 0.0877264 -0.0820807
133 -0.0398244 -0.104837 -0.159634 -0.039601 0.785639 0.0358784 0.612764 -0.103142 0.354562 1.00814 -0.659587 -0.218079 0.667385 -0.707512 0.450339 -0.18997 0.345339 -0.0153886 -1.20745 0.203408 0.337909 -0.107445 -0.114611 0.359005 0.170535 -0.44775 -0.326598 -0.220202 0.519644 -0.720186 -0.886362 -0.476421 -0.387812 -0.444624 0.0708949 0.141837 -0.213402 -0.183444 0.623677 -0.54631 0.545977 -0.302627 0.108749 -0.376409 -0.0127735 -0.0780322 -0.584664 -0.263073 -0.0316964 0.587604 0.411231 0.295416 -0.619582 -0.0755656 -0.106312 -0.235417 0.154073 0.147845 0.533218 0.356043 0.0809073 0.481358 0.0636802 -0.0717024
147 -0.0552305 -0.161328 -0.20178 -0.0536572 0.81974 0.0362892 0.588139 -0.0935486 0.364383 1.04281 -0.68858 -0.228277 0.65623 -0.727049 0.448873 -0.194471 0.359094 -0.0184419 -1.22664 0.199925 0.34752 -0.108059 -0.119298 0.343635 0.192242 -0.501572 -0.349419 -0.263251 0.559849 -0.764234 -0.925823 -0.490238 -0.419825 -0.488561 0.0608006 0.143444 -0.210492 -0.200381 0.605987 -0.523812 0.587358 -0.317664 0.128409 -0.399862 -0.0100662 -0.0900297 -0.58791 -0.236955 -0.0331048 0.604097 0.442661 0.309313 -0.635352 -0.075506 -0.0870854 -0.238159 0.153276 0.150342 0.533143 0.360721 0.0746813 0.479614 0.0539017 -0.0646028
114 -0.0525985 -0.124704 -0.174377 -0.0191704 0.702039 0.00411727 0.541951 -0.0670153 0.351371 1.0065 -0.62008 -0.245682 0.565572 -0.717451 0.426717 -0.197174 0.325084 -0.0410874 -1.31805 0.214922 0.382287 -0.0906353 -0.145347 0.364685 0.28909 -0.569113 -0.30091 -0.293663 0.557277 -0.773722 -0.875347 -0.386649 -0.441131 -0.496734 0.133084 0.18521 -0.229783 -0.256604 0.574923 -0.489266 0.557364 -0.247914 0.176691 -0.321717 0.00949135 -0.0413316 -0.529329 -0.211597 -0.0749164 0.596635 0.415231 0.352181 -0.576978 -0.0575577 -0.0616871 -0.216579 0.114897 0.153515 0.538206 0.353835 0.0930185 0.474745 0.0908371 -0.0710539
65 0.0252855 0.0578118 -0.0463099 -0.016672 0.613549 0.0272353 0.56342 -0.0759976 0.313876 0.924126 -0.622151 -0.228511 0.609397 -0.790418 0.445345 -0.207184 0.394461 -0.0235312 -1.43608 0.247936 0.372313 -0.0922385 -0.143263 0.390748 0.245938 -0.520731 -0.275955 -0.28984 0.562587 -0.708834 -0.794531 -0.366699 -0.356454 -0.390042 0.113194 0.157898 -0.210861 -0.190819 0.561152 -0.440359 0.530999 -0.180105 0.160244 -0.265805 0.0255766 -0.0184277 -0.513137 -0.221881 -0.0874304 0.563195 0.412006 0.34138 -0.595251 -0.0356998 -0.0384975 -0.204382 0.102924 0.174736 0.537704 0.367859 0.0806065 0.476298 0.097753 -0.0392978
29 0.0781006 0.176959 0.00792016 -0.00762056 0.628736 0.0679124 0.666688 -0.0944537 0.277624 0.926402 -0.719817 -0.227059 0.66064 -0.888419 0.468691 -0.232219 0.424847 -0.0363962 -1.54983 0.334357 0.421569 -0.11244 -0.168541 0.444824 0.246944 -0.53494 -0.272008 -0.28683 0.660696 -0.754874 -0.939419 -0.440623 -0.404045 -0.441267 0.126174 0.173225 -0.247981 -0.202301 0.671527 -0.571051 0.561074 -0.14334 0.185309 -0.23648 0.0523316 -0.00730039 -0.619711 -0.255911 -0.0941047 0.539845 0.414615 0.388737 -0.657738 -0.0321894 -0.00684845 -0.198286 0.14972 0.199738 0.555882 0.428816 0.110524 0.519389 0.0893506 -0.0496024
82 -0.0473396 -0.0627909 -0.135612 -0.0442806 0.793622 0.0309967 0.666964 -0.108442 0.363906 1.07249 -0.719903 -0.228941 0.718687 -0.76673 0.47986 -0.214122 0.394307 -0.0126628 -1.22105 0.190127 0.332692 -0.0816684 -0.108795 0.375203 0.198181 -0.49328 -0.388764 -0.250867 0.588895 -0.762371 -0.959113 -0.527624 -0.408702 -0.482872 0.0767997 0.126889 -0.23297 -0.197854 0.677008 -0.577517 0.592159 -0.309749 0.114147 -0.425382 -0.0064425 -0.0739012 -0.635012 -0.266829 -0.0445758 0.648211 0.464148 0.304742 -0.637449 -0.0880187 -0.124766 -0.261607 0.162738 0.175432 0.631665 0.401414 0.0790521 0.552693 0.0780627 -0.0641893
113 -0.0415654 -0.104254 -0.17919 -0.017658 0.743819 -0.0151545 0.58346 -0.0638906 0.427485 1.11717 -0.746977 -0.296769 0.662929 -0.829956 0.524161 -0.233631 0.392677 -0.0438677 -1.51302 0.219811 0.464515 -0.0791419 -0.187926 0.423377 0.317768 -0.67269 -0.371864 -0.325011 0.648814 -0.918352 -1.09966 -0.503611 -0.505391 -0.590648 0.141829 0.214447 -0.257771 -0.262086 0.650329 -0.568085 0.625745 -0.313733 0.168022 -0.405817 -0.0196157 -0.0525261 -0.575447 -0.263116 -0.0582735 0.635897 0.43007 0.366736 -0.588248 -0.0882666 -0.0949362 -0.247558 0.116789 0.136568 0.584075 0.36334 0.0782685 0.539894 0.108834 -0.0851382
9 0.0642352 0.133126 -0.0535245 0.0133993 0.663539 -0.0160854 0.617071 -0.0719752 0.406255 1.06437 -0.788046 -0.299801 0.62221 -0.877428 0.554403 -0.26808 0.316447 -0.0341073 -1.46962 0.240231 0.487632 -0.0826771 -0.234173 0.440987 0.280072 -0.527271 -0.244196 -0.263139 0.610168 -0.880862 -1.1101 -0.513072 -0.47881 -0.544215 0.198121 0.232891 -0.229315 -0.20824 0.599067 -0.604686 0.55961 -0.250014 0.224497 -0.368171 0.00701893 -0.00969728 -0.633591 -0.277327 -0.0932734 0.612111 0.494703 0.470125 -0.622165 -0.0634806 -0.067116 -0.304987 0.115567 0.166125 0.613291 0.412696 0.106315 0.662196 0.114211 -0.0749153
136 -0.00936868 -0.00644253 -0.15451 -0.00670323 0.680596 -0.0293969 0.477793 -0.0808417 0.409381 1.0309 -0.706804 -0.262537 0.606222 -0.772378 0.485364 -0.231906 0.339051 -0.0560563 -1.38977 0.226097 0.473886 -0.0904021 -0.201581 0.409822 0.306001 -0.628701 -0.283332 -0.281116 0.608385 -0.89299 -1.1125 -0.492878 -0.498157 -0.595736 0.152615 0.223448 -0.24267 -0.242671 0.567365 -0.589746 0.613032 -0.287171 0.216454 -0.402624 0.000667479 -0.0477649 -0.572267 -0.228387 -0.0709575 0.552455 0.408059 0.431602 -0.544486 -0.0703376 -0.053865 -0.226752 0.0851664 0.122896 0.493411 0.323556 0.0909588 0.532629 0.0805237 -0.091342
63 -0.0399935 -0.114359 -0.245398 -0.0313497 0.872745 -0.0419845 0.68231 -0.104471 0.471753 1.21956 -0.836415 -0.314171 0.780398 -0.906189 0.543425 -0.258382 0.303928 -0.0443324 -1.41319 0.176354 0.403195 -0.109262 -0.182166 0.399326 0.299757 -0.56143 -0.306605 -0.314341 0.515752 -0.852824 -1.01273 -0.435436 -0.450298 -0.524326 0.136685 0.224381 -0.207494 -0.278213 0.507155 -0.509629 0.545452 -0.330228 0.158697 -0.37804 -0.0257361 -0.107762 -0.509792 -0.224532 -0.0897154 0.530296 0.381674 0.344683 -0.523352 -0.0806961 -0.11996 -0.271242 0.111999 0.121431 0.560944 0.341304 0.112373 0.473645 0.114934 -0.115548
23 -0.0534231 -0.0704477 -0.25193 -0.00789999 0.812209 -0.0148071 0.594073 -0.0837831 0.461404 1.25037 -0.774773 -0.274594 0.614041 -0.846974 0.517319 -0.197533 0.370839 -0.075084 -1.48953 0.247099 0.483507 -0.0515593 -0.223679 0.418786 0.265311 -0.576917 -0.336882 -0.21536 0.59329 -0.866774 -1.12435 -0.530079 -0.515665 -0.62758 0.183128 0.263673 -0.224071 -0.222516 0.602795 -0.607679 0.497362 -0.271878 0.176204 -0.392026 -0.0276759 -0.0153167 -0.545404 -0.241456 -0.0209736 0.545191 0.369518 0.361668 -0.443111 -0.110727 -0.0481531 -0.213368 0.10122 0.101917 0.500216 0.294312 0.0916074 0.537624 0.0854734 -0.0899294
97 -0.0687642 -0.17251 -0.175051 -0.0445548 0.874184 0.00205652 0.68488 -0.0948342 0.408327 1.0907 -0.713003 -0.257841 0.734066 -0.813135 0.502446 -0.228527 0.376658 -0.02051 -1.37064 0.150931 0.352248 -0.0901361 -0.129152 0.374167 0.243795 -0.516708 -0.387206 -0.262608 0.523208 -0.745751 -0.858865 -0.455918 -0.38697 -0.465445 0.0926897 0.15037 -0.233638 -0.217568 0.626601 -0.500962 0.556341 -0.303944 0.105522 -0.39506 -0.0474028 -0.0798496 -0.551592 -0.264558 -0.0373645 0.607193 0.414614 0.261734 -0.593644 -0.0954403 -0.122109 -0.255221 0.135583 0.175736 0.631672 0.39848 0.0760637 0.483609 0.0935964 -0.0614298
125 -0.0587776 -0.193624 -0.219778 -0.0334669 0.93968 0.017729 0.677292 -0.0836562 0.411062 1.12707 -0.724308 -0.256632 0.718632 -0.805167 0.472085 -0.223551 0.388884 -0.0453426 -1.48653 0.21202 0.378591 -0.114442 -0.151798 0.378989 0.26903 -0.584947 -0.353273 -0.303917 0.56168 -0.845961 -0.922397 -0.428806 -0.401459 -0.482567 0.107017 0.165401 -0.238798 -0.277891 0.61264 -0.524838 0.6346 -0.304357 0.145726 -0.366399 0.0148922 -0.0854524 -0.593572 -0.259547 -0.0925625 0.645611 0.457791 0.338756 -0.657939 -0.0837647 -0.119863 -0.267162 0.136977 0.154264 0.614723 0.416477 0.0884476 0.505675 0.0962279 -0.0762082
32 -0.0020915 -0.0718813 -0.175523 -0.029986 0.870453 -0.00210498 0.70002 -0.0977061 0.424921 1.1596 -0.739268 -0.287999 0.735241 -0.851421 0.536919 -0.250909 0.333229 -0.0131795 -1.47373 0.215354 0.386161 -0.10359 -0.169098 0.415971 0.255013 -0.535287 -0.326815 -0.309083 0.553803 -0.825076 -0.9401 -0.438947 -0.40496 -0.496144 0.111973 0.18468 -0.208975 -0.256269 0.577168 -0.5017 0.57093 -0.299387 0.156747 -0.390505 -0.0194247 -0.0869045 -0.601674 -0.286847 -0.102215 0.631097 0.454755 0.383738 -0.669094 -0.0847851 -0.0985172 -0.300627 0.131671 0.182119 0.644578 0.404104 0.0984644 0.538889 0.108958 -0.0903551
120 -0.0609076 -0.145916 -0.225066 -0.0210814 0.760686 -0.0372368 0.539392 -0.0583467 0.401347 1.07613 -0.626921 -0.270483 0.592685 -0.747505 0.490446 -0.207279 0.289055 -0.0313707 -1.31313 0.156976 0.388861 -0.0755413 -0.176416 0.352707 0.312395 -0.588628 -0.333412 -0.280958 0.543541 -0.803954 -0.929222 -0.41267 -0.481771 -0.547754 0.167091 0.232412 -0.217302 -0.249673 0.532562 -0.499615 0.543934 -0.309661 0.149766 -0.378684 -0.0445209 -0.0486062 -0.482319 -0.227331 -0.0632451 0.58021 0.368743 0.353407 -0.506352 -0.0942839 -0.079743 -0.25106 0.11413 0.146331 0.549306 0.326674 0.0798995 0.47815 0.115364 -0.0850937
10 -0.0390278 -0.0386231 -0.127867 -0.0266359 0.853245 -0.0126936 0.693833 -0.0934879 0.400263 1.11506 -0.765754 -0.277893 0.71055 -0.816443 0.521223 -0.231923 0.406931 -0.0121496 -1.43161 0.187856 0.415522 -0.0955445 -0.165275 0.418621 0.25499 -0.52574 -0.359125 -0.308307 0.568541 -0.848283 -1.03959 -0.533675 -0.461883 -0.555081 0.107899 0.167898 -0.24048 -0.240703 0.648232 -0.568611 0.592114 -0.287714 0.133251 -0.393178 -0.00961718 -0.0846794 -0.595157 -0.261077 -0.0638155 0.589636 0.378001 0.332751 -0.608281 -0.0828281 -0.0979061 -0.230118 0.109938 0.147995 0.573414 0.369234 0.0788696 0.521343 0.0971385 -0.0719495
30 -0.0149832 -0.148173 -0.157835 -0.0419385 1.00545 -0.0312496 0.719499 -0.0991944 0.412462 1.07987 -0.796804 -0.285348 0.920549 -0.84138 0.532673 -0.309672 0.372719 -0.00208603 -1.36764 0.0783913 0.280867 -0.13131 -0.145108 0.371755 0.275537 -0.563218 -0.354906 -0.363736 0.417505 -0.800517 -0.869593 -0.430756 -0.336833 -0.430258 0.0605293 0.0838858 -0.230388 -0.250942 0.541614 -0.49214 0.654805 -0.389158 0.0794721 -0.420099 -0.055833 -0.193281 -0.555108 -0.299489 -0.122333 0.669777 0.4073 0.271347 -0.645064 -0.130813 -0.235316 -0.28785 0.0735345 0.176513 0.722529 0.454423 0.0766974 0.49835 0.127933 -0.0761123
37 -0.0407567 -0.101059 -0.213882 -0.0449804 0.902183 -0.00715679 0.681098 -0.108655 0.418125 1.18558 -0.727296 -0.253708 0.735249 -0.814308 0.532508 -0.217587 0.395946 -0.0135165 -1.4442 0.20419 0.381521 -0.0724077 -0.16905 0.42047 0.206128 -0.52074 -0.397869 -0.22984 0.572843 -0.809747 -0.993274 -0.537218 -0.429981 -0.564378 0.105182 0.16223 -0.232185 -0.196226 0.642879 -0.561135 0.544224 -0.304252 0.118342 -0.423159 -0.0811201 -0.0584195 -0.575986 -0.304128 -0.0305629 0.57926 0.381634 0.280751 -0.539246 -0.133513 -0.122826 -0.232579 0.109668 0.154728 0.6064 0.361641 0.0759906 0.518918 0.100459 -0.0588148
51 0.067837 0.184983 0.0140396 -0.0195773 0.618149 0.068985 0.66021 -0.093338 0.28335 0.869067 -0.649251 -0.200176 0.644376 -0.793879 0.456586 -0.210063 0.395997 -0.03665 -1.34645 0.296118 0.378926 -0.111485 -0.139631 0.403111 0.216872 -0.475714 -0.276351 -0.246527 0.608676 -0.699368 -0.86326 -0.45175 -0.355292 -0.380054 0.0912159 0.154826 -0.221362 -0.182073 0.649746 -0.546892 0.49661 -0.160912 0.194284 -0.269604 0.0487738 -0.00742533 -0.666977 -0.250429 -0.0794756 0.57005 0.456251 0.376586 -0.696801 -0.0239122 -0.022498 -0.234644 0.174019 0.200546 0.548428 0.423014 0.0978401 0.533385 0.080015 -0.0562602
36 -0.0287084 -0.0659152 -0.105103 -0.0246449 0.729397 0.0330645 0.602855 -0.0690431 0.342141 0.988889 -0.653283 -0.240633 0.637288 -0.77956 0.432542 -0.214996 0.412469 -0.0397619 -1.44598 0.261851 0.371478 -0.117341 -0.154608 0.394153 0.285343 -0.556223 -0.287506 -0.302784 0.583065 -0.787523 -0.842412 -0.395438 -0.414986 -0.434012 0.12229 0.200235 -0.241616 -0.256181 0.584811 -0.506506 0.579195 -0.213788 0.146371 -0.288151 0.0508101 -0.0159805 -0.579557 -0.235671 -0.0813281 0.598422 0.461298 0.352342 -0.670557 -0.0275748 -0.0606414 -0.237222 0.151905 0.171145 0.550413 0.408556 0.0933966 0.499538 0.0893277 -0.0632376
33 -0.0102887 -0.0685612 -0.107293 -0.0446625 0.815268 0.0688127 0.711788 -0.100709 0.306474 0.963225 -0.647543 -0.182593 0.775386 -0.762986 0.436816 -0.218131 0.426885 -0.00751169 -1.3678 0.203931 0.278868 -0.136785 -0.0973842 0.375817 0.165225 -0.446955 -0.342114 -0.251638 0.502617 -0.69616 -0.785728 -0.44607 -0.266745 -0.336692 0.0275404 0.0859272 -0.211664 -0.204783 0.640655 -0.509375 0.55391 -0.274171 0.068953 -0.328063 0.0127787 -0.104387 -0.574152 -0.269311 -0.0515317 0.594752 0.404557 0.238312 -0.637115 -0.100779 -0.138754 -0.222172 0.136525 0.181074 0.601639 0.410379 0.0786271 0.460263 0.0876037 -0.0597372
0 0.0235287 0.033198 -0.101507 -0.0201753 0.723245 0.0353375 0.658112 -0.0979935 0.348953 0.999969 -0.75983 -0.252085 0.671702 -0.834343 0.477877 -0.236247 0.374748 -0.0328735 -1.33226 0.283942 0.397061 -0.106969 -0.166584 0.435348 0.217855 -0.507993 -0.29149 -0.285857 0.59788 -0.793954 -1.04805 -0.502848 -0.474146 -0.528592 0.10279 0.179433 -0.227284 -0.198552 0.646908 -0.617666 0.614218 -0.284445 0.156375 -0.395938 0.0338381 -0.0675022 -0.654409 -0.277095 -0.0724656 0.656366 0.467881 0.390783 -0.658032 -0.0688591 -0.0817629 -0.243034 0.143919 0.166186 0.587991 0.419145 0.116587 0.580536 0.0879201 -0.0781837
137 -0.0274316 -0.0706585 -0.17384 -0.0269852 0.811693 -0.0171278 0.612557 -0.0652992 0.403933 1.09788 -0.749616 -0.265245 0.688661 -0.813821 0.504631 -0.22712 0.420334 -0.053311 -1.42894 0.192401 0.416533 -0.067 -0.175671 0.405958 0.271021 -0.583948 -0.394523 -0.269214 0.592135 -0.826424 -1.02129 -0.516548 -0.481652 -0.563515 0.128551 0.187804 -0.251005 -0.227749 0.642542 -0.576857 0.552828 -0.297101 0.140629 -0.392268 -0.0568557 -0.0430725 -0.545327 -0.254855 -0.0281427 0.584058 0.353639 0.308205 -0.494616 -0.0975056 -0.109248 -0.206778 0.0964481 0.148815 0.577958 0.367088 0.0572636 0.49917 0.104148 -0.0627271
132 -0.0624159 -0.103714 -0.221516 -0.0201089 0.730067 0.0354231 0.593373 -0.0863081 0.382261 1.17993 -0.716812 -0.256618 0.578344 -0.83696 0.462104 -0.170083 0.392809 -0.0491198 -1.48512 0.293652 0.45533 -0.0803117 -0.160656 0.414314 0.260596 -0.59124 -0.336028 -0.251117 0.664346 -0.840119 -1.0184 -0.47348 -0.503772 -0.571482 0.160209 0.253753 -0.224226 -0.246459 0.640478 -0.544415 0.536705 -0.230142 0.167551 -0.326453 0.0105263 0.00353272 -0.527987 -0.204096 -0.0288353 0.530809 0.37377 0.342954 -0.51263 -0.0644084 -0.0125632 -0.184968 0.143592 0.14039 0.460704 0.292964 0.086635 0.461348 0.0867439 -0.0759101
108 -0.0332071 -0.0255056 -0.220293 -0.0272293 0.79808 0.00983882 0.658933 -0.0961211 0.462776 1.29344 -0.791142 -0.302301 0.659589 -0.929109 0.524653 -0.19987 0.34063 -0.0690118 -1.46126 0.301785 0.46078 -0.0909425 -0.179244 0.414599 0.275751 -0.553552 -0.307202 -0.253199 0.618604 -0.813847 -1.02677 -0.475441 -0.50631 -0.551339 0.168104 0.267653 -0.200807 -0.243795 0.596224 -0.570463 0.487927 -0.235463 0.200008 -0.345645 0.0213719 -0.000571261 -0.562046 -0.208051 -0.058281 0.532289 0.3995 0.377096 -0.549986 -0.05146 -0.00357252 -0.228716 0.163291 0.125364 0.475455 0.326463 0.121182 0.496709 0.0924379 -0.0977383
2 0.012155 0.0222517 -0.15277 -0.010301 0.620932 -0.0278389 0.509932 -0.0756871 0.409881 1.04449 -0.721894 -0.276287 0.659573 -0.828528 0.515987 -0.236691 0.363299 -0.0649408 -1.42177 0.234916 0.495869 -0.0669123 -0.217419 0.434622 0.292308 -0.613082 -0.324105 -0.256249 0.62022 -0.876578 -1.11614 -0.536537 -0.490287 -0.605619 0.144633 0.20775 -0.245282 -0.221422 0.604103 -0.578629 0.542993 -0.260304 0.192182 -0.378818 -0.0497515 -0.0245335 -0.557414 -0.246872 -0.0383135 0.525888 0.358236 0.374025 -0.496979 -0.0916938 -0.0651193 -0.214723 0.0943759 0.12084 0.527264 0.347877 0.0756315 0.516672 0.0803829 -0.0702704
86 -0.0119993 -0.0364175 -0.151767 -0.0295956 0.755785 0.00652151 0.598306 -0.101065 0.372521 1.00475 -0.660527 -0.244232 0.63262 -0.774193 0.469763 -0.207723 0.346467 -0.0321431 -1.29825 0.258083 0.404689 -0.0842627 -0.160465 0.390396 0.2486 -0.559854 -0.315221 -0.270917 0.590615 -0.795279 -0.986438 -0.474904 -0.466633 -0.509494 0.103829 0.184691 -0.234058 -0.213555 0.596793 -0.553514 0.521729 -0.248524 0.159053 -0.335754 0.0156575 -0.017381 -0.556037 -0.241792 -0.0664798 0.531332 0.392275 0.36629 -0.56205 -0.0516444 -0.0443242 -0.222914 0.121611 0.151466 0.519639 0.357756 0.0896003 0.496523 0.0759788 -0.0524493
50 -0.0267918 -0.0891749 -0.140046 -0.0338912 0.786833 0.0061949 0.569736 -0.0826047 0.34991 0.932725 -0.663793 -0.235999 0.631476 -0.697875 0.478452 -0.237386 0.36738 -0.020025 -1.38504 0.183804 0.390797 -0.0791133 -0.181205 0.386044 0.29925 -0.631986 -0.377992 -0.363156 0.64707 -0.929286 -1.12772 -0.5485 -0.498079 -0.596187 0.133604 0.183077 -0.260647 -0.270335 0.687903 -0.585489 0.699495 -0.342539 0.189706 -0.410511 0.00840081 -0.0908696 -0.663298 -0.294326 -0.101237 0.726985 0.487164 0.42006 -0.696682 -0.0874234 -0.112166 -0.270126 0.118755 0.161659 0.682817 0.430942 0.0757389 0.609833 0.0991289 -0.0738608
48 -0.0204929 -0.0664811 -0.14726 -0.0424926 0.875773 0.0206873 0.639726 -0.11507 0.411204 1.03923 -0.761649 -0.258106 0.701871 -0.752574 0.478073 -0.240616 0.351434 -0.0168914 -1.25684 0.198832 0.376729 -0.12259 -0.153011 0.36231 0.237542 -0.503344 -0.298229 -0.294726 0.582051 -0.859951 -1.05468 -0.535067 -0.462295 -0.508166 0.0904191 0.185581 -0.22571 -0.227525 0.61531 -0.598339 0.627364 -0.327201 0.152818 -0.419973 0.0302391 -0.108378 -0.655489 -0.285645 -0.0913437 0.607286 0.485395 0.374925 -0.712377 -0.0464494 -0.0946568 -0.296724 0.176828 0.144326 0.572397 0.408952 0.105656 0.541884 0.0694782 -0.0945621
21 -0.0498776 -0.0562369 -0.250134 -0.0429424 0.838298 0.00822679 0.702384 -0.0956432 0.45219 1.33468 -0.78701 -0.30661 0.686182 -0.926751 0.561149 -0.199492 0.300383 -0.030239 -1.34951 0.290591 0.443484 -0.107042 -0.153899 0.400969 0.268532 -0.568133 -0.329379 -0.242695 0.613643 -0.806315 -0.997124 -0.454211 -0.540083 -0.568952 0.146395 0.246317 -0.217749 -0.255329 0.582369 -0.565955 0.477804 -0.258865 0.181277 -0.360157 -0.00712814 -0.00608717 -0.59374 -0.199784 -0.0308161 0.549692 0.422639 0.401969 -0.589369 -0.0641612 -0.0383555 -0.281952 0.199023 0.167526 0.535241 0.353156 0.119971 0.515538 0.0912134 -0.101355
96 -0.0188574 -0.114969 -0.189971 -0.0285246 0.755001 -0.0336506 0.501522 -0.0654331 0.353608 0.947133 -0.606612 -0.246253 0.586129 -0.695832 0.439921 -0.222057 0.284706 -0.0179255 -1.26174 0.151052 0.34482 -0.0741174 -0.159286 0.345585 0.276252 -0.543365 -0.313392 -0.29373 0.477355 -0.765579 -0.863763 -0.392827 -0.439649 -0.533282 0.137096 0.168277 -0.214669 -0.226626 0.492539 -0.45377 0.546782 -0.300371 0.143133 -0.380935 -0.0499027 -0.0760445 -0.454102 -0.236992 -0.0854408 0.555488 0.341553 0.33064 -0.489788 -0.0990078 -0.0979043 -0.221908 0.0721782 0.128456 0.524071 0.316881 0.0705408 0.430214 0.0942858 -0.0581699
127 -0.0392403 -0.0502033 -0.11434 -0.0441295 0.815322 0.0316196 0.717122 -0.111683 0.401064 1.14653 -0.82565 -0.260437 0.779663 -0.831494 0.509471 -0.221808 0.428426 -0.018416 -1.32958 0.218004 0.378984 -0.105099 -0.144951 0.436555 0.186129 -0.522092 -0.410435 -0.232549 0.624565 -0.806719 -1.01155 -0.584311 -0.437626 -0.531037 0.0811096 0.120999 -0.261731 -0.194926 0.733306 -0.653355 0.615555 -0.318394 0.0998918 -0.435681 -0.0375754 -0.057938 -0.64557 -0.30981 -0.0164526 0.640859 0.441461 0.284496 -0.639399 -0.108065 -0.13604 -0.266353 0.16405 0.184211 0.640685 0.42406 0.0695092 0.566146 0.0738414 -0.0526346
38 0.00134922 0.00760002 -0.110104 -0.030474 0.678496 0.0680344 0.681604 -0.107024 0.339213 1.0416 -0.751175 -0.238923 0.687346 -0.828909 0.459068 -0.176403 0.36308 -0.041171 -1.34768 0.304287 0.396374 -0.146066 -0.13921 0.395163 0.186934 -0.476831 -0.312029 -0.255765 0.63816 -0.788894 -0.971686 -0.513131 -0.421358 -0.477511 0.0795341 0.162542 -0.210275 -0.237612 0.653609 -0.570733 0.544174 -0.251951 0.142914 -0.321675 0.0277844 -0.0307208 -0.612903 -0.241632 -0.0458504 0.52482 0.409222 0.322605 -0.675438 -0.0244135 -0.0558573 -0.254901 0.211906 0.140893 0.506162 0.390111 0.105937 0.460164 0.0609444 -0.0799691
111 -0.0209893 -0.0447085 -0.175046 -0.0172272 0.667189 -0.0596104 0.467155 -0.0415908 0.410354 1.04033 -0.726772 -0.292575 0.657367 -0.802681 0.493407 -0.264635 0.337923 -0.0501563 -1.36964 0.178049 0.44675 -0.0791321 -0.192324 0.40223 0.363405 -0.662665 -0.316858 -0.33236 0.561702 -0.866213 -1.05523 -0.45396 -0.521459 -0.598706 0.182571 0.235304 -0.25424 -0.278142 0.550792 -0.569167 0.621812 -0.31739 0.193282 -0.429566 -0.0275903 -0.0640504 -0.536001 -0.21853 -0.097746 0.601234 0.413736 0.406826 -0.534799 -0.0813906 -0.103229 -0.276536 0.0976975 0.135692 0.55228 0.370783 0.104059 0.530732 0.118803 -0.100823
64 -0.0256158 -0.0910743 -0.203612 -0.0158155 0.747505 -0.0313447 0.533889 -0.0633291 0.420893 1.10128 -0.708654 -0.291392 0.645258 -0.824745 0.51231 -0.235777 0.33298 -0.0427089 -1.47041 0.217108 0.459633 -0.0965206 -0.196965 0.419979 0.336871 -0.662573 -0.32521 -0.309975 0.602398 -0.877878 -1.06142 -0.45416 -0.522458 -0.59465 0.159361 0.245823 -0.246785 -0.265635 0.599231 -0.578656 0.619526 -0.30402 0.208089 -0.407919 -0.0099256 -0.0546985 -0.562734 -0.233637 -0.0841473 0.619089 0.413385 0.408839 -0.566929 -0.0739623 -0.0695569 -0.2499 0.118896 0.138818 0.542141 0.354799 0.105191 0.512728 0.100291 -0.0936727
78 -0.0267852 -0.0638333 -0.140778 -0.0203886 0.784789 0.0188304 0.631165 -0.0792038 0.34099 1.00092 -0.708244 -0.249538 0.64878 -0.769616 0.467429 -0.226933 0.390368 -0.0385415 -1.37224 0.241378 0.386141 -0.0978285 -0.144147 0.390921 0.264268 -0.589531 -0.341353 -0.327308 0.609223 -0.839948 -0.993314 -0.469837 -0.450422 -0.521851 0.124388 0.150495 -0.25273 -0.233668 0.629833 -0.558497 0.646585 -0.287589 0.185858 -0.372247 0.0165534 -0.0674372 -0.631734 -0.252343 -0.0902738 0.675155 0.457164 0.383879 -0.683622 -0.0769311 -0.102453 -0.260322 0.130079 0.189306 0.614183 0.438533 0.099765 0.571782 0.104364 -0.0645737
110 -0.0670418 -0.153436 -0.252592 -0.041161 0.931734 0.00370156 0.613572 -0.0840055 0.406768 1.13167 -0.695545 -0.247497 0.642987 -0.731535 0.461208 -0.198323 0.373378 -0.0269874 -1.43179 0.214224 0.375146 -0.0942199 -0.157832 0.37672 0.261189 -0.57773 -0.354259 -0.262863 0.54044 -0.808823 -0.908436 -0.452591 -0.433668 -0.521232 0.116784 0.159558 -0.225409 -0.233552 0.559707 -0.514723 0.586837 -0.276433 0.148689 -0.353364 -0.0282923 -0.052289 -0.547985 -0.25489 -0.0686409 0.597385 0.391209 0.320959 -0.571175 -0.100795 -0.107897 -0.221449 0.115898 0.140967 0.559857 0.354042 0.0796602 0.479201 0.0891241 -0.0759241
26 -0.0534335 -0.123713 -0.237279 -0.0322876 0.742975 -0.0167127 0.483682 -0.0730517 0.390958 1.03867 -0.62049 -0.228246 0.536657 -0.710057 0.457592 -0.181879 0.316435 -0.0250863 -1.32991 0.202377 0.417087 -0.053007 -0.192504 0.382782 0.277415 -0.585014 -0.340702 -0.271367 0.584477 -0.848401 -1.02233 -0.504761 -0.500888 -0.611418 0.155499 0.186822 -0.232748 -0.216025 0.557465 -0.512733 0.54939 -0.285568 0.168932 -0.375324 -0.0524578 -0.0284356 -0.543463 -0.22885 -0.0439656 0.581817 0.406439 0.367959 -0.516491 -0.100796 -0.0800554 -0.222677 0.0893588 0.141385 0.534791 0.308469 0.0730406 0.519524 0.0856987 -0.0717373
95 0.00131513 -0.0284983 -0.173742 0.00897167 0.79364 -0.0820481 0.521733 -0.0697183 0.448682 1.0373 -0.765592 -0.310436 0.584119 -0.71661 0.504094 -0.275847 0.256096 -0.0422215 -1.27711 0.177033 0.470618 -0.0954839 -0.243954 0.400733 0.348684 -0.645591 -0.255152 -0.330782 0.565666 -0.977786 -1.18012 -0.508956 -0.567329 -0.652855 0.166621 0.240239 -0.234704 -0.267557 0.507934 -0.583734 0.607036 -0.350923 0.265011 -0.460132 -0.00963557 -0.0972493 -0.595267 -0.238888 -0.110894 0.580486 0.427144 0.48855 -0.567887 -0.0433337 -0.0827427 -0.299089 0.0786283 0.109964 0.526775 0.337518 0.103981 0.565127 0.0821106 -0.0921838
87 -0.0333803 -0.0798734 -0.185632 -0.0214996 0.664306 -0.00604383 0.578584 -0.0960938 0.376323 1.02515 -0.679498 -0.249174 0.635011 -0.751395 0.471156 -0.196609 0.326713 -0.038374 -1.26711 0.199718 0.374093 -0.0655453 -0.17357 0.393555 0.219026 -0.502791 -0.312464 -0.2162 0.521992 -0.736833 -0.911684 -0.464452 -0.411448 -0.493125 0.110452 0.170081 -0.21089 -0.199874 0.541317 -0.496421 0.452929 -0.245772 0.142181 -0.339817 -0.0339622 -0.0342964 -0.500598 -0.232374 -0.0175926 0.49076 0.325639 0.269427 -0.425128 -0.0885354 -0.0782348 -0.190671 0.0825616 0.121736 0.489598 0.294962 0.0737575 0.443278 0.0778874 -0.091226
131 -0.0140411 -0.0293155 -0.10804 -0.0639427 0.779046 0.0614838 0.713362 -0.11365 0.368316 1.04257 -0.760417 -0.243929 0.733661 -0.759693 0.482837 -0.215705 0.352949 -0.0196087 -1.14804 0.225848 0.331976 -0.127668 -0.108211 0.388072 0.155363 -0.444192 -0.369746 -0.239315 0.611571 -0.77694 -0.981171 -0.564871 -0.433036 -0.484771 0.0716718 0.0989854 -0.235059 -0.198688 0.713172 -0.630455 0.572907 -0.310084 0.1005 -0.409053 0.0222797 -0.0659954 -0.644725 -0.282105 -0.0380607 0.597293 0.425422 0.28338 -0.681595 -0.0625502 -0.0964222 -0.263559 0.198852 0.16502 0.559181 0.403644 0.0791852 0.502595 0.0521895 -0.0467891
35 -0.0271027 -0.00703776 -0.132736 -0.0541848 0.846898 0.0810233 0.744835 -0.117412 0.378578 1.14733 -0.82725 -0.253423 0.722497 -0.820405 0.500594 -0.198866 0.388882 -0.0202704 -1.13123 0.270173 0.343689 -0.123144 -0.09292 0.377443 0.135161 -0.415708 -0.370967 -0.238165 0.639645 -0.751894 -1.00656 -0.585287 -0.48376 -0.535934 0.0573293 0.123061 -0.220913 -0.169632 0.7176 -0.627852 0.560241 -0.289567 0.117103 -0.421457 0.00724629 -0.05466 -0.666299 -0.252466 -0.0141152 0.594306 0.43447 0.297796 -0.68796 -0.047882 -0.0547349 -0.258733 0.222298 0.164858 0.537232 0.408429 0.0971073 0.498057 0.0570145 -0.0527693
128 -0.0189356 -0.0766766 -0.141917 -0.0114472 0.616422 -0.0366181 0.455117 -0.0533239 0.378499 0.927185 -0.654503 -0.269985 0.561875 -0.677091 0.459297 -0.221648 0.311449 -0.02868 -1.22767 0.135256 0.406398 -0.0728153 -0.182613 0.354627 0.296153 -0.609094 -0.332377 -0.306622 0.571186 -0.858917 -1.00948 -0.475704 -0.490322 -0.563225 0.151344 0.183884 -0.226632 -0.249643 0.545218 -0.491892 0.573687 -0.323075 0.167501 -0.407543 -0.0414739 -0.0706463 -0.493481 -0.231102 -0.0656096 0.540797 0.356976 0.340366 -0.47815 -0.0791703 -0.0950333 -0.233926 0.0733125 0.114032 0.515537 0.302656 0.0394403 0.464988 0.0909682 -0.0641688
68 -0.0397034 -0.130391 -0.177861 -0.0165644 0.782666 -0.0111789 0.588995 -0.0473927 0.388952 1.09855 -0.698664 -0.27229 0.655485 -0.799822 0.504035 -0.224066 0.415495 -0.0333522 -1.52668 0.211235 0.419995 -0.0861027 -0.171533 0.39847 0.29515 -0.609245 -0.378884 -0.28273 0.577502 -0.81078 -0.916674 -0.430818 -0.472959 -0.518784 0.136422 0.188743 -0.241673 -0.233565 0.632099 -0.527939 0.605585 -0.299052 0.130683 -0.366174 -0.0438592 -0.0482329 -0.532054 -0.255206 -0.0433764 0.634431 0.409834 0.31267 -0.568216 -0.0940285 -0.104517 -0.228761 0.125695 0.158551 0.576261 0.366994 0.0507127 0.490184 0.106235 -0.0689467
14 0.0148034 0.0379729 -0.0613697 0.00387704 0.592707 -0.031299 0.527433 -0.0654846 0.365969 0.966793 -0.698652 -0.284255 0.654713 -0.820157 0.54561 -0.260913 0.361557 -0.0324428 -1.4863 0.187079 0.444904 -0.0804031 -0.189938 0.412058 0.304438 -0.62715 -0.35149 -0.270993 0.588468 -0.811296 -0.944589 -0.449128 -0.424784 -0.52397 0.143367 0.202847 -0.268405 -0.228529 0.612449 -0.541675 0.572429 -0.27003 0.172877 -0.360308 -0.0757748 -0.0431949 -0.533198 -0.25368 -0.0581341 0.55978 0.37666 0.34699 -0.522543 -0.0954164 -0.097373 -0.247312 0.0879618 0.158314 0.592158 0.367768 0.0530678 0.524943 0.0903044 -0.0556775
146 -0.0160649 -0.0603473 -0.186133 -0.0160024 0.798554 -0.0109042 0.582164 -0.104744 0.405744 1.0107 -0.721189 -0.236407 0.639121 -0.749879 0.443768 -0.229635 0.305352 -0.0455291 -1.33504 0.212012 0.411753 -0.118323 -0.184824 0.378946 0.237997 -0.498075 -0.244691 -0.24853 0.51851 -0.812824 -1.00487 -0.46323 -0.411399 -0.479307 0.119626 0.206548 -0.194931 -0.230417 0.517092 -0.534982 0.54223 -0.293871 0.176096 -0.363091 0.00301101 -0.0893334 -0.563087 -0.252247 -0.0754081 0.54103 0.404913 0.368831 -0.576291 -0.0655934 -0.0797723 -0.25452 0.12038 0.118137 0.494165 0.327461 0.115237 0.493093 0.0860994 -0.107448
53 -0.0262059 -0.0554236 -0.25656 -0.0339238 0.901352 -0.00816003 0.592291 -0.10371 0.452274 1.16499 -0.735472 -0.248932 0.653224 -0.781156 0.474517 -0.234069 0.333729 -0.0361131 -1.39866 0.220741 0.428096 -0.103785 -0.198599 0.39155 0.249887 -0.520638 -0.259461 -0.261039 0.527185 -0.837261 -1.0881 -0.505591 -0.471847 -0.558857 0.14612 0.215276 -0.197225 -0.22478 0.542808 -0.566698 0.597382 -0.288996 0.211979 -0.423998 -0.00186184 -0.0514023 -0.665914 -0.285946 -0.106761 0.644798 0.51163 0.454812 -0.670765 -0.0806032 -0.0776215 -0.294465 0.146957 0.133555 0.576962 0.3624 0.133997 0.59372 0.0935461 -0.100629
92 -0.0447778 -0.0221896 -0.156202 0.00131456 0.707622 -0.0314215 0.539735 -0.0658282 0.393022 1.09976 -0.768627 -0.286247 0.617287 -0.785897 0.493464 -0.230985 0.393198 -0.0515929 -1.40931 0.227315 0.439419 -0.0743195 -0.185122 0.405021 0.310835 -0.635716 -0.312045 -0.284552 0.598534 -0.826835 -1.02495 -0.460493 -0.504465 -0.582954 0.160169 0.222101 -0.249991 -0.233776 0.591187 -0.579264 0.623826 -0.27253 0.205318 -0.379903 -0.0126019 -0.0366356 -0.560666 -0.221319 -0.0690353 0.607281 0.405346 0.382385 -0.547275 -0.0736582 -0.0814114 -0.231884 0.106005 0.145899 0.542205 0.363695 0.0934714 0.524349 0.105514 -0.0889449
106 -0.0788539 -0.176655 -0.199306 -0.0446268 0.733028 -0.0135916 0.495739 -0.0664055 0.334337 0.997537 -0.618852 -0.23687 0.570696 -0.668673 0.436035 -0.180058 0.354682 -0.00563524 -1.17374 0.166909 0.347545 -0.0433803 -0.12362 0.341968 0.278224 -0.613689 -0.394351 -0.309424 0.582086 -0.789575 -0.945615 -0.472018 -0.48855 -0.563995 0.107714 0.161732 -0.226562 -0.220021 0.59046 -0.492176 0.627845 -0.323129 0.145564 -0.418332 -0.0427975 -0.0634154 -0.550652 -0.236311 -0.0513878 0.656065 0.440674 0.355678 -0.599739 -0.102841 -0.111946 -0.23771 0.127023 0.171904 0.607076 0.379892 0.0478699 0.512075 0.105828 -0.0432688
40 -0.0486492 -0.110345 -0.18647 -0.0357153 0.772225 -0.0276104 0.470293 -0.0776848 0.376861 0.927322 -0.671498 -0.242719 0.578578 -0.644372 0.423198 -0.22916 0.359663 -0.0374284 -1.23079 0.140415 0.369722 -0.0800841 -0.170701 0.36425 0.291822 -0.584951 -0.322188 -0.322536 0.555367 -0.85795 -1.06139 -0.525326 -0.482183 -0.587519 0.130337 0.179805 -0.237626 -0.246643 0.56985 -0.558992 0.662948 -0.349438 0.183597 -0.453249 -0.0115323 -0.0984335 -0.608803 -0.269204 -0.0996423 0.65207 0.46278 0.412111 -0.614633 -0.0785072 -0.118809 -0.258828 0.088385 0.129311 0.575364 0.371996 0.0731439 0.563768 0.0937246 -0.0826825
134 -0.060118 -0.189273 -0.22919 -0.0347105 0.838371 0.0216647 0.61314 -0.0935504 0.388197 1.07404 -0.677792 -0.24479 0.673668 -0.750824 0.446886 -0.188751 0.351869 -0.0379744 -1.35313 0.199416 0.354803 -0.098455 -0.14271 0.341659 0.227053 -0.515357 -0.334001 -0.2628 0.521523 -0.792831 -0.902569 -0.439736 -0.371509 -0.461234 0.099156 0.17164 -0.214419 -0.25403 0.536702 -0.471506 0.533438 -0.289706 0.125356 -0.323133 -0.0111529 -0.0622114 -0.532065 -0.237209 -0.0551737 0.545611 0.41073 0.305267 -0.577286 -0.0796003 -0.107572 -0.242032 0.126967 0.128476 0.542986 0.345056 0.0837588 0.459294 0.0730442 -0.0903955
81 -0.0155872 -0.0341738 -0.132418 -0.0234652 0.6917 0.0357566 0.68693 -0.106368 0.38824 1.15342 -0.715748 -0.265078 0.701685 -0.890699 0.497436 -0.198566 0.387191 -0.0478199 -1.48576 0.282851 0.416081 -0.115242 -0.148011 0.421987 0.205544 -0.500762 -0.311581 -0.230309 0.593313 -0.772077 -0.891817 -0.436182 -0.350696 -0.402563 0.0929899 0.194381 -0.195243 -0.242145 0.585431 -0.48033 0.465328 -0.20535 0.128955 -0.282089 0.0169573 -0.0048013 -0.563625 -0.220217 -0.0293165 0.523773 0.413577 0.331633 -0.598501 -0.0407532 -0.0587265 -0.250832 0.173257 0.153857 0.540133 0.364679 0.0915546 0.492868 0.0871983 -0.0904801
5 -0.0119536 -0.0737686 -0.163996 -0.0573128 0.867154 0.058533 0.778527 -0.153829 0.405954 1.09462 -0.719306 -0.222632 0.793094 -0.82025 0.526852 -0.221271 0.331773 -0.0126911 -1.20654 0.198717 0.328098 -0.127312 -0.121526 0.369666 0.134606 -0.390932 -0.327466 -0.207634 0.528086 -0.730673 -0.896003 -0.521623 -0.305604 -0.349368 0.0291014 0.108421 -0.169043 -0.188349 0.607786 -0.518056 0.47415 -0.29701 0.101903 -0.364568 0.00722742 -0.0675843 -0.656972 -0.29586 -0.0443065 0.575641 0.487618 0.291767 -0.697319 -0.062472 -0.09481 -0.290212 0.202265 0.154116 0.568879 0.372043 0.0863528 0.502565 0.0665838 -0.0843304
60 -0.0464177 -0.140064 -0.224878 -0.0451419 0.945455 0.0136532 0.697794 -0.125309 0.442174 1.17515 -0.741169 -0.254032 0.754253 -0.770684 0.486136 -0.203638 0.328182 -0.00506634 -1.15604 0.179365 0.290542 -0.116767 -0.138234 0.355087 0.153035 -0.368753 -0.306294 -0.229026 0.457363 -0.707717 -0.862211 -0.479836 -0.395089 -0.455002 0.0512325 0.160368 -0.16732 -0.195737 0.523801 -0.512291 0.551997 -0.312357 0.110048 -0.429967 -0.0241691 -0.0879138 -0.597727 -0.281745 -0.0695693 0.605317 0.46846 0.299104 -0.660496 -0.0721074 -0.121453 -0.29347 0.166927 0.151515 0.571977 0.355284 0.0864808 0.501954 0.0884433 -0.0902051
103 -0.0498081 -0.164737 -0.207566 -0.05054 0.97459 -0.000466821 0.769276 -0.0972072 0.391349 1.18864 -0.755232 -0.267972 0.833029 -0.841446 0.510069 -0.246589 0.370913 0.0108817 -1.31568 0.160176 0.286189 -0.10456 -0.114009 0.383778 0.186202 -0.453834 -0.374926 -0.267555 0.435646 -0.653029 -0.752682 -0.394789 -0.358272 -0.421482 0.0715401 0.103087 -0.200368 -0.19876 0.594325 -0.47196 0.524261 -0.311634 0.0561144 -0.377145 -0.0625012 -0.120591 -0.513216 -0.260967 -0.0515634 0.629985 0.36547 0.204872 -0.565957 -0.13041 -0.169949 -0.243663 0.120214 0.192812 0.643858 0.394233 0.0889016 0.458474 0.115388 -0.0813842
66 -0.0438396 -0.11413 -0.160114 -0.018986 0.752924 -0.0204374 0.574177 -0.048456 0.39528 1.05128 -0.720949 -0.290703 0.649758 -0.80579 0.51817 -0.248636 0.382797 -0.0394824 -1.44023 0.19115 0.423483 -0.0963279 -0.180925 0.388094 0.329601 -0.641215 -0.387419 -0.32387 0.627348 -0.863978 -1.00008 -0.464817 -0.543682 -0.587538 0.156109 0.204619 -0.241153 -0.252862 0.6328 -0.548391 0.599539 -0.325313 0.15927 -0.385162 -0.0433248 -0.0584173 -0.520778 -0.235934 -0.0525855 0.63356 0.377614 0.344053 -0.552043 -0.0749665 -0.09393 -0.235757 0.115633 0.156131 0.572451 0.385115 0.0478671 0.473348 0.11603 -0.0718219
25 -0.0610066 -0.214731 -0.213347 -0.0609611 0.834589 -0.0140697 0.556529 -0.0610448 0.402697 1.07729 -0.671941 -0.262113 0.653875 -0.732312 0.486879 -0.230214 0.350015 -0.00937106 -1.21606 0.124189 0.332196 -0.0707292 -0.133498 0.344668 0.280433 -0.573778 -0.388278 -0.314233 0.556329 -0.803486 -0.961428 -0.47443 -0.508707 -0.554503 0.120514 0.179606 -0.227299 -0.247319 0.607318 -0.519481 0.635507 -0.364221 0.123882 -0.439311 -0.0459358 -0.106421 -0.564505 -0.280289 -0.0746812 0.72362 0.484326 0.348883 -0.638657 -0.113859 -0.13039 -0.263048 0.143535 0.153381 0.645194 0.39552 0.0574613 0.511919 0.1035 -0.0560162
141 0.00456762 0.0425439 -0.131439 -0.0252181 0.74506 0.0042855 0.695346 -0.109276 0.39339 1.14227 -0.779232 -0.298566 0.678903 -0.877013 0.503717 -0.227788 0.340435 -0.064444 -1.30007 0.27088 0.413929 -0.0948548 -0.150907 0.410448 0.230383 -0.525484 -0.33635 -0.246966 0.608146 -0.776428 -0.972108 -0.457041 -0.476081 -0.54192 0.116983 0.195904 -0.232432 -0.229266 0.619468 -0.551197 0.454779 -0.226693 0.197902 -0.350283 -0.00705395 0.000592882 -0.562297 -0.20913 -0.0390989 0.493358 0.37075 0.325328 -0.515319 -0.0445896 -0.0250843 -0.2082 0.138169 0.1448 0.509858 0.33483 0.113289 0.456218 0.0760151 -0.0898657
49 -0.067566 -0.18073 -0.23303 -0.040281 0.939508 0.028929 0.627691 -0.0989281 0.416499 1.05105 -0.714164 -0.239075 0.627074 -0.675049 0.437522 -0.207206 0.331009 -0.0405632 -1.26521 0.201173 0.353936 -0.122319 -0.155726 0.343195 0.223041 -0.503221 -0.322702 -0.277097 0.558052 -0.852887 -1.0144 -0.501113 -0.440734 -0.520467 0.108553 0.142278 -0.211248 -0.246194 0.59638 -0.559334 0.6177 -0.3367 0.147281 -0.391705 0.0222159 -0.0906974 -0.606883 -0.281503 -0.084016 0.619936 0.445135 0.351703 -0.661031 -0.070194 -0.115226 -0.26588 0.141774 0.118858 0.549288 0.373439 0.0938658 0.495859 0.0802431 -0.0775803
73 -0.03486 -0.100636 -0.195335 -0.0361814 0.955982 0.0105436 0.679552 -0.0996243 0.396766 1.06518 -0.742405 -0.257099 0.682892 -0.745773 0.486571 -0.234469 0.394128 -0.0306941 -1.35522 0.218705 0.363134 -0.0997414 -0.164113 0.396884 0.2279 -0.526999 -0.349897 -0.3026 0.565273 -0.833858 -0.994397 -0.501102 -0.452876 -0.535493 0.11143 0.141591 -0.232625 -0.222747 0.620361 -0.55665 0.633856 -0.312411 0.170657 -0.408929 -0.00742354 -0.101783 -0.642457 -0.295509 -0.0942642 0.664862 0.461796 0.362218 -0.669268 -0.081181 -0.115874 -0.236291 0.101775 0.168507 0.615538 0.407502 0.0883136 0.54178 0.0826601 -0.0737246
80 0.0524757 0.168803 -0.033868 0.0159995 0.59269 0.0329732 0.58196 -0.0800524 0.273455 0.848924 -0.678606 -0.209492 0.561759 -0.76835 0.425878 -0.216191 0.395151 -0.0568863 -1.50183 0.336736 0.439755 -0.122161 -0.18541 0.417293 0.247283 -0.515688 -0.228608 -0.25961 0.604794 -0.742886 -0.930844 -0.433647 -0.41412 -0.469193 0.139279 0.198714 -0.237166 -0.207079 0.627365 -0.576065 0.582291 -0.157378 0.229623 -0.272132 0.0460894 -0.00527451 -0.636784 -0.252019 -0.0951334 0.567191 0.412806 0.408375 -0.639075 -0.0290292 -0.0150415 -0.203776 0.124346 0.159941 0.510202 0.386816 0.116768 0.51881 0.0881497 -0.0841422
149 -0.0318799 -0.0682553 -0.154924 -0.0317148 0.718434 0.00937547 0.597471 -0.0865078 0.378003 1.0206 -0.717029 -0.25956 0.671143 -0.773424 0.491041 -0.220493 0.353177 -0.0342096 -1.31293 0.199774 0.38228 -0.0892456 -0.16685 0.400591 0.254885 -0.552962 -0.346296 -0.277327 0.590674 -0.826394 -1.0201 -0.50402 -0.468881 -0.564882 0.118721 0.165953 -0.244389 -0.228912 0.636467 -0.567792 0.587502 -0.310393 0.157798 -0.400057 -0.0375298 -0.067222 -0.603974 -0.269018 -0.0546176 0.625138 0.422567 0.342798 -0.590802 -0.0873271 -0.106746 -0.242023 0.127221 0.157893 0.591181 0.390107 0.0720161 0.536228 0.0920801 -0.0746952
45 -0.0198626 -0.0483736 -0.144622 -0.0360956 0.842215 0.0144074 0.602169 -0.0818617 0.402562 1.00189 -0.759304 -0.265763 0.652316 -0.708704 0.458786 -0.235617 0.377326 -0.0308389 -1.17281 0.181809 0.343378 -0.104432 -0.170438 0.376627 0.273324 -0.530555 -0.307044 -0.30748 0.584123 -0.837256 -1.00001 -0.502366 -0.512681 -0.550619 0.119673 0.16007 -0.237568 -0.212591 0.59764 -0.583119 0.602644 -0.300667 0.167616 -0.403665 0.0186598 -0.0850648 -0.589779 -0.26993 -0.102524 0.613942 0.443013 0.3591 -0.627799 -0.0519357 -0.0760219 -0.244587 0.115248 0.140959 0.538342 0.382898 0.0646372 0.501548 0.0747296 -0.0559691
54 -0.0620055 -0.0657606 -0.245155 -0.0333548 0.822957 -0.0311051 0.587181 -0.0857432 0.449718 1.29002 -0.76912 -0.30356 0.609419 -0.847097 0.515453 -0.203903 0.28876 -0.0346084 -1.28657 0.23922 0.424702 -0.0804734 -0.168154 0.362498 0.278493 -0.566419 -0.32073 -0.265108 0.59777 -0.838671 -1.01263 -0.446261 -0.527695 -0.61364 0.174201 0.249326 -0.215077 -0.265065 0.52791 -0.530023 0.499335 -0.264621 0.195537 -0.36198 -0.012315 -0.0167446 -0.495068 -0.179786 -0.0481275 0.498468 0.354503 0.380901 -0.486609 -0.0721693 -0.0326932 -0.241139 0.139512 0.127503 0.46188 0.297711 0.107569 0.455199 0.0766697 -0.0857126
67 0.0100947 0.0400023 -0.100593 -0.00808795 0.730966 0.00133057 0.545698 -0.0886559 0.344225 0.865332 -0.740869 -0.256837 0.576946 -0.700133 0.44688 -0.249061 0.332176 -0.0420908 -1.27818 0.227723 0.437523 -0.119358 -0.177441 0.394035 0.300948 -0.6069 -0.264742 -0.350744 0.622869 -0.889755 -1.11293 -0.487597 -0.501392 -0.564941 0.128929 0.204039 -0.252513 -0.244857 0.613714 -0.609715 0.669044 -0.309583 0.258686 -0.407253 0.0469316 -0.102139 -0.65316 -0.242904 -0.124469 0.606556 0.457911 0.455753 -0.659276 -0.0175455 -0.0586475 -0.249479 0.106862 0.137789 0.532019 0.395004 0.110979 0.554028 0.071383 -0.0944661
56 -0.0680445 -0.213045 -0.190222 -0.066067 0.998724 0.0203751 0.76326 -0.11582 0.377123 1.10215 -0.753121 -0.241715 0.863933 -0.803189 0.513252 -0.253186 0.377367 0.018843 -1.28128 0.117696 0.275408 -0.108947 -0.091158 0.372347 0.18127 -0.48699 -0.424076 -0.285479 0.45897 -0.711015 -0.830937 -0.4842 -0.352542 -0.440528 0.0252713 0.0870715 -0.233545 -0.206777 0.679063 -0.545583 0.635724 -0.394141 0.0410754 -0.456262 -0.0784125 -0.167231 -0.580994 -0.309303 -0.0548816 0.698723 0.401035 0.215011 -0.638425 -0.156739 -0.212424 -0.252973 0.131875 0.195078 0.714368 0.447078 0.0699862 0.502092 0.0974512 -0.0629643
59 -0.0395438 -0.125188 -0.16689 -0.0736879 0.946392 0.0773328 0.731011 -0.12903 0.381918 1.00018 -0.697101 -0.198291 0.761337 -0.69753 0.470988 -0.224463 0.345755 0.00216679 -1.12754 0.162503 0.266598 -0.152035 -0.109775 0.367274 0.143201 -0.411496 -0.362844 -0.255729 0.556096 -0.759121 -0.942727 -0.577521 -0.404308 -0.456648 0.0466052 0.0837016 -0.20923 -0.195133 0.698154 -0.614581 0.594361 -0.360769 0.0937073 -0.431412 0.00848861 -0.118826 -0.68799 -0.330167 -0.0511652 0.657651 0.469628 0.286931 -0.75207 -0.0956483 -0.144163 -0.282283 0.194562 0.179455 0.614439 0.428938 0.0802713 0.503452 0.0605869 -0.0637301
119 -0.069051 -0.150647 -0.273096 -0.0180221 0.848848 0.00878364 0.48727 -0.0772173 0.39644 1.02572 -0.696092 -0.240332 0.526862 -0.67747 0.39899 -0.212329 0.366584 -0.0649941 -1.45139 0.254676 0.45143 -0.101283 -0.215777 0.382352 0.296004 -0.627407 -0.267317 -0.307008 0.592952 -0.908719 -1.10595 -0.468287 -0.505451 -0.598364 0.170182 0.233686 -0.234725 -0.263086 0.577139 -0.596433 0.674179 -0.302832 0.230739 -0.384011 0.0260325 -0.0799632 -0.615875 -0.249228 -0.108444 0.638388 0.450974 0.441518 -0.601122 -0.0629869 -0.0689067 -0.211229 0.0898797 0.100658 0.513376 0.345708 0.107962 0.531004 0.078458 -0.104965
62 -0.0544883 -0.174728 -0.207281 -0.0639488 1.00234 0.0215641 0.666626 -0.0989242 0.40279 1.04768 -0.668091 -0.239611 0.670946 -0.674158 0.446664 -0.218669 0.305944 0.0105249 -1.18734 0.162805 0.285703 -0.110896 -0.140304 0.335901 0.20794 -0.458458 -0.336057 -0.285587 0.47745 -0.756318 -0.891226 -0.467617 -0.430155 -0.487155 0.0881543 0.127924 -0.196253 -0.211077 0.58116 -0.533323 0.601785 -0.349357 0.111189 -0.408285 0.000706695 -0.113269 -0.581736 -0.28697 -0.0899183 0.647422 0.425145 0.316963 -0.652626 -0.10084 -0.13181 -0.256518 0.137002 0.141808 0.596926 0.371238 0.0847859 0.483551 0.0937075 -0.0533026
101 -0.0144186 -0.133023 -0.128729 -0.0628372 0.903859 0.0595485 0.778791 -0.121059 0.374811 1.06851 -0.708192 -0.227219 0.847086 -0.809716 0.526625 -0.242232 0.365745 0.0101658 -1.3387 0.177691 0.292101 -0.140868 -0.11545 0.400694 0.172968 -0.460646 -0.381084 -0.267445 0.52926 -0.746165 -0.868683 -0.495936 -0.341279 -0.391098 0.0365147 0.09434 -0.227691 -0.21312 0.702502 -0.567105 0.602675 -0.361688 0.0663974 -0.416026 -0.0205535 -0.127828 -0.635812 -0.322975 -0.054914 0.672634 0.448138 0.265229 -0.712772 -0.107941 -0.166524 -0.283522 0.177509 0.196624 0.683767 0.448391 0.08569 0.515488 0.0982726 -0.0692071
145 -0.014779 -0.0761893 -0.172745 -0.0465844 0.903712 0.0180697 0.71829 -0.135874 0.41473 1.05625 -0.74042 -0.241126 0.743581 -0.74905 0.483879 -0.224545 0.316362 -0.0224059 -1.27349 0.176626 0.330598 -0.129418 -0.156616 0.369089 0.167918 -0.409054 -0.297227 -0.246422 0.478352 -0.750896 -0.933868 -0.487402 -0.340736 -0.424711 0.0638757 0.14796 -0.182934 -0.217019 0.563583 -0.52324 0.558135 -0.326853 0.117592 -0.406718 -0.00131705 -0.120742 -0.624227 -0.300503 -0.0817177 0.580871 0.452724 0.319616 -0.680763 -0.0650452 -0.127061 -0.305784 0.160214 0.141467 0.589146 0.387621 0.111452 0.523119 0.0795497 -0.0951987
116 0.00147732 -0.0569489 -0.123627 -0.0573965 0.934948 0.0394243 0.773723 -0.150833 0.361109 1.0196 -0.718071 -0.21408 0.857897 -0.777348 0.485415 -0.233146 0.340081 0.0220361 -1.15636 0.152912 0.255815 -0.147546 -0.106154 0.373622 0.121804 -0.365536 -0.315275 -0.26232 0.459633 -0.699776 -0.840881 -0.497031 -0.29592 -0.360563 0.00493674 0.0734033 -0.193877 -0.175299 0.616109 -0.532306 0.577372 -0.340206 0.0891342 -0.427614 -0.0123781 -0.145286 -0.663125 -0.309996 -0.0742865 0.63856 0.46692 0.282444 -0.746191 -0.0824468 -0.162108 -0.31135 0.18264 0.193212 0.662567 0.430484 0.10875 0.530634 0.0801954 -0.0804466
129 -0.00802599 -0.0412052 -0.152983 -0.0134665 0.657186 -0.0284583 0.597549 -0.0454039 0.419284 1.16441 -0.729081 -0.326491 0.675374 -0.894484 0.557408 -0.247179 0.344461 -0.0451219 -1.41928 0.2033 0.417911 -0.0657077 -0.173193 0.381513 0.317718 -0.614447 -0.348694 -0.294418 0.585982 -0.804724 -0.920058 -0.39956 -0.475828 -0.523371 0.176284 0.228288 -0.221652 -0.268258 0.550701 -0.472824 0.497577 -0.261063 0.163095 -0.349659 -0.0335465 -0.00549743 -0.491987 -0.213194 -0.0602407 0.589427 0.403615 0.357011 -0.517864 -0.0684155 -0.0656794 -0.255249 0.123893 0.139965 0.563382 0.356442 0.0737164 0.470415 0.118796 -0.0764528
117 -0.0211921 -0.0536239 -0.183105 -0.0142199 0.737098 -0.00763451 0.581735 -0.0711239 0.422662 1.12807 -0.739953 -0.281004 0.683699 -0.874673 0.513329 -0.226742 0.415062 -0.0599682 -1.57679 0.246085 0.487143 -0.0742949 -0.19904 0.442857 0.293232 -0.62201 -0.344306 -0.248832 0.616171 -0.847784 -1.04646 -0.48314 -0.465039 -0.545373 0.146092 0.230572 -0.24765 -0.228459 0.617686 -0.570975 0.538597 -0.252455 0.158791 -0.351785 -0.0251668 -0.0281603 -0.523919 -0.232472 -0.0267588 0.533165 0.354622 0.323826 -0.473837 -0.0836337 -0.0627876 -0.202256 0.0943321 0.126073 0.511606 0.326055 0.0854105 0.493952 0.094518 -0.0680347
126 -0.0569582 -0.0879338 -0.193659 -0.0461971 0.816695 0.0249751 0.647671 -0.0944598 0.425868 1.14558 -0.691724 -0.253875 0.695045 -0.821895 0.496622 -0.214433 0.329882 -0.011601 -1.30427 0.236924 0.389595 -0.106733 -0.148627 0.397045 0.214195 -0.51669 -0.333689 -0.228949 0.553567 -0.767104 -0.93313 -0.490323 -0.455811 -0.500322 0.0957231 0.182063 -0.205494 -0.208272 0.610149 -0.563847 0.515695 -0.277573 0.12033 -0.357982 -0.00860807 -0.0357687 -0.551084 -0.253411 -0.0379059 0.569733 0.393873 0.308548 -0.598606 -0.0750987 -0.0594408 -0.23132 0.164822 0.147383 0.523995 0.338536 0.0931371 0.466939 0.065038 -0.06627
88 -0.0171 0.00743287 -0.140944 -0.00516885 0.639332 -0.00546226 0.530755 -0.0611992 0.371542 1.01008 -0.69441 -0.255069 0.553599 -0.764618 0.450486 -0.211161 0.346242 -0.0689626 -1.3996 0.26199 0.454352 -0.102801 -0.189779 0.405237 0.297482 -0.617707 -0.268298 -0.290873 0.608285 -0.846497 -1.00954 -0.442735 -0.463736 -0.538857 0.165334 0.235436 -0.233231 -0.252045 0.571804 -0.551876 0.57513 -0.242907 0.239938 -0.358132 0.0303584 -0.0221823 -0.588757 -0.222391 -0.0976891 0.584721 0.442417 0.436733 -0.594917 -0.0398016 -0.0278963 -0.243185 0.114956 0.132558 0.512074 0.355797 0.116374 0.52947 0.0889071 -0.088175
94 -0.0297555 -0.0364739 -0.173902 -0.0339859 0.793873 0.0325979 0.601724 -0.0862267 0.365526 1.07157 -0.678155 -0.241645 0.587326 -0.77665 0.456726 -0.183121 0.351236 -0.0326113 -1.42488 0.269 0.426295 -0.0922963 -0.165602 0.389123 0.263718 -0.569405 -0.331549 -0.264131 0.623611 -0.837685 -1.00506 -0.480375 -0.47959 -0.541428 0.137487 0.202692 -0.23013 -0.213876 0.623358 -0.570851 0.549136 -0.243469 0.177941 -0.334389 0.0254626 -0.0265015 -0.555279 -0.231521 -0.0551827 0.527615 0.370116 0.347012 -0.569523 -0.0506428 -0.0287387 -0.208577 0.132413 0.139724 0.462226 0.326011 0.107127 0.454429 0.0755468 -0.0769275
100 0.0153788 0.0935261 -0.173278 -0.0039257 0.662683 -0.0301762 0.58023 -0.0962801 0.456019 1.19534 -0.813876 -0.288766 0.648075 -0.902976 0.513332 -0.224112 0.318618 -0.0741823 -1.47988 0.287427 0.525435 -0.099819 -0.234816 0.450827 0.282234 -0.558808 -0.229183 -0.222042 0.574409 -0.838406 -1.11112 -0.464371 -0.459246 -0.53781 0.169738 0.288557 -0.210178 -0.230359 0.522779 -0.58087 0.476346 -0.219332 0.230839 -0.342303 0.00994157 0.0013654 -0.541024 -0.203753 -0.0675756 0.449334 0.356041 0.403177 -0.462983 -0.051423 -0.0252647 -0.234413 0.112254 0.0946154 0.433973 0.275621 0.135595 0.510969 0.0828655 -0.110219
4 0.0167085 0.0650716 -0.182805 -0.0170129 0.812671 0.00711588 0.765129 -0.111526 0.42912 1.32361 -0.736279 -0.308547 0.686047 -0.980741 0.598158 -0.202394 0.256898 -0.0342996 -1.35786 0.285649 0.411193 -0.087138 -0.171571 0.407372 0.238469 -0.478337 -0.30922 -0.205723 0.602587 -0.769057 -0.917808 -0.4249 -0.455892 -0.506117 0.17796 0.242121 -0.202247 -0.238826 0.590387 -0.528606 0.382452 -0.199732 0.175662 -0.310192 -0.0142184 0.0534539 -0.552724 -0.217994 -0.0300022 0.506985 0.389571 0.354013 -0.527722 -0.0761989 -0.00279479 -0.286932 0.195182 0.15777 0.559198 0.320555 0.118374 0.508653 0.11793 -0.105513
74 -0.0391124 -0.143204 -0.172429 -0.0409179 0.859562 -0.00179754 0.60272 -0.0728725 0.35862 0.982194 -0.650767 -0.248622 0.618696 -0.685092 0.449223 -0.208522 0.344348 -0.0244133 -1.21557 0.17362 0.31116 -0.0790249 -0.143699 0.346177 0.223116 -0.488315 -0.321209 -0.274137 0.499627 -0.737914 -0.821002 -0.418546 -0.404162 -0.47088 0.0947081 0.122648 -0.197514 -0.207296 0.513386 -0.44053 0.544494 -0.266074 0.134912 -0.345512 -0.0174331 -0.069093 -0.551156 -0.267357 -0.0862249 0.613843 0.444291 0.324379 -0.610203 -0.0762726 -0.115802 -0.231966 0.102105 0.166989 0.581798 0.378956 0.0496195 0.474846 0.0918391 -0.0547243
72 0.00482445 0.0999015 -0.183693 -0.011441 0.67701 -0.0078142 0.676769 -0.116569 0.470737 1.32868 -0.796162 -0.316644 0.670249 -0.979621 0.573301 -0.190645 0.282159 -0.059095 -1.44139 0.304608 0.502982 -0.075658 -0.212939 0.440433 0.235686 -0.516001 -0.269465 -0.167418 0.596194 -0.78505 -1.04863 -0.480453 -0.480425 -0.556363 0.173271 0.28294 -0.184896 -0.219628 0.555381 -0.554039 0.353696 -0.188415 0.198438 -0.32977 -0.0176624 0.0623563 -0.509755 -0.188779 -0.0121351 0.405384 0.325399 0.356443 -0.417608 -0.0561197 0.0137146 -0.219931 0.144933 0.103638 0.43027 0.251012 0.127983 0.487855 0.0878805 -0.1022
84 -0.0575174 -0.079473 -0.22565 -0.032832 0.759964 0.0228293 0.682919 -0.0836143 0.425942 1.30843 -0.772581 -0.28926 0.696706 -0.974118 0.521304 -0.184743 0.358214 -0.066563 -1.50464 0.312963 0.462237 -0.110594 -0.160206 0.406272 0.263911 -0.53866 -0.314791 -0.237656 0.631213 -0.804016 -0.982052 -0.43245 -0.460461 -0.513775 0.167123 0.241445 -0.227276 -0.260829 0.608177 -0.539607 0.469921 -0.200867 0.15793 -0.272363 0.0340262 0.0132048 -0.492922 -0.164119 -0.0340326 0.480459 0.360368 0.33347 -0.502954 -0.0613473 -0.0036873 -0.221294 0.164259 0.141081 0.462281 0.297935 0.123296 0.43655 0.0856995 -0.0907741
34 -0.0406638 -0.0506621 -0.233236 -0.0337376 0.87864 0.0183032 0.739224 -0.102953 0.429492 1.32611 -0.777112 -0.29587 0.693093 -0.92903 0.535045 -0.183616 0.317699 -0.0471951 -1.39612 0.2921 0.415521 -0.0984097 -0.151088 0.401035 0.22169 -0.509511 -0.336344 -0.239587 0.594538 -0.790308 -0.934078 -0.439786 -0.459549 -0.523353 0.144683 0.209074 -0.207826 -0.251346 0.603803 -0.52313 0.481743 -0.238498 0.164935 -0.321225 0.00202687 0.00445921 -0.544728 -0.195321 -0.0292306 0.523684 0.375242 0.342606 -0.549422 -0.0711834 -0.0353987 -0.236638 0.170259 0.150272 0.525943 0.33808 0.122141 0.463852 0.0790711 -0.0961819
142 -0.0364547 -0.0532611 -0.168938 -0.01873 0.755238 -0.0115019 0.609108 -0.0787266 0.408779 1.13019 -0.69037 -0.285282 0.611024 -0.799016 0.496409 -0.198603 0.307748 -0.0269944 -1.32459 0.228129 0.391567 -0.080915 -0.171249 0.373892 0.265946 -0.535375 -0.307907 -0.249273 0.538133 -0.780811 -0.891258 -0.420537 -0.455542 -0.50978 0.144149 0.217752 -0.215663 -0.233632 0.532775 -0.504627 0.480318 -0.246549 0.156743 -0.333596 -0.0140907 -0.0155736 -0.509779 -0.222327 -0.0495738 0.510043 0.36622 0.333409 -0.519229 -0.0643972 -0.0565531 -0.248228 0.129006 0.126753 0.489218 0.305456 0.080922 0.446513 0.091755 -0.0664254
