193 64
88 -0.750887 -0.270089 1.08304 -0.277352 0.571315 -0.213972 -0.495191 0.61635 0.0210439 -0.162354 -0.261821 -0.0840622 0.462971 0.826666 -0.202058 -0.784455 -0.134945 0.25853 0.458697 0.0480498 -0.745412 -0.0446386 -0.302846 -0.304272 0.25107 0.47485 -0.164186 -0.0610465 0.0418128 0.327531 -0.667501 0.458518 -0.340487 0.278211 -0.302324 -0.0040809 -0.0384715 -0.208947 0.58079 -0.244329 0.477881 0.168416 -0.175895 0.382677 -0.181019 -0.435075 0.424418 0.19906 0.0992174 -0.520841 0.619422 -0.3167 -0.940739 0.793464 0.678215 -0.213293 0.453618 -0.395464 0.327627 0.374935 -0.594396 0.831567 -0.194157 0.446898
162 -0.41617 -0.470247 1.02596 -0.312486 0.331698 -0.229265 -0.143783 0.494182 0.00121414 -0.188396 -0.166076 -0.118638 0.256576 0.486412 -0.190709 -0.68 -0.0917882 0.173914 0.248174 -0.0648877 -0.537515 -0.075668 -0.0911057 -0.175936 -0.087189 0.528191 -0.207428 -0.112077 0.217728 0.303561 -0.755914 0.207336 -0.271827 0.627397 -0.222557 -0.0612348 -0.0148139 -0.159687 0.621964 0.00836676 0.540806 0.271367 -0.0304531 0.215571 -0.0328582 -0.31993 0.142442 0.339436 0.0165654 -0.371023 0.675712 -0.368884 -0.740985 0.526892 0.340073 -0.0181771 0.328675 -0.198223 0.268153 0.462434 -0.657542 0.673435 -0.213578 0.25001
423 -0.616991 -0.432592 1.4052 -0.236578 0.369313 -0.31849 -0.331323 0.589223 -0.036 -0.197234 -0.112527 -0.197416 0.50673 0.622023 -0.060927 -0.557264 -0.090134 0.205543 0.366211 -0.0417876 -0.436325 -0.273613 -0.0920791 -0.169875 -0.0225164 0.403125 -0.299832 -0.0487576 0.182824 0.0672802 -0.461871 0.25252 -0.170584 0.360081 -0.222558 0.1087 0.00384963 -0.197751 0.583258 -0.283684 0.54802 0.151886 -0.0334429 0.067596 -0.0540267 -0.381994 0.277514 0.222178 -0.0815794 -0.467718 0.598126 -0.417555 -0.760634 0.624657 0.442733 -0.177773 0.416794 -0.212993 0.295781 0.464316 -0.558588 0.637928 -0.137932 0.308579
35 -0.545226 -0.448796 1.23059 -0.276916 0.399081 -0.409011 -0.314705 0.579232 0.0692243 -0.065029 -0.156627 -0.322184 0.397296 0.567758 -0.0829043 -0.531484 -0.173943 0.0784672 0.293046 -0.154242 -0.450042 -0.305941 -0.0788698 -0.140555 -0.0905413 0.382401 -0.247046 0.0650264 0.206341 0.176882 -0.446345 0.206896 -0.205499 0.285025 -0.13035 0.238791 -0.0381656 0.00614412 0.491383 -0.258854 0.43937 0.161303 0.0558708 -0.00666256 0.0755997 -0.349101 0.175899 0.345722 -0.0728404 -0.367065 0.451077 -0.487651 -0.770937 0.585377 0.384149 -0.166257 0.291408 -0.167202 0.243169 0.554262 -0.454954 0.45763 -0.198098 0.365146
254 -0.610552 -0.443477 1.15728 -0.26078 0.414387 -0.361577 -0.335229 0.532738 0.103105 -0.112026 -0.173056 -0.286548 0.302085 0.574729 -0.0824772 -0.497725 -0.165469 0.0938908 0.293336 -0.10887 -0.464466 -0.268925 -0.137646 -0.138797 -0.0317627 0.385516 -0.228888 0.0331123 0.146582 0.23089 -0.490941 0.248163 -0.250961 0.275428 -0.158358 0.20211 -0.0493653 0.0226911 0.522995 -0.276734 0.437303 0.159308 -0.0151179 0.0710116 0.0804457 -0.332642 0.176587 0.355203 -0.0806199 -0.380589 0.475723 -0.418778 -0.786921 0.589418 0.36869 -0.172075 0.296227 -0.203098 0.249313 0.550242 -0.482886 0.503741 -0.180544 0.340939
605 -0.589096 -0.434321 1.2058 -0.267162 0.392377 -0.371673 -0.305619 0.552103 0.0587774 -0.0773358 -0.159512 -0.244027 0.401282 0.516526 -0.0972746 -0.456042 -0.205976 0.0756398 0.324644 -0.14367 -0.442242 -0.299377 -0.0408472 -0.122754 -0.0423089 0.421388 -0.295414 0.0373068 0.237173 0.162059 -0.401603 0.233422 -0.264884 0.357272 -0.120779 0.173942 -0.0589406 -0.0107344 0.48883 -0.259945 0.460349 0.151995 0.0427416 0.0309369 0.0647823 -0.319404 0.182673 0.3251 -0.0873498 -0.395691 0.44684 -0.464655 -0.690563 0.552545 0.352362 -0.181196 0.279689 -0.146063 0.233267 0.510085 -0.421497 0.455856 -0.196364 0.390944
73 -0.619712 -0.489825 1.23652 -0.280148 0.420016 -0.370309 -0.32955 0.534015 0.0739635 -0.0696825 -0.176689 -0.313197 0.356747 0.599427 -0.0933655 -0.518625 -0.146476 0.105688 0.268482 -0.136185 -0.50921 -0.315564 -0.103985 -0.19798 -0.0450247 0.388464 -0.248725 0.0496603 0.1465 0.213575 -0.454346 0.203053 -0.223167 0.237055 -0.156211 0.191891 -0.0389841 7.96359e-05 0.509314 -0.269546 0.454572 0.18614 0.00998922 0.0507617 0.0398013 -0.380462 0.192363 0.310905 -0.0580024 -0.379591 0.51392 -0.465168 -0.799078 0.644829 0.433085 -0.146145 0.365356 -0.19606 0.28409 0.540608 -0.501751 0.526349 -0.216188 0.36826
120 -0.603965 -0.419759 1.18001 -0.246685 0.425219 -0.366266 -0.348796 0.602215 0.0462945 -0.151668 -0.153318 -0.25487 0.405371 0.586069 -0.0771312 -0.571618 -0.180137 0.133343 0.369172 -0.114859 -0.507738 -0.277685 -0.119752 -0.158998 -0.0647616 0.431672 -0.243255 0.0166549 0.192957 0.161482 -0.529583 0.249123 -0.212065 0.294957 -0.152833 0.200531 -0.044638 -0.0476586 0.494397 -0.263417 0.403253 0.117829 0.00478369 0.0239066 0.0620306 -0.338388 0.219577 0.321695 -0.0897621 -0.350432 0.430338 -0.411155 -0.732954 0.576658 0.378856 -0.170106 0.294442 -0.169645 0.23353 0.500244 -0.487221 0.460941 -0.197004 0.308434
502 -0.592049 -0.472964 0.86456 -0.251728 0.337261 -0.267054 -0.286438 0.519292 -0.0184212 -0.298178 -0.112434 -0.205847 0.188466 0.584678 -0.206263 -0.731492 -0.131254 0.228802 0.27785 -0.105806 -0.59303 -0.156123 -0.0708505 -0.0715362 -0.0973861 0.605407 -0.210818 -0.0676013 0.0724825 0.329355 -0.780965 0.161295 -0.280838 0.481924 -0.189392 0.0411585 -0.0355462 -0.0366448 0.550048 -0.037363 0.476068 0.251762 -0.0451582 0.218106 -0.0382029 -0.417585 0.199794 0.369573 -0.0267034 -0.268942 0.641857 -0.413083 -0.719334 0.566813 0.404349 -0.000795247 0.395859 -0.224461 0.291817 0.481372 -0.640526 0.639021 -0.205329 0.217599
602 -0.679802 -0.319498 1.28293 -0.152035 0.330968 -0.288288 -0.406985 0.531759 -0.137349 -0.127505 -0.0427967 0.0223521 0.7229 0.45543 -0.21156 -0.670965 -0.212597 0.107976 0.549819 0.0275671 -0.655151 -0.200746 0.0144066 -0.176627 0.0507385 0.595427 -0.294439 -0.145489 0.172276 -0.0827302 -0.29499 0.351957 -0.321246 0.60511 -0.154532 0.00121847 0.00692518 -0.285584 0.836374 -0.355628 0.603185 0.0298879 -0.0478918 0.1125 -0.111934 -0.476285 0.288788 0.203156 -0.121335 -0.537256 0.67177 -0.544084 -0.780313 0.65996 0.611505 -0.258644 0.485967 -0.264859 0.389544 0.465015 -0.537228 0.775983 -0.111403 0.356304
604 -0.649777 -0.151762 0.994445 -0.214445 0.379632 -0.15524 -0.499243 0.525741 0.00444391 -0.152089 -0.0867062 -0.0461705 0.462089 0.550862 -0.211729 -0.541531 -0.175459 0.174467 0.560551 0.0756778 -0.77956 -0.170558 -0.134884 -0.237998 0.221951 0.55408 -0.259589 -0.111523 0.0733158 0.221378 -0.484594 0.426389 -0.423624 0.456573 -0.204804 -0.081346 -0.0698295 -0.129503 0.680872 -0.334357 0.606022 0.154247 -0.119991 0.328815 -0.20878 -0.514496 0.35524 0.162611 -0.0358884 -0.502229 0.562939 -0.374946 -0.729252 0.651391 0.536422 -0.257175 0.433128 -0.272306 0.377548 0.356976 -0.507158 0.778271 -0.205326 0.426372
282 -0.977455 -0.518072 0.961386 -0.0618361 0.284091 -0.125071 -0.284245 0.374889 -0.151764 -0.321951 -0.0444776 0.0614257 0.396252 0.486982 -0.155594 -0.524169 -0.136287 0.216524 0.483602 0.0737241 -0.588627 -0.239491 -0.0674918 -0.12969 0.027356 0.595515 -0.334074 -0.0838524 0.0268863 0.0354441 -0.400955 0.21818 -0.235648 0.496098 -0.201742 -0.0307387 -0.0148208 -0.25445 0.681785 -0.291879 0.586045 0.0577667 -0.123573 0.169064 -0.0810385 -0.352572 0.299843 0.144629 -0.156784 -0.449775 0.690646 -0.414957 -0.635596 0.57529 0.439057 -0.145375 0.430418 -0.224926 0.304288 0.355865 -0.507739 0.650095 -0.0596913 0.13109
408 -0.838497 -0.441215 0.848092 -0.143246 0.347757 -0.139741 -0.338416 0.47842 0.0877343 -0.177078 -0.185305 -0.26765 0.29623 0.629367 -0.0590936 -0.569297 -0.0345014 0.261331 0.403036 0.0514264 -0.629145 -0.160454 -0.346175 -0.239174 0.141826 0.502354 -0.167369 0.0337244 0.0283112 0.36376 -0.718529 0.449636 -0.265881 0.330011 -0.320406 0.168808 -0.0500275 -0.145981 0.652971 -0.358612 0.673786 0.145886 -0.123133 0.296658 -0.161884 -0.530866 0.401521 0.290982 0.0648146 -0.399814 0.418632 -0.330727 -0.874992 0.609725 0.502557 -0.172067 0.340556 -0.363711 0.259067 0.463163 -0.555719 0.637954 -0.104609 0.336902
77 -0.847239 -0.575162 1.11781 -0.138535 0.365046 -0.289823 -0.31278 0.561483 -0.0626558 -0.0846008 -0.120911 -0.137817 0.750651 0.679572 -0.0234732 -0.749758 -0.0202789 0.387218 0.481098 -0.0209084 -0.484677 0.00866733 -0.214516 -0.309635 0.0848251 0.516444 -0.148895 -0.0149059 0.305485 0.0562005 -0.600785 0.407991 -0.163778 0.447092 -0.358268 0.141782 0.0556012 -0.400576 0.482571 -0.266975 0.517859 0.126295 0.00890983 0.11096 -0.321884 -0.49163 0.473489 0.222365 0.206314 -0.56632 0.516894 -0.4694 -1.02426 0.693126 0.722672 -0.23446 0.480274 -0.379339 0.317839 0.559123 -0.706302 0.775196 -0.117755 0.373141
469 -0.521017 -0.393554 0.808677 -0.210522 0.188703 -0.298914 -0.244665 0.411666 0.00653162 -0.0870799 -0.140521 -0.255628 0.659771 0.590345 -0.104019 -0.681216 0.0561163 0.317872 0.328301 -0.0810276 -0.475471 -0.0954758 -0.175449 -0.281999 0.0508321 0.528338 -0.185474 -0.123664 0.240251 0.15037 -0.530885 0.325956 -0.110551 0.302032 -0.309246 0.182797 0.115958 -0.346736 0.508432 -0.192307 0.622912 0.152092 -0.0283272 0.191272 -0.327844 -0.540255 0.34552 0.172467 0.209948 -0.279733 0.396213 -0.440661 -0.699873 0.524635 0.629376 -0.0136721 0.444182 -0.196351 0.229056 0.339047 -0.551359 0.610684 -0.0994024 0.372116
686 -0.583637 -0.473805 0.775914 -0.17324 0.245868 -0.251161 -0.152195 0.386269 0.0216438 -0.125498 -0.199935 -0.177453 0.555021 0.644604 -0.0446534 -0.632534 0.039862 0.374203 0.282334 -0.0698767 -0.347321 -0.0461543 -0.246979 -0.260926 0.0598646 0.479474 -0.180296 -0.069911 0.269239 0.191843 -0.609798 0.332196 -0.111463 0.349455 -0.368397 0.179666 0.102201 -0.36067 0.41168 -0.136858 0.576668 0.195311 -0.0328779 0.167281 -0.241947 -0.393106 0.336447 0.233678 0.201106 -0.333709 0.41528 -0.382769 -0.715149 0.507963 0.5285 -0.0582419 0.386498 -0.223667 0.190111 0.420893 -0.575229 0.618099 -0.0730994 0.307257
595 -0.650474 -0.715848 0.973589 -0.273839 0.155372 -0.24469 -0.0636931 0.37412 -0.0239541 -0.152923 -0.15511 -0.206728 0.43904 0.527809 -0.214421 -0.719599 -0.0262197 0.196704 0.229623 -0.0879267 -0.515585 -0.152343 -0.0603904 -0.141516 -0.091933 0.599057 -0.258552 -0.0437224 0.177517 0.294342 -0.630881 0.15703 -0.221649 0.593005 -0.217631 0.110069 0.0435533 -0.0946608 0.677098 -0.136901 0.725154 0.280219 -0.0171583 0.212365 -0.105308 -0.39325 0.169057 0.327789 0.0221778 -0.466569 0.764794 -0.553471 -0.833916 0.579244 0.393868 -0.00137538 0.404641 -0.201788 0.334836 0.506969 -0.523023 0.735423 -0.120505 0.271808
677 -0.598314 -0.563313 1.47898 -0.271023 0.520312 -0.298629 -0.265041 0.662876 -0.152556 -0.17249 -0.0734416 -0.229837 0.547994 0.651555 -0.00147662 -0.889727 -0.0811452 0.2257 0.402848 -0.0403307 -0.839942 -0.154108 -0.0940067 -0.462269 -0.12697 0.536493 -0.18084 0.102498 0.210001 0.0569596 -0.762758 0.194777 -0.163938 0.346538 -0.245407 -0.0497532 -0.0465672 -0.201845 0.442246 -0.168219 0.295248 0.195866 0.0764347 -0.0962082 -0.0582981 -0.401919 0.233257 0.164855 -0.0166201 -0.572805 0.701013 -0.414358 -1.09392 0.789428 0.545126 -0.278411 0.488832 -0.383315 0.462142 0.607569 -0.741674 0.675481 -0.357343 0.2424
312 -0.422523 -0.289573 1.02182 -0.140425 0.316306 -0.311647 -0.272153 0.579622 -0.0455849 -0.313757 0.0930239 -0.280648 0.39511 0.318878 0.0642265 -0.686898 -0.120413 0.250224 0.600427 -0.0669284 -0.90049 -0.147226 -0.133065 -0.317613 -0.180932 0.745372 -0.211515 -0.116303 0.250217 0.0287999 -0.926185 0.29557 -0.249899 0.541261 -0.249057 0.0187824 -0.0208989 -0.20977 0.476014 -0.225415 0.311879 0.142386 0.00637134 -0.0860805 -0.0443585 -0.427273 0.168006 0.28208 -0.101895 -0.394924 0.522409 -0.327067 -0.850256 0.522867 0.269896 -0.211404 0.335496 -0.19786 0.412936 0.549006 -0.675771 0.574086 -0.280366 0.138163
235 -0.530485 -0.39871 0.936586 -0.185927 0.397441 -0.212189 -0.21927 0.46522 -0.076648 -0.208176 -0.0073603 -0.2104 0.312346 0.41218 0.0551715 -0.636422 -0.081942 0.20947 0.378007 -0.00910719 -0.758781 -0.161412 -0.137011 -0.406494 -0.100147 0.514443 -0.133065 0.0443807 0.11421 0.0586938 -0.698162 0.190702 -0.170417 0.309048 -0.258346 -0.0392795 -0.0238372 -0.195827 0.370125 -0.174023 0.242309 0.158287 0.0108713 -0.0787645 -0.053512 -0.348692 0.167988 0.139523 -0.0428143 -0.430215 0.575368 -0.305421 -0.869307 0.607637 0.379963 -0.203671 0.389829 -0.307765 0.368437 0.484304 -0.602055 0.522921 -0.242355 0.112802
226 -0.655963 -0.536983 1.32267 -0.314866 0.385061 -0.377233 -0.287965 0.66606 0.0553703 -0.16934 -0.21763 -0.276753 0.574363 0.677039 -0.103118 -0.664763 -0.111602 0.249156 0.359659 -0.142866 -0.460174 -0.237865 -0.151171 -0.126008 -0.0270866 0.49029 -0.287711 -0.0117851 0.270281 0.24294 -0.614393 0.309828 -0.174107 0.348658 -0.188221 0.277079 -0.0103204 -0.137601 0.448134 -0.186119 0.585892 0.156389 0.0333246 0.135604 -0.0471544 -0.369093 0.319676 0.332665 0.0465267 -0.294758 0.373821 -0.457481 -0.700923 0.536221 0.498348 -0.106712 0.333675 -0.127981 0.214178 0.471722 -0.548167 0.56816 -0.166032 0.412901
639 -0.545608 -0.430604 1.09697 -0.321893 0.446841 -0.375725 -0.336285 0.570945 0.175963 0.0741645 -0.297877 -0.4227 0.373415 0.622016 -0.043492 -0.591848 -0.17426 0.066582 0.226878 -0.111626 -0.54677 -0.226291 -0.202726 -0.271107 0.0386619 0.392534 -0.150242 0.181499 0.207553 0.300832 -0.550205 0.389481 -0.292303 0.30141 -0.235598 0.258886 -0.0705445 -0.0121259 0.602794 -0.357695 0.495968 0.194753 0.0424784 0.0492706 0.0329915 -0.466341 0.231777 0.405361 0.024807 -0.527111 0.462986 -0.482558 -1.02534 0.726372 0.446298 -0.251918 0.283064 -0.337554 0.256812 0.625634 -0.444714 0.485595 -0.227458 0.521123
658 -0.396834 -0.411915 1.40576 -0.00760676 0.41776 -0.440178 -0.405386 0.597457 -0.0190897 -0.0799398 -0.131075 -0.0577092 0.481948 0.751311 -0.11395 -0.922391 0.0139249 0.16017 0.388701 0.116357 -0.650236 0.0179264 -0.216958 -0.523037 0.0273687 0.296573 -0.122845 -0.138522 0.273569 0.13577 -0.555548 0.263371 -0.256167 0.36834 -0.357316 -0.145929 0.139852 -0.124232 0.518467 -0.17323 0.317846 0.34905 -0.1239 0.0253978 -0.102429 -0.21628 -0.0168518 0.278581 -0.0263181 -0.533337 0.747685 -0.238334 -0.737436 0.45639 0.294267 -0.290818 0.436415 -0.250904 0.511345 0.701178 -0.649446 1.00032 -0.119502 0.159326
206 -0.388762 -0.442847 0.955537 -0.0669778 0.325379 -0.38673 -0.265033 0.40165 0.176182 0.0930338 -0.235932 -0.352945 0.301714 0.621527 -0.0388729 -0.686845 0.0304388 0.0732615 0.249098 0.0175582 -0.56168 -0.0493568 -0.342553 -0.47562 0.0218505 0.279937 -0.0318976 0.0102417 0.214313 0.2963 -0.558855 0.35568 -0.275716 0.344371 -0.396043 0.131481 0.0826322 -0.0437004 0.714871 -0.378567 0.471739 0.308206 -0.085359 0.0585028 -0.0425254 -0.376618 0.0315678 0.38521 0.0575164 -0.581462 0.584565 -0.336073 -0.985839 0.536852 0.241824 -0.20248 0.265404 -0.326766 0.364645 0.68558 -0.470048 0.670232 -0.0931231 0.323918
485 -0.339268 -0.46667 1.02097 0.0204901 0.210345 -0.350786 -0.238832 0.338101 0.0612258 -0.015002 -0.0664246 -0.235899 0.326127 0.57492 -0.0990776 -0.715273 0.146009 0.158412 0.329163 0.0347126 -0.562592 -0.00657274 -0.286937 -0.460577 -0.059435 0.293237 -0.0471457 -0.196353 0.20568 0.241866 -0.556851 0.198703 -0.20987 0.367458 -0.366122 0.00980044 0.169846 -0.0975603 0.637076 -0.235062 0.453373 0.332389 -0.151977 0.115599 -0.173295 -0.342801 -0.00614698 0.27546 0.0751102 -0.454715 0.634639 -0.262552 -0.778365 0.389714 0.207461 -0.0588148 0.348348 -0.196344 0.417058 0.581328 -0.552953 0.82493 -0.0777051 0.172214
245 -0.448511 -0.521282 1.2182 -0.0620173 0.304155 -0.305117 -0.208519 0.510662 0.0286832 0.0133021 -0.12008 -0.131759 0.389423 0.60971 -0.129361 -0.757587 0.0621064 0.196562 0.37875 0.0515961 -0.57135 0.0159754 -0.223195 -0.415949 -0.0112931 0.382726 -0.133754 -0.0809279 0.316559 0.301383 -0.630505 0.254874 -0.268248 0.531902 -0.315508 -0.0434088 0.0417527 -0.0608038 0.574722 -0.162103 0.513579 0.332328 -0.0604244 0.160979 -0.156049 -0.267094 0.0740452 0.293406 0.0874154 -0.486847 0.590973 -0.274699 -0.725405 0.353078 0.197796 -0.142549 0.242086 -0.206131 0.345362 0.521097 -0.484283 0.763445 -0.134389 0.256376
174 -0.890043 -0.636347 1.49953 -0.00276971 0.458774 -0.162783 -0.118832 0.750899 0.00302539 -0.186362 -0.157966 -0.0151622 0.523122 0.721299 -0.0277181 -0.772221 0.0173433 0.361899 0.476903 0.176668 -0.469238 0.0231467 -0.285618 -0.30709 0.0879524 0.325208 -0.191483 0.102136 0.224736 0.227917 -0.707981 0.375741 -0.223767 0.541396 -0.279061 -0.036923 -0.0720268 -0.157637 0.351235 -0.177416 0.511602 0.178516 0.00362288 0.0954316 -0.093769 -0.0902413 0.378881 0.331887 0.0187881 -0.537513 0.515077 -0.324264 -0.834245 0.467542 0.395312 -0.397387 0.353841 -0.395175 0.438187 0.72758 -0.761069 0.985866 -0.0615189 0.177106
384 -0.753274 -0.647425 1.30317 -0.0561594 0.382493 -0.194533 -0.173755 0.613172 -0.0472276 -0.147526 -0.0973264 -0.0525079 0.362221 0.588789 -0.106424 -0.697244 -0.046055 0.280485 0.467966 0.071724 -0.54805 -0.0476866 -0.186569 -0.262162 -0.0136745 0.511493 -0.233973 0.0461835 0.264552 0.29217 -0.73306 0.276299 -0.291744 0.647147 -0.260045 -0.0221059 -0.0813458 -0.0657514 0.515664 -0.164154 0.555969 0.236434 -0.0175242 0.175498 -0.0580086 -0.219525 0.226873 0.300518 -0.0242648 -0.502656 0.543707 -0.294067 -0.713817 0.35674 0.183597 -0.215438 0.192801 -0.211786 0.295498 0.498676 -0.49745 0.70307 -0.147168 0.208898
376 -0.83025 -0.746521 1.0153 -0.0552312 0.323237 -0.193104 -0.175903 0.466105 -0.0975188 -0.179379 -0.163223 -0.0637266 0.235748 0.655177 -0.165249 -0.786943 -0.0256442 0.200515 0.285002 0.0792096 -0.499465 -0.0797369 -0.182002 -0.239409 -0.0304093 0.410596 -0.191109 0.0301092 0.0973331 0.253609 -0.597692 0.184605 -0.230587 0.500336 -0.29052 -0.00722539 0.00734701 -0.116054 0.714144 -0.173421 0.530907 0.257059 -0.0775117 0.157974 -0.0239628 -0.270407 0.171572 0.310732 -0.0186227 -0.527091 0.767546 -0.370042 -0.831182 0.539254 0.282361 -0.0853197 0.281319 -0.324117 0.277561 0.499682 -0.484973 0.662097 -0.0598418 0.10176
389 -0.772402 -0.36576 0.944807 -0.120139 0.292561 -0.15594 -0.29751 0.402835 -0.0544975 -0.166637 -0.0981463 0.0103284 0.435459 0.418392 -0.144977 -0.447027 -0.15181 0.151486 0.445429 0.053193 -0.526425 -0.156796 -0.0836453 -0.139449 0.114937 0.499936 -0.271666 -0.0413545 0.113758 0.0789021 -0.355635 0.326641 -0.303065 0.521998 -0.21273 -0.0206524 -0.0499335 -0.212762 0.654207 -0.322022 0.606213 0.0857634 -0.0802149 0.18836 -0.111865 -0.382455 0.301321 0.194798 -0.0885687 -0.526707 0.593523 -0.420843 -0.702819 0.564474 0.437187 -0.236613 0.361051 -0.249891 0.307617 0.393871 -0.43625 0.663846 -0.0886415 0.297574
119 -0.70489 -0.298713 0.901646 -0.123521 0.303599 -0.158558 -0.280127 0.427328 -0.124854 -0.196912 -0.0254579 0.0448293 0.438784 0.299357 -0.136919 -0.426929 -0.196554 0.128775 0.478787 0.0395403 -0.550731 -0.118695 0.00947565 -0.108561 0.0595682 0.58203 -0.273179 -0.0793078 0.125991 -0.00122389 -0.368658 0.289401 -0.291271 0.575682 -0.138697 -0.0790299 -0.0708118 -0.223204 0.572498 -0.232038 0.513794 0.0389098 -0.0480336 0.144319 -0.105908 -0.355312 0.292585 0.159762 -0.102448 -0.45679 0.550219 -0.390424 -0.607526 0.507951 0.414397 -0.231627 0.339691 -0.216881 0.310277 0.334976 -0.426191 0.611466 -0.100092 0.229618
57 -0.542524 -0.405996 1.26073 -0.216044 0.386868 -0.421667 -0.387184 0.47662 -0.140714 -0.0950353 -0.052436 -0.0995333 0.70401 0.558995 -0.282832 -0.928567 -0.060036 0.0966469 0.461755 0.0176494 -0.752487 -0.176435 -0.0543084 -0.453963 -0.0452214 0.494958 -0.135456 -0.284309 0.177736 -0.0138516 -0.367887 0.231019 -0.24312 0.580379 -0.262785 -0.0890519 0.143118 -0.321802 0.90055 -0.251309 0.505973 0.0448785 -0.0882854 0.119691 -0.201318 -0.521511 0.130742 0.153246 0.0173543 -0.444617 0.803545 -0.478668 -0.804747 0.621103 0.659733 -0.0649585 0.534899 -0.278166 0.342083 0.424326 -0.551788 0.722775 -0.0693542 0.210817
246 -0.703958 -0.515895 0.868649 -0.184382 0.307377 -0.14504 -0.234772 0.611859 -0.00482327 -0.369933 -0.116867 -0.241484 0.16593 0.41856 -0.123462 -0.758862 0.01927 0.255112 0.333568 0.069832 -0.578751 0.0254348 -0.251987 -0.086092 -0.0396506 0.453765 -0.0184933 -0.0591574 0.0132915 0.278861 -0.849868 0.30685 -0.134901 0.467405 -0.225546 0.0681224 -0.041832 -0.174968 0.630375 -0.126799 0.552263 0.0922846 -0.0996236 0.278726 -0.084094 -0.457625 0.360894 0.376279 0.0409559 -0.311173 0.517046 -0.29314 -0.854414 0.518127 0.462888 -0.0536184 0.316984 -0.348384 0.251131 0.406845 -0.656851 0.663918 -0.090266 0.167685
477 -0.674371 -0.220256 1.11867 -0.0182891 0.573446 -0.579194 -0.680708 0.844896 -0.0454407 -0.472617 0.0264455 -0.26685 0.479526 0.56992 -0.0110901 -0.982894 -0.204586 0.29158 0.811003 -0.0267078 -0.749643 0.0769952 -0.352983 -0.146961 -0.0745328 0.701392 -0.032971 -0.321586 0.232309 0.00624182 -0.970059 0.514727 -0.277732 0.523733 -0.311907 0.185067 0.0663308 -0.292126 0.695963 -0.388113 0.19792 -0.0812541 -0.184538 0.0415511 0.018662 -0.512399 0.320851 0.490605 -0.078242 -0.380385 0.525231 -0.274534 -1.01885 0.571525 0.414573 -0.274543 0.295523 -0.324242 0.365774 0.676656 -0.701029 0.67023 -0.0730397 0.0200357
65 -0.613398 -0.498029 0.979035 -0.259562 0.367218 -0.121292 -0.0664944 0.44164 -0.148983 -0.279016 -0.0168587 -0.117875 0.386727 0.444932 0.0488097 -0.65096 -0.0587994 0.333863 0.320764 -0.049167 -0.723513 -0.200187 -0.0688044 -0.391675 -0.134065 0.592774 -0.248676 0.0823891 0.158194 0.0445699 -0.766069 0.113926 -0.108144 0.328069 -0.252135 -0.0697114 -0.0300922 -0.304545 0.201955 -0.0243218 0.311358 0.198811 0.0803446 -0.0761554 -0.0990651 -0.295989 0.253267 0.0607785 -0.0113976 -0.388923 0.570086 -0.339428 -0.770883 0.625979 0.442164 -0.140319 0.439584 -0.25507 0.328741 0.386659 -0.656879 0.49436 -0.299055 0.107881
504 -0.575487 -0.563136 1.09104 -0.340879 0.446683 -0.221706 -0.269858 0.573684 -0.11601 -0.0304494 -0.145356 -0.199038 0.379659 0.580027 -0.157075 -0.83175 -0.14622 0.100405 0.276316 -0.0218006 -0.825714 -0.230301 -0.0276507 -0.39229 -0.0506223 0.519879 -0.196404 0.180048 0.11745 0.218553 -0.57452 0.15753 -0.24611 0.343867 -0.178657 -0.019136 -0.0600882 -0.0374633 0.588429 -0.170681 0.398501 0.215964 0.0896724 0.0281687 -0.0666079 -0.445349 0.174663 0.19139 0.0221518 -0.454434 0.659263 -0.434724 -0.878432 0.669728 0.484175 -0.126368 0.354715 -0.338144 0.291679 0.401236 -0.441298 0.45949 -0.30399 0.302779
349 -0.66804 -0.435248 1.3462 -0.203019 0.747739 -0.223637 -0.358974 0.652536 -0.105376 -0.0809347 -0.184546 -0.0527955 0.389459 0.630376 -0.0612132 -0.775911 -0.0626765 0.127106 0.3364 0.112372 -0.653623 -0.0961731 -0.168203 -0.515164 0.0590666 0.434417 -0.115317 0.167222 0.0726871 0.114774 -0.592473 0.203151 -0.102931 0.343584 -0.268157 -0.205303 -0.111498 -0.240698 0.48823 -0.171331 0.262749 0.0611249 -0.0294233 0.0385313 -0.0815718 -0.302042 0.325988 0.038261 0.0155609 -0.545392 0.597686 -0.275743 -0.827305 0.607467 0.543774 -0.267343 0.309331 -0.470524 0.29179 0.364932 -0.506105 0.600499 -0.136364 0.174571
141 -0.46073 -0.423563 0.907031 -0.215116 0.467828 -0.175958 -0.251978 0.567134 -0.134679 -0.0300053 -0.182826 -0.0559228 0.379575 0.597667 -0.160691 -0.90805 -0.109236 0.117949 0.244487 0.0754991 -0.63698 -0.00921083 -0.0875654 -0.363985 0.0289848 0.375995 -0.0690864 0.129292 0.117921 0.175079 -0.538824 0.215401 -0.179793 0.392372 -0.192513 -0.110052 -0.0542861 -0.131367 0.524904 -0.0905319 0.260077 0.126976 0.0446669 0.0462078 -0.0553192 -0.273624 0.174287 0.171316 0.0685541 -0.411 0.51803 -0.241821 -0.701986 0.466216 0.37282 -0.158421 0.194448 -0.373966 0.175537 0.2824 -0.338802 0.392061 -0.169264 0.201696
8 -0.510746 -0.584157 0.981067 -0.235214 0.473569 -0.119111 -0.149389 0.586816 -0.160826 -0.000370954 -0.178528 -0.0630508 0.316632 0.603971 -0.160344 -0.922276 -0.0696807 0.125106 0.148013 0.0711376 -0.54866 0.016282 -0.0563054 -0.337939 -0.0341396 0.330338 -0.0310439 0.261678 0.105548 0.23352 -0.611014 0.124372 -0.126471 0.397571 -0.159643 -0.109512 -0.0946182 -0.0627991 0.477948 -0.0230203 0.249645 0.135136 0.109514 0.0420069 -0.0282927 -0.237243 0.204123 0.189146 0.0940831 -0.417335 0.535707 -0.266391 -0.757257 0.471382 0.373618 -0.132253 0.176856 -0.43021 0.156197 0.311059 -0.354671 0.356311 -0.183404 0.139217
422 -0.497219 -0.516493 0.962232 -0.248514 0.443679 -0.110116 -0.146987 0.560448 -0.177104 -0.0289094 -0.176325 -0.0191803 0.386303 0.598674 -0.193394 -0.885443 -0.0929215 0.133444 0.195872 0.0641237 -0.594769 -0.0273634 -0.0131174 -0.318204 0.00760078 0.389043 -0.1096 0.196115 0.133955 0.201667 -0.549271 0.159519 -0.176106 0.453465 -0.165352 -0.147111 -0.0820492 -0.10861 0.509829 -0.0140386 0.321454 0.158762 0.101608 0.070399 -0.0596983 -0.260445 0.213531 0.166095 0.0847603 -0.425763 0.588815 -0.315423 -0.709318 0.487442 0.410941 -0.130026 0.218784 -0.378126 0.169668 0.261859 -0.354256 0.419148 -0.196592 0.208139
128 -0.496115 -0.373074 0.973177 -0.227644 0.377443 -0.200216 -0.20958 0.420696 -0.120172 -0.204246 0.00118935 -0.167993 0.401774 0.450826 0.0285612 -0.675801 -0.0890989 0.248125 0.380687 -0.0262031 -0.852486 -0.235401 -0.0783084 -0.477746 -0.102165 0.598923 -0.221989 0.0448981 0.128434 0.0274542 -0.69019 0.150367 -0.160416 0.28705 -0.246425 -0.0806239 -0.0142295 -0.253444 0.337471 -0.157198 0.274307 0.177334 0.037314 -0.101973 -0.107911 -0.38433 0.198139 0.0497198 -0.0347985 -0.437203 0.595111 -0.326267 -0.797813 0.63894 0.431024 -0.169177 0.441694 -0.27309 0.377071 0.396142 -0.579967 0.49489 -0.289743 0.150864
71 -0.555049 -0.422232 0.965293 -0.274525 0.409997 -0.180525 -0.179728 0.471241 -0.126642 -0.255186 -0.0306084 -0.174781 0.395034 0.479773 0.0259893 -0.681359 -0.105815 0.264609 0.340726 -0.0570214 -0.792328 -0.239621 -0.0734075 -0.405628 -0.118422 0.583683 -0.227449 0.0767254 0.107548 0.0382541 -0.715197 0.145999 -0.132945 0.268131 -0.226587 -0.0367757 -0.0261463 -0.260115 0.289317 -0.102003 0.268033 0.155901 0.0556933 -0.0953104 -0.077409 -0.358021 0.238799 0.0725724 -0.0367005 -0.391052 0.571622 -0.353327 -0.813452 0.662624 0.462744 -0.157957 0.444209 -0.290361 0.329807 0.402793 -0.61213 0.456258 -0.288444 0.151647
25 -0.434221 -0.303376 0.891982 -0.232584 0.406036 -0.200578 -0.219048 0.494837 -0.125625 -0.221306 -0.0330667 -0.152093 0.382161 0.430887 0.00474737 -0.702777 -0.132517 0.196338 0.367717 -0.0464678 -0.750837 -0.16923 -0.0678637 -0.357592 -0.105911 0.535663 -0.172927 0.0390276 0.133985 0.0248673 -0.661887 0.180599 -0.150305 0.310286 -0.193526 -0.0567369 -0.0386097 -0.22597 0.310821 -0.100746 0.193479 0.11097 0.0443666 -0.100729 -0.0412073 -0.319134 0.195548 0.104882 -0.0437008 -0.362864 0.490322 -0.287948 -0.708209 0.564702 0.373974 -0.164265 0.330852 -0.245973 0.281567 0.347492 -0.504841 0.38223 -0.259912 0.149027
619 -0.522753 -0.414543 1.04941 -0.248812 0.367841 -0.245239 -0.229477 0.436247 -0.111298 -0.246859 0.0434795 -0.226886 0.423043 0.483343 0.0175569 -0.710884 -0.0795041 0.25713 0.426248 -0.0566626 -0.959637 -0.321443 -0.0753853 -0.508481 -0.158033 0.683796 -0.27647 -0.00767621 0.138279 0.040623 -0.74925 0.133114 -0.186387 0.337928 -0.276417 -0.0703275 0.00147216 -0.248364 0.426736 -0.19286 0.372884 0.235454 0.0139747 -0.0981878 -0.127462 -0.442947 0.165176 0.0793688 -0.0759562 -0.450981 0.697792 -0.403841 -0.871789 0.699673 0.449067 -0.136583 0.523905 -0.236273 0.444501 0.469168 -0.688071 0.597414 -0.321734 0.176693
158 -0.591415 -0.483487 1.06769 -0.237177 0.418247 -0.196549 -0.170321 0.495777 -0.148082 -0.246421 -0.00797361 -0.183773 0.418964 0.498829 0.0592041 -0.726543 -0.0742665 0.297928 0.382223 -0.0445498 -0.806053 -0.224622 -0.0890491 -0.43978 -0.15015 0.572558 -0.211765 0.0774846 0.139297 0.00597459 -0.732558 0.125794 -0.104373 0.254062 -0.253839 -0.0469129 -0.0248194 -0.279312 0.26001 -0.1102 0.234706 0.159893 0.0628163 -0.136919 -0.0729325 -0.337291 0.22529 0.0691559 -0.0305934 -0.409493 0.571458 -0.323651 -0.831214 0.644631 0.447024 -0.166127 0.43746 -0.278531 0.346402 0.413631 -0.633582 0.466187 -0.293859 0.125281
320 -0.52702 -0.386203 0.913826 -0.219429 0.381334 -0.206052 -0.194431 0.401584 -0.128617 -0.243589 0.0135633 -0.16368 0.415898 0.433419 0.054145 -0.69526 -0.102582 0.247211 0.389841 -0.0443764 -0.847062 -0.248088 -0.0734087 -0.486915 -0.140731 0.620048 -0.232336 0.0299512 0.134022 -0.0328251 -0.686557 0.154537 -0.154888 0.31754 -0.282119 -0.0668769 0.0149894 -0.318616 0.362739 -0.164983 0.275981 0.169561 0.0265524 -0.159861 -0.0813441 -0.374561 0.169256 0.0607435 -0.0696516 -0.456107 0.645558 -0.348731 -0.838771 0.673641 0.41839 -0.184537 0.468242 -0.291645 0.388225 0.444068 -0.619118 0.484281 -0.274439 0.115218
145 -0.633814 -0.284284 0.948528 -0.0990418 0.250041 -0.1867 -0.305011 0.413519 -0.0821259 -0.137808 -0.0249175 0.000287588 0.46779 0.329129 -0.18899 -0.448789 -0.138358 0.125315 0.490372 0.0372442 -0.556885 -0.156698 -0.0106958 -0.129156 0.0628131 0.522014 -0.280037 -0.115381 0.14362 0.0501324 -0.297303 0.283128 -0.284922 0.54092 -0.143581 -0.047863 -0.0486008 -0.161772 0.624677 -0.276594 0.57718 0.062844 -0.063557 0.19465 -0.151622 -0.387779 0.25796 0.163963 -0.0793921 -0.413264 0.4996 -0.381663 -0.538885 0.433804 0.385023 -0.180764 0.316354 -0.164929 0.297443 0.313187 -0.372563 0.62424 -0.0892489 0.282859
176 -0.824337 -0.416313 0.898913 -0.162982 0.305431 -0.160255 -0.2358 0.433443 -0.119262 -0.170769 -0.136399 0.0424434 0.582491 0.45638 -0.12732 -0.573189 -0.213119 0.207117 0.468859 0.0296064 -0.571582 -0.117517 -0.0355581 -0.18127 0.114137 0.67266 -0.316535 -0.0396376 0.220404 0.0106773 -0.446985 0.413142 -0.349833 0.695729 -0.258144 -0.0322281 -0.0273854 -0.347531 0.668796 -0.276291 0.663304 0.112587 -0.026277 0.127164 -0.132004 -0.420405 0.342697 0.219088 -0.0468448 -0.617604 0.643661 -0.482541 -0.786799 0.657528 0.485978 -0.287513 0.383838 -0.316527 0.294165 0.428765 -0.475954 0.667251 -0.0959883 0.339709
101 -0.548683 -0.509069 1.03252 -0.197691 0.48203 -0.146214 -0.222982 0.561849 -0.172085 -0.0790185 -0.15927 -0.00706747 0.379833 0.642153 -0.178951 -0.896666 -0.0719018 0.149103 0.262637 0.0872534 -0.627632 -0.0457328 -0.0678698 -0.374425 -0.00115087 0.378018 -0.109954 0.123639 0.10751 0.175997 -0.542027 0.142487 -0.159704 0.395027 -0.183102 -0.159618 -0.0528808 -0.141569 0.501928 -0.048721 0.270614 0.128969 0.041559 0.0721975 -0.0673575 -0.243038 0.207039 0.137767 0.0495475 -0.407742 0.591362 -0.263232 -0.692477 0.476061 0.397936 -0.138478 0.237344 -0.367941 0.182605 0.271024 -0.381175 0.442656 -0.173497 0.14567
470 -0.524235 -0.176588 1.14009 -0.0894753 0.372898 -0.465934 -0.50427 0.707115 0.00801987 -0.390677 0.0137448 -0.305612 0.504718 0.477669 -0.00388546 -0.841359 -0.146667 0.264714 0.649397 -0.0104612 -0.745166 -0.0906575 -0.251752 -0.17818 -0.0584276 0.648563 -0.144343 -0.25929 0.143898 0.0154508 -0.805658 0.439316 -0.238224 0.377638 -0.239809 0.163485 0.0784473 -0.208245 0.551696 -0.336026 0.297065 0.01359 -0.144321 0.00783988 -0.0471128 -0.46296 0.24634 0.360779 -0.10334 -0.332255 0.47107 -0.302398 -0.78744 0.516507 0.366142 -0.231973 0.368101 -0.224317 0.442891 0.576341 -0.629856 0.701177 -0.101675 0.107116
38 -0.36786 -0.302471 1.05259 0.0113408 0.295022 -0.42202 -0.391935 0.53635 0.0605533 -0.175304 0.0121577 -0.284263 0.296002 0.478619 -0.0542915 -0.715086 -0.00540918 0.149656 0.533838 -6.1804e-05 -0.694006 -0.0378025 -0.27479 -0.301821 -0.105089 0.451181 -0.0822359 -0.241716 0.207514 0.16515 -0.716493 0.291047 -0.25918 0.434666 -0.295615 0.0724283 0.0826539 -0.0799076 0.663378 -0.311694 0.345261 0.191899 -0.137527 0.0621388 -0.0306756 -0.368074 0.0413201 0.400191 -0.0697164 -0.399313 0.550958 -0.272321 -0.816829 0.400748 0.173704 -0.138339 0.277917 -0.18384 0.414021 0.647658 -0.609902 0.758618 -0.127064 0.14053
535 -0.610505 -0.533322 1.18903 -0.0850082 0.349307 -0.35657 -0.329887 0.549871 0.0294787 -0.24811 -0.0328569 -0.256567 0.216617 0.588153 -0.130153 -0.697808 -0.0581885 0.204721 0.48977 -0.0826612 -0.675047 -0.194657 -0.214796 -0.194454 -0.183294 0.556333 -0.242197 -0.17797 0.201755 0.333768 -0.824976 0.193268 -0.292118 0.49149 -0.240594 0.117719 0.017495 0.0207652 0.696498 -0.229137 0.498539 0.259521 -0.112442 0.152707 0.0251232 -0.371077 0.123662 0.428468 -0.0895499 -0.341049 0.612279 -0.383222 -0.782317 0.490729 0.197624 -0.0199464 0.300154 -0.121641 0.3137 0.572906 -0.621145 0.671962 -0.179074 0.189843
377 -0.867886 -0.394011 0.959769 -0.0707247 0.462388 -0.275815 -0.424118 0.530408 -0.0150121 -0.359009 -0.157625 -0.0348536 0.46537 0.748937 -0.0721215 -0.766775 -0.128043 0.319127 0.438127 0.0376621 -0.5231 -0.0961548 -0.236307 -0.1965 0.123235 0.405327 -0.183849 0.0057914 0.0536647 0.13176 -0.535714 0.314333 -0.173084 0.208737 -0.265593 0.0578978 -0.0133032 -0.211596 0.348824 -0.251318 0.278166 0.0731616 -0.111757 0.140673 -0.0978989 -0.277728 0.341964 0.253756 -0.0475427 -0.473482 0.595388 -0.316653 -0.765482 0.569878 0.524289 -0.297908 0.418581 -0.298013 0.356414 0.58799 -0.599432 0.7582 -0.0490913 0.211487
341 -0.776542 -0.413198 1.3295 -0.316106 0.406781 -0.335358 -0.293976 0.670916 -0.0475102 -0.29037 -0.178064 -0.105425 0.718499 0.609589 -0.147644 -0.711908 -0.117647 0.320204 0.50046 -0.116897 -0.564616 -0.230642 -0.119277 -0.150138 0.0730307 0.539417 -0.338739 -0.150567 0.265739 0.0907997 -0.522365 0.375017 -0.210262 0.368809 -0.189861 0.145439 0.0205242 -0.331746 0.30148 -0.122013 0.594741 0.0801413 -0.0186979 0.190496 -0.183321 -0.346413 0.424251 0.182405 0.0828333 -0.288724 0.385731 -0.455181 -0.566285 0.501234 0.607121 -0.130585 0.443779 -0.085277 0.287797 0.405521 -0.636755 0.770568 -0.12252 0.413062
321 -0.694078 -0.459488 0.654378 -0.115875 0.328811 -0.206967 -0.106976 0.319701 -0.0311112 -0.109913 -0.248797 -0.0104609 0.430659 0.566367 -0.0163532 -0.564693 -0.160974 0.196859 0.261909 -0.00514555 -0.369034 -0.0517054 -0.167976 -0.268183 0.0770411 0.459858 -0.215899 0.0520962 0.246357 0.0558156 -0.494983 0.390652 -0.266708 0.545475 -0.36098 0.0528849 0.0475351 -0.33794 0.546952 -0.23265 0.485157 0.189098 -0.0109761 -0.00443011 -0.0129097 -0.249155 0.226189 0.29394 0.00522279 -0.597577 0.588397 -0.374412 -0.82051 0.614329 0.31401 -0.278478 0.286287 -0.35808 0.205368 0.528295 -0.463484 0.53077 -0.0389801 0.251909
223 -0.904067 -0.444723 1.03925 -0.208964 0.488837 -0.269052 -0.247808 0.559427 -0.0774482 -0.124365 -0.261607 0.0584573 0.632323 0.629462 -0.0598587 -0.591479 -0.192773 0.198835 0.320718 0.00448572 -0.353979 -0.0467982 -0.0916583 -0.229495 0.160164 0.329853 -0.245547 0.116476 0.237529 -0.00401058 -0.406861 0.422104 -0.232924 0.450407 -0.276346 0.0146778 -0.0350757 -0.35635 0.475055 -0.235056 0.525574 0.127737 0.0394059 0.0429964 -0.107385 -0.28907 0.421868 0.374323 0.0586129 -0.719109 0.602502 -0.526779 -0.97377 0.766826 0.674979 -0.452996 0.518147 -0.461422 0.387737 0.73589 -0.715358 0.953076 -0.0956284 0.387174
249 -0.767025 -0.42893 0.681909 -0.1641 0.377406 -0.168983 -0.144259 0.341195 -0.0550056 -0.226677 -0.215632 0.0188839 0.372088 0.516625 0.0111244 -0.511011 -0.218617 0.250137 0.301477 -0.0158958 -0.4138 -0.083449 -0.15522 -0.206778 0.0669089 0.532142 -0.236298 0.0333209 0.210365 0.0339176 -0.574021 0.38546 -0.292067 0.546204 -0.333886 0.0169858 -0.00305145 -0.369944 0.458299 -0.176149 0.444079 0.165544 -0.029279 0.00552749 0.0159479 -0.247326 0.282744 0.286938 -0.033463 -0.604936 0.610216 -0.362368 -0.850762 0.683133 0.364497 -0.294236 0.338455 -0.355036 0.218706 0.523643 -0.539236 0.555119 -0.0773572 0.210121
247 -0.749327 -0.47383 0.704614 -0.233267 0.359832 -0.239981 -0.155346 0.349098 -0.0569173 -0.136105 -0.256307 -0.0770823 0.588659 0.654801 -0.0200395 -0.658357 -0.0857028 0.331164 0.244621 -0.0593755 -0.424781 -0.066532 -0.17545 -0.333884 0.113716 0.539867 -0.211248 0.0167958 0.227643 0.0553569 -0.578249 0.392088 -0.195766 0.422637 -0.426264 0.0763309 0.0939288 -0.497286 0.477918 -0.172948 0.545986 0.21058 -0.0138229 0.0620164 -0.185247 -0.401492 0.368072 0.224273 0.14724 -0.577611 0.637273 -0.476208 -0.951326 0.783186 0.643519 -0.210841 0.510098 -0.419971 0.259239 0.526352 -0.664388 0.680306 -0.0909212 0.328422
510 -0.572694 -0.426002 0.815456 -0.170781 0.283555 -0.292128 -0.20875 0.454356 0.012278 -0.081555 -0.19072 -0.215487 0.630708 0.653969 -0.038072 -0.697685 0.0480731 0.357691 0.319912 -0.0536722 -0.420008 -0.00548507 -0.255114 -0.316606 0.0884108 0.47592 -0.13111 -0.0606503 0.272116 0.15404 -0.623852 0.376967 -0.12266 0.321712 -0.374297 0.16884 0.10803 -0.364158 0.40702 -0.176622 0.52612 0.170803 -0.0307363 0.146162 -0.289667 -0.434297 0.373027 0.222097 0.230719 -0.356768 0.4066 -0.375016 -0.790544 0.540649 0.585749 -0.120098 0.414991 -0.293001 0.246129 0.445437 -0.593963 0.649905 -0.0894055 0.332354
83 -0.969016 -0.827133 0.945503 -0.0659069 0.291863 -0.185211 -0.0180426 0.293803 -0.0216895 -0.229996 -0.218906 -0.0883062 0.352522 0.694159 0.0397605 -0.54431 -0.0413938 0.372317 0.287057 -0.0339065 -0.351031 -0.198068 -0.27206 -0.279092 -0.0485014 0.532559 -0.310189 0.0492787 0.249942 0.175492 -0.65806 0.250882 -0.200595 0.497906 -0.434947 0.175553 0.0677271 -0.309496 0.506267 -0.221494 0.621234 0.274712 -0.0438298 0.0217335 0.00390064 -0.23361 0.221611 0.295303 -0.0325286 -0.530139 0.666541 -0.386231 -0.83268 0.578965 0.256897 -0.138453 0.316987 -0.249607 0.200566 0.565932 -0.552468 0.546525 -0.0450688 0.127644
457 -0.638496 -0.411354 0.797539 -0.224198 0.439083 -0.268269 -0.179228 0.432161 0.0538729 -0.0711262 -0.271712 -0.170165 0.383461 0.555172 0.042328 -0.576256 -0.220526 0.157847 0.27673 -0.0397187 -0.513159 -0.0818006 -0.212388 -0.317539 0.0795192 0.49345 -0.188809 0.126291 0.254863 0.125422 -0.627999 0.466348 -0.333356 0.530537 -0.358493 0.0846224 -0.024113 -0.277823 0.562118 -0.290903 0.470741 0.20523 0.0232485 -0.0528133 0.040618 -0.338516 0.23981 0.372012 0.00531905 -0.699959 0.598066 -0.432312 -1.05579 0.766749 0.370684 -0.36563 0.305133 -0.436794 0.278883 0.663031 -0.531403 0.547136 -0.146779 0.355011
85 -0.87303 -0.533489 0.848195 -0.0922085 0.495767 -0.123414 -0.258395 0.461594 0.140118 0.107955 -0.288651 -0.250973 0.35693 0.611407 0.0977994 -0.565986 -0.122124 0.149439 0.286999 0.136676 -0.610715 -0.0159006 -0.376006 -0.434454 0.220792 0.428797 -0.0324832 0.362704 0.0322297 0.252009 -0.577094 0.501572 -0.293783 0.382521 -0.39384 0.128792 -0.120348 -0.151981 0.671857 -0.527532 0.493422 0.13897 -0.0227436 0.0490578 -0.0275621 -0.421935 0.343209 0.288851 -0.0208227 -0.806038 0.607472 -0.403351 -1.28472 0.823227 0.502109 -0.45256 0.284131 -0.64946 0.364978 0.71807 -0.482219 0.608456 -0.1001 0.316778
687 -0.574543 -0.377297 0.759459 -0.139027 0.418194 -0.267782 -0.266775 0.468606 0.196296 0.0554002 -0.312489 -0.334663 0.277859 0.587954 0.0281854 -0.568215 -0.0918851 0.10712 0.246997 0.0297311 -0.465255 -0.0167425 -0.379844 -0.329535 0.149873 0.281888 -0.000837297 0.177284 0.146111 0.298048 -0.575585 0.518678 -0.297848 0.351701 -0.366792 0.21438 -0.0330607 -0.0925131 0.625395 -0.414388 0.46335 0.172979 -0.0504542 0.0827891 0.00726519 -0.399193 0.243478 0.411543 0.0736272 -0.597988 0.420816 -0.331655 -1.07944 0.640851 0.368018 -0.321268 0.20632 -0.473519 0.247423 0.668526 -0.444346 0.550033 -0.0757358 0.403691
167 -0.744645 -0.518722 0.699159 -0.172577 0.384925 -0.148527 -0.0725014 0.336569 -0.0924732 -0.133213 -0.267573 0.0333393 0.436078 0.571941 -0.0151865 -0.592347 -0.17958 0.232019 0.208257 -0.00291111 -0.362119 -0.0548638 -0.125739 -0.264222 0.0750783 0.460032 -0.220559 0.111133 0.225003 0.0390519 -0.504361 0.348166 -0.226154 0.519589 -0.326591 0.00322545 0.0113818 -0.378373 0.444853 -0.131348 0.447779 0.164326 0.0263928 -0.0245833 -0.00990731 -0.212909 0.268221 0.247435 0.0285725 -0.590313 0.577634 -0.364314 -0.787754 0.61945 0.364198 -0.264803 0.288071 -0.378022 0.153282 0.444428 -0.451134 0.460391 -0.0632181 0.225465
450 -0.729379 -0.504239 0.669263 -0.162205 0.37813 -0.181553 -0.0497636 0.339109 -0.100228 -0.176588 -0.237873 0.0258284 0.449171 0.527237 0.0459349 -0.582078 -0.204675 0.246399 0.258211 -0.0214136 -0.382134 -0.0546739 -0.119222 -0.277873 0.0214916 0.530092 -0.225465 0.109574 0.27521 -0.0277338 -0.578823 0.356323 -0.244721 0.58882 -0.359902 -0.00204707 0.0203342 -0.430966 0.434342 -0.146812 0.40909 0.183075 0.039981 -0.104663 0.012592 -0.209582 0.245826 0.277129 -0.0050903 -0.64834 0.642484 -0.395563 -0.886357 0.688769 0.360285 -0.316498 0.334734 -0.412576 0.212645 0.552939 -0.543588 0.516824 -0.0861309 0.19065
597 -0.525765 -0.333883 0.710022 -0.162432 0.407533 -0.285398 -0.22637 0.47298 0.174995 0.0159188 -0.300028 -0.282601 0.317913 0.516164 0.0566824 -0.548718 -0.157725 0.100664 0.227718 0.00120972 -0.418868 -0.00634973 -0.312328 -0.272598 0.116094 0.315734 -0.0546553 0.179742 0.198334 0.208011 -0.584409 0.519807 -0.295948 0.430497 -0.350684 0.180021 -0.0463172 -0.160142 0.587981 -0.373263 0.425902 0.145384 0.00400008 0.00736478 0.0513099 -0.348423 0.247235 0.448488 0.0394509 -0.629724 0.443724 -0.371733 -1.07006 0.670524 0.355531 -0.369422 0.215955 -0.474886 0.248782 0.684454 -0.457855 0.525788 -0.0928005 0.380197
42 -0.691123 -0.553577 0.91792 -0.227557 0.449456 -0.248705 -0.109153 0.42819 -0.116151 -0.177927 -0.156803 -0.0903387 0.421896 0.51601 0.0482749 -0.678526 -0.202442 0.212596 0.285884 -0.0463187 -0.6101 -0.180337 -0.0630942 -0.368922 -0.0866447 0.577228 -0.252098 0.15472 0.229288 -0.0241514 -0.642546 0.234177 -0.213383 0.504646 -0.314784 -0.0269534 -0.00854747 -0.333632 0.458112 -0.173697 0.339194 0.201509 0.0803758 -0.186111 0.0521233 -0.272869 0.184664 0.23955 -0.0747009 -0.628166 0.74047 -0.451038 -0.991082 0.761107 0.396134 -0.283365 0.405963 -0.407239 0.327122 0.59581 -0.61377 0.528903 -0.207849 0.167731
578 -0.469248 -0.473567 1.05588 -0.275702 0.375255 -0.244427 -0.200799 0.473734 -0.135796 -0.157306 -0.0107338 -0.226784 0.399228 0.459763 -0.0470144 -0.769548 -0.0761035 0.160943 0.320417 -0.051518 -0.853407 -0.244308 -0.0118545 -0.450575 -0.158345 0.558598 -0.208429 0.0598095 0.124165 0.0653271 -0.647607 0.0955686 -0.158219 0.345899 -0.214339 -0.0804726 -0.0162635 -0.185891 0.455641 -0.130892 0.322799 0.197439 0.0650973 -0.092358 -0.0909446 -0.399122 0.136663 0.0974791 -0.0399573 -0.434041 0.669835 -0.407293 -0.836257 0.641925 0.455319 -0.119662 0.447448 -0.284859 0.367121 0.42889 -0.586594 0.512856 -0.293243 0.185887
309 -0.662231 -0.521514 1.14335 -0.256925 0.401794 -0.322361 -0.292337 0.522472 0.0869966 -0.0796365 -0.229683 -0.245755 0.335877 0.635313 -0.110738 -0.508847 -0.148217 0.121957 0.237934 -0.1059 -0.374994 -0.293742 -0.135217 -0.136409 0.00833259 0.321932 -0.25129 0.0989155 0.138034 0.255425 -0.410072 0.214217 -0.215348 0.237044 -0.17053 0.211458 -0.0420327 0.00672241 0.491532 -0.240728 0.486852 0.180332 0.0107404 0.101871 0.055905 -0.305899 0.211424 0.317867 -0.0446297 -0.3566 0.437138 -0.43118 -0.686293 0.559391 0.388471 -0.144501 0.283525 -0.185997 0.191488 0.4851 -0.4237 0.470028 -0.148908 0.371821
190 -0.72969 -0.596291 1.31331 -0.198647 0.42969 -0.247385 -0.200972 0.610049 0.0599257 -0.068027 -0.19182 -0.125667 0.375188 0.635376 -0.0803068 -0.530307 -0.0949308 0.234917 0.360974 -0.0339804 -0.431737 -0.140718 -0.166702 -0.199819 0.0264391 0.410474 -0.275421 0.09717 0.277973 0.327855 -0.615175 0.287374 -0.281404 0.4636 -0.212066 0.077332 -0.0991765 -0.00383129 0.368986 -0.168155 0.518941 0.246417 0.0345062 0.155022 -0.0286796 -0.208918 0.257633 0.315064 0.0199545 -0.441956 0.419799 -0.331516 -0.686588 0.445871 0.263258 -0.229409 0.214701 -0.190407 0.244968 0.499077 -0.470234 0.611544 -0.200651 0.384572
380 -0.606254 -0.467191 1.17023 -0.319319 0.448922 -0.362441 -0.349197 0.577463 0.0698366 -0.0979334 -0.21504 -0.286012 0.358972 0.654397 -0.131623 -0.57823 -0.179186 0.10131 0.263073 -0.141888 -0.486693 -0.305947 -0.1115 -0.144324 -0.0230754 0.416234 -0.23793 0.0636417 0.142881 0.269966 -0.490209 0.238378 -0.230185 0.257948 -0.145932 0.201198 -0.0507573 0.00415957 0.528301 -0.22673 0.453725 0.162697 0.0129765 0.0961807 0.0497037 -0.381687 0.228449 0.339269 -0.0269866 -0.346778 0.465063 -0.459149 -0.751994 0.619983 0.449376 -0.13196 0.308669 -0.208734 0.200276 0.486837 -0.465585 0.448727 -0.206456 0.392856
576 -0.502865 -0.18406 0.965943 -0.108943 0.491553 -0.411501 -0.469208 0.725228 0.000482659 -0.397565 0.0264951 -0.278951 0.362888 0.442067 0.0428627 -0.794654 -0.208368 0.240907 0.642587 -0.0614681 -0.737629 -0.0444395 -0.258695 -0.185401 -0.104594 0.659796 -0.0896592 -0.156744 0.203946 0.0381609 -0.93733 0.422225 -0.254795 0.462656 -0.256125 0.130891 -0.00492664 -0.22392 0.508968 -0.273125 0.173923 -0.00182693 -0.0740465 -0.0464907 0.0625072 -0.404102 0.244988 0.416495 -0.113774 -0.334788 0.424558 -0.25718 -0.885623 0.534509 0.294764 -0.250529 0.240314 -0.264981 0.306416 0.579934 -0.628643 0.487068 -0.156635 0.0631814
294 -0.391331 -0.196106 1.07786 -0.118255 0.283521 -0.396646 -0.389621 0.644585 0.0205048 -0.271806 0.039724 -0.300209 0.539019 0.427927 -0.0318251 -0.715727 -0.124344 0.232013 0.634395 -0.0923097 -0.745939 -0.137511 -0.181421 -0.190171 -0.0857715 0.686571 -0.205286 -0.242678 0.277667 0.0710645 -0.781615 0.399313 -0.238082 0.484213 -0.224624 0.162222 0.0272922 -0.2093 0.544632 -0.289486 0.405404 0.0685653 -0.0506025 0.0519768 -0.0839785 -0.474032 0.230054 0.333207 -0.0606404 -0.279254 0.367026 -0.330413 -0.704715 0.423716 0.30193 -0.159514 0.27613 -0.0930547 0.318844 0.477519 -0.573657 0.546861 -0.171086 0.239332
617 -0.359081 -0.432389 1.03252 1.14328e-06 0.205307 -0.344027 -0.244946 0.391157 0.0649236 -0.0912689 -0.0647512 -0.222474 0.338706 0.546722 -0.0762045 -0.713635 0.126669 0.188469 0.359375 0.0340334 -0.51159 0.00154922 -0.289783 -0.385462 -0.0551194 0.298188 -0.0613431 -0.192294 0.210457 0.202935 -0.581929 0.223768 -0.174049 0.349367 -0.332989 0.0410198 0.147516 -0.118717 0.55279 -0.212444 0.411646 0.265455 -0.129948 0.116428 -0.148439 -0.305699 0.0405507 0.286456 0.0611867 -0.393605 0.571424 -0.267183 -0.734978 0.366922 0.227447 -0.0606027 0.333009 -0.174573 0.38851 0.556526 -0.559415 0.775904 -0.0732604 0.156228
425 -0.367941 -0.494257 1.15846 -0.142766 0.213072 -0.391141 -0.206886 0.390475 -0.0719372 -0.0264123 -0.0311809 -0.194327 0.615488 0.506853 -0.219113 -0.879303 0.0472535 0.110526 0.357444 -0.00622307 -0.640904 -0.120359 -0.0385776 -0.434999 -0.130279 0.462788 -0.141778 -0.195717 0.256707 0.0559024 -0.432636 0.134314 -0.177817 0.594416 -0.261753 -0.0372551 0.145568 -0.223402 0.81544 -0.203691 0.542518 0.188416 -0.0270605 0.0505517 -0.198057 -0.450528 0.0380906 0.218948 0.0364388 -0.449752 0.783709 -0.499761 -0.819306 0.518255 0.44453 -0.0283624 0.450363 -0.220505 0.367712 0.497146 -0.522825 0.715736 -0.0759904 0.184433
670 -0.371348 -0.534471 1.07514 -0.00932577 0.239664 -0.382196 -0.198635 0.365103 0.059387 0.00840741 -0.105671 -0.247099 0.35476 0.592256 -0.0615431 -0.75096 0.130962 0.145489 0.281219 0.014536 -0.531239 -0.0320276 -0.273996 -0.489265 -0.0855924 0.293162 -0.0737926 -0.130394 0.24382 0.19671 -0.548773 0.184118 -0.165465 0.33074 -0.36703 0.0451769 0.165473 -0.114058 0.597236 -0.234382 0.428228 0.334871 -0.108066 0.0366326 -0.122936 -0.303266 -0.0146858 0.285533 0.0738683 -0.47773 0.64719 -0.310558 -0.830622 0.424955 0.211524 -0.0892994 0.339217 -0.210794 0.406778 0.625363 -0.538487 0.768343 -0.0712052 0.162675
307 -0.70288 -0.521695 1.19063 -0.0775209 0.384548 -0.199953 -0.16699 0.563362 -0.029788 -0.17246 -0.109448 -0.0245966 0.410871 0.566615 -0.0417487 -0.60436 -0.0558007 0.313814 0.470718 0.0375764 -0.491225 -0.0200378 -0.209192 -0.270627 0.0245449 0.486546 -0.220899 -0.00991452 0.29744 0.231887 -0.722375 0.329999 -0.275647 0.591884 -0.30091 -0.0116277 -0.0466646 -0.174278 0.407657 -0.141718 0.49043 0.220777 -0.0182616 0.143195 -0.0852852 -0.19422 0.250556 0.276312 0.0193182 -0.495232 0.466717 -0.244141 -0.67722 0.378794 0.211139 -0.245869 0.210189 -0.20527 0.27171 0.474169 -0.516 0.666175 -0.127062 0.218149
50 -0.703583 -0.49709 1.18368 -0.237655 0.474099 -0.162776 -0.194577 0.651036 -0.00698208 -0.269199 -0.285898 0.0236126 0.401972 0.730047 -0.153435 -0.745191 -0.0734294 0.339853 0.340824 0.0159382 -0.422612 -0.0156014 -0.259426 -0.176903 0.109402 0.440664 -0.235495 -0.0309462 0.230382 0.337724 -0.776147 0.369765 -0.250494 0.504084 -0.289647 0.00149119 -0.0506442 -0.235321 0.383616 -0.00603676 0.553942 0.206138 -0.0538173 0.297277 -0.058026 -0.179573 0.354805 0.284944 0.0828336 -0.397132 0.447167 -0.239642 -0.608356 0.446902 0.372348 -0.167105 0.237764 -0.209365 0.14246 0.347161 -0.529615 0.650948 -0.115941 0.315211
480 -0.62186 -0.434536 0.71591 -0.19067 0.374531 -0.207008 -0.0602778 0.349608 -0.0674441 -0.128741 -0.225919 -0.00676174 0.42701 0.514018 0.0201101 -0.575655 -0.194528 0.203532 0.22804 -0.0386226 -0.431293 -0.066213 -0.086816 -0.296275 0.0157589 0.520851 -0.250839 0.097901 0.263442 0.0105368 -0.567492 0.32158 -0.261988 0.573198 -0.343597 -0.036227 0.00622199 -0.361847 0.431894 -0.120069 0.414133 0.227835 0.0492034 -0.0837887 0.0031495 -0.226058 0.209886 0.28065 0.00149034 -0.656018 0.671441 -0.41428 -0.902832 0.700446 0.363617 -0.311679 0.364141 -0.387796 0.263722 0.578293 -0.544138 0.566018 -0.136032 0.236449
105 -0.584514 -0.340785 0.721973 -0.127601 0.398783 -0.284609 -0.282846 0.453439 0.198964 0.021493 -0.308568 -0.292011 0.292009 0.569642 0.0337097 -0.539544 -0.157292 0.0952855 0.273356 0.00971989 -0.452143 -0.0562518 -0.334837 -0.276092 0.147094 0.319486 -0.07806 0.150485 0.150428 0.251259 -0.565968 0.53603 -0.323816 0.411824 -0.350411 0.20751 -0.0489341 -0.117923 0.662146 -0.435207 0.48436 0.160935 -0.0462874 0.0551676 0.0534908 -0.388933 0.23637 0.445436 0.00514968 -0.635239 0.474515 -0.374824 -1.0625 0.666176 0.3389 -0.354498 0.221854 -0.447909 0.266049 0.694228 -0.455129 0.568402 -0.0782067 0.39766
483 -0.700038 -0.319197 0.993897 -0.125634 0.306932 -0.169729 -0.313832 0.49136 -0.117421 -0.179862 -0.0487837 0.0418859 0.527184 0.410316 -0.207525 -0.563589 -0.189451 0.152888 0.511322 0.0558757 -0.614291 -0.138889 -0.00153667 -0.128804 0.0975336 0.604766 -0.308814 -0.0596085 0.14412 0.068252 -0.414577 0.322714 -0.316547 0.628294 -0.159152 -0.0781807 -0.0770553 -0.212894 0.677144 -0.262356 0.601893 0.0667143 -0.0465859 0.191878 -0.135929 -0.382989 0.32267 0.198344 -0.0792507 -0.47921 0.586682 -0.435309 -0.62649 0.521118 0.459907 -0.231645 0.346851 -0.226384 0.304666 0.337736 -0.428837 0.675803 -0.115705 0.296887
221 -0.766971 -0.303367 0.919774 -0.13495 0.308798 -0.149752 -0.325609 0.446907 -0.0873667 -0.231121 -0.0511558 0.0413587 0.391247 0.334517 -0.174846 -0.402929 -0.200239 0.139851 0.484967 0.0334095 -0.499474 -0.143175 -0.0198484 -0.0192713 0.0892072 0.527361 -0.268208 -0.0883576 0.0739994 0.0374537 -0.351121 0.297573 -0.299173 0.532567 -0.130311 -0.0315134 -0.0793859 -0.186665 0.605552 -0.270715 0.548222 0.0294595 -0.0770891 0.195958 -0.0745893 -0.349068 0.313141 0.216832 -0.113841 -0.446309 0.544342 -0.406557 -0.623667 0.533529 0.439505 -0.220319 0.347013 -0.210718 0.293079 0.349706 -0.440597 0.641179 -0.0826464 0.234516
170 -0.743654 -0.527561 0.632984 -0.172662 0.321563 -0.204076 -0.0658485 0.300579 -0.103032 -0.135071 -0.267225 0.0389321 0.549522 0.618179 -0.0130804 -0.609161 -0.15737 0.283402 0.219234 -0.0391541 -0.307027 -0.0480788 -0.121306 -0.272099 0.0706412 0.526298 -0.250348 0.0412363 0.284939 0.00753696 -0.511372 0.353075 -0.224105 0.568366 -0.394752 0.0384001 0.072946 -0.465297 0.490257 -0.134047 0.530761 0.201099 0.0325163 -0.0135498 -0.084783 -0.267395 0.285868 0.257667 0.0758382 -0.609597 0.647376 -0.449208 -0.844114 0.689489 0.459634 -0.235059 0.388698 -0.374072 0.198469 0.516767 -0.544249 0.574096 -0.0515551 0.230828
48 -0.680525 -0.399121 0.693508 -0.183135 0.362906 -0.24532 -0.126429 0.377802 -0.0518253 -0.133251 -0.219367 -0.0527916 0.452857 0.422822 0.0272339 -0.494124 -0.246138 0.149566 0.267567 -0.0658438 -0.373136 -0.0859692 -0.071351 -0.199386 0.0455721 0.507453 -0.227801 0.0816134 0.253134 -0.059396 -0.465236 0.380427 -0.255643 0.568758 -0.305312 0.0609872 -0.00987785 -0.366068 0.502177 -0.234155 0.433903 0.124103 0.0420409 -0.0977638 0.0303094 -0.292772 0.25007 0.322293 -0.0292561 -0.636148 0.598194 -0.468636 -0.905584 0.699761 0.407084 -0.337634 0.332396 -0.393573 0.244675 0.588163 -0.518349 0.524319 -0.0786592 0.259734
581 -0.644418 -0.364208 0.575799 -0.176362 0.373556 -0.230551 -0.118438 0.336437 -0.0718393 -0.174562 -0.246672 0.0139202 0.43988 0.505727 0.0110939 -0.539891 -0.249045 0.199452 0.269414 -0.0505899 -0.347891 -0.040499 -0.117274 -0.200448 0.0681133 0.508807 -0.224312 0.0378565 0.275047 -0.0326373 -0.535699 0.403939 -0.264262 0.564757 -0.32499 0.0440851 0.0245235 -0.40925 0.4676 -0.170444 0.393593 0.138268 0.024682 -0.0669686 0.0363842 -0.234807 0.25112 0.307762 -0.00416327 -0.595863 0.570217 -0.383777 -0.820187 0.65328 0.343185 -0.299557 0.287858 -0.351039 0.161194 0.52002 -0.470248 0.460475 -0.0632268 0.228376
506 -0.521298 -0.503691 0.976218 -0.194722 0.449674 -0.121837 -0.177797 0.522808 -0.177982 -0.0635586 -0.169874 0.00561176 0.395073 0.625817 -0.166661 -0.863604 -0.075925 0.165594 0.251235 0.0741282 -0.62166 -0.0369691 -0.0731811 -0.392443 0.0111399 0.395345 -0.124647 0.129374 0.146582 0.186136 -0.557232 0.173777 -0.17821 0.404263 -0.207184 -0.146954 -0.0316189 -0.158708 0.486796 -0.0510882 0.314071 0.168197 0.0515543 0.063386 -0.0741563 -0.233942 0.174499 0.109911 0.0736063 -0.422868 0.562122 -0.250491 -0.648659 0.445448 0.347228 -0.141336 0.212387 -0.331647 0.164397 0.250046 -0.327342 0.412714 -0.162406 0.159403
310 -0.501836 -0.187149 0.823446 -0.180681 0.356908 -0.180619 -0.44216 0.4371 0.0701953 -0.157161 -0.117564 -0.141728 0.292538 0.691595 -0.125311 -0.605324 -0.0357268 0.235521 0.397803 0.043686 -0.715532 -0.114023 -0.293537 -0.34779 0.164758 0.414095 -0.124701 -0.159885 0.0115461 0.328491 -0.612256 0.364152 -0.340529 0.190484 -0.294473 -0.00365187 0.0514747 -0.106206 0.54488 -0.246501 0.463152 0.229436 -0.185021 0.304264 -0.196769 -0.458321 0.243266 0.175602 0.0641324 -0.374471 0.505594 -0.229858 -0.726648 0.597552 0.450333 -0.132339 0.43738 -0.273581 0.334243 0.39362 -0.571457 0.730097 -0.174333 0.299456
123 -0.460843 -0.193131 0.853719 -0.226313 0.369314 -0.109242 -0.404933 0.462526 0.036685 -0.110407 -0.110889 -0.115486 0.23174 0.611679 -0.151378 -0.570032 -0.072656 0.17814 0.366933 0.0642166 -0.691588 -0.112379 -0.21511 -0.290503 0.142028 0.374437 -0.117263 -0.060615 -0.00606064 0.346829 -0.562434 0.294568 -0.335604 0.227784 -0.210188 -0.074095 -0.0270932 -0.029937 0.523493 -0.195179 0.426812 0.230669 -0.131251 0.29907 -0.161413 -0.401471 0.228179 0.148995 0.0404825 -0.378611 0.49677 -0.225547 -0.687677 0.569862 0.418757 -0.14719 0.37342 -0.276933 0.308091 0.335645 -0.49544 0.676311 -0.219842 0.311724
202 -0.525215 -0.122178 0.820362 -0.276819 0.450414 -0.14614 -0.455564 0.533102 0.0545752 -0.175372 -0.197089 -0.0704334 0.327905 0.699165 -0.170847 -0.61753 -0.15055 0.216815 0.397162 0.0480558 -0.685802 -0.102829 -0.245262 -0.262277 0.224619 0.429393 -0.159322 -0.0738035 0.0434616 0.32473 -0.627818 0.431667 -0.382985 0.270665 -0.240687 -0.0463858 -0.0320635 -0.129754 0.501467 -0.194746 0.451464 0.183151 -0.125526 0.320829 -0.147596 -0.404449 0.318499 0.177535 0.0652524 -0.38062 0.447903 -0.23222 -0.677226 0.628613 0.472485 -0.198886 0.371924 -0.294708 0.25432 0.312134 -0.497592 0.634785 -0.208112 0.384686
260 -0.626055 -0.330668 1.24942 -0.323831 0.66011 -0.30368 -0.453173 0.6581 -0.00812115 -0.270571 -0.288474 -0.0573996 0.361931 0.902967 -0.212303 -0.920568 -0.155951 0.233167 0.420666 0.022711 -0.772031 -0.104868 -0.346014 -0.406041 0.136978 0.424032 -0.127342 -0.220533 0.0889419 0.349053 -0.777632 0.425585 -0.384476 0.306001 -0.323656 -0.0612324 0.0691082 -0.197474 0.576567 -0.116373 0.370951 0.190986 -0.201018 0.274084 -0.0272307 -0.289066 0.210997 0.253019 0.0800405 -0.395173 0.624383 -0.165778 -0.795156 0.664553 0.435685 -0.146744 0.364496 -0.308719 0.244672 0.394808 -0.588637 0.731759 -0.164811 0.21528
107 -0.874803 -0.48904 0.92687 -0.147715 0.566501 -0.144796 -0.343482 0.492242 -0.0475978 -0.367321 -0.236829 0.0233067 0.193702 0.832422 -0.16519 -0.764522 -0.0929784 0.276917 0.310051 0.0876137 -0.561703 -0.133559 -0.321005 -0.27797 0.106832 0.372374 -0.14894 -0.0227345 -0.0628308 0.294647 -0.651335 0.262031 -0.210049 0.21643 -0.313166 -0.000626756 -0.00181215 -0.219587 0.516386 -0.12534 0.380985 0.11808 -0.182718 0.24427 0.0184516 -0.219761 0.289138 0.180564 -0.020766 -0.339483 0.597938 -0.174166 -0.65369 0.573362 0.425345 -0.079648 0.336369 -0.313541 0.157053 0.311728 -0.51841 0.564267 -0.0599624 0.0998477
157 -0.956583 -0.508194 0.940222 -0.0785079 0.282753 -0.13632 -0.253915 0.3486 -0.0784521 -0.32442 -0.0914589 0.00869526 0.402055 0.537519 -0.108737 -0.44663 -0.119329 0.261513 0.424796 0.0297631 -0.439909 -0.253783 -0.144764 -0.0972758 0.0518578 0.519698 -0.332304 -0.0712704 0.0465823 0.0696102 -0.420358 0.257964 -0.211998 0.397531 -0.239888 0.0841353 0.00867855 -0.269803 0.607553 -0.290639 0.608374 0.0710682 -0.123731 0.161883 -0.0565622 -0.3265 0.33828 0.189667 -0.124542 -0.409706 0.610595 -0.405053 -0.64927 0.593201 0.460979 -0.13441 0.425451 -0.220508 0.252167 0.404737 -0.521582 0.630522 -0.0298981 0.158996
415 -0.975157 -0.581302 0.944459 -0.0898673 0.41644 -0.129943 -0.313859 0.360059 -0.0163106 -0.324108 -0.197962 -0.0155156 0.239101 0.853558 -0.127942 -0.61016 -0.0378187 0.304126 0.307237 0.0732866 -0.484537 -0.293802 -0.297105 -0.252578 0.089176 0.336085 -0.25445 -0.0186573 -0.110471 0.273289 -0.475424 0.18836 -0.163765 0.0881366 -0.295593 0.089099 0.0283456 -0.164134 0.538801 -0.244132 0.488841 0.164606 -0.196394 0.22568 -0.0319418 -0.262869 0.291008 0.136112 -0.0765941 -0.320253 0.612875 -0.274405 -0.625949 0.604404 0.454778 -0.0595882 0.446755 -0.257377 0.221445 0.384938 -0.543956 0.628118 -0.0478046 0.111796
111 -0.445831 -0.133512 0.870351 -0.130487 0.454312 -0.396414 -0.462174 0.702495 0.0285794 -0.31764 -0.0479658 -0.240149 0.364275 0.427759 -0.02389 -0.723069 -0.224357 0.195851 0.557715 -0.0674602 -0.628734 0.0171867 -0.225619 -0.105012 -0.0358223 0.580352 -0.0765887 -0.171027 0.229492 0.0816165 -0.817748 0.454589 -0.281986 0.500661 -0.20684 0.140297 -0.0176158 -0.183085 0.520423 -0.25747 0.239821 0.000438892 -0.0714286 0.0430613 0.0439991 -0.395901 0.262171 0.426983 -0.0475881 -0.323 0.335937 -0.257685 -0.785239 0.476836 0.299887 -0.244495 0.201917 -0.250937 0.240383 0.509697 -0.535678 0.468811 -0.126618 0.173497
185 -0.605274 -0.505184 0.860838 -0.221695 0.285996 -0.283608 -0.15608 0.425298 -0.0258771 -0.0483832 -0.195065 -0.201368 0.635945 0.622788 -0.059512 -0.706799 0.0332615 0.335071 0.2653 -0.0765169 -0.395102 -0.00721461 -0.170553 -0.307283 0.0473425 0.487015 -0.142266 -0.00865959 0.28541 0.13041 -0.592944 0.317544 -0.08671 0.378577 -0.354923 0.144569 0.0918195 -0.36467 0.419985 -0.126795 0.547661 0.175858 0.028529 0.122675 -0.285333 -0.439591 0.368592 0.22453 0.251092 -0.384687 0.451139 -0.441014 -0.825482 0.577644 0.636623 -0.104853 0.435422 -0.31488 0.244359 0.454855 -0.586573 0.644366 -0.109781 0.338127
464 -0.554691 -0.326252 0.879602 -0.234692 0.330618 -0.216712 -0.328384 0.483141 0.0236969 -0.0929754 -0.176256 -0.182973 0.527778 0.694125 -0.0948027 -0.696492 -0.0204296 0.285418 0.381015 0.0020384 -0.630117 -0.100378 -0.244281 -0.360956 0.151156 0.497309 -0.165548 -0.0694253 0.157654 0.24662 -0.629985 0.384754 -0.24707 0.305065 -0.324391 0.0587821 0.0541398 -0.249665 0.534672 -0.225686 0.574352 0.219299 -0.0729606 0.223347 -0.264797 -0.480791 0.335283 0.178616 0.152244 -0.404871 0.480652 -0.356112 -0.781631 0.614243 0.564493 -0.1402 0.43807 -0.289302 0.299475 0.39207 -0.559695 0.692881 -0.169123 0.384781
461 -0.532628 -0.110411 0.834475 -0.241257 0.385155 -0.121532 -0.506323 0.462009 0.0932935 -0.20043 -0.105695 -0.143242 0.228524 0.695748 -0.164974 -0.5569 -0.101454 0.205748 0.434703 0.0687986 -0.811347 -0.203996 -0.284876 -0.311741 0.188141 0.433596 -0.165439 -0.156493 -0.0707017 0.386147 -0.628141 0.373695 -0.406403 0.194552 -0.246696 -0.0404312 -0.0172886 -0.0486136 0.591447 -0.262464 0.484035 0.244185 -0.217266 0.363737 -0.171439 -0.49157 0.262101 0.161768 -0.00361191 -0.371226 0.548185 -0.236477 -0.736785 0.682362 0.472859 -0.140644 0.466659 -0.269146 0.369031 0.37337 -0.595944 0.754588 -0.236983 0.343664
177 -0.397992 -0.383394 1.0223 -0.0202057 0.232538 -0.332038 -0.290353 0.371781 0.0233322 -0.0617794 -0.0449703 -0.167083 0.343612 0.528712 -0.138363 -0.710662 0.0598564 0.119705 0.387153 0.0559918 -0.626716 -0.0532763 -0.217753 -0.413209 -0.0217194 0.371236 -0.0998085 -0.20368 0.15765 0.195266 -0.512698 0.21741 -0.253228 0.391992 -0.30301 -0.0425063 0.115504 -0.102515 0.672168 -0.252357 0.450023 0.270343 -0.147415 0.147627 -0.150976 -0.351884 0.0239958 0.259824 0.0201497 -0.455072 0.647328 -0.286453 -0.736309 0.414043 0.245741 -0.0796555 0.353356 -0.193107 0.42523 0.543845 -0.532526 0.81832 -0.0874507 0.190338
293 -0.841874 -0.658013 1.14072 -0.141249 0.365132 -0.194347 -0.194999 0.364303 -0.102703 -0.271254 -0.0407685 -0.155439 0.341113 0.635049 0.0209923 -0.636039 -0.0172711 0.283622 0.329473 -0.0117138 -0.693892 -0.360111 -0.138765 -0.428071 -0.121749 0.499869 -0.286513 0.0737384 0.0397574 0.0976963 -0.565792 0.0552906 -0.103401 0.146767 -0.282274 0.0255092 0.0316535 -0.189167 0.420676 -0.226633 0.39308 0.205288 -0.0479638 -0.0579718 -0.0489659 -0.319209 0.178454 0.0599049 -0.127354 -0.401202 0.705194 -0.369835 -0.772047 0.641079 0.401093 -0.0871786 0.488998 -0.22719 0.359363 0.446755 -0.590157 0.555772 -0.201452 0.053626
494 -0.790813 -0.576702 1.19623 -0.219328 0.417939 -0.337545 -0.342696 0.490426 0.0784227 -0.160243 -0.250324 -0.232599 0.374937 0.739856 -0.119175 -0.568375 -0.113475 0.1777 0.28123 -0.0751821 -0.411984 -0.308775 -0.20803 -0.17457 0.0208889 0.348035 -0.256667 0.0100193 0.103745 0.25166 -0.42543 0.247943 -0.183415 0.174787 -0.220131 0.252542 0.0241723 -0.0732303 0.565738 -0.29124 0.533583 0.155759 -0.0834137 0.13634 0.0265348 -0.337541 0.2418 0.294765 -0.054251 -0.337713 0.499107 -0.421711 -0.709645 0.611277 0.456323 -0.101719 0.367016 -0.203635 0.205668 0.49494 -0.486625 0.542772 -0.101888 0.326438
279 -0.468596 -0.465657 1.02368 -0.267082 0.539274 -0.147953 -0.23995 0.648708 -0.170263 -0.0471504 -0.182853 -0.0405275 0.404516 0.642535 -0.162041 -0.971075 -0.0920892 0.159755 0.258981 0.065362 -0.675201 0.0267683 -0.0796363 -0.379264 0.0333059 0.419129 -0.0553629 0.172835 0.135446 0.203095 -0.641217 0.220452 -0.175819 0.423258 -0.208815 -0.147092 -0.0800572 -0.142416 0.48034 -0.0268663 0.243575 0.119867 0.0675308 0.0770787 -0.0694224 -0.285798 0.22585 0.151651 0.103077 -0.414134 0.527428 -0.235146 -0.743716 0.477301 0.410742 -0.161408 0.190086 -0.403675 0.166583 0.275078 -0.378588 0.404322 -0.214402 0.196393
690 -0.327706 -0.455567 1.00884 -0.00725195 0.222826 -0.353534 -0.217267 0.328413 0.0382148 -0.00488746 -0.0634266 -0.232766 0.342486 0.55252 -0.08285 -0.734437 0.113007 0.139536 0.337845 0.022438 -0.620869 -0.047299 -0.249799 -0.486442 -0.0692692 0.348462 -0.0817095 -0.148901 0.226699 0.198788 -0.56301 0.204214 -0.231968 0.411116 -0.364266 -0.0133218 0.142543 -0.106648 0.641295 -0.250632 0.452342 0.323655 -0.11089 0.0623943 -0.143565 -0.34319 -0.0214204 0.257311 0.0563671 -0.494596 0.662226 -0.307746 -0.808844 0.414262 0.211964 -0.0793374 0.337885 -0.202952 0.414823 0.590961 -0.543914 0.773135 -0.115334 0.181147
681 -0.596595 -0.478206 1.02829 -0.309972 0.25698 -0.256113 -0.182044 0.546859 0.00515048 -0.206639 -0.190312 -0.229449 0.65323 0.624519 -0.0698023 -0.673099 -0.0257907 0.368208 0.340252 -0.122222 -0.422257 -0.118796 -0.167874 -0.165894 0.0299365 0.536057 -0.253765 -0.0751465 0.29413 0.169377 -0.670371 0.350963 -0.108308 0.370232 -0.265253 0.233853 0.0565937 -0.339391 0.36767 -0.10447 0.623229 0.151859 0.0303935 0.166871 -0.19948 -0.414291 0.403565 0.255269 0.158393 -0.304891 0.366844 -0.444793 -0.70854 0.550253 0.577923 -0.0771846 0.399514 -0.160503 0.187951 0.384938 -0.600293 0.578927 -0.136031 0.38608
468 -0.488038 -0.40125 0.768116 -0.159403 0.237998 -0.29979 -0.1793 0.400419 -0.01326 -0.087268 -0.117029 -0.222729 0.577418 0.531588 0.00144977 -0.610997 0.0623542 0.333441 0.311513 -0.0831603 -0.390827 -0.0316869 -0.197739 -0.29954 -0.000792868 0.456343 -0.131362 -0.0637648 0.282804 0.0956153 -0.569542 0.279265 -0.0596831 0.287576 -0.329081 0.172829 0.103802 -0.342454 0.339237 -0.151357 0.464626 0.142079 0.00735035 0.0821776 -0.264652 -0.421739 0.315696 0.190577 0.201623 -0.287175 0.359743 -0.360589 -0.700167 0.476033 0.549257 -0.0800284 0.394484 -0.220193 0.2377 0.403435 -0.560654 0.567558 -0.0985153 0.264732
45 -0.570966 -0.41002 0.697085 -0.176401 0.227601 -0.251249 -0.15844 0.369037 -0.0343246 -0.106134 -0.192142 -0.138073 0.631307 0.558854 -0.0557985 -0.632293 0.0016642 0.325808 0.302263 -0.0644849 -0.342455 -0.0224668 -0.172087 -0.241782 0.0787213 0.507642 -0.175945 -0.0641663 0.278816 0.088318 -0.531655 0.356765 -0.123969 0.397202 -0.33665 0.148665 0.10836 -0.411738 0.439145 -0.147942 0.569154 0.147467 -0.0102933 0.140387 -0.24892 -0.409277 0.3472 0.206989 0.19412 -0.359304 0.401879 -0.411854 -0.701577 0.52424 0.547522 -0.0986304 0.382115 -0.248976 0.188801 0.384928 -0.517821 0.569746 -0.0596349 0.317332
269 -0.658486 -0.634483 1.05242 -0.19249 0.461638 -0.133764 -0.175021 0.619222 -0.0465205 0.0618221 -0.240441 -0.181554 0.315998 0.589607 -0.127482 -0.865678 -0.0911797 0.130524 0.25575 0.105905 -0.662461 0.0348541 -0.183385 -0.352658 0.0613498 0.405903 -0.0432027 0.307926 0.139906 0.358811 -0.709553 0.339521 -0.284941 0.586765 -0.253832 -0.0416755 -0.153488 -0.00698261 0.646752 -0.213496 0.446023 0.194573 0.0860169 0.126871 -0.050757 -0.363364 0.253804 0.320302 0.0862524 -0.594487 0.544371 -0.312639 -0.987906 0.534832 0.347285 -0.270072 0.147599 -0.508115 0.223734 0.466085 -0.37372 0.488269 -0.195864 0.312257
622 -0.627552 -0.379409 1.20521 -0.183693 0.255319 -0.230299 -0.294624 0.649436 -0.0654493 -0.369999 0.0159006 -0.143252 0.450809 0.381467 -0.113222 -0.532073 -0.192114 0.264311 0.614388 -0.0700219 -0.63243 -0.164957 -0.0650108 0.0307065 -0.073231 0.751482 -0.355963 -0.176198 0.255303 0.123679 -0.762031 0.346592 -0.293388 0.681785 -0.147058 0.106779 -0.0742495 -0.183409 0.597142 -0.219155 0.608929 0.099486 -0.0212322 0.172123 -0.0402043 -0.40031 0.314591 0.354536 -0.124165 -0.341875 0.464338 -0.407149 -0.663098 0.459934 0.309297 -0.165182 0.287736 -0.0657193 0.278247 0.433473 -0.589073 0.604455 -0.173873 0.259975
508 -0.476932 -0.162635 0.807805 -0.0728915 0.442813 -0.409043 -0.477849 0.688337 -0.0281256 -0.390771 0.0159981 -0.240277 0.366717 0.435017 0.00683825 -0.794785 -0.175188 0.252662 0.633527 -0.0559979 -0.710653 0.0338338 -0.273496 -0.150596 -0.0818039 0.662793 -0.061942 -0.241792 0.230915 0.047944 -0.918931 0.437976 -0.254673 0.498213 -0.265528 0.135542 0.0265624 -0.242902 0.53781 -0.256158 0.203412 -0.0203595 -0.112498 0.0148035 0.0263498 -0.424727 0.236927 0.40763 -0.0532204 -0.297554 0.371279 -0.213061 -0.802245 0.452692 0.252398 -0.208734 0.197691 -0.226529 0.259107 0.513531 -0.580925 0.485452 -0.100656 0.0695351
572 -0.659479 -0.392697 1.11967 -0.325952 0.360491 -0.282988 -0.339705 0.479924 -0.0100162 -0.08049 -0.155688 -0.162198 0.445758 0.519129 -0.186144 -0.469687 -0.253342 0.0704344 0.339544 -0.107203 -0.572299 -0.351495 0.0253889 -0.120078 0.0131669 0.536366 -0.35161 0.0405546 0.124708 0.158587 -0.351842 0.236949 -0.321207 0.424068 -0.110838 0.095188 -0.077584 -0.0457638 0.654916 -0.28451 0.59625 0.160537 0.0190306 0.110968 -0.00690378 -0.444113 0.244145 0.248976 -0.111723 -0.470039 0.611216 -0.560698 -0.751272 0.70717 0.511989 -0.179172 0.414409 -0.216361 0.291928 0.447155 -0.445474 0.5484 -0.22998 0.443662
411 -0.957298 -0.629636 0.984326 -0.11131 0.400789 -0.166281 -0.232284 0.366982 -0.0445244 -0.299346 -0.202435 -0.0314286 0.327138 0.774218 -0.0990465 -0.616403 -0.0565249 0.305073 0.291094 0.0255558 -0.401792 -0.232293 -0.249707 -0.220067 0.0401954 0.366991 -0.231901 -0.00476112 0.0108919 0.189533 -0.492549 0.209196 -0.141183 0.198237 -0.293597 0.126562 0.0439015 -0.244164 0.505302 -0.203735 0.498345 0.135625 -0.128513 0.162157 -0.0102658 -0.24417 0.288777 0.182956 -0.0503621 -0.353285 0.608025 -0.332223 -0.682558 0.614728 0.446581 -0.0761726 0.403607 -0.259641 0.186196 0.40614 -0.539855 0.56834 -0.0318383 0.114549
363 -0.947375 -0.640048 0.921242 -0.0311482 0.352344 -0.184457 -0.191275 0.340538 -0.0308955 -0.344197 -0.156179 -0.0596601 0.279453 0.705382 -0.00617776 -0.534523 -0.0590959 0.305782 0.322315 0.00301296 -0.37209 -0.266773 -0.264919 -0.197853 -0.0306507 0.368473 -0.254464 0.0129856 0.0353456 0.134236 -0.513849 0.185881 -0.107918 0.205934 -0.294545 0.175709 0.0482362 -0.204517 0.453682 -0.25029 0.424442 0.11275 -0.109025 0.046721 0.0665699 -0.185824 0.237789 0.218707 -0.120744 -0.338866 0.552436 -0.298632 -0.643312 0.528374 0.316422 -0.104791 0.348939 -0.214432 0.180005 0.460224 -0.51182 0.488224 -0.000822229 0.0363675
637 -0.928554 -0.626494 0.936321 -0.0575746 0.360562 -0.170844 -0.213861 0.332031 -0.0466997 -0.225511 -0.203529 -0.0269367 0.360443 0.743652 -0.0627554 -0.601305 -0.0681258 0.253306 0.288853 0.0435311 -0.410909 -0.230547 -0.231589 -0.266592 0.0497263 0.347728 -0.239911 0.0564492 0.0461691 0.139713 -0.399568 0.226467 -0.153579 0.2422 -0.308766 0.097262 0.0441048 -0.235166 0.555182 -0.290212 0.489877 0.134904 -0.093986 0.0649095 0.0112284 -0.232075 0.249597 0.183216 -0.072359 -0.435445 0.617161 -0.344295 -0.704019 0.595949 0.401303 -0.159677 0.379155 -0.293073 0.205316 0.457418 -0.475578 0.521585 -0.0185689 0.121931
91 -0.952548 -0.579915 1.06082 -0.20613 0.44517 -0.198907 -0.32435 0.464419 0.00965047 -0.25226 -0.213688 -0.118923 0.30335 0.737187 -0.112436 -0.540646 -0.149081 0.236738 0.312604 -0.0104353 -0.517207 -0.329172 -0.193038 -0.188187 0.0603317 0.423141 -0.292373 0.0738339 -0.00556987 0.2337 -0.494034 0.231856 -0.213924 0.192753 -0.218738 0.129663 -0.0461396 -0.12538 0.530213 -0.269709 0.504876 0.140844 -0.0831119 0.147415 0.0201179 -0.329571 0.327095 0.217606 -0.0879936 -0.402331 0.5865 -0.40073 -0.748425 0.694339 0.5092 -0.143209 0.415871 -0.276442 0.224401 0.435432 -0.543075 0.566409 -0.125598 0.256228
78 -0.740345 -0.449643 0.628696 -0.188179 0.357664 -0.136957 -0.112568 0.296108 -0.085696 -0.189742 -0.217292 0.0301374 0.366103 0.499415 -0.0200937 -0.504916 -0.22476 0.195143 0.239445 -0.0211183 -0.447138 -0.137891 -0.0808597 -0.232671 0.0565342 0.547043 -0.277412 0.0689432 0.161316 0.0227321 -0.48569 0.310842 -0.289733 0.519488 -0.300238 -0.0220665 -0.000434567 -0.340186 0.508096 -0.173001 0.462464 0.173197 0.0070438 -0.0169259 0.00946299 -0.252085 0.23595 0.233447 -0.0561392 -0.599457 0.675506 -0.403682 -0.815128 0.705025 0.379553 -0.268657 0.364241 -0.364498 0.224327 0.475746 -0.497555 0.500963 -0.101786 0.221035
379 -0.780479 -0.514363 0.599106 -0.158343 0.375733 -0.15803 -0.0500134 0.278674 -0.104044 -0.205481 -0.255738 0.0879355 0.391405 0.551667 0.00847602 -0.579517 -0.229004 0.249031 0.233421 -0.00790253 -0.383404 -0.0534687 -0.126083 -0.260448 0.0579232 0.544615 -0.251599 0.0793915 0.224245 0.0048662 -0.560126 0.353818 -0.274781 0.601596 -0.370282 -0.0277188 0.0229631 -0.427982 0.493615 -0.131829 0.438513 0.191383 0.00498507 -0.0461362 0.0324485 -0.194101 0.252934 0.277227 -0.0157967 -0.666816 0.726421 -0.405769 -0.88216 0.719229 0.357969 -0.290371 0.348985 -0.41956 0.203545 0.540195 -0.53449 0.557236 -0.0666158 0.170833
259 -0.748348 -0.654481 1.21782 -0.0657082 0.378152 -0.125308 -0.0796661 0.564314 -0.0298372 -0.108376 -0.127921 -0.0469839 0.353553 0.564914 -0.0365395 -0.61927 -0.000843636 0.323625 0.408926 0.0782755 -0.469464 0.00770206 -0.221354 -0.29094 0.0197549 0.459415 -0.194978 0.107593 0.276707 0.309832 -0.735497 0.275212 -0.242588 0.593963 -0.297235 -0.0432917 -0.0874252 -0.0989669 0.3643 -0.121942 0.520375 0.246147 0.0129335 0.151333 -0.104136 -0.158395 0.264368 0.257533 0.0531794 -0.494696 0.478097 -0.239751 -0.711391 0.353471 0.196878 -0.23981 0.17794 -0.244737 0.268465 0.463423 -0.474219 0.652365 -0.136307 0.205928
650 -0.788151 -0.58684 0.990358 0.0351521 0.286832 -0.0824462 -0.0914316 0.421611 -0.0277225 -0.199852 -0.133587 0.0863414 0.271602 0.562678 -0.0686806 -0.5107 -0.0210863 0.330335 0.417427 0.0993379 -0.389207 -0.016746 -0.248354 -0.205579 0.058754 0.448393 -0.255133 -0.015536 0.23115 0.286579 -0.655132 0.283364 -0.283517 0.593824 -0.322074 -0.0398922 -0.0396413 -0.140719 0.401014 -0.126834 0.55048 0.24164 -0.0809027 0.224926 -0.0708191 -0.10602 0.225741 0.244138 -0.00593101 -0.455485 0.48141 -0.182599 -0.516812 0.266331 0.0919354 -0.189216 0.157215 -0.167295 0.201735 0.379403 -0.411016 0.648487 -0.0434634 0.150892
147 -0.784907 -0.649458 1.16368 -0.0293017 0.342075 -0.14937 -0.0773121 0.54501 -0.0382732 -0.165804 -0.119339 0.00329716 0.38411 0.538984 -0.0230443 -0.585311 -0.0140267 0.355966 0.441664 0.0741722 -0.398833 0.0180347 -0.22583 -0.23318 0.0238782 0.478285 -0.234432 0.0541277 0.315046 0.233784 -0.714092 0.299014 -0.238885 0.62495 -0.317215 -0.000898119 -0.0591972 -0.167853 0.35341 -0.122615 0.520142 0.227259 -0.000651612 0.140514 -0.0762836 -0.134344 0.263942 0.275203 0.0187032 -0.477683 0.456616 -0.2485 -0.657341 0.31241 0.176788 -0.245792 0.170664 -0.217465 0.232353 0.466061 -0.485123 0.640403 -0.0958939 0.17408
530 -0.493581 -0.38014 0.901613 -0.272574 0.418763 -0.1651 -0.173698 0.467486 -0.117296 -0.183314 -0.0631985 -0.148192 0.352487 0.478125 -0.00139815 -0.697219 -0.120989 0.207404 0.295019 -0.0289595 -0.754996 -0.166241 -0.0611864 -0.397417 -0.0723577 0.545174 -0.177645 0.105643 0.127102 0.0873951 -0.702628 0.182774 -0.192021 0.348311 -0.239079 -0.087566 -0.0481968 -0.232751 0.36935 -0.0935421 0.279607 0.168313 0.0680373 -0.0666053 -0.0636898 -0.341868 0.217452 0.119801 -0.00364735 -0.443932 0.582967 -0.334005 -0.826419 0.649998 0.420822 -0.183643 0.378905 -0.335711 0.305278 0.393673 -0.549922 0.448382 -0.277275 0.178963
567 -0.57211 -0.433356 1.04075 -0.257976 0.401022 -0.218857 -0.196516 0.474338 -0.119434 -0.224595 -0.0176395 -0.228942 0.433612 0.453641 0.0717246 -0.698446 -0.0822223 0.268992 0.382764 -0.0466991 -0.855643 -0.238295 -0.109037 -0.469338 -0.127047 0.61648 -0.21136 0.0704545 0.132205 0.0188492 -0.738908 0.165803 -0.127793 0.271531 -0.263139 -0.0204207 -0.0232552 -0.2838 0.316692 -0.169574 0.290298 0.174196 0.0449095 -0.122405 -0.108636 -0.414257 0.231114 0.0741989 -0.0381019 -0.444546 0.598406 -0.362594 -0.907635 0.703853 0.488519 -0.190871 0.472525 -0.314806 0.388027 0.460368 -0.658544 0.518735 -0.305389 0.159834
319 -0.798551 -0.667983 1.25926 -0.00922521 0.365254 -0.172926 -0.123327 0.567088 -0.0721093 -0.13788 -0.101897 -0.000457251 0.475084 0.598123 -0.0441899 -0.703388 -0.030954 0.355546 0.501326 0.0885212 -0.555308 -0.0132862 -0.208289 -0.330749 0.0115191 0.565642 -0.264799 0.0437876 0.341845 0.222801 -0.762512 0.322634 -0.275239 0.700272 -0.340262 -0.0449734 -0.0417799 -0.188223 0.461368 -0.163816 0.556562 0.249536 0.00670354 0.1223 -0.112032 -0.199774 0.245378 0.254931 0.0138935 -0.539983 0.538482 -0.261742 -0.69829 0.344361 0.183812 -0.246911 0.186084 -0.226975 0.274285 0.48177 -0.502586 0.689425 -0.113641 0.195315
531 -0.429715 -0.140584 0.82911 -0.0845485 0.374913 -0.39805 -0.452162 0.637495 -0.0215408 -0.346759 0.0481671 -0.24517 0.390901 0.3703 -0.0124087 -0.703164 -0.153826 0.217923 0.617201 -0.0597449 -0.650057 -0.0162532 -0.204423 -0.110682 -0.0963367 0.609683 -0.0842894 -0.221337 0.201052 0.01075 -0.775388 0.379306 -0.221712 0.450163 -0.191267 0.161647 0.0183288 -0.21445 0.535974 -0.266051 0.234245 -0.0406363 -0.083396 0.0308532 -0.00576923 -0.446232 0.252541 0.358449 -0.0658466 -0.263271 0.343398 -0.273865 -0.732353 0.437385 0.319008 -0.171125 0.238931 -0.19687 0.262804 0.458866 -0.542346 0.47274 -0.0975965 0.100791
232 -0.556395 -0.325623 0.750661 -0.216086 0.434525 -0.296405 -0.291093 0.478435 0.166933 0.0553332 -0.323911 -0.28858 0.339174 0.571484 -0.00758029 -0.554759 -0.195046 0.0619059 0.245353 -0.0209999 -0.48495 -0.0921537 -0.2675 -0.283426 0.156156 0.368394 -0.0930749 0.17111 0.180096 0.240336 -0.529657 0.514862 -0.345336 0.428582 -0.32287 0.177996 -0.0544425 -0.128536 0.650347 -0.405165 0.489417 0.163303 -0.00840597 0.0549632 0.0304313 -0.40965 0.244336 0.415634 0.0342656 -0.624487 0.451193 -0.404066 -1.03824 0.690725 0.390773 -0.35777 0.215098 -0.450224 0.236371 0.637327 -0.40974 0.484003 -0.117369 0.449367
275 -0.558869 -0.348812 0.742334 -0.124316 0.407696 -0.273217 -0.276935 0.430244 0.156996 0.0413434 -0.28623 -0.273606 0.299281 0.523789 0.00339153 -0.553049 -0.150412 0.0624752 0.274832 0.0254178 -0.50959 -0.0366483 -0.303456 -0.312574 0.144683 0.338328 -0.0500032 0.132498 0.161397 0.236129 -0.52418 0.508338 -0.345115 0.432009 -0.349611 0.137348 -0.0387331 -0.120236 0.67452 -0.418273 0.463052 0.156019 -0.0489319 0.0578058 0.0278126 -0.396689 0.193219 0.388571 0.0210674 -0.623358 0.456745 -0.328923 -0.992596 0.609295 0.308887 -0.337915 0.195648 -0.428724 0.255597 0.610359 -0.401525 0.526874 -0.081912 0.374417
435 -0.638897 -0.333767 0.619348 -0.209952 0.330111 -0.208103 -0.156765 0.310239 -0.0348197 -0.106861 -0.242521 -0.0137725 0.466292 0.497287 -0.0205347 -0.474592 -0.215206 0.184331 0.265002 -0.0485567 -0.377543 -0.0950534 -0.101867 -0.221497 0.115955 0.499151 -0.233022 0.0145147 0.234807 0.0237716 -0.440762 0.405747 -0.29544 0.520238 -0.313326 0.0331086 0.0241441 -0.374194 0.500098 -0.209809 0.486337 0.161549 0.00123201 0.0252021 -0.0454696 -0.31191 0.267696 0.2637 0.0164117 -0.587178 0.581091 -0.427873 -0.812472 0.691513 0.428268 -0.28636 0.356024 -0.339341 0.220409 0.484033 -0.478505 0.529428 -0.0857629 0.313014
420 -1.00173 -0.613768 0.908661 -0.0329793 0.34584 -0.186897 -0.266824 0.306816 0.00753487 -0.336175 -0.179641 -0.0561352 0.251261 0.745059 -0.0674587 -0.495053 -0.0703996 0.281374 0.316282 0.0340169 -0.389388 -0.311746 -0.281166 -0.185841 0.0318848 0.350083 -0.269328 -0.0314433 -0.0442205 0.170481 -0.419278 0.204496 -0.159716 0.16275 -0.304458 0.17415 0.0696419 -0.196141 0.574833 -0.307304 0.512376 0.129306 -0.183392 0.123609 0.0388045 -0.245562 0.252425 0.208421 -0.137396 -0.353171 0.617474 -0.336583 -0.658783 0.600182 0.37981 -0.0852895 0.425102 -0.215782 0.206808 0.464708 -0.533554 0.583712 0.00226996 0.0714454
554 -0.727442 -0.325168 0.934016 -0.167885 0.265974 -0.118488 -0.303429 0.439517 -0.100775 -0.15584 -0.0744153 0.0454371 0.514778 0.40034 -0.214928 -0.482024 -0.164579 0.164277 0.476822 0.0516356 -0.597313 -0.154254 0.00301665 -0.133584 0.133829 0.595602 -0.320306 -0.072671 0.118166 0.0750906 -0.357598 0.327251 -0.342523 0.619236 -0.172974 -0.0864494 -0.0592229 -0.224442 0.657895 -0.245885 0.670514 0.115481 -0.0510694 0.253824 -0.19544 -0.434065 0.33412 0.148802 -0.0508952 -0.508782 0.602193 -0.452925 -0.632831 0.574704 0.499677 -0.214886 0.40445 -0.226576 0.313194 0.308059 -0.435916 0.688497 -0.119785 0.358157
398 -0.286245 -0.121457 0.908581 -0.0930187 0.270358 -0.338674 -0.381218 0.56044 0.0120919 -0.199123 0.0604596 -0.252803 0.39469 0.279101 -0.0662802 -0.605625 -0.125083 0.129189 0.556987 -0.0577792 -0.669882 -0.0501318 -0.135085 -0.142006 -0.0841769 0.580355 -0.119532 -0.23129 0.223367 0.0606081 -0.674313 0.344079 -0.247111 0.511287 -0.171825 0.0874514 0.0129786 -0.135466 0.577379 -0.266652 0.330395 0.0399905 -0.0606463 0.0574872 -0.0648291 -0.43553 0.168341 0.320062 -0.0502678 -0.278915 0.351809 -0.280065 -0.648545 0.365275 0.258284 -0.153621 0.226122 -0.135318 0.296996 0.438215 -0.49642 0.513811 -0.148154 0.179374
329 -0.615844 -0.230942 0.860823 -0.183934 0.330414 -0.109453 -0.294009 0.432489 -0.0999483 -0.139547 -0.0870494 0.0665281 0.384254 0.353172 -0.205568 -0.434909 -0.208444 0.0933757 0.418863 0.0551674 -0.568578 -0.149991 0.027721 -0.134678 0.127468 0.51873 -0.274871 -0.0194548 0.0971209 0.0991605 -0.331701 0.285196 -0.33553 0.534606 -0.118687 -0.141371 -0.115783 -0.144925 0.567117 -0.199322 0.509342 0.0952662 -0.0244419 0.202335 -0.102915 -0.333329 0.280178 0.132769 -0.0768333 -0.445501 0.513039 -0.362283 -0.533045 0.508488 0.40113 -0.228856 0.308072 -0.222252 0.258071 0.246154 -0.344956 0.56076 -0.146016 0.31952
21 -0.71006 -0.547394 1.18192 -0.0874709 0.377496 -0.196265 -0.157376 0.578432 0.0259178 -0.122831 -0.173155 -0.0408978 0.392592 0.61021 -0.0670491 -0.590344 -0.0558214 0.293759 0.433601 0.0512329 -0.433539 -0.0198646 -0.236901 -0.226414 0.0592187 0.45223 -0.234159 0.0185549 0.32199 0.31948 -0.703963 0.356704 -0.301101 0.606635 -0.283947 0.0192432 -0.0634847 -0.0878148 0.416414 -0.158425 0.554521 0.245652 -0.030532 0.197398 -0.054395 -0.163939 0.238663 0.331224 0.0284594 -0.483627 0.429007 -0.249861 -0.645137 0.340952 0.175048 -0.24656 0.150026 -0.196672 0.221851 0.46263 -0.453883 0.648497 -0.110034 0.278994
109 -0.512715 -0.373588 1.06396 -0.272566 0.305436 -0.274489 -0.203084 0.644125 -0.0410918 -0.27277 -0.176242 -0.147632 0.658994 0.551988 -0.0535708 -0.706699 -0.0898055 0.349425 0.383985 -0.114349 -0.321185 -0.0258875 -0.161218 -0.056853 0.0143086 0.510856 -0.203865 -0.105738 0.335596 0.0709633 -0.683889 0.391094 -0.102267 0.416811 -0.205201 0.231252 0.0306266 -0.357147 0.264405 -0.0516036 0.461676 0.0295294 0.0314922 0.117167 -0.0948406 -0.283951 0.389624 0.264335 0.1241 -0.240322 0.215327 -0.31282 -0.557041 0.407563 0.442044 -0.119674 0.21508 -0.0985861 0.0824395 0.295769 -0.456875 0.400927 -0.0806432 0.295884
180 -0.961202 -0.594337 0.995221 -0.0513888 0.384782 -0.161094 -0.290813 0.399853 -0.0924101 -0.365582 -0.127651 -0.00210657 0.321302 0.713412 -0.109731 -0.660506 -0.0551394 0.295827 0.403721 0.074922 -0.516561 -0.239648 -0.241758 -0.2373 0.0141963 0.425159 -0.237721 -0.047299 -0.0303904 0.143127 -0.509784 0.184595 -0.138807 0.224591 -0.273085 0.0777633 0.0446969 -0.220183 0.546468 -0.234933 0.45724 0.0894836 -0.154023 0.151304 -0.0316326 -0.265639 0.261724 0.143863 -0.108364 -0.317547 0.602527 -0.281057 -0.608754 0.530825 0.392333 -0.0590091 0.387643 -0.228815 0.211513 0.350388 -0.50194 0.552232 -0.0256083 0.0357153
199 -0.890608 -0.594792 0.861591 -0.0409601 0.350272 -0.185505 -0.247289 0.302312 -0.0238026 -0.29609 -0.17916 -0.0437924 0.265824 0.761462 -0.0643204 -0.559017 -0.0191253 0.289334 0.284108 0.028503 -0.384916 -0.2388 -0.284726 -0.252646 0.0282553 0.328524 -0.209441 -0.0429067 -0.00971421 0.179796 -0.438103 0.178386 -0.127434 0.122191 -0.320217 0.132177 0.0857446 -0.234407 0.497883 -0.238155 0.439083 0.145813 -0.172357 0.123493 -0.00124618 -0.230042 0.222243 0.184071 -0.0639532 -0.348187 0.602068 -0.278778 -0.644094 0.55867 0.371755 -0.0579898 0.392471 -0.234303 0.193481 0.425048 -0.527777 0.568368 -0.00730298 0.0627196
615 -0.710571 -0.283466 0.920158 -0.143793 0.304582 -0.107681 -0.290099 0.46856 -0.123488 -0.200445 -0.042685 0.0686754 0.464218 0.331593 -0.172514 -0.466389 -0.198658 0.151853 0.495012 0.062181 -0.571806 -0.116476 0.00512786 -0.0972441 0.0985685 0.566213 -0.291791 -0.0541335 0.134598 0.036861 -0.385875 0.3283 -0.305072 0.582927 -0.137887 -0.100006 -0.0952438 -0.228041 0.564133 -0.215703 0.548467 0.0492779 -0.0352067 0.200669 -0.137029 -0.345707 0.331947 0.157 -0.0738556 -0.463414 0.522397 -0.382616 -0.572248 0.498102 0.431561 -0.240784 0.331733 -0.212154 0.272471 0.279302 -0.40452 0.614541 -0.117308 0.293323
103 -0.564406 -0.354417 0.941723 -0.322708 0.644575 -0.14497 -0.332048 0.633696 -0.0994295 -0.169932 -0.298532 0.0100112 0.282211 0.784252 -0.189803 -0.928741 -0.16843 0.177811 0.214331 0.0769147 -0.649304 0.00485141 -0.196541 -0.348519 0.136487 0.366947 -0.0576961 0.0942714 0.027448 0.280621 -0.69308 0.303468 -0.243065 0.300365 -0.245116 -0.140378 -0.0628566 -0.194547 0.457332 -0.00715186 0.230398 0.147753 -0.0269157 0.174727 -0.00975816 -0.237963 0.269468 0.19639 0.0928145 -0.427742 0.563635 -0.190839 -0.769034 0.61748 0.470755 -0.186254 0.272424 -0.436901 0.156007 0.31386 -0.471107 0.513534 -0.180175 0.206168
32 -0.586153 -0.226355 1.00282 -0.324826 0.540582 -0.131483 -0.422266 0.58686 0.000680345 -0.188952 -0.266343 0.0132922 0.35461 0.833587 -0.266175 -0.81297 -0.101964 0.249679 0.35174 0.0786564 -0.736733 -0.065661 -0.254251 -0.349855 0.235803 0.428558 -0.16328 -0.0995207 0.0516618 0.396692 -0.692953 0.404451 -0.360609 0.330256 -0.280476 -0.141001 -0.0161504 -0.191338 0.536634 -0.0648784 0.520256 0.246326 -0.147302 0.413475 -0.178322 -0.363558 0.324454 0.163725 0.136142 -0.413248 0.562532 -0.224215 -0.689239 0.63769 0.541224 -0.133871 0.398188 -0.314076 0.240113 0.260953 -0.539952 0.749312 -0.209546 0.398813
696 -0.598989 -0.156046 0.833999 -0.189866 0.399525 -0.117134 -0.474 0.45715 0.0782923 -0.201478 -0.128596 -0.0881766 0.23866 0.635509 -0.148977 -0.504105 -0.102999 0.205401 0.422474 0.0739096 -0.687112 -0.140077 -0.264976 -0.250951 0.21328 0.403988 -0.154049 -0.113594 -0.0405689 0.323667 -0.564824 0.374973 -0.36862 0.220524 -0.236157 -0.0338468 -0.0251931 -0.0700848 0.530978 -0.267442 0.447907 0.176711 -0.192732 0.330721 -0.136921 -0.419446 0.276035 0.16575 -0.0159385 -0.377344 0.487073 -0.227865 -0.675421 0.614441 0.45257 -0.183124 0.41125 -0.271224 0.322709 0.351841 -0.524733 0.702964 -0.186619 0.318649
338 -0.523843 -0.376309 1.17705 -0.325418 0.369544 -0.308663 -0.281514 0.71745 -0.00126722 -0.246121 -0.22203 -0.17426 0.637338 0.627057 -0.120491 -0.75155 -0.0940019 0.301685 0.388054 -0.115596 -0.383618 -0.0657169 -0.165579 -0.0639559 0.0481983 0.485481 -0.210345 -0.101842 0.303831 0.180583 -0.666338 0.397695 -0.132368 0.388295 -0.181353 0.237216 0.0138299 -0.281387 0.360028 -0.0795245 0.515967 0.0569378 0.0242644 0.190375 -0.100475 -0.331461 0.393395 0.294157 0.124892 -0.216497 0.249948 -0.348214 -0.589883 0.446309 0.512983 -0.0939359 0.248488 -0.114554 0.102091 0.299943 -0.475182 0.465404 -0.105931 0.377644
569 -0.776355 -0.371259 0.989092 -0.143173 0.309271 -0.165483 -0.393641 0.429047 0.0160791 -0.201647 -0.127833 -0.0570744 0.420255 0.671586 -0.188303 -0.544335 -0.0816202 0.233938 0.441694 0.0534744 -0.579745 -0.21655 -0.202285 -0.196248 0.149891 0.453573 -0.270139 -0.117723 0.0206818 0.241298 -0.431543 0.325052 -0.316332 0.320315 -0.247026 0.0486245 0.00997863 -0.158227 0.65119 -0.315712 0.64083 0.168291 -0.168822 0.295239 -0.154086 -0.427717 0.303587 0.185638 -0.0386168 -0.419114 0.589506 -0.372189 -0.680026 0.606331 0.498381 -0.141095 0.46344 -0.227033 0.315073 0.405277 -0.546249 0.755218 -0.0964506 0.315909
209 -1.02458 -0.67838 0.978958 -0.0514976 0.34075 -0.143243 -0.221364 0.33332 -0.0484226 -0.310779 -0.158674 -0.0497364 0.304881 0.730702 -0.0633017 -0.544808 -0.0336683 0.319577 0.325734 0.0379458 -0.414318 -0.261962 -0.260159 -0.224963 0.0193962 0.392061 -0.261916 -0.00154348 -0.0060277 0.173678 -0.486906 0.179792 -0.129471 0.208717 -0.303485 0.126093 0.0454962 -0.227717 0.523881 -0.263095 0.526373 0.140758 -0.14715 0.139478 -0.0252644 -0.269233 0.28132 0.18133 -0.0832439 -0.363211 0.623955 -0.338678 -0.690936 0.580206 0.425455 -0.0849278 0.437635 -0.24482 0.240591 0.456635 -0.567865 0.610981 -0.0162137 0.0746831
632 -0.88621 -0.591129 1.00392 -0.0779826 0.323715 -0.216882 -0.299356 0.373122 -0.0161082 -0.333224 -0.102541 -0.144206 0.280052 0.708346 -0.0772518 -0.588235 -0.0229691 0.302741 0.362394 0.0144157 -0.496724 -0.252805 -0.264221 -0.218539 -0.0227561 0.415326 -0.214463 -0.0928549 -0.0127208 0.198206 -0.562022 0.178159 -0.135813 0.193439 -0.280805 0.156401 0.0725426 -0.176311 0.56104 -0.26677 0.476168 0.132544 -0.159195 0.146531 -0.0190436 -0.318724 0.245305 0.197302 -0.083193 -0.292899 0.589917 -0.315689 -0.689725 0.557665 0.391046 -0.0300313 0.418533 -0.208127 0.251106 0.438222 -0.5728 0.572247 -0.0551304 0.080729
560 -0.757452 -0.615273 1.21216 -0.0399421 0.354412 -0.188696 -0.12841 0.576263 0.01204 -0.161568 -0.107884 -0.0753439 0.359961 0.537635 -0.0143029 -0.601934 -0.0176321 0.33158 0.463057 0.0604806 -0.466434 0.0152297 -0.250932 -0.241077 0.00510426 0.493747 -0.202244 0.0247229 0.312333 0.274528 -0.792121 0.329942 -0.274992 0.615023 -0.314511 0.0221325 -0.0607604 -0.119977 0.39651 -0.16949 0.524514 0.242788 -0.0287843 0.139903 -0.0854999 -0.191316 0.262138 0.329779 0.0172015 -0.512162 0.47486 -0.25693 -0.757507 0.357335 0.185427 -0.26029 0.191728 -0.226969 0.311209 0.548156 -0.539519 0.713281 -0.126815 0.208835
683 -0.551032 -0.11182 0.686432 -0.209243 0.331805 -0.105847 -0.460298 0.410213 0.065659 -0.156866 -0.146979 -0.0840426 0.306453 0.624809 -0.213526 -0.551211 -0.0939456 0.209369 0.416832 0.0777815 -0.698932 -0.0941173 -0.26033 -0.257942 0.256378 0.45626 -0.14273 -0.168217 -0.0289054 0.324135 -0.543866 0.437788 -0.389879 0.291199 -0.254728 -0.0323332 0.000259433 -0.144507 0.636725 -0.260328 0.560072 0.176635 -0.200526 0.406943 -0.231794 -0.502108 0.331062 0.15723 0.0667568 -0.374435 0.485839 -0.258422 -0.674819 0.611179 0.513582 -0.136208 0.411163 -0.290049 0.292282 0.283433 -0.482101 0.716672 -0.143573 0.372894
55 -0.549964 -0.139457 0.843228 -0.214824 0.390654 -0.172045 -0.465177 0.490655 0.116855 -0.14031 -0.183711 -0.147301 0.364799 0.754758 -0.162476 -0.630019 -0.0798622 0.22881 0.443844 0.0581865 -0.754429 -0.113396 -0.310445 -0.353193 0.240104 0.453615 -0.152376 -0.125852 0.0423975 0.358028 -0.648491 0.470377 -0.401297 0.297179 -0.310545 -0.00811384 0.0139005 -0.147432 0.631424 -0.285629 0.552855 0.252147 -0.182834 0.338945 -0.21212 -0.491157 0.314274 0.218898 0.0701722 -0.448427 0.509979 -0.280984 -0.792658 0.668574 0.490342 -0.190844 0.437249 -0.306827 0.351605 0.41891 -0.578333 0.789793 -0.184075 0.420194
184 -0.647488 -0.465883 0.569613 -0.126137 0.303092 -0.129231 -0.0160532 0.264524 -0.134779 -0.139008 -0.194916 0.0701723 0.476348 0.479211 0.00999622 -0.590414 -0.169457 0.249156 0.24847 -0.00109302 -0.429064 -0.0591803 -0.0825476 -0.319735 0.0418045 0.573777 -0.256232 0.0851712 0.272468 -0.0317266 -0.518407 0.323808 -0.232899 0.606272 -0.351921 -0.0541231 0.0292219 -0.431957 0.442671 -0.12769 0.441841 0.178721 0.0506631 -0.0907401 -0.0540696 -0.216753 0.210613 0.187101 0.0170006 -0.611573 0.61057 -0.369859 -0.7566 0.59352 0.309932 -0.266748 0.276198 -0.325815 0.184644 0.413614 -0.416142 0.432218 -0.0777017 0.181081
611 -0.937873 -0.645969 0.987741 -0.0787782 0.346717 -0.211407 -0.2836 0.342817 -0.0142592 -0.276803 -0.170434 -0.0965111 0.285786 0.750637 -0.0939431 -0.57049 -0.0180823 0.269454 0.300433 0.0183766 -0.42022 -0.300857 -0.257403 -0.234115 0.00264812 0.346471 -0.247667 -0.0297367 -0.0228754 0.194288 -0.421331 0.15593 -0.115896 0.116282 -0.283003 0.168216 0.0739978 -0.16082 0.550394 -0.274806 0.495063 0.150213 -0.152065 0.135508 -0.0119483 -0.278425 0.225037 0.182084 -0.0849412 -0.313358 0.602011 -0.339549 -0.642687 0.565068 0.403657 -0.0292936 0.405824 -0.202539 0.200437 0.421165 -0.509783 0.546194 -0.0274174 0.107874
673 -0.883014 -0.61869 0.999978 -0.0740162 0.323494 -0.247304 -0.272232 0.342868 -0.00463564 -0.298221 -0.12743 -0.161246 0.26889 0.653398 -0.0606743 -0.536237 -0.0299627 0.245615 0.324011 -0.00178735 -0.437174 -0.290071 -0.239851 -0.19419 -0.0551804 0.356704 -0.210408 -0.0366572 -0.0348437 0.150926 -0.459979 0.144096 -0.1045 0.130507 -0.253599 0.200155 0.0715513 -0.154892 0.548676 -0.297945 0.453973 0.108902 -0.138352 0.092146 0.0215778 -0.303713 0.212627 0.210181 -0.120381 -0.301316 0.594053 -0.358072 -0.698776 0.578794 0.402971 -0.045586 0.421134 -0.207569 0.255069 0.490717 -0.552202 0.559245 -0.0221159 0.0652997
81 -0.564799 -0.353732 1.05245 -0.24466 0.290655 -0.258156 -0.227441 0.58313 -0.0272862 -0.246382 -0.199969 -0.103252 0.636365 0.536759 -0.0936431 -0.642382 -0.118946 0.282163 0.373453 -0.0870528 -0.342379 -0.0970943 -0.131243 -0.0555724 0.0638348 0.491166 -0.238872 -0.107126 0.289186 0.0536875 -0.539052 0.398896 -0.140369 0.415844 -0.181143 0.199419 0.0330718 -0.34235 0.370457 -0.12335 0.522146 0.0496073 0.0112932 0.125794 -0.0689705 -0.283677 0.361702 0.242035 0.0702683 -0.278899 0.276855 -0.341969 -0.516338 0.428806 0.430158 -0.136606 0.242515 -0.0984566 0.0898602 0.283617 -0.413961 0.42312 -0.0556676 0.321605
236 -0.419006 -0.326659 0.920855 -0.219179 0.224586 -0.35292 -0.277405 0.344736 -0.0846287 -0.0363133 -0.0381905 -0.159575 0.611998 0.37436 -0.216296 -0.717835 -0.0916934 0.0412266 0.357976 -0.0317676 -0.634041 -0.191212 0.022612 -0.307325 -0.0610792 0.516387 -0.147809 -0.169503 0.13514 -0.0335813 -0.290253 0.200696 -0.187756 0.520446 -0.184502 0.00442501 0.100237 -0.236378 0.822293 -0.27234 0.500954 0.0362081 -0.0198106 0.0394975 -0.148665 -0.509393 0.131085 0.179297 -0.0128124 -0.406251 0.694793 -0.510192 -0.767172 0.605999 0.55362 -0.0568601 0.449187 -0.255828 0.303972 0.397218 -0.439116 0.559191 -0.0657056 0.214209
488 -0.586429 -0.474167 1.24242 -0.29736 0.453844 -0.350375 -0.317356 0.572721 0.0707516 -0.0425132 -0.197967 -0.273753 0.344314 0.635707 -0.108143 -0.552984 -0.184103 0.0751517 0.250135 -0.133726 -0.465108 -0.326674 -0.080654 -0.186407 -0.0487647 0.360642 -0.267535 0.108396 0.171235 0.246509 -0.447794 0.196204 -0.231334 0.259939 -0.141049 0.180806 -0.0678436 0.0436488 0.500093 -0.229901 0.435943 0.187662 0.0433682 0.0380705 0.0859988 -0.315108 0.180669 0.314382 -0.0709104 -0.380997 0.469323 -0.45675 -0.754877 0.616211 0.389356 -0.161464 0.307721 -0.191125 0.219233 0.514237 -0.444101 0.454911 -0.231889 0.396077
573 -0.860623 -0.614871 1.23137 -0.298656 0.370312 -0.249041 -0.256346 0.60473 -0.0267545 -0.350254 -0.232375 -0.170414 0.540769 0.719622 -0.0962174 -0.680103 -0.12406 0.340379 0.374422 -0.116031 -0.427106 -0.273017 -0.20297 -0.0586255 -0.00334031 0.552376 -0.302371 -0.0558136 0.15292 0.176067 -0.650957 0.316947 -0.119039 0.27981 -0.207449 0.301431 0.0247159 -0.275877 0.447757 -0.160564 0.584405 0.0524211 -0.031908 0.156962 0.0065592 -0.340882 0.414689 0.250839 0.0026753 -0.231554 0.374035 -0.418471 -0.639762 0.578802 0.535484 -0.0425954 0.344521 -0.124584 0.0771309 0.332207 -0.515234 0.416623 -0.0824157 0.272838
625 -0.60206 -0.440052 0.804889 -0.200318 0.242421 -0.26098 -0.180827 0.401307 -0.01663 -0.149107 -0.151607 -0.184117 0.586135 0.60399 -0.0445971 -0.626296 0.0267293 0.363022 0.306567 -0.0837544 -0.405302 -0.0738762 -0.192043 -0.255421 0.0319589 0.511197 -0.196189 -0.0768729 0.224105 0.150493 -0.6016 0.296146 -0.0876947 0.299966 -0.331386 0.17182 0.0867632 -0.343022 0.393263 -0.140048 0.554909 0.17172 -0.0202305 0.146367 -0.250411 -0.428172 0.36479 0.206728 0.182779 -0.304863 0.408388 -0.407231 -0.714537 0.537129 0.565027 -0.0565879 0.429661 -0.228172 0.222585 0.395988 -0.597902 0.616515 -0.106207 0.295676
463 -0.503336 -0.37946 0.761645 -0.231898 0.25413 -0.235774 -0.182178 0.423724 -0.00475483 -0.0996567 -0.202018 -0.174908 0.577911 0.601218 -0.0684151 -0.663102 0.0388032 0.328808 0.256936 -0.0611637 -0.384841 -0.0207064 -0.198072 -0.266898 0.0918157 0.442979 -0.126973 -0.072218 0.220246 0.173908 -0.561861 0.33016 -0.0978546 0.283475 -0.311418 0.134697 0.0942842 -0.338822 0.366985 -0.0912797 0.508174 0.16157 -0.0244153 0.191905 -0.252792 -0.388784 0.351352 0.170173 0.238559 -0.279818 0.339184 -0.339843 -0.639974 0.477875 0.559686 -0.0505314 0.35957 -0.230482 0.16393 0.301117 -0.491947 0.53375 -0.0871171 0.328387
43 -0.543754 -0.428997 1.19925 -0.319294 0.32853 -0.315203 -0.238394 0.65495 0.00747487 -0.171818 -0.198147 -0.229573 0.711538 0.631545 -0.0745502 -0.715652 -0.036243 0.354937 0.367094 -0.138032 -0.416231 -0.104655 -0.176299 -0.165969 0.0357764 0.503119 -0.226556 -0.0589467 0.32474 0.171604 -0.650217 0.372268 -0.103434 0.337681 -0.24104 0.243204 0.0374904 -0.321115 0.325436 -0.103866 0.582988 0.119525 0.0432219 0.168548 -0.191009 -0.399532 0.419624 0.242265 0.167823 -0.267498 0.275274 -0.417965 -0.682581 0.510321 0.598079 -0.107536 0.349468 -0.146515 0.17043 0.366811 -0.56902 0.542269 -0.156226 0.433299
361 -0.906875 -0.572808 0.92203 -0.0689682 0.358141 -0.193573 -0.26711 0.334098 -0.00911403 -0.30357 -0.147845 -0.0912499 0.251778 0.683985 -0.032582 -0.513074 -0.0717231 0.26144 0.324215 0.014132 -0.454785 -0.287646 -0.254618 -0.239468 0.00499758 0.378022 -0.245479 -0.00729763 -0.0190451 0.148624 -0.467754 0.176315 -0.163245 0.156563 -0.296174 0.145935 0.0520035 -0.178279 0.528932 -0.2874 0.442787 0.128992 -0.149098 0.0707642 0.0435514 -0.254542 0.220084 0.182094 -0.134925 -0.359011 0.598191 -0.311057 -0.68176 0.589209 0.358409 -0.102329 0.396632 -0.227123 0.217731 0.464743 -0.518627 0.527821 -0.0361179 0.0648945
674 -0.906095 -0.558895 0.814854 -0.0731019 0.319913 -0.151072 -0.228862 0.281831 -0.033034 -0.296773 -0.155244 -0.0384306 0.296554 0.691529 -0.0757395 -0.506991 -0.0406193 0.273237 0.288282 0.0342817 -0.399964 -0.274266 -0.235121 -0.215734 0.0508691 0.370777 -0.240389 -0.0339663 -0.0446013 0.134889 -0.401687 0.190605 -0.12837 0.147134 -0.298393 0.133237 0.0721371 -0.257724 0.526487 -0.252651 0.496279 0.118681 -0.159798 0.142982 -0.0413215 -0.274392 0.263581 0.133764 -0.0746975 -0.335305 0.587979 -0.321173 -0.633755 0.586176 0.446051 -0.0566969 0.441015 -0.231851 0.194283 0.381599 -0.522145 0.550778 0.0020325 0.0758872
210 -0.90911 -0.654449 0.945052 -0.0467722 0.299161 -0.183942 -0.211299 0.275637 -0.0345352 -0.273304 -0.14737 -0.0815015 0.328695 0.70844 -0.0535521 -0.541939 -0.0217936 0.287283 0.308671 0.0120504 -0.411937 -0.28573 -0.229769 -0.259881 -0.00576948 0.387831 -0.252808 -0.0281404 0.0279586 0.148894 -0.426914 0.151478 -0.121492 0.187088 -0.302195 0.146493 0.0810249 -0.214193 0.543079 -0.265587 0.511444 0.16375 -0.131133 0.0907585 -0.0253455 -0.267871 0.222479 0.158076 -0.0844105 -0.361282 0.626297 -0.344426 -0.666935 0.568157 0.38836 -0.0605309 0.408162 -0.213511 0.220675 0.440714 -0.511713 0.55063 -0.0134148 0.0648164
257 -0.342111 -0.224112 0.991392 -0.0796129 0.222719 -0.409773 -0.327638 0.480873 -0.0121603 -0.21833 0.0625455 -0.237128 0.538088 0.367762 -0.106789 -0.748592 -0.0636547 0.165894 0.545472 -0.0308311 -0.701973 -0.0895802 -0.141134 -0.272734 -0.116518 0.593347 -0.138969 -0.31251 0.252238 -0.00886641 -0.635808 0.311635 -0.227769 0.59388 -0.274571 0.0525079 0.109105 -0.270179 0.743181 -0.28421 0.431279 0.0735627 -0.0916805 0.0338013 -0.1226 -0.471853 0.125003 0.312501 -0.053155 -0.340083 0.583889 -0.380777 -0.750209 0.466301 0.364429 -0.106799 0.387756 -0.166224 0.377159 0.521722 -0.616671 0.652673 -0.0756942 0.142085
14 -0.396151 -0.355902 0.859481 -0.105612 0.213186 -0.348787 -0.251906 0.372074 -0.0742137 -0.100701 0.00528911 -0.184252 0.56025 0.426816 -0.165594 -0.773775 -0.0331579 0.133484 0.411856 -0.0182696 -0.650046 -0.127537 -0.0842195 -0.343228 -0.0962886 0.516544 -0.11718 -0.2086 0.193333 0.0204211 -0.45522 0.215468 -0.191918 0.539116 -0.237799 0.0188334 0.117483 -0.234572 0.746611 -0.250987 0.453165 0.0799416 -0.0522509 0.0355313 -0.15631 -0.472785 0.0987137 0.218673 -0.00163763 -0.361732 0.604278 -0.405882 -0.705217 0.466824 0.407494 -0.0468489 0.378455 -0.203144 0.298576 0.418106 -0.465657 0.559693 -0.06769 0.155888
284 -0.814266 -0.276566 0.900016 -0.123514 0.305562 -0.135926 -0.345827 0.43801 -0.10772 -0.272603 -0.0364599 0.0230641 0.465117 0.361447 -0.139049 -0.44599 -0.224044 0.165401 0.545397 0.0431334 -0.625172 -0.215545 -0.0388203 -0.0733151 0.107369 0.629037 -0.323892 -0.0766031 0.0748277 0.0079027 -0.388939 0.334695 -0.309207 0.522151 -0.147574 -0.0164879 -0.085586 -0.234331 0.63903 -0.319182 0.56684 0.00709428 -0.087089 0.175583 -0.105919 -0.411254 0.347994 0.169103 -0.148222 -0.46088 0.548168 -0.42784 -0.628396 0.577699 0.478065 -0.242786 0.377394 -0.219983 0.309881 0.34276 -0.458821 0.6225 -0.105719 0.258264
552 -0.657252 -0.491274 0.850289 -0.196234 0.22474 -0.267216 -0.182337 0.399528 -0.00746419 -0.153878 -0.169819 -0.218667 0.624642 0.660811 -0.0487453 -0.65519 0.0813586 0.410911 0.312647 -0.0813773 -0.390319 -0.0792674 -0.232018 -0.269991 0.0478867 0.494575 -0.196109 -0.0851587 0.226569 0.160696 -0.617206 0.306771 -0.0525818 0.257079 -0.353048 0.215427 0.116197 -0.364787 0.376484 -0.140933 0.592592 0.167568 -0.0430632 0.178133 -0.295536 -0.452671 0.389749 0.190556 0.22036 -0.269225 0.396902 -0.404151 -0.709422 0.535869 0.631632 -0.0207116 0.464139 -0.210448 0.237649 0.385712 -0.62917 0.660001 -0.0787382 0.314282
