100 64
3 0.115991 0.0784206 -0.274439 0.499548 -0.368971 -0.103382 -0.453237 0.511212 0.556068 0.373714 0.156249 0.292573 0.150557 0.525421 0.0303643 0.0722301 -0.179019 0.563722 0.862122 0.0581598 -0.154782 0.306605 -0.161749 -0.126277 -0.164976 -0.501988 0.0171779 -0.0388956 -0.180096 0.00847017 0.276474 -0.16834 -0.0558117 -0.184748 -0.582151 0.287811 0.0613514 0.0518314 -0.0977881 0.0552535 -0.0609421 -0.0797051 0.0953198 -0.200627 -0.456207 -0.147824 0.114149 -0.0285192 0.4747 1.01932 -0.806198 1.44401 -0.140737 -0.400682 0.2695 1.1242 -0.375514 0.692812 2.95246 -2.26735 -0.683156 0.39358 0.496631 -1.57855
81 0.0525132 -0.0917084 -0.118902 0.513502 -0.156411 -0.0281125 -0.305397 0.315528 0.550017 0.280477 0.13457 0.270912 0.190938 0.646243 -0.00617932 0.102703 -0.15838 0.469038 0.659348 -0.020693 -0.143025 0.163477 -0.19417 -0.0534756 -0.235984 -0.594639 0.0670554 0.00352384 -0.0460408 -0.0144812 0.271736 -0.123585 0.0022121 -0.283562 -0.551651 0.338462 0.105883 0.0201237 -0.131078 0.0754802 0.0400553 -0.0320645 0.0297672 -0.248799 -0.426938 -0.109692 0.157115 -0.0315531 0.574332 1.19222 -0.902764 1.46355 -0.200659 -0.47925 0.334351 1.18091 -0.53013 0.753816 2.7827 -2.26657 -0.689413 0.455184 0.437872 -1.47721
71 0.0416324 0.174719 -0.201686 0.283701 -0.323483 -0.145378 -0.134314 0.182387 0.224919 0.157637 0.0795426 0.0923771 0.0964942 0.295976 0.0544133 0.0254339 -0.0122571 0.148035 0.195178 0.0112567 -0.0119979 0.091689 -0.106544 -0.0822772 -0.00706386 -0.0935832 -0.0165866 -0.0116245 -0.0828716 0.0301977 0.206783 -0.0447145 -0.0804334 -0.16215 -0.33078 0.182386 0.0874823 -0.0179454 -0.154996 0.0651328 -0.0683671 -0.101785 0.164974 -0.171534 -0.482367 -0.096402 0.151582 -0.0817369 0.348556 0.994192 -1.01987 1.5451 -0.225261 -0.466256 0.206241 1.06736 -0.448799 0.707701 3.55473 -2.8225 -0.713023 0.48328 0.42488 -1.71965
19 0.0230972 0.309004 -0.301741 0.456928 -0.35924 -0.0426232 -0.169461 0.178014 0.329739 0.312794 -0.013838 0.401478 0.243705 0.562871 -0.0425919 0.112036 -0.128635 0.892555 0.598715 0.0696765 -0.0928926 0.292177 -0.20818 -0.220858 -0.155884 -0.265815 -0.114552 -0.25556 -0.218752 0.0530008 0.291382 -0.0189575 -0.0919963 -0.0925488 -0.462764 0.160661 0.059651 0.0359924 -0.187492 0.254463 -0.254429 -0.348515 0.114119 -0.160007 -0.672812 -0.0888015 0.135078 0.109468 0.22726 0.76398 -0.763449 1.50057 -0.210347 -0.369723 0.272846 1.08954 -0.387961 0.55822 3.07496 -2.17995 -0.617517 0.199665 0.578014 -1.5024
52 0.140206 0.0785351 -0.186939 0.491396 -0.157751 -0.0343758 -0.445706 0.430727 0.476575 0.238711 0.104027 0.283675 0.151196 0.699351 -0.0395753 0.221943 -0.222521 0.687338 0.724584 -0.0242229 -0.106189 0.156679 -0.249652 -0.11345 -0.26429 -0.685515 -0.0271931 -0.0546351 -0.104006 0.0538622 0.114655 -0.109183 -0.0575624 -0.05993 -0.380591 0.0984437 0.0566398 -0.0207376 -0.0716214 0.02733 0.0497825 -0.0460515 0.0521425 -0.259802 -0.498589 -0.140653 0.128152 -0.0324101 0.489415 0.926716 -0.924528 1.5969 -0.227496 -0.411634 0.255383 1.11972 -0.503227 0.696385 3.06831 -2.3345 -0.552322 0.417153 0.409172 -1.29713
73 0.111659 0.23476 -0.207953 0.426751 -0.230879 -0.0713729 -0.252996 0.173184 0.201298 0.14414 0.00896286 0.0467981 0.10957 0.319005 0.0469332 0.0220187 -0.0230928 0.211089 0.245018 0.00562673 -0.0748158 0.0841575 -0.103965 -0.0523781 -0.0684766 -0.204856 -0.0189768 -0.0274121 -0.047681 0.0281067 0.123741 -0.0866539 -0.0648363 -0.112725 -0.390514 0.200472 0.0732897 -0.00341876 -0.0625774 0.0515421 0.00436011 -0.141453 0.151497 -0.221764 -0.529277 -0.147095 0.143891 -0.0739244 0.406767 0.983392 -1.02922 1.60702 -0.203576 -0.477443 0.228772 1.04077 -0.482978 0.705563 3.42332 -2.74206 -0.672188 0.473632 0.387514 -1.60405
84 0.240863 0.394279 -0.370189 0.802959 -0.494316 -0.158823 -0.45603 0.343246 0.394566 0.269886 0.0214553 0.286107 0.232245 0.594918 0.0647166 0.0744197 -0.0589957 0.59809 0.493182 0.0310736 -0.195918 0.26257 -0.245965 -0.143825 -0.21615 -0.555027 -0.0993947 -0.144979 -0.179604 0.0757476 0.361368 -0.0900267 -0.0898347 -0.21043 -0.599155 0.302703 0.125702 0.00285609 -0.20696 0.213797 -0.0905084 -0.303014 0.115217 -0.173278 -0.506858 -0.222328 0.158204 -0.0678004 0.442023 1.07227 -0.937293 1.55577 -0.230728 -0.525887 0.302138 1.18532 -0.535397 0.758633 3.09499 -2.44361 -0.661849 0.426501 0.389125 -1.65978
87 0.193899 0.397677 -0.364486 0.720098 -0.384327 -0.14052 -0.448926 0.337906 0.47647 0.339563 0.0280077 0.223912 0.231289 0.700316 -0.0215084 0.0676099 -0.122472 0.592715 0.713217 -0.00240585 -0.204652 0.321019 -0.311351 -0.15892 -0.179712 -0.428758 -0.00828511 -0.0981741 -0.117733 0.0178368 0.257234 -0.107034 -0.0628399 -0.188296 -0.54997 0.304328 0.073589 0.0268096 -0.15997 0.129651 -0.128537 -0.27809 0.15896 -0.219611 -0.634902 -0.133274 0.163432 -0.0588141 0.447495 1.00258 -0.984818 1.66179 -0.238508 -0.487789 0.263517 1.08759 -0.44982 0.695703 2.77361 -2.17066 -0.635717 0.392321 0.387837 -1.48381
88 0.0858503 0.198746 -0.179875 0.296228 -0.24964 -0.0961939 -0.199096 0.261111 0.211922 0.122599 0.0856634 0.0301694 0.117258 0.466709 0.0567622 0.102806 -0.0630699 0.393622 0.123082 0.0313806 0.0103635 0.0626225 -0.0712156 -0.018283 0.0302701 -0.0512425 0.0345545 0.0224048 -0.0584157 0.0492243 0.217988 -0.00451 -0.0450152 -0.12 -0.367204 0.153031 0.140877 -0.035033 -0.128228 0.0182802 -0.0537111 -0.0949799 0.17526 -0.19792 -0.51423 -0.0936136 0.177583 -0.115262 0.374588 0.965954 -1.01048 1.4968 -0.217227 -0.454348 0.262612 1.14443 -0.452052 0.701237 3.56186 -2.84372 -0.625715 0.473425 0.381843 -1.53885
86 0.0274887 0.0545034 -0.168156 0.504835 -0.156922 -0.109368 -0.294538 0.154918 0.370895 0.17819 0.0359315 0.359607 0.122268 0.376598 -0.0184462 0.121246 0.0441261 0.544203 0.367538 0.0615271 -0.0971063 0.153769 -0.136797 -0.112518 -0.169449 -0.238477 -0.128087 -0.178274 -0.109512 0.00603286 0.225101 0.0720415 -0.0803376 -0.204844 -0.229333 0.181959 0.113995 -0.0123868 -0.186892 0.207197 -0.206671 -0.405366 0.139368 -0.178248 -0.536628 -0.189877 0.126054 -0.0872279 0.348575 0.987946 -0.94161 1.60106 -0.252421 -0.49014 0.334038 1.12257 -0.457935 0.648737 2.98365 -2.26258 -0.753946 0.41121 0.463226 -1.76127
13 0.137474 0.484412 -0.139347 0.458648 -0.363221 -0.076468 -0.229322 0.236191 0.420983 0.222315 0.0966841 0.226517 0.226285 0.704884 -0.0193403 0.188291 -0.110286 0.753807 0.778083 -0.00218961 -0.155912 0.351544 -0.282959 -0.168137 -0.122555 -0.368519 0.000463393 -0.134094 -0.159867 0.0203284 0.234726 -0.0787873 -0.0345992 -0.150551 -0.322479 0.147828 0.20615 -0.0654876 -0.255302 0.167681 -0.134265 -0.156068 0.15041 -0.262746 -0.675193 -0.0927954 0.154808 -0.0156738 0.370855 0.963621 -0.838347 1.39427 -0.238539 -0.452111 0.327529 1.15724 -0.514356 0.628115 3.03874 -2.33897 -0.748757 0.485587 0.501405 -1.38091
47 0.207458 0.366464 -0.279674 0.7022 -0.348419 -0.0909708 -0.338138 0.278948 0.367441 0.207123 0.032603 0.260298 0.236316 0.593159 -0.00449579 0.163267 -0.104652 0.78192 0.785341 0.0505781 -0.265096 0.441897 -0.272936 -0.198728 -0.20819 -0.586029 -0.0939178 -0.174954 -0.221519 0.0555067 0.317956 -0.0854798 -0.096097 -0.200508 -0.434689 0.214481 0.153397 -0.00261239 -0.301909 0.270773 -0.201146 -0.354159 0.12567 -0.164382 -0.566336 -0.181395 0.140342 -0.0573185 0.416547 1.01681 -0.766367 1.34716 -0.250879 -0.469509 0.343394 1.19038 -0.545376 0.69432 2.9748 -2.27967 -0.684413 0.413539 0.418324 -1.46212
27 0.127351 0.216695 -0.200506 0.514643 -0.0560916 -0.0728358 -0.497167 0.326844 0.477447 0.265915 0.063907 0.297595 0.156624 0.383686 0.0287101 0.0589608 -0.0446704 0.65795 0.379297 0.03284 -0.135246 0.18698 -0.261022 -0.128559 -0.208677 -0.463983 -0.0311295 -0.121907 -0.097966 0.0242308 0.3371 0.0220758 -0.0734086 -0.182536 -0.394489 0.263057 0.0933021 -0.0193733 -0.130949 0.0407896 -0.066367 -0.33074 0.247004 -0.0995963 -0.506237 -0.157909 0.148532 -0.15528 0.342596 0.904128 -1.0622 1.64659 -0.26727 -0.457942 0.309213 1.07284 -0.467054 0.654609 2.93608 -2.42285 -0.581074 0.373099 0.238025 -1.50376
49 0.0976925 0.144344 -0.308709 0.647185 -0.191861 -0.0575432 -0.33487 0.214896 0.484181 0.365037 -0.00785078 0.273867 0.128835 0.308458 -0.0137879 0.0226348 -0.11664 0.573508 0.62187 -0.00873829 -0.159853 0.22618 -0.181515 -0.0172452 -0.132 -0.283004 0.0240713 -0.130464 -0.0837241 0.00677304 0.359712 -0.0792073 -0.0320081 -0.136171 -0.508995 0.336037 0.0368421 0.0223734 -0.185491 0.166605 -0.149655 -0.244381 0.110279 -0.125393 -0.492814 -0.045643 0.141112 -0.0747337 0.367113 0.846462 -0.904196 1.54982 -0.207444 -0.455975 0.28501 1.05407 -0.468432 0.651316 3.13801 -2.50382 -0.715477 0.372581 0.350624 -1.54672
17 0.0613006 0.169336 -0.219141 0.445248 -0.305638 -0.105571 -0.178728 0.117633 0.12451 0.137791 4.92314e-05 0.00495144 0.100858 0.32421 0.0338405 0.0426438 -0.0255883 0.274021 0.139083 -0.0183243 -0.0503512 0.0475772 -0.114096 0.00571908 -0.0508736 -0.0181376 0.00164639 -0.0673159 -0.014069 0.0278966 0.182054 -0.0148011 -0.0344066 -0.073217 -0.316993 0.16558 0.0577453 -0.0134497 -0.0947153 0.084133 -0.040987 -0.127995 0.121302 -0.188139 -0.454787 -0.069598 0.16161 -0.0871658 0.363759 0.945214 -1.07109 1.65235 -0.239935 -0.516458 0.239738 1.10949 -0.523051 0.747208 3.4176 -2.70538 -0.64625 0.458201 0.369646 -1.57454
16 0.272827 0.465551 -0.33709 0.75375 -0.460655 -0.161177 -0.548624 0.381683 0.421177 0.235011 0.0165478 0.241386 0.179693 0.740131 -0.00377113 0.0747431 -0.135208 0.565101 0.56111 -0.0190672 -0.196749 0.215332 -0.306592 -0.140893 -0.225699 -0.579011 -0.0503357 -0.109298 -0.0988118 0.0626225 0.118067 -0.117247 -0.0838768 -0.0596221 -0.565191 0.215919 0.0734687 -0.0424992 -0.0891144 0.140304 -0.0142127 -0.248129 0.155336 -0.252888 -0.532875 -0.158538 0.123659 -0.065551 0.356639 0.703069 -0.894174 1.51828 -0.202863 -0.460414 0.278004 1.05761 -0.514907 0.68888 3.06114 -2.42794 -0.621784 0.462764 0.388591 -1.52743
95 0.146245 -0.0157807 -0.301043 0.629325 -0.298619 -0.0518314 -0.353586 0.31529 0.265276 0.203806 -0.00135648 0.211332 0.150297 0.427236 -0.000290241 0.0696823 -0.163318 0.603365 0.530607 0.00339766 -0.193244 0.214166 -0.0601811 -0.0859355 -0.164625 -0.470672 -0.0432482 -0.0171139 -0.0974778 0.0532075 -0.0182063 -0.17631 -0.0439491 -0.0252407 -0.331537 0.105405 0.018713 0.0460386 0.0568241 0.0288416 0.0358943 -0.101633 0.0819453 -0.276003 -0.525639 -0.21021 0.07307 -0.00220951 0.441738 0.827515 -0.855722 1.51597 -0.160926 -0.381282 0.336919 1.14229 -0.463973 0.718964 3.11054 -2.39291 -0.672396 0.451536 0.492105 -1.6175
90 0.119979 0.0133441 -0.296702 0.545275 -0.424242 -0.139047 -0.374772 0.344324 0.374532 0.275258 0.0702797 0.296174 0.162921 0.561167 -0.00323123 0.0232414 -0.152167 0.46715 0.543622 -0.000993743 -0.17173 0.252692 -0.174574 -0.106766 -0.187021 -0.413092 -0.0346954 -0.0529308 -0.140824 0.0339339 0.115838 -0.136478 -0.0635866 -0.108661 -0.464051 0.240693 0.0133307 0.0269521 -0.103483 0.169464 -0.0908795 -0.249267 0.0493235 -0.193628 -0.388299 -0.122232 0.0539244 -0.00925733 0.331552 0.691073 -0.807755 1.41272 -0.140919 -0.392887 0.293574 1.06594 -0.380836 0.67948 3.01633 -2.32691 -0.643913 0.347158 0.497295 -1.65588
22 0.177712 0.292103 -0.349142 0.809845 -0.412375 -0.172046 -0.501001 0.415103 0.536015 0.255623 0.0729355 0.314477 0.180772 0.706012 0.0578836 0.123936 -0.107292 0.621632 0.404761 0.0209062 -0.0893437 0.114776 -0.15679 -0.0901557 -0.166527 -0.430163 -0.0208635 -0.0482984 -0.103091 0.0603713 0.29466 -0.065342 -0.0802688 -0.148752 -0.403152 0.194548 0.10056 -0.0386363 -0.136946 0.0659086 -0.0300224 -0.191046 0.145936 -0.167267 -0.392774 -0.167893 0.133907 -0.10434 0.389112 0.945049 -0.977624 1.56047 -0.236217 -0.486512 0.288081 1.10642 -0.448608 0.685887 3.04465 -2.4368 -0.641797 0.444293 0.387844 -1.6884
37 0.116657 0.039747 -0.300795 0.663173 -0.352248 -0.118372 -0.529567 0.46451 0.461086 0.296794 0.103006 0.232531 0.222224 0.567684 0.091778 -0.0152392 -0.0213529 0.437743 0.537108 0.113405 -0.112432 0.117273 -0.077509 -0.0509506 -0.0453744 -0.241028 -0.00117286 -0.0644741 -0.172816 -0.00465221 0.392948 -0.0448248 -0.03679 -0.199113 -0.409379 0.276854 0.126242 0.0785868 -0.160591 0.0832239 -0.0913526 -0.19132 0.0980217 -0.133648 -0.363493 -0.20608 0.200556 -0.0995226 0.452284 0.955763 -0.838324 1.47968 -0.215749 -0.494082 0.304742 1.16077 -0.468149 0.727194 3.04241 -2.41087 -0.585902 0.423717 0.315585 -1.52883
63 0.0780025 -0.0614137 -0.275715 0.468308 -0.294253 -0.125925 -0.442513 0.430859 0.529499 0.392789 0.0259154 0.298343 0.214934 0.706998 0.000778898 0.0642688 -0.0971666 0.354722 0.469714 0.015154 -0.107738 0.106278 -0.113699 -0.0661536 -0.129926 -0.361541 -0.0712343 -0.0146229 -0.1001 0.0498329 0.108604 -0.105176 -0.111035 -0.129153 -0.274017 0.126605 0.0248007 0.0841261 -0.0406972 0.0170734 0.000822478 -0.204316 0.102841 -0.242408 -0.537468 -0.243677 0.084386 -0.0562369 0.433417 1.02471 -0.969185 1.61844 -0.18791 -0.390192 0.240663 1.08758 -0.436539 0.777419 3.06283 -2.34677 -0.495387 0.340091 0.346087 -1.41351
38 0.0692095 -0.0861059 -0.195303 0.469944 -0.337766 -0.093969 -0.435216 0.403404 0.251862 0.148419 0.112108 0.126865 0.22049 0.56791 0.00874265 0.072584 -0.118249 0.720395 0.599263 0.098795 -0.22324 0.31636 -0.202201 -0.159985 -0.0782687 -0.389221 0.0163993 -0.0559019 -0.148601 -0.0361684 0.203003 -0.0974722 0.00740059 -0.0866106 -0.299549 0.118565 0.0694766 0.0571949 -0.117971 0.0343356 -0.0289278 -0.145471 0.151614 -0.134203 -0.476713 -0.150556 0.128144 -0.0444239 0.419234 0.836938 -0.929994 1.61339 -0.236016 -0.447984 0.310445 1.15129 -0.427064 0.63728 3.05632 -2.3262 -0.646713 0.360502 0.440936 -1.66992
6 0.153807 0.269584 -0.246776 0.365604 -0.193296 -0.0286618 -0.349444 0.322418 0.291568 0.237071 0.0280082 0.222112 0.168369 0.424469 -0.0986135 0.159104 -0.151497 0.380493 0.582831 0.0522074 0.0165961 0.101514 -0.19007 -0.0904508 -0.200665 -0.488317 -0.0502599 -0.148346 -0.131666 0.036973 0.214375 -0.0177029 -0.115979 0.0204226 -0.463936 0.117086 -0.0649596 0.0266119 -0.175731 0.166559 -0.0257824 -0.159835 0.0195252 -0.159649 -0.572619 -0.0598946 0.147351 0.0174333 0.4069 0.90397 -0.767109 1.46145 -0.242972 -0.394702 0.189455 1.10328 -0.565783 0.730471 3.28265 -2.43622 -0.619028 0.372865 0.417537 -1.36269
45 0.154736 0.115766 -0.217907 0.486422 -0.363625 -0.106473 -0.305745 0.28245 0.410548 0.274332 0.0303444 0.277354 0.146109 0.348451 -0.0181615 0.0833532 -0.128265 0.656987 0.759477 0.00298089 -0.199704 0.301033 -0.114504 -0.0888053 -0.177961 -0.457292 -0.0847814 -0.0715231 -0.15254 0.038071 0.275365 -0.153626 -0.051937 -0.205746 -0.534827 0.324538 0.0776502 0.0433937 -0.149745 0.193248 -0.119607 -0.231293 0.0581021 -0.170278 -0.43855 -0.151687 0.117929 -0.0589569 0.49102 1.06027 -0.923575 1.5893 -0.180754 -0.421758 0.317862 1.07389 -0.447489 0.681189 3.03535 -2.37542 -0.719766 0.375727 0.435664 -1.54417
89 0.217499 0.30093 -0.230823 0.587757 -0.202745 -0.0837697 -0.321704 0.244167 0.36583 0.199838 0.0437635 0.308286 0.18446 0.405961 0.0134517 0.0726704 -0.0316189 0.667938 0.764524 0.0249282 -0.335258 0.461166 -0.306803 -0.248914 -0.244265 -0.652462 -0.174815 -0.143651 -0.261308 0.0877578 0.226954 -0.106543 -0.1135 -0.262424 -0.456147 0.278244 0.180029 0.0285445 -0.232651 0.231791 -0.218539 -0.432388 0.179812 -0.16905 -0.560256 -0.28116 0.0952954 -0.11555 0.405606 1.01304 -0.87784 1.4604 -0.224058 -0.460374 0.368022 1.15005 -0.461355 0.707689 2.98183 -2.33775 -0.673076 0.390507 0.375063 -1.53638
32 0.164587 0.21091 -0.268333 0.733173 -0.530769 -0.124979 -0.426649 0.251118 0.339864 0.204603 -0.0487572 0.220948 0.179012 0.618812 0.0313631 0.0803584 -0.166435 0.609825 0.35496 -0.0472134 -0.201494 0.162524 -0.274395 -0.0768339 -0.246985 -0.552778 -0.0567592 -0.0953942 -0.0382405 0.0654917 0.070921 -0.172246 -0.0329773 0.00761463 -0.48319 0.153506 0.0503356 -0.0848628 -0.0840325 0.171038 0.0504856 -0.162649 0.0820401 -0.214516 -0.491561 -0.102165 0.111373 -0.0114054 0.358754 0.763653 -0.946518 1.49216 -0.237134 -0.534044 0.266708 1.04274 -0.602179 0.708417 3.08118 -2.46889 -0.573269 0.380898 0.370578 -1.41291
70 0.107433 0.401463 -0.182457 0.538502 -0.527632 -0.132703 -0.419202 0.255937 0.473699 0.241842 -0.00334527 0.31455 0.151644 0.749276 -0.0305333 0.133925 -0.188509 0.640561 0.461697 -0.0424811 -0.0799497 0.151278 -0.328135 -0.10713 -0.225027 -0.491058 -0.030297 -0.162139 -0.00120913 0.0419423 0.1736 -0.0548178 -0.0434317 -0.0461279 -0.491023 0.130434 0.0810549 -0.139907 -0.167371 0.230529 -0.0236389 -0.171319 0.0778769 -0.275587 -0.548905 -0.00854947 0.134788 0.0470374 0.264676 0.719837 -0.873374 1.42259 -0.262326 -0.538345 0.309873 1.20819 -0.670157 0.763945 3.08411 -2.40302 -0.593568 0.445128 0.471685 -1.3743
12 0.148421 0.312821 -0.243001 0.616645 -0.576379 -0.135544 -0.499834 0.306152 0.381473 0.180814 -0.00794405 0.367998 0.100485 0.550709 -0.0679233 0.0966788 -0.185185 0.656172 0.454602 -0.0218422 -0.150505 0.184584 -0.277631 -0.133007 -0.255545 -0.533745 -0.0904069 -0.157008 -0.0347614 0.0490157 0.101658 -0.0463323 -0.0520571 -0.0194815 -0.461374 0.0939462 0.0149081 -0.0942881 -0.0956165 0.230977 -0.0364669 -0.252849 0.0775098 -0.256461 -0.516374 -0.104423 0.115668 0.032857 0.306318 0.640444 -0.88001 1.52843 -0.254781 -0.510764 0.329876 1.2205 -0.655205 0.799232 3.20018 -2.43438 -0.601519 0.432046 0.467845 -1.42385
39 0.0417321 0.313852 -0.145028 0.507353 -0.519559 -0.168161 -0.309968 0.154325 0.422435 0.226352 0.0267547 0.211012 0.136002 0.646193 -0.0674282 0.185087 -0.138398 0.684382 0.60338 -0.0604733 -0.125236 0.227224 -0.345297 -0.0731342 -0.23012 -0.308261 0.00530233 -0.217816 -0.0389502 0.0185278 0.225951 0.00663951 -0.0141299 -0.0192288 -0.379737 0.135076 0.0785554 -0.126956 -0.230383 0.236708 -0.125862 -0.179018 0.102247 -0.2279 -0.592902 0.0394921 0.161963 -0.0145917 0.299151 0.863662 -0.99601 1.6263 -0.330052 -0.568944 0.312622 1.2053 -0.630071 0.738717 3.18751 -2.43933 -0.749296 0.450325 0.503126 -1.61623
61 0.123379 0.386702 -0.301286 0.58203 -0.437765 -0.155403 -0.26283 0.209953 0.325931 0.269151 0.0236905 0.256761 0.22764 0.770949 -0.00749886 0.169773 -0.255703 0.830325 0.683123 -0.0496446 -0.097476 0.257515 -0.252589 -0.106532 -0.217188 -0.41651 0.00782929 -0.106678 -0.0342019 0.0377184 0.261981 -0.140762 -0.117726 -0.0958287 -0.669361 0.307466 0.0154925 -0.0747296 -0.18764 0.141331 -0.0424979 -0.252361 0.143038 -0.182521 -0.60238 0.0281253 0.148105 -0.0411141 0.337527 0.911642 -1.07628 1.67306 -0.214872 -0.459528 0.21603 1.01816 -0.46237 0.585615 3.00384 -2.38598 -0.675253 0.31913 0.436509 -1.51216
29 0.0657232 0.112811 -0.18539 0.497437 -0.227611 -0.082284 -0.345068 0.233853 0.584835 0.359788 0.00642827 0.34124 0.136168 0.379431 -0.0840666 0.104199 -0.145685 0.689133 0.599087 0.00863473 -0.116003 0.226556 -0.224942 -0.0703755 -0.14388 -0.314279 -0.010412 -0.118532 -0.0260253 -0.0370891 0.303132 -0.0576471 -0.017933 -0.169733 -0.571341 0.339082 0.0135784 -0.00848817 -0.221272 0.219523 -0.148853 -0.316436 0.116405 -0.106473 -0.439683 0.00694955 0.0629146 -0.0258497 0.267519 0.691184 -0.840546 1.34287 -0.202505 -0.435996 0.298103 1.03942 -0.45964 0.605141 2.86476 -2.30685 -0.779441 0.356953 0.416568 -1.61224
7 0.0648004 0.244926 -0.208156 0.521077 -0.0462081 -0.0364101 -0.347665 0.253853 0.53687 0.263885 0.115705 0.274329 0.101381 0.334601 0.0654268 0.0569623 -0.0748008 0.477041 0.564402 0.0331135 -0.131532 0.261686 -0.278734 -0.171134 -0.159833 -0.409996 0.0290651 -0.0790599 -0.122397 0.00892102 0.209327 -0.0425863 -0.0517856 -0.200409 -0.361745 0.254851 0.146128 -0.0721624 -0.215453 0.144923 -0.1839 -0.209666 0.193247 -0.148504 -0.586169 -0.112656 0.147681 -0.0962318 0.373973 1.0094 -0.906055 1.45086 -0.241626 -0.531458 0.30729 1.05289 -0.425767 0.615289 2.92946 -2.36088 -0.775543 0.454278 0.406451 -1.62035
30 0.0787448 0.120328 -0.221051 0.522622 -0.44874 -0.150902 -0.285429 0.170308 0.425319 0.31527 -0.00492374 0.347592 0.195556 0.629084 -0.0269626 0.147713 -0.293035 0.735821 0.571712 -0.122109 -0.129637 0.164598 -0.223563 -0.0450091 -0.265971 -0.466599 -0.00113648 -0.0387288 0.00957823 0.0552782 0.14531 -0.184583 -0.0807036 -0.0773844 -0.657731 0.29618 0.0077526 -0.0823557 -0.134185 0.17271 0.0222673 -0.194719 0.0627501 -0.194084 -0.569762 0.0113739 0.122368 -0.0344048 0.353239 0.872538 -1.09168 1.58307 -0.217859 -0.484275 0.215076 0.996309 -0.546942 0.651691 3.0058 -2.48893 -0.659082 0.347396 0.350598 -1.37056
93 0.130368 0.267794 -0.119369 0.317102 -0.179943 0.00318601 -0.346879 0.231777 0.451062 0.272342 -0.044923 0.289842 0.092928 0.284935 -0.0852525 0.154536 -0.178548 0.570704 0.461422 -0.0146525 -0.0376946 0.0790583 -0.140865 -0.0874543 -0.153497 -0.40615 -0.0830004 -0.0667444 0.00937344 0.0173145 0.151597 -0.145832 -0.0599993 -0.1567 -0.509327 0.210229 0.00710152 -0.0314655 -0.127297 0.175089 -0.0469269 -0.267495 0.0912612 -0.213928 -0.621547 -0.0762001 0.10257 0.0170646 0.456102 1.07402 -1.00009 1.61263 -0.239178 -0.463055 0.247205 1.0596 -0.538104 0.672767 3.04196 -2.41802 -0.721462 0.377031 0.464039 -1.45419
25 0.220475 0.204116 -0.280319 0.745867 -0.32539 -0.102117 -0.487694 0.392983 0.342154 0.119106 0.0488522 0.26278 0.182346 0.696974 0.0680006 0.0877915 -0.103497 0.570746 0.361519 0.0486981 -0.149447 0.136747 -0.22073 -0.107923 -0.232065 -0.6912 -0.0660023 -0.0799497 -0.0699988 0.0621513 0.172773 -0.0930298 -0.0404249 -0.0786198 -0.400823 0.16126 0.0607901 -0.012445 -0.0849548 0.0883204 0.0811746 -0.111771 0.0772261 -0.163339 -0.294119 -0.201662 0.120747 -0.0649843 0.396405 0.786154 -0.906416 1.48453 -0.225696 -0.524799 0.30634 1.09287 -0.528038 0.693339 2.99265 -2.38765 -0.645975 0.480211 0.383812 -1.72868
1 0.161517 0.352152 -0.30091 0.658121 -0.452201 -0.189508 -0.391165 0.321682 0.459718 0.261563 0.0857792 0.223343 0.104241 0.327268 0.0223918 0.0966273 -0.0336066 0.399875 0.21734 0.0216247 -0.00955144 0.120776 -0.148297 -0.0287267 -0.0993229 -0.233668 -0.0311658 -0.0531494 -0.0446062 0.0437634 0.394544 0.0583034 -0.0648475 -0.239776 -0.462972 0.268205 0.132923 -0.0618196 -0.240318 0.146658 -0.104682 -0.260393 0.144267 -0.154745 -0.42998 -0.0898866 0.173209 -0.1437 0.421585 1.1284 -1.08099 1.60895 -0.28245 -0.564208 0.338451 1.29523 -0.565707 0.825845 3.29487 -2.68757 -0.71093 0.52189 0.372916 -1.65974
14 0.183329 0.345915 -0.248361 0.616049 -0.299735 -0.18766 -0.311296 0.255403 0.402774 0.131594 0.102722 0.287792 0.0703184 0.382024 0.108332 0.174509 0.0549823 0.37799 0.18296 0.0416174 0.000325584 0.0407308 -0.096909 -0.0582453 -0.163883 -0.380232 -0.157577 -0.0539789 -0.111471 0.0998562 0.206771 -0.000774268 -0.119012 -0.226629 -0.427329 0.278441 0.189321 -0.0768836 -0.166217 0.131101 -0.0547067 -0.216555 0.139063 -0.179852 -0.442509 -0.229078 0.132561 -0.184005 0.431685 1.18016 -1.05919 1.51598 -0.204757 -0.551276 0.270001 1.05672 -0.457601 0.68645 3.19605 -2.57892 -0.808266 0.559256 0.399649 -1.83454
54 0.061128 0.246336 -0.255248 0.467621 -0.336953 -0.170063 -0.417891 0.317422 0.617598 0.406367 0.0601806 0.353273 0.181219 0.63973 -0.0208997 0.173381 -0.149106 0.694174 0.714914 -0.0164717 -0.0825689 0.213822 -0.34763 -0.156439 -0.25264 -0.467086 -0.0824712 -0.178823 -0.105774 0.0382254 0.331955 -0.0492765 -0.124799 -0.186704 -0.557732 0.288334 0.0574973 -0.0588433 -0.262709 0.206044 -0.183328 -0.384136 0.191672 -0.163058 -0.748319 -0.0828313 0.126555 -0.0680877 0.343285 1.10772 -1.03801 1.63618 -0.286356 -0.491376 0.194127 1.06156 -0.435647 0.668125 2.98822 -2.31527 -0.652421 0.301055 0.38063 -1.54981
33 0.0193404 -0.107861 -0.231191 0.55242 -0.464185 -0.135288 -0.45547 0.41504 0.472055 0.344694 0.0738132 0.213224 0.199265 0.575692 0.0358243 0.00801955 -0.100344 0.533253 0.706664 0.0698621 -0.195295 0.24473 -0.0452771 -0.0734391 -0.0786173 -0.269815 0.00761377 -0.0494021 -0.101513 -0.0504582 0.110373 -0.198296 -0.0130263 -0.0830099 -0.223986 0.149904 0.0285043 0.0813075 0.010885 -0.0140067 0.0139419 -0.0468468 0.0890985 -0.215537 -0.421064 -0.180853 0.0982439 -0.0125118 0.456821 0.919774 -0.846085 1.53387 -0.158182 -0.395776 0.262661 1.01223 -0.387752 0.626065 2.86994 -2.15314 -0.657561 0.384296 0.47223 -1.55935
62 0.111061 0.348593 -0.343261 0.702153 -0.508268 -0.188451 -0.414944 0.320213 0.562202 0.391712 0.0424132 0.331278 0.187379 0.610471 0.0195368 0.116341 -0.129265 0.611867 0.564061 -0.0246803 -0.0634242 0.178678 -0.21695 -0.0825709 -0.149599 -0.263603 0.00177951 -0.119544 -0.0512691 0.0325474 0.382133 -0.0330787 -0.0810691 -0.195394 -0.511909 0.272979 0.0821888 -0.04786 -0.219915 0.154489 -0.112925 -0.245391 0.127563 -0.184266 -0.574233 -0.0648229 0.193062 -0.0494562 0.391919 1.09895 -1.02122 1.62551 -0.265385 -0.505225 0.252338 1.15307 -0.526392 0.725308 2.93863 -2.33383 -0.634684 0.388662 0.390254 -1.50531
72 0.161477 0.429357 -0.393943 0.859219 -0.412875 -0.162081 -0.477512 0.365233 0.611314 0.363605 0.0907255 0.330441 0.192364 0.607928 0.0998915 0.0814404 -0.0262629 0.496182 0.353209 0.048641 -0.0267015 0.103862 -0.166325 -0.059777 -0.0822886 -0.232175 -0.0101714 -0.073864 -0.0571901 0.0307496 0.363431 0.0162299 -0.0633255 -0.23668 -0.420964 0.279097 0.17803 -0.0559703 -0.215568 0.117214 -0.106848 -0.221451 0.171217 -0.180397 -0.520666 -0.146643 0.204864 -0.118802 0.419133 1.14583 -1.03094 1.55898 -0.25675 -0.573811 0.295452 1.161 -0.517325 0.736055 3.16697 -2.58437 -0.677476 0.497968 0.344021 -1.59027
41 0.068268 0.346388 -0.195985 0.521839 -0.525643 -0.159473 -0.253827 0.157464 0.336652 0.178243 0.00686075 0.221768 0.154628 0.652427 -0.0200115 0.1545 -0.197865 0.697202 0.671953 -0.0381438 -0.141929 0.278625 -0.263794 -0.109385 -0.195792 -0.43694 0.00351356 -0.181609 -0.00950938 0.0144221 0.229115 -0.102876 -0.0752461 -0.0888005 -0.370451 0.134833 0.0584645 -0.11059 -0.233454 0.219828 -0.0797918 -0.174188 0.125706 -0.256154 -0.614896 0.0108351 0.152853 -0.0106006 0.343332 0.94647 -1.00942 1.63111 -0.291589 -0.550622 0.315624 1.26427 -0.663983 0.746941 3.09474 -2.38149 -0.714167 0.463259 0.464295 -1.37029
5 0.029365 0.516533 -0.166753 0.364118 -0.32314 -0.00389571 -0.322791 0.177878 0.518932 0.357579 -0.0310442 0.282019 0.161667 0.468547 -0.0202827 0.0750174 -0.173458 0.592751 0.627708 0.0107687 -0.0298572 0.203431 -0.253891 -0.109807 -0.118483 -0.315864 0.0514724 -0.197109 0.0709093 -0.0550192 0.169326 -0.12269 -0.0305439 -0.0510674 -0.472124 0.19708 0.0427374 -0.102246 -0.177097 0.191671 -0.0694276 -0.127816 0.161318 -0.256855 -0.784135 0.0613322 0.136188 0.0952646 0.26714 0.812287 -0.849736 1.39214 -0.262967 -0.524434 0.277962 1.15901 -0.642151 0.657937 3.02684 -2.3665 -0.811152 0.49011 0.517431 -1.37939
11 0.161202 0.235176 -0.219585 0.488582 -0.0737371 -0.116131 -0.256925 0.243264 0.353586 0.157978 0.129568 0.353739 0.127089 0.43129 0.0247767 0.216716 -0.041472 0.679615 0.52287 0.00681467 -0.138451 0.263602 -0.245973 -0.180414 -0.261157 -0.535208 -0.174847 -0.110973 -0.204082 0.090063 0.224093 0.0304109 -0.145681 -0.214553 -0.331206 0.20602 0.122572 -0.00726453 -0.210321 0.181891 -0.146819 -0.333405 0.113947 -0.0917646 -0.453355 -0.221792 0.0989571 -0.161485 0.386719 1.05951 -0.989955 1.51993 -0.238923 -0.478951 0.260724 1.07651 -0.412595 0.662572 3.00056 -2.34131 -0.683464 0.413364 0.334652 -1.61163
85 0.14676 0.263874 -0.342851 0.725239 -0.421359 -0.144036 -0.444441 0.440933 0.540775 0.328017 0.131103 0.289718 0.236069 0.718711 0.100892 0.105527 -0.023973 0.507857 0.347285 0.0882345 -0.030992 0.0798484 -0.0895178 -0.0655418 -0.0403979 -0.187325 -0.0375391 -0.0366924 -0.103945 0.0195514 0.279754 -0.0333966 -0.0581926 -0.227816 -0.354727 0.232649 0.179398 0.00507947 -0.174498 0.0801534 -0.0711481 -0.203473 0.120775 -0.179904 -0.429953 -0.193146 0.157007 -0.0977436 0.427313 1.06843 -0.956344 1.47368 -0.199831 -0.497236 0.275225 1.1179 -0.415523 0.684239 3.07178 -2.44359 -0.632313 0.456684 0.397285 -1.56663
69 0.102103 -0.0173257 -0.237399 0.543372 -0.44984 -0.0961585 -0.455913 0.399369 0.358614 0.232263 0.0578487 0.239669 0.203529 0.553394 0.00760642 0.0332003 -0.135828 0.511252 0.529928 0.0752767 -0.16599 0.189313 -0.0646791 -0.0884434 -0.154034 -0.440265 -0.00102772 -0.0382236 -0.14396 0.00711462 0.137678 -0.129497 -0.0274436 -0.0383524 -0.397403 0.138687 0.00992727 0.0503759 0.0126027 0.0429938 0.049018 -0.0605873 0.0591651 -0.224955 -0.446481 -0.194298 0.106392 0.0190905 0.418051 0.801474 -0.742818 1.37844 -0.173226 -0.389566 0.321607 1.16637 -0.507054 0.745609 3.07649 -2.35701 -0.687457 0.462072 0.496136 -1.6326
65 0.1678 0.558801 -0.314788 0.83259 -0.244489 -0.139844 -0.330859 0.142502 0.444114 0.159043 0.0227963 0.288537 0.0787928 0.520689 0.0290879 0.119567 -0.0896936 0.529595 0.598428 -0.0253294 -0.135423 0.279589 -0.334522 -0.120533 -0.287156 -0.620145 -0.0347772 -0.184945 -5.22268e-05 0.0324954 0.180561 -0.0337078 -0.0910228 -0.155977 -0.342468 0.247468 0.102282 -0.142744 -0.253237 0.235164 -0.144194 -0.249628 0.184109 -0.213572 -0.545044 -0.0589129 0.144944 -0.127353 0.322289 0.884725 -0.908795 1.40963 -0.261082 -0.591698 0.333121 1.16208 -0.599064 0.697646 2.9212 -2.34362 -0.823519 0.566543 0.388506 -1.58224
99 0.0655753 0.293867 -0.062217 0.46586 -0.381995 -0.0856786 -0.263833 0.112355 0.472795 0.230524 -0.00147194 0.205672 0.17453 0.705853 -0.0346236 0.1691 -0.170029 0.792127 0.557258 -0.0832275 -0.164228 0.201905 -0.266559 -0.0627167 -0.0981026 -0.247491 0.0403655 -0.0641387 0.0329908 -0.00859493 0.141372 -0.114872 0.0461559 -0.108746 -0.31922 0.154536 0.142124 -0.101882 -0.170617 0.150975 -0.0463155 -0.0947658 0.143282 -0.264774 -0.607189 -0.000308404 0.169165 -0.0359166 0.38896 0.929382 -1.14182 1.7067 -0.286306 -0.595152 0.331993 1.15629 -0.590364 0.646596 3.0686 -2.50507 -0.790315 0.489073 0.432206 -1.49638
76 0.0707797 0.508153 -0.222076 0.562035 -0.500338 -0.125805 -0.206287 0.140401 0.391983 0.225957 0.0726422 0.231041 0.151895 0.729946 0.00565043 0.18459 -0.113919 0.525118 0.494445 -0.0453191 -3.39816e-05 0.11067 -0.272315 -0.0628285 -0.128574 -0.218962 0.0209374 -0.124654 0.00309535 0.0240169 0.214321 -0.0346516 -0.0241931 -0.100627 -0.377704 0.12889 0.135037 -0.138441 -0.189198 0.113253 -0.018476 -0.0633619 0.123321 -0.29408 -0.666372 -0.00456707 0.202191 0.00927858 0.340685 1.00994 -1.03971 1.61831 -0.274012 -0.544866 0.256163 1.13568 -0.550347 0.670103 3.08791 -2.40782 -0.686505 0.459431 0.502782 -1.44154
18 0.0472755 0.23533 -0.254835 0.650976 -0.618536 -0.178954 -0.170857 0.0857507 0.194194 0.122883 0.019828 0.258326 0.0916612 0.605388 0.00241001 0.145214 -0.209117 0.725131 0.41958 -0.0976301 -0.144017 0.210863 -0.255481 -0.0791092 -0.226949 -0.347457 -0.00701551 -0.129756 -0.00275451 0.0547241 0.232616 -0.0998229 -0.0585363 -0.115605 -0.517924 0.165768 0.068213 -0.137037 -0.174495 0.181563 -0.0480135 -0.216944 0.118658 -0.25011 -0.535818 0.00853409 0.15126 -0.0142583 0.290158 0.845606 -1.12366 1.72378 -0.259746 -0.526152 0.310676 1.25005 -0.601923 0.747841 3.2662 -2.54037 -0.666932 0.378053 0.509477 -1.59775
94 -0.0554686 0.0329834 -0.264964 0.686299 -0.254427 -0.122137 -0.166064 0.095144 0.440454 0.211104 0.0639133 0.444474 0.0704267 0.562937 -0.0418661 0.271381 -0.287001 0.667297 0.506567 -0.0923865 0.0256525 0.0604521 -0.230882 -0.0371817 -0.324247 -0.479349 0.0201314 -0.119695 0.104431 0.0179376 0.268511 -0.0192926 -0.0939936 -0.147675 -0.53209 0.21172 -0.0383931 -0.165967 -0.23455 0.214499 -0.0769481 -0.175124 0.0317073 -0.170396 -0.516775 0.102618 0.134296 0.00219803 0.317991 0.957381 -1.05098 1.59982 -0.321385 -0.561844 0.245047 1.18343 -0.578438 0.718537 2.97164 -2.31852 -0.787652 0.390763 0.538138 -1.79644
98 0.115568 0.26761 -0.330976 0.671341 -0.326125 -0.153239 -0.227203 0.204614 0.367962 0.252964 0.0817565 0.306522 0.180592 0.682476 0.0146744 0.132383 -0.198354 0.749482 0.679707 -0.0388553 -0.136579 0.305782 -0.266524 -0.0940634 -0.269127 -0.503667 0.00689411 -0.121856 -0.11282 0.0616411 0.343773 -0.0770187 -0.0807882 -0.157406 -0.615463 0.338925 0.059418 -0.0268749 -0.183144 0.117462 -0.0970987 -0.141078 0.103014 -0.158633 -0.43458 -0.0513458 0.170801 -0.0931067 0.379104 0.921954 -0.967649 1.56324 -0.203705 -0.456857 0.250065 1.08573 -0.446077 0.653571 2.9717 -2.32277 -0.637104 0.37236 0.352246 -1.451
31 0.0647222 0.320883 -0.30042 0.555759 -0.417285 -0.17057 -0.307764 0.202407 0.415286 0.316225 0.0229722 0.245259 0.179071 0.616187 -0.0110447 0.121146 -0.245999 0.683075 0.631062 -0.0555125 -0.0892681 0.274882 -0.31081 -0.0961137 -0.256504 -0.450736 0.0476474 -0.145924 -0.0268456 0.02148 0.344759 -0.121913 -0.105074 -0.110813 -0.669587 0.346863 -0.0114128 -0.100513 -0.250567 0.19506 -0.0896491 -0.247273 0.147723 -0.153168 -0.711065 0.072884 0.154438 -0.0430937 0.349677 1.03146 -1.10262 1.70665 -0.259454 -0.534376 0.212571 1.10944 -0.537688 0.69125 3.1574 -2.49989 -0.753116 0.353599 0.415057 -1.55489
36 0.0152233 0.0460782 -0.161835 0.504728 -0.290578 -0.126002 -0.411618 0.312235 0.653937 0.339676 0.0824612 0.370907 0.175517 0.68457 -0.0266354 0.213055 -0.183006 0.649492 0.55092 -0.0193623 -0.00258818 0.0509252 -0.234002 -0.0668333 -0.237114 -0.501741 0.00885375 -0.0491218 0.067697 -0.00165421 0.209543 -0.042025 -0.0378354 -0.201826 -0.559313 0.267436 0.0607481 -0.0783395 -0.154891 0.120577 0.000890977 -0.159822 0.0959481 -0.240213 -0.557758 -0.0501788 0.142326 -0.0273625 0.436141 1.10063 -1.0866 1.61782 -0.284004 -0.558618 0.266245 1.1447 -0.537863 0.708072 2.77134 -2.25981 -0.6859 0.456993 0.433003 -1.57755
68 0.0101558 -0.0107204 -0.240946 0.507863 -0.484591 -0.141578 -0.40436 0.37676 0.530753 0.385896 0.0584509 0.28232 0.21604 0.610751 0.00510528 0.0407 -0.101679 0.456589 0.567361 0.0464775 -0.123165 0.176071 -0.0857819 -0.0860712 -0.0810181 -0.278972 0.0150048 -0.0497622 -0.0801861 -0.0262077 0.20639 -0.10836 -0.0500702 -0.182289 -0.415379 0.216133 0.0621526 0.0607063 -0.0466219 0.0522473 -0.039578 -0.108485 0.128067 -0.275966 -0.644611 -0.182226 0.141019 0.0028905 0.460517 1.0591 -0.898919 1.54084 -0.196825 -0.457912 0.30294 1.24411 -0.506465 0.797625 3.03564 -2.31347 -0.697197 0.44496 0.482116 -1.56778
67 0.02149 0.307106 -0.207376 0.495787 -0.597025 -0.13141 -0.3074 0.23968 0.48001 0.31102 0.0273228 0.330026 0.211258 0.719227 0.00851618 0.108146 -0.13231 0.603873 0.48381 0.00499401 -0.0752858 0.197685 -0.197946 -0.0949579 -0.0936012 -0.22594 0.00973467 -0.13245 -0.0529383 0.0125929 0.267093 -0.0587925 -0.0451173 -0.141734 -0.378681 0.141048 0.12358 -0.0922806 -0.22546 0.201249 -0.120766 -0.221093 0.134669 -0.270909 -0.718605 -0.0585361 0.183958 0.038781 0.35513 1.05216 -0.971193 1.584 -0.288164 -0.549839 0.326009 1.29637 -0.598816 0.767724 3.17713 -2.44313 -0.707768 0.437787 0.534575 -1.52052
48 0.147898 0.395216 -0.287169 0.456554 -0.215572 -0.105051 -0.302236 0.284787 0.42664 0.314396 0.0667897 0.350863 0.198642 0.569847 0.0467904 0.194679 -0.0935247 0.734795 0.643782 0.0281394 -0.111513 0.310551 -0.277721 -0.197762 -0.203518 -0.435894 -0.105966 -0.155156 -0.234368 0.104588 0.334452 -0.0348483 -0.178566 -0.193705 -0.559622 0.250153 0.179078 -0.0473331 -0.259565 0.181129 -0.203983 -0.412165 0.204858 -0.166446 -0.745741 -0.172655 0.137144 -0.0669049 0.321698 1.06181 -0.933629 1.49517 -0.238923 -0.423775 0.24216 1.09624 -0.417547 0.635378 3.12657 -2.41338 -0.586468 0.327161 0.394908 -1.49836
4 0.0697314 0.186858 -0.263902 0.532279 -0.100388 -0.089165 -0.352065 0.28702 0.596826 0.310898 0.101503 0.340236 0.132262 0.491734 0.0304586 0.0259932 -0.072842 0.459824 0.39879 -0.0037392 -0.123674 0.240477 -0.32664 -0.180157 -0.109732 -0.348097 0.0310359 -0.017767 -0.111151 0.0547611 0.287228 0.0216487 -0.0474818 -0.265329 -0.453557 0.28424 0.181575 -0.0569485 -0.26222 0.152952 -0.254358 -0.337131 0.260767 -0.168285 -0.676553 -0.13668 0.160461 -0.123346 0.339369 0.951051 -1.00631 1.51968 -0.271497 -0.542621 0.361162 1.26803 -0.441233 0.760724 3.1286 -2.57681 -0.706743 0.465901 0.375125 -1.73875
21 0.240486 0.258009 -0.342264 0.715572 -0.443682 -0.134446 -0.374115 0.328766 0.303139 0.213555 0.0294016 0.33467 0.228732 0.482219 0.0374949 0.0993833 -0.0617889 0.790439 0.540639 0.0509641 -0.253995 0.35679 -0.210352 -0.214859 -0.192636 -0.496802 -0.187785 -0.0930107 -0.273307 0.106594 0.24289 -0.0914457 -0.103481 -0.215201 -0.48651 0.259203 0.149962 0.0378299 -0.192308 0.226096 -0.161062 -0.432887 0.114438 -0.145186 -0.444091 -0.271074 0.103979 -0.0836816 0.423934 0.974585 -0.957295 1.60008 -0.192997 -0.452285 0.321877 1.10256 -0.421308 0.669817 3.0596 -2.39054 -0.607265 0.328889 0.403505 -1.56649
56 0.271768 0.580323 -0.32958 0.697954 -0.426978 -0.192185 -0.42562 0.356613 0.477359 0.261333 0.0837026 0.309439 0.173525 0.505769 0.0653621 0.169935 0.00451797 0.583989 0.321683 0.0537684 -0.057345 0.176954 -0.185022 -0.115127 -0.143519 -0.33276 -0.120203 -0.0810909 -0.17539 0.0932499 0.331202 0.0168908 -0.116996 -0.249193 -0.49288 0.287109 0.190379 -0.0430165 -0.218939 0.132265 -0.0975416 -0.327662 0.170273 -0.150499 -0.491084 -0.212492 0.143084 -0.134437 0.384223 1.08725 -1.00936 1.50586 -0.23374 -0.504771 0.272959 1.08706 -0.451197 0.686795 3.18972 -2.57579 -0.717182 0.483703 0.38301 -1.72132
8 0.226958 0.431026 -0.384602 0.820776 -0.383422 -0.143902 -0.429139 0.325988 0.416343 0.296287 0.0453425 0.221513 0.2367 0.636473 0.0347341 0.104892 -0.0349113 0.584759 0.446561 0.0275233 -0.113682 0.191267 -0.182326 -0.0612987 -0.0824181 -0.213565 -0.0310854 -0.075985 -0.0974221 0.0536453 0.371728 0.0143114 -0.0762678 -0.250628 -0.532318 0.322173 0.178569 0.00419261 -0.214166 0.140783 -0.133977 -0.319109 0.15745 -0.19243 -0.545428 -0.178171 0.20981 -0.151498 0.482544 1.13908 -1.11705 1.72964 -0.262007 -0.577368 0.320331 1.21507 -0.519154 0.760618 3.10662 -2.52881 -0.653734 0.488892 0.33168 -1.59336
46 0.0804822 0.342999 -0.144258 0.498001 -0.496769 -0.106362 -0.325229 0.193591 0.313131 0.166855 0.0045076 0.175153 0.189672 0.635245 -0.0127289 0.0734188 -0.109194 0.54909 0.519766 0.0128773 -0.149582 0.24892 -0.272386 -0.125928 -0.152755 -0.39345 0.00473293 -0.170921 -0.0296326 -0.0274326 0.221862 -0.0740967 -0.000687342 -0.113884 -0.297522 0.144344 0.0845756 -0.053503 -0.212224 0.220672 -0.112039 -0.157695 0.105027 -0.240775 -0.627536 -0.054593 0.179888 0.0183942 0.409638 0.985576 -0.930065 1.58364 -0.307737 -0.60887 0.355093 1.35011 -0.690411 0.809147 3.14552 -2.4135 -0.771765 0.489282 0.501993 -1.55052
44 0.206287 0.464334 -0.270207 0.791554 -0.125717 -0.107543 -0.38785 0.257036 0.575673 0.188942 0.12579 0.453552 0.0691722 0.482184 0.0820032 0.187465 -0.0461684 0.554859 0.328174 0.03045 0.0181022 0.0488314 -0.18948 -0.0456185 -0.214569 -0.497389 -0.0483562 -0.059385 -0.00763042 0.0592984 0.259671 0.0475444 -0.0739418 -0.281175 -0.505294 0.350465 0.191093 -0.151301 -0.216748 0.154086 -0.0748834 -0.217219 0.146808 -0.173717 -0.39624 -0.133748 0.145008 -0.155153 0.343904 0.942306 -0.983186 1.34262 -0.209231 -0.552695 0.338931 1.0825 -0.498775 0.653234 2.87797 -2.4429 -0.834964 0.609985 0.363818 -1.68267
35 0.0262349 -0.0264313 -0.203286 0.364407 -0.194488 -0.0860111 -0.271257 0.147858 0.223956 0.175956 -0.00598581 0.306451 0.0591761 0.409338 -0.0321886 0.0636915 -0.138107 0.369705 0.379944 -0.026089 -0.0429612 0.0760404 -0.154498 -0.0405235 -0.242736 -0.377692 -0.070228 -0.107844 -0.0453835 0.0627146 0.204747 0.00203881 -0.12637 -0.143612 -0.60395 0.273359 -0.014462 -0.0328906 -0.0928651 0.163249 -0.0855769 -0.316218 0.0644979 -0.223786 -0.52632 -0.0957965 0.114706 -0.022239 0.271222 0.719906 -0.92416 1.53 -0.198855 -0.466666 0.291934 1.20777 -0.527145 0.812501 3.13671 -2.43768 -0.609888 0.380973 0.437646 -1.59353
79 0.084425 -0.135173 -0.121893 0.386886 -0.458023 -0.131132 -0.394288 0.35083 0.374843 0.220577 0.0195686 0.24177 0.2375 0.615604 0.0333624 0.0629258 -0.114746 0.649001 0.530012 0.0520369 -0.213545 0.215712 -0.00808724 -0.0882381 -0.0979126 -0.365983 -0.0731964 -0.00470654 -0.141094 0.0287301 0.10642 -0.199626 -0.0451951 -0.0878755 -0.255806 0.133523 0.0616667 0.0524749 -0.0265736 0.0417856 0.0391325 -0.162496 0.0826383 -0.180436 -0.407138 -0.227214 0.0702742 -0.0302875 0.443139 0.890135 -0.887241 1.56085 -0.191078 -0.415572 0.346893 1.05616 -0.427096 0.649529 2.98553 -2.32655 -0.652331 0.359262 0.470035 -1.68273
50 0.0901596 0.249932 -0.136906 0.433715 -0.510584 -0.0941211 -0.337958 0.274427 0.368269 0.16222 -0.0129236 0.256116 0.148175 0.530535 0.00162303 0.109041 -0.143806 0.737306 0.410245 0.0370592 -0.121866 0.239496 -0.152427 -0.126473 -0.0543585 -0.346782 -0.0369605 -0.0934949 -0.041061 0.0072307 0.198844 -0.174807 0.00662805 -0.0763489 -0.278576 0.073319 0.0781599 -0.071812 -0.116139 0.0814707 0.0194463 -0.123269 0.143069 -0.198508 -0.561873 -0.0911795 0.0944837 0.0563072 0.340175 0.836912 -0.884971 1.4865 -0.234599 -0.469882 0.354423 1.15989 -0.498786 0.605665 3.09929 -2.3855 -0.730424 0.39419 0.568556 -1.69078
0 0.023156 -0.030637 -0.142804 0.347601 -0.252039 -0.0725635 -0.409508 0.356842 0.409197 0.239792 0.0857369 0.254245 0.202479 0.587558 0.0699887 -0.00688606 -0.0480774 0.385637 0.358137 0.0844785 -0.117668 0.138271 -0.128911 -0.14676 -0.0705457 -0.260305 -0.0297417 0.00426372 -0.0814448 -0.00984775 0.0439296 -0.0980613 -0.0409265 -0.164816 -0.281852 0.17144 0.117047 -0.000196067 -0.0916555 0.0651658 -0.0554447 -0.254539 0.152518 -0.198354 -0.527467 -0.194631 0.0873728 -0.0208625 0.373625 0.868092 -0.930458 1.53251 -0.210627 -0.501201 0.33767 1.14248 -0.414087 0.692823 2.9654 -2.3399 -0.658676 0.390527 0.518566 -1.76466
15 0.0856864 0.188119 -0.223983 0.576175 -0.252686 -0.0882219 -0.157811 0.170787 0.391775 0.237014 0.0913237 0.373515 0.0539153 0.307945 -0.0791084 0.254949 -0.185436 0.76886 0.656999 -0.073907 -0.0828831 0.20257 -0.199278 -0.0786899 -0.21129 -0.389621 -0.0540455 -0.116335 -0.0467459 0.00889842 0.295011 -0.0435728 -0.0379919 -0.188532 -0.39765 0.171156 0.0495933 -0.0378918 -0.180906 0.137863 -0.080301 -0.114013 0.0523729 -0.161718 -0.374254 -0.0260232 0.144961 -0.0318113 0.400093 0.966586 -1.038 1.65834 -0.255916 -0.45187 0.208362 1.06093 -0.451212 0.602119 2.98288 -2.27067 -0.737068 0.371722 0.434815 -1.48592
60 0.100645 0.384968 -0.146806 0.589783 -0.305117 -0.067522 -0.203714 0.0978291 0.385337 0.191538 0.0293899 0.222085 0.189239 0.669332 -0.0505647 0.218455 -0.216478 0.839504 0.620712 -0.0918849 -0.0721394 0.141089 -0.271283 -0.0741484 -0.143103 -0.31386 0.054509 -0.0687128 0.0609694 -0.0114482 0.158179 -0.103883 0.0268056 -0.0910696 -0.403931 0.167996 0.0839271 -0.0979128 -0.183619 0.120668 0.00956676 -0.0644956 0.113879 -0.223098 -0.534297 0.0641773 0.172262 -0.0233729 0.380348 0.932616 -1.10996 1.64792 -0.282231 -0.536198 0.259847 1.10062 -0.580912 0.593376 2.95406 -2.41096 -0.747491 0.442245 0.443444 -1.43308
20 0.201908 0.326396 -0.345316 0.595401 -0.364332 -0.19583 -0.405832 0.362638 0.494046 0.350125 0.0814448 0.369312 0.209291 0.589193 0.00548454 0.217681 -0.0589173 0.771248 0.649359 0.0356725 -0.0853795 0.259707 -0.195007 -0.162647 -0.230277 -0.422257 -0.189254 -0.131743 -0.244437 0.0993869 0.341333 -0.0539267 -0.19191 -0.235002 -0.560911 0.313943 0.113093 -0.000729472 -0.241513 0.184112 -0.196187 -0.5219 0.186845 -0.158007 -0.66202 -0.212973 0.104546 -0.125684 0.409349 1.22906 -1.00709 1.59093 -0.197266 -0.370759 0.214685 0.992839 -0.341394 0.638853 3.09448 -2.37918 -0.611217 0.282808 0.387399 -1.57357
96 0.220344 0.435146 -0.340566 0.670337 -0.414606 -0.168614 -0.364656 0.294853 0.420345 0.316671 0.0422093 0.290014 0.201457 0.574016 -0.020972 0.1498 -0.109478 0.683979 0.69701 -0.0108782 -0.171458 0.334174 -0.263834 -0.179031 -0.235736 -0.460185 -0.112049 -0.124629 -0.173648 0.0616619 0.298003 -0.075727 -0.130915 -0.19504 -0.541282 0.289484 0.0794541 0.0255865 -0.184413 0.162361 -0.154973 -0.370791 0.134713 -0.155107 -0.590431 -0.152402 0.126677 -0.100214 0.418833 1.07587 -0.990152 1.6194 -0.210044 -0.425507 0.225446 1.00701 -0.408227 0.648944 2.83225 -2.19795 -0.614826 0.313675 0.381095 -1.4578
75 0.00837719 0.306443 -0.18549 0.430295 -0.567027 -0.151191 -0.301225 0.243023 0.452661 0.257874 0.0601165 0.285555 0.165868 0.710419 0.00745567 0.126381 -0.145848 0.559735 0.490041 0.00355499 -0.0377288 0.182625 -0.277881 -0.110834 -0.166715 -0.342449 1.9191e-05 -0.162045 -0.0416567 0.02119 0.292152 -0.0291018 -0.0426503 -0.118656 -0.424205 0.14534 0.107384 -0.113106 -0.236912 0.189799 -0.0837941 -0.146038 0.116158 -0.257132 -0.689477 -0.0179371 0.186419 0.0371057 0.333334 1.04021 -0.941011 1.52631 -0.300168 -0.569072 0.325131 1.32789 -0.621562 0.790632 3.29111 -2.52247 -0.687775 0.436326 0.511691 -1.50816
51 0.237671 0.38932 -0.321973 0.784186 -0.189905 -0.10281 -0.325215 0.277304 0.442393 0.212582 0.0715334 0.258689 0.119024 0.307551 -0.0348357 0.173314 -0.116357 0.69855 0.735056 -0.00695079 -0.143546 0.299406 -0.147688 -0.0743841 -0.186355 -0.487345 -0.0622804 -0.108071 -0.102248 0.0245629 0.298232 -0.0696908 -0.0709208 -0.225091 -0.41365 0.278602 0.0966529 -0.0166931 -0.273253 0.230554 -0.166885 -0.292348 0.121143 -0.131834 -0.357301 -0.0743564 0.107278 -0.127648 0.458246 1.04243 -0.87759 1.4408 -0.243334 -0.450172 0.311435 1.1016 -0.489773 0.649389 3.01706 -2.40187 -0.80526 0.450655 0.409169 -1.57478
66 0.207254 0.409394 -0.297144 0.791106 -0.421357 -0.159811 -0.494571 0.32687 0.537781 0.251451 0.0611388 0.356766 0.132881 0.656288 0.00896382 0.142766 -0.145349 0.656448 0.513562 -0.0444254 -0.16618 0.221947 -0.329484 -0.107137 -0.294396 -0.631465 -0.035203 -0.130663 -0.0645246 0.0598977 0.14462 -0.0641507 -0.0430212 -0.0999129 -0.45215 0.206915 0.101067 -0.106456 -0.1456 0.186446 -0.0534346 -0.193752 0.134941 -0.240337 -0.452266 -0.108262 0.122777 -0.0660059 0.324933 0.746639 -0.887068 1.37452 -0.232049 -0.506065 0.298268 1.1001 -0.570698 0.715418 2.92301 -2.32456 -0.655198 0.484143 0.371401 -1.45755
34 0.25481 0.439318 -0.314482 0.828901 -0.485321 -0.187368 -0.462255 0.368724 0.502204 0.221963 0.0964846 0.388768 0.121247 0.53252 0.0736907 0.205378 -0.0731703 0.598781 0.387949 0.0242813 -0.0792454 0.154483 -0.204502 -0.0791128 -0.227881 -0.565812 -0.0935387 -0.0857525 -0.092826 0.0789894 0.269962 -0.0507804 -0.0891652 -0.208994 -0.558915 0.284154 0.17018 -0.10287 -0.206583 0.15743 -0.0224658 -0.215358 0.0999906 -0.180252 -0.393559 -0.172135 0.110334 -0.0942947 0.335364 0.857728 -0.893569 1.28954 -0.203269 -0.508929 0.288702 1.06486 -0.508655 0.663279 2.97986 -2.42681 -0.750705 0.542203 0.37908 -1.63189
82 0.0763957 0.243481 -0.240066 0.590126 -0.455051 -0.150565 -0.360632 0.180727 0.381202 0.269012 -0.0149866 0.249598 0.190229 0.601105 0.00452345 0.165736 -0.263239 0.666413 0.613404 -0.0659219 -0.125359 0.225472 -0.281045 -0.068344 -0.264454 -0.551731 0.0520525 -0.117082 0.0428154 0.000539713 0.266523 -0.184609 -0.0784472 -0.104384 -0.645805 0.324724 -0.00581454 -0.120309 -0.228773 0.180771 -0.0234572 -0.200767 0.11183 -0.178531 -0.669658 0.0441391 0.178175 -0.0421995 0.403292 0.992953 -1.07396 1.62905 -0.28405 -0.578291 0.226194 1.07604 -0.613971 0.656808 2.91286 -2.37017 -0.775078 0.422973 0.378104 -1.51687
59 0.159446 0.464164 -0.402225 0.863965 -0.445567 -0.175299 -0.447695 0.337194 0.540854 0.295778 0.0569851 0.304946 0.128856 0.56745 0.0771141 0.0939192 -0.0758281 0.469392 0.362362 0.00620536 -0.0402709 0.117485 -0.251227 -0.0959197 -0.160899 -0.389433 -0.0161296 -0.10759 -0.060184 0.0659579 0.339891 -0.044366 -0.0968625 -0.196847 -0.523804 0.267238 0.143508 -0.110148 -0.229971 0.170185 -0.0972704 -0.255059 0.207273 -0.210229 -0.575075 -0.115224 0.178236 -0.0883277 0.381329 1.09198 -0.996413 1.54447 -0.273711 -0.566038 0.285509 1.2039 -0.551248 0.760527 3.26313 -2.608 -0.698533 0.486861 0.416944 -1.67729
43 0.214477 0.371594 -0.353178 0.728502 -0.117907 -0.117976 -0.425938 0.296221 0.582059 0.315069 0.0523661 0.343552 0.157562 0.45055 -0.0217378 0.13711 -0.0807955 0.642623 0.514065 0.0133146 -0.0345929 0.11637 -0.195613 -0.0832324 -0.200187 -0.399288 -0.099899 -0.103237 -0.0739504 0.0401056 0.303294 0.0143176 -0.0902465 -0.233552 -0.453119 0.315382 0.0702746 -0.00799991 -0.231671 0.19566 -0.180024 -0.415253 0.148745 -0.105672 -0.433326 -0.116295 0.129143 -0.143894 0.420868 1.1009 -1.02806 1.62426 -0.242511 -0.467096 0.228176 0.950798 -0.364471 0.596176 2.86849 -2.34101 -0.695387 0.363689 0.358051 -1.67361
91 0.24475 0.455146 -0.296839 0.651214 -0.335183 -0.123055 -0.440476 0.345435 0.434866 0.221719 0.0603247 0.265423 0.159505 0.666944 -0.028285 0.0839494 -0.133376 0.653938 0.609054 -0.0130417 -0.21258 0.336113 -0.346684 -0.171108 -0.28864 -0.680982 -0.0476196 -0.144985 -0.159743 0.0749748 0.209643 -0.0660614 -0.0787205 -0.114547 -0.553219 0.244338 0.108182 -0.0268517 -0.146384 0.186948 -0.114098 -0.285339 0.160211 -0.241372 -0.522118 -0.144937 0.117188 -0.0807774 0.355629 0.766157 -0.834298 1.42412 -0.202615 -0.423283 0.321467 1.15586 -0.517251 0.738639 3.10681 -2.427 -0.595614 0.446359 0.391798 -1.4342
78 0.119555 0.0625919 -0.215583 0.566333 -0.442007 -0.131215 -0.413207 0.348856 0.408281 0.260748 0.0145315 0.281625 0.154674 0.505457 -0.0296156 0.0735872 -0.128598 0.669156 0.591723 0.0136968 -0.256584 0.322532 -0.14667 -0.121104 -0.180553 -0.467641 -0.0594711 -0.0878024 -0.1049 0.035934 0.120778 -0.127985 -0.0327712 -0.0960078 -0.382583 0.149507 0.0352538 0.053988 -0.00259619 0.078234 -0.017187 -0.146517 0.0902101 -0.225593 -0.428577 -0.183913 0.0637921 -0.012142 0.37318 0.765117 -0.80438 1.4253 -0.195022 -0.399274 0.346294 1.14192 -0.502409 0.737028 3.0326 -2.31446 -0.633989 0.39976 0.437606 -1.56114
24 0.179309 0.469248 -0.320249 0.534895 -0.404111 -0.18411 -0.437348 0.370225 0.460197 0.299349 0.0734179 0.230346 0.233947 0.849963 -0.0288276 0.166749 -0.145494 0.719313 0.585058 -0.00785346 -0.0771608 0.208638 -0.255404 -0.148294 -0.154829 -0.324744 -0.0381438 -0.0693424 -0.128305 0.0472217 0.215872 -0.0479718 -0.12461 -0.167984 -0.526055 0.240841 0.0902958 -0.019306 -0.144169 0.0894328 -0.126886 -0.336934 0.218719 -0.240398 -0.758571 -0.141089 0.139155 -0.0956383 0.412507 1.0378 -1.03921 1.68117 -0.2216 -0.42586 0.223119 1.06211 -0.368627 0.657477 2.79959 -2.17608 -0.619303 0.382089 0.401758 -1.47963
64 0.0963387 0.0844739 -0.317774 0.527405 -0.430813 -0.143111 -0.438782 0.477109 0.459378 0.350765 0.134779 0.26721 0.330198 0.841106 0.118041 0.0666922 -0.0894381 0.645444 0.627929 0.10665 -0.134977 0.239239 -0.104821 -0.158438 -0.0552092 -0.248876 -0.0280006 -0.00819392 -0.29886 0.0605765 0.2991 -0.119206 -0.100326 -0.203751 -0.391527 0.247831 0.156857 0.0946747 -0.142544 0.034373 -0.132281 -0.231823 0.120163 -0.147624 -0.543553 -0.286964 0.158216 -0.0725406 0.455091 1.09525 -0.882459 1.51597 -0.172547 -0.417822 0.243064 1.03977 -0.293081 0.64242 2.95939 -2.30087 -0.594417 0.36364 0.389385 -1.56373
26 0.202464 0.467434 -0.381862 0.692897 -0.486205 -0.187778 -0.474041 0.390848 0.47468 0.343091 0.0632492 0.26694 0.221098 0.768714 -0.0422564 0.143334 -0.144993 0.682007 0.734584 0.00964393 -0.1464 0.307107 -0.242754 -0.161541 -0.154254 -0.363088 -0.023387 -0.0747502 -0.123687 0.0223877 0.221624 -0.0978072 -0.104473 -0.158034 -0.521034 0.252022 0.0655487 0.0101671 -0.10557 0.0839323 -0.0951191 -0.298935 0.200462 -0.253397 -0.678786 -0.15465 0.130646 -0.0737505 0.42152 1.00593 -1.05096 1.72411 -0.198426 -0.416478 0.25649 1.09334 -0.40519 0.6851 2.89487 -2.25284 -0.684291 0.423421 0.43523 -1.57341
53 0.0228171 0.278526 -0.114617 0.41279 -0.378889 -0.057088 -0.320711 0.151873 0.402943 0.25277 -0.00947884 0.227841 0.171675 0.70993 -0.066235 0.122903 -0.229875 0.754766 0.592169 -0.0543605 -0.109378 0.207568 -0.370636 -0.0654683 -0.211262 -0.380137 0.0754061 -0.201607 0.0187268 -0.0282873 0.355043 -0.0739032 0.0129189 -0.105623 -0.559856 0.257528 0.0283992 -0.0907675 -0.268011 0.261438 -0.10766 -0.17379 0.059265 -0.172631 -0.554567 0.101969 0.180422 0.0280623 0.329351 0.790188 -0.929065 1.519 -0.276207 -0.563287 0.268545 1.15994 -0.601693 0.656086 2.81754 -2.203 -0.696466 0.374356 0.404362 -1.34827
74 0.245973 0.541654 -0.309001 0.712097 -0.53275 -0.237635 -0.358132 0.311428 0.475879 0.277533 0.0857711 0.350787 0.179776 0.452416 0.0296508 0.253398 -0.0131148 0.736487 0.455846 0.0339868 -0.0891693 0.26438 -0.197631 -0.164337 -0.201061 -0.396411 -0.184314 -0.113021 -0.197244 0.0970837 0.334923 -0.00384148 -0.1407 -0.271788 -0.504616 0.275808 0.185538 -0.0442704 -0.254297 0.190119 -0.158755 -0.390655 0.162623 -0.14932 -0.565233 -0.191232 0.117921 -0.126313 0.404078 1.20943 -1.03371 1.533 -0.247346 -0.489001 0.260268 1.09038 -0.480221 0.684343 3.02918 -2.38238 -0.682423 0.386607 0.394076 -1.56468
77 0.207992 0.336187 -0.245901 0.799277 -0.174717 -0.12766 -0.525971 0.290612 0.618419 0.216345 0.0636263 0.404542 0.0697491 0.367099 -0.067907 0.159959 -0.102775 0.770886 0.585845 -0.0210571 -0.0918732 0.172942 -0.225287 -0.0912571 -0.294411 -0.570756 -0.103208 -0.139833 -0.0366043 0.0373998 0.245308 0.0583753 -0.0379497 -0.192792 -0.424882 0.277931 0.0937637 -0.0836523 -0.216178 0.25956 -0.179876 -0.356011 0.083844 -0.15482 -0.335841 -0.0774683 0.127109 -0.143677 0.381238 0.825687 -0.886821 1.41455 -0.23414 -0.479064 0.367011 1.15147 -0.565393 0.691627 2.89624 -2.35342 -0.765695 0.519353 0.370666 -1.55952
9 0.134888 0.384389 -0.285558 0.542899 -0.374167 -0.139881 -0.385137 0.312062 0.454636 0.289425 0.0526297 0.280007 0.193501 0.764635 -0.0233011 0.151686 -0.179201 0.720845 0.576899 -0.0237507 -0.0793778 0.181929 -0.217725 -0.113624 -0.146785 -0.34471 -0.00966189 -0.0595062 -0.0613168 0.0380794 0.157505 -0.0742414 -0.0694803 -0.114849 -0.442947 0.188973 0.0738894 -0.0411378 -0.113773 0.0808993 -0.07682 -0.238235 0.160496 -0.225352 -0.584275 -0.0815277 0.0996645 -0.0406962 0.316556 0.755954 -0.855041 1.36576 -0.183159 -0.357459 0.214837 0.908239 -0.346147 0.546652 2.34106 -1.83345 -0.538184 0.339982 0.35012 -1.1831
97 0.191235 0.343064 -0.382984 0.819679 -0.430288 -0.156633 -0.507611 0.394452 0.556321 0.394142 0.0478512 0.317134 0.222847 0.559207 0.0135409 0.0907171 -0.0686837 0.549688 0.490093 0.0449182 -0.0931483 0.182535 -0.191165 -0.0680175 -0.113667 -0.277512 -0.020777 -0.0889988 -0.0856909 0.0272472 0.430553 0.000993102 -0.0775456 -0.269564 -0.556513 0.344574 0.123403 0.0121047 -0.243434 0.161108 -0.148823 -0.316092 0.107748 -0.138998 -0.508661 -0.130858 0.175244 -0.0997289 0.453805 1.07795 -1.00671 1.59062 -0.270911 -0.559982 0.311298 1.25367 -0.549537 0.818863 3.05125 -2.45721 -0.717806 0.462574 0.361307 -1.63956
55 0.210245 0.357482 -0.337005 0.641187 -0.41875 -0.135397 -0.471015 0.354211 0.319919 0.283974 0.00362438 0.148801 0.241306 0.737754 -0.0289475 0.00207433 -0.121579 0.439494 0.674379 -0.00135624 -0.252231 0.322371 -0.297578 -0.162756 -0.182672 -0.447376 0.0107327 -0.102102 -0.139425 0.0255276 0.203885 -0.141046 -0.0736855 -0.15332 -0.574697 0.28339 0.0416698 0.0724135 -0.0906532 0.106356 -0.0928894 -0.27843 0.151688 -0.247917 -0.647646 -0.182518 0.160186 -0.0443737 0.459524 0.898888 -0.901131 1.61296 -0.203303 -0.448431 0.255163 1.08658 -0.443329 0.706277 2.65809 -2.06171 -0.593505 0.388609 0.379145 -1.43606
57 0.215739 0.428867 -0.3186 0.674493 -0.422295 -0.120974 -0.432522 0.312375 0.358296 0.284697 0.00725477 0.1989 0.238822 0.757762 -0.04461 0.070096 -0.156029 0.598712 0.762901 -0.0142603 -0.235397 0.346232 -0.322295 -0.174869 -0.206008 -0.520561 0.00769236 -0.131849 -0.116226 0.00662295 0.2227 -0.126815 -0.0612456 -0.141874 -0.561336 0.269601 0.0428238 0.0380044 -0.127862 0.158042 -0.0987589 -0.239181 0.123621 -0.233086 -0.622253 -0.127664 0.145256 -0.0127586 0.426298 0.85102 -0.853218 1.52703 -0.213375 -0.434497 0.262577 1.05488 -0.460674 0.658277 2.50877 -1.92521 -0.60038 0.38035 0.386092 -1.34045
92 0.0589117 0.230738 -0.13606 0.583492 -0.422884 -0.106812 -0.3797 0.227156 0.495839 0.209726 0.0341022 0.316429 0.139157 0.58808 -0.058468 0.173565 -0.192037 0.743021 0.624726 -0.0339698 -0.147478 0.230471 -0.340127 -0.146425 -0.27499 -0.624048 -0.0248149 -0.157957 0.0374313 -0.0172115 0.190703 -0.0823578 0.00744599 -0.138599 -0.444163 0.175352 0.0508602 -0.100527 -0.209657 0.227302 -0.0418879 -0.146306 0.0813103 -0.230588 -0.56211 -0.020469 0.141448 0.0218648 0.422963 0.985373 -0.968488 1.55586 -0.320522 -0.578809 0.329925 1.26547 -0.684978 0.748672 2.83881 -2.20899 -0.750237 0.476515 0.469883 -1.48035
10 0.0460512 0.01007 -0.229246 0.425957 -0.420293 -0.132297 -0.418131 0.365329 0.504748 0.375382 0.0597039 0.316107 0.245467 0.718569 -0.0264801 0.0162907 -0.193357 0.58092 0.724388 0.00189241 -0.222772 0.325006 -0.313582 -0.148309 -0.268803 -0.54344 0.00124206 -0.125396 -0.190205 0.0251512 0.319518 -0.113358 -0.0705105 -0.144696 -0.549366 0.298558 0.00144336 0.0552997 -0.199332 0.196586 -0.132575 -0.27234 0.0544138 -0.152509 -0.54152 -0.108965 0.123108 0.00547508 0.402393 0.900853 -0.787377 1.42132 -0.216245 -0.437543 0.279302 1.12569 -0.465017 0.747197 2.72301 -2.08668 -0.569628 0.296329 0.37309 -1.40603
80 0.0774235 0.405681 -0.22736 0.565219 -0.561251 -0.104539 -0.288276 0.18256 0.34234 0.183947 -0.00938395 0.292006 0.178231 0.634975 -0.0067886 0.0866264 -0.112741 0.604767 0.48037 0.0274508 -0.133508 0.253656 -0.28325 -0.155172 -0.160708 -0.417206 -0.0556599 -0.211407 -0.0640048 0.0308236 0.233192 -0.0539547 -0.0569057 -0.105342 -0.397311 0.118735 0.110602 -0.101807 -0.236304 0.293642 -0.119826 -0.219982 0.0980835 -0.257446 -0.621163 -0.0676454 0.173408 0.0604838 0.331641 0.928215 -0.870061 1.50498 -0.287068 -0.585276 0.345254 1.27751 -0.669947 0.765907 3.16516 -2.38951 -0.712358 0.47601 0.512565 -1.44349
42 0.0967194 0.328841 -0.286075 0.616333 -0.573997 -0.144821 -0.299999 0.171199 0.207014 0.145506 -0.0308594 0.206314 0.185943 0.669239 -0.0172095 0.103254 -0.233813 0.686139 0.516745 -0.0190029 -0.138422 0.252064 -0.272987 -0.0928408 -0.25125 -0.519211 -0.00604414 -0.199332 0.00524953 0.0196122 0.265849 -0.111386 -0.0928661 -0.0733013 -0.603889 0.234349 -0.00375684 -0.0878307 -0.224349 0.260813 -0.0609469 -0.250006 0.0810313 -0.21091 -0.595065 0.0164502 0.15835 0.0243027 0.326143 0.876963 -0.925855 1.53242 -0.269506 -0.548748 0.297039 1.25709 -0.663432 0.775309 3.13355 -2.42455 -0.704675 0.414567 0.480619 -1.54886
23 0.253081 0.504356 -0.419161 0.825009 -0.524806 -0.196505 -0.506076 0.395682 0.455456 0.343785 0.0659938 0.258323 0.236936 0.739617 0.00692951 0.122763 -0.106101 0.618227 0.632483 0.027451 -0.168062 0.289831 -0.257448 -0.134581 -0.158592 -0.381088 -0.0206554 -0.0708884 -0.117339 0.0243082 0.273251 -0.0584487 -0.0828721 -0.194835 -0.534892 0.288232 0.110663 0.0139968 -0.13862 0.0846599 -0.0763507 -0.243447 0.152065 -0.217998 -0.57249 -0.171143 0.156315 -0.0857384 0.451935 1.01001 -1.04029 1.66585 -0.215275 -0.488509 0.279388 1.11859 -0.452101 0.717757 2.74287 -2.17852 -0.676439 0.466408 0.356636 -1.513
40 0.244588 0.374644 -0.471018 0.846755 -0.271289 -0.127958 -0.438426 0.384606 0.390795 0.318427 0.0516368 0.230784 0.27009 0.609166 0.0243057 0.0580878 -0.038885 0.632785 0.585775 0.0634776 -0.16203 0.273922 -0.192613 -0.14774 -0.139729 -0.351069 -0.0770668 -0.113963 -0.22923 0.0682903 0.383492 -0.0170687 -0.100795 -0.223842 -0.547155 0.338627 0.125051 0.114609 -0.183977 0.122875 -0.183523 -0.33669 0.148523 -0.128207 -0.473628 -0.240853 0.204227 -0.130418 0.516365 1.12417 -0.930889 1.66556 -0.219357 -0.454342 0.243415 1.0881 -0.378683 0.686345 3.01015 -2.34811 -0.564625 0.366941 0.305559 -1.52414
28 0.172522 0.225204 -0.299088 0.724306 -0.499748 -0.160943 -0.466264 0.362287 0.437093 0.264126 0.0613372 0.305518 0.213715 0.575478 0.0441341 0.105232 -0.0842754 0.625798 0.527206 0.0495036 -0.181868 0.273496 -0.200101 -0.0956584 -0.201699 -0.49384 -0.0547905 -0.130025 -0.13765 0.0386604 0.375298 -0.0658425 -0.0668434 -0.21307 -0.515707 0.287624 0.130014 -0.0108114 -0.226851 0.211632 -0.115542 -0.277157 0.0847822 -0.163467 -0.467506 -0.167916 0.159159 -0.0756654 0.452519 1.09758 -0.90215 1.47129 -0.248844 -0.531994 0.332517 1.19753 -0.537577 0.740389 2.94322 -2.32482 -0.659819 0.427741 0.37132 -1.5586
58 0.160638 0.322121 -0.244678 0.499289 -0.301324 -0.103823 -0.348694 0.278052 0.373943 0.244132 0.0402631 0.21796 0.221674 0.756598 -0.0227482 0.136844 -0.162481 0.730377 0.535462 -0.00387466 -0.118498 0.211879 -0.21135 -0.0980637 -0.158977 -0.355448 -0.00819696 -0.0752493 -0.101753 0.0471631 0.236911 -0.0517323 -0.0664533 -0.150317 -0.486563 0.250646 0.0902401 -0.0058362 -0.152025 0.134275 -0.112846 -0.268438 0.128887 -0.170043 -0.508676 -0.0927432 0.121383 -0.0773258 0.351631 0.809036 -0.826334 1.35558 -0.186417 -0.380436 0.247986 0.939376 -0.350062 0.541317 2.3392 -1.85139 -0.514426 0.313433 0.332735 -1.21685
2 0.125986 0.233245 -0.223758 0.399543 -0.3399 -0.116762 -0.309155 0.330046 0.498297 0.357984 0.0949858 0.349739 0.247244 0.804414 -0.0078214 0.155383 -0.224428 0.810445 0.775409 -0.0555327 -0.156868 0.300602 -0.231566 -0.174426 -0.186755 -0.419994 -0.027528 0.00873943 -0.16811 0.0766376 0.174355 -0.161643 -0.108716 -0.207582 -0.553411 0.283708 0.114453 0.00958697 -0.114851 0.0649016 -0.0704806 -0.251789 0.168083 -0.230241 -0.687833 -0.160881 0.0880843 -0.0450131 0.413255 1.00155 -1.03517 1.58534 -0.164363 -0.371905 0.250286 1.05 -0.356466 0.657086 2.97215 -2.38217 -0.660729 0.367289 0.430153 -1.4687
83 0.155009 0.299777 -0.262402 0.478045 -0.412316 -0.159355 -0.342706 0.291792 0.25299 0.180331 0.0393588 0.165481 0.249026 0.892061 0.0104486 0.153942 -0.189886 0.845496 0.502292 0.000780375 -0.12885 0.259839 -0.237455 -0.114568 -0.184 -0.382386 -0.0177535 -0.0923337 -0.127856 0.0654426 0.306565 -0.065513 -0.107517 -0.165457 -0.604295 0.288997 0.108663 -0.0265226 -0.189719 0.150511 -0.112461 -0.328495 0.172383 -0.192377 -0.647415 -0.105585 0.169486 -0.104778 0.405956 0.994905 -1.00883 1.60831 -0.224264 -0.464731 0.281993 1.19627 -0.469711 0.709219 2.88751 -2.28374 -0.606244 0.364672 0.367017 -1.48152
