493 64
380 -1.15406 1.04957 -0.153657 0.568153 0.584414 -1.49793 1.05945 0.125069 -0.555953 0.737387 -0.222565 -1.2164 0.170775 0.310762 -0.987704 -0.91978 0.454246 -0.798284 0.392953 0.122575 0.0811511 0.453358 -0.16631 -0.17199 0.0419562 0.141111 0.208759 -0.470122 0.233971 0.164504 -0.113989 -0.15949 0.575484 -0.309796 0.05306 0.0815514 0.12318 0.00462341 -0.236253 0.0794896 0.100088 0.0318119 -0.014008 -0.269116 0.296168 0.00113322 0.0163395 -0.257935 -0.0769218 -0.09375 -0.00763291 0.121139 -0.134625 0.00115453 0.00435522 -0.0762671 -0.0862277 -0.0313667 -0.182734 -0.0934888 -0.0109696 -0.0177572 -0.103352 -0.017801
169 -1.21522 1.10681 -0.157576 0.609659 0.609178 -1.53729 1.08923 0.11179 -0.576758 0.785223 -0.231362 -1.31244 0.166062 0.344863 -1.02622 -0.994614 0.485762 -0.893427 0.391163 0.138853 0.0924045 0.44438 -0.171359 -0.197148 0.0313806 0.151861 0.226495 -0.486728 0.26813 0.183236 -0.119011 -0.167925 0.618512 -0.324821 0.0429955 0.0923231 0.124036 0.0215743 -0.218209 0.0678595 0.0964289 0.0472213 -0.0101616 -0.255551 0.295324 -0.00436368 0.0297545 -0.26504 -0.080985 -0.0869415 0.00442814 0.168826 -0.159796 -0.0117708 0.0163677 -0.103002 -0.107434 -0.0321608 -0.237691 -0.112525 -0.00919387 -0.0310253 -0.114865 -0.0305051
454 -1.11498 1.01065 -0.186821 0.571737 0.585597 -1.48482 1.08684 0.137333 -0.545444 0.728215 -0.228661 -1.26953 0.18763 0.290207 -1.00972 -0.932183 0.452649 -0.819456 0.419286 0.140344 0.0783835 0.486421 -0.172368 -0.193068 0.034266 0.166088 0.221775 -0.493521 0.266013 0.176806 -0.116343 -0.170678 0.643778 -0.347208 0.0355187 0.111495 0.182394 0.00662344 -0.257017 0.119369 0.132823 0.0445656 -0.0415996 -0.293736 0.371051 -0.0141672 0.0491313 -0.253485 -0.0917184 -0.106571 -0.0440195 0.130642 -0.132956 -0.0103157 0.0666666 -0.0752635 -0.0964178 -0.0415329 -0.251877 -0.0989794 -0.0161881 0.0396673 -0.121898 -0.0300504
387 -1.10861 1.00267 -0.143136 0.557587 0.567365 -1.4652 1.05542 0.111061 -0.532266 0.742187 -0.214439 -1.25308 0.161724 0.320878 -1.00317 -0.962334 0.484461 -0.85183 0.390104 0.119623 0.0853769 0.437036 -0.178641 -0.205693 0.0309109 0.162989 0.224416 -0.486812 0.250057 0.170961 -0.0923108 -0.162312 0.606656 -0.316093 0.0150697 0.0990807 0.177752 0.0113254 -0.230428 0.0945855 0.111372 0.0501762 -0.0413535 -0.241544 0.305212 -0.0214881 0.0460055 -0.228513 -0.0833514 -0.0842602 -0.0129088 0.122033 -0.135915 -0.0154887 0.0307702 -0.0852143 -0.101411 -0.0209967 -0.232334 -0.102711 -0.00415918 0.00476622 -0.125781 -0.0326627
365 -1.06305 0.960594 -0.151686 0.571866 0.556515 -1.41526 1.00508 0.112483 -0.514942 0.703945 -0.229017 -1.22129 0.171356 0.323594 -0.949197 -0.939147 0.465282 -0.832487 0.38759 0.117228 0.0903814 0.417679 -0.166173 -0.208162 0.0321187 0.171498 0.234317 -0.494805 0.267949 0.184519 -0.100611 -0.147262 0.630916 -0.310144 0.0093846 0.109638 0.173138 0.00129591 -0.202575 0.104666 0.133188 0.0655545 -0.039982 -0.256598 0.327539 -0.000977146 0.0621042 -0.237737 -0.088364 -0.108333 -0.0286791 0.157224 -0.138287 -0.0112291 0.0581386 -0.0957058 -0.10763 -0.0398408 -0.227305 -0.10184 -0.00556536 0.0222038 -0.107071 -0.0312061
439 -1.17041 1.07812 -0.123736 0.550413 0.571322 -1.44568 1.0115 0.100164 -0.522922 0.732143 -0.225576 -1.26553 0.154732 0.326678 -0.95737 -0.935963 0.476792 -0.843317 0.360288 0.122483 0.0962624 0.420008 -0.147838 -0.207447 0.0184595 0.143831 0.221285 -0.472673 0.232316 0.17572 -0.0999889 -0.140707 0.618359 -0.306706 0.0160403 0.0935706 0.169809 0.00877709 -0.218028 0.108555 0.115516 0.0370555 -0.0404424 -0.229329 0.316658 -0.0280392 0.0434593 -0.223524 -0.0787251 -0.102121 -0.0382238 0.13039 -0.137085 -0.013441 0.043918 -0.0938889 -0.099999 -0.0224032 -0.254571 -0.102623 -0.0165169 0.0191585 -0.129818 -0.0374716
220 -1.14936 1.0677 -0.156066 0.580102 0.569315 -1.46846 1.06372 0.1104 -0.549416 0.747413 -0.219797 -1.28241 0.18173 0.326198 -1.01267 -0.963036 0.482143 -0.840352 0.422742 0.126852 0.0787528 0.45794 -0.168282 -0.195035 0.0195302 0.172651 0.234417 -0.508108 0.286075 0.200255 -0.107483 -0.177626 0.623323 -0.348247 0.0389473 0.097463 0.145798 0.00401381 -0.241467 0.0933662 0.12546 0.0535874 -0.0393838 -0.298104 0.334267 0.0110176 0.0335621 -0.265181 -0.0896635 -0.102374 0.00671335 0.15584 -0.153084 -0.00616335 0.030927 -0.0891217 -0.101881 -0.0411045 -0.22718 -0.107694 -0.0137291 -0.0175686 -0.121926 -0.0218737
57 -1.16775 1.03734 -0.146835 0.587171 0.589252 -1.51798 1.09496 0.114756 -0.570722 0.742578 -0.234879 -1.29314 0.187404 0.314769 -1.0376 -0.951656 0.475781 -0.814288 0.402171 0.11069 0.081448 0.465872 -0.161724 -0.202608 0.0502823 0.137233 0.232094 -0.524905 0.264629 0.184877 -0.117379 -0.17657 0.651893 -0.36212 0.0186197 0.100679 0.169103 0.0185387 -0.244001 0.0976535 0.132521 0.073228 -0.050966 -0.2584 0.354601 0.00693904 0.0529639 -0.270239 -0.0972373 -0.102693 -0.0248355 0.153048 -0.133014 -0.0235478 0.0630723 -0.0877968 -0.108844 -0.0453158 -0.287803 -0.109596 -0.0211276 0.0116346 -0.148846 -0.0143333
129 -1.07076 0.940301 -0.166286 0.563551 0.607709 -1.48745 1.08696 0.127874 -0.562597 0.737899 -0.2358 -1.26425 0.189043 0.302119 -1.00215 -0.905295 0.44518 -0.7835 0.418908 0.142007 0.0796506 0.494961 -0.179376 -0.210802 0.0179559 0.163592 0.238074 -0.50183 0.262149 0.194698 -0.104948 -0.181362 0.622563 -0.342002 0.020697 0.102975 0.172889 0.0112127 -0.239354 0.101831 0.11702 0.0540778 -0.0448651 -0.30986 0.38606 -0.0179928 0.0609362 -0.269065 -0.0947473 -0.112389 -0.0610268 0.150899 -0.13834 -0.00913761 0.0789855 -0.0851926 -0.121382 -0.0334815 -0.295948 -0.120031 -0.0110038 0.0291607 -0.132138 -0.0288703
221 -1.0993 0.984786 -0.157515 0.590527 0.602616 -1.48059 1.06097 0.126662 -0.544657 0.729531 -0.23171 -1.24261 0.175402 0.317603 -0.951999 -0.902937 0.446174 -0.789869 0.404454 0.146015 0.085496 0.453767 -0.178459 -0.202228 0.0205173 0.152247 0.221101 -0.470966 0.252512 0.18087 -0.101609 -0.159507 0.623035 -0.317949 0.033328 0.103696 0.167186 -0.00788329 -0.218761 0.103127 0.128849 0.0594544 -0.0548656 -0.269511 0.356243 -0.00885795 0.0649656 -0.257566 -0.0865542 -0.121366 -0.0544751 0.143501 -0.145411 -0.01963 0.080733 -0.0768747 -0.10185 -0.0306835 -0.247373 -0.0997431 -0.00730034 0.0179169 -0.105815 -0.0417309
93 -1.0608 0.968415 -0.150767 0.549411 0.579268 -1.44174 1.03684 0.112125 -0.51867 0.703992 -0.218382 -1.24042 0.176249 0.310343 -0.960608 -0.914842 0.456258 -0.796119 0.400344 0.121323 0.0786732 0.462021 -0.167413 -0.200825 0.0216712 0.155762 0.232224 -0.471549 0.253661 0.190685 -0.102414 -0.182335 0.597724 -0.313045 0.0219098 0.100533 0.15999 0.00983351 -0.220543 0.105702 0.113077 0.0430581 -0.0324319 -0.257946 0.33032 -0.0190836 0.0491069 -0.238302 -0.0681358 -0.105049 -0.0364439 0.128289 -0.147121 -0.00847523 0.0549893 -0.0827512 -0.0999019 -0.0343168 -0.244316 -0.11433 -0.0138387 0.01301 -0.116698 -0.030952
284 -1.17268 1.03396 -0.162385 0.591126 0.594042 -1.46725 1.05006 0.120145 -0.556042 0.755784 -0.225751 -1.25998 0.179517 0.318212 -0.994038 -0.960827 0.468806 -0.849809 0.406617 0.1527 0.0759322 0.482348 -0.185601 -0.20556 0.00730016 0.174039 0.223261 -0.492982 0.27544 0.187331 -0.118956 -0.181397 0.643599 -0.338818 0.0138892 0.1064 0.157225 -0.00207307 -0.234371 0.108372 0.135826 0.0762661 -0.0407903 -0.28203 0.348793 0.00321067 0.0287211 -0.257625 -0.106057 -0.0800285 -0.0179801 0.151095 -0.156307 -0.0166112 0.0438054 -0.093146 -0.11594 -0.0295019 -0.26719 -0.0884332 0.00988539 -0.00635493 -0.124591 -0.0194887
51 -1.12909 0.995232 -0.142418 0.575121 0.583036 -1.46184 1.04797 0.124179 -0.546105 0.729359 -0.212793 -1.22607 0.164512 0.300618 -0.946964 -0.911202 0.45368 -0.798781 0.389326 0.125028 0.0724361 0.45737 -0.163373 -0.204477 0.0332455 0.156471 0.207004 -0.470667 0.235035 0.167319 -0.0978655 -0.154332 0.609489 -0.315241 0.0185072 0.100209 0.161339 0.0114319 -0.211302 0.0997858 0.110465 0.0510676 -0.0427395 -0.249781 0.325689 -0.010447 0.0534991 -0.241916 -0.0976283 -0.0861237 -0.0258432 0.146761 -0.133554 -0.0152239 0.0341721 -0.0907484 -0.102953 -0.0354075 -0.247284 -0.0993901 -0.00632316 0.028714 -0.13034 -0.0185363
45 -1.11225 1.00412 -0.160976 0.578161 0.577056 -1.46425 1.07009 0.134857 -0.551195 0.753183 -0.224101 -1.26651 0.171884 0.324095 -1.00781 -0.936894 0.472204 -0.821152 0.3868 0.123011 0.083767 0.454435 -0.169702 -0.203851 0.0379888 0.154973 0.214789 -0.486077 0.248383 0.167698 -0.108607 -0.174092 0.640139 -0.342785 0.018436 0.122049 0.214131 -0.00700793 -0.259471 0.135119 0.143056 0.0576567 -0.074996 -0.280774 0.380965 -0.0106091 0.0702317 -0.265132 -0.0970414 -0.105916 -0.0522157 0.127999 -0.137651 -0.0150934 0.0820863 -0.079493 -0.107898 -0.0413093 -0.277183 -0.119043 -0.0218221 0.0440523 -0.137499 -0.0319363
435 -1.08389 1.00538 -0.159814 0.569702 0.583557 -1.44372 1.04632 0.109253 -0.53783 0.713717 -0.226313 -1.24744 0.165479 0.311234 -0.969732 -0.917001 0.465911 -0.816832 0.399281 0.120219 0.0932557 0.441124 -0.16392 -0.210943 0.00929304 0.15569 0.233139 -0.483047 0.266854 0.180916 -0.0963789 -0.171306 0.623352 -0.318441 0.023077 0.107968 0.164881 0.00303786 -0.221807 0.112496 0.134311 0.0577588 -0.0390839 -0.263663 0.337122 -0.00782596 0.0394836 -0.247915 -0.0828437 -0.0996288 -0.0276603 0.127567 -0.133976 0.00247517 0.057265 -0.0786504 -0.112874 -0.0346456 -0.227527 -0.0949017 -0.0201353 0.0209434 -0.105414 -0.0281218
490 -1.14531 1.05211 -0.15683 0.604435 0.604524 -1.54131 1.08847 0.116141 -0.572829 0.775691 -0.23331 -1.27473 0.187548 0.331393 -0.993476 -0.966961 0.466302 -0.821955 0.385803 0.12465 0.0772211 0.456614 -0.162401 -0.186601 0.0295143 0.132435 0.23804 -0.500583 0.271736 0.186103 -0.109848 -0.174908 0.607855 -0.335321 0.0353117 0.0934773 0.138673 0.0190768 -0.223495 0.0870927 0.102297 0.0527408 -0.0250098 -0.25516 0.314266 0.0155018 0.0242678 -0.253243 -0.081077 -0.107585 -0.00818681 0.150494 -0.148875 -0.00835461 0.0295627 -0.0886847 -0.0954294 -0.0329799 -0.220522 -0.101293 -0.00714933 0.00344986 -0.114638 -0.0306696
55 -1.12219 1.00155 -0.148599 0.567844 0.582825 -1.47536 1.06859 0.120353 -0.555854 0.708831 -0.242435 -1.25369 0.179611 0.313039 -1.00522 -0.918957 0.443342 -0.799509 0.404194 0.13506 0.0829654 0.474991 -0.176597 -0.186722 0.0478048 0.154073 0.225242 -0.513069 0.268027 0.199467 -0.120214 -0.180732 0.625793 -0.339183 0.0391193 0.101845 0.146488 0.0134695 -0.233919 0.0925533 0.127426 0.0509559 -0.0359173 -0.287974 0.360064 0.00943991 0.0464617 -0.266603 -0.0898171 -0.102842 -0.0105521 0.154785 -0.152663 -0.0114501 0.046705 -0.0840893 -0.114865 -0.0419093 -0.240743 -0.111889 -0.0154712 0.00763777 -0.132077 -0.0277194
462 -1.10025 0.998391 -0.154682 0.538447 0.585677 -1.47253 1.05228 0.143025 -0.532361 0.697918 -0.230168 -1.2436 0.184347 0.297056 -0.997449 -0.909323 0.44698 -0.783612 0.404513 0.123747 0.0753554 0.492204 -0.162638 -0.160961 0.0275694 0.123189 0.212748 -0.47213 0.244338 0.191269 -0.128603 -0.188249 0.585951 -0.329188 0.0395636 0.077923 0.126662 0.01841 -0.237281 0.0839902 0.120361 0.0326157 -0.0250705 -0.278441 0.326751 -0.00710087 0.0115946 -0.26091 -0.071822 -0.0967494 -0.0174128 0.122131 -0.149 -0.010109 0.0109907 -0.0780009 -0.0913037 -0.0213187 -0.223349 -0.100392 0.00336782 0.00899845 -0.131216 -0.035084
115 -1.20257 1.10322 -0.139724 0.58345 0.568682 -1.46202 1.04762 0.108902 -0.554449 0.758208 -0.225421 -1.24303 0.161516 0.337791 -0.990221 -0.948285 0.45921 -0.845925 0.354787 0.141594 0.0784703 0.403785 -0.172822 -0.188457 0.0228782 0.152109 0.222338 -0.469421 0.254649 0.173569 -0.0959141 -0.161217 0.596311 -0.312966 0.0386497 0.106531 0.134641 0.0129254 -0.228364 0.0877315 0.106539 0.0579325 -0.0211254 -0.230427 0.282838 0.00704536 0.0310406 -0.223424 -0.0773483 -0.0876453 0.00349879 0.149473 -0.143522 -0.00369916 0.0202914 -0.0813536 -0.115356 -0.0409055 -0.225075 -0.101388 -0.0135977 0.00378129 -0.112676 -0.034798
379 -1.10858 0.980728 -0.153901 0.565817 0.581178 -1.45729 1.02818 0.12288 -0.543703 0.728196 -0.221538 -1.23736 0.165625 0.30912 -0.992576 -0.937515 0.471777 -0.834273 0.413485 0.134045 0.0819208 0.45287 -0.178848 -0.210542 0.0260903 0.167152 0.232747 -0.49623 0.248701 0.172751 -0.095231 -0.160839 0.629207 -0.329664 0.0124554 0.10284 0.187985 0.000391008 -0.24326 0.101364 0.123411 0.0629472 -0.0369794 -0.281103 0.341235 -0.024584 0.0558415 -0.257745 -0.0935608 -0.111485 -0.0410188 0.119953 -0.13165 -0.0184017 0.0520287 -0.0889415 -0.0939973 -0.0183422 -0.246736 -0.104088 -0.0155141 0.0157843 -0.121399 -0.0244251
357 -1.16393 1.04818 -0.159724 0.582446 0.580583 -1.50251 1.08385 0.125367 -0.553263 0.733705 -0.234457 -1.28077 0.172803 0.320405 -1.01451 -0.956594 0.478816 -0.849246 0.411909 0.144176 0.0854229 0.461094 -0.159368 -0.209245 0.0287714 0.161489 0.232581 -0.49924 0.265379 0.185528 -0.109498 -0.168155 0.648696 -0.333309 0.0206898 0.100796 0.167976 0.00796497 -0.230222 0.109546 0.133335 0.0661105 -0.0365903 -0.25232 0.346688 -0.00698068 0.0572787 -0.241143 -0.0815829 -0.10303 -0.0284726 0.154142 -0.138802 -0.00864934 0.0553299 -0.0876336 -0.120728 -0.0502567 -0.240702 -0.110593 -0.00494144 0.00528571 -0.120769 -0.0248895
344 -1.05276 0.974816 -0.16416 0.555687 0.578699 -1.47122 1.05398 0.121589 -0.530174 0.712627 -0.234068 -1.27548 0.184703 0.306652 -1.00192 -0.955345 0.45708 -0.811017 0.430231 0.128261 0.0845788 0.494938 -0.159061 -0.195152 0.0119771 0.168018 0.233225 -0.504661 0.281737 0.195234 -0.117371 -0.191436 0.628209 -0.34861 0.0160911 0.108894 0.166794 0.00491445 -0.240756 0.111398 0.135485 0.0507944 -0.0561715 -0.299645 0.363498 -0.00805546 0.0523939 -0.25557 -0.0918197 -0.112668 -0.0391326 0.145776 -0.152524 -0.005546 0.0539366 -0.07902 -0.112248 -0.0371409 -0.245691 -0.117589 -0.0167123 0.0341395 -0.128002 -0.0271554
172 -0.527404 0.78084 -0.398961 0.689304 0.697504 -1.62854 1.37024 0.128263 -0.358664 0.518492 -0.523223 -1.54264 0.467194 0.0745224 -0.955729 -0.609236 0.415858 -0.613349 0.541235 -0.00607326 0.194088 0.564819 -0.00868345 -0.0208767 -0.052332 -0.199996 0.101238 -0.0925621 0.162525 0.323329 -0.413152 -0.416615 0.106183 -0.263923 0.472445 0.0805837 0.0943618 -0.174327 -0.182097 -0.0344084 0.04676 -0.0314948 0.368445 -0.33903 0.258784 0.132185 -0.13939 -0.307259 0.264809 -0.228194 0.0447253 0.271322 -0.208506 0.194106 0.134423 -0.0333021 0.101178 0.0179694 0.075637 -0.0979406 -0.00778472 -0.239785 0.00229882 0.0451301
38 -0.533928 0.828048 -0.453685 0.741558 0.73645 -1.748 1.45408 0.146739 -0.390196 0.564413 -0.58003 -1.63993 0.501941 0.0750812 -1.02026 -0.65957 0.456906 -0.679264 0.538356 -0.0179742 0.207186 0.59048 -0.00111007 -0.0140584 -0.0534971 -0.186864 0.113818 -0.105825 0.16376 0.353715 -0.453902 -0.446356 0.124135 -0.271287 0.488678 0.0790513 0.0829727 -0.194707 -0.196418 -0.033438 0.0449831 -0.0345044 0.3685 -0.345504 0.296799 0.147003 -0.161512 -0.312463 0.24726 -0.243093 0.0382724 0.258529 -0.215053 0.196299 0.123384 -0.0281451 0.109502 -0.00974651 0.0807198 -0.117501 -0.00502217 -0.255523 -0.00287009 0.0358535
470 -0.479637 0.738275 -0.395947 0.672474 0.6415 -1.53373 1.27054 0.12178 -0.300933 0.507192 -0.505412 -1.43795 0.447602 0.0561523 -0.880588 -0.566324 0.403523 -0.598072 0.507654 -0.0185795 0.20203 0.507918 -0.00349584 -0.0292229 -0.041967 -0.191459 0.101298 -0.0658594 0.134999 0.316259 -0.428356 -0.420874 0.113936 -0.238099 0.488775 0.0945791 0.106851 -0.205321 -0.175323 -0.0276924 0.049539 -0.00662742 0.352959 -0.309468 0.276118 0.123342 -0.145374 -0.270099 0.265401 -0.256935 0.0477939 0.278745 -0.236387 0.209383 0.128825 -0.0263007 0.12447 -0.00267201 0.082841 -0.102262 0.000465027 -0.262182 0.0116897 0.0568965
437 -0.557751 0.868462 -0.448526 0.736181 0.73492 -1.75955 1.45894 0.132799 -0.364728 0.564126 -0.598296 -1.64951 0.52426 0.0639749 -1.0456 -0.655149 0.464072 -0.686571 0.571309 -0.00596293 0.202755 0.601687 -0.010979 -0.022127 -0.0573265 -0.19912 0.140942 -0.122391 0.171456 0.375425 -0.483175 -0.47299 0.161246 -0.29052 0.527026 0.0955915 0.0872737 -0.208206 -0.203301 -0.0374179 0.0519322 -0.0176245 0.364748 -0.358274 0.31366 0.137057 -0.15409 -0.310112 0.244402 -0.270462 0.0570782 0.310963 -0.267473 0.2197 0.142201 -0.0446889 0.113662 -0.00878156 0.0552875 -0.121188 -0.00608337 -0.278324 -0.00596207 0.0465628
382 -0.538278 0.800053 -0.40362 0.703719 0.724268 -1.65972 1.38464 0.129337 -0.373628 0.541404 -0.535498 -1.58431 0.463204 0.0678407 -0.973585 -0.619808 0.432379 -0.617032 0.559038 -0.0166036 0.201609 0.580009 0.00804233 -0.0310099 -0.0557839 -0.192024 0.113284 -0.0914053 0.157005 0.357823 -0.443879 -0.449566 0.135375 -0.258162 0.486586 0.0958516 0.103221 -0.181868 -0.169937 -0.0175079 0.0610099 -0.0197253 0.364782 -0.334197 0.288165 0.136163 -0.150551 -0.298268 0.25152 -0.232428 0.0460587 0.295948 -0.255665 0.217346 0.135929 -0.0341486 0.108383 -0.00536423 0.064658 -0.115648 -0.00873717 -0.251695 0.00828163 0.0636942
204 -0.520726 0.817092 -0.438752 0.720038 0.71264 -1.68541 1.40119 0.130408 -0.364609 0.559017 -0.558845 -1.59758 0.493026 0.0667865 -0.978996 -0.635421 0.43913 -0.673919 0.551075 -0.0241798 0.21197 0.572206 0.0207292 -0.0416627 -0.0492506 -0.203282 0.116627 -0.0910153 0.16371 0.342421 -0.448223 -0.435857 0.133033 -0.265979 0.48105 0.0850678 0.104134 -0.189682 -0.182256 -0.02474 0.0478756 -0.034914 0.36464 -0.345514 0.281947 0.13348 -0.156348 -0.310081 0.249238 -0.236987 0.0482191 0.271146 -0.225139 0.200121 0.113561 -0.0315552 0.0892904 -0.00384179 0.0811337 -0.108804 -0.000884995 -0.254307 0.00394142 0.0412794
317 -0.573036 0.812611 -0.422455 0.674946 0.698215 -1.65374 1.35283 0.125769 -0.365461 0.532773 -0.546602 -1.52773 0.479085 0.0746009 -0.980411 -0.626275 0.423843 -0.640416 0.536246 -0.0025437 0.198183 0.562737 -0.00806915 -0.0213197 -0.0596027 -0.1939 0.11407 -0.102326 0.16195 0.34348 -0.45673 -0.419987 0.139013 -0.258969 0.504395 0.098708 0.109577 -0.201655 -0.193393 -0.0322324 0.0463649 -0.0223514 0.389352 -0.34514 0.305175 0.129715 -0.150219 -0.303927 0.289581 -0.285537 0.0570461 0.325994 -0.248182 0.225601 0.155868 -0.046358 0.119382 -0.00355881 0.0773069 -0.123053 -0.0102692 -0.297996 0.0152611 0.0635568
124 -0.550963 0.847496 -0.440911 0.73589 0.720865 -1.72096 1.43695 0.126478 -0.361358 0.56707 -0.564776 -1.61656 0.500025 0.0858441 -1.0073 -0.630258 0.448742 -0.668547 0.556496 -0.0131118 0.216517 0.591186 -0.0126033 -0.0369198 -0.0519982 -0.221563 0.11652 -0.092977 0.153181 0.353497 -0.461269 -0.4405 0.130958 -0.261553 0.514498 0.112477 0.138119 -0.210039 -0.197049 -0.0226194 0.053074 -0.0250641 0.377381 -0.335944 0.291324 0.134548 -0.156818 -0.325218 0.262751 -0.259371 0.052313 0.321856 -0.26947 0.221054 0.143087 -0.0524898 0.118976 0.00385881 0.0564676 -0.121505 0.00132133 -0.289374 -0.00739784 0.0476035
496 -0.529389 0.813149 -0.417772 0.697846 0.691143 -1.64556 1.37176 0.112962 -0.352804 0.54303 -0.562248 -1.54962 0.465902 0.0776737 -0.949096 -0.6017 0.425171 -0.639047 0.550276 -0.0217002 0.226851 0.56164 0.00553887 -0.0414002 -0.0504298 -0.219598 0.0946579 -0.0631376 0.139719 0.335158 -0.433731 -0.425137 0.101805 -0.22459 0.509107 0.0950823 0.112272 -0.190205 -0.154934 -0.0296937 0.0551456 -0.0216945 0.383547 -0.309928 0.276639 0.13621 -0.166048 -0.293953 0.283908 -0.248262 0.0487786 0.296795 -0.229629 0.224249 0.133869 -0.0358665 0.116391 -0.00633498 0.0814978 -0.10362 0.000760125 -0.267431 0.0113347 0.0602341
254 -0.500809 0.84151 -0.472103 0.751759 0.731102 -1.73236 1.43387 0.132053 -0.355163 0.555499 -0.59573 -1.66775 0.515248 0.0699965 -0.998724 -0.625641 0.456029 -0.669687 0.549161 -0.0112024 0.228348 0.564563 0.0226276 -0.0415561 -0.0565196 -0.195645 0.104998 -0.0789816 0.15634 0.342132 -0.457506 -0.425678 0.123618 -0.251589 0.504609 0.102239 0.0922337 -0.19885 -0.186175 -0.0322324 0.067783 -0.0196037 0.341383 -0.310402 0.276436 0.143354 -0.143559 -0.300538 0.252331 -0.23521 0.0633772 0.302826 -0.249492 0.227295 0.157232 -0.0333806 0.106604 -0.00587938 0.0757619 -0.121857 -0.00192871 -0.267423 0.00490588 0.0561843
405 -0.529723 0.793255 -0.410486 0.676604 0.69635 -1.64391 1.35667 0.124111 -0.364064 0.530994 -0.543877 -1.54878 0.465616 0.0790455 -0.970623 -0.630845 0.417101 -0.643469 0.553271 -0.00982867 0.201203 0.567384 -0.00914227 -0.0324673 -0.0661239 -0.204713 0.115169 -0.0986721 0.151218 0.339337 -0.43481 -0.417771 0.141718 -0.248868 0.465961 0.0864742 0.0852139 -0.174235 -0.16436 -0.0274193 0.0526336 -0.0399347 0.36708 -0.332064 0.297849 0.138437 -0.160879 -0.306433 0.239715 -0.257664 0.0598463 0.30147 -0.246244 0.196014 0.127379 -0.0488925 0.0791776 -0.00535719 0.0521185 -0.110058 -0.0019179 -0.266788 -0.00452526 0.045069
499 -0.488797 0.808936 -0.418227 0.722492 0.708171 -1.65012 1.37684 0.123539 -0.343697 0.522577 -0.545527 -1.61342 0.476639 0.0764836 -0.969199 -0.611868 0.444242 -0.628209 0.552256 -0.0269398 0.215125 0.549067 0.000610116 -0.0386606 -0.0655284 -0.192372 0.114517 -0.0779063 0.156362 0.364163 -0.446521 -0.455776 0.123881 -0.252728 0.526521 0.104203 0.122309 -0.217973 -0.177837 -0.0266016 0.0718919 -0.00534604 0.392653 -0.35419 0.321665 0.137951 -0.166088 -0.31119 0.282818 -0.251164 0.0645698 0.326472 -0.276709 0.224421 0.139764 -0.0413059 0.132457 0.0104364 0.0603276 -0.11451 -0.0060639 -0.293679 0.0129403 0.0630426
384 -0.520105 0.789144 -0.417847 0.683845 0.699968 -1.64167 1.37207 0.126149 -0.35675 0.537752 -0.535196 -1.56878 0.476973 0.0682487 -0.976994 -0.617305 0.424188 -0.64055 0.552056 -0.020137 0.208771 0.57314 0.00926881 -0.0267573 -0.059955 -0.202078 0.103237 -0.0936944 0.157325 0.339176 -0.438362 -0.412577 0.120125 -0.251976 0.478705 0.0905068 0.0966164 -0.17476 -0.186035 -0.0305546 0.0491303 -0.0387926 0.370173 -0.3415 0.285436 0.140185 -0.151228 -0.324193 0.259171 -0.238338 0.0443567 0.288636 -0.23234 0.203611 0.12469 -0.0304139 0.0987974 -0.00753912 0.0798906 -0.111558 -0.00777825 -0.262287 0.00302081 0.0478426
82 -0.542243 0.788572 -0.394022 0.649779 0.673217 -1.60021 1.32753 0.154489 -0.357834 0.519374 -0.4886 -1.46873 0.444317 0.0680898 -0.933032 -0.591087 0.415406 -0.589114 0.529378 -0.00492155 0.198335 0.554927 -0.000240516 -0.0160468 -0.0619643 -0.168907 0.0973882 -0.0906162 0.156215 0.32724 -0.412964 -0.406789 0.127815 -0.244018 0.468349 0.0808677 0.0895406 -0.191519 -0.17593 -0.027625 0.0572025 -0.0261913 0.355644 -0.334279 0.287415 0.124228 -0.160031 -0.282633 0.260447 -0.254533 0.0480584 0.28233 -0.256618 0.210262 0.125442 -0.0346405 0.124074 0.00206079 0.0698162 -0.107474 -0.00351527 -0.263291 0.00260482 0.0404423
288 -0.506731 0.793748 -0.423824 0.697631 0.699961 -1.63005 1.3588 0.112938 -0.336156 0.533245 -0.561135 -1.53437 0.479441 0.0523252 -0.957018 -0.594346 0.42097 -0.649156 0.536045 -0.0125357 0.219184 0.54613 0.027166 -0.0561329 -0.0543267 -0.215551 0.106254 -0.0744694 0.142018 0.342032 -0.442527 -0.418611 0.116772 -0.257355 0.493371 0.0834994 0.12537 -0.185502 -0.178096 -0.0257776 0.0603006 -0.0205686 0.363796 -0.323104 0.278477 0.129021 -0.140294 -0.274235 0.271957 -0.249384 0.0606473 0.318621 -0.229358 0.217093 0.142996 -0.0482843 0.0763255 -0.00552424 0.0473565 -0.119368 0.00343478 -0.274457 -0.00344479 0.0552985
441 -0.485865 0.800948 -0.430831 0.711259 0.721449 -1.64346 1.37792 0.120183 -0.339834 0.521982 -0.545308 -1.58996 0.470486 0.0539343 -0.945814 -0.602085 0.430187 -0.617903 0.58087 -0.0163244 0.220113 0.575004 0.00447556 -0.0400894 -0.0700577 -0.185818 0.12604 -0.0814539 0.155662 0.359536 -0.450443 -0.442743 0.129557 -0.265039 0.535675 0.100638 0.116081 -0.220184 -0.178992 -0.0360753 0.0540167 -0.0126121 0.405121 -0.360946 0.308056 0.140425 -0.171823 -0.315093 0.293521 -0.267165 0.0601287 0.29538 -0.263342 0.21595 0.153966 -0.0221333 0.13249 0.00553392 0.0709959 -0.119824 -0.00920778 -0.271196 0.0159196 0.0513923
118 -0.54218 0.856729 -0.442923 0.748677 0.741344 -1.72709 1.46186 0.133908 -0.369696 0.559893 -0.5622 -1.61762 0.488663 0.0702082 -0.980501 -0.618381 0.44565 -0.66042 0.525383 -0.0254491 0.207414 0.543974 0.00669111 -0.0387858 -0.0565329 -0.202978 0.0951071 -0.0595605 0.146879 0.351173 -0.429256 -0.433085 0.102977 -0.239675 0.487486 0.0921028 0.116435 -0.19991 -0.159701 -0.0138527 0.0757344 -0.0221043 0.374776 -0.334654 0.29896 0.152231 -0.151345 -0.296101 0.268413 -0.244822 0.050137 0.301701 -0.260679 0.204273 0.1268 -0.0507567 0.0972835 -0.019638 0.0642355 -0.114169 0.00250716 -0.294843 0.00147935 0.0489572
112 -0.533308 0.846785 -0.452492 0.749917 0.744149 -1.7585 1.45113 0.110967 -0.360458 0.564254 -0.614672 -1.65237 0.513907 0.0588956 -1.02349 -0.628927 0.446733 -0.680627 0.525667 -0.0119826 0.217937 0.540088 -0.00251294 -0.0395215 -0.0603881 -0.204396 0.134424 -0.0984358 0.152612 0.360469 -0.465212 -0.43362 0.151887 -0.262513 0.499196 0.103192 0.106434 -0.190617 -0.184886 -0.0330204 0.0502923 -0.0157299 0.361352 -0.338404 0.299486 0.122263 -0.149569 -0.29908 0.23639 -0.251876 0.0670932 0.301179 -0.262815 0.188586 0.121307 -0.0488609 0.0915197 -0.00269276 0.0178906 -0.108708 0.0029807 -0.289612 -0.00987843 0.0544485
100 -0.539795 0.827162 -0.435673 0.724905 0.716338 -1.66682 1.39751 0.114291 -0.361837 0.541395 -0.559256 -1.59662 0.502944 0.0655063 -0.977742 -0.619224 0.431058 -0.640002 0.564342 -0.00471849 0.210986 0.585862 -0.00469701 -0.0426017 -0.0614631 -0.205304 0.117334 -0.0918147 0.162908 0.347986 -0.459664 -0.446237 0.140771 -0.265925 0.506068 0.110704 0.117388 -0.198944 -0.190631 -0.0328443 0.0570309 -0.0143986 0.374882 -0.35679 0.28923 0.136775 -0.148363 -0.301748 0.259904 -0.268062 0.0489629 0.309701 -0.251774 0.216004 0.17426 -0.0354468 0.120669 0.00560381 0.0541457 -0.112698 0.00162034 -0.274003 0.0127345 0.0569896
353 -0.537036 0.809673 -0.407872 0.679529 0.710642 -1.61582 1.36989 0.142624 -0.37391 0.539755 -0.52154 -1.54089 0.473786 0.0599852 -0.976591 -0.607572 0.439451 -0.628657 0.581933 -0.014457 0.224508 0.59157 0.0219521 -0.0260678 -0.0701505 -0.217118 0.106801 -0.0794718 0.155907 0.368426 -0.46993 -0.458423 0.120194 -0.268422 0.516034 0.093464 0.116147 -0.207639 -0.185799 -0.0266631 0.0607711 -0.0289002 0.394084 -0.350959 0.306478 0.147047 -0.169119 -0.304126 0.30136 -0.263155 0.0392308 0.309864 -0.244239 0.239466 0.164129 -0.034013 0.1074 -6.32622e-06 0.0839629 -0.117475 -0.00234661 -0.279167 0.0121602 0.0609725
322 -0.681837 0.626381 -0.569993 0.364639 0.27868 -1.93103 1.56695 0.497371 -0.347027 0.630901 -0.296281 -1.16204 0.340697 0.345948 -1.32466 -0.731458 0.349363 -0.632832 0.37847 0.251524 0.058277 0.891031 -0.0928183 0.00912991 0.284744 -0.0916065 -0.207435 -0.225509 0.294888 -0.00393873 -0.20636 -0.270027 0.190361 -0.440852 0.125143 -0.143526 -0.120817 0.180675 -0.455465 -0.116906 0.0693879 0.075482 0.0175964 -0.301964 0.223611 0.0346187 -0.0667161 -0.174424 -0.0958924 -0.146942 0.0904011 0.321268 -0.110199 -0.212043 -0.328505 -0.084882 0.0221218 -0.102765 -0.194853 -0.176675 0.0708859 -0.282905 -0.306573 -0.218502
156 -0.665899 0.615303 -0.581339 0.384572 0.26933 -1.9534 1.58156 0.515831 -0.347819 0.642583 -0.295117 -1.15764 0.341055 0.366375 -1.34372 -0.752835 0.370079 -0.642717 0.368372 0.249877 0.0600566 0.887373 -0.0927282 0.00717934 0.29234 -0.0691774 -0.199253 -0.241848 0.283004 -7.96765e-05 -0.191728 -0.250525 0.182345 -0.404746 0.11773 -0.138694 -0.13611 0.177741 -0.443276 -0.110022 0.0745103 0.0676925 0.00308782 -0.317617 0.25514 0.0496622 -0.0765036 -0.18806 -0.129732 -0.160452 0.108181 0.305131 -0.116751 -0.226856 -0.34023 -0.0882694 0.0214432 -0.0985629 -0.214099 -0.187555 0.0714598 -0.311963 -0.324316 -0.236376
109 -0.652624 0.616419 -0.552223 0.365662 0.285266 -1.86684 1.5099 0.486914 -0.359645 0.614937 -0.286066 -1.13613 0.326377 0.332494 -1.28884 -0.718283 0.3508 -0.62491 0.380995 0.260426 0.0727343 0.922483 -0.0746788 0.00707346 0.26842 -0.0841118 -0.212077 -0.240818 0.286499 0.00483171 -0.194166 -0.252544 0.177226 -0.438319 0.121297 -0.159658 -0.13263 0.202137 -0.454664 -0.107179 0.0614961 0.0706988 0.00322378 -0.317429 0.242605 0.0360616 -0.0530343 -0.172639 -0.131584 -0.146375 0.0962428 0.339123 -0.111481 -0.251974 -0.371375 -0.0953524 0.0274264 -0.0981388 -0.2121 -0.194098 0.0624398 -0.294311 -0.312182 -0.222936
349 -0.678994 0.644914 -0.568938 0.395076 0.284729 -1.88157 1.52398 0.482891 -0.348046 0.629819 -0.279672 -1.1748 0.331482 0.352416 -1.30272 -0.723866 0.365002 -0.623644 0.390322 0.253234 0.0752653 0.900013 -0.0726765 -0.00688636 0.290128 -0.0711231 -0.214998 -0.239975 0.281896 0.0015913 -0.20291 -0.257462 0.164569 -0.429787 0.124932 -0.170719 -0.139915 0.187338 -0.468255 -0.13359 0.0767855 0.0926674 0.00480069 -0.356634 0.265352 0.0341879 -0.0819431 -0.199765 -0.133574 -0.181356 0.11219 0.316986 -0.115346 -0.259065 -0.367989 -0.0752452 0.066463 -0.108844 -0.211683 -0.196308 0.0730858 -0.31492 -0.315669 -0.247069
151 -0.678659 0.621764 -0.557531 0.394563 0.275121 -1.88349 1.52121 0.466625 -0.346127 0.622919 -0.292131 -1.14244 0.334856 0.325164 -1.29071 -0.724412 0.347158 -0.620331 0.402219 0.239058 0.0648037 0.897591 -0.0935134 -0.00902772 0.290242 -0.0795711 -0.20023 -0.246565 0.296528 0.00982709 -0.200887 -0.262083 0.180533 -0.444923 0.113197 -0.146232 -0.141417 0.18229 -0.450919 -0.12217 0.07693 0.0903754 0.0154283 -0.331949 0.236215 0.0289304 -0.0685638 -0.189697 -0.118085 -0.154778 0.119556 0.332919 -0.110014 -0.236738 -0.350104 -0.0778721 0.0486075 -0.0960431 -0.183316 -0.166913 0.0724977 -0.278995 -0.295428 -0.208756
421 -0.66362 0.61924 -0.541203 0.35912 0.283129 -1.80997 1.46109 0.451754 -0.324484 0.604428 -0.268842 -1.10631 0.330035 0.327721 -1.25462 -0.709439 0.346919 -0.610577 0.403313 0.251932 0.0620722 0.879138 -0.087541 -0.000918654 0.257788 -0.0643237 -0.196876 -0.248097 0.29336 0.00932769 -0.18383 -0.257897 0.178032 -0.425923 0.11271 -0.14958 -0.132574 0.159831 -0.417841 -0.112998 0.0705106 0.081008 0.0135882 -0.316378 0.222392 0.0313062 -0.0820882 -0.170914 -0.10543 -0.150702 0.105943 0.29764 -0.108446 -0.216561 -0.343128 -0.0686498 0.0349573 -0.0907872 -0.184888 -0.171435 0.0668992 -0.276743 -0.291753 -0.22156
467 -0.662911 0.586821 -0.547578 0.368049 0.296193 -1.85738 1.49739 0.450815 -0.355724 0.616873 -0.288613 -1.1211 0.324822 0.3353 -1.30756 -0.727661 0.357858 -0.611946 0.393855 0.258972 0.0562535 0.863481 -0.0796878 -0.0227772 0.278178 -0.0794713 -0.199744 -0.253515 0.297067 0.0141978 -0.194115 -0.252962 0.191222 -0.428165 0.107289 -0.144224 -0.131024 0.180445 -0.432112 -0.124968 0.0734625 0.0800979 0.0155952 -0.337451 0.248827 0.039397 -0.0761515 -0.193611 -0.116172 -0.15199 0.107899 0.325625 -0.103636 -0.22309 -0.345625 -0.0820756 0.0251204 -0.102521 -0.189644 -0.162781 0.0662785 -0.279756 -0.303039 -0.206159
31 -0.649499 0.594191 -0.576831 0.360568 0.26064 -1.87355 1.50538 0.492363 -0.332965 0.62557 -0.300038 -1.15079 0.341274 0.351294 -1.32592 -0.734055 0.371447 -0.635176 0.390124 0.263267 0.0818716 0.909914 -0.0796271 -0.00477906 0.296955 -0.0899903 -0.236296 -0.230778 0.296915 -0.00346015 -0.209396 -0.252467 0.174496 -0.447765 0.12765 -0.159215 -0.145655 0.187739 -0.458781 -0.124186 0.0723492 0.0764724 0.0155527 -0.338169 0.25974 0.045523 -0.0736497 -0.171437 -0.131447 -0.182364 0.11365 0.349483 -0.101537 -0.242522 -0.352765 -0.0866751 0.0396899 -0.11682 -0.212534 -0.180156 0.0790715 -0.308192 -0.32109 -0.239094
154 -0.681545 0.62873 -0.602077 0.380821 0.255045 -1.94675 1.55839 0.512718 -0.348422 0.636138 -0.287757 -1.14907 0.347212 0.348337 -1.31558 -0.750199 0.362304 -0.644743 0.384782 0.254545 0.0596662 0.885875 -0.0773455 0.000731778 0.274945 -0.0706702 -0.193566 -0.236253 0.293974 0.00557639 -0.201223 -0.259756 0.191038 -0.433431 0.108995 -0.13822 -0.145982 0.178765 -0.442414 -0.0921276 0.0724062 0.0467162 -0.00502671 -0.30128 0.231413 0.0370614 -0.0679841 -0.178341 -0.111437 -0.144991 0.100333 0.32099 -0.119101 -0.22194 -0.350142 -0.0869795 0.0155715 -0.101322 -0.17755 -0.170886 0.068476 -0.27007 -0.291226 -0.204552
273 -0.68166 0.622653 -0.557765 0.374807 0.291664 -1.92398 1.53771 0.48983 -0.365958 0.637665 -0.295532 -1.14304 0.331444 0.36228 -1.33406 -0.7438 0.361568 -0.642198 0.403798 0.280708 0.0628703 0.92066 -0.0980421 -0.00780128 0.274489 -0.0808569 -0.21494 -0.262671 0.304999 0.0162173 -0.192976 -0.262094 0.195052 -0.439506 0.103348 -0.15272 -0.15181 0.195324 -0.449456 -0.130289 0.079937 0.0796224 0.00870078 -0.342271 0.260248 0.0488521 -0.0784643 -0.187871 -0.124726 -0.171206 0.103071 0.352537 -0.109239 -0.245265 -0.371399 -0.0975319 0.0224507 -0.114778 -0.21738 -0.170983 0.0605969 -0.289544 -0.321421 -0.235952
99 -0.641184 0.589732 -0.56367 0.373002 0.260941 -1.83926 1.48129 0.470489 -0.304807 0.613532 -0.290169 -1.10342 0.316745 0.323852 -1.28071 -0.706552 0.347987 -0.625278 0.387713 0.242175 0.0741113 0.849961 -0.0752748 -0.0184876 0.277681 -0.070738 -0.199602 -0.246828 0.300891 0.0159493 -0.184128 -0.260562 0.172806 -0.435577 0.114358 -0.150741 -0.143834 0.175527 -0.439102 -0.120796 0.0694819 0.0863321 0.00623488 -0.343687 0.255168 0.0256613 -0.0786313 -0.199135 -0.124497 -0.171682 0.145386 0.330365 -0.13285 -0.236231 -0.365214 -0.0829555 0.0358786 -0.102321 -0.202909 -0.185221 0.0792015 -0.306172 -0.298401 -0.221976
96 -0.649374 0.598621 -0.557873 0.35694 0.279123 -1.85185 1.51332 0.492216 -0.344505 0.616916 -0.277789 -1.13415 0.316119 0.346843 -1.29892 -0.711862 0.364785 -0.599874 0.371066 0.266645 0.0772854 0.875474 -0.0874335 -0.00236285 0.269742 -0.0775878 -0.222199 -0.248373 0.29987 0.00229723 -0.185776 -0.249918 0.178863 -0.4271 0.120415 -0.158235 -0.149025 0.190127 -0.452103 -0.113871 0.0769729 0.0725689 0.00932678 -0.335035 0.26769 0.0551964 -0.0785699 -0.193262 -0.137628 -0.162225 0.103892 0.331391 -0.129038 -0.233077 -0.341141 -0.0933206 0.0195222 -0.10022 -0.216994 -0.177474 0.0566753 -0.305884 -0.320006 -0.22892
343 -0.693185 0.639838 -0.583147 0.349599 0.260044 -1.89549 1.52483 0.516047 -0.376116 0.630092 -0.290125 -1.14639 0.332846 0.350425 -1.34645 -0.745792 0.371121 -0.638496 0.388668 0.277616 0.067081 0.943458 -0.0850816 0.00123516 0.309721 -0.0761833 -0.239296 -0.253211 0.307537 0.0123731 -0.221393 -0.258323 0.183603 -0.462959 0.0902807 -0.169935 -0.154531 0.212422 -0.468385 -0.11299 0.0519073 0.0743185 -0.00129777 -0.312467 0.249489 0.0386275 -0.0593197 -0.164852 -0.119798 -0.154945 0.106008 0.360389 -0.0981375 -0.277352 -0.379655 -0.0920066 0.0207268 -0.116083 -0.20614 -0.175707 0.0806955 -0.290326 -0.330551 -0.238505
131 -0.691257 0.6308 -0.545301 0.374991 0.303347 -1.8393 1.51287 0.463951 -0.375187 0.6162 -0.271399 -1.14999 0.325124 0.339308 -1.32456 -0.737995 0.358499 -0.623689 0.397451 0.253977 0.057807 0.903349 -0.0895826 -0.00812088 0.280777 -0.0899973 -0.200608 -0.237519 0.296799 0.0165989 -0.196765 -0.247791 0.172595 -0.41845 0.0934293 -0.149321 -0.13528 0.18934 -0.438404 -0.114795 0.0585756 0.0812894 0.00159324 -0.330839 0.22565 0.0439177 -0.0570986 -0.177704 -0.119715 -0.143955 0.115254 0.322304 -0.0997491 -0.245194 -0.341202 -0.0853327 0.0167439 -0.099847 -0.184436 -0.166943 0.064878 -0.280383 -0.294836 -0.202206
43 -0.671554 0.64799 -0.587985 0.376398 0.272599 -1.95444 1.57215 0.520808 -0.368961 0.649237 -0.298332 -1.19727 0.34065 0.366384 -1.37383 -0.765636 0.381927 -0.663162 0.399191 0.275537 0.0742602 0.925791 -0.0927471 0.00803588 0.292639 -0.0646043 -0.185935 -0.25397 0.290509 0.0166039 -0.196723 -0.257666 0.181826 -0.424016 0.107974 -0.150706 -0.146696 0.179743 -0.437598 -0.105495 0.0674749 0.0572627 0.000923906 -0.328471 0.252085 0.0419457 -0.0793344 -0.20595 -0.116928 -0.144433 0.109298 0.302514 -0.124527 -0.211536 -0.341799 -0.0692158 0.0316881 -0.10875 -0.212316 -0.185415 0.0634634 -0.293203 -0.316915 -0.236884
48 -0.664338 0.600041 -0.613168 0.376944 0.249131 -1.97954 1.59381 0.531614 -0.351203 0.646196 -0.306822 -1.17777 0.340847 0.381821 -1.39594 -0.765729 0.387399 -0.661525 0.399221 0.281385 0.0849736 0.94176 -0.0926414 0.000880766 0.311111 -0.0773701 -0.224812 -0.269442 0.305039 0.0106398 -0.197016 -0.248074 0.188696 -0.443235 0.105998 -0.150841 -0.167212 0.194452 -0.449281 -0.117417 0.0667547 0.0655867 -0.0134325 -0.337173 0.270095 0.0468714 -0.0750794 -0.195862 -0.166 -0.178446 0.126088 0.341511 -0.143533 -0.261629 -0.366023 -0.0901008 0.0299591 -0.111191 -0.224987 -0.178265 0.0652356 -0.300775 -0.315699 -0.224804
433 -0.678876 0.622015 -0.541315 0.374324 0.289352 -1.86688 1.52154 0.480916 -0.351698 0.621616 -0.27209 -1.1175 0.326498 0.332341 -1.29286 -0.711608 0.339161 -0.616223 0.374622 0.262826 0.0715727 0.881342 -0.0805043 0.00341329 0.282695 -0.100343 -0.213554 -0.233473 0.290064 -0.0118469 -0.194428 -0.252741 0.180985 -0.413918 0.111288 -0.143465 -0.139237 0.180866 -0.449746 -0.116602 0.0797934 0.0726081 0.00389285 -0.326842 0.23533 0.0286379 -0.0621044 -0.160163 -0.103075 -0.170134 0.110511 0.34348 -0.0941121 -0.253306 -0.369202 -0.0963298 0.0372346 -0.125584 -0.196014 -0.175185 0.0661772 -0.289955 -0.315441 -0.235714
62 -0.628021 0.598926 -0.575191 0.357365 0.234805 -1.87231 1.51787 0.490591 -0.321835 0.613018 -0.303556 -1.13364 0.322843 0.355856 -1.3023 -0.712444 0.354026 -0.618775 0.367548 0.273816 0.0820418 0.8915 -0.0781812 -0.0178569 0.287289 -0.0864132 -0.220879 -0.236502 0.283001 -0.013407 -0.201207 -0.228394 0.164434 -0.419353 0.114082 -0.152565 -0.137172 0.181587 -0.424058 -0.112332 0.0674569 0.0787201 0.0166271 -0.327587 0.252082 0.0450254 -0.0811916 -0.190741 -0.126993 -0.15638 0.108289 0.344254 -0.128834 -0.23642 -0.348479 -0.0954443 0.0262557 -0.104124 -0.200278 -0.15815 0.0653684 -0.280402 -0.302389 -0.21942
23 -0.603328 0.549136 -0.521503 0.344707 0.26552 -1.74233 1.39496 0.428697 -0.328489 0.564129 -0.27541 -1.05434 0.301982 0.313672 -1.21391 -0.668356 0.327317 -0.587797 0.366928 0.255971 0.0710234 0.826956 -0.0659829 -0.0219537 0.264169 -0.0943114 -0.216412 -0.212961 0.268944 0.00145833 -0.186393 -0.218774 0.143092 -0.403101 0.1077 -0.16278 -0.128193 0.185199 -0.408182 -0.120615 0.0593047 0.0756394 0.0280858 -0.326823 0.240674 0.035612 -0.0752198 -0.194291 -0.100852 -0.166554 0.0922892 0.335648 -0.0970685 -0.22301 -0.331344 -0.0898213 0.0301588 -0.0877204 -0.200006 -0.164357 0.0658791 -0.288198 -0.29356 -0.216331
413 -0.68751 0.60222 -0.530361 0.381911 0.304649 -1.90725 1.52392 0.464293 -0.383534 0.629882 -0.29615 -1.13611 0.336571 0.323957 -1.31049 -0.752188 0.349105 -0.630762 0.387686 0.258999 0.0545634 0.892126 -0.0897895 -0.0172137 0.277128 -0.0716415 -0.194552 -0.269765 0.30208 0.00467356 -0.206456 -0.250202 0.215014 -0.429698 0.112423 -0.158683 -0.168604 0.18344 -0.442889 -0.131344 0.0674096 0.075257 0.0127157 -0.333248 0.264602 0.039881 -0.0741217 -0.184493 -0.122379 -0.163323 0.103923 0.353257 -0.106171 -0.201457 -0.332548 -0.0916719 0.0240672 -0.115816 -0.189529 -0.157945 0.0703664 -0.27721 -0.300153 -0.20802
444 -1.02446 0.918555 0.00490549 0.568362 0.678339 -1.73986 1.45467 0.302472 -0.914355 0.50382 0.0878897 -1.19676 0.656604 -0.128304 -0.8129 -0.850088 0.187209 -0.40618 0.324997 -0.220191 -0.47296 0.726033 0.00676081 0.251092 -0.12676 -0.135762 0.313901 -0.323041 0.123175 0.188212 -0.394162 -0.29956 0.421815 -0.346981 0.16953 0.0320521 -0.160906 0.109986 -0.375953 0.100621 -0.0776436 -0.3569 -0.0310578 -0.238333 0.15992 -0.00211773 0.0478753 -0.260863 -0.0599258 0.0128482 0.106335 0.398913 -0.219869 0.175788 -0.25409 -0.290465 -0.130513 -0.189548 0.0358879 -0.232936 0.0709675 -0.187496 -0.182058 0.116903
59 -0.97071 0.87071 -0.0278819 0.549743 0.658204 -1.68608 1.38949 0.292868 -0.848094 0.462984 0.0640961 -1.10709 0.609478 -0.117619 -0.764188 -0.823017 0.173146 -0.402605 0.327862 -0.200291 -0.44049 0.701683 0.000363543 0.224199 -0.140977 -0.106603 0.326017 -0.342942 0.130612 0.196033 -0.398735 -0.280912 0.441504 -0.350628 0.148247 0.0271047 -0.176587 0.101369 -0.350461 0.094467 -0.0602177 -0.337014 -0.0269574 -0.25473 0.175978 -0.00566498 0.0439085 -0.257837 -0.0827726 -0.0151877 0.111149 0.378863 -0.205427 0.165015 -0.22409 -0.265249 -0.114055 -0.181239 0.0284753 -0.220864 0.0740691 -0.193871 -0.17395 0.113747
294 -0.973124 0.90213 -0.0373906 0.557176 0.651148 -1.71285 1.41881 0.290009 -0.832905 0.495187 0.0378566 -1.1774 0.620403 -0.0758812 -0.82124 -0.824745 0.191748 -0.412314 0.339827 -0.198812 -0.450854 0.74263 -0.016964 0.229998 -0.131674 -0.122969 0.326437 -0.352498 0.13454 0.187729 -0.396624 -0.304582 0.433247 -0.358883 0.181404 0.0315218 -0.157164 0.108069 -0.371323 0.0741668 -0.0740293 -0.3269 -0.0347233 -0.237074 0.193407 -0.00249156 0.0382258 -0.23744 -0.0833079 -0.0367511 0.0847016 0.445883 -0.228409 0.184383 -0.275619 -0.29561 -0.102627 -0.188498 0.00791564 -0.220418 0.0686331 -0.185719 -0.198733 0.0944761
150 -0.963007 0.875112 -0.0223129 0.563415 0.650762 -1.67145 1.37574 0.293582 -0.837096 0.460297 0.0455942 -1.14072 0.602271 -0.102369 -0.739184 -0.799879 0.1889 -0.385932 0.301793 -0.215469 -0.428325 0.700368 0.00738593 0.23143 -0.11141 -0.0991082 0.29968 -0.339214 0.119734 0.184175 -0.392357 -0.300545 0.41759 -0.348273 0.1587 0.0204691 -0.150048 0.0931538 -0.319526 0.0892709 -0.0614588 -0.319341 -0.0407051 -0.211079 0.166907 -0.0318009 0.0440458 -0.232394 -0.0925377 -0.006621 0.0967032 0.377701 -0.223748 0.161643 -0.257239 -0.267327 -0.0834043 -0.17409 0.0382702 -0.212905 0.0653195 -0.182593 -0.145527 0.11092
261 -0.979115 0.887804 -0.0472044 0.590425 0.68587 -1.77306 1.46522 0.309811 -0.851312 0.497202 0.026314 -1.17306 0.60603 -0.0814556 -0.812671 -0.822483 0.208232 -0.399702 0.346061 -0.192759 -0.422073 0.751582 -0.0338947 0.229112 -0.121114 -0.108647 0.305943 -0.354497 0.136475 0.205534 -0.390588 -0.320375 0.433274 -0.363733 0.184796 0.0334529 -0.173669 0.107109 -0.365101 0.0743811 -0.072524 -0.320766 -0.0352151 -0.241891 0.17481 -0.00317983 0.0453356 -0.2427 -0.0980253 -0.0145046 0.10053 0.454377 -0.258997 0.179932 -0.294878 -0.324798 -0.10123 -0.188081 0.0170461 -0.228865 0.0763328 -0.183795 -0.188904 0.104626
140 -0.988031 0.90959 -0.0176917 0.568741 0.671473 -1.74862 1.45825 0.29 -0.871912 0.48749 0.0438936 -1.17424 0.616916 -0.0794843 -0.794938 -0.834123 0.202199 -0.403067 0.344888 -0.198438 -0.43489 0.747883 -0.0129686 0.238417 -0.112558 -0.11554 0.330608 -0.367167 0.132139 0.217093 -0.419951 -0.321073 0.450643 -0.387361 0.183975 0.0309397 -0.175921 0.122342 -0.375821 0.0782845 -0.0715744 -0.346834 -0.0368225 -0.252355 0.182815 -0.00054954 0.0382696 -0.275762 -0.0916401 -0.00774532 0.100535 0.430846 -0.238864 0.164655 -0.268974 -0.297821 -0.1154 -0.178545 0.0118558 -0.243118 0.0638852 -0.19576 -0.196661 0.115175
195 -0.914255 0.84346 -0.0353253 0.551212 0.674044 -1.70187 1.40623 0.275784 -0.836447 0.503786 0.00957039 -1.21991 0.600513 -0.0522913 -0.823979 -0.819866 0.214274 -0.411732 0.359595 -0.168351 -0.414192 0.749001 -0.0240256 0.210968 -0.120631 -0.106299 0.325055 -0.372404 0.152916 0.213359 -0.395332 -0.329787 0.443029 -0.369367 0.195657 0.0304384 -0.175657 0.0908348 -0.346714 0.0790298 -0.0563165 -0.328107 -0.0264928 -0.242432 0.19779 -0.013753 0.00794006 -0.267662 -0.100802 -0.0159105 0.0966264 0.446585 -0.259572 0.1895 -0.27383 -0.297412 -0.0959865 -0.179426 0.00733445 -0.224817 0.0720108 -0.197214 -0.172108 0.102649
479 -0.963671 0.870342 -0.0344379 0.55518 0.656105 -1.71963 1.42013 0.30386 -0.859171 0.50904 0.050254 -1.18663 0.613115 -0.0840787 -0.809197 -0.836703 0.197123 -0.407671 0.323875 -0.20014 -0.4309 0.730386 -0.0109902 0.223886 -0.10766 -0.128365 0.310699 -0.344767 0.115531 0.191439 -0.401892 -0.317869 0.440789 -0.359139 0.190097 0.0288514 -0.164015 0.107926 -0.38658 0.0893773 -0.0687369 -0.351285 -0.0237597 -0.246066 0.175054 -0.0219545 0.0495906 -0.272337 -0.0697529 -0.00114629 0.107646 0.469641 -0.264863 0.212147 -0.314497 -0.338203 -0.123798 -0.20597 0.0370864 -0.258331 0.0899627 -0.1971 -0.200451 0.120629
207 -0.953657 0.877786 -0.0458069 0.572627 0.673317 -1.74971 1.4434 0.302339 -0.849634 0.502165 0.0293415 -1.19334 0.623 -0.105046 -0.81384 -0.822593 0.190759 -0.421007 0.349101 -0.198516 -0.463113 0.777669 -0.00546507 0.219827 -0.136346 -0.119183 0.327688 -0.367831 0.140313 0.205179 -0.405649 -0.315969 0.458752 -0.361929 0.170281 0.0284291 -0.168737 0.0953702 -0.33615 0.0763825 -0.0509475 -0.31494 -0.028939 -0.249322 0.221006 -0.00284894 0.0399432 -0.253934 -0.112556 -0.0395415 0.107985 0.442984 -0.243515 0.180645 -0.252817 -0.290658 -0.0949969 -0.200471 0.0060179 -0.245457 0.0850631 -0.204077 -0.188241 0.109625
446 -0.981341 0.900263 -0.00697221 0.568037 0.655384 -1.701 1.42747 0.29078 -0.854395 0.49334 0.0421715 -1.17278 0.620486 -0.0742678 -0.779026 -0.823532 0.190306 -0.390304 0.319205 -0.223896 -0.445627 0.75152 -0.00446954 0.220566 -0.10234 -0.120783 0.316663 -0.356271 0.119151 0.196705 -0.391305 -0.320627 0.42086 -0.356297 0.188228 0.0174344 -0.144096 0.0949601 -0.359626 0.0734826 -0.0542849 -0.319717 -0.0362629 -0.209463 0.16652 -0.00670616 0.0330269 -0.230617 -0.0832063 -0.0136043 0.0734124 0.385707 -0.216182 0.167903 -0.254253 -0.266208 -0.0809527 -0.170529 0.00545682 -0.226336 0.0700672 -0.187675 -0.180268 0.100915
398 -1.00729 0.92979 -0.01116 0.552848 0.669906 -1.75101 1.45184 0.305045 -0.876974 0.50757 0.0623201 -1.22388 0.65115 -0.0921361 -0.818749 -0.856455 0.20341 -0.407343 0.313666 -0.209546 -0.469155 0.754495 -0.00461447 0.254699 -0.115404 -0.134949 0.31487 -0.328436 0.1049 0.185506 -0.404543 -0.307409 0.413862 -0.354512 0.188803 0.014461 -0.157091 0.0971621 -0.372733 0.0819369 -0.0749292 -0.334527 -0.0497068 -0.21047 0.171024 -0.00582236 0.0424023 -0.240425 -0.0622739 -0.0212561 0.085569 0.444783 -0.252164 0.187475 -0.287634 -0.298171 -0.11543 -0.203858 0.0115059 -0.223567 0.0614838 -0.183925 -0.199556 0.0862668
478 -0.961239 0.861286 -0.012931 0.540988 0.661912 -1.72355 1.4161 0.301117 -0.879311 0.502283 0.0480649 -1.18615 0.638282 -0.114009 -0.78991 -0.838455 0.181584 -0.407053 0.330474 -0.193167 -0.491713 0.764814 -0.00326426 0.24178 -0.130853 -0.102057 0.35309 -0.390027 0.122281 0.20351 -0.429667 -0.306718 0.486127 -0.371753 0.17847 0.027341 -0.208812 0.0990228 -0.360945 0.0702755 -0.0772209 -0.353275 -0.0293287 -0.245288 0.212877 -0.0175068 0.0218502 -0.261675 -0.0891495 -0.0267032 0.102725 0.46172 -0.237114 0.208446 -0.285099 -0.303162 -0.113336 -0.202747 0.0337991 -0.238347 0.0945052 -0.209312 -0.186215 0.12236
74 -0.988798 0.886437 -0.049065 0.572191 0.679556 -1.76775 1.46622 0.30414 -0.841144 0.51383 0.0210486 -1.19529 0.607888 -0.0870399 -0.838702 -0.832435 0.20411 -0.426385 0.366201 -0.187848 -0.417411 0.754092 -0.015579 0.206025 -0.111084 -0.12006 0.295678 -0.346226 0.150001 0.205398 -0.39502 -0.313759 0.43737 -0.385124 0.185672 0.0194119 -0.153968 0.104058 -0.359263 0.0786861 -0.0522723 -0.298069 -0.0120496 -0.257561 0.189044 0.00208245 0.0295162 -0.252678 -0.0897327 -0.0176176 0.0960698 0.434246 -0.230204 0.17804 -0.268394 -0.305394 -0.121562 -0.188774 -0.000176767 -0.225578 0.0673207 -0.215336 -0.18992 0.117798
130 -0.905096 0.821559 -0.0225532 0.533298 0.639446 -1.65057 1.36839 0.270117 -0.824648 0.457541 0.0536889 -1.14591 0.627387 -0.117222 -0.782558 -0.799142 0.175944 -0.398166 0.352436 -0.208887 -0.4664 0.737465 -0.0115186 0.220865 -0.14353 -0.131799 0.333883 -0.33288 0.125309 0.194426 -0.398549 -0.29607 0.448778 -0.340424 0.166401 0.0309184 -0.160069 0.0968846 -0.334465 0.0658628 -0.0598165 -0.310466 -0.0130054 -0.253297 0.1779 -0.0265701 0.0216618 -0.252162 -0.0648511 -0.0266924 0.088587 0.416483 -0.216787 0.184096 -0.254192 -0.279048 -0.0947345 -0.183109 0.0276407 -0.208672 0.0799761 -0.192503 -0.175621 0.0952556
21 -1.04868 0.905617 -0.0138912 0.591104 0.710596 -1.79379 1.48239 0.287872 -0.920196 0.51378 0.0481993 -1.15725 0.605895 -0.0974943 -0.794293 -0.819728 0.185764 -0.390544 0.348142 -0.213748 -0.460332 0.735688 -0.0189562 0.216344 -0.111772 -0.101796 0.314705 -0.369777 0.135834 0.207752 -0.396098 -0.315431 0.472361 -0.386076 0.172994 0.0189602 -0.202973 0.123269 -0.378303 0.0865368 -0.0742793 -0.331816 -0.0192166 -0.244692 0.190639 -0.0155992 0.0400526 -0.250367 -0.0968986 0.00330865 0.11429 0.396942 -0.2126 0.163225 -0.263404 -0.285913 -0.117817 -0.18372 0.000573844 -0.222168 0.0817004 -0.184313 -0.193633 0.121594
107 -1.02449 0.927353 -0.0256492 0.580514 0.670153 -1.75277 1.46867 0.294608 -0.865922 0.508136 0.0374483 -1.1791 0.612116 -0.0553673 -0.829416 -0.850816 0.203348 -0.405387 0.339342 -0.191914 -0.42297 0.759405 -0.0202275 0.223006 -0.108616 -0.117372 0.300506 -0.353398 0.135517 0.19631 -0.4024 -0.313778 0.418527 -0.376985 0.170628 0.0174781 -0.166433 0.119334 -0.348191 0.0716638 -0.0632051 -0.310974 -0.0417065 -0.225138 0.171123 0.00189743 0.0268733 -0.246617 -0.101834 -0.0206096 0.0944616 0.406841 -0.222911 0.163138 -0.27469 -0.280791 -0.0880031 -0.175115 0.00531553 -0.205909 0.0545981 -0.166675 -0.170691 0.0954115
449 -0.99616 0.913363 -0.0295051 0.563852 0.661293 -1.73542 1.43462 0.294744 -0.875334 0.500828 0.0388001 -1.17452 0.624318 -0.0827049 -0.813394 -0.839016 0.210028 -0.403412 0.307075 -0.199356 -0.450765 0.727506 -0.00302077 0.230696 -0.113373 -0.104783 0.310834 -0.354331 0.132912 0.193157 -0.408834 -0.288507 0.428132 -0.365493 0.166788 0.0026267 -0.171097 0.112895 -0.352487 0.0707328 -0.0682015 -0.329908 -0.0467122 -0.209948 0.180657 -0.000697928 0.0365792 -0.236534 -0.0882661 -0.0149835 0.0911178 0.412739 -0.211366 0.160383 -0.257107 -0.285529 -0.0924425 -0.173761 0.0268032 -0.231348 0.07005 -0.18869 -0.17543 0.0987783
224 -0.98465 0.899561 0.0162958 0.574709 0.681732 -1.73364 1.45372 0.283458 -0.892833 0.484606 0.0552953 -1.14883 0.634955 -0.0974778 -0.784144 -0.818949 0.171051 -0.398045 0.352306 -0.21534 -0.462142 0.764435 -0.0186598 0.235072 -0.143503 -0.126253 0.352251 -0.373504 0.132804 0.223458 -0.411905 -0.31723 0.461759 -0.364418 0.19225 0.0409743 -0.179269 0.110809 -0.37083 0.0770723 -0.0673279 -0.339627 -0.00849763 -0.251532 0.18787 -0.00113032 0.0213931 -0.259361 -0.0954994 -0.0338349 0.107947 0.433478 -0.221403 0.182433 -0.259424 -0.284952 -0.108192 -0.181252 -0.000926046 -0.217523 0.0765836 -0.19068 -0.172728 0.10755
170 -1.00668 0.899311 -0.00836891 0.594372 0.685351 -1.78761 1.47634 0.302005 -0.891515 0.507828 0.0401241 -1.18142 0.629367 -0.0958334 -0.808083 -0.836651 0.191107 -0.409869 0.352111 -0.209185 -0.444082 0.736559 -0.0207095 0.215346 -0.113046 -0.116481 0.327669 -0.356566 0.132358 0.203474 -0.391921 -0.296846 0.450853 -0.353491 0.200182 0.0216042 -0.180352 0.116008 -0.381984 0.0891902 -0.0710259 -0.348005 -0.0285172 -0.250508 0.19738 -0.000788859 0.0448468 -0.256267 -0.0833243 -0.0295205 0.11192 0.435659 -0.240575 0.186547 -0.27185 -0.304307 -0.114883 -0.193067 0.0118523 -0.226348 0.0590445 -0.196376 -0.183982 0.118215
267 -0.900372 0.834437 -0.0293111 0.520552 0.632099 -1.62146 1.35359 0.28243 -0.813816 0.440787 0.0557853 -1.10443 0.60631 -0.107915 -0.746198 -0.765644 0.15942 -0.369835 0.332236 -0.191439 -0.450337 0.701185 -0.0107562 0.235235 -0.13266 -0.12334 0.330141 -0.344711 0.112109 0.183981 -0.39324 -0.292808 0.442297 -0.346668 0.186182 0.0411583 -0.187086 0.107775 -0.37021 0.0801726 -0.0871111 -0.356231 -0.0326106 -0.248241 0.187547 -0.0186122 0.0317552 -0.260096 -0.0951495 -0.0282534 0.103068 0.448724 -0.24597 0.186286 -0.276743 -0.309901 -0.0989624 -0.191318 0.0230419 -0.237873 0.081579 -0.201454 -0.17302 0.113504
120 -0.533637 0.796276 -0.403471 0.726563 0.708878 -1.67024 1.37504 0.128752 -0.372039 0.551913 -0.544541 -1.53728 0.471144 0.0838373 -0.979732 -0.628486 0.423058 -0.644223 0.546063 -0.0137913 0.19809 0.568558 -0.0192759 -0.0271619 -0.0498985 -0.179198 0.129333 -0.123138 0.161949 0.349662 -0.442556 -0.446275 0.143724 -0.26803 0.505399 0.0975983 0.0979536 -0.199921 -0.18999 -0.0401196 0.0586386 -0.028161 0.376216 -0.357315 0.306995 0.131632 -0.156766 -0.320097 0.252746 -0.268628 0.0599185 0.298706 -0.253041 0.214452 0.13884 -0.0394222 0.112433 0.00414293 0.0515335 -0.123487 -0.00456703 -0.261185 0.0126892 0.0446771
144 -0.527354 0.794599 -0.435267 0.7 0.723343 -1.66937 1.38857 0.132241 -0.35742 0.535699 -0.558719 -1.581 0.481991 0.0590446 -0.970597 -0.601295 0.43802 -0.624537 0.541463 0.00128286 0.201475 0.56837 0.0136409 -0.0278559 -0.0602203 -0.205969 0.0919445 -0.0888658 0.148327 0.36379 -0.479275 -0.450687 0.115928 -0.273122 0.525991 0.0878373 0.114919 -0.210499 -0.181866 -0.0351568 0.0583466 -0.0154103 0.393545 -0.348194 0.302894 0.136783 -0.153713 -0.298837 0.281317 -0.24013 0.0560718 0.295833 -0.225985 0.207765 0.128236 -0.0365185 0.10151 0.00831946 0.0554905 -0.110135 0.00110734 -0.247452 0.00498834 0.0634487
179 -0.485595 0.796131 -0.42586 0.714899 0.704965 -1.62278 1.36975 0.113838 -0.346859 0.526495 -0.549765 -1.55548 0.464119 0.0724241 -0.941725 -0.590123 0.411428 -0.611854 0.509489 -0.0340342 0.220118 0.517155 0.000492363 -0.0303917 -0.053046 -0.202547 0.096286 -0.0652113 0.129818 0.329579 -0.436184 -0.426318 0.10432 -0.242818 0.48851 0.0944805 0.135274 -0.201209 -0.16587 -0.0201956 0.0448742 -0.0264214 0.366629 -0.30962 0.266136 0.134083 -0.144401 -0.301565 0.262095 -0.244357 0.0497898 0.281867 -0.24767 0.203359 0.152311 -0.0404622 0.116864 0.0154369 0.0561152 -0.108964 -0.0130161 -0.279475 0.0127161 0.0515092
75 -0.503202 0.803356 -0.423554 0.731366 0.689447 -1.61645 1.35184 0.106876 -0.32763 0.532023 -0.562279 -1.56365 0.480389 0.0553152 -0.932536 -0.602203 0.450791 -0.639573 0.549941 -0.0403668 0.231215 0.544863 -2.58059e-05 -0.0437571 -0.0474 -0.209878 0.102032 -0.0747988 0.137532 0.351793 -0.478069 -0.449232 0.11591 -0.259501 0.522756 0.108385 0.132477 -0.219214 -0.180586 -0.0333038 0.0548876 -0.0111818 0.39509 -0.351321 0.313469 0.158161 -0.163793 -0.306326 0.279957 -0.288135 0.0450604 0.297366 -0.245818 0.22565 0.165251 -0.033991 0.12959 0.00987383 0.0805895 -0.105391 -0.0113794 -0.291436 9.60213e-05 0.0702992
315 -0.491691 0.714349 -0.377538 0.624994 0.618345 -1.47021 1.20706 0.10682 -0.321796 0.483057 -0.502851 -1.37466 0.407632 0.0567134 -0.869687 -0.5604 0.369213 -0.571807 0.487702 -0.0159025 0.196643 0.501735 -0.000897651 -0.031931 -0.0432003 -0.172939 0.105431 -0.0759959 0.139231 0.316161 -0.412331 -0.376466 0.115608 -0.235316 0.434752 0.0852701 0.0840779 -0.156482 -0.147587 -0.0256801 0.0447895 -0.034502 0.340854 -0.304734 0.255864 0.114349 -0.132927 -0.274707 0.236014 -0.22673 0.0437864 0.239296 -0.192811 0.185889 0.1297 -0.0384901 0.0974511 0.00204428 0.086252 -0.103509 0.00676246 -0.231254 0.0202965 0.0612618
184 -1.09272 0.542879 -0.197177 0.732396 0.720684 -1.97817 1.05811 -0.10249 -0.725066 0.544405 -0.731703 -0.76069 0.209635 0.250347 -0.832928 -0.848961 0.09323 -0.502323 0.257468 0.0190597 -0.0594424 0.515743 -0.43175 0.0319842 0.242103 -0.120735 0.144266 -0.361933 0.201978 0.237674 -0.406364 -0.266612 0.134305 -0.396974 0.265544 -0.00170888 -0.120702 0.285581 -0.134113 -0.272176 -0.221024 0.00629149 0.242529 -0.297246 0.139901 -0.0693125 -0.129319 -0.526164 -0.120529 -0.0886625 0.199883 0.078021 -0.0503806 -0.0586217 -0.142781 -0.0939116 0.0789374 0.0931016 -0.125406 -0.131266 0.0890458 -0.0254008 -0.00936456 0.0973989
393 -1.16353 0.574248 -0.215302 0.764931 0.732667 -2.05255 1.11125 -0.109241 -0.73485 0.560097 -0.772724 -0.815147 0.231335 0.254448 -0.892246 -0.917501 0.118212 -0.528977 0.279692 0.0148627 -0.0657269 0.558185 -0.452526 0.0182527 0.273107 -0.113514 0.154291 -0.389553 0.235616 0.261396 -0.436165 -0.290824 0.157588 -0.423448 0.264099 -0.00408408 -0.13051 0.306664 -0.124409 -0.286006 -0.214245 0.00790911 0.247475 -0.312361 0.15534 -0.0702653 -0.133088 -0.533468 -0.133666 -0.0923164 0.20482 0.0957969 -0.0510048 -0.0743729 -0.161889 -0.100211 0.0958144 0.106674 -0.141153 -0.135683 0.109042 -0.028306 -0.029093 0.113226
122 -1.10878 0.539206 -0.220246 0.754544 0.743006 -2.01945 1.11152 -0.111237 -0.731273 0.566793 -0.74158 -0.801939 0.221451 0.258549 -0.897084 -0.880082 0.0975355 -0.515194 0.297001 0.0311415 -0.0592708 0.555425 -0.465476 0.0358586 0.246731 -0.11739 0.148976 -0.388732 0.243557 0.262034 -0.426097 -0.302723 0.141448 -0.432233 0.265128 0.0156093 -0.132589 0.295347 -0.147354 -0.286366 -0.209598 -0.00220275 0.25228 -0.323515 0.127124 -0.0620855 -0.140503 -0.555071 -0.124214 -0.0809637 0.211985 0.075724 -0.0702546 -0.0793286 -0.150424 -0.0969868 0.0849885 0.0986908 -0.134901 -0.129543 0.0857243 -0.0485876 -0.0250814 0.106904
191 -1.05402 0.536348 -0.213672 0.741396 0.728368 -1.99776 1.07785 -0.110887 -0.688593 0.538812 -0.746163 -0.770976 0.226217 0.260104 -0.87238 -0.863102 0.0961276 -0.504135 0.294128 0.0107131 -0.0745377 0.575174 -0.449298 0.0358976 0.245537 -0.128829 0.1693 -0.38084 0.239367 0.2676 -0.439581 -0.312339 0.143896 -0.443982 0.248272 0.0103236 -0.12575 0.285842 -0.157127 -0.282286 -0.205914 -0.000981 0.230585 -0.311352 0.10688 -0.078695 -0.130537 -0.529136 -0.142573 -0.0869005 0.204689 0.0610053 -0.0545069 -0.0861753 -0.152369 -0.104873 0.0907267 0.101031 -0.128352 -0.144702 0.0913361 -0.0401472 0.000816303 0.0918293
340 -1.08931 0.586059 -0.234005 0.753365 0.745505 -2.02028 1.14421 -0.0752634 -0.719603 0.57782 -0.719729 -0.84609 0.243891 0.254518 -0.915228 -0.911317 0.132921 -0.555573 0.31375 0.0272796 -0.0736309 0.573761 -0.437489 0.0190402 0.232208 -0.116147 0.166812 -0.39043 0.240013 0.266432 -0.423224 -0.30456 0.15334 -0.435604 0.277888 0.00647597 -0.120771 0.30235 -0.142662 -0.300024 -0.214662 0.00499217 0.239484 -0.32156 0.131716 -0.0592596 -0.133161 -0.5307 -0.120401 -0.0924542 0.204914 0.0913315 -0.0613689 -0.0674578 -0.15235 -0.103033 0.0812354 0.102709 -0.136888 -0.157014 0.0850956 -0.0466326 -0.0109584 0.102504
483 -1.10833 0.565538 -0.22531 0.744511 0.729751 -2.01564 1.09104 -0.0906419 -0.711313 0.561033 -0.733813 -0.802467 0.22917 0.23918 -0.870357 -0.905916 0.123021 -0.532659 0.283413 0.010917 -0.0566177 0.57059 -0.435217 0.0140884 0.271539 -0.109299 0.150038 -0.396776 0.226493 0.283353 -0.439063 -0.299965 0.146493 -0.42863 0.254785 0.000757026 -0.138254 0.295128 -0.121208 -0.266645 -0.20796 -0.0088201 0.236364 -0.315434 0.165102 -0.0701033 -0.130972 -0.562326 -0.129391 -0.0973949 0.214294 0.0857444 -0.0439133 -0.0727373 -0.162392 -0.10478 0.0871169 0.104074 -0.114683 -0.144521 0.113375 -0.0418271 -0.0170464 0.110025
181 -1.12744 0.583185 -0.201971 0.749748 0.748083 -2.04142 1.16199 -0.0576602 -0.758751 0.592589 -0.677374 -0.816162 0.232195 0.272345 -0.88057 -0.867483 0.124759 -0.526254 0.30264 0.0210722 -0.0487567 0.554812 -0.427896 0.0363114 0.231356 -0.0952994 0.147893 -0.397869 0.220566 0.251105 -0.40789 -0.280901 0.156415 -0.397732 0.269067 0.0139057 -0.137879 0.31709 -0.155275 -0.284125 -0.215969 -0.0103014 0.250441 -0.312073 0.14902 -0.0472446 -0.135649 -0.564892 -0.131883 -0.104669 0.200172 0.084646 -0.0556233 -0.0820038 -0.150752 -0.101152 0.0875528 0.096611 -0.125771 -0.120158 0.0834619 -0.0276491 -0.0251102 0.089223
386 -1.06885 0.560783 -0.235566 0.773869 0.779074 -2.08827 1.14077 -0.10957 -0.725621 0.571955 -0.780807 -0.844107 0.251174 0.252026 -0.922451 -0.901782 0.114877 -0.565208 0.311521 0.0134931 -0.0641754 0.588642 -0.453572 0.0268685 0.257231 -0.130298 0.155173 -0.37425 0.25262 0.293882 -0.440739 -0.323627 0.144403 -0.442399 0.294041 0.0307497 -0.122357 0.311779 -0.160634 -0.297385 -0.230515 -0.000138375 0.27012 -0.34949 0.130047 -0.0536484 -0.137056 -0.571446 -0.128714 -0.0952758 0.235529 0.111564 -0.044923 -0.0703602 -0.142873 -0.11845 0.0718952 0.0936373 -0.12436 -0.171028 0.0935479 -0.043223 -0.00344139 0.117125
157 -1.09208 0.561428 -0.217337 0.787734 0.753907 -2.06107 1.10887 -0.118079 -0.743051 0.572613 -0.779237 -0.78554 0.224813 0.276439 -0.881889 -0.909166 0.122144 -0.543467 0.297679 0.0207027 -0.0688195 0.592848 -0.44667 0.0361291 0.268186 -0.126941 0.154361 -0.384462 0.229637 0.259543 -0.446843 -0.307483 0.133119 -0.441827 0.264638 0.00154738 -0.133228 0.297571 -0.139638 -0.283128 -0.213798 0.00802114 0.241012 -0.299466 0.122116 -0.0546563 -0.131518 -0.554008 -0.133347 -0.0940923 0.211573 0.0959047 -0.0444242 -0.0748232 -0.148371 -0.110484 0.083636 0.0996322 -0.125563 -0.142996 0.0857094 -0.0355526 -0.00659689 0.104006
445 -1.11769 0.552029 -0.215396 0.757973 0.740165 -2.05838 1.12613 -0.102164 -0.733117 0.578297 -0.770156 -0.807566 0.235308 0.282985 -0.916635 -0.942535 0.107104 -0.564438 0.305316 0.00661949 -0.0738061 0.569275 -0.470024 0.0194405 0.254265 -0.120274 0.17469 -0.394446 0.236005 0.263286 -0.434713 -0.292621 0.148984 -0.424383 0.246974 0.00587361 -0.126531 0.318621 -0.145632 -0.280337 -0.223061 0.00254167 0.251093 -0.341583 0.115408 -0.0723823 -0.139854 -0.541858 -0.12993 -0.0936331 0.202866 0.0860274 -0.0458725 -0.0817048 -0.152255 -0.12273 0.0685482 0.0986342 -0.124434 -0.143618 0.0846392 -0.0459076 -0.018472 0.104531
457 -1.13071 0.587972 -0.216172 0.729445 0.7284 -1.99613 1.11088 -0.0843249 -0.726129 0.560801 -0.686685 -0.823264 0.234289 0.264012 -0.883762 -0.873735 0.108822 -0.516998 0.308776 0.0261737 -0.0579603 0.569301 -0.452692 0.0178225 0.237272 -0.118066 0.154452 -0.388447 0.24458 0.27192 -0.434218 -0.307103 0.162221 -0.422216 0.265552 0.0222196 -0.136036 0.303584 -0.138644 -0.277017 -0.19861 -0.000929985 0.240362 -0.30691 0.126202 -0.0535093 -0.127259 -0.53983 -0.129158 -0.0798584 0.18867 0.0876881 -0.0408166 -0.0783413 -0.156265 -0.110056 0.0754467 0.0979973 -0.131069 -0.118393 0.0980986 -0.0261707 -0.0135984 0.100488
35 -1.04611 0.549142 -0.230937 0.737104 0.725852 -1.98506 1.1077 -0.0788135 -0.696486 0.560402 -0.7354 -0.829673 0.241196 0.262169 -0.915762 -0.896746 0.114473 -0.545398 0.302677 0.0305422 -0.0724466 0.557972 -0.445122 0.0213184 0.250843 -0.128572 0.158386 -0.369984 0.237437 0.265668 -0.418748 -0.299922 0.141506 -0.421346 0.276819 0.0163793 -0.131469 0.292335 -0.143991 -0.286911 -0.210004 0.0124123 0.255689 -0.31652 0.122734 -0.0632232 -0.139288 -0.543679 -0.11727 -0.102155 0.204468 0.087891 -0.0351006 -0.0661639 -0.154143 -0.104671 0.0694472 0.0958639 -0.123322 -0.158693 0.0898444 -0.0336397 -0.00812979 0.101722
25 -1.08514 0.583562 -0.261707 0.766058 0.75092 -2.07 1.15606 -0.0705452 -0.712939 0.570763 -0.757857 -0.856078 0.268236 0.266343 -0.942364 -0.913542 0.11883 -0.582442 0.327418 0.0185498 -0.0631511 0.576764 -0.431988 0.0388971 0.227446 -0.128299 0.168506 -0.394814 0.252974 0.282052 -0.452089 -0.324767 0.152543 -0.444016 0.313025 0.0355057 -0.132985 0.317373 -0.19954 -0.316418 -0.227374 -0.0106357 0.255757 -0.371594 0.122863 -0.0581531 -0.114943 -0.563429 -0.118489 -0.109045 0.237262 0.117294 -0.0668044 -0.0564495 -0.152568 -0.114776 0.0800856 0.0917478 -0.101035 -0.191857 0.0965421 -0.0648184 0.000526414 0.101298
419 -1.0942 0.582908 -0.233353 0.752654 0.751281 -2.02906 1.14627 -0.0771753 -0.722652 0.588695 -0.741327 -0.852293 0.248414 0.251433 -0.93421 -0.923992 0.132801 -0.556933 0.318439 0.0173337 -0.0651328 0.580548 -0.444271 0.0288126 0.248076 -0.116225 0.174844 -0.404552 0.245709 0.282525 -0.446434 -0.315636 0.166298 -0.438063 0.272962 0.0203927 -0.124492 0.304856 -0.157475 -0.290324 -0.208784 0.00625816 0.268915 -0.34557 0.149569 -0.0547417 -0.142034 -0.560875 -0.131375 -0.0962283 0.223309 0.0930635 -0.0381503 -0.0755329 -0.154356 -0.109706 0.0925539 0.0942867 -0.128564 -0.137636 0.101494 -0.0411384 -0.0183017 0.111425
331 -1.08887 0.543772 -0.207896 0.748272 0.738052 -2.01224 1.08975 -0.109457 -0.730824 0.561622 -0.753807 -0.773159 0.232358 0.257177 -0.874148 -0.872873 0.10399 -0.508968 0.27625 0.0244968 -0.0564761 0.553863 -0.447533 0.030716 0.25372 -0.117882 0.151508 -0.383563 0.224515 0.25612 -0.427495 -0.287903 0.141766 -0.420855 0.27946 0.0131762 -0.13194 0.303083 -0.151775 -0.280982 -0.226203 0.0100264 0.255731 -0.316014 0.136074 -0.0539033 -0.138916 -0.556345 -0.118846 -0.0867772 0.210207 0.0913465 -0.0495193 -0.0689333 -0.15567 -0.100788 0.0818297 0.105331 -0.140687 -0.139137 0.0860676 -0.0242014 -0.0187816 0.0916201
171 -1.07063 0.532786 -0.211325 0.74665 0.717538 -1.99075 1.07671 -0.101067 -0.706352 0.559013 -0.748117 -0.793195 0.227739 0.260543 -0.877021 -0.892815 0.106217 -0.528019 0.28485 0.0216312 -0.0576693 0.562828 -0.444026 0.0274355 0.266073 -0.121907 0.139565 -0.368134 0.206413 0.24918 -0.414435 -0.275871 0.153038 -0.416108 0.240013 0.00432813 -0.105894 0.267578 -0.123803 -0.25312 -0.18789 0.000157423 0.237723 -0.307176 0.143823 -0.0602122 -0.128353 -0.497021 -0.124971 -0.0867798 0.200149 0.0828135 -0.0533838 -0.0762255 -0.15156 -0.0946707 0.0908811 0.0839367 -0.11759 -0.118139 0.0954318 -0.0375322 -0.025179 0.0880436
476 -1.10006 0.578777 -0.20728 0.75845 0.732454 -2.01082 1.11276 -0.101639 -0.711801 0.561197 -0.741637 -0.812431 0.220475 0.266493 -0.863436 -0.87028 0.12603 -0.514197 0.287881 0.00629884 -0.0541069 0.569551 -0.424745 0.0177664 0.247421 -0.108405 0.147801 -0.388879 0.227159 0.272213 -0.427428 -0.303124 0.146897 -0.431899 0.274963 0.00757261 -0.129967 0.301533 -0.125572 -0.279808 -0.220238 0.00685319 0.242822 -0.309012 0.149495 -0.0603522 -0.137592 -0.54656 -0.144188 -0.0985778 0.204173 0.0878593 -0.054687 -0.0756967 -0.158336 -0.102667 0.0924453 0.104668 -0.161749 -0.125468 0.0988543 -0.0318108 -0.0200727 0.103445
69 -1.11923 0.574228 -0.207278 0.749886 0.755495 -2.0258 1.11826 -0.0987954 -0.725011 0.561439 -0.746202 -0.815438 0.239813 0.25589 -0.901102 -0.904102 0.122426 -0.517693 0.305974 0.0423884 -0.0687818 0.584514 -0.430069 0.0235892 0.22397 -0.1151 0.151404 -0.39334 0.235379 0.26248 -0.426054 -0.297217 0.177423 -0.42605 0.247398 0.00233218 -0.125845 0.280746 -0.141124 -0.249854 -0.19406 -0.000553517 0.226746 -0.311531 0.140733 -0.0567141 -0.141048 -0.529977 -0.13372 -0.0733323 0.179026 0.0814051 -0.0705224 -0.066875 -0.156406 -0.115731 0.0641849 0.0997672 -0.150188 -0.120251 0.0984309 -0.0370648 -0.0400916 0.093499
337 -1.05249 0.531815 -0.220421 0.749306 0.704703 -1.95795 1.03697 -0.104779 -0.682004 0.53865 -0.731601 -0.739817 0.216074 0.264312 -0.842586 -0.848316 0.0977366 -0.517642 0.284173 0.0160015 -0.0534313 0.534637 -0.439954 0.0339811 0.261915 -0.127787 0.149008 -0.364056 0.216345 0.247627 -0.425805 -0.287418 0.120558 -0.402905 0.270548 0.0193546 -0.116629 0.308801 -0.129062 -0.280478 -0.211527 -0.00192705 0.247174 -0.310388 0.117308 -0.0661752 -0.119549 -0.533833 -0.131898 -0.109384 0.213964 0.101631 -0.0480086 -0.0747836 -0.150715 -0.111723 0.07333 0.0926953 -0.132838 -0.160886 0.101716 -0.0517323 -0.00465846 0.0911009
407 -1.13235 0.580455 -0.22689 0.769642 0.751136 -2.08545 1.13115 -0.0990786 -0.738428 0.575771 -0.782564 -0.829762 0.240291 0.281385 -0.919441 -0.928804 0.107558 -0.561844 0.298866 0.0120828 -0.0645663 0.568418 -0.463068 0.0317101 0.261295 -0.110337 0.17063 -0.407275 0.239462 0.283863 -0.440691 -0.296955 0.153691 -0.456587 0.304969 0.0126324 -0.129597 0.34644 -0.164608 -0.311498 -0.256296 0.0207192 0.277021 -0.356319 0.133365 -0.0729968 -0.12655 -0.579623 -0.139628 -0.109121 0.233488 0.104685 -0.0299435 -0.0839193 -0.154029 -0.128452 0.0810187 0.11857 -0.141596 -0.168856 0.11331 -0.039784 -0.0194171 0.116387
351 -1.13125 0.573326 -0.231181 0.766066 0.756133 -2.07448 1.13936 -0.0814453 -0.736307 0.581288 -0.742856 -0.844251 0.232153 0.259255 -0.923527 -0.930808 0.1154 -0.55258 0.305027 0.0180779 -0.067762 0.599878 -0.486169 0.026107 0.267838 -0.117254 0.160207 -0.413187 0.246151 0.261106 -0.443805 -0.288832 0.167681 -0.440534 0.259072 0.00288112 -0.137373 0.311488 -0.156294 -0.284122 -0.231565 -0.0128619 0.255722 -0.351161 0.143738 -0.0866627 -0.131773 -0.601868 -0.15615 -0.100198 0.234329 0.0981038 -0.0364877 -0.0993953 -0.156649 -0.135969 0.0940393 0.112415 -0.139191 -0.157465 0.104319 -0.0350372 -0.0205582 0.106725
324 -1.06998 0.532569 -0.213006 0.747482 0.711104 -1.97456 1.07689 -0.102224 -0.711352 0.54289 -0.736056 -0.747198 0.210843 0.255369 -0.830251 -0.852011 0.0966002 -0.501463 0.279576 0.0218638 -0.0554931 0.543532 -0.446101 0.0220996 0.255555 -0.115749 0.149732 -0.36537 0.213274 0.247228 -0.404592 -0.276256 0.13198 -0.387418 0.257608 0.00420792 -0.127458 0.28982 -0.128423 -0.28613 -0.211275 0.0131637 0.238822 -0.307194 0.136889 -0.0668993 -0.137566 -0.533657 -0.140053 -0.101345 0.197021 0.0737496 -0.0439284 -0.0735558 -0.131679 -0.0958366 0.0881363 0.093274 -0.113421 -0.101226 0.0820411 -0.0201448 -0.0204074 0.0825561
430 -0.987657 0.507422 -0.192697 0.678315 0.67986 -1.83492 1.01835 -0.0833836 -0.669501 0.527908 -0.679601 -0.723382 0.193813 0.234048 -0.818019 -0.804995 0.113576 -0.484727 0.246813 0.0251544 -0.040017 0.472542 -0.422612 0.0285603 0.224774 -0.104935 0.139656 -0.33873 0.19546 0.23245 -0.368491 -0.241144 0.137552 -0.353767 0.227912 0.0104874 -0.105804 0.248773 -0.102558 -0.242499 -0.196725 -0.00313052 0.236275 -0.272587 0.124986 -0.0680538 -0.133855 -0.488851 -0.100245 -0.0971266 0.181311 0.0562386 -0.0271787 -0.0687257 -0.106574 -0.0882764 0.0806774 0.0962392 -0.118575 -0.0993983 0.0832394 -0.0147882 -0.016837 0.0890428
492 -1.04266 0.560542 -0.223353 0.699275 0.71832 -1.92931 1.07267 -0.0627962 -0.680232 0.533338 -0.696722 -0.805125 0.226655 0.250594 -0.879376 -0.856701 0.115497 -0.510901 0.28428 0.0199701 -0.0537179 0.531079 -0.41772 0.0367063 0.235183 -0.102414 0.149821 -0.374173 0.222701 0.255534 -0.410766 -0.282103 0.145173 -0.410729 0.259848 0.00434795 -0.130359 0.289974 -0.156451 -0.261955 -0.217631 -0.0108164 0.247339 -0.325927 0.122042 -0.0702087 -0.12039 -0.54204 -0.122254 -0.0935463 0.198334 0.0773377 -0.0545386 -0.0643204 -0.136094 -0.0998775 0.0893388 0.0995709 -0.129923 -0.14737 0.0824864 -0.0286619 -0.0125121 0.0920044
370 -1.09561 0.565076 -0.247437 0.782601 0.745438 -2.06231 1.13796 -0.0817511 -0.718811 0.572714 -0.745231 -0.801341 0.237174 0.260536 -0.919037 -0.933352 0.118171 -0.56818 0.31257 0.00478026 -0.0728048 0.574611 -0.456355 0.0318519 0.247013 -0.12389 0.171965 -0.405098 0.255837 0.281576 -0.456161 -0.316892 0.156899 -0.462137 0.277493 0.0268884 -0.127493 0.307825 -0.153264 -0.297196 -0.21906 -0.0108237 0.236303 -0.334833 0.117437 -0.0547889 -0.132616 -0.553902 -0.147494 -0.110753 0.221855 0.0829134 -0.0465397 -0.0864209 -0.148955 -0.123175 0.0829688 0.0927483 -0.113535 -0.145475 0.0950482 -0.0554444 -0.00474723 0.111557
147 -0.984305 0.886038 0.0124227 0.551854 0.646596 -1.69626 1.42139 0.288645 -0.870632 0.495164 0.0586765 -1.17381 0.640984 -0.0918374 -0.807495 -0.845483 0.1814 -0.39582 0.319667 -0.22881 -0.47682 0.733716 -0.0106179 0.238645 -0.121998 -0.15067 0.353824 -0.358409 0.10877 0.202376 -0.413844 -0.320179 0.45507 -0.354155 0.204181 0.0223104 -0.162291 0.114214 -0.37492 0.0834129 -0.0686622 -0.367055 -0.0348609 -0.233289 0.181469 -0.0110685 0.0402664 -0.263023 -0.0718153 -0.0161622 0.0951406 0.473464 -0.253037 0.213766 -0.301609 -0.323072 -0.100995 -0.200615 0.0322649 -0.233639 0.070093 -0.20264 -0.198787 0.111244
54 -1.12034 0.548121 -0.232894 0.769048 0.757316 -2.07059 1.10749 -0.120225 -0.734513 0.566347 -0.796617 -0.802328 0.23588 0.270624 -0.90998 -0.91452 0.099563 -0.540664 0.288299 0.0341457 -0.0647785 0.573682 -0.46287 0.0387124 0.268351 -0.143167 0.142877 -0.381919 0.242314 0.27724 -0.45397 -0.306888 0.14183 -0.452141 0.268006 0.0121414 -0.131128 0.295061 -0.147749 -0.276339 -0.216822 0.00853444 0.259666 -0.333655 0.129908 -0.0602284 -0.128529 -0.553493 -0.123941 -0.0778157 0.21622 0.104911 -0.0453523 -0.0707408 -0.155432 -0.110376 0.0713461 0.106168 -0.125209 -0.153583 0.106515 -0.0443989 -0.0170413 0.112235
277 -1.04276 0.537885 -0.227766 0.758547 0.723019 -1.98309 1.0804 -0.108192 -0.699345 0.540015 -0.7528 -0.773307 0.221836 0.272011 -0.855494 -0.863673 0.107723 -0.523992 0.275117 0.00796645 -0.0381493 0.538463 -0.442283 0.0307557 0.275856 -0.123665 0.139109 -0.363826 0.225754 0.261867 -0.42156 -0.287519 0.124657 -0.412543 0.253871 0.00943307 -0.116987 0.292593 -0.119871 -0.263111 -0.211292 0.00894568 0.263366 -0.317836 0.129933 -0.068293 -0.125833 -0.557847 -0.116744 -0.0951539 0.229725 0.0884164 -0.0463559 -0.0811701 -0.159429 -0.0912709 0.0724423 0.0894814 -0.114599 -0.155452 0.0987834 -0.0411848 -0.00257321 0.0989149
132 -1.13604 0.617959 -0.229246 0.597615 0.473524 -1.82529 1.61531 0.196092 -0.87636 0.507712 -0.455683 -1.50316 0.348612 0.248302 -1.1143 -0.625709 -0.0214583 -0.443279 0.411896 -0.0485866 -0.233968 0.606184 -0.151351 0.209079 0.307215 0.263205 0.126729 -0.256793 0.242468 0.357035 -0.0267537 -0.347261 0.38682 -0.286381 0.213545 0.161641 -0.140488 0.352594 -0.209756 0.123839 0.0634867 0.123978 0.395694 -0.313121 0.271345 0.339761 0.0196853 0.14773 0.217591 0.014757 0.197586 -0.0348784 0.171132 -0.0521482 -0.17391 0.2491 -0.108654 -0.181461 0.287051 0.0212349 0.0871511 0.119551 -0.199255 0.142364
472 -1.05264 0.574552 -0.218949 0.554281 0.47627 -1.73806 1.52099 0.21002 -0.841412 0.451055 -0.435465 -1.45641 0.345747 0.222497 -1.06223 -0.611348 -0.028184 -0.439716 0.411708 -0.00442183 -0.228427 0.620609 -0.149494 0.193163 0.265812 0.253609 0.123711 -0.2548 0.237634 0.332356 -0.0363086 -0.327646 0.372667 -0.272362 0.200841 0.15676 -0.167664 0.328615 -0.191652 0.105983 0.0472017 0.079758 0.368383 -0.298793 0.264264 0.318888 0.0108812 0.110621 0.193916 0.013429 0.173519 -0.0139708 0.136373 -0.0510528 -0.172036 0.228218 -0.122398 -0.171418 0.271103 0.00742094 0.0817403 0.11956 -0.171992 0.106428
498 -1.04022 0.562651 -0.207702 0.558104 0.461337 -1.70114 1.50314 0.199861 -0.830998 0.453723 -0.432184 -1.42406 0.339478 0.225534 -1.05352 -0.576977 -0.0293538 -0.41872 0.381198 -0.0299509 -0.236013 0.577335 -0.135906 0.192012 0.292775 0.247955 0.13846 -0.261234 0.232683 0.335691 -0.0244338 -0.332692 0.366977 -0.267796 0.199357 0.155397 -0.149008 0.340737 -0.196044 0.108509 0.0414338 0.105752 0.39012 -0.287584 0.281899 0.341318 0.0243637 0.156642 0.212145 0.031223 0.185981 -0.0447686 0.174161 -0.042008 -0.157418 0.265255 -0.110081 -0.189572 0.279924 0.014292 0.0811686 0.13904 -0.195301 0.136611
176 -1.20854 0.63643 -0.230742 0.607999 0.484186 -1.85316 1.66741 0.230339 -0.919698 0.492643 -0.458885 -1.53821 0.370668 0.237069 -1.1277 -0.604784 -0.0617922 -0.438437 0.406753 -0.0236036 -0.249695 0.633511 -0.149163 0.218517 0.316254 0.282415 0.139629 -0.265711 0.244531 0.346957 -0.0221798 -0.349947 0.390718 -0.284091 0.212113 0.153077 -0.15311 0.343623 -0.20535 0.127204 0.0498677 0.106405 0.389534 -0.325255 0.283494 0.34523 0.0104799 0.109006 0.206349 0.0290621 0.207337 -0.00817317 0.140234 -0.0605427 -0.188517 0.237038 -0.124018 -0.193597 0.261344 -0.00353165 0.0823008 0.118197 -0.185114 0.118457
296 -1.15418 0.642819 -0.211347 0.578902 0.488645 -1.8346 1.62142 0.207267 -0.84756 0.503736 -0.45694 -1.49067 0.35681 0.228881 -1.13158 -0.610376 0.00374216 -0.439017 0.405573 -0.0461943 -0.237479 0.603013 -0.142803 0.217791 0.301077 0.250194 0.142676 -0.281278 0.235965 0.351231 -0.0109012 -0.342113 0.353027 -0.283771 0.201613 0.134777 -0.140888 0.333733 -0.213345 0.106893 0.0373973 0.105255 0.387828 -0.309647 0.281848 0.330225 0.00886315 0.150343 0.219671 0.0256068 0.191701 -0.0392827 0.181067 -0.054172 -0.196954 0.248381 -0.0906363 -0.17713 0.284286 0.00458147 0.0665992 0.124249 -0.216605 0.139666
108 -1.09561 0.582076 -0.22008 0.564936 0.468027 -1.75628 1.54185 0.216272 -0.8482 0.489667 -0.431643 -1.48328 0.343414 0.230246 -1.08188 -0.62172 -0.0316781 -0.433844 0.399948 -0.0306079 -0.231403 0.600267 -0.160927 0.198025 0.297079 0.252084 0.140845 -0.267507 0.226179 0.333598 -0.0386109 -0.346913 0.387324 -0.283097 0.20233 0.155249 -0.127267 0.340784 -0.201079 0.128466 0.0483421 0.102492 0.372924 -0.289495 0.266474 0.308014 0.0212573 0.119462 0.196764 0.0175465 0.189059 -0.0460266 0.159602 -0.060107 -0.174186 0.246203 -0.0943712 -0.185344 0.296263 0.0107083 0.0995533 0.119553 -0.197139 0.124947
364 -1.09095 0.589646 -0.225097 0.562686 0.477093 -1.76591 1.55361 0.200853 -0.851008 0.47236 -0.440022 -1.43737 0.342628 0.215855 -1.06825 -0.591514 -0.0200083 -0.427456 0.387593 -0.0298416 -0.219699 0.579135 -0.137225 0.190812 0.264382 0.236902 0.131538 -0.242354 0.210258 0.314365 -0.0332966 -0.307832 0.34054 -0.249627 0.19424 0.137782 -0.142714 0.304269 -0.178264 0.105929 0.0327522 0.0883984 0.354924 -0.280398 0.253371 0.291686 0.0134836 0.119548 0.196196 0.0230932 0.174889 -0.0197365 0.151871 -0.0418325 -0.164285 0.216303 -0.107438 -0.164459 0.255338 0.0217853 0.0760774 0.110624 -0.177811 0.115137
260 -1.10648 0.602913 -0.218367 0.589152 0.476654 -1.80561 1.59546 0.217498 -0.87714 0.478095 -0.45388 -1.53566 0.358591 0.247482 -1.11674 -0.629281 -0.0279595 -0.444993 0.411574 -0.0213905 -0.242804 0.630019 -0.158265 0.206693 0.302235 0.280389 0.152617 -0.285077 0.254601 0.350581 -0.0431568 -0.349821 0.388444 -0.289324 0.20796 0.150736 -0.159509 0.337881 -0.211518 0.111921 0.0474878 0.107826 0.388151 -0.326442 0.286546 0.34494 0.00700647 0.0995637 0.209409 0.0159408 0.202041 -0.0178112 0.12864 -0.0493434 -0.169654 0.250658 -0.105112 -0.18098 0.27943 0.00547364 0.0718645 0.123113 -0.192802 0.123309
404 -1.05485 0.581733 -0.209475 0.580019 0.466477 -1.80389 1.59584 0.192168 -0.864148 0.486283 -0.462175 -1.51087 0.369106 0.240584 -1.13081 -0.63134 8.90041e-05 -0.449392 0.424092 -0.0386632 -0.230485 0.6462 -0.167316 0.218122 0.303595 0.26779 0.142177 -0.296968 0.275011 0.374997 -0.0365614 -0.360318 0.386704 -0.308404 0.22844 0.151371 -0.169393 0.356133 -0.235567 0.10507 0.0466365 0.110846 0.388005 -0.328844 0.30295 0.340882 -0.00327414 0.112323 0.210702 0.00734176 0.197875 -0.00893066 0.148248 -0.0489767 -0.177021 0.248608 -0.105538 -0.182835 0.285102 0.0141373 0.0725851 0.119028 -0.20214 0.130962
436 -1.06929 0.579148 -0.216984 0.560185 0.451298 -1.73319 1.52422 0.208607 -0.833314 0.460118 -0.431679 -1.4368 0.344529 0.233971 -1.07243 -0.604384 -0.0349852 -0.436161 0.394096 -0.0254873 -0.217503 0.595035 -0.159258 0.201314 0.274949 0.235339 0.126668 -0.249968 0.222175 0.320523 -0.0351179 -0.329096 0.347768 -0.255073 0.20773 0.154604 -0.143604 0.321447 -0.197831 0.114439 0.0469972 0.082751 0.368419 -0.305668 0.263621 0.31796 0.00874755 0.113357 0.197893 -0.00472319 0.165163 -0.016186 0.132867 -0.0482177 -0.166849 0.218529 -0.115126 -0.166749 0.255596 0.0186066 0.0821795 0.109951 -0.184428 0.111001
417 -1.04816 0.566097 -0.217327 0.573091 0.445639 -1.73284 1.52969 0.206253 -0.82885 0.475026 -0.435728 -1.43532 0.34707 0.244328 -1.07422 -0.608232 -0.00912108 -0.439157 0.425007 -0.0334819 -0.218865 0.627411 -0.166255 0.206684 0.303113 0.245612 0.145988 -0.289525 0.261196 0.360038 -0.0421497 -0.347532 0.387868 -0.291526 0.22108 0.160903 -0.154649 0.345858 -0.226977 0.110793 0.0454076 0.0919275 0.370002 -0.306756 0.267368 0.313299 0.0165745 0.0885392 0.182003 0.00498515 0.1979 -0.0121926 0.138059 -0.0425238 -0.168077 0.236516 -0.103617 -0.191651 0.265532 0.00323463 0.0721447 0.103371 -0.184897 0.12397
168 -1.00472 0.559083 -0.211432 0.540183 0.455738 -1.68932 1.47167 0.192224 -0.787458 0.449009 -0.419549 -1.3919 0.334931 0.218678 -1.04354 -0.596643 0.00114751 -0.434046 0.39533 -0.0162714 -0.21522 0.586128 -0.130827 0.185804 0.267403 0.223807 0.123582 -0.251697 0.239859 0.33661 -0.0407341 -0.319719 0.344904 -0.267726 0.201171 0.135514 -0.159828 0.325973 -0.185954 0.106661 0.0524412 0.0732301 0.364849 -0.286013 0.262771 0.306051 0.0109824 0.111804 0.198738 0.0149603 0.167463 -0.0186642 0.15832 -0.0558582 -0.168408 0.230713 -0.102617 -0.181558 0.27971 0.00893965 0.0957347 0.11183 -0.17288 0.11446
76 -1.11972 0.595784 -0.226313 0.586644 0.472837 -1.79759 1.59003 0.197566 -0.850433 0.514146 -0.452373 -1.50089 0.347779 0.219529 -1.11829 -0.608839 -0.0106719 -0.423892 0.392793 -0.0519321 -0.240374 0.58705 -0.134886 0.185075 0.307755 0.262119 0.144484 -0.282107 0.224411 0.326556 -0.00369974 -0.327796 0.364672 -0.2697 0.180184 0.147776 -0.12466 0.320674 -0.193285 0.114255 0.0377497 0.116026 0.367493 -0.255764 0.256466 0.325244 0.0460885 0.19386 0.216542 0.0314308 0.169841 -0.0752205 0.209641 -0.0591724 -0.151027 0.273213 -0.0660215 -0.162492 0.282552 0.0258728 0.0587896 0.136832 -0.170037 0.128484
218 -1.08231 0.588884 -0.222281 0.565285 0.460077 -1.73465 1.5366 0.206313 -0.820483 0.466242 -0.43558 -1.42598 0.343424 0.227081 -1.07111 -0.596476 -0.018344 -0.430925 0.390464 -0.0381793 -0.223962 0.584087 -0.164608 0.213142 0.279592 0.259143 0.133409 -0.257837 0.243277 0.345633 -0.0290066 -0.324048 0.360106 -0.265959 0.202185 0.143397 -0.160723 0.334313 -0.19632 0.115615 0.0322042 0.0899171 0.378635 -0.299512 0.268051 0.326417 0.00332526 0.117231 0.196608 0.0137263 0.187944 -0.0331775 0.161069 -0.049539 -0.165576 0.244904 -0.116426 -0.178017 0.272458 0.00793725 0.0712359 0.113484 -0.19882 0.12124
163 -1.09194 0.607722 -0.224876 0.573294 0.474568 -1.74868 1.55259 0.196241 -0.836229 0.483415 -0.441055 -1.43798 0.347342 0.215752 -1.07803 -0.598073 -0.0226146 -0.418299 0.402429 -0.0346276 -0.225249 0.601004 -0.153762 0.19993 0.274362 0.262009 0.133684 -0.267496 0.235278 0.330724 -0.0295892 -0.32928 0.352374 -0.271703 0.200008 0.136915 -0.155756 0.311221 -0.192708 0.0937044 0.0400899 0.0927993 0.359288 -0.297211 0.25978 0.310701 0.0206041 0.105032 0.192168 0.0215239 0.1946 -0.0188186 0.134735 -0.0468051 -0.165675 0.221756 -0.100665 -0.162212 0.251324 0.00293616 0.0693796 0.106626 -0.176763 0.123283
60 -1.02504 0.581043 -0.20313 0.559332 0.494421 -1.77988 1.54598 0.194406 -0.816919 0.485315 -0.446928 -1.4956 0.362622 0.222297 -1.12423 -0.647435 0.00229617 -0.459198 0.43351 -0.0322818 -0.215203 0.627538 -0.160783 0.187107 0.273241 0.245475 0.150741 -0.303739 0.251223 0.36157 -0.0368389 -0.345267 0.364099 -0.284451 0.201484 0.133164 -0.15848 0.321357 -0.20678 0.098175 0.0342403 0.0834766 0.371982 -0.313754 0.273623 0.30293 0.00153816 0.101886 0.197138 0.0204499 0.177041 -0.0355077 0.147886 -0.0446724 -0.183695 0.230582 -0.09924 -0.160743 0.282832 0.00401397 0.0748971 0.118785 -0.186117 0.115653
355 -1.1133 1.01306 -0.16984 0.538279 0.565451 -1.43299 1.03037 0.128804 -0.508482 0.694147 -0.227305 -1.1996 0.179963 0.29469 -0.953964 -0.8997 0.440901 -0.800935 0.366807 0.119862 0.0759815 0.432251 -0.158206 -0.16988 0.0143464 0.146735 0.225761 -0.476243 0.254254 0.173543 -0.118319 -0.16814 0.594168 -0.317571 0.0321775 0.100047 0.124439 0.0182001 -0.216777 0.088564 0.109811 0.0378269 -0.0344668 -0.234051 0.288395 -0.0111162 0.0379646 -0.228082 -0.0671659 -0.100054 -0.0121376 0.131727 -0.133827 -0.00324646 0.0373983 -0.0756392 -0.108364 -0.0318223 -0.225763 -0.10626 -0.00963285 0.0147794 -0.117405 -0.0273777
145 -1.05973 0.951873 -0.169796 0.565353 0.554848 -1.39007 1.00069 0.139409 -0.511034 0.703087 -0.198755 -1.22175 0.168142 0.28378 -0.932819 -0.897382 0.442815 -0.775086 0.392671 0.127634 0.0895189 0.437032 -0.158263 -0.202863 0.0226641 0.168147 0.248961 -0.498464 0.257604 0.176561 -0.1126 -0.180302 0.637575 -0.327078 0.0264014 0.116218 0.176127 -0.0184777 -0.220683 0.118613 0.131917 0.0582323 -0.0609554 -0.267593 0.346284 -0.00311908 0.0683163 -0.250945 -0.0874128 -0.100701 -0.0509493 0.126463 -0.143393 -0.00235959 0.094792 -0.082064 -0.101547 -0.0469327 -0.228892 -0.11341 -0.00179439 0.0278174 -0.106664 -0.0223215
298 -1.10295 0.999309 -0.136682 0.535452 0.551851 -1.39985 0.995363 0.120116 -0.516884 0.720756 -0.204278 -1.20608 0.167072 0.314644 -0.949676 -0.913256 0.453401 -0.7942 0.36249 0.128064 0.08258 0.414092 -0.17404 -0.177802 0.0294251 0.177535 0.235903 -0.484491 0.239218 0.175223 -0.0937283 -0.155599 0.588834 -0.306346 0.0215666 0.0931203 0.143012 0.0074515 -0.208523 0.0929151 0.0988329 0.0270871 -0.0425388 -0.236231 0.306959 -0.00160858 0.0485454 -0.236084 -0.0610618 -0.09139 -0.042521 0.111853 -0.134692 -0.0165705 0.0590546 -0.0802517 -0.096633 -0.0309589 -0.215267 -0.102007 -0.00400949 0.0296786 -0.126103 -0.0293738
383 -1.14781 1.03307 -0.153075 0.586544 0.582083 -1.48287 1.05471 0.118312 -0.551362 0.751931 -0.227641 -1.25102 0.168654 0.317472 -0.972506 -0.933391 0.467221 -0.823907 0.391646 0.136323 0.0874838 0.452107 -0.179035 -0.205378 0.0229155 0.159846 0.214183 -0.48114 0.25243 0.191717 -0.101918 -0.164897 0.61572 -0.326178 0.0314497 0.099651 0.161339 0.0197542 -0.219361 0.108283 0.123107 0.0617784 -0.0302006 -0.264884 0.323963 0.00817646 0.0333556 -0.242836 -0.0883641 -0.093282 -0.0117091 0.134522 -0.146679 -0.0190257 0.0267777 -0.0907811 -0.100033 -0.0353781 -0.246171 -0.105087 -0.00987679 0.0124021 -0.116709 -0.0342031
229 -1.13127 1.01187 -0.164694 0.577348 0.581755 -1.49318 1.07555 0.120532 -0.551092 0.715677 -0.228228 -1.26851 0.179924 0.315089 -0.991138 -0.934948 0.452165 -0.830161 0.390878 0.115422 0.0847158 0.447132 -0.160376 -0.198689 0.049685 0.163956 0.238218 -0.499793 0.255144 0.177427 -0.107207 -0.163716 0.632287 -0.333492 0.0248087 0.100251 0.153329 0.0175992 -0.218873 0.101827 0.133366 0.0612384 -0.0290293 -0.26637 0.336831 -0.00236188 0.0527802 -0.251065 -0.0705727 -0.103261 -0.0277415 0.144484 -0.144145 -0.00919516 0.0488464 -0.0777995 -0.109772 -0.044877 -0.231168 -0.127623 -0.0120811 -0.000857665 -0.130508 -0.018022
219 -1.00332 0.653705 -0.663717 0.474235 0.820058 -1.59133 1.60272 0.198951 -0.363086 0.550073 -0.209459 -1.30404 0.391504 -0.30104 -1.29332 -0.678336 0.236719 -0.417235 0.681765 0.135927 -0.0830044 0.470719 -0.347994 -0.0211531 -0.177574 0.184812 0.178737 -0.497849 0.478432 0.338498 -0.170572 -0.307103 0.445176 -0.541785 0.0743089 0.0585839 -0.250425 0.0397841 -0.27627 -0.0733043 -0.164661 0.0579626 0.1376 -0.63724 0.16433 -0.164717 -0.129422 0.0268207 -0.186001 0.0874345 0.438406 0.0112662 -0.191819 -0.184767 0.0313121 -0.103109 -0.0709832 0.0910777 -0.127543 4.24347e-05 0.0747195 -0.288365 -0.108261 0.241328
453 -0.959018 0.634566 -0.667716 0.464793 0.80803 -1.55986 1.55831 0.192638 -0.320175 0.525809 -0.205363 -1.28305 0.421183 -0.327356 -1.24458 -0.684608 0.221068 -0.42766 0.666779 0.12023 -0.0916312 0.459719 -0.333017 -0.0277286 -0.183684 0.192436 0.206131 -0.480961 0.464842 0.320718 -0.164342 -0.301957 0.450337 -0.510038 0.0778522 0.0614433 -0.254522 0.0266166 -0.277843 -0.0678353 -0.1577 0.0646177 0.143862 -0.637135 0.153824 -0.169992 -0.127658 0.0264134 -0.164849 0.0435181 0.404381 0.0287102 -0.181984 -0.141103 0.0191142 -0.0976747 -0.0596105 0.0777663 -0.105904 -0.0151379 0.0641802 -0.256205 -0.0882954 0.210859
309 -0.95653 0.610638 -0.70941 0.473888 0.807225 -1.52601 1.54927 0.163347 -0.302147 0.519307 -0.213407 -1.24187 0.41396 -0.36521 -1.23447 -0.646624 0.209029 -0.401875 0.636396 0.104096 -0.100033 0.39784 -0.336164 -0.0212319 -0.187464 0.204401 0.18805 -0.437265 0.427783 0.294107 -0.153554 -0.280181 0.425192 -0.482053 0.0846527 0.0785815 -0.257833 0.0123803 -0.284049 -0.0934928 -0.17111 0.0826879 0.12526 -0.611398 0.141868 -0.182912 -0.128643 0.0443488 -0.171728 0.0676515 0.445453 0.0172661 -0.200591 -0.159955 0.0469107 -0.0641053 -0.0491111 0.101126 -0.123034 -0.00575848 0.0673737 -0.264425 -0.0913817 0.220951
491 -0.97065 0.640778 -0.691376 0.462229 0.815301 -1.57597 1.56349 0.199579 -0.344252 0.543481 -0.205055 -1.24521 0.407865 -0.322434 -1.22071 -0.65781 0.215406 -0.412829 0.61988 0.116936 -0.0991827 0.399504 -0.331844 0.00370385 -0.175029 0.183126 0.206031 -0.457001 0.423107 0.282179 -0.156008 -0.286009 0.417894 -0.477533 0.089271 0.0750689 -0.25416 0.00236936 -0.277599 -0.0817444 -0.180084 0.056763 0.128951 -0.614965 0.142917 -0.18438 -0.128552 0.0426842 -0.158975 0.0634662 0.406052 0.000686656 -0.193543 -0.135618 0.0359487 -0.0805298 -0.0399118 0.0909041 -0.106284 -0.00174648 0.0542078 -0.237144 -0.0797371 0.203251
142 -0.950018 0.608524 -0.687117 0.479661 0.835954 -1.6164 1.61341 0.178623 -0.351458 0.557183 -0.233586 -1.28229 0.4165 -0.314221 -1.28177 -0.681093 0.227377 -0.431299 0.676145 0.127801 -0.0987048 0.439085 -0.370338 -0.014721 -0.172731 0.189245 0.221241 -0.484096 0.448936 0.315487 -0.154554 -0.307448 0.45354 -0.495869 0.097621 0.0774997 -0.269454 0.0230525 -0.292909 -0.0934245 -0.170265 0.0802298 0.16866 -0.670242 0.163578 -0.174394 -0.169191 0.0211118 -0.164324 0.06089 0.476097 0.024068 -0.209833 -0.160935 0.0403563 -0.0879349 -0.0812412 0.0907483 -0.147192 0.0103936 0.0733445 -0.266047 -0.118002 0.221244
216 -0.909539 0.607706 -0.656557 0.451499 0.779784 -1.53572 1.52557 0.18025 -0.300623 0.515772 -0.21915 -1.23658 0.407135 -0.324199 -1.22114 -0.64186 0.22598 -0.408341 0.673841 0.121674 -0.111741 0.436759 -0.35165 -0.0196154 -0.207383 0.203437 0.203607 -0.454448 0.447289 0.321022 -0.157581 -0.301546 0.41573 -0.471319 0.0855277 0.062091 -0.23592 0.0192843 -0.27705 -0.0806008 -0.151986 0.0627721 0.166005 -0.641012 0.164313 -0.18186 -0.144675 0.0343283 -0.157798 0.0445395 0.424272 0.0133643 -0.186451 -0.15169 0.0284708 -0.0843695 -0.0537343 0.0954907 -0.111364 -8.60274e-05 0.0597442 -0.252097 -0.085189 0.20558
155 -0.969239 0.624441 -0.69377 0.494938 0.822622 -1.60739 1.59554 0.185737 -0.330882 0.541179 -0.230151 -1.24736 0.403485 -0.314947 -1.26343 -0.673044 0.231335 -0.44588 0.641716 0.105802 -0.09613 0.441631 -0.332594 -0.0223757 -0.16071 0.174996 0.189376 -0.447095 0.428035 0.305823 -0.170156 -0.300302 0.430122 -0.490557 0.0912396 0.0662123 -0.244835 0.0235039 -0.263989 -0.0830631 -0.148663 0.0791491 0.14715 -0.604988 0.156949 -0.173787 -0.142431 0.0195528 -0.17189 0.0532544 0.423448 0.0416064 -0.184226 -0.143201 0.0248917 -0.0941142 -0.0652642 0.084879 -0.123249 0.00487244 0.0700468 -0.232506 -0.083596 0.203236
264 -0.977164 0.647761 -0.701573 0.479744 0.804354 -1.54715 1.59999 0.182124 -0.295385 0.530127 -0.193857 -1.29174 0.431708 -0.375058 -1.2938 -0.678731 0.221342 -0.426101 0.676716 0.0967013 -0.112699 0.421269 -0.34185 -0.0208623 -0.183437 0.1903 0.206482 -0.467908 0.446875 0.30394 -0.14908 -0.307414 0.439335 -0.501402 0.0838698 0.0710961 -0.225644 0.010196 -0.285195 -0.082215 -0.156588 0.0741318 0.12377 -0.581167 0.124187 -0.175322 -0.107746 0.0486092 -0.163755 0.0489308 0.417994 0.0271728 -0.18258 -0.148616 0.0222221 -0.0822951 -0.0588501 0.0706535 -0.111985 -0.0101065 0.0595158 -0.245821 -0.0733892 0.20359
291 -0.893362 0.59714 -0.658039 0.467438 0.778892 -1.5458 1.52492 0.178649 -0.333643 0.522991 -0.214094 -1.22406 0.390065 -0.286332 -1.19681 -0.644065 0.234762 -0.390426 0.634133 0.115375 -0.0904296 0.438848 -0.346142 -0.00999419 -0.171752 0.212664 0.183703 -0.455837 0.440181 0.30483 -0.164006 -0.299574 0.412755 -0.47522 0.0874306 0.0607974 -0.259677 0.0229864 -0.275827 -0.0775921 -0.160483 0.0688156 0.133434 -0.606572 0.161279 -0.16276 -0.141729 0.0314231 -0.171438 0.0448055 0.403194 0.00656703 -0.193168 -0.149349 0.0345771 -0.0761574 -0.0341456 0.0939146 -0.109483 0.00872457 0.0635082 -0.236319 -0.0910046 0.184721
274 -0.896038 0.611294 -0.594056 0.457031 0.777395 -1.54344 1.4815 0.183446 -0.355899 0.523694 -0.216149 -1.18901 0.369217 -0.239962 -1.15682 -0.649463 0.222022 -0.390088 0.610605 0.125015 -0.0781356 0.445832 -0.336638 -0.0169698 -0.161162 0.187593 0.192725 -0.466501 0.4289 0.304271 -0.163856 -0.293473 0.400232 -0.46532 0.0916503 0.0462474 -0.239408 0.0313037 -0.250663 -0.0742973 -0.155397 0.0642916 0.150353 -0.605905 0.155217 -0.17199 -0.140345 0.00307043 -0.161058 0.0520054 0.414176 0.00705954 -0.1921 -0.159392 0.0211574 -0.0858011 -0.0483329 0.0933636 -0.122458 0.00248644 0.0657317 -0.249151 -0.0989498 0.196737
162 -0.886055 0.573268 -0.619961 0.44279 0.747788 -1.46443 1.45505 0.170947 -0.322539 0.50681 -0.211418 -1.17135 0.357431 -0.282228 -1.15326 -0.609955 0.205166 -0.395569 0.631 0.112773 -0.0810634 0.420343 -0.324258 -0.0187653 -0.156535 0.187849 0.186113 -0.459001 0.439378 0.306483 -0.153489 -0.295618 0.413657 -0.473304 0.0800781 0.0538022 -0.243523 0.0266261 -0.263755 -0.0799096 -0.155174 0.0692995 0.14081 -0.641287 0.177024 -0.168358 -0.13242 0.00684877 -0.157445 0.0715329 0.421596 0.0171486 -0.191219 -0.161924 0.0218431 -0.0772504 -0.0539411 0.0964298 -0.115422 -0.00386024 0.0685791 -0.252429 -0.0979978 0.208535
448 -0.983406 0.620103 -0.722449 0.493132 0.822624 -1.60636 1.61255 0.189378 -0.327728 0.55185 -0.214434 -1.28971 0.424585 -0.349493 -1.2571 -0.660865 0.227353 -0.413998 0.674155 0.103558 -0.102584 0.450582 -0.360921 -0.010653 -0.180691 0.209617 0.193979 -0.485411 0.460091 0.321577 -0.189706 -0.32004 0.446866 -0.524628 0.0939326 0.0852461 -0.26341 0.019788 -0.288442 -0.0738502 -0.186384 0.0783406 0.154795 -0.658257 0.164428 -0.183112 -0.142586 0.0278499 -0.171906 0.0672663 0.441215 0.0212985 -0.194063 -0.151828 0.0489142 -0.0808708 -0.0568616 0.0934566 -0.101894 0.00341261 0.0783813 -0.258386 -0.0850056 0.220887
328 -0.916894 0.59719 -0.6365 0.479401 0.796645 -1.53519 1.53746 0.166243 -0.348412 0.517546 -0.203325 -1.21709 0.386597 -0.298444 -1.18669 -0.625749 0.205758 -0.396055 0.640772 0.107328 -0.104662 0.419876 -0.346391 -0.0167799 -0.173504 0.180648 0.214963 -0.465861 0.427032 0.312448 -0.160964 -0.299014 0.427314 -0.475019 0.0866906 0.0799858 -0.224911 0.0122593 -0.260119 -0.0605549 -0.154914 0.0466205 0.143273 -0.611258 0.168367 -0.180308 -0.125383 0.0116746 -0.171827 0.0591888 0.426721 0.00694534 -0.204535 -0.155006 0.0326604 -0.08177 -0.0640906 0.0822633 -0.131711 -0.00179067 0.0729794 -0.243392 -0.0807417 0.210678
14 -0.870018 0.583139 -0.670078 0.460681 0.772501 -1.50333 1.50778 0.165959 -0.281874 0.4974 -0.201432 -1.18323 0.380378 -0.293511 -1.18128 -0.609799 0.210591 -0.408135 0.642951 0.11212 -0.0797516 0.399985 -0.323857 -0.0386059 -0.186312 0.188597 0.215698 -0.454805 0.456439 0.306894 -0.135223 -0.293434 0.422518 -0.47553 0.072612 0.0725987 -0.229922 0.00471184 -0.27585 -0.0735268 -0.147353 0.0732686 0.146461 -0.62353 0.139338 -0.193303 -0.136367 0.0372042 -0.143326 0.0397454 0.411367 0.00243922 -0.182326 -0.155409 0.0293136 -0.062518 -0.0618077 0.0875433 -0.0948268 -0.012814 0.0504976 -0.259253 -0.0706078 0.198962
194 -0.942589 0.623479 -0.693183 0.484143 0.812725 -1.57496 1.56773 0.177716 -0.307952 0.527453 -0.223957 -1.27749 0.423195 -0.302612 -1.2699 -0.686374 0.238207 -0.429756 0.652775 0.106812 -0.0955512 0.43885 -0.354789 0.0012098 -0.178983 0.187834 0.204366 -0.475325 0.461731 0.314521 -0.159419 -0.312994 0.424065 -0.505814 0.100183 0.0649933 -0.242267 0.0183134 -0.298028 -0.0871409 -0.145665 0.0651225 0.133687 -0.595829 0.123849 -0.169764 -0.125892 -0.0110947 -0.155588 0.0522865 0.35692 0.0117525 -0.167795 -0.120846 0.0180065 -0.0625276 -0.0554582 0.0793405 -0.0933916 -0.0165085 0.0433102 -0.214081 -0.0563616 0.177289
58 -0.860598 0.558041 -0.637105 0.425892 0.781445 -1.46742 1.46875 0.146196 -0.291225 0.48816 -0.204903 -1.1847 0.368043 -0.320051 -1.16862 -0.594823 0.188942 -0.369197 0.634089 0.134659 -0.0951288 0.415137 -0.335284 -0.0267191 -0.183559 0.202114 0.210818 -0.448302 0.421764 0.289437 -0.139096 -0.279188 0.41805 -0.457393 0.0631511 0.0642221 -0.245773 0.0247553 -0.253652 -0.0827676 -0.157904 0.0770761 0.145309 -0.637782 0.164912 -0.19559 -0.144467 0.0165243 -0.160097 0.0635548 0.445708 -0.00120274 -0.194689 -0.178754 0.0465875 -0.0839962 -0.0560858 0.120232 -0.125869 0.00330275 0.0641712 -0.235386 -0.0817632 0.197994
53 -0.867547 0.575489 -0.666615 0.4394 0.762691 -1.45425 1.45114 0.15171 -0.270598 0.494088 -0.20025 -1.16452 0.37701 -0.310168 -1.16319 -0.616543 0.201951 -0.402355 0.598485 0.111406 -0.0754046 0.374159 -0.301071 -0.0334008 -0.179199 0.198698 0.196899 -0.439126 0.411712 0.277408 -0.135462 -0.262848 0.411692 -0.449671 0.0678609 0.0646193 -0.227606 0.0175753 -0.249308 -0.0813523 -0.152815 0.0801609 0.133383 -0.591888 0.142675 -0.172647 -0.129466 0.0288685 -0.159467 0.0465479 0.421659 0.0259726 -0.196002 -0.157151 0.048668 -0.0692767 -0.0631482 0.0953081 -0.116428 0.00363532 0.0635634 -0.22901 -0.0870879 0.195323
56 -0.869241 0.574174 -0.629293 0.446963 0.78194 -1.52858 1.48599 0.167498 -0.315695 0.514958 -0.223678 -1.1837 0.382493 -0.282213 -1.186 -0.64745 0.212778 -0.412885 0.633707 0.130499 -0.095538 0.42415 -0.335162 -0.014019 -0.182151 0.192008 0.208123 -0.437368 0.434194 0.308287 -0.151479 -0.278921 0.416072 -0.449151 0.095054 0.0707034 -0.236014 0.0211332 -0.274862 -0.0818556 -0.159268 0.0556801 0.155588 -0.67909 0.172393 -0.194102 -0.157445 0.0171747 -0.151701 0.0596395 0.415833 0.0065635 -0.190639 -0.159675 0.0377199 -0.0783227 -0.0744569 0.0959463 -0.104964 0.0096053 0.07247 -0.250443 -0.093049 0.201651
158 -0.935749 0.593831 -0.740709 0.485211 0.818096 -1.57233 1.59826 0.176816 -0.279032 0.518336 -0.209314 -1.2772 0.419495 -0.363894 -1.26189 -0.673126 0.226238 -0.420846 0.678353 0.0921263 -0.120273 0.43229 -0.3398 -0.0135332 -0.19548 0.199304 0.206372 -0.458728 0.445995 0.32745 -0.160574 -0.323366 0.443868 -0.510977 0.100105 0.0751718 -0.227705 0.0271996 -0.299142 -0.081009 -0.158537 0.0681244 0.143853 -0.621212 0.140407 -0.181203 -0.131643 0.0407162 -0.163681 0.0618224 0.381846 0.00557598 -0.172606 -0.138091 0.0322473 -0.0816102 -0.0622101 0.0909717 -0.0840411 0.000168113 0.0515805 -0.221999 -0.0628681 0.190101
486 -0.868184 0.555397 -0.611294 0.426346 0.726551 -1.45854 1.42102 0.166611 -0.299894 0.507207 -0.209728 -1.14405 0.365179 -0.277244 -1.15212 -0.610476 0.209705 -0.391767 0.634122 0.125874 -0.0870118 0.390023 -0.336636 -0.0256454 -0.175342 0.195795 0.191817 -0.439251 0.443084 0.304807 -0.150952 -0.282587 0.414909 -0.464298 0.0808148 0.0746353 -0.244643 0.0187554 -0.264616 -0.0900294 -0.160076 0.0858031 0.170727 -0.653877 0.166697 -0.192375 -0.163554 0.0430336 -0.145031 0.0609782 0.457003 0.00517891 -0.187662 -0.159019 0.0483421 -0.081538 -0.0613732 0.105886 -0.0924914 0.014736 0.0784467 -0.242505 -0.0915461 0.195987
489 -0.9562 0.66065 -0.660282 0.473199 0.812541 -1.57875 1.55514 0.191132 -0.327788 0.532576 -0.213235 -1.26724 0.402832 -0.298337 -1.23924 -0.672401 0.242182 -0.427539 0.657682 0.119785 -0.084595 0.454126 -0.32738 -0.0369246 -0.192345 0.185875 0.203194 -0.459519 0.46721 0.333772 -0.149823 -0.307186 0.433957 -0.488051 0.0839444 0.0552168 -0.237412 0.0170472 -0.266053 -0.086658 -0.132057 0.0736494 0.133223 -0.600063 0.144008 -0.142112 -0.139022 -0.00340769 -0.14358 0.0484175 0.411183 0.0283092 -0.176015 -0.145171 0.0198595 -0.0825815 -0.0690136 0.103617 -0.123724 -0.0135785 0.0652443 -0.251436 -0.0904439 0.194293
34 -0.845869 0.569309 -0.681653 0.4362 0.748842 -1.43794 1.46844 0.166925 -0.255436 0.486888 -0.190406 -1.21095 0.38977 -0.332187 -1.17967 -0.624559 0.22444 -0.39667 0.673767 0.097574 -0.0947623 0.426439 -0.324279 -0.0354363 -0.199606 0.230497 0.19547 -0.444211 0.440983 0.313346 -0.140919 -0.298147 0.40105 -0.457359 0.07972 0.0628651 -0.233379 0.0229954 -0.275598 -0.0668796 -0.133058 0.0653912 0.140917 -0.633395 0.162611 -0.178696 -0.138764 0.00377693 -0.149395 0.055221 0.397988 0.00467398 -0.193743 -0.135684 0.0279003 -0.0763587 -0.0617224 0.0905777 -0.0835346 -0.00964069 0.0461843 -0.23536 -0.0757766 0.204739
426 -0.979192 0.660961 -0.649006 0.486906 0.809478 -1.59557 1.55969 0.201526 -0.356887 0.543318 -0.207437 -1.26237 0.398849 -0.275389 -1.23457 -0.669792 0.22652 -0.414632 0.681022 0.124734 -0.0861317 0.45318 -0.346107 -0.0258542 -0.174454 0.190113 0.202796 -0.490846 0.462738 0.339471 -0.176592 -0.330445 0.453651 -0.512679 0.093253 0.0671794 -0.261854 0.016577 -0.267395 -0.0808718 -0.162973 0.0605955 0.156078 -0.636513 0.16252 -0.174631 -0.155868 0.00359366 -0.162908 0.0590261 0.412736 0.00957275 -0.18934 -0.162432 0.013639 -0.0898482 -0.0537728 0.0980367 -0.12265 0.011194 0.0789913 -0.275088 -0.0878341 0.207943
183 -0.86021 0.583961 -0.621931 0.443418 0.756686 -1.46897 1.44898 0.176899 -0.309085 0.501694 -0.211465 -1.18253 0.365398 -0.27168 -1.14556 -0.620062 0.231114 -0.391954 0.615008 0.115722 -0.0833073 0.421055 -0.30379 -0.0375956 -0.165903 0.199854 0.202159 -0.468195 0.445926 0.311775 -0.156803 -0.305773 0.43141 -0.481664 0.0763194 0.0549711 -0.249627 0.0118283 -0.272857 -0.0698428 -0.14149 0.0657359 0.143946 -0.624421 0.169457 -0.184222 -0.14981 0.00681773 -0.165755 0.0594862 0.416203 0.00778039 -0.203128 -0.159352 0.0184759 -0.0765955 -0.0567276 0.10099 -0.123862 -0.000586397 0.0694283 -0.259921 -0.0976446 0.205728
464 -0.960451 0.629866 -0.693671 0.472092 0.798862 -1.53612 1.57586 0.168237 -0.30667 0.498605 -0.206295 -1.24546 0.417532 -0.341587 -1.23564 -0.636811 0.200963 -0.389539 0.668334 0.107785 -0.104826 0.420909 -0.362429 -0.0168787 -0.190792 0.191811 0.204263 -0.470291 0.467166 0.313806 -0.169557 -0.297217 0.432569 -0.511991 0.0872188 0.071526 -0.253127 0.00749587 -0.291085 -0.0958659 -0.189731 0.0793305 0.145568 -0.641139 0.140675 -0.193989 -0.123584 0.0549156 -0.173781 0.0539683 0.44882 0.0111694 -0.187972 -0.177783 0.0484128 -0.0931499 -0.0528246 0.11267 -0.125165 -0.00360587 0.0619672 -0.288105 -0.0765985 0.221983
