300 64
76 -0.379015 0.308324 -0.012364 -0.00831661 0.0825443 0.0988141 -0.371698 -0.237305 0.166484 -0.131902 -0.214802 -0.146711 -0.6012 0.0959378 -0.180345 -0.657362 -0.0740695 0.392296 0.255864 -0.657976 -0.556777 -0.144289 -0.207956 -0.091493 0.0849084 -0.128608 -0.419005 0.0215439 0.132296 0.402529 0.56935 -0.513165 -0.179239 -0.152864 0.470724 -0.255049 0.922654 0.326756 0.385576 0.35716 0.511768 0.00387864 0.0201116 -0.16705 -0.444538 0.0815618 0.672185 0.95745 -0.641327 0.491488 -0.201658 -0.572955 0.140762 1.17773 -0.567084 0.979616 1.35314 0.48015 0.139771 0.482047 -0.235758 -0.0134722 -0.567812 -0.0411301
221 -0.345502 0.354762 0.180099 0.198629 0.091767 0.0649532 -0.410103 -0.222322 0.297382 -0.29344 -0.283657 -0.192875 -0.467075 0.080435 -0.135162 -0.475607 -0.163655 0.28731 0.210998 -0.654902 -0.574592 -0.129462 -0.103862 0.00906689 -0.0107525 -0.199732 -0.347034 0.0641146 0.224494 0.541923 0.456651 -0.486778 -0.0200027 -0.0174298 0.63743 -0.404989 0.943332 0.343103 0.502282 0.382504 0.650454 -0.119856 -0.0685111 -0.126344 -0.52735 0.226048 0.504827 0.978961 -0.701623 0.493661 -0.126222 -0.560127 0.170947 1.13211 -0.629882 0.777576 0.985724 0.554878 0.163174 0.611317 -0.124576 0.0366058 -0.767458 -0.0892484
240 -0.182226 0.222146 0.112747 0.210623 0.185601 0.11487 -0.285336 -0.188099 0.381958 -0.373786 -0.233517 -0.219721 -0.684055 0.0265105 -0.178866 -0.642358 -0.0791172 0.202476 0.341891 -0.630363 -0.492905 -0.382109 -0.115177 -0.0755052 -0.0635157 -0.254312 -0.414346 0.103931 0.0499239 0.415861 0.397987 -0.473243 -0.0485543 0.0188286 0.380427 -0.263026 0.885521 0.273996 0.453463 0.246115 0.553104 -0.109374 -0.0090915 -0.192525 -0.403137 0.296228 0.525791 1.01512 -0.571292 0.371493 -0.138077 -0.382847 0.31553 1.15858 -0.669926 1.02544 1.1368 0.588282 0.139131 0.677763 -0.139687 0.0904391 -0.944858 -0.130395
129 -0.362379 0.388684 0.0441583 0.152296 0.222032 0.273028 -0.238687 -0.199138 0.35395 -0.416327 -0.245467 -0.365994 -0.645884 0.00472286 -0.139388 -0.409042 -0.0411815 0.345937 0.288147 -0.654149 -0.656332 -0.272487 -0.0429647 -0.127696 0.0298065 -0.299852 -0.420885 0.057083 0.126322 0.411548 0.288227 -0.46846 -0.18196 0.101251 0.394158 -0.311486 0.971099 0.240393 0.417958 0.272538 0.644227 -0.140191 -0.0717159 -0.301382 -0.538511 0.086362 0.51766 1.05304 -0.379676 0.42264 -0.241998 -0.608403 0.22253 1.21409 -0.548001 0.903017 0.933872 0.482402 0.245781 0.619955 -0.121014 0.0759967 -0.840104 -0.20841
295 -0.386948 0.36707 0.0360017 0.224102 0.290121 0.276532 -0.189989 -0.154869 0.335713 -0.444601 -0.251651 -0.448089 -0.665623 -0.0495925 -0.11586 -0.49989 -0.0161892 0.343362 0.339412 -0.789152 -0.749575 -0.264092 -0.106074 -0.0485307 0.0385307 -0.317431 -0.515079 0.153135 0.106151 0.408368 0.304924 -0.45222 -0.189651 0.128543 0.334443 -0.232617 0.938577 0.181278 0.443495 0.187409 0.575801 -0.151285 -0.0796122 -0.247338 -0.510472 0.110304 0.578815 1.02352 -0.283385 0.433116 -0.232076 -0.590911 0.223218 1.1631 -0.549039 0.913074 0.956178 0.483955 0.150445 0.549734 -0.120057 0.119208 -0.7572 -0.236416
229 -0.228921 0.218758 0.054283 0.207593 0.188043 0.130518 -0.190892 -0.0768807 0.320775 -0.339654 -0.125507 -0.343561 -0.500307 0.0505418 -0.190613 -0.484285 -0.00576141 0.209494 0.413751 -0.789852 -0.602486 -0.36166 -0.130261 -0.121041 -0.109961 -0.414989 -0.488314 0.125961 0.0386999 0.415502 0.437203 -0.449472 -0.127386 0.020958 0.40229 -0.214587 0.92506 0.257057 0.473495 0.251065 0.516835 -0.0427634 -0.0106801 -0.213756 -0.423627 0.24213 0.512602 0.96525 -0.514768 0.418492 -0.18351 -0.414251 0.282307 1.1282 -0.564902 0.967122 1.02509 0.541298 0.156271 0.530793 -0.176782 0.124787 -0.805678 -0.138119
269 -0.132651 0.166898 0.00133653 0.107592 0.152252 0.203741 -0.203054 -0.134618 0.32558 -0.21806 -0.145218 -0.115349 -0.54511 0.0863948 -0.0625955 -0.592207 -0.06161 0.299404 0.295933 -0.592035 -0.549667 -0.204415 -0.217414 0.0241101 0.0861243 -0.269191 -0.531683 0.0927538 -0.201099 0.287683 0.444268 -0.376861 -0.155084 0.0620981 0.326027 -0.295357 0.876827 0.0659934 0.450998 0.148514 0.430028 -0.0245826 0.0528006 -0.180636 -0.225159 0.285608 0.820018 1.042 -0.653632 0.462235 -0.125955 -0.434457 0.156473 1.07305 -0.578185 1.06001 1.30188 0.45444 0.00386549 0.434225 -0.327863 0.0829287 -0.706664 -0.085282
150 -0.202467 0.262338 0.0590533 0.240366 0.283405 0.173367 -0.142532 -0.121525 0.291098 -0.40517 -0.236959 -0.305758 -0.588085 -0.0284212 -0.0757535 -0.378542 -0.0285986 0.358601 0.303798 -0.749385 -0.676275 -0.185647 -0.0823259 0.001404 0.088228 -0.255183 -0.540683 0.129593 0.0860317 0.387374 0.324914 -0.421613 -0.204501 0.0588945 0.425016 -0.331679 0.981546 0.191623 0.484785 0.19658 0.527743 -0.132604 -0.0418501 -0.24662 -0.507361 0.0746396 0.614093 1.05209 -0.492852 0.486502 -0.242183 -0.678248 0.188139 1.19461 -0.551033 0.903199 0.981535 0.492112 0.083266 0.586718 -0.114158 0.12824 -0.737539 -0.220097
216 -0.417812 0.390191 0.0339267 0.145385 0.297168 0.282774 -0.204881 -0.175963 0.248041 -0.357886 -0.293286 -0.381604 -0.682521 -0.0894182 -0.0812942 -0.474747 -0.0522897 0.301802 0.296397 -0.740241 -0.729423 -0.261018 -0.144105 -0.114347 0.0429008 -0.201998 -0.456056 0.0966257 0.134945 0.39671 0.3312 -0.448308 -0.128897 0.0567235 0.384026 -0.242582 0.987163 0.299179 0.423112 0.269443 0.530202 -0.164008 -0.0723708 -0.178387 -0.477686 0.0856134 0.523975 1.02189 -0.379205 0.421562 -0.260683 -0.57206 0.224485 1.19074 -0.613628 0.894865 0.953235 0.459811 0.175891 0.600157 -0.122517 0.0912903 -0.739053 -0.224496
115 -0.416219 0.419644 0.0147325 0.203111 0.301411 0.259214 -0.209618 -0.186334 0.361071 -0.444469 -0.248782 -0.444703 -0.707776 -0.0364161 -0.12677 -0.496171 -0.0403016 0.391014 0.359257 -0.822686 -0.785227 -0.274277 -0.114704 -0.0455549 0.0158226 -0.31112 -0.523619 0.156107 0.101787 0.429078 0.30396 -0.45659 -0.190137 0.122242 0.331202 -0.24669 0.920439 0.157703 0.480727 0.165164 0.594627 -0.129596 -0.0881461 -0.242088 -0.504177 0.125304 0.567903 1.06193 -0.298167 0.45307 -0.250854 -0.621005 0.177364 1.20425 -0.530737 0.891957 0.899804 0.492035 0.150762 0.55024 -0.151805 0.113292 -0.799324 -0.2238
137 -0.384381 0.3765 0.0552004 0.262182 0.258896 0.261191 -0.299042 -0.202478 0.343974 -0.412699 -0.233935 -0.424897 -0.59544 -0.0185101 -0.0673189 -0.540058 -0.0436748 0.319306 0.374042 -0.821769 -0.793954 -0.251346 -0.114632 -0.0245437 0.0100172 -0.368698 -0.512006 0.148861 0.113374 0.471507 0.37976 -0.444366 -0.204932 0.0840453 0.428676 -0.25859 1.02015 0.176333 0.467568 0.282157 0.567733 -0.163016 -0.0437935 -0.174986 -0.42217 0.133071 0.623696 1.06574 -0.346726 0.353952 -0.157736 -0.641992 0.231177 1.20829 -0.605984 0.973563 1.0461 0.539939 0.143605 0.569235 -0.11539 0.05976 -0.675846 -0.208831
93 -0.419818 0.387335 0.0363714 0.191621 0.318095 0.316554 -0.223967 -0.182386 0.393322 -0.491496 -0.292936 -0.523202 -0.735494 -0.082175 -0.0900998 -0.49796 -0.0328635 0.363913 0.370641 -0.815662 -0.78868 -0.286437 -0.115599 -0.0633389 0.0142459 -0.318139 -0.501701 0.150138 0.145103 0.427006 0.267875 -0.467907 -0.145262 0.160673 0.332138 -0.270513 1.00495 0.177591 0.470387 0.180427 0.653479 -0.190459 -0.0988694 -0.241686 -0.522139 0.114255 0.541206 1.09574 -0.254729 0.466451 -0.242518 -0.609202 0.230841 1.26723 -0.570769 0.91608 0.902846 0.491631 0.17922 0.631319 -0.104634 0.122734 -0.822589 -0.261811
252 -0.235855 0.269153 0.125462 0.274482 0.168665 0.0956696 -0.203753 -0.155992 0.434475 -0.422589 -0.175444 -0.303214 -0.598773 0.0548008 -0.214222 -0.552111 -0.0200918 0.172808 0.384978 -0.630369 -0.39344 -0.388656 -0.0199485 0.0347546 -0.0157348 -0.34303 -0.433802 0.153586 0.0373499 0.437175 0.347562 -0.467404 -0.135869 0.132712 0.341113 -0.288349 0.961337 0.0585928 0.473015 0.157549 0.676444 -0.126749 0.0257309 -0.322296 -0.524872 0.312158 0.653302 1.08148 -0.429037 0.358356 -0.0624292 -0.459609 0.336385 1.18327 -0.640325 1.11284 1.14162 0.663885 0.0896873 0.602714 -0.175079 0.14069 -1.20879 -0.141566
200 -0.179476 0.220526 0.166102 0.242907 0.167618 0.0898051 -0.2191 -0.133963 0.354733 -0.342751 -0.216873 -0.203263 -0.594173 0.0253066 -0.182118 -0.53073 -0.0399775 0.0326806 0.296957 -0.572945 -0.399315 -0.366226 -0.00799141 0.0512017 -0.0441042 -0.237176 -0.434618 0.126395 -0.0120429 0.41584 0.307834 -0.449642 -0.061376 0.108517 0.364311 -0.365472 0.950324 0.162172 0.441093 0.179119 0.58297 -0.125376 -0.0112279 -0.257622 -0.422246 0.406293 0.628068 1.10684 -0.60379 0.35277 -0.0263759 -0.395212 0.301437 1.11175 -0.608955 1.04768 1.01551 0.63407 0.0651132 0.685175 -0.194404 0.176387 -1.17691 -0.129638
164 -0.255554 0.235494 -0.0161374 0.0870887 0.0802372 0.0209873 -0.177112 -0.0591982 0.340323 -0.320501 -0.0783745 -0.270093 -0.479962 0.0861899 -0.190327 -0.441453 0.02392 0.366351 0.401609 -0.719954 -0.530365 -0.297589 -0.113408 -0.143321 -0.0912903 -0.462771 -0.558512 0.0617076 0.12548 0.381161 0.429525 -0.422005 -0.148196 -0.0251723 0.515138 -0.286209 0.954792 0.241555 0.494581 0.276358 0.603483 -0.0239135 0.0272275 -0.268536 -0.501782 0.120794 0.465257 0.883053 -0.556868 0.358733 -0.258307 -0.464494 0.21372 1.04026 -0.524828 0.898268 1.05268 0.645261 0.179942 0.561556 -0.138604 0.0694723 -0.847143 -0.0925265
293 -0.0947306 0.187706 0.142905 0.210956 0.202235 0.14352 -0.331068 -0.18653 0.525385 -0.33784 -0.155867 -0.206012 -0.56139 0.0864622 -0.127955 -0.466931 -0.156208 0.389172 0.428388 -0.59813 -0.433563 -0.327444 -0.104811 -0.0432085 0.043619 -0.329264 -0.422562 0.0510921 -0.0359833 0.311779 0.45888 -0.416793 -0.129436 -0.0270588 0.392912 -0.332501 0.8806 0.0842084 0.443334 0.18661 0.533418 -0.0939734 0.162846 -0.275788 -0.482494 0.213038 0.671371 1.06538 -0.468152 0.421509 -0.183429 -0.440012 0.261343 1.14493 -0.572487 0.995441 0.964705 0.502905 -0.00265321 0.464502 -0.211201 -0.0236209 -0.916184 -0.0732311
217 -0.144771 0.118603 0.068032 0.0917228 0.180042 0.25716 -0.313379 -0.24693 0.367962 -0.164052 -0.237994 -0.170786 -0.659368 -0.0677307 -0.165772 -0.744991 -0.0568773 0.274439 0.285504 -0.424246 -0.462893 -0.339331 -0.33557 -0.115354 0.0064407 -0.248025 -0.323953 -0.0147535 0.0101087 0.275961 0.414995 -0.416347 -0.0059142 0.0273749 0.388589 -0.134442 0.959404 0.242726 0.401318 0.34779 0.412808 -0.0449219 0.169706 -0.146563 -0.342534 0.160051 0.562432 0.860727 -0.467136 0.471332 -0.206388 -0.342898 0.296916 1.06348 -0.682701 1.20209 1.40349 0.519687 0.24686 0.543822 -0.206465 -0.0193812 -0.747559 0.0106546
74 -0.0442049 0.0166085 0.193749 0.0805051 0.151271 0.304127 -0.437229 -0.220275 0.508132 -0.307564 -0.27907 -0.309171 -0.592618 -0.085156 -0.127861 -0.628232 -0.0927159 0.263015 0.215691 -0.431819 -0.437855 -0.190654 -0.262261 0.0152842 -0.00269506 -0.301987 -0.474113 0.0236897 0.0886823 0.256533 0.307352 -0.373971 0.09794 0.0330507 0.433643 -0.362097 0.882714 0.214119 0.321545 0.287214 0.58507 -0.0928311 0.0882667 -0.147146 -0.270036 0.223475 0.526668 0.966904 -0.690158 0.519275 -0.131915 -0.378774 0.243608 1.07644 -0.631875 1.06718 1.20114 0.585968 0.181601 0.737892 -0.210361 0.00372422 -0.778433 -0.0146401
289 -0.13687 0.138634 0.191094 0.239688 0.231426 0.127763 -0.441806 -0.174376 0.351497 -0.193904 -0.300924 -0.266924 -0.555413 -0.117967 -0.0876542 -0.59771 -0.0918567 0.329424 0.303097 -0.440762 -0.463077 -0.221728 -0.190143 -0.020099 0.140554 -0.186495 -0.331293 -0.0114115 0.169775 0.216046 0.394454 -0.408039 -0.0520453 -0.0498182 0.449251 -0.269138 0.888937 0.1726 0.338554 0.400728 0.549823 -0.191882 0.249629 -0.193655 -0.626988 0.0244368 0.600598 0.910488 -0.4827 0.435426 -0.163211 -0.455023 0.379307 1.15077 -0.69533 1.10795 1.30561 0.512999 0.112955 0.63709 -0.0697452 -0.0339532 -0.640063 -0.107583
63 -0.262864 0.287176 0.0215004 -0.0136355 0.00315036 -0.0384541 -0.325973 -0.1476 0.287494 -0.162335 -0.217046 -0.0516838 -0.560184 0.201028 -0.0173256 -0.49697 -0.256965 0.432033 0.29938 -0.704907 -0.481038 -0.181824 -0.140175 -0.170901 0.0463783 -0.0952951 -0.397546 -0.0565812 0.208467 0.428752 0.54931 -0.463786 -0.0300294 -0.105257 0.614447 -0.40359 1.06467 0.359996 0.536714 0.262146 0.601527 -0.0777114 0.00504675 -0.0695853 -0.405109 0.181372 0.423505 0.997174 -0.870267 0.596822 -0.310541 -0.506271 -0.02551 1.09567 -0.73305 0.740841 1.07613 0.553439 0.0853382 0.638072 -0.14883 -0.0714422 -0.780988 -0.085426
273 -0.00633422 0.105277 0.170225 0.165358 0.155305 0.154761 -0.221352 -0.177083 0.376656 -0.383043 -0.263379 -0.165647 -0.545451 0.046047 -0.0756208 -0.433239 -0.119487 0.224091 0.256554 -0.543322 -0.513511 -0.28402 -0.155375 -0.125906 -0.0382184 -0.188605 -0.379754 0.0388822 0.132401 0.426131 0.332833 -0.458589 0.0476219 0.0463955 0.476865 -0.320931 1.02346 0.335722 0.405694 0.253769 0.636203 -0.186597 -0.0242127 -0.129389 -0.462168 0.239792 0.39486 0.922754 -0.694998 0.557946 -0.178984 -0.377886 0.251799 1.10995 -0.612343 0.795875 0.995955 0.411566 0.158839 0.600853 -0.163646 0.0641589 -0.875804 -0.120252
204 -0.0102717 0.0684369 0.134222 0.100185 0.129856 0.177125 -0.195622 -0.142089 0.376153 -0.271181 -0.229573 -0.211167 -0.496578 0.0118917 0.0368628 -0.417279 -0.122131 0.259107 0.247339 -0.493351 -0.473228 -0.23171 -0.166635 -0.0904675 0.0277788 -0.226099 -0.457163 0.0333883 0.0814529 0.331595 0.283261 -0.448773 0.0593612 0.0290227 0.449944 -0.369356 1.07765 0.260947 0.369928 0.239418 0.659041 -0.187839 0.0543353 -0.157599 -0.402775 0.223861 0.455901 0.943667 -0.647687 0.576146 -0.171749 -0.342748 0.247937 1.08856 -0.585687 0.823123 0.973898 0.355635 0.113028 0.60783 -0.165557 0.0436621 -0.831832 -0.143911
246 -0.156347 0.104498 -0.008097 0.0404238 0.230047 0.130309 -0.207096 -0.121962 0.333918 -0.286199 -0.293193 -0.192469 -0.676428 -0.0958552 -0.103492 -0.568916 -0.152945 0.247455 0.319005 -0.447562 -0.342591 -0.244262 -0.225657 -0.125982 0.0453158 -0.23355 -0.361795 0.0290654 0.0980587 0.199432 0.360465 -0.419374 0.0834616 -0.0412804 0.334461 -0.235508 0.917942 0.249655 0.52104 0.252662 0.61027 -0.186625 0.13908 -0.181875 -0.488407 0.165443 0.549545 1.01924 -0.669665 0.568578 -0.260741 -0.211702 0.446002 1.22563 -0.80937 1.08104 1.20287 0.450759 0.123756 0.702456 -0.113336 0.0246122 -0.837104 -0.15865
41 -0.153724 0.185012 -0.00844988 0.0255226 0.156645 0.1556 -0.188711 -0.143199 0.285775 -0.233401 -0.243967 -0.224743 -0.58919 -0.0158019 -0.0157646 -0.418507 -0.132527 0.361055 0.308444 -0.635721 -0.537139 -0.226538 -0.181772 -0.1699 0.0308844 -0.187401 -0.454143 -0.00781203 0.194315 0.332891 0.325499 -0.458913 0.00947932 -0.044774 0.447655 -0.279453 1.07798 0.34779 0.415415 0.273884 0.627634 -0.16585 0.0176037 -0.151453 -0.471096 0.0848434 0.412595 0.95069 -0.644374 0.566543 -0.310834 -0.440367 0.204471 1.10711 -0.653561 0.775709 0.979638 0.410764 0.150999 0.625385 -0.100981 0.0129327 -0.778615 -0.17744
71 -0.0663616 0.0780408 0.0572299 0.030794 0.121179 0.182292 -0.202174 -0.132951 0.364797 -0.244721 -0.205878 -0.245677 -0.536627 -0.00356985 -0.00411433 -0.440376 -0.121266 0.325451 0.263026 -0.504089 -0.473838 -0.187188 -0.218348 -0.139938 0.00173653 -0.236321 -0.43212 -0.00931664 0.139463 0.264281 0.302881 -0.356488 0.0566867 0.0320426 0.424658 -0.290349 0.982928 0.226241 0.387684 0.249373 0.654665 -0.183722 0.0627734 -0.125343 -0.373621 0.15593 0.412294 0.927814 -0.63352 0.550816 -0.23386 -0.400332 0.233558 1.08343 -0.686133 0.900616 1.10242 0.457529 0.159632 0.676198 -0.189478 -0.00752204 -0.828594 -0.126785
9 -0.0651445 0.0551141 0.0991349 0.0572289 0.113212 0.220027 -0.252224 -0.168659 0.406012 -0.295079 -0.221026 -0.254286 -0.558577 -0.022498 -0.0747085 -0.515894 -0.0867824 0.341535 0.27132 -0.47304 -0.479693 -0.176254 -0.293833 -0.125468 0.00306588 -0.38551 -0.511135 0.00881292 0.132251 0.314455 0.346859 -0.38516 0.0715011 0.00938859 0.485991 -0.319299 0.985919 0.282205 0.371917 0.319404 0.698261 -0.168445 0.09228 -0.140076 -0.395234 0.141477 0.467744 0.883732 -0.683669 0.554159 -0.206884 -0.394623 0.303331 1.10953 -0.636876 0.942353 1.21386 0.482259 0.230684 0.669603 -0.218816 0.0124192 -0.848439 -0.0758708
209 -0.0263852 -0.0178807 0.1028 0.0718189 0.129481 0.245155 -0.213307 -0.154278 0.399563 -0.269648 -0.262764 -0.27305 -0.596933 -0.0903022 -0.130442 -0.570788 -0.0567951 0.335703 0.268709 -0.505064 -0.519746 -0.13261 -0.330418 -0.0367324 0.00847451 -0.353703 -0.594206 0.0583273 0.0489708 0.237662 0.301377 -0.338146 0.074493 0.0609992 0.421041 -0.330307 0.890755 0.203599 0.391567 0.24498 0.673113 -0.15194 0.0933621 -0.149184 -0.325277 0.191864 0.577507 0.931388 -0.73421 0.593714 -0.153828 -0.459045 0.282684 1.09785 -0.61335 0.959112 1.22853 0.48601 0.160778 0.650044 -0.291523 0.0383904 -0.786636 -0.076143
260 0.0183219 -0.0278112 0.0591046 0.0592444 0.202623 0.305468 -0.247333 -0.165585 0.438975 -0.26665 -0.248664 -0.308112 -0.602202 -0.103952 -0.0482317 -0.568652 -0.087907 0.304567 0.318481 -0.456123 -0.48329 -0.202548 -0.30133 -0.085734 0.0286708 -0.381573 -0.477833 0.0333488 0.0827324 0.2161 0.26652 -0.37169 0.0483888 0.039658 0.338758 -0.249961 0.916159 0.160056 0.332348 0.291267 0.692035 -0.234116 0.174153 -0.157077 -0.42263 0.162398 0.557434 0.925033 -0.637543 0.581779 -0.197835 -0.388374 0.425445 1.18926 -0.684375 1.06983 1.30884 0.428018 0.176715 0.649994 -0.216258 0.0157173 -0.77558 -0.0954497
131 0.0758934 -0.0638277 0.150799 0.0958043 0.166157 0.257335 -0.28615 -0.159979 0.420046 -0.258174 -0.240305 -0.238788 -0.572311 -0.074432 -0.0958321 -0.553489 -0.0890997 0.287703 0.260015 -0.460489 -0.490974 -0.185574 -0.284352 -0.0577446 0.0117545 -0.32355 -0.510202 0.0157067 0.0892527 0.234555 0.320704 -0.358446 0.0672961 0.0529471 0.393201 -0.291834 0.850173 0.204526 0.365088 0.294992 0.651624 -0.156465 0.0911223 -0.128249 -0.335002 0.193139 0.49849 0.905632 -0.712666 0.56928 -0.18654 -0.398725 0.252252 1.10364 -0.601454 0.911839 1.16963 0.496049 0.184205 0.657897 -0.226073 0.0249336 -0.833056 -0.0835036
111 -0.00116069 -0.0455769 0.183352 0.122977 0.190289 0.321031 -0.418161 -0.183452 0.483239 -0.303896 -0.291363 -0.364703 -0.630151 -0.159012 -0.175449 -0.687219 -0.0763197 0.255343 0.272372 -0.475858 -0.477061 -0.183409 -0.305304 -0.00122094 -0.00610543 -0.379066 -0.550214 0.0518934 0.0832757 0.223593 0.313898 -0.363511 0.0881095 0.0264813 0.442426 -0.333361 0.897254 0.19623 0.309903 0.323506 0.605233 -0.141346 0.141076 -0.157465 -0.289307 0.190927 0.534084 0.936556 -0.655304 0.496877 -0.118866 -0.374806 0.321069 1.06579 -0.612669 1.03946 1.16786 0.539683 0.161604 0.71236 -0.208928 -0.00526407 -0.739837 -0.0544877
161 -0.184974 0.107937 0.0278611 0.0652905 0.161793 0.261936 -0.264136 -0.148394 0.328465 -0.214648 -0.315362 -0.328943 -0.607045 -0.105303 -0.150056 -0.692981 -0.120259 0.317175 0.382709 -0.530481 -0.508832 -0.241917 -0.370996 -0.180374 -0.0156406 -0.25665 -0.34383 0.00852276 0.116918 0.239672 0.410085 -0.398026 0.10551 -0.0837372 0.362181 -0.160965 0.915602 0.200673 0.410047 0.305525 0.553754 -0.114824 0.11781 -0.0799795 -0.348534 0.0826859 0.461372 0.885347 -0.538318 0.555161 -0.222629 -0.255886 0.41898 1.19323 -0.795192 1.07603 1.30133 0.398807 0.158265 0.579067 -0.160922 -0.0681159 -0.673324 -0.139782
16 -0.110409 0.129624 0.0964692 0.197348 0.159109 0.170202 -0.335798 -0.133474 0.385536 -0.261142 -0.121426 -0.334652 -0.525651 0.031531 -0.033255 -0.519988 -0.143294 0.352334 0.449705 -0.767074 -0.521018 -0.288411 -0.189673 -0.0834945 0.0355306 -0.444335 -0.51722 0.110499 0.0318253 0.290454 0.419259 -0.360781 -0.0509593 0.0205423 0.429117 -0.304623 0.944304 0.159999 0.444449 0.204848 0.639348 -0.166154 0.100314 -0.175087 -0.326781 0.247755 0.555565 1.00339 -0.411523 0.361304 -0.161018 -0.39831 0.240741 1.05726 -0.600474 0.901833 0.998697 0.56567 0.0307214 0.57354 -0.173116 -0.0188833 -0.81173 -0.140797
84 -0.0210749 0.0496131 0.0578511 0.152592 0.0805859 -0.0268754 -0.168274 -0.0638545 0.377716 -0.228358 -0.0244226 -0.145895 -0.41452 0.190495 -0.0705345 -0.415703 -0.0708122 0.322023 0.388176 -0.536213 -0.3806 -0.295275 -0.146486 -0.10153 0.00738383 -0.451311 -0.480284 0.0747174 -0.0495619 0.321646 0.507993 -0.377683 -0.0882271 -0.0172224 0.443399 -0.314484 0.97509 0.126185 0.542872 0.275644 0.695843 -0.113333 0.125611 -0.24044 -0.421655 0.259279 0.589516 0.958107 -0.617208 0.373019 -0.164562 -0.310272 0.33287 1.10579 -0.615266 1.00412 1.16468 0.536674 0.0934982 0.56272 -0.209927 0.027781 -0.930648 -0.0853457
171 0.143722 0.0153498 0.156216 0.163237 0.0913743 0.102698 -0.19899 -0.166344 0.36804 -0.299465 -0.224777 -0.114576 -0.445371 0.0931245 -0.0120096 -0.399172 -0.203255 0.292288 0.316934 -0.59112 -0.512888 -0.248487 -0.216652 -0.159643 0.00297754 -0.190633 -0.336511 -0.00421101 0.176091 0.415579 0.395918 -0.467977 0.0772127 0.0143943 0.430343 -0.219954 0.978031 0.295455 0.453941 0.31643 0.747825 -0.248826 0.044419 -0.100648 -0.531792 0.216111 0.427094 0.89838 -0.780488 0.673263 -0.249246 -0.395827 0.310452 1.22439 -0.715961 0.771307 1.16919 0.377823 0.160513 0.546652 -0.187535 0.0256849 -0.901861 -0.156416
95 -0.0816951 0.171613 0.129955 0.17256 0.105915 0.00353105 -0.321053 -0.144706 0.344865 -0.262882 -0.0853547 -0.140044 -0.514119 0.162744 -0.214364 -0.501176 -0.0285521 0.190951 0.350208 -0.673651 -0.480953 -0.35269 -0.00610894 -0.0815996 -0.0904135 -0.373574 -0.475604 0.0548803 0.0223643 0.444329 0.471945 -0.488712 -0.164938 -0.0391928 0.474455 -0.373109 0.931718 0.176051 0.47135 0.28832 0.609647 -0.0400358 0.000111412 -0.240306 -0.450774 0.33782 0.598855 1.1121 -0.720558 0.358489 -0.113422 -0.400333 0.180669 1.07062 -0.561949 0.999857 1.01943 0.641177 0.100322 0.644964 -0.211465 0.075212 -0.889606 -0.0945466
32 -0.19174 0.161217 0.0408195 -0.000241978 0.168821 0.198124 -0.354451 -0.194683 0.396877 -0.258346 -0.273244 -0.294368 -0.597242 -0.00135835 -0.0351064 -0.641318 -0.172148 0.277472 0.316484 -0.399168 -0.382034 -0.153644 -0.224703 -0.0588499 0.102494 -0.170853 -0.29121 0.0389984 0.138873 0.297501 0.440668 -0.402004 -0.00801772 0.0254007 0.388317 -0.259953 0.975494 0.0843453 0.39844 0.348518 0.565027 -0.227967 0.133438 -0.0749756 -0.383301 0.126452 0.526665 0.933226 -0.497259 0.42174 -0.124797 -0.350593 0.380772 1.11231 -0.777064 0.977712 1.21783 0.374397 0.0437895 0.594877 -0.171061 -0.0624547 -0.813636 -0.140476
241 0.134928 -0.103996 0.143492 0.142697 0.0219884 0.297707 -0.202159 -0.0900184 0.370994 -0.154256 -0.218838 -0.399057 -0.583969 -0.153414 -0.0200431 -0.582914 -0.143298 0.321295 0.39239 -0.716863 -0.606796 -0.189422 -0.36845 -0.232803 -0.0260308 -0.265923 -0.535851 -0.0420185 0.141844 0.218788 0.303243 -0.312278 0.187403 0.0212112 0.376342 -0.224798 1.01177 0.139649 0.361319 0.29599 0.83148 -0.272058 0.140031 -0.0688271 -0.292535 0.176249 0.452674 1.00266 -0.745163 0.529218 -0.223283 -0.415676 0.35653 1.15252 -0.825216 0.982241 1.18335 0.570038 0.14456 0.821101 -0.172099 -0.0465453 -0.763162 -0.249686
256 -0.284922 0.275991 -0.0920705 -0.127011 0.0128724 0.0546629 -0.288843 -0.210587 0.282019 -0.120856 -0.244108 0.0107349 -0.655142 0.0914867 -0.069618 -0.524821 -0.249758 0.455361 0.245141 -0.567394 -0.475858 -0.0986817 -0.267407 -0.119546 0.100191 -0.0117715 -0.427999 -0.0764481 0.160638 0.298988 0.50029 -0.431486 0.00611052 -0.142879 0.524801 -0.355705 0.922657 0.338913 0.475281 0.269252 0.557951 -0.0793624 0.0787991 -0.0856056 -0.378607 0.137957 0.604737 1.04647 -1.00302 0.705297 -0.30162 -0.543248 0.0568504 1.15033 -0.708558 0.849574 1.1877 0.456553 0.11075 0.545874 -0.272689 -0.0958375 -0.715321 -0.0412827
144 -0.0108906 0.114385 -0.0210859 0.0526226 0.152742 0.22707 -0.152045 -0.252024 0.444625 -0.309962 -0.232536 -0.0279626 -0.598057 0.0583664 -0.140635 -0.498018 -0.172271 0.476144 0.256331 -0.482702 -0.47347 -0.127258 -0.351121 0.021934 0.0620441 -0.146999 -0.493055 0.0609647 -0.0821604 0.253406 0.395868 -0.345984 -0.00146689 -0.0437599 0.421155 -0.308753 0.811892 0.156409 0.421746 0.0974825 0.453723 0.042576 0.0743102 -0.154189 -0.227124 0.201193 0.739089 0.89906 -0.842532 0.779807 -0.220969 -0.481303 0.0962842 1.08427 -0.562223 0.920355 1.29033 0.366809 0.0457458 0.31815 -0.484373 0.0499764 -0.870669 0.00781797
120 0.0557016 -0.0140769 0.089261 0.0978758 0.0937491 0.109965 -0.228104 -0.118025 0.435265 -0.310842 -0.139398 -0.250568 -0.544871 0.0245705 -0.163755 -0.515256 -0.0558742 0.2942 0.385469 -0.581433 -0.44542 -0.306241 -0.213984 -0.136257 -0.092339 -0.402707 -0.5251 0.0393532 0.0679405 0.289508 0.388226 -0.392879 0.0426755 0.0201101 0.457437 -0.298763 0.941711 0.213628 0.425553 0.252054 0.686871 -0.137156 0.100121 -0.180809 -0.391995 0.24058 0.467802 0.942061 -0.672004 0.512475 -0.164624 -0.343776 0.297505 1.09656 -0.59968 0.922402 1.06076 0.521074 0.13798 0.60351 -0.240552 0.0295093 -0.906222 -0.104784
11 -0.0538953 0.269411 -0.0181277 0.108907 0.234424 -0.0198542 -0.273306 -0.182494 0.392427 -0.21979 -0.250448 -0.00483323 -0.787796 0.0889203 0.0880411 -0.401691 -0.397479 0.326611 0.445491 -0.796339 -0.527379 -0.410403 -0.133993 -0.247211 0.0419829 0.0031782 -0.262029 -0.0708815 0.18527 0.292537 0.505993 -0.396581 0.0109521 -0.0769512 0.501654 -0.311436 1.11455 0.377809 0.619091 0.16062 0.594711 -0.202458 0.12636 -0.0537235 -0.452593 0.284291 0.508448 1.29066 -0.945063 0.607871 -0.365009 -0.447337 0.115671 1.30229 -0.940346 0.964427 0.936705 0.617196 0.0263507 0.71137 -0.11753 -0.116846 -0.769768 -0.169656
28 -0.172934 0.297511 -0.0746442 0.0609267 0.130855 -0.11694 -0.261726 -0.137413 0.296196 -0.105628 -0.187364 0.0106984 -0.693819 0.0967805 0.0178122 -0.450687 -0.370341 0.193479 0.456425 -0.724102 -0.437593 -0.44475 -0.148525 -0.213839 -0.0650998 -0.0279526 -0.26896 -0.0509528 0.12306 0.302407 0.521483 -0.389853 0.0743688 -0.1252 0.554444 -0.319107 1.08698 0.385124 0.623639 0.181403 0.561055 -0.155965 0.135933 -0.0335523 -0.388659 0.396252 0.502035 1.2761 -0.978905 0.511396 -0.25098 -0.275757 0.200722 1.22313 -0.878332 0.975083 0.910372 0.611788 0.000264729 0.674695 -0.172582 -0.110788 -0.998489 -0.137159
181 -0.188332 0.288877 -0.0768892 -0.0175418 0.124546 -0.0349082 -0.276109 -0.150583 0.315767 -0.11342 -0.202835 -0.0166838 -0.625915 0.102712 0.0930001 -0.371629 -0.405533 0.344387 0.387868 -0.715251 -0.497337 -0.296943 -0.168678 -0.206229 0.0401431 0.0050175 -0.256602 -0.08993 0.204002 0.284605 0.52013 -0.397269 0.0544692 -0.138427 0.52961 -0.31469 1.01819 0.36114 0.586008 0.203393 0.583798 -0.151528 0.100614 -0.0193532 -0.421883 0.246708 0.469632 1.19791 -0.946694 0.644092 -0.344398 -0.381523 0.0923466 1.23003 -0.851259 0.860347 0.876808 0.495287 0.0166598 0.603782 -0.135907 -0.158172 -0.784917 -0.145359
85 -0.397738 0.377165 -0.0510823 -0.0881527 0.00467502 0.0631125 -0.362823 -0.241646 0.221419 -0.136662 -0.243434 -0.0107276 -0.613577 0.130307 -0.198469 -0.611557 -0.172369 0.395172 0.23968 -0.627428 -0.554698 -0.153616 -0.228785 -0.167492 0.0411129 -0.0637876 -0.399191 -0.0558674 0.239707 0.470156 0.594347 -0.520867 -0.0765635 -0.15798 0.633844 -0.329201 1.03575 0.432808 0.473102 0.432025 0.52649 -0.0136925 -0.0125484 -0.11709 -0.471804 0.0856156 0.500616 0.944093 -0.901945 0.59701 -0.318081 -0.584104 0.0769212 1.13339 -0.694788 0.866654 1.24211 0.514307 0.207364 0.56052 -0.234739 -0.0521299 -0.824831 -0.0358101
235 -0.488417 0.408242 -0.00485341 -0.0115189 0.0335262 0.010037 -0.422375 -0.200061 0.186313 -0.0732231 -0.154896 -0.0861714 -0.542565 0.1295 -0.19752 -0.66873 -0.141059 0.294336 0.308828 -0.702574 -0.619032 -0.278684 -0.158177 -0.170762 -0.00420784 -0.252676 -0.452049 -0.0301807 0.20095 0.494622 0.603851 -0.591074 -0.13979 -0.210539 0.613678 -0.316812 1.09441 0.419424 0.488427 0.527543 0.544156 -0.0411426 0.016147 -0.1545 -0.571512 0.147656 0.546931 1.02495 -0.725696 0.442072 -0.254522 -0.460696 0.191815 1.15057 -0.65188 0.948641 1.12479 0.474769 0.147581 0.583848 -0.131905 -0.0447934 -0.816682 -0.100714
89 -0.475049 0.39264 -0.116255 -0.186097 -0.0717972 0.0264112 -0.368875 -0.223792 0.219418 -0.0802166 -0.192686 -0.0396648 -0.565093 0.169245 -0.207001 -0.626527 -0.163127 0.434296 0.21009 -0.581656 -0.512472 -0.0922041 -0.217973 -0.156175 0.0533265 -0.0700102 -0.399755 -0.0768704 0.252336 0.442844 0.585222 -0.529871 -0.0912738 -0.176254 0.611801 -0.339664 1.02031 0.382609 0.441266 0.421623 0.559338 0.001601 -0.0172311 -0.12461 -0.481904 0.0716961 0.493175 0.954291 -0.885218 0.636193 -0.304898 -0.595235 0.0472558 1.11605 -0.689912 0.874615 1.28509 0.499072 0.214767 0.583472 -0.239711 -0.0651867 -0.799818 -0.0256296
66 -0.366707 0.400032 0.0805246 0.246973 0.354245 0.308711 -0.174658 -0.226744 0.377812 -0.521117 -0.357805 -0.409845 -0.795718 -0.112261 -0.128401 -0.475888 -0.0674096 0.326174 0.318603 -0.722887 -0.7196 -0.307169 -0.127158 -0.0463889 0.0260025 -0.222729 -0.430267 0.144166 0.166885 0.422043 0.212125 -0.454675 -0.116873 0.171657 0.303436 -0.233998 0.948653 0.226857 0.468055 0.173934 0.604573 -0.20874 -0.102272 -0.221823 -0.520693 0.12892 0.523174 1.06708 -0.345426 0.474451 -0.250098 -0.62564 0.246267 1.23158 -0.613146 0.889586 0.888121 0.512815 0.202159 0.644297 -0.116499 0.153572 -0.845347 -0.223316
177 -0.293768 0.263393 0.07219 0.0367492 0.0803226 0.150458 -0.267401 -0.170491 0.153214 -0.153775 -0.228242 -0.20815 -0.541851 0.016244 -0.171088 -0.573829 -0.068443 0.184832 0.205141 -0.647542 -0.641219 -0.155065 -0.156565 -0.0829217 -0.0493073 -0.121812 -0.356701 0.0203642 0.15338 0.460821 0.415322 -0.45806 -0.0253591 -0.0470342 0.503031 -0.268259 0.96495 0.405472 0.350456 0.369206 0.475948 -0.0467872 -0.114975 -0.0820624 -0.419399 0.185677 0.476457 0.945369 -0.688033 0.532289 -0.20207 -0.495726 0.193254 1.1438 -0.646618 0.877176 1.13311 0.439163 0.194713 0.637584 -0.220311 0.0767975 -0.787039 -0.101205
249 -0.285059 0.22615 -0.0488545 0.0223044 -0.00566945 0.148996 -0.223988 -0.16439 0.15814 -0.0633764 -0.0474379 -0.186594 -0.475737 0.0578721 -0.143116 -0.546362 -0.0566241 0.189756 0.298871 -0.512727 -0.376277 -0.165878 -0.166123 -0.0666447 -0.0250532 -0.275889 -0.440104 0.0295675 0.0680334 0.325699 0.394614 -0.42818 -0.0695785 -0.00839341 0.516497 -0.282875 0.976843 0.241349 0.375298 0.321094 0.570902 -0.129747 0.0683417 -0.134616 -0.384088 0.195028 0.591434 0.983027 -0.715012 0.422632 -0.11306 -0.481807 0.312953 1.04482 -0.601482 1.02208 1.22732 0.501092 0.151854 0.581151 -0.291293 -0.0334619 -0.889649 -0.114778
298 -0.36521 0.295555 0.072117 0.105162 -0.00527641 -0.0115006 -0.228407 -0.12582 0.377516 -0.263517 -0.17728 -0.215009 -0.555802 0.111282 -0.162062 -0.589184 -0.158942 0.360455 0.287889 -0.68647 -0.517604 -0.125773 -0.215062 0.0143094 -0.0868083 -0.204164 -0.373999 0.0774231 0.0981179 0.459779 0.469923 -0.350831 0.0807212 0.16546 0.554231 -0.300279 0.870518 0.185178 0.675155 0.201071 0.733939 -0.136926 -0.110593 -0.0181148 -0.371533 0.419632 0.534211 1.05222 -0.742155 0.555022 -0.175367 -0.544879 0.153276 1.11574 -0.789596 0.899154 1.41059 0.806935 0.176421 0.795294 -0.417606 0.108064 -1.31273 -0.0648057
277 -0.446398 0.325929 0.114335 -0.0297049 0.0469252 0.228129 -0.227109 -0.198783 0.378521 -0.235761 -0.270208 -0.298859 -0.711101 0.0370707 -0.174381 -0.602878 -0.128752 0.245658 0.157562 -0.562181 -0.600361 -0.129313 -0.21345 -0.0247147 -0.0777086 -0.0144182 -0.32592 0.0659946 0.0875172 0.446025 0.263844 -0.402632 0.181596 0.257988 0.323109 -0.299649 0.78736 0.177658 0.544911 0.168298 0.738027 -0.175056 -0.225929 -0.0497431 -0.332088 0.468985 0.519205 1.18565 -0.742168 0.740498 -0.185401 -0.528693 0.16616 1.25248 -0.830188 0.976444 1.28663 0.662756 0.285193 0.953387 -0.432255 0.186595 -1.29311 -0.100743
42 -0.364085 0.305417 0.0842162 0.0451583 -0.0122297 0.0415267 -0.212866 -0.150642 0.38393 -0.237306 -0.177746 -0.22532 -0.55714 0.119522 -0.0959861 -0.561519 -0.206429 0.348252 0.246819 -0.673639 -0.574294 -0.114254 -0.216293 -0.000698148 -0.0546807 -0.136682 -0.347494 0.0656311 0.0899576 0.453755 0.428762 -0.362252 0.113247 0.181287 0.464619 -0.295104 0.84039 0.163851 0.666716 0.180902 0.76206 -0.168249 -0.160399 -0.00909632 -0.353177 0.445838 0.517643 1.11469 -0.745738 0.647334 -0.210464 -0.532794 0.141171 1.18941 -0.83469 0.896565 1.37547 0.732548 0.189286 0.838373 -0.41146 0.101508 -1.29011 -0.0812321
202 -0.437247 0.336025 0.0292761 0.0036054 -0.0135048 0.0522049 -0.214228 -0.143774 0.345437 -0.192149 -0.156928 -0.27844 -0.566031 0.0950807 -0.124869 -0.555552 -0.150933 0.330249 0.268975 -0.647123 -0.536108 -0.137894 -0.19445 -0.042687 -0.0807252 -0.165031 -0.317631 0.042395 0.122179 0.431372 0.40291 -0.373197 0.0966551 0.163202 0.435966 -0.2619 0.826905 0.168744 0.608648 0.210097 0.729306 -0.152535 -0.136909 -0.0388051 -0.361932 0.389812 0.470201 1.06312 -0.670497 0.57552 -0.210408 -0.495748 0.175353 1.14626 -0.790268 0.915488 1.28838 0.711027 0.22834 0.828979 -0.364645 0.0844872 -1.2278 -0.0962369
275 -0.492022 0.355734 0.0256435 -0.00706919 -0.0357152 0.0185219 -0.274151 -0.151623 0.316134 -0.161831 -0.171671 -0.271568 -0.579825 0.118138 -0.17577 -0.661565 -0.148191 0.34001 0.292763 -0.699254 -0.569934 -0.136418 -0.242672 -0.0639654 -0.079791 -0.195692 -0.368126 0.0432978 0.14186 0.46541 0.4896 -0.37951 0.073783 0.112207 0.528862 -0.285543 0.892214 0.216844 0.623042 0.276749 0.729636 -0.134953 -0.100052 -0.041993 -0.373509 0.375457 0.504538 1.08815 -0.74823 0.549288 -0.192664 -0.525316 0.172655 1.18684 -0.815244 0.940265 1.35016 0.739575 0.223338 0.821248 -0.358319 0.0634611 -1.16015 -0.0859956
270 -0.0958152 0.076542 0.185436 0.215387 0.0966013 0.268694 -0.337834 -0.161387 0.301209 -0.165432 -0.304811 -0.157975 -0.558882 -0.100399 -0.0204233 -0.723834 -0.128567 0.15759 0.265902 -0.535101 -0.551827 -0.274656 -0.321614 -0.0844148 0.0805082 -0.321409 -0.455661 -0.0187106 -0.00301205 0.310536 0.359182 -0.337571 0.0247906 0.0463469 0.293939 -0.160512 0.857499 0.18004 0.395902 0.363648 0.524853 -0.163234 0.139393 -0.1243 -0.281577 0.201908 0.600464 0.870774 -0.534492 0.308209 -0.154121 -0.316347 0.38931 1.09402 -0.74364 1.05249 1.35992 0.522056 0.180008 0.661262 -0.0591586 0.0358907 -0.637431 -0.0900854
188 0.139356 0.0144337 0.17584 0.216329 0.105729 0.0619795 -0.310699 -0.134852 0.372136 -0.275006 -0.19965 -0.0521353 -0.504582 0.0988777 -0.15891 -0.532263 -0.129874 0.132495 0.25741 -0.612837 -0.483065 -0.253808 -0.145173 0.0205787 -0.0174748 -0.209655 -0.463275 0.0728151 -0.0764774 0.33166 0.42824 -0.35621 -0.0377479 -0.0213282 0.459409 -0.418986 0.853008 0.211801 0.404792 0.18466 0.498644 -0.0738707 0.0285994 -0.113761 -0.239313 0.420863 0.641743 1.01266 -0.919467 0.491711 -0.0448076 -0.392813 0.160559 1.00914 -0.591982 0.894584 1.02332 0.54139 -0.0228264 0.564496 -0.338399 0.0877733 -0.774685 -0.0453978
182 -0.254099 0.15768 -0.0467975 0.0280169 0.0433663 0.0056236 -0.152996 -0.0620273 0.244531 -0.148181 -0.0991784 -0.286025 -0.530283 0.0138381 -0.157737 -0.492652 -0.0106911 0.153705 0.359866 -0.556653 -0.368815 -0.281539 -0.128073 -0.0944361 -0.143384 -0.288632 -0.440765 0.0381974 0.0402877 0.279597 0.300984 -0.300847 0.0404995 0.0305266 0.488141 -0.324238 0.976401 0.264399 0.421288 0.173465 0.578878 -0.0998562 0.0955921 -0.208255 -0.376357 0.246291 0.471903 1.02188 -0.709164 0.383094 -0.0817219 -0.347903 0.351257 1.08079 -0.577322 0.981726 0.982025 0.585546 0.158063 0.689639 -0.219207 0.0315145 -0.956116 -0.113251
165 -0.250929 0.278965 0.0702018 0.237083 0.258564 0.241429 -0.310615 -0.124843 0.416373 -0.375869 -0.275776 -0.387028 -0.688159 -0.0960812 -0.110152 -0.542662 -0.0924992 0.402817 0.411584 -0.817441 -0.678579 -0.269973 -0.149562 -0.096152 0.0151698 -0.291546 -0.547639 0.0914742 0.11066 0.328876 0.374967 -0.415726 -0.136692 -0.0620566 0.426717 -0.304964 0.955592 0.234552 0.423211 0.249045 0.52084 -0.104995 0.0571887 -0.218414 -0.409621 0.103879 0.564346 1.04534 -0.555461 0.407121 -0.270606 -0.549572 0.214452 1.13412 -0.614878 0.941524 0.94332 0.562365 0.0747478 0.628941 -0.0697756 0.0126 -0.588123 -0.172252
19 -0.172104 0.288812 0.125376 0.240084 0.278433 0.223373 -0.257088 -0.198913 0.383297 -0.454405 -0.28218 -0.34543 -0.620257 0.0474397 -0.050196 -0.370968 -0.0869461 0.376049 0.316431 -0.690982 -0.627146 -0.214286 -0.0904047 -0.0523273 0.0447869 -0.261767 -0.383989 0.138273 0.0955169 0.417596 0.290277 -0.44923 -0.129857 0.0878903 0.399139 -0.322687 0.963077 0.14721 0.468085 0.182318 0.618354 -0.171763 -0.0609472 -0.21914 -0.506133 0.147084 0.551871 1.05557 -0.355648 0.483051 -0.20012 -0.554117 0.182647 1.21173 -0.601083 0.909112 0.886913 0.472634 0.111869 0.565427 -0.147514 0.0865636 -0.676358 -0.196152
29 0.13261 -0.047806 0.0239943 0.0832733 0.210047 0.245872 -0.035117 -0.191182 0.386095 -0.360234 -0.270611 -0.0649294 -0.616565 -0.0576946 -0.145737 -0.500991 -0.0561299 0.236117 0.201885 -0.302059 -0.344045 -0.176296 -0.290628 0.027258 0.0587821 -0.135247 -0.421245 0.0505647 -0.071051 0.164162 0.215195 -0.278006 0.0513788 0.134693 0.245088 -0.219355 0.773439 0.0867948 0.325751 0.0515445 0.469013 -0.130307 0.103723 -0.159332 -0.292595 0.200907 0.664454 0.844916 -0.723023 0.679144 -0.129876 -0.424344 0.27354 1.05783 -0.609759 1.01743 1.30367 0.371646 0.0685129 0.436559 -0.394323 0.1126 -0.892638 -0.0575418
23 -0.199126 0.156379 0.0876003 0.136019 0.0977372 0.093095 -0.142425 -0.0604637 0.323327 -0.301389 -0.0561226 -0.348939 -0.435998 0.109942 -0.15459 -0.426648 0.0400645 0.291357 0.3718 -0.758965 -0.622329 -0.3139 -0.166749 -0.102995 -0.0852513 -0.453175 -0.528929 0.0845306 0.0254377 0.411775 0.438783 -0.432614 -0.132983 0.0445103 0.38606 -0.245535 0.929337 0.211006 0.459822 0.229288 0.61487 -0.00756112 -0.0189765 -0.259301 -0.455257 0.241429 0.518886 0.953973 -0.469106 0.450629 -0.180806 -0.416217 0.259904 1.19969 -0.465778 0.962231 1.01962 0.530432 0.194146 0.484601 -0.199281 0.122923 -0.790375 -0.098456
152 -0.080355 0.111164 0.111211 0.153275 0.0577004 -0.00683646 -0.232178 -0.0368316 0.277009 -0.199606 -0.0991642 -0.0725033 -0.408363 0.124939 -0.173273 -0.503997 -0.0522443 0.102609 0.320028 -0.58743 -0.398289 -0.299621 -0.0758136 -0.0207744 -0.0655071 -0.356295 -0.503575 0.0656127 -0.0937412 0.385817 0.496492 -0.414551 -0.0898301 -0.0629659 0.555196 -0.443578 1.0133 0.261888 0.481714 0.265574 0.441695 -0.0027112 0.0434997 -0.166666 -0.324033 0.387722 0.628143 1.03918 -0.806702 0.385176 -0.0771443 -0.328752 0.228057 1.02089 -0.56444 0.958831 1.02467 0.567809 0.00287969 0.585401 -0.223822 0.0912438 -0.878722 -0.0531332
10 -0.153467 0.157257 0.261274 0.0638308 0.176711 0.267865 -0.225955 -0.157503 0.347826 -0.273584 -0.30441 -0.284068 -0.663454 -0.0153989 -0.128842 -0.461891 -0.0255229 0.0155588 0.130351 -0.489179 -0.555977 -0.328889 -0.0379928 -0.0866324 -0.0910902 -0.0747454 -0.397042 0.0523612 0.0386294 0.419159 0.107317 -0.504771 0.114962 0.15174 0.263609 -0.400856 0.880529 0.304374 0.315267 0.168098 0.605038 -0.183261 -0.183847 -0.192303 -0.364902 0.436827 0.398055 1.12009 -0.695205 0.591414 -0.113107 -0.315408 0.219818 1.13806 -0.571196 0.839498 0.732644 0.410154 0.236333 0.858184 -0.185785 0.211591 -0.992091 -0.140343
52 0.0501195 0.0128196 0.192804 0.130925 0.0500741 0.133409 -0.261258 -0.136849 0.429528 -0.254125 -0.213459 -0.219361 -0.407228 0.111709 0.0590989 -0.465244 -0.165243 0.290814 0.307896 -0.554566 -0.47455 -0.232613 -0.204439 -0.0794582 0.037924 -0.29442 -0.444025 0.0167933 0.0820797 0.386929 0.40997 -0.490765 0.0862017 -0.00907311 0.532945 -0.382631 1.14621 0.244734 0.419028 0.296467 0.740676 -0.196983 0.0839508 -0.125086 -0.448435 0.274607 0.545124 1.04621 -0.783277 0.683317 -0.187819 -0.351887 0.335818 1.27156 -0.751928 0.992398 1.27823 0.439787 0.107733 0.673444 -0.179174 0.00919519 -0.870305 -0.118509
147 -0.0325547 0.0266814 0.146924 0.104949 0.1442 0.283315 -0.307872 -0.195487 0.455403 -0.33131 -0.295141 -0.319702 -0.625146 -0.0900679 -0.1133 -0.576824 -0.110344 0.353765 0.270477 -0.523209 -0.552942 -0.173635 -0.319467 -0.0942029 -0.0221427 -0.324064 -0.501334 0.011296 0.172924 0.289891 0.325346 -0.371083 0.10429 0.0403231 0.491811 -0.303575 0.949261 0.257081 0.392236 0.311139 0.738826 -0.19248 0.0792132 -0.107693 -0.389794 0.165229 0.472912 0.952306 -0.725691 0.600928 -0.211998 -0.460123 0.269328 1.15648 -0.703722 0.962125 1.24509 0.556919 0.222015 0.740947 -0.232655 -0.00164828 -0.823895 -0.0913728
67 0.132684 0.0539242 0.151766 0.129344 0.11263 0.140788 -0.270707 -0.189078 0.504649 -0.331149 -0.216947 -0.216913 -0.472311 0.19389 0.116811 -0.413016 -0.272204 0.431036 0.400457 -0.71475 -0.616204 -0.288914 -0.193321 -0.203863 0.0824921 -0.232922 -0.351929 0.00273927 0.191399 0.478738 0.502147 -0.585461 0.0152666 -0.00841566 0.430211 -0.277898 1.15699 0.199814 0.524928 0.357775 0.892517 -0.281399 0.048067 -0.144774 -0.650106 0.227319 0.543033 1.16875 -0.763005 0.813813 -0.344677 -0.422537 0.337978 1.53913 -0.898414 0.963978 1.3604 0.386016 0.141713 0.657183 -0.137242 -0.00864684 -0.978681 -0.236571
130 0.108884 0.0387842 0.173139 0.133415 0.0584821 0.111301 -0.201306 -0.173639 0.403652 -0.311826 -0.234835 -0.17892 -0.435314 0.151124 0.0754947 -0.39069 -0.190793 0.384095 0.305416 -0.619629 -0.567842 -0.224014 -0.199337 -0.139938 0.0648472 -0.237446 -0.430086 0.0141839 0.173074 0.465867 0.418627 -0.544973 0.0564796 0.00962537 0.498563 -0.333089 1.13331 0.282977 0.473645 0.328968 0.843317 -0.265594 0.0264977 -0.138564 -0.579714 0.216708 0.503627 1.01228 -0.7755 0.760847 -0.25997 -0.44168 0.286872 1.35394 -0.740487 0.819238 1.22583 0.350307 0.156102 0.604758 -0.162668 0.0297977 -0.883954 -0.184365
172 -0.0123817 -0.0288951 0.175765 0.0827707 0.120289 0.24719 -0.498296 -0.182815 0.453536 -0.249445 -0.281923 -0.349407 -0.594706 -0.0999304 -0.183262 -0.691811 -0.135079 0.243493 0.309611 -0.566245 -0.47826 -0.215 -0.272159 -0.0329525 -0.00665201 -0.315338 -0.476774 0.0242021 0.119757 0.243082 0.398463 -0.390696 0.0893773 -0.0217193 0.43028 -0.322729 0.819464 0.24764 0.358133 0.359966 0.623591 -0.129317 0.135519 -0.144636 -0.332938 0.22449 0.520314 1.0004 -0.72166 0.5039 -0.158756 -0.345403 0.324423 1.16677 -0.677461 1.028 1.15034 0.564816 0.151248 0.728796 -0.167602 -0.0269101 -0.747787 -0.0604328
219 -0.145864 0.0898059 0.123625 0.0216963 -0.0220587 0.193119 -0.173392 -0.15528 0.329082 -0.148887 -0.175083 -0.392398 -0.360275 0.0101924 0.0777438 -0.449561 -0.117389 0.184164 0.263931 -0.425626 -0.401137 -0.132547 -0.211502 -0.0784342 -0.0726944 -0.250067 -0.339692 0.0140011 0.191242 0.405946 0.218922 -0.405145 0.211147 0.120639 0.501021 -0.263814 1.11132 0.227137 0.349461 0.340372 0.815871 -0.277303 0.0680662 -0.0655526 -0.457809 0.262605 0.415079 0.965023 -0.693743 0.631669 -0.10301 -0.359565 0.490924 1.29774 -0.774941 0.942471 1.35225 0.405265 0.238803 0.787423 -0.216001 0.0316975 -1.04291 -0.13104
205 -0.266306 0.125782 0.0622237 -0.0613789 -0.02033 0.2595 -0.18798 -0.181338 0.306748 -0.0783844 -0.184444 -0.490995 -0.460391 -0.0761202 0.0788579 -0.550011 -0.114695 0.166891 0.270139 -0.393691 -0.411191 -0.0658943 -0.271249 -0.0696561 -0.0983876 -0.275323 -0.384973 0.00299045 0.246296 0.376332 0.194238 -0.364141 0.240254 0.136606 0.572817 -0.263298 1.21485 0.251566 0.315718 0.410728 0.863121 -0.296661 0.113615 -0.0328015 -0.434742 0.23149 0.449428 1.05055 -0.774532 0.638122 -0.0901064 -0.444673 0.554118 1.35956 -0.889041 1.10791 1.52993 0.507957 0.283803 0.947086 -0.276728 0.00163446 -1.17958 -0.122605
203 -0.133868 0.0917225 0.0380095 -0.00926505 0.0386933 0.18416 -0.203403 -0.16599 0.31432 -0.126957 -0.176121 -0.300506 -0.524152 -0.00989465 0.00823607 -0.502178 -0.160392 0.221879 0.277201 -0.476229 -0.433995 -0.127964 -0.240433 -0.125113 -0.0548937 -0.188623 -0.336951 -0.0168931 0.178254 0.306761 0.291395 -0.325701 0.173129 0.0946371 0.473305 -0.250918 1.0273 0.21798 0.407333 0.316166 0.757418 -0.238179 0.0645637 -0.0359827 -0.371576 0.266043 0.449702 1.04581 -0.791338 0.60113 -0.179527 -0.438848 0.365068 1.24405 -0.88654 1.06829 1.39665 0.59259 0.221887 0.888617 -0.282433 -0.00063016 -1.10501 -0.118854
104 -0.0263078 -0.0485152 0.147878 0.0580306 0.124052 0.296434 -0.334238 -0.177391 0.454251 -0.235643 -0.259135 -0.294404 -0.583893 -0.107302 -0.0844512 -0.584895 -0.0976058 0.258532 0.204104 -0.365746 -0.403503 -0.119274 -0.258938 0.0261486 0.042143 -0.300013 -0.496875 0.0057879 0.0365377 0.188752 0.243365 -0.321219 0.105545 0.035775 0.370019 -0.355911 0.82207 0.131749 0.282346 0.23984 0.592789 -0.150956 0.129501 -0.152717 -0.270274 0.190069 0.555502 0.935628 -0.657408 0.538926 -0.110278 -0.362003 0.286561 1.03539 -0.616269 1.04179 1.15021 0.473542 0.139365 0.705696 -0.207776 -0.0169585 -0.684017 -0.049981
7 0.0365285 -0.0249385 0.143533 0.0839616 0.0841135 0.277712 -0.293191 -0.143558 0.447973 -0.223383 -0.219357 -0.336211 -0.589017 -0.0741524 -0.0536533 -0.543058 -0.119864 0.299041 0.310667 -0.597239 -0.539928 -0.180234 -0.278748 -0.0994574 -0.0230588 -0.315615 -0.569826 -0.0109776 0.0879966 0.250589 0.311003 -0.373408 0.113055 0.0119037 0.448679 -0.361844 0.995304 0.188003 0.340541 0.280004 0.720811 -0.173184 0.116222 -0.132987 -0.284473 0.219005 0.5149 1.00947 -0.767908 0.541513 -0.158939 -0.39171 0.237459 1.07825 -0.636264 0.926982 1.04369 0.511936 0.13826 0.736892 -0.203245 -0.024482 -0.751019 -0.12571
51 -0.23022 0.28887 0.00968362 0.148924 0.311084 0.17752 -0.250362 -0.165842 0.3439 -0.366115 -0.330782 -0.308034 -0.763134 -0.120105 -0.0524697 -0.454308 -0.206377 0.317828 0.38658 -0.722249 -0.631695 -0.319703 -0.157403 -0.162777 -0.0200727 -0.214377 -0.377406 0.057277 0.182166 0.317705 0.319149 -0.406867 0.00368401 -0.0282008 0.377335 -0.238592 0.906151 0.298348 0.479541 0.200232 0.588612 -0.212826 0.0389919 -0.146641 -0.487223 0.160435 0.469416 1.08947 -0.493437 0.462102 -0.293623 -0.394229 0.286772 1.22756 -0.712429 0.858901 0.794218 0.43008 0.0954811 0.59829 -0.0881696 -0.00546692 -0.64157 -0.219162
81 -0.204922 0.232632 0.113101 0.132313 0.149553 0.215508 -0.410976 -0.276506 0.366832 -0.306191 -0.267811 -0.183652 -0.61641 -0.016186 -0.205994 -0.557565 -0.117954 0.397113 0.203152 -0.577322 -0.601357 -0.113687 -0.23715 -0.0641934 -0.035013 -0.217456 -0.405209 0.0182815 0.177198 0.380248 0.402787 -0.398166 -0.0148205 -0.0357055 0.598005 -0.351267 0.91104 0.340421 0.400135 0.348404 0.54586 -0.0664265 -0.0249586 -0.0961438 -0.373145 0.131592 0.47294 0.904235 -0.675212 0.521352 -0.200748 -0.571965 0.0955025 0.998774 -0.58794 0.862075 1.08461 0.574906 0.217033 0.631265 -0.255402 -0.0114245 -0.76379 -0.0336918
259 -0.235608 0.272034 0.113368 0.169431 0.191912 0.172597 -0.424803 -0.28339 0.451976 -0.328714 -0.177122 -0.163259 -0.510375 0.0577314 -0.174718 -0.544883 -0.0862676 0.43683 0.269387 -0.573133 -0.605843 -0.187679 -0.223518 -0.087085 -0.0128335 -0.290713 -0.345531 0.0181446 0.183036 0.416245 0.497014 -0.419183 -0.103202 -0.0744006 0.516069 -0.277673 0.897879 0.23487 0.461444 0.470102 0.567844 -0.0575524 0.0359964 -0.120287 -0.458735 0.0660388 0.492679 0.852279 -0.600983 0.399721 -0.214545 -0.591496 0.234122 1.07301 -0.63358 0.987466 1.21955 0.620272 0.220418 0.642604 -0.1578 -0.025042 -0.894494 -0.0361173
46 -0.0593098 0.0522035 0.129692 0.10932 0.0457665 0.0996903 -0.153224 -0.0924286 0.331159 -0.237921 -0.16584 -0.287695 -0.542619 0.00564318 -0.17969 -0.545659 -0.0351631 -0.0488932 0.322581 -0.511399 -0.424492 -0.429833 -0.12358 -0.205754 -0.17654 -0.253581 -0.339524 0.0324096 0.0555914 0.352156 0.211742 -0.389613 0.125228 0.143189 0.238892 -0.195431 0.854121 0.212798 0.409822 0.189287 0.69803 -0.189665 -0.00387729 -0.170208 -0.32324 0.423415 0.362331 1.02045 -0.665332 0.402662 -0.0580103 -0.189424 0.456862 1.15454 -0.703673 0.983906 1.0266 0.594763 0.285092 0.841866 -0.192041 0.128574 -1.08103 -0.152536
134 -0.109726 0.0781154 0.091667 0.0895001 0.00955712 0.0394605 -0.134065 -0.0874955 0.365279 -0.252966 -0.1337 -0.282114 -0.565106 0.0623383 -0.218121 -0.562037 -0.0126561 0.0186874 0.326965 -0.527574 -0.413693 -0.434583 -0.148605 -0.2031 -0.193737 -0.293891 -0.409281 0.0343292 0.0306375 0.381738 0.268165 -0.40873 0.101759 0.130091 0.349934 -0.263424 0.961383 0.25387 0.451568 0.205222 0.75791 -0.156702 0.0180829 -0.23739 -0.346822 0.41314 0.424864 1.07739 -0.753726 0.461929 -0.0570299 -0.239663 0.443036 1.19544 -0.673868 1.03527 1.09835 0.619183 0.320377 0.827189 -0.244014 0.109233 -1.12868 -0.130024
157 -0.088052 0.0656943 0.0598006 0.0863287 -0.0098621 0.0380593 -0.159732 -0.0935862 0.29651 -0.177345 -0.122163 -0.206933 -0.507341 0.0175189 -0.132027 -0.558649 -0.0762828 0.122104 0.329421 -0.530054 -0.354635 -0.275277 -0.217755 -0.125404 -0.120372 -0.333234 -0.446576 0.0455715 0.050387 0.315829 0.335464 -0.30857 0.100363 0.0580857 0.43443 -0.238483 0.897442 0.213865 0.436093 0.206856 0.650163 -0.155499 0.0751426 -0.113047 -0.259118 0.326202 0.457971 0.943265 -0.705041 0.360846 -0.0718313 -0.288136 0.356726 1.01797 -0.66887 0.930397 1.11449 0.62154 0.179464 0.696108 -0.242422 0.0377952 -0.928838 -0.092196
13 -0.311004 0.276685 0.0367677 -0.0043121 0.0761112 0.164036 -0.269387 -0.287908 0.269026 -0.241541 -0.229089 -0.0736027 -0.612187 0.0863073 -0.20885 -0.551793 -0.039832 0.336516 0.128041 -0.473974 -0.532814 -0.151187 -0.225253 -0.0648998 -0.00633417 -0.19166 -0.491236 0.0238775 0.133028 0.445818 0.371744 -0.464518 -0.079651 0.0168169 0.504729 -0.343399 0.917474 0.306615 0.41063 0.299209 0.633359 -0.040487 -0.0677367 -0.19536 -0.405519 0.157114 0.56642 0.950087 -0.740849 0.558918 -0.158576 -0.580968 0.0924161 1.06917 -0.545074 0.905556 1.21057 0.543428 0.254384 0.603254 -0.342296 0.0720964 -0.909819 -0.0275852
56 -0.128519 0.146547 0.0182016 -0.0622499 0.0679021 0.233787 -0.0346665 -0.201874 0.315266 -0.23226 -0.301413 -0.0216544 -0.618032 0.0363559 -0.177085 -0.477764 -0.0892812 0.263816 0.0472098 -0.355213 -0.528966 -0.0749423 -0.291414 0.0204362 0.0476955 0.0500257 -0.41945 0.00947006 -0.0427332 0.309777 0.24528 -0.369586 0.0761327 0.0998589 0.327593 -0.316973 0.755438 0.270223 0.357103 0.104141 0.449593 -0.0139259 -0.104056 -0.139473 -0.275843 0.263431 0.601498 0.936693 -0.926724 0.85445 -0.210466 -0.522387 0.106693 1.11676 -0.577095 0.84664 1.17864 0.282576 0.226229 0.494492 -0.46963 0.166647 -0.907827 -0.0118013
279 -0.472244 0.400442 -0.0383725 0.0809937 0.195566 0.305136 -0.297427 -0.21778 0.4916 -0.336616 -0.165651 -0.538601 -0.639639 0.0551693 0.0253867 -0.52602 -0.159554 0.575387 0.450485 -0.882912 -0.798477 -0.21528 -0.179329 -0.0394613 0.110334 -0.395887 -0.559264 0.11609 0.107712 0.418453 0.405263 -0.469468 -0.174524 0.0968627 0.306278 -0.278803 0.976822 -0.0187413 0.484963 0.196005 0.762826 -0.184758 -0.00457496 -0.237859 -0.46373 0.133524 0.612798 1.12544 -0.252059 0.541872 -0.260091 -0.643635 0.112496 1.25936 -0.574836 0.872819 0.946853 0.451173 0.109962 0.494702 -0.168501 -0.0202269 -0.870901 -0.239149
50 -0.459135 0.355486 -0.109967 -0.105898 0.066288 0.319551 -0.374788 -0.233399 0.726034 -0.174222 -0.0399365 -0.609894 -0.668505 0.226828 0.102287 -0.629153 -0.26745 0.790564 0.561771 -0.907605 -0.755566 -0.199092 -0.256196 -0.00732682 0.19154 -0.483423 -0.617543 0.0738476 0.0478879 0.346873 0.485691 -0.516651 -0.149448 0.112853 0.244715 -0.344641 1.01469 -0.289514 0.535249 0.146019 0.971345 -0.159404 0.0816904 -0.285278 -0.436047 0.280556 0.782318 1.39166 -0.338182 0.758396 -0.274728 -0.65121 0.0230032 1.43312 -0.711428 1.10341 1.17388 0.496455 0.0680566 0.555565 -0.293766 -0.0984514 -1.06932 -0.203167
44 -0.325104 0.231599 -0.0646462 -0.0902847 0.0168676 0.246787 -0.316832 -0.182671 0.696005 -0.174601 -0.00501119 -0.537153 -0.544558 0.230714 0.112814 -0.535057 -0.216689 0.72531 0.541822 -0.769587 -0.602827 -0.209955 -0.237415 -0.0580939 0.13094 -0.552405 -0.613017 0.0584608 0.0405544 0.322996 0.452314 -0.486853 -0.0926899 0.0805121 0.27547 -0.328009 1.01464 -0.228254 0.513465 0.178502 0.996875 -0.187754 0.139366 -0.294625 -0.455604 0.245127 0.669765 1.21638 -0.345613 0.681876 -0.271756 -0.479826 0.133206 1.31977 -0.681919 1.00951 1.171 0.466084 0.0926333 0.549168 -0.251434 -0.103719 -1.08345 -0.186459
118 -0.463669 0.31938 -0.120146 -0.150703 0.00374913 0.232012 -0.387525 -0.178802 0.692466 -0.089403 0.0208319 -0.623912 -0.569435 0.235018 0.153353 -0.609197 -0.284651 0.71767 0.60445 -0.857621 -0.648701 -0.245951 -0.220007 -0.0754364 0.17748 -0.526514 -0.568021 0.0411739 0.0920006 0.337391 0.494563 -0.532324 -0.0939053 0.0500896 0.244565 -0.319064 1.05681 -0.278625 0.513304 0.237111 1.03911 -0.212337 0.151953 -0.285877 -0.488961 0.298807 0.669369 1.32025 -0.306866 0.684538 -0.272552 -0.457407 0.144398 1.39 -0.748049 1.05153 1.10776 0.446559 0.0687973 0.570521 -0.189797 -0.155286 -1.09846 -0.228366
141 -0.288417 0.230531 -0.0290132 -0.00899561 0.0746671 0.198396 -0.282164 -0.153662 0.638966 -0.246085 -0.0510413 -0.477372 -0.529935 0.175191 0.0803852 -0.538451 -0.211916 0.613329 0.51711 -0.729969 -0.542897 -0.260231 -0.188573 -0.0734984 0.131479 -0.461934 -0.51489 0.0589329 0.0462785 0.303129 0.41619 -0.46575 -0.0889075 0.0692641 0.203994 -0.256577 0.920322 -0.208674 0.482522 0.167399 0.856118 -0.182808 0.125088 -0.266108 -0.431679 0.221928 0.595263 1.08857 -0.246676 0.559114 -0.241869 -0.380843 0.190578 1.18896 -0.660815 0.935485 1.05658 0.413975 0.046656 0.501146 -0.160775 -0.0719729 -1.03543 -0.213924
214 -0.319181 0.231099 -0.0586838 -0.0599 0.0438761 0.195196 -0.240849 -0.128726 0.613003 -0.176188 -0.0267629 -0.478465 -0.513451 0.167983 0.102152 -0.524514 -0.184296 0.600611 0.521265 -0.712466 -0.552855 -0.258698 -0.219125 -0.0926179 0.105564 -0.489272 -0.543854 0.0497782 0.0287839 0.289641 0.427427 -0.462923 -0.0731003 0.0715047 0.233027 -0.268213 0.985366 -0.184997 0.489989 0.180063 0.870977 -0.167063 0.134956 -0.275768 -0.425152 0.230545 0.610069 1.11568 -0.291364 0.581895 -0.251905 -0.359941 0.206781 1.22904 -0.665741 0.980771 1.12236 0.422373 0.0614032 0.52886 -0.193013 -0.0784626 -1.07541 -0.205552
296 -0.408018 0.306636 -0.0868155 -0.074539 0.0443661 0.241089 -0.390028 -0.197532 0.662813 -0.155172 -0.0147358 -0.542172 -0.552788 0.238873 0.132622 -0.58983 -0.268559 0.747502 0.573716 -0.904537 -0.714979 -0.212525 -0.21242 -0.0503397 0.181558 -0.531702 -0.59623 0.050432 0.07553 0.366902 0.524647 -0.517796 -0.161206 0.0315867 0.285183 -0.317232 1.02785 -0.24733 0.54573 0.237902 0.971584 -0.175578 0.116957 -0.272972 -0.468683 0.220903 0.694437 1.28608 -0.340778 0.654263 -0.306989 -0.589806 0.0843271 1.36696 -0.72182 1.02766 1.1836 0.497286 0.0593281 0.544341 -0.191761 -0.13579 -1.01669 -0.206555
233 -0.494075 0.371551 -0.0853436 -0.107193 0.058416 0.276336 -0.377666 -0.210033 0.674513 -0.15623 -0.0562417 -0.607179 -0.658649 0.200412 0.112406 -0.633797 -0.263091 0.67412 0.552344 -0.870649 -0.700409 -0.256386 -0.188363 -0.0316744 0.177182 -0.438722 -0.552244 0.0770245 0.0739846 0.385017 0.476805 -0.568215 -0.107513 0.0771753 0.23169 -0.319671 1.04016 -0.228357 0.537408 0.203371 0.975208 -0.204581 0.0766257 -0.279343 -0.503218 0.315531 0.70977 1.38485 -0.329953 0.681211 -0.287863 -0.550399 0.121006 1.44581 -0.774681 1.10473 1.13489 0.494814 0.0680715 0.623212 -0.202987 -0.0984566 -1.10437 -0.23831
138 -0.538762 0.395552 -0.135501 -0.173967 0.0522873 0.337611 -0.420136 -0.256702 0.789904 -0.18337 -0.0445296 -0.698932 -0.730616 0.242849 0.137603 -0.670809 -0.302611 0.845204 0.617607 -0.977327 -0.793398 -0.237122 -0.257152 -0.0579743 0.187556 -0.53486 -0.639334 0.0700524 0.0953694 0.374909 0.517251 -0.592517 -0.110842 0.104089 0.273408 -0.370388 1.13013 -0.287092 0.581096 0.199066 1.13119 -0.209856 0.098081 -0.305816 -0.50184 0.319818 0.781734 1.50147 -0.382945 0.836813 -0.33452 -0.640728 0.0791752 1.58282 -0.824786 1.19185 1.27264 0.535488 0.0946785 0.668111 -0.28485 -0.133476 -1.16454 -0.23553
48 -0.488028 0.339838 -0.109125 -0.111724 0.0324337 0.281663 -0.394654 -0.194941 0.668022 -0.130485 -0.0260421 -0.624493 -0.594835 0.202012 0.142005 -0.659144 -0.265244 0.740376 0.603372 -0.925294 -0.729319 -0.236872 -0.246231 -0.0644667 0.194867 -0.560311 -0.629844 0.0702174 0.0832119 0.380025 0.549711 -0.571263 -0.118462 0.0358273 0.313856 -0.336436 1.15154 -0.22206 0.55306 0.285343 1.04315 -0.218679 0.154165 -0.282102 -0.51671 0.260868 0.719009 1.3455 -0.340798 0.692509 -0.301052 -0.550455 0.156071 1.44404 -0.760133 1.0834 1.21947 0.459554 0.0585064 0.571233 -0.208439 -0.122663 -1.13781 -0.241732
174 -0.534595 0.406284 -0.0997032 -0.138735 0.0739543 0.311207 -0.393472 -0.227618 0.697735 -0.152589 -0.0610608 -0.666939 -0.665496 0.207352 0.159477 -0.606309 -0.294697 0.720334 0.55904 -0.894765 -0.735436 -0.237797 -0.187014 -0.0496505 0.20688 -0.434953 -0.540139 0.0662133 0.106094 0.363261 0.458125 -0.572572 -0.113849 0.0953067 0.217627 -0.328629 1.06529 -0.26596 0.534813 0.210695 1.03366 -0.222876 0.0841834 -0.290008 -0.530384 0.297263 0.696725 1.41915 -0.301096 0.736124 -0.306376 -0.560989 0.122819 1.48832 -0.797453 1.09958 1.1308 0.466621 0.085614 0.655642 -0.178335 -0.110054 -1.12009 -0.261075
98 -0.446162 0.324914 -0.0900315 -0.120325 0.0753351 0.309217 -0.415427 -0.228423 0.708566 -0.166849 -0.0679962 -0.623681 -0.65465 0.196973 0.155076 -0.635742 -0.282066 0.740471 0.565779 -0.886587 -0.735676 -0.234133 -0.232945 -0.0568593 0.210925 -0.477953 -0.587024 0.0551709 0.106182 0.356591 0.500398 -0.580322 -0.10625 0.0508269 0.265602 -0.338077 1.10911 -0.231603 0.531709 0.251588 1.03958 -0.226146 0.12564 -0.281017 -0.514971 0.266674 0.736407 1.40361 -0.356317 0.743175 -0.302188 -0.568855 0.135117 1.4849 -0.787273 1.11162 1.20146 0.457817 0.076413 0.613272 -0.197194 -0.131127 -1.06987 -0.246335
191 -0.25125 0.206408 -0.0188802 -0.0645623 0.097622 0.247277 -0.294744 -0.151567 0.640593 -0.219484 -0.0954977 -0.528633 -0.508965 0.181541 0.218373 -0.487549 -0.254327 0.6303 0.493592 -0.698989 -0.574118 -0.234062 -0.174221 -0.0999298 0.199656 -0.410684 -0.449108 0.0567902 0.107596 0.31945 0.390886 -0.536859 -0.0541262 0.0700473 0.202828 -0.280157 1.0371 -0.208559 0.45608 0.204545 0.938488 -0.261371 0.0897316 -0.246177 -0.49965 0.193481 0.550195 1.16817 -0.218129 0.669265 -0.288199 -0.34422 0.185446 1.31517 -0.747673 0.924726 1.06301 0.29451 0.0428603 0.552222 -0.0950118 -0.101251 -0.978905 -0.290339
195 -0.437666 0.334463 -0.123194 -0.0963667 0.0681515 0.261443 -0.311348 -0.202477 0.615904 -0.180196 -0.0269653 -0.549925 -0.596213 0.208171 0.120493 -0.530005 -0.231552 0.714498 0.528572 -0.873422 -0.71929 -0.18902 -0.196357 -0.0341481 0.178926 -0.469507 -0.572533 0.0793819 0.0583049 0.341007 0.455852 -0.490055 -0.170107 0.0974419 0.243838 -0.305774 0.95863 -0.237302 0.523023 0.169195 0.926165 -0.185209 0.0609098 -0.263526 -0.445093 0.227707 0.690642 1.26928 -0.294382 0.680998 -0.291255 -0.625274 0.0335697 1.32698 -0.650202 0.968716 1.05441 0.452755 0.0599675 0.502736 -0.237598 -0.0798561 -0.974835 -0.229769
149 -0.274531 0.192027 0.0147977 0.0824668 0.0493124 0.175064 -0.207978 -0.040417 0.407922 -0.124274 -0.0657278 -0.464007 -0.400641 0.054423 0.050277 -0.473072 -0.0867052 0.486821 0.407306 -0.85612 -0.702497 -0.129975 -0.178729 -0.0429783 0.0444685 -0.448574 -0.689035 0.0723302 0.014627 0.340755 0.40396 -0.350326 -0.0710474 0.0182709 0.408433 -0.352323 0.991661 -0.00473594 0.464657 0.228693 0.709445 -0.132302 0.0401897 -0.166528 -0.306313 0.201354 0.562995 1.01684 -0.497394 0.436811 -0.195865 -0.548329 0.112462 0.994883 -0.513641 0.793794 0.974868 0.516863 0.0471136 0.58714 -0.166003 0.000832424 -0.800238 -0.220434
271 -0.0321876 0.182582 0.0394912 0.169849 0.27051 0.134495 -0.107786 -0.181695 0.438185 -0.374729 -0.218184 -0.0515872 -0.631531 0.0455755 -0.140327 -0.445514 -0.138594 0.389676 0.317786 -0.519693 -0.465429 -0.272056 -0.170885 -0.0383182 0.012865 -0.13448 -0.415199 0.0738306 -0.0645524 0.267208 0.346205 -0.353351 -0.0392303 0.034545 0.318255 -0.282702 0.789965 0.0858211 0.490822 0.0545554 0.474657 -0.0743761 0.0225478 -0.176478 -0.365513 0.232974 0.633603 0.928984 -0.669729 0.599273 -0.21263 -0.458695 0.206299 1.02137 -0.587154 0.895529 1.12287 0.434475 0.0099291 0.468235 -0.34749 0.0889394 -1.09334 -0.110647
276 -0.236656 0.296595 -0.0972756 -0.0609611 0.107048 0.0237417 -0.292797 -0.197444 0.293112 -0.101845 -0.265246 -0.0140046 -0.717065 0.0465398 0.00632013 -0.462538 -0.359658 0.359729 0.35678 -0.664502 -0.500388 -0.254867 -0.239392 -0.215282 0.0372154 0.0238662 -0.310543 -0.0859163 0.202468 0.292009 0.502948 -0.411885 0.0848975 -0.134123 0.541803 -0.314781 1.02129 0.402138 0.542339 0.248112 0.561028 -0.137927 0.114686 -0.0353151 -0.398337 0.201081 0.473029 1.11734 -0.964903 0.648834 -0.330963 -0.413067 0.0924184 1.1775 -0.805657 0.831949 0.911955 0.46818 0.0633977 0.56649 -0.176857 -0.138701 -0.762722 -0.110211
184 -0.318625 0.365441 -0.0377564 -0.0158401 0.0778265 -0.00802118 -0.347486 -0.219616 0.263086 -0.14838 -0.269752 -0.020964 -0.606701 0.121434 -0.0238218 -0.465562 -0.32252 0.379122 0.285058 -0.661389 -0.521309 -0.168694 -0.156971 -0.147667 0.0656421 0.0405308 -0.294153 -0.0534539 0.294652 0.415038 0.543986 -0.503817 0.0083157 -0.131352 0.597964 -0.327662 1.05592 0.429964 0.535881 0.345634 0.573957 -0.147661 0.0303513 -0.0355091 -0.526729 0.150308 0.495429 1.08489 -0.944507 0.684464 -0.331031 -0.554254 0.0989752 1.23844 -0.826774 0.810267 1.07809 0.479549 0.103841 0.613837 -0.150873 -0.113565 -0.771881 -0.12238
243 -0.318659 0.326982 0.0219756 0.0684313 0.072655 0.102924 -0.355479 -0.279835 0.299587 -0.27571 -0.202286 -0.0635602 -0.562114 0.096478 -0.242516 -0.581171 -0.0733057 0.429871 0.212821 -0.607174 -0.618826 -0.130307 -0.232386 -0.0909469 -0.0185146 -0.246635 -0.463136 0.00544078 0.194639 0.493759 0.538356 -0.471451 -0.11914 -0.0995958 0.703371 -0.353786 1.06967 0.404108 0.489202 0.436668 0.556009 -0.00455893 -0.0437372 -0.145651 -0.471174 0.100772 0.543352 0.947439 -0.817877 0.564943 -0.239096 -0.668219 0.11157 1.12 -0.635812 0.944167 1.27976 0.600365 0.230947 0.578456 -0.288696 0.00477429 -0.873402 -0.00941934
45 -0.476071 0.423442 -0.142815 -0.142887 -0.0204508 -0.015123 -0.332197 -0.192042 0.227476 -0.0840192 -0.195167 -0.0647531 -0.589306 0.158768 -0.117354 -0.589986 -0.222587 0.470685 0.301374 -0.73942 -0.6206 -0.143738 -0.221491 -0.178903 0.0626964 -0.129317 -0.46266 -0.0807473 0.275397 0.449103 0.614755 -0.519461 -0.105486 -0.185544 0.654536 -0.335801 1.1188 0.409852 0.528242 0.416756 0.620646 -0.0362682 0.0112553 -0.122354 -0.528044 0.0717955 0.520464 1.01241 -0.871532 0.60426 -0.355152 -0.608081 0.0463008 1.17584 -0.70653 0.825406 1.1628 0.516364 0.163205 0.556824 -0.190879 -0.100747 -0.771423 -0.0878739
34 -0.441224 0.386703 -0.115058 -0.123599 -0.0251929 0.00201996 -0.312383 -0.175775 0.190294 -0.0393744 -0.173384 -0.0263925 -0.549433 0.17129 -0.101132 -0.556023 -0.227164 0.447462 0.289788 -0.649579 -0.515717 -0.129972 -0.196097 -0.171805 0.0852601 -0.100495 -0.436738 -0.0778872 0.22552 0.423103 0.622381 -0.52053 -0.10037 -0.178117 0.612346 -0.323836 1.10223 0.379711 0.527732 0.401928 0.580909 -0.0548683 0.0502963 -0.122317 -0.50318 0.0760739 0.537591 0.991016 -0.893064 0.61369 -0.35339 -0.575955 0.104047 1.18067 -0.746297 0.85455 1.26643 0.490892 0.156616 0.560245 -0.194488 -0.0925609 -0.834988 -0.086561
27 -0.221209 0.289583 0.136174 0.118201 0.152609 0.0763499 -0.423898 -0.184813 0.44343 -0.276209 -0.288587 -0.111396 -0.687642 0.0865351 -0.206063 -0.593094 -0.239418 0.162694 0.366448 -0.617439 -0.445286 -0.393652 -0.0769186 -0.069174 0.000731877 -0.0829574 -0.287744 0.0299718 0.0298374 0.355001 0.459722 -0.480999 -0.0138097 -0.0924988 0.352545 -0.375631 0.784725 0.219844 0.460212 0.219035 0.445526 -0.047338 0.041027 -0.168181 -0.348805 0.395151 0.542768 1.09041 -0.762234 0.446918 -0.133704 -0.301139 0.192471 1.07793 -0.67076 0.933381 0.85443 0.512658 0.0296245 0.609121 -0.171435 0.0160905 -0.839289 -0.0668585
145 -0.394976 0.39966 0.119061 0.150575 0.325967 0.311328 -0.248265 -0.2265 0.329893 -0.41378 -0.384779 -0.339656 -0.849271 -0.131956 -0.185305 -0.566855 -0.0909516 0.146779 0.229146 -0.620522 -0.661074 -0.333807 -0.0872492 -0.0214497 -0.0162055 -0.0523627 -0.372823 0.118241 0.100481 0.402669 0.187441 -0.4676 -0.0190605 0.147266 0.255112 -0.296214 0.825537 0.285892 0.376778 0.149723 0.497549 -0.157477 -0.139924 -0.18358 -0.432868 0.273961 0.49375 1.11022 -0.484895 0.481562 -0.163869 -0.487962 0.220047 1.1831 -0.595458 0.894256 0.772311 0.456554 0.188832 0.713097 -0.19859 0.174885 -0.946033 -0.173927
257 -0.236286 0.235511 0.112761 0.220207 0.301218 0.32345 -0.270701 -0.18579 0.389494 -0.440541 -0.26058 -0.438734 -0.626067 -0.0975538 -0.0893257 -0.467694 -0.0291032 0.357279 0.316641 -0.706386 -0.712194 -0.210166 -0.169013 -0.0613544 -0.0145913 -0.365842 -0.527264 0.10535 0.101634 0.380891 0.280988 -0.415662 -0.0878637 0.0995926 0.396334 -0.278033 0.959363 0.228565 0.415008 0.240591 0.608548 -0.152096 -0.0514358 -0.203542 -0.435482 0.106052 0.524501 1.01433 -0.381316 0.458244 -0.213981 -0.545318 0.240524 1.17751 -0.55592 0.91416 0.989061 0.481398 0.173239 0.625494 -0.126531 0.0770315 -0.674745 -0.193116
59 -0.232356 0.273424 0.0664188 0.218006 0.309781 0.243978 -0.219187 -0.182622 0.349933 -0.393584 -0.263467 -0.319549 -0.709709 -0.10653 -0.100308 -0.456362 -0.0863465 0.359839 0.307487 -0.676753 -0.651805 -0.254369 -0.155742 -0.0982469 0.00596352 -0.277482 -0.469081 0.0740729 0.141669 0.316102 0.273569 -0.363996 -0.0888041 0.0719593 0.385902 -0.252915 0.890479 0.250124 0.428573 0.19864 0.569397 -0.173762 -0.0161647 -0.178645 -0.442065 0.0944993 0.459895 0.964119 -0.403188 0.400855 -0.242816 -0.550903 0.180685 1.01717 -0.547657 0.808227 0.79669 0.506658 0.157639 0.615743 -0.138353 0.0492347 -0.688512 -0.183636
14 0.127489 -0.0553683 0.092534 0.0763034 0.157446 0.130396 -0.228605 -0.113777 0.481713 -0.322932 -0.116544 -0.193498 -0.49252 0.0636274 -0.0253688 -0.406333 -0.114964 0.303496 0.376178 -0.530053 -0.391785 -0.312097 -0.167178 -0.152563 -0.0615617 -0.387276 -0.48594 0.0174454 0.0379952 0.253976 0.355071 -0.383714 0.0246194 0.00955326 0.412491 -0.316799 0.974413 0.160353 0.435877 0.196535 0.663417 -0.146318 0.100053 -0.17195 -0.360302 0.238202 0.434395 0.944165 -0.653912 0.530049 -0.204103 -0.286123 0.24144 1.05495 -0.618305 0.89544 1.03266 0.493397 0.0955369 0.615661 -0.188081 -0.0120749 -0.929762 -0.112173
133 -0.251337 0.299421 0.0475935 0.132616 0.172079 0.211334 -0.376036 -0.294415 0.350449 -0.312002 -0.224401 -0.129855 -0.633212 0.0239692 -0.258512 -0.568812 -0.0730974 0.467147 0.226564 -0.616946 -0.654715 -0.132248 -0.244367 -0.0755412 -0.0184803 -0.252093 -0.448883 0.0202639 0.13372 0.407892 0.458293 -0.411175 -0.128963 -0.048654 0.598395 -0.331897 0.941558 0.320595 0.476691 0.346247 0.51036 -0.00995057 -0.0366085 -0.151059 -0.426262 0.0796213 0.567616 0.921276 -0.665701 0.536824 -0.245244 -0.676056 0.0756783 1.05505 -0.595978 0.949294 1.17907 0.607719 0.220517 0.571607 -0.301895 0.0129779 -0.8025 -0.0267716
68 -0.103207 0.0801545 -0.101413 -0.0601641 0.087854 0.266902 -0.0324546 -0.212406 0.381062 -0.289428 -0.191231 -0.0861492 -0.574549 0.0145812 -0.107327 -0.492346 -0.0106853 0.501444 0.123846 -0.386686 -0.536321 -0.00274753 -0.422768 0.0230714 0.0522944 -0.269039 -0.653836 0.0293023 -0.0585231 0.209522 0.295176 -0.221636 0.00164804 0.120423 0.439493 -0.318661 0.845436 0.133564 0.403701 0.116887 0.566085 -0.0128462 0.0188594 -0.119793 -0.168825 0.113428 0.653548 0.816679 -0.823668 0.704298 -0.196735 -0.637372 0.0242571 0.975669 -0.524078 0.893513 1.40062 0.512379 0.192567 0.492936 -0.506392 0.0708368 -0.870952 -0.0125044
187 -0.0998777 0.131363 -0.0958593 -0.0585627 0.127652 0.293837 -0.0315953 -0.249149 0.310753 -0.203546 -0.225974 -0.0266187 -0.599693 -0.0225099 -0.0916749 -0.505909 -0.103347 0.43069 0.108322 -0.34057 -0.510536 0.00760268 -0.449537 0.0365288 0.0906953 -0.0518772 -0.458844 0.0193549 -0.0405897 0.159053 0.25737 -0.229731 0.0418342 0.0925631 0.326144 -0.218428 0.757436 0.110613 0.337665 0.093182 0.45655 -0.0301057 0.0174336 -0.0512265 -0.169279 0.132555 0.664995 0.8073 -0.793944 0.759428 -0.194778 -0.573815 0.0534292 0.954963 -0.590579 0.909282 1.37378 0.370799 0.148804 0.407875 -0.559117 0.0717854 -0.890621 -0.0235456
198 -0.0886839 0.115252 -0.0715957 -0.033932 0.181428 0.390044 -0.0237681 -0.289015 0.359939 -0.311304 -0.297424 -0.0206346 -0.724018 -0.033274 -0.141836 -0.596812 -0.0513168 0.457534 0.092726 -0.32864 -0.543513 -0.0303882 -0.493094 0.0729277 0.11579 -0.0866205 -0.593765 0.0574473 -0.125859 0.200358 0.282376 -0.303722 0.00961043 0.140393 0.356237 -0.277346 0.888164 0.126838 0.369301 0.0779126 0.473779 -0.00837674 0.0214567 -0.142879 -0.194017 0.156539 0.837648 0.918982 -0.889614 0.872825 -0.215154 -0.641054 0.0860393 1.09277 -0.618393 1.09481 1.61815 0.40948 0.147884 0.437503 -0.633739 0.140916 -0.998271 0.0069489
82 -0.0832226 0.0515162 0.227365 0.128178 0.192594 0.327455 -0.447318 -0.207186 0.488602 -0.261806 -0.321727 -0.296193 -0.564423 -0.0894211 -0.0462367 -0.640022 -0.160415 0.286588 0.217962 -0.475 -0.505952 -0.142295 -0.240666 0.0614179 0.0924913 -0.244467 -0.480799 0.0206263 0.0447513 0.261474 0.328559 -0.418209 0.0838805 -0.0132311 0.42743 -0.418583 0.910275 0.187891 0.319395 0.30848 0.537724 -0.105746 0.0938594 -0.149304 -0.281319 0.208007 0.591172 0.996135 -0.651787 0.548929 -0.129801 -0.355122 0.226514 1.08135 -0.5907 0.977969 1.09177 0.417403 0.07935 0.643042 -0.14963 -0.0243058 -0.667162 -0.0437187
49 0.00548729 0.0283259 0.174945 0.1589 0.0548484 0.0921075 -0.186323 -0.122138 0.385438 -0.279649 -0.185395 -0.221855 -0.394061 0.0835959 -0.0235633 -0.41082 -0.104516 0.273667 0.274738 -0.518984 -0.464979 -0.188033 -0.176095 -0.0386992 0.0135124 -0.2807 -0.438988 0.0427546 0.0677154 0.371106 0.342227 -0.407708 0.0416714 0.0453407 0.4121 -0.307412 0.895189 0.180509 0.405944 0.254712 0.704883 -0.204704 0.061863 -0.162743 -0.449468 0.238538 0.523806 0.934006 -0.666607 0.567018 -0.134816 -0.377519 0.33723 1.1706 -0.629196 0.848598 1.14372 0.39105 0.128707 0.567881 -0.191573 0.046214 -0.79591 -0.11615
294 -0.0332661 0.0257846 0.14588 -0.0404608 0.0570161 0.130306 -0.254561 -0.0667002 0.499371 -0.242409 -0.177541 -0.362107 -0.339312 0.170652 0.233094 -0.493301 -0.175607 0.373511 0.38701 -0.419872 -0.318154 -0.231954 -0.135415 -0.12137 0.123454 -0.32683 -0.324277 0.0209328 0.0645834 0.34464 0.427733 -0.605672 0.0953968 -0.0408788 0.406087 -0.355881 1.22449 0.00257006 0.397075 0.309805 0.766614 -0.224613 0.0988818 -0.180283 -0.508984 0.204332 0.47337 1.04501 -0.427457 0.678568 -0.227064 -0.0353973 0.39405 1.28892 -0.838025 0.977957 1.25116 0.171684 0.00214661 0.613828 0.0069894 -0.0773774 -0.808612 -0.252256
234 0.0533589 0.0300991 0.104345 -0.032766 0.0705769 0.0890656 -0.222183 -0.134624 0.469309 -0.254472 -0.186754 -0.226231 -0.323159 0.227442 0.231422 -0.414294 -0.239378 0.397831 0.328708 -0.400489 -0.353339 -0.19838 -0.178619 -0.128348 0.160391 -0.214701 -0.220376 0.00640591 0.130354 0.364698 0.454699 -0.577606 0.0660939 -0.0383082 0.387257 -0.289899 1.15421 0.0656446 0.434529 0.314922 0.80942 -0.257169 0.0847245 -0.137373 -0.571548 0.162435 0.481016 1.0146 -0.524658 0.759019 -0.273577 -0.129937 0.360747 1.34519 -0.887228 0.923773 1.32407 0.169238 0.0445085 0.573623 -0.0907674 -0.0692023 -0.923644 -0.245556
31 0.0483277 0.022933 0.135222 0.0107625 0.0552532 0.12211 -0.19557 -0.101701 0.494501 -0.256773 -0.179774 -0.326936 -0.332302 0.18975 0.246187 -0.417121 -0.22144 0.442789 0.383053 -0.516423 -0.448206 -0.216887 -0.186411 -0.13833 0.145144 -0.306267 -0.341188 0.0270543 0.124522 0.403384 0.433186 -0.607006 0.0886651 0.000202765 0.393266 -0.331715 1.2131 0.061496 0.433656 0.312311 0.890292 -0.300455 0.075524 -0.171381 -0.583634 0.191375 0.484396 1.06193 -0.507897 0.755611 -0.277688 -0.177911 0.368608 1.35892 -0.829682 0.872886 1.22917 0.175268 0.0486471 0.578083 -0.0630296 -0.047484 -0.870849 -0.269366
121 -0.0734763 0.0623033 0.063982 -0.0933084 0.0737936 0.25913 -0.276194 -0.140183 0.598798 -0.238002 -0.144963 -0.396733 -0.413596 0.158175 0.262896 -0.41419 -0.246261 0.543411 0.360506 -0.482427 -0.433214 -0.15749 -0.192632 -0.0994932 0.181635 -0.352639 -0.393471 0.00493138 0.10329 0.248771 0.327292 -0.508766 0.0560097 0.0151178 0.248783 -0.322339 1.02116 -0.087631 0.341993 0.214829 0.830527 -0.232076 0.0977715 -0.180018 -0.389994 0.139706 0.411641 0.974813 -0.322224 0.699885 -0.277083 -0.191783 0.161917 1.14458 -0.690652 0.794387 0.956827 0.167074 0.0460046 0.520378 -0.0586189 -0.122652 -0.801158 -0.230601
18 -0.219863 0.208013 0.01893 0.19861 0.0815404 -0.0358336 -0.187685 -0.00485103 0.248152 -0.119318 0.0485093 -0.181734 -0.360663 0.163682 -0.159307 -0.532214 -0.00548353 0.221249 0.533023 -0.816136 -0.558881 -0.473803 -0.0962802 -0.219746 -0.0779402 -0.595809 -0.545909 0.0395976 -0.0411576 0.463193 0.697225 -0.523994 -0.235349 -0.140063 0.520752 -0.21598 1.1967 0.277831 0.586035 0.445415 0.584832 -0.0306033 0.130234 -0.268668 -0.565387 0.236286 0.649996 1.05728 -0.614021 0.293994 -0.260091 -0.331018 0.494186 1.28125 -0.675918 1.22682 1.39229 0.598474 0.111272 0.570079 -0.122571 0.0641545 -1.02265 -0.160607
125 -0.194976 0.132912 -0.10015 0.0435133 0.00496138 -0.0945353 -0.0313181 0.0296026 0.283364 -0.0804308 0.154717 -0.239176 -0.344504 0.184207 -0.144362 -0.414631 0.045166 0.290815 0.566214 -0.683895 -0.396508 -0.468965 -0.15768 -0.299479 -0.14198 -0.590941 -0.487947 -0.00513526 -0.0107092 0.321175 0.573429 -0.405322 -0.144133 -0.0338148 0.444391 -0.139716 1.08624 0.144119 0.60722 0.320266 0.728715 -0.0461966 0.181387 -0.284909 -0.54789 0.206967 0.533224 1.01385 -0.567927 0.319607 -0.246058 -0.28104 0.499817 1.2547 -0.680678 1.20197 1.37707 0.672494 0.197413 0.593969 -0.182765 0.0173111 -1.19291 -0.158895
124 -0.261906 0.205732 -0.143044 0.0565797 -0.0115795 -0.121467 -0.0483154 0.0334095 0.271322 -0.08202 0.162208 -0.238476 -0.364067 0.191331 -0.145004 -0.453347 0.0153047 0.327354 0.598416 -0.792865 -0.497165 -0.468449 -0.158831 -0.308024 -0.140333 -0.618578 -0.521037 -0.0123957 0.0146643 0.367611 0.630249 -0.41245 -0.174044 -0.0525176 0.49289 -0.150217 1.1272 0.17173 0.66757 0.354122 0.716352 -0.0375917 0.161454 -0.263556 -0.547419 0.224856 0.548971 1.03822 -0.595229 0.298057 -0.277959 -0.327501 0.457131 1.25558 -0.69865 1.18537 1.39554 0.718501 0.179866 0.600563 -0.172506 0.00470051 -1.18508 -0.164467
15 -0.0232963 0.101691 0.124227 0.234402 0.0583617 0.0535723 -0.282334 -0.130365 0.334226 -0.286905 -0.194665 -0.239221 -0.513653 0.0387113 -0.198495 -0.570399 -0.104903 0.20498 0.395794 -0.723687 -0.516725 -0.276784 -0.196109 -0.0355622 -0.0660894 -0.306726 -0.463795 0.10097 0.0916104 0.376607 0.417474 -0.359729 -0.0373655 0.0474055 0.452441 -0.258722 0.832561 0.197124 0.44412 0.2356 0.560076 -0.117399 0.0517217 -0.108837 -0.333465 0.302422 0.545539 0.95001 -0.686566 0.414733 -0.100014 -0.469249 0.214321 1.05451 -0.669653 0.896791 1.07441 0.639886 0.0852613 0.555926 -0.242323 0.0551604 -0.773489 -0.0888752
97 -0.156316 0.27597 -0.0320396 0.102367 0.139646 -0.0965828 -0.25172 -0.112552 0.256831 -0.154138 -0.20712 0.00277571 -0.662039 0.0475573 -0.054207 -0.441435 -0.287001 0.113232 0.386617 -0.653864 -0.405085 -0.408431 -0.0995584 -0.148102 -0.0534708 -0.0241047 -0.260965 0.00170394 0.0681215 0.294578 0.441924 -0.340655 0.0130806 -0.0913305 0.461406 -0.307643 0.900716 0.34641 0.512984 0.12793 0.428706 -0.111199 0.098425 -0.0504072 -0.308084 0.363408 0.478527 1.10169 -0.846295 0.369809 -0.164504 -0.261553 0.160959 1.0181 -0.704842 0.823696 0.74033 0.553045 -0.00966827 0.5753 -0.169425 -0.0550755 -0.79928 -0.111068
248 -0.0789314 0.0677752 0.0679147 0.0983354 -0.0264995 -0.0329206 -0.123935 -0.0550079 0.342148 -0.192074 -0.0459277 -0.229584 -0.461439 0.137334 -0.172835 -0.549221 -0.00842807 0.00475206 0.37501 -0.520372 -0.343331 -0.441038 -0.096717 -0.130555 -0.171611 -0.33309 -0.415851 0.0582159 -0.0374088 0.390404 0.337348 -0.407298 0.0348862 0.112064 0.367017 -0.267856 0.971328 0.149939 0.452149 0.191074 0.67793 -0.112746 0.0439657 -0.222091 -0.327547 0.444504 0.502918 1.05457 -0.685948 0.37496 0.000680784 -0.214272 0.428789 1.12793 -0.646889 1.06339 1.11748 0.613213 0.20306 0.70643 -0.243623 0.0989975 -1.11905 -0.107826
155 -0.240948 0.23665 0.196054 0.241954 0.134991 0.106251 -0.233688 -0.135368 0.35643 -0.319903 -0.202138 -0.27857 -0.57027 0.0569608 -0.207045 -0.603577 -0.0200845 -0.0918951 0.295554 -0.593916 -0.442959 -0.434514 0.0380972 0.0666346 -0.0895364 -0.272239 -0.445261 0.147916 -0.0304729 0.526657 0.295023 -0.537785 -0.042791 0.149802 0.350917 -0.390165 1.04569 0.159429 0.444855 0.215939 0.66435 -0.148089 -0.0622264 -0.287172 -0.4432 0.522666 0.668619 1.24875 -0.633917 0.371068 0.0375894 -0.355473 0.394363 1.23809 -0.650395 1.12123 1.02637 0.636222 0.111628 0.766979 -0.182818 0.21893 -1.28594 -0.162674
213 -0.429656 0.382069 0.144779 0.149393 0.248817 0.24534 -0.210411 -0.210195 0.311171 -0.369365 -0.327411 -0.340523 -0.824677 -0.0756291 -0.257992 -0.625496 -0.00739495 -0.00789301 0.236394 -0.585168 -0.597994 -0.415453 -0.0580939 -0.050756 -0.113286 -0.144851 -0.424561 0.119214 0.0726355 0.475157 0.176936 -0.521868 0.0235136 0.222198 0.266474 -0.313458 0.939586 0.28721 0.444199 0.187099 0.605615 -0.172963 -0.166419 -0.248407 -0.451956 0.405691 0.505947 1.1799 -0.53958 0.419508 -0.0849632 -0.412192 0.329008 1.20317 -0.636285 1.01587 0.897247 0.562328 0.244712 0.847942 -0.203117 0.231125 -1.30812 -0.196872
12 -0.316849 0.270293 0.107234 -0.0226484 0.145547 0.223407 -0.130688 -0.163978 0.308917 -0.195744 -0.226417 -0.188348 -0.710386 0.0382084 -0.153526 -0.531385 -0.0356161 -0.00667014 0.181353 -0.423446 -0.539068 -0.421711 -0.127308 -0.160006 -0.10081 -0.0545617 -0.350291 0.0632108 -0.0836056 0.403093 0.196142 -0.491704 0.0483052 0.164769 0.154961 -0.249154 0.879442 0.22532 0.388498 0.142897 0.530254 -0.0862522 -0.134377 -0.203804 -0.308083 0.430382 0.523809 1.15117 -0.606283 0.545798 -0.10278 -0.267855 0.285667 1.20866 -0.633476 1.00249 0.893862 0.402505 0.275949 0.788063 -0.280595 0.210984 -1.05265 -0.135414
224 -0.513035 0.367854 0.132826 -0.061815 0.164582 0.294286 -0.23303 -0.170798 0.331369 -0.216452 -0.295063 -0.40712 -0.825774 -0.0531761 -0.205054 -0.618335 -0.0316139 -0.0363143 0.218157 -0.55072 -0.628568 -0.434599 -0.0800047 -0.16406 -0.162401 -0.0612006 -0.337565 0.0435137 0.0539862 0.422401 0.158684 -0.542476 0.141025 0.197882 0.180951 -0.309235 0.885407 0.288611 0.418595 0.191818 0.653364 -0.161546 -0.202344 -0.21042 -0.39469 0.499294 0.428887 1.30548 -0.657142 0.586874 -0.136572 -0.289384 0.356514 1.36247 -0.768436 1.13616 0.952621 0.554878 0.350362 1.05454 -0.238805 0.220718 -1.3363 -0.189926
156 -0.517917 0.389283 0.174616 -0.068104 0.14405 0.27351 -0.274544 -0.203441 0.349081 -0.215759 -0.311472 -0.350426 -0.783591 0.000190632 -0.19489 -0.614033 -0.0873811 0.0126105 0.124995 -0.486595 -0.590903 -0.289396 -0.0511647 -0.0703957 -0.118149 0.0597615 -0.233887 0.0327295 0.0820738 0.465353 0.169562 -0.557992 0.166269 0.207917 0.196813 -0.323207 0.809105 0.252644 0.453361 0.189551 0.648197 -0.152507 -0.287017 -0.14045 -0.401454 0.537753 0.446897 1.32615 -0.685883 0.672383 -0.169813 -0.352749 0.266799 1.3665 -0.817283 1.11118 1.04124 0.563363 0.34499 1.08122 -0.279957 0.23042 -1.32668 -0.149521
178 -0.21051 0.185859 0.0387444 0.0131841 0.116194 0.246758 -0.195703 -0.190881 0.621893 -0.326385 -0.199908 -0.316679 -0.63904 0.0863984 -0.0989137 -0.570592 -0.14196 0.537366 0.36331 -0.580355 -0.540835 -0.192102 -0.234101 0.0615936 0.07988 -0.305225 -0.583909 0.086515 -0.0976949 0.265815 0.303951 -0.433285 -0.0383201 0.0755957 0.208028 -0.34153 0.723776 -0.0832253 0.364279 0.0357092 0.623934 -0.0298962 0.0436106 -0.297415 -0.301851 0.279291 0.715204 1.01267 -0.544025 0.719158 -0.171464 -0.439294 0.145726 1.12303 -0.494004 0.913819 1.11734 0.337355 0.0624811 0.421879 -0.389317 0.0551892 -1.00219 -0.0718632
2 -0.505315 0.391243 0.14497 -0.0292128 0.197519 0.285199 -0.246442 -0.188184 0.32743 -0.230114 -0.296988 -0.37722 -0.826795 -0.0290207 -0.237451 -0.602857 -0.0435368 -0.0114082 0.207279 -0.573137 -0.638901 -0.408406 -0.0670261 -0.137485 -0.146905 -0.0383438 -0.302281 0.0535879 0.0656918 0.451464 0.171911 -0.537171 0.110818 0.205773 0.186432 -0.30334 0.84602 0.267944 0.442313 0.202665 0.64209 -0.154637 -0.23106 -0.217097 -0.435211 0.500155 0.460838 1.31441 -0.635871 0.580756 -0.151234 -0.350393 0.326032 1.36379 -0.763205 1.11926 0.929803 0.555648 0.338661 1.01835 -0.243522 0.227959 -1.30403 -0.183558
122 -0.0554171 0.0265082 -0.00433985 -0.0472159 0.038868 0.0875181 -0.0144303 -0.0519844 0.235913 -0.148758 -0.112608 -0.219993 -0.564578 0.00666738 -0.181779 -0.391221 0.0318697 0.000726391 0.250851 -0.465835 -0.480729 -0.407287 -0.140014 -0.335249 -0.167387 -0.204427 -0.38721 -0.059481 0.0951466 0.279336 0.18197 -0.392682 0.0980187 0.133607 0.217762 -0.196131 0.881084 0.327555 0.399724 0.218478 0.769733 -0.201471 -0.0198769 -0.234503 -0.416089 0.307754 0.328492 1.03528 -0.790766 0.494719 -0.185495 -0.274915 0.443524 1.22736 -0.646467 0.980731 0.967325 0.519585 0.40334 0.868986 -0.201436 0.133973 -1.05636 -0.190507
143 -0.278979 0.134152 0.0663573 -0.0936345 0.0671028 0.191845 -0.0732805 -0.0532727 0.310498 -0.156962 -0.074342 -0.399524 -0.530634 0.010792 -0.143477 -0.419953 0.0810726 0.0553493 0.243292 -0.464417 -0.488459 -0.361505 -0.113132 -0.2348 -0.203835 -0.36813 -0.479206 -2.81997e-05 0.0387397 0.314566 0.139194 -0.419316 0.0952377 0.157896 0.223379 -0.243434 0.856894 0.232716 0.373337 0.201061 0.707204 -0.112029 -0.0728672 -0.271614 -0.34598 0.324233 0.319332 1.02312 -0.557142 0.436874 -0.148691 -0.211525 0.344669 1.13277 -0.506701 0.947529 0.854864 0.511828 0.398264 0.866422 -0.169075 0.155529 -1.006 -0.156641
208 0.0216993 -0.0103036 0.240321 0.202534 0.168652 0.220208 -0.39676 -0.198794 0.528684 -0.34837 -0.283031 -0.282325 -0.584731 -0.0486641 -0.162333 -0.613336 -0.10674 0.321854 0.291461 -0.537979 -0.516898 -0.210055 -0.259246 -0.011115 0.00868317 -0.354607 -0.503459 0.0455514 0.125159 0.31385 0.374515 -0.402425 0.0613354 0.0121852 0.425525 -0.342876 0.812867 0.186675 0.394442 0.319804 0.676598 -0.151109 0.118499 -0.183169 -0.399403 0.207077 0.514735 0.918121 -0.672365 0.529865 -0.149394 -0.406758 0.287552 1.12538 -0.627835 0.979681 1.19008 0.547802 0.183584 0.663482 -0.182869 0.00762532 -0.766467 -0.0340591
212 -0.209286 0.152874 0.112327 0.134647 0.133127 0.240221 -0.348568 -0.219914 0.302488 -0.177458 -0.239572 -0.268626 -0.529718 -0.0455842 -0.0911852 -0.608253 -0.0663973 0.247198 0.206799 -0.402831 -0.510589 -0.141563 -0.263405 -0.0232385 0.0855445 -0.301085 -0.361912 -0.00730144 0.106592 0.256155 0.319283 -0.309671 -0.00346674 0.0705106 0.441871 -0.238907 0.881327 0.211711 0.342335 0.38734 0.56256 -0.188026 0.131707 -0.140243 -0.430707 0.09993 0.565901 0.880453 -0.488695 0.38462 -0.119979 -0.473987 0.390023 1.12209 -0.686325 1.1339 1.34538 0.49865 0.250728 0.614685 -0.182458 -0.0255056 -0.63245 -0.0511319
60 0.0914987 0.0326171 0.0985637 0.0886146 0.0465931 0.0549856 -0.180225 -0.119572 0.397246 -0.262674 -0.149015 -0.165093 -0.347718 0.173617 0.0683751 -0.378765 -0.184704 0.346033 0.352787 -0.560708 -0.440369 -0.236537 -0.192317 -0.162376 0.0374031 -0.258416 -0.32262 0.0160131 0.131962 0.395073 0.442576 -0.482079 0.0390329 -0.0164529 0.417216 -0.23312 1.00543 0.169879 0.459444 0.300137 0.755378 -0.217868 0.0732205 -0.131022 -0.51128 0.203387 0.452774 0.928437 -0.652463 0.635194 -0.251942 -0.311972 0.315042 1.21929 -0.749189 0.843185 1.22451 0.334241 0.103767 0.534746 -0.151183 -0.00915894 -0.838474 -0.165986
170 0.0602376 0.0228854 0.105371 0.00451753 0.0149354 0.0490871 -0.195631 -0.105343 0.465171 -0.244689 -0.139181 -0.222244 -0.30164 0.2407 0.22111 -0.406947 -0.221808 0.416928 0.36043 -0.476632 -0.369351 -0.206595 -0.176691 -0.130438 0.146204 -0.286162 -0.306706 0.000765818 0.0988135 0.39914 0.495778 -0.583048 0.0586205 -0.0351474 0.428042 -0.310747 1.19074 0.0537838 0.462098 0.329331 0.834098 -0.242184 0.0876523 -0.151458 -0.560831 0.187196 0.511003 1.02633 -0.567434 0.737586 -0.27362 -0.177662 0.348484 1.33601 -0.879517 0.937376 1.38321 0.229016 0.0219505 0.575137 -0.0803657 -0.0573571 -0.881756 -0.243759
291 0.106694 -0.0230928 0.10436 -0.00461178 0.0814569 0.154905 -0.158798 -0.103447 0.524384 -0.288592 -0.146091 -0.310245 -0.316534 0.20359 0.266797 -0.361407 -0.218797 0.458832 0.361775 -0.409326 -0.367014 -0.192027 -0.169488 -0.126078 0.174113 -0.284077 -0.294879 0.0193454 0.0876715 0.302809 0.394066 -0.544773 0.0630713 0.0185191 0.310048 -0.278077 1.13814 -0.0521379 0.397695 0.261571 0.866245 -0.271749 0.093457 -0.189338 -0.53153 0.158566 0.509638 1.05829 -0.466128 0.760231 -0.275564 -0.155645 0.353968 1.34006 -0.882798 0.97934 1.34801 0.194918 0.0372584 0.59514 -0.100059 -0.0672288 -0.91163 -0.275689
20 -0.057526 0.0718501 0.0816442 -0.0812525 0.110188 0.203661 -0.19117 -0.12946 0.565215 -0.298745 -0.222416 -0.350733 -0.460778 0.164285 0.27396 -0.440872 -0.220316 0.498666 0.32773 -0.414687 -0.426082 -0.196618 -0.184342 -0.0780641 0.215627 -0.291203 -0.414614 0.0323867 0.0684901 0.307327 0.349485 -0.587902 0.0894698 0.0542401 0.33575 -0.41028 1.23533 -0.00614701 0.403249 0.216457 0.88371 -0.292407 0.0834743 -0.229349 -0.515633 0.188675 0.518184 1.11587 -0.42434 0.781748 -0.261837 -0.174063 0.267089 1.3016 -0.790264 0.905699 1.1519 0.151067 0.0281443 0.612892 -0.0897544 -0.0520102 -0.92083 -0.277509
54 0.032779 -0.0411175 0.174707 0.105483 0.107131 0.375058 -0.400858 -0.177384 0.423591 -0.179243 -0.250747 -0.400428 -0.626551 -0.165552 -0.0555924 -0.637871 -0.16774 0.26875 0.3079 -0.583643 -0.547467 -0.170618 -0.31355 -0.146541 -0.0406828 -0.245234 -0.456746 -0.0435571 0.179816 0.199102 0.293739 -0.302581 0.164519 0.0309809 0.436815 -0.270793 0.949641 0.199228 0.31911 0.333614 0.703433 -0.18809 0.104561 -0.0548863 -0.242957 0.204472 0.42728 1.01108 -0.718494 0.5022 -0.17567 -0.403614 0.298835 1.1048 -0.796814 1.04875 1.15688 0.624928 0.177609 0.860548 -0.181716 -0.079506 -0.78886 -0.143269
283 -0.00429912 -0.0240968 0.118408 0.129172 0.0241339 0.39061 -0.251308 -0.10731 0.344621 -0.0803258 -0.186049 -0.454343 -0.572454 -0.150237 0.0160106 -0.616437 -0.123251 0.345519 0.393394 -0.77125 -0.686978 -0.148469 -0.359477 -0.2183 0.0220332 -0.336386 -0.5902 -0.0486333 0.118043 0.221791 0.275873 -0.296343 0.105698 0.0504485 0.300558 -0.194184 0.918587 0.0393411 0.334108 0.304769 0.840579 -0.271959 0.135277 -0.103856 -0.269068 0.159919 0.51259 1.0335 -0.635215 0.433389 -0.222672 -0.482778 0.328201 1.1523 -0.775448 0.955742 1.1644 0.58055 0.174826 0.841011 -0.159313 -0.0429518 -0.799097 -0.251789
36 -0.0373578 0.070524 0.215467 0.167722 0.165527 0.209356 -0.431416 -0.237438 0.543605 -0.358867 -0.251218 -0.237844 -0.538932 -0.0104867 -0.144632 -0.548283 -0.139513 0.378197 0.270928 -0.475728 -0.446112 -0.195816 -0.206169 -0.0525346 -0.0274326 -0.353123 -0.42255 0.00337302 0.154707 0.328868 0.377716 -0.421081 0.034508 -0.0459494 0.497422 -0.325217 0.835516 0.229906 0.398267 0.342218 0.66053 -0.115515 0.103212 -0.163923 -0.432309 0.160024 0.471571 0.885646 -0.619942 0.526785 -0.189978 -0.378785 0.256526 1.0638 -0.618207 0.928752 1.17618 0.525937 0.182885 0.666877 -0.18686 -0.037218 -0.803888 -0.00751712
251 -0.463084 0.345314 -0.093566 -0.141895 0.00640829 0.27404 -0.400547 -0.199317 0.733773 -0.158304 -0.00176032 -0.677666 -0.606205 0.266934 0.186973 -0.603315 -0.297335 0.743837 0.61163 -0.923533 -0.716501 -0.245775 -0.192115 -0.0715236 0.177275 -0.545461 -0.568214 0.0496642 0.101009 0.380308 0.503585 -0.591276 -0.116424 0.0744473 0.250307 -0.338543 1.10831 -0.277459 0.560222 0.225578 1.07055 -0.227958 0.0969395 -0.292195 -0.534414 0.317116 0.706475 1.45093 -0.320102 0.756581 -0.323303 -0.545749 0.140453 1.5483 -0.825773 1.15359 1.21409 0.505499 0.0899167 0.669844 -0.185597 -0.125775 -1.09807 -0.257158
79 -0.458611 0.338117 -0.117819 -0.0902755 0.0544658 0.27496 -0.333975 -0.178866 0.583722 -0.118781 -0.0174982 -0.558088 -0.549342 0.211421 0.145199 -0.533156 -0.222218 0.715138 0.529944 -0.896956 -0.738767 -0.184713 -0.198878 -0.0463255 0.182359 -0.48694 -0.589895 0.0618623 0.0758801 0.358659 0.500119 -0.501338 -0.170348 0.0582128 0.270087 -0.317989 1.00576 -0.222686 0.528091 0.225418 0.943902 -0.17991 0.0755248 -0.257827 -0.461019 0.228284 0.684984 1.30429 -0.355838 0.674564 -0.290734 -0.633982 0.0619369 1.36176 -0.688445 1.0214 1.13297 0.470312 0.0800957 0.553408 -0.206042 -0.107416 -0.981926 -0.243283
153 -0.104828 0.0599258 -0.0123812 0.0475035 0.00275041 0.00731059 -0.227462 -0.0381501 0.440466 -0.16602 0.037998 -0.298627 -0.35728 0.168653 -0.126617 -0.477015 -0.0695358 0.294069 0.461557 -0.662662 -0.395921 -0.319015 -0.165108 -0.112861 -0.12551 -0.507998 -0.521498 0.0752698 -0.0251262 0.33257 0.478468 -0.381029 -0.0314538 -0.0299287 0.438167 -0.312875 0.936662 0.110759 0.490484 0.23063 0.644372 -0.0205558 0.098035 -0.196385 -0.285783 0.32547 0.52287 0.978737 -0.589266 0.409081 -0.119399 -0.28985 0.280731 1.0379 -0.544357 0.963896 1.05606 0.596575 0.0937139 0.541019 -0.21492 0.00180475 -0.923413 -0.0653046
154 -0.0717291 0.132949 -0.109106 -0.0215304 0.15654 0.285253 -0.0322302 -0.225166 0.345697 -0.24742 -0.203673 -0.0461771 -0.608322 0.0211699 -0.0905037 -0.514825 -0.113863 0.443565 0.165366 -0.439181 -0.547237 -0.0452404 -0.429298 0.0568329 0.108518 -0.0927698 -0.506086 0.0616791 -0.101752 0.157256 0.297044 -0.243613 -0.01023 0.0938477 0.297182 -0.224228 0.778203 0.0367528 0.416512 0.0424993 0.469321 0.00304352 0.0170534 -0.0858453 -0.165904 0.201867 0.774189 0.930823 -0.840065 0.813312 -0.207336 -0.599719 0.0396835 1.06522 -0.677437 1.06788 1.51267 0.465612 0.104564 0.446597 -0.59252 0.084091 -0.904618 -0.037997
223 -0.178583 0.219189 0.141405 0.169222 0.145813 0.16976 -0.298254 -0.137214 0.362806 -0.17225 -0.12406 -0.0885622 -0.352821 0.203856 -0.0217943 -0.531572 -0.162943 0.192987 0.253183 -0.637669 -0.522667 -0.197319 -0.0642154 0.182535 0.11633 -0.216407 -0.460687 0.118789 -0.214136 0.407121 0.48685 -0.451044 -0.164211 -0.0308612 0.364424 -0.433189 0.927505 0.0178669 0.427448 0.186039 0.364502 0.0372386 -0.0147818 -0.145626 -0.21998 0.435516 0.827282 1.11317 -0.697152 0.545299 -0.0831558 -0.447437 0.0935138 1.06978 -0.565424 1.0337 1.16366 0.431087 -0.100828 0.447217 -0.307493 0.116157 -0.906965 -0.0542432
254 -0.186238 0.202723 0.251928 0.226393 0.145377 0.163669 -0.334675 -0.120993 0.363281 -0.177867 -0.187452 -0.13897 -0.360717 0.158868 -0.017509 -0.577273 -0.134203 0.0487122 0.222136 -0.566118 -0.497016 -0.249357 -0.00464749 0.22431 0.0748008 -0.239054 -0.457619 0.157531 -0.224004 0.499478 0.460416 -0.54697 -0.108022 -0.0297453 0.413291 -0.497389 1.0527 0.0920523 0.409677 0.261469 0.41634 -0.0108123 -0.0218497 -0.175478 -0.293762 0.526457 0.852051 1.18891 -0.720679 0.512302 -0.00686566 -0.358364 0.250404 1.15959 -0.610799 1.11462 1.16964 0.443161 -0.0795728 0.578991 -0.243587 0.165917 -1.01341 -0.0722857
197 -0.114003 0.229294 0.213685 0.27041 0.222793 0.138547 -0.389652 -0.15029 0.374494 -0.224974 -0.219976 -0.0794623 -0.443034 0.127123 -0.064993 -0.539043 -0.189021 0.154256 0.283877 -0.68478 -0.530138 -0.283698 -0.0120615 0.13413 0.077524 -0.154922 -0.413903 0.123488 -0.174332 0.43689 0.511949 -0.503479 -0.153476 -0.125577 0.427487 -0.477908 0.957381 0.153556 0.436552 0.22635 0.324229 0.0213933 0.0217622 -0.173036 -0.267879 0.431652 0.802725 1.14678 -0.730945 0.468257 -0.0825562 -0.400359 0.147596 1.1047 -0.56104 1.00235 1.00299 0.444677 -0.128246 0.475572 -0.203292 0.0986899 -0.797197 -0.0564373
80 -0.10573 0.194362 0.280946 0.311551 0.22749 0.192097 -0.359246 -0.124598 0.356895 -0.234597 -0.223335 -0.132763 -0.396289 0.144066 -0.0158998 -0.553407 -0.141034 0.0153974 0.232708 -0.655939 -0.557601 -0.292401 0.0242112 0.217032 0.0997752 -0.202824 -0.457902 0.188655 -0.224479 0.527656 0.465465 -0.567119 -0.15498 -0.0343566 0.389356 -0.504108 1.0745 0.119259 0.411075 0.255026 0.378693 -0.0240672 -0.0531163 -0.176155 -0.299283 0.521278 0.848679 1.21349 -0.686346 0.494666 -0.0200967 -0.373359 0.205851 1.16435 -0.58017 1.05774 1.07158 0.408703 -0.131122 0.536669 -0.193938 0.19146 -0.969375 -0.10291
272 -0.184306 0.257494 0.221406 0.275079 0.224041 0.0754311 -0.409015 -0.121967 0.298522 -0.197634 -0.234383 -0.100283 -0.559867 0.0751323 -0.135029 -0.618009 -0.158321 0.00705189 0.314549 -0.686818 -0.526007 -0.399128 0.00851269 0.0653116 -0.0159046 -0.208198 -0.412624 0.145457 -0.127101 0.48626 0.509338 -0.548772 -0.102873 -0.0826309 0.501014 -0.491721 1.09373 0.288788 0.475976 0.280117 0.365688 -0.0485739 -0.0070694 -0.150524 -0.342445 0.491434 0.713748 1.20554 -0.728788 0.357128 -0.0514446 -0.310792 0.258429 1.12328 -0.629429 1.03701 0.906078 0.514406 -0.10231 0.623267 -0.169562 0.118792 -0.930522 -0.0915335
17 -0.0123877 -0.0326177 0.132569 0.0548165 0.159321 0.300131 -0.293022 -0.173007 0.471663 -0.268804 -0.24356 -0.311465 -0.579984 -0.071209 -0.0782921 -0.610684 -0.0823551 0.274232 0.262545 -0.429434 -0.457783 -0.181547 -0.301212 -0.0242311 0.0218074 -0.370267 -0.531698 0.0493011 0.0233814 0.240275 0.267431 -0.380672 0.113332 0.0438402 0.389392 -0.334961 0.918705 0.166576 0.334195 0.256038 0.645734 -0.15887 0.120386 -0.169778 -0.295036 0.231514 0.577571 0.982572 -0.674523 0.618418 -0.145489 -0.335287 0.318956 1.14349 -0.630571 1.03442 1.21218 0.422402 0.156507 0.673606 -0.252668 0.0283305 -0.776136 -0.0745568
30 -0.385773 0.352891 0.119335 0.109402 0.279237 0.325666 -0.241561 -0.217703 0.351667 -0.368948 -0.368484 -0.364423 -0.816329 -0.0952982 -0.167137 -0.579536 -0.069061 0.131639 0.202487 -0.585984 -0.654991 -0.300508 -0.102892 -0.0291209 -0.0298257 -0.0904382 -0.393862 0.103639 0.0657855 0.395986 0.172592 -0.471903 0.00732436 0.176401 0.22592 -0.308932 0.82583 0.244354 0.373879 0.149035 0.520877 -0.153394 -0.165378 -0.191471 -0.374244 0.316404 0.48301 1.08676 -0.498044 0.521918 -0.143521 -0.435551 0.219418 1.165 -0.576213 0.878711 0.811768 0.423063 0.203322 0.725215 -0.21456 0.178473 -1.00438 -0.169225
132 -0.426868 0.377221 0.146889 0.0796522 0.251492 0.309068 -0.214987 -0.211882 0.299964 -0.300104 -0.320014 -0.361627 -0.8101 -0.108316 -0.253342 -0.589711 -0.00153108 0.0176157 0.205507 -0.529007 -0.600452 -0.400131 -0.0742664 -0.0888824 -0.100584 -0.0831135 -0.340745 0.0817858 0.0846253 0.421303 0.138112 -0.502056 0.0372949 0.196122 0.208025 -0.264957 0.857167 0.260569 0.399303 0.20375 0.588488 -0.155238 -0.159246 -0.253963 -0.472759 0.371448 0.478885 1.16772 -0.523045 0.488801 -0.137006 -0.38879 0.338197 1.27615 -0.662884 1.05168 0.879589 0.507998 0.287527 0.845396 -0.200007 0.220986 -1.20601 -0.170305
151 -0.52868 0.457413 -0.155663 -0.212758 -0.0487518 -0.0258749 -0.348368 -0.180467 0.163819 0.00236389 -0.183371 -0.00277578 -0.54537 0.185105 -0.0627845 -0.519839 -0.279093 0.431058 0.270628 -0.624167 -0.45879 -0.107319 -0.15831 -0.171805 0.121489 0.0122849 -0.354965 -0.0918198 0.260927 0.398116 0.619191 -0.52961 -0.0903653 -0.226991 0.599309 -0.33983 1.03734 0.396 0.495147 0.383695 0.49726 -0.0348273 0.0360542 -0.0750383 -0.48351 0.0679021 0.491165 0.981792 -0.871792 0.608614 -0.363572 -0.548683 0.0267235 1.1056 -0.725629 0.776427 1.13402 0.436183 0.106264 0.536614 -0.150106 -0.131416 -0.756859 -0.0820636
26 -0.181912 0.231606 0.14104 0.150969 0.210769 0.230592 -0.438236 -0.319936 0.398781 -0.380231 -0.278117 -0.168372 -0.685945 0.00422067 -0.226785 -0.551426 -0.125924 0.365925 0.183586 -0.56103 -0.614623 -0.148031 -0.210632 -0.0836586 -0.046197 -0.212202 -0.356579 0.00950566 0.218061 0.421616 0.428491 -0.451176 -0.0378389 -0.0023386 0.589228 -0.319401 0.926918 0.388123 0.443338 0.397451 0.5827 -0.0864568 -0.0678423 -0.102573 -0.467724 0.129279 0.481028 0.957582 -0.699189 0.581667 -0.224919 -0.617409 0.106995 1.12144 -0.641606 0.925404 1.09535 0.568126 0.276803 0.652405 -0.265705 0.012096 -0.841036 -0.0617313
25 -0.136053 0.226082 0.159548 0.243627 0.171454 0.0599573 -0.244548 -0.122031 0.304239 -0.311999 -0.203742 -0.154352 -0.595115 0.0402761 -0.167211 -0.477587 -0.0845547 0.00703322 0.277824 -0.585237 -0.398649 -0.383694 0.0357743 0.00586741 -0.0683654 -0.139407 -0.344756 0.119397 -0.0101678 0.397844 0.305439 -0.427712 -0.0589377 0.0817492 0.336468 -0.343615 0.82658 0.211367 0.437824 0.143078 0.468628 -0.107645 -0.039662 -0.200966 -0.372628 0.414133 0.561756 1.10014 -0.624344 0.310284 -0.0641973 -0.362791 0.233413 1.074 -0.636655 0.998791 0.912901 0.63723 0.0455139 0.713304 -0.161802 0.149951 -1.01896 -0.131672
176 -0.512903 0.438846 -0.0913808 -0.139078 -0.0354971 0.0215604 -0.3646 -0.225014 0.182609 -0.0907799 -0.21056 -0.0706515 -0.573228 0.144181 -0.144484 -0.583847 -0.195066 0.400243 0.242656 -0.651549 -0.539735 -0.114072 -0.18438 -0.150412 0.0595937 -0.0832369 -0.409214 -0.053033 0.291692 0.477857 0.553931 -0.541334 -0.0921852 -0.166132 0.587527 -0.324176 1.02852 0.398165 0.481118 0.425296 0.577771 -0.0481175 -0.02734 -0.126225 -0.509458 0.0835895 0.492597 1.00012 -0.843119 0.587233 -0.323366 -0.601706 0.0836346 1.18675 -0.722527 0.861628 1.19441 0.513158 0.184986 0.622654 -0.189668 -0.0502206 -0.806504 -0.0862769
230 -0.178484 0.233051 0.0687652 0.15402 0.190318 0.229332 -0.344656 -0.302404 0.381098 -0.360635 -0.288046 -0.130359 -0.640354 -0.0280538 -0.227223 -0.565319 -0.0989501 0.476672 0.208042 -0.55918 -0.621342 -0.104338 -0.303529 -0.0444462 -0.00737321 -0.228111 -0.451016 0.0480307 0.148326 0.370984 0.401935 -0.397373 -0.0418088 -0.020637 0.596303 -0.330928 0.918426 0.333279 0.430535 0.31434 0.549389 -0.0513921 -0.0186499 -0.114765 -0.380014 0.089983 0.544649 0.862543 -0.674276 0.556046 -0.226901 -0.628035 0.100993 0.98915 -0.561833 0.853155 1.13687 0.540608 0.208449 0.540777 -0.325375 0.0147091 -0.785041 -0.0147956
40 -0.00183278 0.0151067 0.157798 0.0476159 0.127178 0.23472 -0.376471 -0.199078 0.537213 -0.351252 -0.233 -0.294195 -0.540847 0.0521519 -0.0111028 -0.528679 -0.138436 0.398816 0.299283 -0.508522 -0.452459 -0.184165 -0.229223 -0.0833531 0.0294277 -0.369737 -0.491426 0.0141274 0.131333 0.335118 0.400866 -0.473794 0.0570305 -0.0176714 0.508935 -0.403153 1.06251 0.2143 0.395373 0.325587 0.747173 -0.175078 0.0823324 -0.159467 -0.396987 0.157179 0.469352 0.98706 -0.6677 0.62242 -0.209213 -0.339303 0.229618 1.15795 -0.664388 0.903235 1.13881 0.430149 0.142859 0.657537 -0.159203 -0.0409 -0.843751 -0.103034
102 -0.19718 0.131018 0.14723 0.0699847 0.0111901 0.153274 -0.16405 -0.153069 0.299084 -0.200805 -0.20571 -0.397025 -0.431524 -0.0082907 0.0815253 -0.439402 -0.101315 0.138017 0.240695 -0.4843 -0.473286 -0.134828 -0.189625 -0.0515107 -0.100795 -0.235541 -0.378343 0.0480832 0.202093 0.435076 0.187332 -0.347181 0.200084 0.193061 0.529505 -0.294292 1.10492 0.266753 0.383145 0.294162 0.853428 -0.302975 -0.00401314 -0.0347704 -0.392386 0.307634 0.401827 1.0119 -0.722001 0.565008 -0.0566605 -0.438405 0.408766 1.23511 -0.768784 0.880188 1.28004 0.529462 0.238647 0.874789 -0.240402 0.0732822 -1.07228 -0.149398
101 -0.215421 0.120864 0.0583535 0.00518873 -0.0398578 0.140457 -0.165998 -0.139523 0.237372 -0.0991712 -0.132516 -0.354762 -0.435731 -0.0259929 -0.0193561 -0.492821 -0.108524 0.0877691 0.25403 -0.431878 -0.350681 -0.112805 -0.220031 -0.0947404 -0.133602 -0.272179 -0.350646 0.00292716 0.233372 0.371508 0.233431 -0.319231 0.206292 0.116228 0.544486 -0.227822 1.04153 0.272171 0.383779 0.362663 0.777914 -0.274627 0.0672886 -0.0181499 -0.377245 0.266678 0.386241 0.984105 -0.744747 0.459847 -0.0841218 -0.39581 0.467474 1.18409 -0.844753 1.01978 1.37817 0.625781 0.265012 0.932016 -0.246529 0.0142619 -1.10308 -0.115846
35 -0.309679 0.265071 0.069237 0.0985984 0.00296519 0.0326333 -0.223657 -0.148906 0.322595 -0.217862 -0.162018 -0.244517 -0.542082 0.0990095 -0.159484 -0.581658 -0.127006 0.308514 0.291497 -0.695195 -0.569555 -0.144842 -0.23433 -0.0241575 -0.115966 -0.238438 -0.407381 0.0762985 0.0888447 0.449068 0.435589 -0.321334 0.0812835 0.139446 0.535012 -0.304344 0.908548 0.209571 0.623572 0.228522 0.741383 -0.145095 -0.0907067 -0.0252226 -0.348254 0.395691 0.554047 1.07815 -0.811856 0.564764 -0.14753 -0.562683 0.202183 1.17678 -0.81914 0.971866 1.42777 0.807642 0.194978 0.845481 -0.42817 0.106116 -1.21492 -0.0738608
