100 64
79 -0.717906 -0.24988 0.1914 0.308054 -0.415357 0.334178 0.275927 0.115805 -0.246 -0.384512 -0.322506 1.01225 -0.0575883 0.661098 -0.200403 0.0130829 0.137952 0.176489 0.513427 0.145943 0.196455 0.168749 0.186744 -0.361491 -0.290389 -0.337705 0.483766 0.0415682 -0.410674 0.259429 -0.201037 0.138156 -0.285542 -0.552462 0.429371 0.14001 -0.0948804 0.573195 -0.315262 -0.387887 -0.661476 0.0182202 0.418386 0.590378 0.627793 0.0948071 -0.531499 -0.223482 -1.12516 0.692387 0.609293 1.41621 -0.303211 -0.365765 0.440207 -0.434509 -0.502083 -0.0859483 -1.06146 -0.13815 0.89173 -0.254221 -1.32846 0.194433
91 -0.576487 -0.176887 0.206867 0.288091 -0.363752 0.31108 0.252109 0.099557 -0.256178 -0.410076 -0.350338 0.980497 -0.0606902 0.618719 -0.168644 -0.00737036 0.122692 0.184621 0.491978 0.156466 0.169802 0.133878 0.153619 -0.307246 -0.239419 -0.320637 0.446921 0.0243953 -0.330939 0.167731 -0.178348 0.116437 -0.251985 -0.509757 0.396044 0.162814 -0.0394877 0.484464 -0.305031 -0.338702 -0.630399 0.0241254 0.426768 0.634887 0.609573 0.126491 -0.565429 -0.206297 -1.12822 0.750545 0.651954 1.5048 -0.30644 -0.364008 0.457246 -0.468247 -0.554318 -0.130844 -1.1486 -0.184367 0.898143 -0.309243 -1.41274 0.178829
17 -0.493756 -0.169624 0.171581 0.279248 -0.403946 0.33909 0.260294 0.100229 -0.250893 -0.357626 -0.297463 0.914503 -0.0733987 0.680531 -0.164904 0.00513254 0.110588 0.191209 0.466402 0.122106 0.19459 0.131357 0.166101 -0.352091 -0.279868 -0.313923 0.471706 0.0250166 -0.418002 0.282322 -0.211099 0.1417 -0.289171 -0.557221 0.423401 0.128675 -0.0725954 0.555166 -0.308025 -0.383732 -0.673969 0.0254567 0.421005 0.580576 0.609506 0.103552 -0.532511 -0.213027 -1.1093 0.665186 0.567933 1.36968 -0.312028 -0.354753 0.428155 -0.449103 -0.522738 -0.0930263 -1.05332 -0.130259 0.874943 -0.261693 -1.42379 0.206204
90 -0.592087 -0.202244 0.134869 0.306338 -0.31505 0.236109 0.242151 0.122845 -0.200155 -0.318037 -0.329992 1.01337 -0.0391107 0.641404 -0.1763 0.00731152 0.0966392 0.145984 0.523033 0.135272 0.191946 0.185422 0.195462 -0.345794 -0.282288 -0.343785 0.495797 0.0160434 -0.392341 0.244816 -0.230126 0.155408 -0.303708 -0.566485 0.461869 0.164504 -0.11551 0.617882 -0.336388 -0.403085 -0.629314 0.0254236 0.436295 0.599111 0.616761 0.0794744 -0.563422 -0.208427 -1.19033 0.714282 0.608004 1.38585 -0.290743 -0.39125 0.440445 -0.462232 -0.541496 -0.148098 -1.09993 -0.113875 0.911461 -0.239896 -1.34822 0.180463
49 -0.653615 -0.255643 0.215413 0.284711 -0.419875 0.369719 0.254316 0.101562 -0.33011 -0.352521 -0.224594 0.834562 -0.0813546 0.612018 -0.160639 0.00400813 0.132109 0.179913 0.370553 0.0464225 0.195525 0.0966369 0.145357 -0.337588 -0.268392 -0.24585 0.387233 -0.00275418 -0.398794 0.309554 -0.162158 0.153568 -0.203734 -0.525662 0.380989 0.111249 -0.0403949 0.564672 -0.292992 -0.435235 -0.752451 0.0823574 0.372234 0.555943 0.570691 0.123534 -0.546102 -0.280529 -1.07054 0.631782 0.596708 1.39518 -0.32923 -0.360135 0.403696 -0.41993 -0.520782 -0.0454418 -1.01653 -0.155557 0.902698 -0.28294 -1.40619 0.197458
29 -0.626919 -0.204673 0.214358 0.203331 -0.345357 0.285653 0.189595 0.0672778 -0.277211 -0.382361 -0.278488 0.856241 -0.0748576 0.54611 -0.116557 -0.00485698 0.139386 0.178912 0.428742 0.115133 0.175409 0.12666 0.171462 -0.355092 -0.232054 -0.282735 0.461902 -0.014827 -0.374106 0.216367 -0.166393 0.140918 -0.195963 -0.513094 0.389591 0.130524 0.0330947 0.540097 -0.344662 -0.368555 -0.719376 0.0550765 0.373391 0.645949 0.559763 0.147714 -0.569952 -0.222088 -1.0385 0.730456 0.624494 1.42345 -0.292605 -0.327421 0.402221 -0.409167 -0.487952 -0.104271 -1.0438 -0.201202 0.866933 -0.342804 -1.3706 0.16115
15 -0.85771 -0.328782 0.186577 0.223841 -0.359292 0.296875 0.172788 0.104217 -0.160159 -0.37967 -0.311605 1.05206 -0.0982229 0.679348 -0.189291 0.042536 0.0822537 0.124896 0.504327 0.138056 0.216716 0.287741 0.259799 -0.405787 -0.253958 -0.331757 0.502165 0.00618579 -0.377479 0.209908 -0.170651 0.172248 -0.238634 -0.47052 0.416815 0.170477 -0.0376866 0.650622 -0.379598 -0.393963 -0.661288 0.00616389 0.378689 0.569535 0.478794 0.0875888 -0.534153 -0.164712 -1.02623 0.690079 0.541798 1.18848 -0.238792 -0.309375 0.353099 -0.386344 -0.41781 -0.153421 -0.975558 -0.145932 0.798924 -0.244769 -1.11886 0.129232
65 -0.766798 -0.285166 0.221884 0.275581 -0.403294 0.284725 0.228264 0.121428 -0.186312 -0.441695 -0.38395 1.17879 -0.0513086 0.696506 -0.193749 0.0229892 0.10885 0.152871 0.588244 0.175647 0.187952 0.233531 0.225499 -0.352954 -0.248403 -0.339703 0.536334 0.00191265 -0.306066 0.167826 -0.160213 0.137413 -0.245177 -0.459461 0.387873 0.146954 -0.0452906 0.56785 -0.350013 -0.315837 -0.601211 -0.00865161 0.404642 0.603725 0.528415 0.0868673 -0.556713 -0.157903 -1.10502 0.746538 0.627696 1.36815 -0.256864 -0.339234 0.396184 -0.426822 -0.479021 -0.159735 -1.05352 -0.160633 0.81566 -0.262072 -1.21192 0.164544
0 -0.712202 -0.132315 0.0343214 0.299569 -0.32157 0.177702 0.00394652 0.166039 -0.0908064 -0.53204 -0.432225 1.23275 -0.155398 0.530751 -0.0270037 0.0714116 -0.0253238 0.146025 0.518489 0.149706 0.0702267 0.372975 0.235316 -0.388643 -0.0955228 -0.302631 0.692828 -0.0591357 -0.319662 0.110596 -0.263611 0.181483 -0.362801 -0.38531 0.383716 0.208208 -0.000345589 0.601492 -0.441645 -0.248022 -0.515657 -0.0511708 0.345783 0.585414 0.472567 0.110541 -0.608112 -0.224545 -1.09738 0.714612 0.468698 1.22454 -0.153111 -0.235356 0.359155 -0.523533 -0.369067 -0.207658 -0.933432 -0.037638 0.822284 -0.294095 -1.29323 0.189101
94 -0.66721 -0.17278 0.0871755 0.242165 -0.268488 0.159741 0.0257497 0.112243 -0.070967 -0.525428 -0.424881 1.27091 -0.134115 0.617689 -0.105528 0.11878 0.00478233 0.170676 0.639107 0.205729 0.0644892 0.389601 0.262091 -0.377873 -0.0623583 -0.318173 0.682244 -0.070466 -0.226823 0.0164411 -0.218914 0.183864 -0.331596 -0.334715 0.410732 0.276764 0.0575746 0.643547 -0.427805 -0.218169 -0.545707 -0.059932 0.373884 0.641575 0.447586 0.143244 -0.699932 -0.232088 -1.2333 0.891845 0.605716 1.42781 -0.174346 -0.283213 0.358367 -0.54743 -0.459776 -0.267704 -1.10766 -0.143466 0.819852 -0.357011 -1.33529 0.197657
70 -0.735857 -0.175417 0.0721103 0.273864 -0.294936 0.157087 -0.0131893 0.111629 -0.0778736 -0.488532 -0.396532 1.20441 -0.164987 0.598576 -0.0821375 0.122096 -0.00801938 0.159776 0.581865 0.160525 0.0752546 0.400898 0.281319 -0.420993 -0.0884769 -0.302746 0.732733 -0.0862915 -0.277921 0.0884028 -0.245961 0.203839 -0.345604 -0.394974 0.427295 0.253332 0.0592267 0.731955 -0.465318 -0.257181 -0.598513 -0.0312151 0.337682 0.616422 0.432006 0.142789 -0.730497 -0.277559 -1.25888 0.884273 0.602979 1.40213 -0.167029 -0.28369 0.348024 -0.534836 -0.403315 -0.229586 -1.02229 -0.0938282 0.792907 -0.338401 -1.28806 0.197785
73 -0.699912 -0.144131 0.0938862 0.249695 -0.314061 0.220607 0.0320158 0.0947195 -0.114449 -0.542496 -0.41474 1.22422 -0.157592 0.576494 -0.065472 0.0848852 -0.0119041 0.173989 0.568217 0.178581 0.0871041 0.373899 0.238301 -0.378802 -0.0614939 -0.303425 0.685211 -0.0655416 -0.282402 0.0519388 -0.222535 0.192439 -0.316822 -0.373285 0.411146 0.266792 0.0786395 0.596128 -0.490137 -0.267249 -0.639582 -0.0543833 0.37696 0.682053 0.482478 0.174058 -0.711713 -0.229208 -1.1696 0.853922 0.581354 1.41977 -0.159513 -0.274765 0.378398 -0.581818 -0.450458 -0.268922 -1.14837 -0.136295 0.85793 -0.398387 -1.39336 0.178473
1 -0.64482 -0.15665 0.0699277 0.225952 -0.278549 0.157348 0.0409416 0.12723 -0.104011 -0.511612 -0.352933 1.14921 -0.128779 0.519253 -0.0640365 0.0799574 0.0242435 0.129299 0.53595 0.158106 0.0772228 0.335367 0.246334 -0.355785 -0.106905 -0.251824 0.552433 -0.0564975 -0.27156 0.099788 -0.238966 0.162955 -0.28544 -0.370382 0.3678 0.199712 0.019028 0.563535 -0.38199 -0.256373 -0.553229 -0.0141077 0.341868 0.621741 0.451991 0.150562 -0.665786 -0.242514 -1.13857 0.811092 0.563463 1.31862 -0.184597 -0.258634 0.340604 -0.497037 -0.414227 -0.221604 -1.01087 -0.100712 0.825987 -0.344277 -1.1668 0.152121
34 -0.83124 -0.28725 0.106088 0.259299 -0.279638 0.18918 0.0535611 0.103133 -0.0874028 -0.4625 -0.371535 1.2725 -0.137302 0.657025 -0.132177 0.120299 0.0130063 0.14493 0.609334 0.164414 0.12229 0.425691 0.292396 -0.384125 -0.0991004 -0.305903 0.627642 -0.0662742 -0.259536 0.0709862 -0.207208 0.20114 -0.294765 -0.366144 0.406905 0.257596 0.0500598 0.672244 -0.439531 -0.266445 -0.581685 -0.0393482 0.32886 0.554398 0.39007 0.119713 -0.664747 -0.199092 -1.1441 0.809707 0.541635 1.27049 -0.169812 -0.281892 0.322111 -0.475581 -0.421886 -0.254447 -1.00212 -0.125023 0.764747 -0.327015 -1.25068 0.164471
92 -0.734383 -0.175309 0.10453 0.239761 -0.296803 0.195315 -0.0409946 0.0673025 -0.162488 -0.555752 -0.422481 1.26817 -0.167374 0.671774 -0.0665663 0.138947 -0.0120026 0.195434 0.612621 0.142922 0.0718467 0.410082 0.265303 -0.393277 -0.0447609 -0.301065 0.739192 -0.121567 -0.266243 0.0679294 -0.206509 0.200436 -0.284061 -0.351146 0.406812 0.275406 0.12632 0.652715 -0.515083 -0.291582 -0.679177 -0.013462 0.331547 0.658816 0.434628 0.174584 -0.748186 -0.275968 -1.21377 0.871128 0.629289 1.48128 -0.176151 -0.270746 0.372781 -0.573872 -0.473995 -0.267468 -1.11417 -0.142409 0.881772 -0.441474 -1.4293 0.182057
51 -0.828682 -0.383801 0.140364 0.315151 -0.384634 0.283852 0.243129 0.141148 -0.101805 -0.359595 -0.390356 1.40265 -0.0557967 0.910581 -0.248329 0.119837 0.0592427 0.103509 0.710952 0.167628 0.241865 0.40242 0.327256 -0.420703 -0.31659 -0.406685 0.638818 0.0126788 -0.382577 0.279754 -0.234903 0.169962 -0.354818 -0.506651 0.473557 0.199541 -0.127713 0.746333 -0.389896 -0.416405 -0.609987 -0.0605246 0.456556 0.507283 0.49432 -0.000270319 -0.54412 -0.142238 -1.1775 0.668218 0.550775 1.17446 -0.212852 -0.382071 0.392873 -0.479847 -0.482224 -0.20247 -1.11848 -0.0762107 0.869904 -0.186868 -1.14815 0.152457
67 -0.875824 -0.407456 0.122088 0.376775 -0.419288 0.272576 0.263558 0.186306 -0.0834811 -0.332429 -0.388045 1.47955 -0.0457513 0.896384 -0.279392 0.13312 0.0612269 0.0899889 0.738453 0.154442 0.242207 0.392625 0.32947 -0.406581 -0.34783 -0.412778 0.610186 0.0317757 -0.377541 0.3258 -0.262991 0.176007 -0.376407 -0.511293 0.468243 0.168038 -0.204783 0.733834 -0.367011 -0.427141 -0.56678 -0.0536132 0.502509 0.528283 0.566629 -0.0212447 -0.569485 -0.172399 -1.29828 0.676093 0.567447 1.26334 -0.24334 -0.413802 0.434993 -0.501113 -0.506803 -0.185387 -1.2166 -0.0636741 0.968982 -0.167093 -1.18031 0.175669
74 -0.918473 -0.445315 0.175068 0.304499 -0.43978 0.312338 0.282924 0.139192 -0.102238 -0.369912 -0.400262 1.49782 -0.0284307 0.836714 -0.276396 0.09667 0.0636761 0.0574976 0.717859 0.17764 0.2425 0.400265 0.319866 -0.391176 -0.306559 -0.398581 0.55133 0.0179252 -0.306308 0.232215 -0.196947 0.161262 -0.304885 -0.502782 0.45565 0.187172 -0.167875 0.703041 -0.36314 -0.397349 -0.592182 -0.0363759 0.454316 0.507177 0.499014 -0.0158757 -0.509724 -0.107502 -1.15268 0.663358 0.568143 1.19319 -0.228145 -0.396488 0.398206 -0.449237 -0.494323 -0.219945 -1.1544 -0.097263 0.929274 -0.182134 -1.09202 0.135273
30 -0.953334 -0.474698 0.160577 0.362273 -0.441438 0.314505 0.330768 0.18862 -0.0717596 -0.328176 -0.408831 1.54571 -0.0160503 0.954317 -0.310041 0.105702 0.0552289 0.0496004 0.74547 0.194722 0.274012 0.399864 0.333552 -0.403814 -0.366786 -0.437578 0.566817 0.0493638 -0.37422 0.291914 -0.22657 0.162944 -0.360343 -0.52888 0.482107 0.162193 -0.233011 0.758271 -0.35486 -0.453821 -0.56979 -0.0550805 0.523698 0.508252 0.573672 -0.0504403 -0.526584 -0.117323 -1.26851 0.67222 0.577014 1.20875 -0.256609 -0.449425 0.437952 -0.476366 -0.530806 -0.222242 -1.21659 -0.0782835 0.971181 -0.146918 -1.09137 0.142568
42 -0.86576 -0.418991 0.203558 0.322317 -0.425369 0.319181 0.356478 0.146104 -0.131078 -0.300771 -0.370192 1.3562 0.0147428 0.858715 -0.287406 0.0777257 0.0855157 0.0564892 0.662554 0.17708 0.247461 0.308804 0.29307 -0.346652 -0.342693 -0.398789 0.48503 0.0476056 -0.341954 0.267816 -0.185813 0.13715 -0.294493 -0.519499 0.450171 0.14476 -0.209521 0.678267 -0.299627 -0.426322 -0.558369 -0.0445662 0.498395 0.506442 0.581326 -0.026601 -0.484098 -0.107153 -1.17771 0.652808 0.576653 1.21221 -0.266275 -0.435339 0.443878 -0.433271 -0.525399 -0.195268 -1.17472 -0.101143 0.968053 -0.145265 -1.16757 0.141342
77 -0.920519 -0.455259 0.206287 0.309157 -0.453687 0.319866 0.29113 0.141735 -0.126048 -0.347386 -0.377869 1.40644 -0.013338 0.931255 -0.289743 0.111253 0.0867147 0.0852269 0.737688 0.158661 0.259201 0.383886 0.31585 -0.398779 -0.320579 -0.399071 0.569644 0.00752268 -0.317731 0.244611 -0.190984 0.168172 -0.281741 -0.506188 0.470256 0.197012 -0.130175 0.766881 -0.367133 -0.421218 -0.643125 -0.0231942 0.44882 0.50755 0.526365 0.00658694 -0.53335 -0.142263 -1.21272 0.706358 0.612878 1.2454 -0.247181 -0.410104 0.395596 -0.445771 -0.515213 -0.216157 -1.14833 -0.125207 0.930049 -0.204186 -1.15968 0.143642
66 -0.897804 -0.398376 0.136623 0.354512 -0.434371 0.295221 0.212089 0.14367 -0.127154 -0.316817 -0.321939 1.26943 -0.0884846 0.933795 -0.213559 0.130883 0.0564773 0.142072 0.664583 0.108305 0.246211 0.36003 0.3107 -0.43856 -0.335878 -0.378847 0.663836 -0.0207602 -0.46841 0.398913 -0.275416 0.206408 -0.348042 -0.562266 0.476779 0.169683 -0.154565 0.842738 -0.398443 -0.498291 -0.697719 -0.0180971 0.444786 0.462608 0.49993 0.00743368 -0.552013 -0.217531 -1.15929 0.574207 0.502904 1.0802 -0.214838 -0.364383 0.36216 -0.454706 -0.438597 -0.126753 -1.02526 -0.0210232 0.846338 -0.139786 -1.06685 0.175472
55 -0.758643 -0.247961 0.0589492 0.342787 -0.459337 0.290903 0.00882004 0.126854 -0.229366 -0.37643 -0.172602 0.914773 -0.261215 0.711185 -0.0119727 0.121874 0.0534061 0.225988 0.416959 -0.0241198 0.148957 0.245291 0.232432 -0.4764 -0.211497 -0.173889 0.703085 -0.116099 -0.53146 0.505279 -0.330262 0.285821 -0.291875 -0.513622 0.390719 0.115403 -0.0179982 0.845687 -0.445775 -0.507463 -0.851521 0.0664386 0.327218 0.533964 0.517098 0.134439 -0.700862 -0.443871 -1.24289 0.611963 0.507333 1.2494 -0.26015 -0.354892 0.3368 -0.504466 -0.396724 -0.0343674 -0.978615 0.0421667 0.980727 -0.283571 -1.4519 0.272331
54 -0.799974 -0.253841 0.0983704 0.335306 -0.43674 0.29033 -0.00224353 0.0947183 -0.213794 -0.390424 -0.203646 0.939569 -0.255105 0.702792 -0.0148046 0.163391 0.0492182 0.248691 0.455947 -0.0316023 0.148386 0.314839 0.221498 -0.466229 -0.151733 -0.190374 0.736074 -0.157401 -0.510646 0.455998 -0.306788 0.286902 -0.281974 -0.501475 0.415728 0.166513 0.0454054 0.866603 -0.476547 -0.488693 -0.856237 0.0460546 0.293719 0.515774 0.448376 0.151632 -0.705708 -0.42043 -1.20597 0.635715 0.513474 1.22366 -0.212002 -0.309101 0.315498 -0.499131 -0.370614 -0.0427603 -0.951684 -0.0181181 0.930095 -0.319594 -1.4567 0.260583
64 -0.764804 -0.166201 0.00370818 0.37658 -0.398131 0.247995 -0.0304773 0.136997 -0.156134 -0.389644 -0.259454 0.973407 -0.276801 0.755736 0.00622182 0.14282 0.00686137 0.258898 0.493973 0.036345 0.12853 0.299302 0.269308 -0.525827 -0.209102 -0.252165 0.839995 -0.111851 -0.637819 0.511872 -0.398874 0.322131 -0.410981 -0.577876 0.485251 0.173211 -0.0614248 0.953045 -0.525318 -0.516197 -0.844653 0.020609 0.351286 0.523276 0.504321 0.123834 -0.735088 -0.430014 -1.2458 0.614877 0.422561 1.15664 -0.206775 -0.29206 0.331536 -0.527419 -0.336772 -0.0381255 -0.920725 0.0869853 0.897973 -0.24076 -1.41934 0.293151
3 -0.715207 -0.150191 -0.0302474 0.427258 -0.414857 0.25836 0.0763655 0.211875 -0.143339 -0.421155 -0.328432 1.09118 -0.226758 0.751619 -0.0461736 0.0940018 -0.00729337 0.224055 0.490387 0.0838547 0.0928703 0.255845 0.250345 -0.445718 -0.22058 -0.283892 0.777485 -0.0436501 -0.60724 0.462946 -0.411172 0.254797 -0.440439 -0.537505 0.429855 0.133923 -0.167638 0.792832 -0.445426 -0.466503 -0.68751 -0.023916 0.435359 0.513008 0.607248 0.0689314 -0.660037 -0.377933 -1.27286 0.586554 0.411256 1.18341 -0.245801 -0.332742 0.398097 -0.584958 -0.3665 -0.0684704 -0.992944 0.112359 0.905987 -0.171766 -1.34213 0.293827
68 -0.837253 -0.248991 0.0457123 0.397936 -0.400389 0.254 0.0909459 0.186648 -0.128308 -0.387 -0.317809 1.12677 -0.20583 0.813345 -0.084445 0.106915 0.0197524 0.20378 0.581835 0.0966475 0.171748 0.300977 0.287405 -0.500848 -0.300369 -0.331173 0.787054 -0.0524509 -0.600548 0.456451 -0.387095 0.263423 -0.429132 -0.56552 0.473139 0.147145 -0.157252 0.833583 -0.462083 -0.478182 -0.731925 -0.00800388 0.431733 0.530781 0.542298 0.0532548 -0.633211 -0.326815 -1.22012 0.603421 0.446159 1.13332 -0.224733 -0.312341 0.356886 -0.524999 -0.367261 -0.0867801 -0.964273 0.0469953 0.878744 -0.176091 -1.27222 0.254758
50 -0.791691 -0.131346 -0.0225319 0.431036 -0.344673 0.199325 0.0550629 0.246408 -0.0587365 -0.458517 -0.395523 1.16245 -0.202071 0.686393 -0.0299727 0.0549375 -0.036989 0.185295 0.534593 0.152044 0.0927053 0.310335 0.283824 -0.473735 -0.254303 -0.346535 0.808231 -0.0238497 -0.590711 0.379497 -0.445522 0.264086 -0.518889 -0.592318 0.487375 0.164973 -0.192977 0.845107 -0.471359 -0.419137 -0.627913 -0.0533493 0.458368 0.558516 0.571633 0.054998 -0.634024 -0.321932 -1.24091 0.645335 0.405681 1.14876 -0.19647 -0.287043 0.37094 -0.56322 -0.302035 -0.103175 -0.928814 0.104848 0.807948 -0.150277 -1.21964 0.2641
57 -0.760505 -0.0868236 -0.0565138 0.459038 -0.366347 0.227083 0.0364511 0.237541 -0.0892751 -0.451154 -0.37982 1.09336 -0.259382 0.766535 -0.0301951 0.0813907 -0.0349194 0.259813 0.529956 0.140213 0.101557 0.289825 0.301205 -0.5213 -0.268291 -0.352955 0.899677 -0.0473754 -0.701039 0.454934 -0.472998 0.28599 -0.543738 -0.611409 0.509761 0.166273 -0.198186 0.875647 -0.527288 -0.482297 -0.73507 -0.0488959 0.452387 0.552808 0.617688 0.0792921 -0.673488 -0.373281 -1.26522 0.612388 0.365613 1.12884 -0.212101 -0.282655 0.378313 -0.600304 -0.311086 -0.0616519 -0.929087 0.138256 0.835374 -0.165401 -1.31425 0.290801
93 -0.789544 -0.22168 0.0288938 0.394625 -0.425739 0.259758 -0.00647001 0.146058 -0.182669 -0.382612 -0.257531 1.0042 -0.286382 0.810317 -0.0200588 0.151861 0.026373 0.266461 0.528406 0.0286491 0.143295 0.274933 0.263187 -0.505681 -0.232915 -0.254564 0.826706 -0.123022 -0.610794 0.519925 -0.385492 0.300068 -0.37545 -0.545615 0.444117 0.146276 -0.0733443 0.8757 -0.478747 -0.498563 -0.81505 0.0185454 0.365379 0.514751 0.522297 0.107184 -0.707203 -0.427622 -1.23393 0.585202 0.421269 1.13891 -0.216577 -0.290127 0.315137 -0.517892 -0.346699 -0.0364367 -0.907728 0.0872743 0.897722 -0.232925 -1.33842 0.288854
24 -0.72913 -0.0635596 -0.0162551 0.428628 -0.339282 0.236891 0.0394895 0.226303 -0.0798535 -0.480738 -0.415306 1.08865 -0.233683 0.649359 -0.0149267 0.0246898 -0.0336377 0.233722 0.481529 0.180572 0.09043 0.270233 0.258697 -0.48151 -0.229394 -0.358774 0.814277 -0.0251487 -0.618618 0.32561 -0.446215 0.259398 -0.528178 -0.618052 0.50338 0.170835 -0.146548 0.809708 -0.503745 -0.407811 -0.675403 -0.0542531 0.425967 0.571315 0.587329 0.0918993 -0.64542 -0.337471 -1.23105 0.687143 0.423363 1.24564 -0.226421 -0.281466 0.395502 -0.592791 -0.311807 -0.0904821 -0.958235 0.0812222 0.818094 -0.215032 -1.39016 0.284975
58 -0.883316 -0.152098 -0.0316001 0.428459 -0.402071 0.222672 0.0159559 0.204105 -0.131556 -0.502772 -0.386976 1.20113 -0.272291 0.753408 0.000432277 0.104772 -0.0196514 0.255579 0.566544 0.115283 0.085635 0.328739 0.278381 -0.507943 -0.206893 -0.292313 0.894105 -0.0929173 -0.659616 0.460814 -0.457732 0.293075 -0.50217 -0.58112 0.487956 0.166055 -0.128333 0.868053 -0.536311 -0.449232 -0.736459 -0.0227464 0.462218 0.60239 0.603938 0.100682 -0.760925 -0.396274 -1.35913 0.676893 0.438122 1.23504 -0.201298 -0.283891 0.36635 -0.61211 -0.323302 -0.089027 -0.972844 0.132429 0.893476 -0.207534 -1.32555 0.307446
46 -0.946865 -0.451763 0.161125 0.390125 -0.447252 0.297975 0.270949 0.199932 -0.114379 -0.304796 -0.35639 1.41501 -0.0272294 0.838497 -0.234633 0.097938 0.0366285 0.0550797 0.621458 0.122639 0.231941 0.339275 0.292863 -0.386776 -0.33285 -0.329579 0.483464 0.031181 -0.330618 0.312851 -0.227492 0.172383 -0.331209 -0.504251 0.432443 0.133975 -0.228279 0.664659 -0.311175 -0.417241 -0.557123 -0.0273568 0.519346 0.513684 0.577716 -0.0107428 -0.58211 -0.178395 -1.29643 0.65566 0.553085 1.22276 -0.263406 -0.420502 0.418388 -0.469139 -0.510076 -0.155038 -1.16713 -0.04465 1.03756 -0.149032 -1.2627 0.202292
82 -0.787369 -0.336298 0.15148 0.366192 -0.395402 0.297417 0.288395 0.176865 -0.119314 -0.318935 -0.385655 1.32194 -0.034054 0.839664 -0.250219 0.078111 0.066955 0.123949 0.650332 0.166062 0.225151 0.266869 0.261901 -0.348357 -0.33739 -0.3973 0.547922 0.0406333 -0.387395 0.312267 -0.246679 0.144687 -0.354517 -0.511337 0.431895 0.137027 -0.237002 0.606367 -0.320208 -0.411724 -0.550209 -0.0416689 0.527816 0.53175 0.59869 -0.0236919 -0.517119 -0.160138 -1.20562 0.62033 0.556372 1.24832 -0.279223 -0.413624 0.456619 -0.501027 -0.514201 -0.145215 -1.19153 -0.0585851 0.954935 -0.132964 -1.23854 0.204773
85 -0.843905 -0.435619 0.172368 0.341063 -0.441582 0.316106 0.312542 0.14083 -0.125484 -0.313095 -0.366758 1.43235 -0.0244817 0.896529 -0.283802 0.112807 0.0807775 0.0729318 0.697002 0.152981 0.260857 0.346004 0.28756 -0.383812 -0.338012 -0.381293 0.525472 0.0247298 -0.371713 0.325719 -0.217296 0.172037 -0.326925 -0.531385 0.449955 0.148862 -0.185255 0.70018 -0.344121 -0.454484 -0.618722 -0.0321872 0.500735 0.52463 0.576249 -0.0225465 -0.567095 -0.160756 -1.26483 0.676877 0.594046 1.27125 -0.271544 -0.431134 0.437781 -0.489381 -0.552105 -0.191697 -1.23636 -0.102798 1.01394 -0.191394 -1.23979 0.174658
36 -0.899853 -0.426745 0.166138 0.371292 -0.431028 0.299169 0.305839 0.178201 -0.0987318 -0.316639 -0.386551 1.40959 -0.0121567 0.813248 -0.271112 0.0864364 0.053601 0.0557467 0.6669 0.15829 0.245216 0.337358 0.289616 -0.365966 -0.326219 -0.384312 0.513619 0.0345795 -0.353894 0.285271 -0.230222 0.159839 -0.343516 -0.525852 0.445885 0.15302 -0.209938 0.683169 -0.295339 -0.400409 -0.535321 -0.0442325 0.486288 0.484428 0.55336 -0.0265894 -0.523622 -0.150429 -1.21307 0.646318 0.563236 1.23404 -0.257219 -0.399296 0.421395 -0.468111 -0.499688 -0.183487 -1.15203 -0.0728738 0.936914 -0.164436 -1.16797 0.17691
12 -0.661754 -0.197759 0.101865 0.268692 -0.323825 0.235039 0.113859 0.136174 -0.191979 -0.421437 -0.296999 1.01688 -0.137845 0.681526 -0.134982 0.0316093 0.0846384 0.172669 0.467694 0.110848 0.168713 0.268904 0.242287 -0.418697 -0.240374 -0.287665 0.549546 -0.014727 -0.385818 0.238341 -0.240555 0.185936 -0.294181 -0.480375 0.390103 0.157066 -0.0704705 0.636813 -0.361351 -0.386902 -0.649142 0.0334705 0.362163 0.593458 0.520752 0.123394 -0.583454 -0.262425 -1.15661 0.686288 0.547502 1.30862 -0.262027 -0.335492 0.342721 -0.445963 -0.428357 -0.125776 -0.927855 -0.0588224 0.801157 -0.27088 -1.26442 0.190272
9 -0.649378 -0.128604 0.0493839 0.322711 -0.294688 0.173633 0.0331967 0.176989 -0.080405 -0.486109 -0.352748 1.10112 -0.168211 0.525942 -0.0345968 0.0546099 -0.0195348 0.15832 0.480871 0.131761 0.0831061 0.335387 0.246689 -0.421221 -0.142966 -0.271717 0.681497 -0.0451805 -0.370911 0.185917 -0.326728 0.245528 -0.372906 -0.47067 0.417151 0.215072 -0.0370533 0.673223 -0.467882 -0.309034 -0.640189 -0.0226713 0.370156 0.585422 0.487204 0.13131 -0.68568 -0.29367 -1.1781 0.766052 0.505095 1.26191 -0.184473 -0.275745 0.354518 -0.528274 -0.356196 -0.179628 -0.933791 -0.0248832 0.807193 -0.266938 -1.31222 0.210177
11 -0.77374 -0.237917 0.0794433 0.296951 -0.40818 0.284068 0.108791 0.121378 -0.192622 -0.445287 -0.327168 1.124 -0.198547 0.746309 -0.103557 0.0942943 0.073831 0.223307 0.583767 0.127609 0.144991 0.276905 0.268856 -0.443122 -0.215493 -0.289161 0.661724 -0.0498831 -0.494559 0.342297 -0.267083 0.213708 -0.335558 -0.483269 0.4315 0.143713 -0.0876367 0.698623 -0.425483 -0.413683 -0.693889 -0.0201117 0.418933 0.595866 0.552436 0.0968528 -0.658505 -0.266899 -1.19949 0.671174 0.492172 1.18635 -0.212394 -0.299251 0.332927 -0.444355 -0.396819 -0.0839786 -0.981904 -0.0359099 0.845153 -0.208835 -1.16887 0.214688
31 -0.643344 -0.0737071 -0.00301979 0.352534 -0.358422 0.225491 0.061588 0.195669 -0.114799 -0.474792 -0.363519 1.04785 -0.203715 0.639149 -0.0409804 0.0487766 0.000942058 0.213232 0.465375 0.136275 0.113863 0.295079 0.244943 -0.463532 -0.193541 -0.297145 0.73433 -0.0371355 -0.523768 0.30254 -0.377752 0.234768 -0.437194 -0.542011 0.438927 0.167568 -0.0946108 0.73475 -0.464547 -0.383276 -0.667803 -0.0460953 0.369438 0.516181 0.525991 0.101601 -0.59883 -0.307977 -1.11698 0.631988 0.40543 1.12325 -0.19335 -0.251898 0.341655 -0.530205 -0.306871 -0.103691 -0.85983 0.043105 0.753874 -0.229662 -1.27744 0.236558
8 -0.768524 -0.255593 0.075486 0.349066 -0.371538 0.230158 -0.0061795 0.110522 -0.190479 -0.308841 -0.205134 0.93835 -0.233821 0.628132 -0.0360731 0.125345 0.0418793 0.206408 0.45014 0.00259167 0.120516 0.19332 0.183763 -0.392012 -0.192875 -0.173226 0.641799 -0.107431 -0.43231 0.407501 -0.292981 0.241035 -0.279755 -0.464224 0.395227 0.112217 -0.0705395 0.709474 -0.358655 -0.418189 -0.698953 0.0542449 0.3412 0.542675 0.482558 0.11705 -0.698482 -0.415176 -1.23476 0.619986 0.522784 1.26799 -0.228797 -0.337382 0.309595 -0.467602 -0.393784 -0.0385457 -1.0044 -0.0136626 0.948582 -0.282801 -1.29306 0.256213
83 -0.742849 -0.217912 0.0918395 0.347847 -0.45677 0.302394 0.0171042 0.105838 -0.219433 -0.42102 -0.2293 0.989692 -0.252447 0.729206 -0.0235092 0.142324 0.0609967 0.263676 0.478397 0.008163 0.146632 0.279579 0.230185 -0.477323 -0.176389 -0.211494 0.750229 -0.112523 -0.52384 0.434179 -0.307 0.281604 -0.295368 -0.511508 0.430225 0.156259 0.00465564 0.82645 -0.467834 -0.477365 -0.830367 0.0571066 0.32276 0.549409 0.505379 0.143004 -0.716093 -0.432232 -1.20578 0.650373 0.508682 1.27226 -0.237946 -0.327803 0.339373 -0.510241 -0.399801 -0.0591034 -0.982733 -0.00760792 0.956858 -0.314768 -1.50104 0.275721
63 -0.730108 -0.311105 0.11218 0.33954 -0.481622 0.314575 0.0303747 0.084002 -0.25441 -0.312291 -0.101749 0.888615 -0.237137 0.722849 -0.0334232 0.186405 0.0843826 0.220894 0.443014 -0.0782531 0.186363 0.253834 0.201796 -0.477158 -0.210157 -0.130659 0.671474 -0.147401 -0.522085 0.579364 -0.295249 0.288325 -0.217802 -0.525097 0.407168 0.109048 0.0131071 0.876391 -0.41205 -0.550959 -0.907973 0.104417 0.322477 0.511699 0.486112 0.140114 -0.743902 -0.484459 -1.29166 0.620632 0.579092 1.32021 -0.273508 -0.373557 0.325212 -0.483471 -0.439284 -0.00442563 -1.04934 -0.00393798 1.05748 -0.317006 -1.51416 0.280266
80 -0.843628 -0.343446 0.150102 0.35973 -0.48328 0.329008 0.121464 0.116231 -0.249774 -0.357451 -0.194743 1.03777 -0.198123 0.804235 -0.107857 0.140033 0.0966656 0.220289 0.513975 -0.000682672 0.212524 0.253946 0.215369 -0.452543 -0.257216 -0.219882 0.642545 -0.0959628 -0.51138 0.508166 -0.270051 0.257509 -0.268579 -0.545085 0.427695 0.133994 -0.0488363 0.827911 -0.390677 -0.523163 -0.822797 0.0704173 0.353888 0.505784 0.525616 0.0945855 -0.676126 -0.380389 -1.24821 0.625713 0.545571 1.27679 -0.272967 -0.371521 0.342319 -0.454016 -0.447541 -0.0349764 -1.01148 -0.0310843 0.969495 -0.254602 -1.39705 0.260575
69 -0.586662 -0.163036 0.119802 0.284586 -0.340292 0.265084 0.154549 0.122441 -0.228027 -0.368198 -0.241044 0.809501 -0.131938 0.580485 -0.0906824 0.00970412 0.0841358 0.198176 0.384789 0.0754496 0.166894 0.157032 0.179301 -0.390769 -0.249234 -0.232241 0.519265 -0.0374202 -0.465595 0.333584 -0.260921 0.20406 -0.268198 -0.550503 0.384149 0.105285 -0.0827759 0.625356 -0.35523 -0.436251 -0.720717 0.0454787 0.356009 0.555748 0.542228 0.110458 -0.543502 -0.273398 -1.06119 0.614794 0.507782 1.20543 -0.279327 -0.31286 0.346517 -0.412255 -0.397854 -0.0456819 -0.850482 -0.050456 0.772112 -0.243293 -1.20594 0.187072
19 -0.711267 -0.0752433 -0.012507 0.405566 -0.328323 0.225151 0.141416 0.242774 -0.0407561 -0.443568 -0.454603 1.14908 -0.14878 0.615773 -0.0781639 -0.00953756 -0.0301494 0.154518 0.508786 0.231672 0.0979709 0.272946 0.263866 -0.433049 -0.243039 -0.374803 0.70461 0.0467015 -0.546661 0.253827 -0.40114 0.209927 -0.519917 -0.598692 0.493148 0.163916 -0.228818 0.735122 -0.428621 -0.371255 -0.55049 -0.0743737 0.480325 0.556549 0.613782 0.0443638 -0.563639 -0.247919 -1.1931 0.666964 0.412089 1.18299 -0.21805 -0.308341 0.396694 -0.559322 -0.324013 -0.131403 -0.969516 0.0620129 0.777829 -0.168251 -1.19797 0.228528
27 -0.828597 -0.374987 0.139013 0.349946 -0.447334 0.33296 0.298667 0.170751 -0.10502 -0.306839 -0.354922 1.30575 -0.0340494 0.842857 -0.267263 0.0880316 0.0729325 0.0869243 0.636088 0.166213 0.254423 0.313991 0.295082 -0.396478 -0.34279 -0.402543 0.551226 0.0472078 -0.409724 0.321005 -0.236964 0.170626 -0.345951 -0.546096 0.464859 0.138847 -0.214011 0.743572 -0.34575 -0.449849 -0.603871 -0.0425216 0.457569 0.46614 0.53713 -0.0174839 -0.482595 -0.166556 -1.14642 0.616913 0.53339 1.1801 -0.265908 -0.405986 0.406328 -0.468009 -0.476942 -0.157585 -1.13379 -0.0667548 0.916815 -0.151032 -1.11138 0.166919
84 -0.7297 -0.215012 0.105841 0.255122 -0.283224 0.181811 -0.00650161 0.0787733 -0.105364 -0.504655 -0.397818 1.23917 -0.154086 0.574996 -0.0741637 0.137001 -0.00130318 0.168217 0.60012 0.156075 0.0767997 0.417352 0.276892 -0.389586 -0.0419094 -0.286084 0.704737 -0.106323 -0.251592 0.0560373 -0.20598 0.215495 -0.283745 -0.353391 0.402585 0.285406 0.115338 0.665135 -0.507046 -0.268755 -0.651252 -0.0141997 0.344454 0.660429 0.404243 0.175268 -0.765032 -0.258599 -1.19528 0.895725 0.62341 1.44227 -0.144884 -0.259037 0.343959 -0.554396 -0.434486 -0.274084 -1.0967 -0.14053 0.848497 -0.395742 -1.32708 0.176913
75 -0.736508 -0.209586 0.105515 0.252238 -0.300682 0.185067 0.00316982 0.0988804 -0.103354 -0.578294 -0.458116 1.38997 -0.138009 0.643952 -0.088669 0.139797 -0.00886672 0.171286 0.659662 0.184917 0.0741052 0.466494 0.287304 -0.395276 -0.0415776 -0.316513 0.724149 -0.0970983 -0.2185 0.000150948 -0.210838 0.195252 -0.30746 -0.34419 0.404184 0.29752 0.104979 0.650762 -0.499854 -0.237311 -0.602991 -0.0426937 0.355149 0.660047 0.428209 0.169829 -0.744074 -0.226587 -1.2208 0.906439 0.612837 1.44792 -0.151627 -0.277308 0.384304 -0.576159 -0.478018 -0.308489 -1.16518 -0.162521 0.875837 -0.416082 -1.38021 0.178544
5 -0.789904 -0.284187 0.104577 0.323423 -0.479292 0.303748 0.0533188 0.106324 -0.271226 -0.374709 -0.169971 0.955738 -0.232956 0.730512 -0.0574428 0.14116 0.0814255 0.226298 0.434792 -0.0372401 0.168731 0.245626 0.223266 -0.473959 -0.199024 -0.161707 0.664908 -0.105566 -0.513051 0.495061 -0.289955 0.25915 -0.263774 -0.492888 0.387351 0.109085 0.00268291 0.821235 -0.408424 -0.502515 -0.816529 0.0579358 0.315963 0.503867 0.514944 0.147476 -0.705003 -0.438862 -1.2515 0.619846 0.509779 1.26961 -0.267241 -0.334186 0.323573 -0.474189 -0.422933 -0.027759 -0.952759 -0.00569878 0.947184 -0.294612 -1.48153 0.275134
26 -0.840834 -0.401956 0.122446 0.368328 -0.443939 0.313573 0.226695 0.143059 -0.119196 -0.271825 -0.295831 1.24256 -0.0891349 0.88549 -0.228936 0.142269 0.0635517 0.128386 0.624286 0.0818549 0.245833 0.323524 0.280862 -0.396362 -0.329342 -0.358455 0.629258 -0.0186878 -0.433022 0.396734 -0.268512 0.199104 -0.324175 -0.503692 0.429607 0.155234 -0.165435 0.802667 -0.344163 -0.477465 -0.667378 -0.0188348 0.422367 0.41962 0.531925 -0.0199358 -0.531125 -0.248068 -1.20475 0.583011 0.540786 1.18559 -0.27683 -0.423043 0.394875 -0.498892 -0.495187 -0.121747 -1.14293 -0.0311621 0.966593 -0.17706 -1.27719 0.205564
13 -0.799736 -0.112979 0.0103862 0.442199 -0.388665 0.260287 0.0800004 0.216552 -0.12369 -0.458194 -0.38881 1.11807 -0.225574 0.705277 -0.0474117 0.0355127 0.0147506 0.232094 0.536251 0.158519 0.138258 0.276505 0.276219 -0.521738 -0.294386 -0.362661 0.833664 -0.0290456 -0.658584 0.408528 -0.434602 0.27484 -0.494521 -0.670114 0.527784 0.160116 -0.190203 0.85612 -0.492408 -0.476146 -0.733924 -0.0147086 0.456756 0.614965 0.635556 0.0910846 -0.65381 -0.355745 -1.28172 0.663629 0.453079 1.23805 -0.238481 -0.317664 0.398038 -0.559687 -0.337886 -0.0656355 -0.952514 0.0862918 0.863345 -0.184513 -1.32759 0.277426
44 -0.621156 -0.0594368 -0.064574 0.425259 -0.284721 0.155883 -0.0112466 0.228199 -0.0817225 -0.439202 -0.351685 1.05461 -0.253241 0.648763 0.0109092 0.0789448 -0.0423619 0.223419 0.50379 0.115763 0.0671311 0.282134 0.269035 -0.459756 -0.21198 -0.304138 0.821904 -0.0621675 -0.562353 0.357285 -0.451714 0.276267 -0.4935 -0.547267 0.441133 0.166633 -0.1457 0.771105 -0.487391 -0.406169 -0.661034 -0.0452302 0.416311 0.568764 0.546982 0.102492 -0.672878 -0.379788 -1.25957 0.654444 0.427706 1.22017 -0.194722 -0.290389 0.348597 -0.592671 -0.320179 -0.102915 -0.978152 0.0848412 0.854989 -0.238469 -1.32221 0.260769
96 -0.721884 -0.160828 0.133552 0.252112 -0.457214 0.320696 0.116213 0.119001 -0.199175 -0.547955 -0.355301 1.05879 -0.151291 0.618775 -0.07237 0.0150864 0.0708091 0.177171 0.458005 0.14115 0.137687 0.252527 0.211238 -0.42702 -0.153545 -0.248041 0.584407 -0.0346024 -0.417001 0.207359 -0.225304 0.174299 -0.263734 -0.467963 0.375965 0.145278 -0.00450935 0.632525 -0.409252 -0.331101 -0.70695 0.0224358 0.323771 0.587807 0.505879 0.140903 -0.5881 -0.259844 -1.06032 0.711657 0.523047 1.24972 -0.230872 -0.285333 0.350391 -0.451365 -0.388732 -0.128627 -0.859486 -0.0746949 0.766266 -0.308823 -1.22157 0.191395
35 -0.704809 -0.16621 0.106938 0.240684 -0.284138 0.181506 -0.0130443 0.0974433 -0.12027 -0.562475 -0.416483 1.22212 -0.167059 0.583886 -0.0566803 0.0995237 0.0112624 0.192032 0.601299 0.174765 0.0587862 0.396569 0.265326 -0.404111 -0.0525978 -0.292153 0.713742 -0.0873886 -0.268193 0.030421 -0.225656 0.205116 -0.314538 -0.388245 0.409982 0.277487 0.102691 0.651932 -0.485671 -0.241697 -0.633602 -0.0160735 0.337001 0.660956 0.417552 0.183028 -0.7289 -0.246042 -1.15394 0.874117 0.588403 1.41346 -0.14941 -0.248618 0.359628 -0.536618 -0.427388 -0.261112 -1.06097 -0.138573 0.807498 -0.393193 -1.31142 0.171869
89 -0.742013 -0.145475 0.0551495 0.303022 -0.262922 0.156706 -0.0373468 0.129501 -0.0655947 -0.562582 -0.436766 1.2972 -0.181462 0.585553 -0.0306153 0.135822 -0.0575807 0.196248 0.620152 0.184098 0.0180653 0.413833 0.285086 -0.386436 -0.032265 -0.311604 0.769778 -0.101447 -0.285266 0.0519934 -0.283294 0.220962 -0.369682 -0.353211 0.423578 0.294026 0.0790865 0.68832 -0.521889 -0.246738 -0.593464 -0.0475408 0.372676 0.669833 0.429924 0.170206 -0.794797 -0.283679 -1.25435 0.888385 0.572376 1.45964 -0.149 -0.260961 0.366066 -0.601766 -0.429351 -0.276815 -1.15418 -0.101419 0.881982 -0.386054 -1.41552 0.209909
6 -0.818145 -0.146067 0.0520016 0.323542 -0.3378 0.188715 0.00244497 0.17362 -0.075482 -0.575209 -0.46653 1.30809 -0.171978 0.625449 -0.0416922 0.106371 -0.0343549 0.184062 0.595946 0.190595 0.0689063 0.407248 0.262987 -0.41012 -0.0806077 -0.335408 0.739463 -0.0686381 -0.332002 0.0984993 -0.300085 0.209599 -0.406276 -0.422981 0.44013 0.26242 0.0108647 0.698415 -0.48835 -0.265249 -0.568606 -0.0674193 0.384315 0.62871 0.477778 0.123804 -0.687087 -0.258198 -1.19505 0.807343 0.503336 1.31248 -0.15445 -0.244943 0.370421 -0.560301 -0.378309 -0.225934 -1.01606 -0.0631804 0.824309 -0.338473 -1.30381 0.215542
53 -0.911689 -0.452598 0.184371 0.356526 -0.459854 0.335998 0.313666 0.149334 -0.115532 -0.302868 -0.355975 1.44602 -0.0284492 0.862436 -0.293579 0.112915 0.0731593 0.0663866 0.66909 0.155507 0.281439 0.334108 0.302454 -0.391356 -0.362015 -0.379257 0.514805 0.0347113 -0.370881 0.327175 -0.20323 0.163401 -0.30499 -0.521288 0.452766 0.140487 -0.219248 0.688629 -0.326365 -0.46216 -0.618568 -0.0242353 0.506587 0.526161 0.571648 -0.0254128 -0.531045 -0.160852 -1.25799 0.665414 0.620424 1.31282 -0.290818 -0.460622 0.447671 -0.488331 -0.541844 -0.18552 -1.28666 -0.0921412 1.04196 -0.179257 -1.27052 0.170964
25 -0.629841 -0.234043 0.190887 0.296086 -0.373205 0.31241 0.252954 0.10698 -0.187361 -0.338552 -0.329887 1.02211 -0.0522797 0.647754 -0.201079 0.0163904 0.125622 0.145118 0.504859 0.151193 0.217162 0.179752 0.194376 -0.361019 -0.291902 -0.345276 0.451439 0.0433958 -0.359561 0.223802 -0.180603 0.125885 -0.265053 -0.53806 0.422813 0.126297 -0.115509 0.56754 -0.28637 -0.383062 -0.609715 0.0226104 0.416028 0.546998 0.590432 0.0572681 -0.478418 -0.179588 -1.07242 0.657691 0.574846 1.33576 -0.309496 -0.379934 0.429086 -0.426577 -0.503204 -0.12093 -1.0747 -0.138606 0.881258 -0.24126 -1.27248 0.172111
16 -0.626874 -0.251501 0.19053 0.271481 -0.303678 0.247791 0.193359 0.095286 -0.149624 -0.282249 -0.275342 0.936582 -0.0520285 0.595248 -0.180201 0.0303733 0.0891045 0.106867 0.464366 0.141345 0.188787 0.163754 0.182268 -0.32343 -0.269238 -0.309554 0.394404 0.0153533 -0.291047 0.184848 -0.157859 0.144628 -0.223885 -0.459067 0.388536 0.131962 -0.093246 0.556684 -0.266006 -0.346683 -0.566406 0.0179593 0.401659 0.561892 0.545207 0.0583575 -0.534095 -0.199634 -1.12647 0.709278 0.602592 1.3294 -0.291602 -0.383814 0.383381 -0.405732 -0.498757 -0.118298 -1.0719 -0.151738 0.894988 -0.257508 -1.25141 0.160718
45 -0.852699 -0.340229 0.0684279 0.425069 -0.403642 0.258576 0.147692 0.168153 -0.14541 -0.296676 -0.277619 1.1387 -0.141463 0.79824 -0.135595 0.141863 0.038518 0.175038 0.575743 0.0549262 0.188972 0.273904 0.248376 -0.396814 -0.285864 -0.29018 0.661285 -0.0418793 -0.512313 0.471918 -0.331197 0.220213 -0.377432 -0.52696 0.431143 0.121444 -0.176145 0.781004 -0.364083 -0.471574 -0.645722 -0.00877185 0.433761 0.421723 0.535448 0.0192092 -0.612165 -0.297432 -1.21604 0.556098 0.461953 1.0993 -0.239359 -0.336651 0.36161 -0.486179 -0.403956 -0.0736591 -0.986132 0.0345033 0.892696 -0.138942 -1.22113 0.24605
4 -0.912739 -0.419537 0.0887439 0.347404 -0.382656 0.270626 0.238047 0.179282 -0.0574021 -0.282616 -0.363074 1.40785 -0.0612595 0.944644 -0.265733 0.129327 0.041466 0.0843498 0.697216 0.157834 0.24919 0.412221 0.352575 -0.439 -0.353084 -0.394417 0.630471 0.0245386 -0.418067 0.332297 -0.278208 0.188111 -0.370363 -0.504407 0.465112 0.174739 -0.223171 0.775069 -0.380227 -0.467738 -0.597299 -0.0516489 0.495614 0.462489 0.51802 -0.0307017 -0.53928 -0.170739 -1.22128 0.62092 0.494285 1.07076 -0.220816 -0.398914 0.390243 -0.470118 -0.449176 -0.183769 -1.10782 -0.0183478 0.91409 -0.110611 -1.0825 0.160198
38 -0.783964 -0.341901 0.179662 0.292145 -0.410287 0.314992 0.21832 0.0937878 -0.241762 -0.315755 -0.230895 0.99117 -0.101435 0.786064 -0.201226 0.0922839 0.103715 0.17534 0.517077 0.0641754 0.213532 0.204412 0.221734 -0.34905 -0.283456 -0.276537 0.50458 -0.015665 -0.41851 0.35061 -0.195078 0.155574 -0.235531 -0.479867 0.39291 0.12425 -0.0651583 0.629015 -0.333347 -0.443114 -0.71235 0.034776 0.406785 0.50761 0.552856 0.0827204 -0.5709 -0.24838 -1.1553 0.631123 0.575065 1.26201 -0.274426 -0.382184 0.378521 -0.406832 -0.484211 -0.0856477 -1.02273 -0.0977049 0.870358 -0.223081 -1.20919 0.179149
98 -0.85522 -0.34879 0.110378 0.328583 -0.383193 0.291557 0.218687 0.166559 -0.0698451 -0.342925 -0.354811 1.27687 -0.09302 0.754075 -0.211429 0.0766314 0.0378454 0.087519 0.591516 0.164602 0.215656 0.344858 0.281726 -0.390106 -0.302546 -0.385805 0.583451 0.0293939 -0.409311 0.271702 -0.258633 0.183561 -0.353499 -0.510953 0.44325 0.166347 -0.179773 0.737861 -0.367293 -0.424924 -0.585185 -0.0489766 0.422574 0.476999 0.503399 -0.0110282 -0.500143 -0.174359 -1.13183 0.620478 0.514174 1.17297 -0.255697 -0.391713 0.389602 -0.465946 -0.436465 -0.16544 -1.07076 -0.0475735 0.860882 -0.181341 -1.13377 0.168134
40 -0.647054 -0.176887 0.0390966 0.387132 -0.38802 0.263049 0.039556 0.144948 -0.148065 -0.357245 -0.239323 0.997885 -0.244064 0.752687 -0.0468128 0.136561 0.0193168 0.244862 0.481627 0.0254906 0.154128 0.289457 0.252602 -0.469698 -0.249173 -0.264547 0.758419 -0.0796989 -0.585466 0.486774 -0.382847 0.278968 -0.3973 -0.56515 0.467584 0.150441 -0.10733 0.89154 -0.456446 -0.506745 -0.785898 0.00877175 0.368156 0.493565 0.501231 0.0929573 -0.69852 -0.416276 -1.24178 0.599257 0.477685 1.2336 -0.242391 -0.330682 0.357758 -0.53556 -0.370257 -0.0494603 -1.00465 0.0550933 0.922423 -0.235186 -1.47875 0.286084
99 -0.796806 -0.302544 0.103514 0.330609 -0.457393 0.30055 0.0405903 0.110363 -0.21458 -0.347061 -0.180902 0.925345 -0.219726 0.699324 -0.0515561 0.139518 0.0521826 0.190729 0.461356 -0.012224 0.175428 0.265525 0.225752 -0.463307 -0.200749 -0.189023 0.64673 -0.114433 -0.503069 0.47752 -0.291113 0.273369 -0.257161 -0.504621 0.400808 0.140111 -0.0282819 0.862459 -0.419549 -0.4877 -0.827237 0.0659014 0.318657 0.485561 0.467586 0.117533 -0.687034 -0.397438 -1.21894 0.627361 0.522783 1.20227 -0.240187 -0.337454 0.309475 -0.451017 -0.39702 -0.0499224 -0.94898 -0.0108923 0.947437 -0.274455 -1.38395 0.250059
33 -0.86612 -0.399965 0.183087 0.30578 -0.392992 0.260406 0.236809 0.142887 -0.14237 -0.354441 -0.333754 1.27566 -0.0423797 0.717957 -0.203985 0.0561967 0.0732662 0.0775471 0.588148 0.126913 0.209611 0.321633 0.277141 -0.401734 -0.300661 -0.337302 0.533179 -0.0104805 -0.333035 0.258477 -0.213163 0.169419 -0.277778 -0.494619 0.422507 0.163169 -0.110023 0.677871 -0.341637 -0.403816 -0.618746 0.0101165 0.419022 0.549617 0.514223 0.0432179 -0.567207 -0.191653 -1.16076 0.681529 0.575093 1.23659 -0.231665 -0.370811 0.390342 -0.42156 -0.490798 -0.178623 -1.05589 -0.106698 0.921852 -0.233331 -1.16357 0.159781
60 -0.630022 -0.264444 0.241348 0.196832 -0.377366 0.301126 0.215696 0.0353374 -0.242951 -0.372065 -0.273989 0.952489 -0.0474088 0.664733 -0.177202 0.0352366 0.129367 0.169319 0.498839 0.0857891 0.198196 0.192242 0.191584 -0.313361 -0.224847 -0.289098 0.442573 -0.0330284 -0.281379 0.202634 -0.123491 0.135473 -0.18764 -0.467651 0.397067 0.167344 0.0482993 0.572091 -0.319804 -0.367394 -0.700351 0.0387392 0.356091 0.602406 0.506671 0.138021 -0.558192 -0.182427 -1.05027 0.712064 0.651813 1.38653 -0.259609 -0.354362 0.378668 -0.395768 -0.526066 -0.140293 -1.0534 -0.206177 0.836826 -0.327176 -1.3143 0.149829
81 -0.584691 -0.127881 0.187259 0.226859 -0.346772 0.275698 0.194035 0.074928 -0.26944 -0.436208 -0.325136 0.824831 -0.0927583 0.578454 -0.100223 -0.0294093 0.133294 0.209455 0.430329 0.149541 0.153083 0.105464 0.16357 -0.347835 -0.231399 -0.3136 0.518118 -0.00509755 -0.411772 0.198328 -0.212599 0.139169 -0.27582 -0.574909 0.448283 0.139472 0.025917 0.638642 -0.363324 -0.372719 -0.733674 0.0264163 0.392839 0.659301 0.605346 0.161618 -0.569247 -0.223214 -1.0758 0.759013 0.608399 1.42537 -0.281288 -0.308263 0.390542 -0.426962 -0.460249 -0.0915036 -0.988096 -0.179102 0.790727 -0.336054 -1.31699 0.168972
87 -0.739441 -0.310541 0.24513 0.196895 -0.393041 0.326685 0.179913 0.0372952 -0.308617 -0.419264 -0.245254 0.92021 -0.0974025 0.711537 -0.161717 0.0543674 0.15281 0.20545 0.487821 0.0763314 0.208847 0.207744 0.210492 -0.400888 -0.238205 -0.277845 0.512317 -0.0658081 -0.383449 0.266759 -0.162431 0.179808 -0.173433 -0.525532 0.408154 0.162456 0.0652551 0.696619 -0.407112 -0.456851 -0.863379 0.0696882 0.35933 0.643807 0.527649 0.16681 -0.637559 -0.243882 -1.12325 0.765079 0.670451 1.44316 -0.297283 -0.36205 0.366755 -0.416426 -0.528038 -0.120886 -1.05984 -0.213322 0.881353 -0.372256 -1.36068 0.156294
14 -0.637306 -0.211602 0.136986 0.252321 -0.39291 0.297245 0.106416 0.107469 -0.210781 -0.425813 -0.242637 0.953607 -0.181462 0.61856 -0.0982846 0.0555479 0.0932881 0.177179 0.456305 0.0931609 0.182653 0.252489 0.212165 -0.450084 -0.212015 -0.240066 0.60713 -0.0757844 -0.460669 0.310804 -0.250696 0.243169 -0.236689 -0.526335 0.416774 0.143249 -0.00379615 0.757718 -0.451557 -0.44594 -0.845449 0.0629038 0.327126 0.611839 0.479481 0.141191 -0.640303 -0.314991 -1.15192 0.743507 0.581758 1.33576 -0.267803 -0.337639 0.335445 -0.467357 -0.427144 -0.107923 -0.989196 -0.101234 0.872586 -0.329332 -1.29974 0.182586
2 -0.720646 -0.243937 0.156907 0.252764 -0.329102 0.25006 0.122242 0.112435 -0.165238 -0.358794 -0.257848 0.921946 -0.104252 0.535083 -0.121855 0.0527494 0.0744806 0.136636 0.425279 0.0930519 0.184277 0.273739 0.226186 -0.395441 -0.207127 -0.257123 0.490062 -0.0251273 -0.332145 0.205933 -0.205717 0.179838 -0.244316 -0.505049 0.397567 0.16353 0.00231286 0.66707 -0.352837 -0.355603 -0.658946 0.0320772 0.351137 0.548857 0.497589 0.131595 -0.588728 -0.247686 -1.15381 0.741822 0.578762 1.33978 -0.262804 -0.325735 0.356166 -0.430583 -0.450366 -0.136527 -1.01029 -0.143439 0.91039 -0.325925 -1.3715 0.175737
41 -0.801389 -0.281281 0.162293 0.292341 -0.462409 0.323097 0.0476288 0.0732515 -0.261715 -0.435407 -0.205205 0.960684 -0.208006 0.750836 -0.0623656 0.108583 0.10157 0.237377 0.472075 -0.00134556 0.18501 0.291475 0.22727 -0.492398 -0.195969 -0.215422 0.684679 -0.118272 -0.47209 0.393029 -0.2515 0.272039 -0.244605 -0.539098 0.419607 0.154275 0.0552195 0.835613 -0.471097 -0.491315 -0.891469 0.086279 0.287811 0.570006 0.471424 0.1659 -0.708382 -0.39109 -1.16571 0.677101 0.570697 1.30514 -0.240402 -0.33907 0.320418 -0.450056 -0.426754 -0.0738996 -0.924158 -0.0602356 0.86922 -0.318093 -1.38981 0.228752
21 -0.631257 -0.165163 0.122694 0.295655 -0.441551 0.309756 0.0239478 0.0740973 -0.270565 -0.407225 -0.175451 0.780096 -0.238597 0.642077 -0.00206692 0.0878041 0.0874474 0.260999 0.345449 -0.0183746 0.134886 0.154724 0.162366 -0.437621 -0.171511 -0.156521 0.624435 -0.106211 -0.502917 0.430203 -0.271668 0.256209 -0.229485 -0.51387 0.387716 0.107176 0.0257839 0.725386 -0.403576 -0.468926 -0.85505 0.0785139 0.28484 0.565151 0.505642 0.163569 -0.671235 -0.429395 -1.13251 0.630178 0.539822 1.32505 -0.269848 -0.341524 0.318811 -0.466678 -0.410184 -0.00689971 -0.945251 -0.0336692 0.911554 -0.337842 -1.48326 0.260196
47 -0.734318 -0.148171 0.023879 0.385973 -0.368561 0.261392 0.0569756 0.16673 -0.118483 -0.404523 -0.345469 1.0748 -0.224991 0.793306 -0.0775991 0.100141 0.0215547 0.245857 0.565373 0.133349 0.152566 0.301371 0.284501 -0.51804 -0.244668 -0.342438 0.807401 -0.0540984 -0.638383 0.420737 -0.399756 0.285211 -0.462188 -0.617363 0.517409 0.181924 -0.131536 0.898336 -0.508405 -0.467874 -0.779126 -0.00917882 0.416102 0.542907 0.543487 0.0906131 -0.660318 -0.335832 -1.23236 0.635916 0.434109 1.17383 -0.220506 -0.296404 0.339989 -0.527761 -0.343368 -0.0830389 -0.918313 0.0677782 0.808793 -0.18315 -1.28249 0.247448
43 -0.705938 -0.251574 0.0902809 0.343047 -0.415927 0.284871 0.0469161 0.112736 -0.228051 -0.325969 -0.176128 0.882414 -0.215442 0.722657 -0.0576061 0.143702 0.0605826 0.226556 0.452038 -0.0199702 0.180962 0.264996 0.222944 -0.47549 -0.232852 -0.223759 0.694051 -0.110122 -0.527644 0.4989 -0.308474 0.281634 -0.302612 -0.548017 0.424963 0.150443 -0.0290992 0.842925 -0.423913 -0.502617 -0.853498 0.0672851 0.330265 0.502483 0.514092 0.119452 -0.665554 -0.418938 -1.23832 0.616555 0.518016 1.24012 -0.264631 -0.354817 0.341322 -0.47968 -0.421254 -0.0202524 -0.948131 0.00726284 0.943138 -0.27404 -1.46806 0.258765
61 -0.615237 -0.183329 0.137298 0.273548 -0.316342 0.246936 0.142207 0.116295 -0.176459 -0.4157 -0.346028 1.06973 -0.104186 0.510576 -0.112127 0.000899434 0.0637653 0.13043 0.457142 0.137407 0.145135 0.231385 0.187631 -0.341361 -0.205476 -0.284596 0.507965 -0.00934021 -0.309193 0.165386 -0.203019 0.174101 -0.269769 -0.477632 0.384352 0.160125 -0.0419177 0.50553 -0.333301 -0.303726 -0.594776 0.0187454 0.370772 0.619216 0.522807 0.123557 -0.57189 -0.22137 -1.09632 0.726111 0.604652 1.41135 -0.247209 -0.332917 0.404457 -0.483293 -0.475009 -0.168556 -1.07832 -0.123675 0.896557 -0.301786 -1.32463 0.16673
78 -0.719494 -0.127991 0.014466 0.352085 -0.394482 0.223798 0.0174953 0.167064 -0.176711 -0.501358 -0.338462 1.0791 -0.232182 0.639588 -0.0131408 0.046992 0.0394338 0.224759 0.484101 0.0796886 0.0891004 0.258123 0.229371 -0.45617 -0.179038 -0.227381 0.74406 -0.0799264 -0.509349 0.352293 -0.364603 0.237223 -0.381348 -0.50507 0.398007 0.126249 -0.0745139 0.720308 -0.434226 -0.39279 -0.695323 0.0177233 0.345718 0.570262 0.540823 0.134252 -0.663766 -0.360561 -1.18154 0.644356 0.458257 1.21823 -0.20052 -0.28476 0.341352 -0.508347 -0.34193 -0.0873336 -0.875938 0.0550797 0.822997 -0.251123 -1.25655 0.241648
71 -0.709388 -0.303942 0.170593 0.259954 -0.464801 0.312928 0.00837214 0.0514036 -0.274914 -0.35433 -0.112299 0.854464 -0.230135 0.728359 -0.0378168 0.157355 0.0957035 0.244627 0.428024 -0.0661725 0.19244 0.27288 0.213329 -0.479925 -0.194989 -0.154545 0.669535 -0.162245 -0.460603 0.478317 -0.249629 0.28749 -0.184877 -0.521727 0.41963 0.148816 0.0988875 0.894114 -0.428081 -0.535994 -0.9513 0.114125 0.278907 0.556139 0.453973 0.184816 -0.749533 -0.459484 -1.23124 0.688029 0.618839 1.37881 -0.265594 -0.374151 0.301664 -0.454532 -0.455983 -0.0297313 -1.0467 -0.0827741 1.04682 -0.390219 -1.56936 0.254841
28 -0.713734 -0.208942 0.112852 0.242474 -0.326799 0.222058 0.0203985 0.0966236 -0.11113 -0.531216 -0.34433 1.15267 -0.144323 0.5664 -0.0938115 0.111662 0.0352795 0.16143 0.560492 0.154713 0.0917589 0.401838 0.267611 -0.411797 -0.0784713 -0.282123 0.654682 -0.0621325 -0.277273 0.0942177 -0.209324 0.209649 -0.284949 -0.394798 0.399008 0.259769 0.0989702 0.729785 -0.474102 -0.287668 -0.660656 0.00494877 0.335501 0.649686 0.452132 0.183481 -0.7329 -0.27738 -1.20689 0.892441 0.617953 1.44561 -0.186586 -0.281265 0.355628 -0.530349 -0.428895 -0.233825 -1.04992 -0.147572 0.803841 -0.358492 -1.28404 0.183467
18 -0.796551 -0.207781 0.119996 0.212012 -0.315157 0.243287 0.0265905 0.075131 -0.166201 -0.510269 -0.366165 1.03588 -0.169684 0.628723 -0.0747903 0.0902136 0.0275851 0.216022 0.537821 0.161994 0.0758236 0.312302 0.23338 -0.37623 -0.0840432 -0.295753 0.641897 -0.0802952 -0.350185 0.111749 -0.2108 0.189952 -0.269929 -0.390081 0.400115 0.237477 0.100332 0.68574 -0.482725 -0.314602 -0.717812 0.0133338 0.351517 0.666854 0.434825 0.190669 -0.706693 -0.251636 -1.10032 0.81484 0.593351 1.43474 -0.191527 -0.251609 0.360398 -0.521407 -0.436881 -0.220738 -1.0783 -0.152062 0.803201 -0.394333 -1.27368 0.175989
10 -0.587925 -0.126076 0.138804 0.198915 -0.346347 0.247357 0.0666734 0.0412672 -0.215349 -0.47501 -0.351024 1.04368 -0.149286 0.661062 -0.0881926 0.0687163 0.0951058 0.227789 0.517221 0.120575 0.133704 0.290767 0.225059 -0.41404 -0.087153 -0.256659 0.653091 -0.0988801 -0.329045 0.115004 -0.172506 0.185494 -0.243328 -0.422899 0.387795 0.204349 0.112086 0.619044 -0.466276 -0.335473 -0.745972 -0.00433399 0.315135 0.615813 0.466011 0.173616 -0.630931 -0.244805 -1.05923 0.772994 0.570634 1.33317 -0.213107 -0.277859 0.34137 -0.460933 -0.459289 -0.158177 -0.99757 -0.162384 0.793011 -0.390709 -1.37734 0.179904
72 -0.613048 -0.170276 0.22207 0.243648 -0.385339 0.33781 0.203902 0.057792 -0.307738 -0.426893 -0.309109 0.866657 -0.0948245 0.628673 -0.142011 0.0110955 0.124831 0.21933 0.444534 0.120177 0.166897 0.12443 0.150265 -0.337062 -0.205179 -0.311998 0.501647 -0.0200019 -0.386383 0.191062 -0.174926 0.145084 -0.248359 -0.536067 0.432771 0.16536 0.0323391 0.595554 -0.377085 -0.386101 -0.785657 0.0399532 0.38115 0.639825 0.576136 0.169123 -0.586504 -0.234523 -1.08845 0.745175 0.634599 1.48707 -0.305655 -0.330275 0.425675 -0.447635 -0.527481 -0.110098 -1.056 -0.204885 0.844572 -0.359215 -1.39798 0.167878
86 -0.563854 -0.20548 0.18955 0.212236 -0.35265 0.290723 0.197676 0.0738477 -0.25469 -0.389806 -0.261944 0.850507 -0.0804447 0.639484 -0.13887 0.0272091 0.117286 0.172292 0.448513 0.108575 0.178449 0.170797 0.17569 -0.338567 -0.204713 -0.270343 0.436408 -0.0292594 -0.341187 0.203591 -0.162066 0.153574 -0.206181 -0.495448 0.38596 0.145949 0.0210457 0.594892 -0.34052 -0.376005 -0.734277 0.0522005 0.357246 0.584904 0.524731 0.138105 -0.577853 -0.208768 -1.07809 0.74116 0.601092 1.34984 -0.285562 -0.333636 0.356604 -0.397628 -0.49259 -0.120794 -0.971717 -0.188465 0.79112 -0.333499 -1.25268 0.145896
32 -0.588238 -0.200583 0.186445 0.177943 -0.379118 0.310829 0.183456 0.0427509 -0.291475 -0.440426 -0.26392 0.875045 -0.0980843 0.646783 -0.125625 0.0255123 0.137662 0.200551 0.433043 0.08741 0.175876 0.184283 0.175097 -0.361541 -0.193148 -0.247831 0.479791 -0.0468606 -0.367332 0.230592 -0.170433 0.151642 -0.209615 -0.484199 0.388939 0.145785 0.0648523 0.604841 -0.377843 -0.383811 -0.79236 0.0440149 0.339272 0.601652 0.532357 0.165763 -0.594934 -0.231797 -1.06014 0.729406 0.608056 1.34795 -0.271391 -0.322645 0.354698 -0.386213 -0.474701 -0.104817 -0.931118 -0.172671 0.785139 -0.336908 -1.3091 0.152858
88 -0.57789 -0.180063 0.21234 0.216408 -0.336245 0.289178 0.225986 0.0528629 -0.286525 -0.423092 -0.317213 0.924455 -0.0756691 0.683026 -0.158506 0.0126934 0.122882 0.209441 0.499602 0.132809 0.165809 0.152216 0.173374 -0.323733 -0.216365 -0.310983 0.5008 -0.0273203 -0.355604 0.174235 -0.176365 0.132208 -0.245381 -0.517916 0.444622 0.181478 0.0699543 0.613105 -0.373193 -0.381647 -0.76102 0.030949 0.413425 0.68592 0.59248 0.183089 -0.647275 -0.214591 -1.1786 0.837765 0.695628 1.54621 -0.302173 -0.350929 0.414164 -0.458403 -0.559655 -0.165604 -1.13349 -0.233248 0.876857 -0.383576 -1.46013 0.163245
95 -0.698467 -0.18701 0.12084 0.212017 -0.24438 0.18964 0.00652509 0.0619605 -0.104007 -0.50339 -0.383486 1.13502 -0.141461 0.546931 -0.0914954 0.114369 0.00229183 0.16184 0.565029 0.182242 0.0605316 0.394753 0.252857 -0.356439 -0.0392165 -0.298582 0.637148 -0.0816179 -0.201816 -0.00995881 -0.172335 0.186017 -0.253199 -0.321739 0.371463 0.281915 0.132227 0.600448 -0.47655 -0.237658 -0.607016 -0.017946 0.328256 0.66552 0.402944 0.185069 -0.717292 -0.222743 -1.1455 0.884995 0.631053 1.45553 -0.16292 -0.269852 0.361733 -0.535627 -0.449766 -0.279765 -1.10544 -0.177561 0.807321 -0.407479 -1.30078 0.158281
37 -0.634981 -0.167654 0.0961357 0.241473 -0.269621 0.163713 -0.0269378 0.090689 -0.115216 -0.524246 -0.362849 1.16987 -0.183318 0.571205 -0.0424197 0.112387 0.00263552 0.19385 0.562568 0.139693 0.067523 0.349011 0.248795 -0.390644 -0.0763922 -0.266821 0.687471 -0.104209 -0.283159 0.100677 -0.238138 0.214247 -0.280708 -0.374021 0.405451 0.246931 0.0995645 0.693372 -0.461051 -0.273209 -0.643171 -0.0170449 0.330615 0.641391 0.406983 0.164316 -0.764793 -0.281471 -1.23086 0.872062 0.616133 1.43415 -0.184189 -0.287639 0.322072 -0.518409 -0.424346 -0.221006 -1.07817 -0.12854 0.84467 -0.391578 -1.37401 0.184392
22 -0.623651 -0.198583 0.15311 0.260334 -0.325304 0.290922 0.129332 0.0816712 -0.179386 -0.335596 -0.255193 0.860828 -0.133632 0.661796 -0.151424 0.0627141 0.0943263 0.204285 0.462524 0.130803 0.169056 0.186978 0.206499 -0.38108 -0.228196 -0.306191 0.555953 -0.00629286 -0.39305 0.216108 -0.221127 0.167384 -0.25181 -0.508643 0.422372 0.164538 -0.0325507 0.688143 -0.355689 -0.396415 -0.70035 0.0521595 0.366029 0.563404 0.515675 0.118154 -0.583414 -0.284135 -1.14313 0.730468 0.630346 1.43714 -0.310493 -0.370715 0.381219 -0.457804 -0.4698 -0.110747 -1.05594 -0.138938 0.826454 -0.314029 -1.25679 0.172134
62 -0.611622 -0.177325 0.135941 0.349162 -0.394459 0.322643 0.237628 0.12177 -0.236289 -0.380167 -0.336937 0.99831 -0.102343 0.68572 -0.156976 0.0172924 0.0955389 0.200049 0.499705 0.126392 0.185007 0.165486 0.180307 -0.355051 -0.264008 -0.326222 0.523514 0.0235101 -0.449182 0.292064 -0.238605 0.157779 -0.33323 -0.560649 0.448609 0.144238 -0.118661 0.598944 -0.342168 -0.416381 -0.657773 0.0202991 0.433126 0.560629 0.598956 0.0900016 -0.549812 -0.246591 -1.1173 0.655093 0.547872 1.3149 -0.29027 -0.350449 0.420347 -0.479409 -0.47727 -0.0809933 -1.03 -0.0861021 0.840041 -0.226438 -1.30045 0.211376
39 -0.732439 -0.221328 0.115877 0.238223 -0.292229 0.175419 0.0821045 0.116482 -0.0683014 -0.479836 -0.403864 1.23064 -0.10231 0.645576 -0.137978 0.0854457 0.0303747 0.131342 0.613065 0.206848 0.127813 0.420409 0.277195 -0.411257 -0.143696 -0.368673 0.63093 -0.0305133 -0.259243 0.0559323 -0.212307 0.17029 -0.32527 -0.434941 0.44716 0.254225 0.0251179 0.677862 -0.418606 -0.258102 -0.552574 -0.0417543 0.340377 0.573657 0.44334 0.116576 -0.586592 -0.168213 -1.09814 0.778021 0.494322 1.17562 -0.139859 -0.249513 0.305735 -0.42218 -0.36779 -0.222447 -0.867432 -0.10419 0.686329 -0.264279 -1.02053 0.127615
56 -0.718641 -0.288759 0.206115 0.187403 -0.339531 0.270783 0.168553 0.0536118 -0.220238 -0.411536 -0.312624 1.07946 -0.0786472 0.637961 -0.165101 0.0504536 0.117587 0.15346 0.542899 0.126789 0.193881 0.301584 0.238171 -0.39358 -0.22563 -0.304122 0.517679 -0.032531 -0.312112 0.1636 -0.149525 0.169011 -0.201571 -0.504874 0.433223 0.192481 0.0298688 0.660062 -0.386159 -0.391913 -0.733358 0.0366476 0.361924 0.624363 0.494963 0.127089 -0.593503 -0.198247 -1.10317 0.758125 0.639194 1.37383 -0.239978 -0.353323 0.358999 -0.393795 -0.493779 -0.180048 -1.06188 -0.187098 0.880153 -0.333844 -1.23244 0.119746
52 -0.774402 -0.209711 0.12044 0.225912 -0.302535 0.175507 0.0205262 0.112857 -0.0724543 -0.532624 -0.443377 1.30315 -0.121034 0.593471 -0.103284 0.103413 -0.00231729 0.136946 0.633663 0.202158 0.0909609 0.444531 0.277594 -0.390452 -0.0712044 -0.344304 0.677045 -0.0697688 -0.209444 -0.0076557 -0.198297 0.17932 -0.317008 -0.371927 0.420332 0.283836 0.0799829 0.646413 -0.450444 -0.197081 -0.540458 -0.0606924 0.314508 0.597983 0.391447 0.137883 -0.63472 -0.172334 -1.09172 0.831331 0.530632 1.22682 -0.119488 -0.228225 0.308786 -0.453326 -0.371521 -0.258588 -0.915203 -0.137991 0.698722 -0.325239 -1.08766 0.135251
7 -0.792952 -0.129901 -0.0195953 0.423816 -0.335132 0.173652 0.129545 0.2832 -0.0490578 -0.477359 -0.437156 1.21353 -0.14026 0.592401 -0.0561066 -0.00787494 -0.0316517 0.13229 0.540358 0.210919 0.0923523 0.286076 0.275231 -0.456986 -0.285075 -0.360604 0.725325 0.0129563 -0.553454 0.309076 -0.432703 0.226834 -0.501889 -0.604089 0.484204 0.151928 -0.239051 0.736077 -0.408493 -0.367049 -0.543441 -0.0605706 0.487651 0.613759 0.638308 0.0583123 -0.604196 -0.259022 -1.25213 0.684922 0.439956 1.18291 -0.197238 -0.291467 0.403334 -0.541898 -0.323124 -0.135805 -0.961837 0.0788303 0.830156 -0.148646 -1.12793 0.222442
23 -0.804243 -0.10986 0.0140339 0.365697 -0.350339 0.208475 0.0507649 0.196727 -0.100416 -0.538915 -0.454631 1.24401 -0.193815 0.668997 -0.0472544 0.0381596 -0.0242162 0.197259 0.56526 0.20107 0.0742263 0.306112 0.268634 -0.452587 -0.187291 -0.337325 0.791509 -0.0459066 -0.496321 0.235449 -0.376137 0.23387 -0.445546 -0.516609 0.476658 0.192711 -0.0981512 0.733983 -0.482311 -0.338886 -0.620438 -0.048072 0.416614 0.641038 0.557959 0.105069 -0.669689 -0.29299 -1.2263 0.745852 0.475908 1.2816 -0.180482 -0.266508 0.359486 -0.554719 -0.346959 -0.161279 -0.987086 0.0236832 0.80934 -0.259918 -1.25444 0.241267
20 -0.752518 -0.153167 -0.0111831 0.423562 -0.338383 0.194181 0.0679963 0.234338 -0.0652778 -0.449192 -0.397452 1.22317 -0.195223 0.719258 -0.0522623 0.0633386 -0.0235006 0.200924 0.555701 0.154306 0.122817 0.323677 0.302457 -0.483517 -0.255235 -0.342225 0.813138 -0.0216194 -0.566834 0.360529 -0.432865 0.261341 -0.502839 -0.590005 0.476082 0.158056 -0.1892 0.821007 -0.470371 -0.430326 -0.635732 -0.0553588 0.454069 0.565121 0.575459 0.0731259 -0.667034 -0.323127 -1.27942 0.669363 0.448125 1.19176 -0.221351 -0.312334 0.387205 -0.557252 -0.332085 -0.115496 -0.999843 0.086717 0.859916 -0.181605 -1.28776 0.252315
76 -0.729955 -0.0466997 -0.0422743 0.432251 -0.356641 0.196049 0.018395 0.237159 -0.0908265 -0.49658 -0.413166 1.12592 -0.225954 0.582945 0.005145 0.0297198 -0.0427219 0.209678 0.462823 0.142656 0.0530785 0.26201 0.226959 -0.43595 -0.196522 -0.301869 0.762267 -0.0305428 -0.586829 0.331275 -0.431805 0.253704 -0.498695 -0.567852 0.470864 0.170531 -0.166039 0.760253 -0.442857 -0.377925 -0.609484 -0.0246358 0.423039 0.590448 0.585356 0.090133 -0.672034 -0.362555 -1.26415 0.672569 0.421461 1.25919 -0.2062 -0.285602 0.383643 -0.578796 -0.328386 -0.109854 -0.952495 0.0984833 0.846561 -0.216325 -1.36381 0.290245
59 -0.78291 -0.109649 -0.0583367 0.46985 -0.387387 0.204971 0.0813846 0.276027 -0.0737329 -0.473063 -0.432705 1.25869 -0.202287 0.717684 -0.0361117 0.0609378 -0.0454947 0.180501 0.53947 0.157776 0.0857632 0.302076 0.280097 -0.464119 -0.251098 -0.355212 0.83524 -0.0167551 -0.601874 0.401559 -0.46914 0.254434 -0.541252 -0.59008 0.491041 0.147664 -0.23321 0.839029 -0.46684 -0.43427 -0.613433 -0.0609173 0.49503 0.578147 0.635128 0.0386382 -0.670794 -0.322864 -1.33636 0.660622 0.420014 1.22619 -0.226514 -0.331596 0.395832 -0.610119 -0.336247 -0.108685 -1.01927 0.134296 0.889618 -0.163419 -1.26478 0.267239
48 -0.770983 -0.20998 0.118116 0.224317 -0.323147 0.208862 -0.0275242 0.0678463 -0.149583 -0.541257 -0.362988 1.16616 -0.173849 0.605985 -0.0540074 0.135292 0.0207371 0.207065 0.58592 0.129713 0.0766409 0.411294 0.266243 -0.411812 -0.049854 -0.278594 0.706692 -0.12459 -0.2676 0.0846614 -0.200723 0.21792 -0.254038 -0.35651 0.400651 0.270267 0.150022 0.700604 -0.499902 -0.287217 -0.692134 0.00710451 0.31116 0.659035 0.405845 0.191729 -0.744856 -0.275819 -1.16767 0.85489 0.596169 1.40993 -0.154671 -0.25333 0.330516 -0.515639 -0.421483 -0.229626 -1.03216 -0.157444 0.816778 -0.422861 -1.29038 0.168069
97 -0.86 -0.392308 0.219461 0.334387 -0.423964 0.323166 0.332047 0.161504 -0.171451 -0.34824 -0.344546 1.23524 0.00026919 0.696607 -0.256488 0.0423355 0.101392 0.0522255 0.59911 0.16891 0.236078 0.240859 0.233695 -0.319611 -0.305294 -0.347149 0.390977 0.0631475 -0.310785 0.232849 -0.156016 0.118709 -0.250808 -0.474065 0.394971 0.139155 -0.162529 0.52915 -0.257767 -0.353491 -0.512764 -0.0024146 0.46223 0.517775 0.560765 0.00757806 -0.488696 -0.120485 -1.11672 0.665838 0.581188 1.23471 -0.264842 -0.365058 0.42604 -0.389197 -0.493618 -0.164349 -1.05826 -0.150951 0.908303 -0.173747 -1.13552 0.150177
